37 100
sent_0 -0.000830 0.002203 -0.004999 -0.001977 -0.003532 -0.004077 -0.003137 -0.001544 -0.001032 0.000388 -0.000808 0.001852 -0.002955 0.003781 -0.004726 0.001705 -0.000827 0.000587 -0.003596 -0.003019 0.003007 0.004683 -0.001866 0.001923 0.003764 0.003946 -0.004150 -0.004609 -0.003302 0.003781 -0.004017 -0.000789 0.004579 0.000332 0.001919 -0.001845 0.001865 0.003346 -0.004817 0.002501 0.004889 0.002482 -0.002196 0.002893 -0.003968 -0.000521 0.004086 -0.002064 -0.002122 -0.003700 -0.004806 0.001788 -0.002884 -0.002345 -0.000084 -0.004466 0.000741 -0.003533 0.000893 0.001998 -0.003977 -0.000859 0.001944 -0.000858 -0.004500 0.000359 0.001638 0.000149 0.004446 0.000866 0.004034 -0.003625 -0.003607 0.003074 -0.001023 -0.003346 0.004275 -0.001522 0.002508 0.002260 0.003833 0.001237 0.002509 -0.001511 -0.002301 0.003959 -0.000719 0.004648 0.001634 0.001217 -0.003853 0.004495 -0.000501 0.000784 -0.000919 -0.002630 0.004034 0.000737 -0.004971 0.001171
sent_1 -0.002124 0.000470 0.003516 -0.001423 0.004048 0.000844 -0.004602 0.004135 0.002204 0.005021 -0.003201 -0.003978 0.004186 0.002162 -0.004454 0.003009 0.002477 0.004732 0.001959 -0.003810 -0.005094 -0.004640 -0.004987 -0.002247 0.003407 0.000591 0.001049 0.003684 -0.003327 -0.002719 0.000460 0.004499 0.000560 -0.004601 0.002774 -0.002428 0.002861 -0.001178 0.003763 0.002466 0.000317 -0.003290 -0.004069 -0.004179 -0.004435 -0.003850 -0.002917 0.002109 0.000327 -0.004455 -0.004585 0.004568 0.000627 -0.002975 -0.002856 0.002331 -0.003059 0.000868 0.004421 0.003617 -0.002193 0.000032 0.001206 0.003133 -0.003454 -0.004738 -0.004505 -0.000394 0.001397 0.000774 -0.001452 0.005009 0.000800 -0.001065 0.000572 0.002842 0.001735 -0.001917 -0.004586 -0.001302 0.001229 -0.003050 0.002366 -0.004432 -0.002471 0.002715 -0.003095 0.001438 0.000352 0.004318 -0.001965 -0.004577 0.002759 0.002630 0.003882 0.004396 -0.005022 -0.003031 0.001153 0.004419
sent_2 0.004339 0.000516 0.003916 0.001333 -0.001093 -0.000336 0.001099 0.000465 0.004520 0.004126 -0.000919 0.004475 -0.003423 -0.003716 -0.003577 0.000289 -0.004790 0.004774 0.003195 -0.004769 -0.003553 -0.001452 -0.003917 0.003108 -0.001666 0.004657 0.001097 0.004071 0.003670 0.003721 -0.000565 0.000283 0.002893 -0.001988 -0.000379 0.001210 -0.005121 0.000864 -0.000518 0.003101 -0.002109 0.004196 0.001054 -0.003379 0.002919 0.001209 -0.004730 -0.000945 0.001553 0.004374 -0.005016 0.004626 -0.001263 0.004783 0.000905 0.003205 0.000830 0.001466 -0.002237 0.000973 0.002645 0.003488 0.002685 0.001776 0.003619 -0.001661 0.001651 -0.000606 -0.000957 -0.000794 -0.000725 -0.001785 0.001180 -0.000556 0.004663 0.001924 -0.003001 -0.000492 -0.001737 0.002821 0.003677 0.003729 0.001447 -0.002355 -0.002591 0.003148 0.000181 0.003009 0.000925 0.002130 0.000333 0.002528 0.000753 -0.000424 -0.001828 -0.004146 -0.001326 -0.004502 0.004699 -0.003230
sent_3 0.003119 0.003750 0.001884 0.000695 -0.003390 -0.000331 -0.001548 -0.002750 0.000925 -0.001877 0.004163 0.004096 -0.002429 -0.003891 -0.003070 -0.000004 0.002286 -0.002918 -0.002520 0.003517 -0.000842 0.001167 -0.002663 -0.003980 0.000159 -0.000229 -0.003473 0.001218 0.000440 0.001541 -0.003555 0.002515 -0.002780 0.000194 0.002853 -0.004777 -0.001756 0.003729 0.003447 0.000384 0.003666 0.004498 0.003264 0.003541 -0.004013 0.001513 0.002035 0.001102 0.002996 -0.004654 0.002702 0.002317 -0.002403 -0.002429 0.001323 -0.001547 0.002966 -0.000539 0.002827 0.004905 -0.001998 -0.003570 0.004013 0.000416 0.004747 0.001366 0.004939 0.000461 0.000264 -0.003646 -0.001443 -0.004738 -0.003396 0.002456 -0.004696 -0.001335 0.003623 0.001927 0.001909 -0.003114 -0.000581 0.000816 0.004898 -0.002961 -0.002523 -0.002378 0.002502 -0.000430 -0.004431 0.000085 -0.002880 0.002986 -0.002027 -0.004724 0.000934 0.003438 -0.001190 0.002499 0.000111 0.000410
sent_4 0.004356 0.003018 -0.004778 0.002200 -0.000337 0.004257 -0.002604 -0.002278 -0.004024 -0.000647 -0.003972 0.001010 0.002985 0.001959 0.002607 -0.001403 0.003357 -0.000550 0.003270 0.001216 -0.003580 -0.004232 -0.004597 -0.004044 -0.000570 -0.003861 -0.004367 0.002469 -0.000803 0.002205 -0.000587 -0.000597 -0.000263 -0.000216 0.002891 -0.000824 0.004028 -0.004656 0.002689 -0.003838 0.000989 -0.004801 0.000460 -0.004939 0.004657 0.004004 0.002986 0.004100 -0.003624 -0.003135 -0.003187 0.001274 0.004126 0.004813 0.001821 0.002452 0.003945 -0.000865 -0.002718 -0.003240 -0.003709 0.003159 -0.003683 -0.002462 0.003045 -0.001828 0.004634 -0.002339 0.000405 -0.001659 0.004242 -0.001222 -0.000595 -0.000009 0.004521 -0.004547 0.002005 0.003939 -0.004889 0.000236 -0.001671 0.003571 0.000368 0.001885 -0.000309 0.001109 -0.002089 -0.004883 0.000747 -0.001755 0.000431 0.003962 -0.000565 -0.002451 -0.001346 0.004276 0.004196 0.003220 0.004253 -0.002785
sent_5 -0.004080 -0.002588 -0.001860 -0.003264 0.001163 -0.000971 0.003268 -0.003273 0.002009 -0.002477 0.000760 -0.001429 -0.004388 -0.002600 0.001603 -0.000056 0.000138 -0.003342 0.000636 0.004906 0.003210 0.000769 0.004674 0.004069 0.000957 -0.004759 -0.004129 -0.004363 -0.000505 -0.001199 0.004728 -0.003306 0.004676 0.002664 0.003297 0.001266 0.001669 -0.000152 -0.004904 -0.001386 -0.000073 0.002282 -0.000441 -0.000570 -0.003633 -0.004838 0.002652 -0.001719 0.004953 -0.002830 -0.001691 0.000289 0.002529 -0.000460 -0.003779 -0.001964 0.000080 0.001657 0.002733 -0.003616 -0.004550 0.000240 0.003062 -0.004750 0.001827 0.001817 -0.000516 0.004165 0.001486 -0.005114 -0.000258 0.003639 0.003335 0.001555 0.001749 0.000861 -0.002210 0.000756 0.001780 -0.001254 0.003543 -0.002864 0.002591 -0.002144 0.002731 -0.000564 0.003154 -0.001503 -0.002996 0.002841 -0.001885 0.002374 0.002603 -0.002932 -0.002706 -0.003145 -0.003520 -0.001233 -0.004606 -0.003928
sent_6 0.002332 0.003672 -0.003577 -0.001920 -0.002813 0.004799 0.002194 0.000357 -0.002963 0.003551 -0.001090 0.004663 0.002997 0.000111 -0.004149 0.004103 -0.003589 -0.003611 -0.000566 -0.001326 -0.002717 0.000831 -0.002676 0.001651 0.002717 -0.003932 0.000194 0.001750 0.000765 0.001769 -0.001827 0.002977 0.004536 -0.001180 0.003770 -0.005011 0.003918 -0.003051 -0.001829 -0.001657 -0.003926 0.003169 -0.002270 0.000536 0.000362 -0.003779 -0.002052 -0.003592 0.000861 -0.002815 -0.001848 -0.003150 0.002612 -0.004271 0.005135 -0.003069 0.000556 -0.005555 0.002921 -0.003692 0.000748 0.003175 -0.004123 0.001740 -0.002578 0.002057 0.001997 -0.003200 0.002907 -0.005272 0.002595 0.000828 -0.000838 0.002258 0.002776 0.004796 -0.002204 -0.005283 0.004735 0.004712 0.002608 0.001231 0.002900 0.002671 -0.000795 0.004434 0.002750 0.000947 -0.001511 0.003126 -0.004839 0.003442 0.004246 -0.002631 -0.002575 -0.003643 -0.001440 0.004829 0.001394 -0.002137
sent_7 -0.003451 -0.002153 0.000952 -0.001935 -0.000046 -0.000804 0.003440 -0.000958 -0.001291 0.001913 -0.002712 -0.000134 -0.001901 0.001481 0.004080 -0.000565 0.002882 -0.000688 0.001441 -0.003622 -0.000731 0.003907 0.000759 0.002432 0.000096 -0.000037 0.003237 -0.004290 0.000603 0.004419 0.000330 -0.003173 0.003262 -0.002607 0.001878 0.000560 0.004205 0.001529 0.003468 -0.004773 0.004903 -0.004238 -0.001999 0.003983 -0.005075 0.003407 0.003524 -0.000537 -0.002341 0.002826 -0.000192 -0.003754 0.004260 0.003805 -0.000220 0.003293 -0.000601 0.001822 -0.000814 0.000424 -0.002654 0.004601 -0.002008 -0.003854 -0.003268 -0.004833 0.002240 0.000894 0.003145 -0.000154 0.002800 0.001983 0.002890 -0.000758 0.001261 -0.003190 -0.001662 -0.002907 -0.000749 -0.002261 -0.001136 0.004789 -0.001614 0.004799 0.001262 -0.001194 0.003666 0.000981 -0.002553 0.002969 -0.000768 -0.001517 -0.001471 0.001537 -0.002146 0.002998 -0.001914 0.000219 -0.000067 0.003500
sent_8 0.004140 -0.002817 0.001060 0.004380 -0.000443 0.004418 -0.002018 0.000900 0.001465 -0.002647 -0.004996 -0.000664 0.004808 -0.001330 0.002716 -0.003432 -0.001628 -0.003762 0.002146 0.001840 0.002179 -0.003233 0.001971 -0.002613 -0.000770 -0.001712 -0.001759 -0.004701 0.001103 0.002279 0.001148 0.001776 -0.003346 -0.003647 0.000456 0.003684 -0.003141 -0.000314 -0.001098 0.000134 -0.003355 -0.001867 -0.002762 0.003380 0.003246 -0.000673 0.001429 -0.003267 0.000392 -0.002156 0.003373 0.001948 0.001090 -0.003974 -0.000276 0.004881 0.004511 0.000919 -0.003534 0.001179 0.001163 0.000122 -0.000977 0.001558 0.003750 0.002252 0.000596 0.004233 -0.004617 0.004683 -0.004904 -0.002836 -0.000649 -0.004047 0.001492 -0.004458 -0.002111 -0.004330 0.002194 0.002282 -0.001173 -0.002708 0.002895 -0.001709 0.003184 0.000617 0.000394 -0.004889 0.001224 -0.000903 -0.002551 -0.000424 -0.000898 -0.000459 0.005390 -0.001776 0.003084 0.000875 0.004418 -0.001531
sent_9 -0.002256 0.004844 -0.004464 0.004876 0.000784 -0.001055 0.005082 -0.004756 -0.000657 -0.004447 0.000534 -0.002915 0.001926 0.005315 0.003326 -0.000900 0.001845 0.002510 -0.000080 -0.000048 -0.003167 -0.002195 -0.003522 0.002577 -0.000056 -0.001258 0.003438 0.000052 -0.001347 -0.001821 -0.004289 -0.000580 -0.004676 -0.002230 0.000702 0.004031 -0.003392 0.001522 -0.000532 0.003291 -0.003589 -0.004766 -0.001695 0.002818 -0.002840 0.002693 -0.001639 -0.002344 -0.004413 -0.001286 -0.001753 0.002250 -0.004413 -0.003690 -0.004591 -0.004086 0.001363 -0.001619 -0.001671 0.000084 0.005344 0.003883 0.001564 0.005022 -0.004698 -0.004788 -0.000388 -0.001745 0.004263 -0.000727 -0.000038 0.004318 -0.000554 0.003914 -0.002053 -0.002109 -0.001662 0.000565 -0.002654 0.002669 -0.003332 -0.003242 0.004169 -0.002645 -0.001007 0.001936 0.000350 -0.004296 0.003442 0.005307 0.003377 -0.001603 0.000580 -0.001763 0.001180 0.004206 -0.001592 0.002369 -0.001189 0.002814
sent_10 -0.001243 0.004701 0.003083 0.003425 -0.000202 -0.002437 -0.004303 -0.002013 -0.005566 0.002198 0.001385 -0.000333 0.003565 0.000629 -0.005216 -0.004234 -0.003387 -0.002180 -0.004417 0.000623 0.000796 -0.000352 -0.000237 0.003961 -0.000457 -0.005837 0.003119 0.000918 0.002821 0.005104 -0.004464 -0.002027 -0.004363 -0.001081 0.004537 -0.004778 0.000184 -0.003798 0.001877 0.003853 -0.004644 -0.000831 -0.003473 0.004839 0.004967 0.001060 0.005612 -0.001049 0.004796 -0.000898 -0.003077 0.005247 0.001572 -0.004852 0.003902 0.002207 0.000894 0.001486 -0.002542 0.000368 0.003741 -0.003766 -0.004325 0.004546 0.001373 -0.000213 -0.002914 -0.002133 0.003128 -0.001333 -0.005377 0.004379 -0.002842 0.002967 0.004559 -0.000033 0.000900 0.000069 0.001503 0.004724 -0.001866 0.004925 0.001379 -0.004123 -0.002241 0.002558 -0.002374 -0.003854 -0.004021 0.004731 0.001321 0.005228 -0.001153 0.000890 0.002157 0.000228 -0.003998 0.003357 0.005547 0.000199
sent_11 -0.003096 0.002409 -0.005016 -0.001831 0.004174 0.000854 0.003540 0.001072 0.003282 0.003732 -0.001696 -0.003811 0.002109 -0.000631 -0.003583 0.000935 -0.004601 -0.002956 0.002880 -0.004818 -0.002080 -0.004576 0.004916 0.000772 -0.002100 0.004424 0.000110 -0.000321 0.000885 -0.002393 -0.001955 -0.001378 -0.002583 0.000969 0.001802 -0.004206 0.004625 0.002471 0.003120 0.002442 -0.004280 -0.000105 -0.000446 0.001737 -0.000548 0.002117 0.001694 0.001857 0.001043 -0.003506 0.002728 0.002650 0.004078 -0.002612 -0.003175 -0.001125 -0.001724 0.003279 0.001146 0.002594 -0.000840 -0.004115 -0.003765 -0.001469 -0.003115 0.003251 0.001062 0.001876 -0.000015 -0.004093 -0.002507 -0.000388 -0.003037 -0.004688 0.002203 0.002203 -0.001717 0.003486 -0.000761 0.003503 0.001509 0.000648 -0.003122 0.000367 0.003927 -0.002182 0.003674 0.004066 -0.001607 0.001625 0.003945 -0.004281 0.003663 -0.003113 0.003319 0.001800 -0.001537 -0.003555 0.001236 0.003462
sent_12 0.003357 0.001354 0.004662 0.000996 -0.002965 -0.000629 -0.001597 0.004874 -0.001314 0.004974 0.000140 -0.003156 -0.004121 -0.001248 -0.003774 0.001224 -0.000884 0.004745 0.004303 -0.003550 -0.000918 -0.000631 0.000645 0.002794 -0.000101 -0.000953 -0.002557 0.003980 -0.004901 0.003348 -0.003051 0.001960 -0.001471 0.004652 -0.003650 -0.003175 0.003907 0.000896 -0.002036 -0.004923 -0.002684 -0.003670 -0.003155 0.003974 0.003771 0.002017 -0.000161 0.003349 0.000108 -0.001472 -0.002272 0.004336 -0.001188 -0.000165 -0.002410 0.003851 -0.001139 -0.002181 0.002214 -0.003127 -0.003688 0.003468 0.002363 0.001104 -0.002468 0.001158 0.001360 -0.001659 -0.004424 0.003710 -0.000600 0.002668 -0.002422 0.000872 -0.000655 -0.001209 -0.003723 -0.002582 -0.004101 -0.001757 0.002430 0.001310 0.001886 -0.004953 0.001847 0.000306 -0.002638 -0.003318 -0.003250 0.003629 0.004797 0.004236 -0.001475 0.002739 0.000682 0.003008 -0.000039 0.001025 0.003040 -0.004021
sent_13 0.000311 -0.001180 0.000952 0.004571 -0.001009 -0.001187 0.003017 0.001315 -0.001044 0.001985 -0.000968 -0.003639 -0.000444 -0.001534 -0.002870 0.004316 0.001850 0.000936 0.002401 0.000382 0.002048 0.004169 0.003565 -0.003251 -0.002370 -0.004363 0.004763 -0.002674 0.001619 -0.004156 -0.002956 0.000022 -0.003968 -0.001096 0.000443 -0.001644 0.000569 0.000426 -0.001132 0.002020 0.001808 0.001909 0.000538 -0.001613 0.001114 0.004381 0.001063 0.004887 -0.000533 0.002371 -0.004751 0.002679 0.000177 -0.005048 -0.002312 0.000228 0.002695 -0.004576 0.000494 0.003102 0.001691 0.004371 -0.004320 -0.002154 0.004278 0.002626 0.000979 0.003337 0.004050 0.004577 0.004980 -0.003575 -0.004278 -0.004223 -0.004833 0.004847 -0.003985 0.003613 0.001891 0.000067 -0.001519 -0.001341 -0.002372 0.004076 0.002264 -0.004626 -0.000300 -0.002190 -0.004804 0.004030 0.002758 -0.001681 0.003190 -0.001899 -0.001818 0.004182 0.004815 0.000201 0.004605 0.003864
sent_14 0.000244 -0.000875 0.001848 -0.000513 0.001331 0.004725 0.002960 -0.002013 -0.004192 -0.002881 0.000207 -0.000645 0.003185 0.004775 -0.003231 0.003573 0.004517 0.004367 -0.004741 -0.004565 -0.004901 -0.002270 -0.004792 -0.002084 -0.001325 0.004315 -0.000467 -0.002232 -0.000142 0.001536 -0.003929 0.002560 0.003414 0.003340 0.004130 -0.001314 -0.000497 -0.003797 -0.002776 0.004978 -0.002035 0.003907 0.003533 0.003645 -0.003530 0.003982 0.001443 -0.002603 -0.001424 -0.003648 -0.000921 -0.004056 -0.003352 -0.003206 0.001828 0.000318 0.003866 -0.002892 0.001455 -0.004434 0.000689 0.003846 0.004688 -0.004553 -0.002257 -0.002893 -0.004429 -0.004846 0.000167 -0.005008 -0.002307 0.001455 -0.002054 -0.002089 0.000890 -0.001040 0.002202 0.000424 0.001497 -0.000851 -0.002213 -0.003288 0.004719 0.003046 0.004268 -0.002683 0.004493 0.004242 -0.002344 -0.001857 0.000541 -0.003007 -0.000121 -0.003570 0.004781 -0.000244 0.004869 0.001494 0.000049 0.004722
sent_15 -0.003725 0.001318 0.001331 -0.000828 -0.004433 -0.000247 -0.000311 0.003047 -0.002307 -0.001123 -0.002441 0.001741 0.004727 -0.003209 0.003238 -0.002523 -0.004475 -0.003354 0.004311 0.003918 -0.002443 0.004824 0.003278 -0.000581 -0.000406 0.001555 -0.003178 -0.004511 -0.002187 -0.005074 0.001557 0.000296 -0.001837 0.003040 -0.003777 -0.002477 -0.002224 -0.003221 -0.004015 0.003748 -0.004433 0.002060 -0.003569 -0.005023 0.000593 0.004188 0.003334 -0.001814 -0.005009 0.003129 0.003033 0.003557 0.001754 0.003135 0.003982 -0.000600 0.000673 0.000290 0.001864 0.001825 0.000163 0.003139 0.000178 0.002955 -0.002344 -0.003138 0.004732 0.002251 -0.002110 0.000814 0.004883 -0.004130 -0.004281 0.001396 -0.002811 0.002763 0.000643 0.001874 -0.004113 -0.004317 0.001163 -0.001159 -0.004381 -0.001275 0.001581 -0.003496 0.003834 0.004523 0.004810 0.002062 -0.000855 0.002353 -0.002155 -0.001901 0.000691 0.001155 0.003709 -0.002665 0.002486 0.004377
sent_16 -0.004730 -0.000217 0.001676 0.003489 -0.003031 0.003657 -0.001346 0.003861 -0.004835 -0.004107 0.004827 0.001329 -0.000691 -0.003272 0.001570 -0.004840 -0.001916 -0.002013 0.001065 0.001510 0.003549 0.004014 0.001574 0.000679 -0.000971 0.004525 -0.003747 0.003877 -0.002096 0.000674 0.001953 -0.002545 -0.003406 -0.000007 0.002997 0.001873 -0.003899 0.004070 -0.000343 0.004614 0.000495 -0.004284 -0.003216 0.003522 0.002089 0.004014 -0.001630 0.000313 0.001690 0.000744 -0.002631 -0.000648 -0.002599 0.003339 0.004996 -0.004377 0.002252 -0.001818 0.001373 -0.002450 0.001673 -0.001254 -0.002070 0.004339 0.004577 0.001060 -0.002843 0.004500 0.002402 0.002351 -0.003156 0.003348 -0.002565 0.001341 0.002112 0.002350 -0.001076 0.002602 0.004171 0.001124 -0.004134 -0.003589 -0.003759 -0.003333 -0.003706 0.003064 -0.004576 -0.002714 0.003713 0.004856 0.000957 0.004892 -0.004584 0.004337 -0.001653 0.002821 0.003282 0.003722 -0.000237 0.004252
sent_17 -0.002446 0.004276 0.001120 0.004750 -0.004675 0.002207 0.000641 -0.000061 -0.002324 -0.001742 -0.002457 -0.002813 0.002906 -0.000008 -0.004108 0.002806 0.000352 0.002415 0.000151 -0.000966 0.004777 -0.004566 0.004259 0.004262 -0.001096 -0.002749 0.001223 -0.003132 0.003058 -0.002501 -0.002099 0.004091 0.004012 0.000403 0.003541 -0.001436 0.004927 -0.000665 -0.001974 -0.004611 0.004866 -0.000283 0.002412 0.001382 0.002178 -0.004455 0.004109 0.004196 0.000444 0.004633 -0.002134 0.000934 -0.000992 0.001310 -0.001981 0.003156 -0.004251 -0.004479 -0.004485 -0.003438 -0.001113 0.004460 -0.003824 0.001344 0.000262 -0.001415 -0.002957 -0.002782 -0.004483 0.002144 0.001627 -0.000595 0.002163 -0.003852 0.004316 0.003459 0.001588 -0.001173 -0.000858 -0.000275 0.004307 0.003540 -0.000293 0.000567 0.003696 0.004332 0.001367 0.002487 -0.001435 0.004051 0.003315 0.000477 0.003628 0.003480 0.002961 -0.003603 0.000340 0.003924 0.002614 -0.000798
sent_18 0.004939 -0.002428 -0.001489 0.004707 0.003070 0.004209 -0.004931 -0.001188 -0.002944 -0.002101 0.002365 0.002326 -0.000197 -0.001346 0.000814 0.000149 0.000479 0.001061 -0.001009 0.002690 -0.002356 0.001359 0.004746 -0.004924 0.002248 -0.004095 0.000261 0.001182 -0.002741 0.004343 0.001284 -0.002553 0.002733 -0.003940 0.000685 -0.004188 0.000902 -0.002597 0.001284 0.002211 0.000205 0.001407 0.002991 0.003265 0.001321 -0.000501 -0.000785 0.003799 0.002137 -0.003249 0.000682 0.004212 -0.003572 0.003435 0.003394 0.000068 -0.004661 -0.003676 0.004240 -0.004834 -0.001324 0.001299 -0.003107 0.004991 -0.003482 0.000260 0.001130 -0.002749 -0.000543 -0.000160 0.002492 0.001432 -0.000319 0.001620 -0.000351 0.000188 0.001556 -0.003327 0.002925 0.001148 0.004884 -0.002655 -0.000253 0.003970 0.001145 0.002541 -0.000865 0.001811 0.004429 -0.002895 0.003088 0.004885 -0.004982 -0.002794 -0.003663 0.002544 -0.004061 0.005262 -0.000951 0.004046
sent_19 -0.002996 -0.000202 0.003561 0.001279 -0.000261 0.000228 0.000893 -0.000784 -0.003534 -0.003743 -0.003635 -0.004424 0.000981 0.003786 -0.001586 -0.004434 -0.000837 0.000871 -0.000765 0.002908 0.004719 0.003084 0.002203 -0.000054 0.001872 -0.005356 0.004635 -0.003545 0.003844 0.003322 0.002997 -0.002128 -0.002767 -0.000811 0.003859 -0.000748 0.004632 -0.001541 0.000821 0.004984 0.001488 -0.004903 -0.000767 -0.001682 0.000509 -0.002159 -0.003413 0.002005 0.002059 0.003578 -0.003988 0.003317 0.003150 0.001303 -0.002915 -0.002426 -0.000962 -0.000042 -0.000246 -0.000619 0.003707 0.004110 0.002836 0.004287 0.000686 0.004339 0.000897 0.000941 -0.001955 0.001547 -0.004749 -0.003423 -0.003619 0.001503 -0.002972 -0.001497 -0.004549 -0.002637 0.004741 0.000671 -0.003327 0.000723 0.004717 0.003676 -0.000856 -0.001426 0.002735 -0.002652 -0.002673 -0.003597 0.003861 -0.000248 0.000852 0.002302 0.003424 -0.000896 -0.002959 0.003688 -0.004298 0.004495
sent_20 0.000882 0.003683 0.001069 -0.002548 -0.001908 0.000283 0.004653 -0.003204 0.000183 -0.001520 0.002734 0.003140 -0.000773 -0.002934 -0.004190 -0.003075 -0.002259 0.000842 0.003703 -0.003678 0.004581 0.001771 0.002343 0.004710 -0.000820 0.000314 0.001671 0.000121 -0.002089 -0.003907 -0.002055 0.002667 0.001322 0.002960 0.000117 -0.002619 0.001152 -0.001848 -0.004691 0.004077 -0.000797 -0.000751 0.002316 0.004379 -0.004336 -0.003209 -0.001802 -0.002526 0.000017 0.003137 0.003618 0.000912 -0.002609 -0.003199 0.002432 -0.002695 0.000495 0.002506 -0.002624 -0.003134 -0.004483 -0.003575 0.003551 -0.003922 -0.002641 -0.004656 0.001807 -0.002556 -0.000839 -0.003676 -0.001319 -0.000762 -0.000227 -0.000730 -0.004063 0.002682 -0.003600 -0.000679 -0.002196 -0.001896 0.001646 0.000176 -0.003030 -0.000324 -0.001627 0.002063 -0.002709 0.003358 0.000232 -0.000007 -0.002552 -0.003158 -0.000264 0.004671 -0.003600 -0.002205 0.003076 0.001585 -0.002187 -0.001888
sent_21 -0.000789 0.001287 0.002284 0.003916 0.001765 -0.002514 0.004391 0.002739 -0.002105 -0.001961 0.003712 -0.003815 0.001597 -0.002101 0.003122 -0.001326 0.002279 -0.002995 -0.000196 0.002934 -0.000929 -0.003838 0.001544 0.002721 -0.002300 -0.000682 0.004008 0.003608 0.002120 0.000865 0.003039 0.004249 -0.004997 -0.001043 0.000769 0.002365 -0.004131 -0.001047 -0.002414 -0.000715 -0.000110 0.001517 -0.000106 0.001196 0.001098 -0.000708 -0.004755 -0.002907 -0.001709 -0.003438 0.000781 0.001268 -0.000167 -0.001895 0.001438 -0.003000 -0.004980 0.002051 -0.000751 0.001797 -0.002815 -0.004070 -0.001400 0.002259 -0.003869 -0.003154 -0.000693 0.001084 0.002332 -0.003918 0.001072 -0.000995 0.001751 -0.003093 0.000539 -0.003147 -0.004814 -0.000080 -0.003185 0.001659 0.000409 0.002910 -0.000896 0.004770 0.000329 0.000115 0.002544 0.000659 -0.001447 0.000262 -0.002843 -0.000987 -0.004473 -0.000383 -0.001945 0.000063 -0.004592 0.000702 -0.001734 0.000711
sent_22 0.002328 -0.000597 0.001632 -0.002611 0.004986 -0.002571 0.004408 -0.002828 -0.000024 0.003212 0.002166 0.002056 -0.000596 0.002542 0.004200 -0.000586 0.000280 -0.004340 -0.001092 -0.000328 0.003951 -0.003894 0.002311 0.000455 0.001065 -0.004702 -0.003533 -0.002160 -0.004951 0.001692 0.003703 0.000470 0.000432 0.001157 -0.001978 -0.001333 0.000749 0.003092 -0.002984 -0.001725 0.002429 -0.001591 -0.004524 -0.003436 -0.003061 -0.000049 0.001351 0.003802 0.004025 -0.001928 0.002534 -0.002176 -0.001314 -0.002073 -0.000863 -0.002853 -0.001810 -0.003781 0.004630 0.000040 0.004231 0.002462 -0.000423 0.002546 0.001280 -0.001962 0.000217 0.002123 -0.001947 -0.004875 -0.002317 0.002967 0.004300 0.001253 -0.003672 0.002576 0.000269 0.002539 0.003586 0.004475 0.001545 0.003543 0.002426 0.002271 0.003588 0.004230 0.004021 -0.001042 -0.004160 0.003296 0.000389 0.000421 0.003252 -0.004680 0.003780 -0.004654 0.001932 0.000875 0.001417 -0.001259
sent_23 -0.001721 0.000540 0.004349 0.001009 0.001724 -0.000095 0.004718 0.002325 -0.002192 0.001757 0.000125 0.004314 -0.001642 -0.003794 -0.003413 -0.001743 0.003400 -0.002946 0.001409 0.000951 -0.000337 -0.005462 0.002750 -0.001963 -0.000824 -0.001957 0.000892 -0.004651 -0.000038 -0.004104 0.005078 0.001462 -0.001072 -0.003854 0.002732 0.003473 -0.001280 0.002699 -0.002612 0.004804 0.002271 0.000566 0.003537 -0.002029 0.004396 0.001699 0.003366 0.001120 0.003985 0.001511 -0.003704 0.001676 -0.002242 0.003922 -0.002663 -0.002029 -0.004587 -0.001090 0.000741 0.000344 0.004123 -0.001146 -0.000908 0.004263 0.000935 0.001161 -0.002207 -0.000026 0.000710 -0.004152 -0.005467 -0.003756 -0.000170 -0.004968 0.001656 -0.004210 -0.002502 -0.001053 -0.003526 -0.001555 -0.004559 0.005716 0.001706 -0.001285 -0.004481 0.000120 -0.000286 0.004202 -0.002710 0.001883 0.001521 -0.002597 0.000125 0.002849 -0.003218 0.000491 -0.004379 -0.004182 -0.003778 -0.000211
sent_24 0.004048 -0.000901 -0.004447 0.003650 0.000225 -0.002054 0.004799 0.004335 -0.002291 -0.002971 0.000958 0.003185 -0.001702 0.000942 -0.003404 -0.002867 0.002530 -0.003255 -0.002399 0.001874 -0.005008 -0.004600 -0.002128 -0.001393 -0.001515 0.003142 -0.004308 -0.001307 0.001588 -0.003845 0.003399 0.001304 -0.003902 -0.002779 0.002273 -0.000840 -0.000277 0.003762 -0.003665 0.004675 -0.004855 -0.003842 -0.002638 0.002970 -0.000330 0.001573 -0.003352 -0.003424 0.000049 0.002646 -0.000482 0.003690 0.001594 -0.002567 -0.002828 -0.001291 0.002511 0.004484 0.003464 -0.002401 -0.000715 0.001132 0.000422 -0.001222 -0.004144 0.002137 -0.004277 0.003534 0.003831 0.002154 0.000084 0.002151 -0.001039 0.003035 0.002924 -0.003254 -0.001904 -0.001385 -0.001531 0.000688 -0.004581 0.001494 -0.003187 -0.000848 -0.000449 -0.001716 -0.001209 -0.003180 -0.004243 0.000552 0.001209 -0.003682 -0.002556 -0.002161 0.003151 -0.003453 0.000408 0.000481 -0.001576 -0.001541
sent_25 0.004702 0.000256 0.001203 -0.000657 0.001728 0.000813 -0.003554 -0.001746 -0.000046 -0.003609 -0.001187 -0.002496 0.003151 -0.001556 -0.002297 -0.000940 0.001930 -0.004588 -0.003234 0.002071 0.002251 0.001594 0.003368 -0.003689 0.002134 0.004469 -0.003668 -0.002279 0.000328 -0.001509 0.002069 -0.004712 -0.003540 0.002217 0.004419 0.004410 0.003787 -0.003544 -0.003217 -0.004294 0.000442 0.003932 0.000281 0.002464 -0.003495 0.003866 -0.003440 -0.004640 -0.000938 0.000243 0.004956 -0.004445 -0.002047 -0.003921 -0.001006 -0.002442 0.000468 -0.001186 0.004588 0.003313 0.003508 -0.004084 0.001015 -0.003241 0.003802 -0.004708 -0.003549 -0.000990 -0.000597 -0.002441 -0.003851 -0.003947 -0.001850 0.004802 -0.003335 0.002305 -0.002342 -0.004330 -0.004757 -0.003580 -0.000646 0.002363 0.002211 -0.001345 -0.000496 0.002732 0.003383 -0.001928 -0.004893 -0.004967 0.001979 -0.002388 -0.000293 -0.003425 0.003163 0.000292 0.000347 -0.002442 -0.000190 -0.005007
sent_26 -0.002154 -0.001791 -0.002383 -0.004713 0.000418 0.002763 0.004146 -0.000032 0.001146 -0.002103 -0.003312 -0.003499 0.001994 0.002306 -0.002946 -0.000962 0.001071 -0.003819 0.002827 0.001401 0.000849 0.002574 0.004567 0.000180 0.003853 -0.000552 0.001421 0.004637 0.001488 -0.001882 0.001430 -0.001776 -0.001790 0.001167 -0.003598 -0.000277 0.004508 -0.001181 -0.002662 -0.000273 0.003520 0.003459 0.003405 -0.005143 -0.002746 0.005042 -0.004209 -0.000169 0.002767 -0.004030 0.001891 -0.000306 -0.002808 0.004060 -0.002994 0.001114 0.002502 0.001056 0.001679 -0.003582 -0.002341 0.000426 -0.000698 0.001287 0.003414 -0.002972 0.004442 -0.001098 0.004684 0.001014 0.003140 -0.000001 0.000205 -0.001356 -0.004135 -0.001335 -0.002710 -0.004550 -0.002252 -0.003565 0.003622 -0.004431 -0.003335 0.002232 0.003825 -0.002928 -0.004894 0.004647 0.001990 -0.002578 -0.000599 0.000933 -0.001584 0.003613 0.001853 0.004930 -0.001653 0.004207 -0.000729 0.001554
sent_27 0.002281 0.003494 -0.001213 -0.000624 0.003360 0.001929 0.004645 0.004525 -0.003384 -0.002515 0.002261 0.002473 0.001071 0.004011 -0.002764 -0.001637 -0.000159 -0.001846 0.000337 0.001653 -0.002892 -0.000365 0.004841 -0.001457 -0.004662 0.002973 0.000111 -0.004342 0.003929 -0.000964 0.004137 -0.001067 -0.004229 -0.002406 -0.001297 0.002128 -0.002856 -0.000832 0.003712 0.000529 -0.004113 -0.004834 0.001970 0.004637 0.002792 0.002677 0.001843 0.003106 -0.004480 -0.002342 0.001741 0.003871 0.001871 -0.003348 0.004339 0.003832 -0.004241 -0.003018 -0.002195 0.002273 0.003687 0.000796 -0.003109 -0.000838 -0.003817 0.003991 0.002605 -0.000128 -0.000219 -0.004492 -0.001798 -0.003517 0.002822 0.000676 -0.002597 -0.002540 -0.002377 -0.001609 -0.001242 -0.001750 0.001861 -0.004264 -0.001737 0.002491 0.004405 0.003197 -0.002518 -0.002611 -0.003370 0.004061 -0.002408 0.002621 -0.002157 -0.004843 0.002373 0.002152 -0.004250 -0.001670 0.004558 -0.003389
sent_28 -0.004260 0.000780 0.004067 -0.003948 0.000193 0.001623 -0.003332 -0.004886 0.004125 -0.004685 -0.002252 0.001435 -0.002394 -0.004947 0.000895 -0.001800 -0.003478 0.004860 -0.003402 0.002405 0.003621 0.004011 -0.003322 -0.002715 -0.004834 0.004577 0.004046 0.001245 -0.003802 -0.003464 0.000743 -0.002733 -0.002050 -0.003118 -0.003395 -0.000289 -0.000048 0.000031 0.005183 -0.003702 0.002394 0.003167 0.001074 -0.000541 0.003807 0.003334 -0.004792 0.004458 -0.005140 0.000783 0.000848 0.003179 -0.001047 -0.003990 0.000804 -0.004889 -0.001325 0.005180 0.003754 -0.003339 0.002854 0.002839 0.004476 -0.003089 -0.000129 0.003404 0.001781 0.000907 0.001771 -0.002593 -0.004444 0.002347 -0.001796 -0.001026 0.000924 0.001615 -0.002954 0.003438 -0.001321 0.001054 0.004582 0.000348 -0.001669 0.001245 -0.000143 -0.000951 0.002231 0.004285 -0.000027 -0.004500 0.000661 -0.002694 -0.004707 0.002806 -0.002640 0.003008 -0.000267 -0.002098 -0.002155 -0.004574
sent_29 0.000344 0.003236 -0.004161 -0.003914 0.000293 0.001601 0.001947 -0.001868 -0.004622 -0.000854 -0.002740 -0.004989 0.001857 0.004521 -0.001088 -0.001997 0.000538 0.003520 0.002950 0.001848 -0.000679 0.001904 -0.002840 -0.002161 0.002778 0.004300 -0.003100 -0.002039 -0.004938 -0.000684 -0.002897 0.001414 0.002096 -0.003812 -0.004179 0.004063 -0.001108 0.000334 0.004632 0.002591 -0.001745 -0.004142 0.000360 -0.001639 -0.004783 0.002712 -0.001151 0.000713 0.002557 0.004408 0.001123 -0.001846 -0.003899 -0.004261 -0.001803 0.001608 0.001952 -0.002923 -0.004172 -0.001945 0.000476 0.002547 0.000297 -0.002130 0.001242 -0.002352 0.001527 0.003419 0.001389 0.000656 -0.001929 0.003768 0.004888 0.002775 0.000736 -0.003587 -0.001851 -0.001331 -0.002081 -0.000540 0.001106 -0.002871 -0.002502 -0.003878 -0.001924 -0.000026 -0.000102 0.004956 0.004811 -0.000634 0.004720 -0.002856 0.000411 -0.000466 0.004676 0.003362 -0.002859 -0.000605 -0.003315 0.000291
sent_30 0.002598 -0.004451 -0.003381 0.004778 0.004581 0.000220 0.001676 -0.002429 0.004767 0.001753 0.001732 -0.005186 0.003413 0.002962 0.001738 0.002798 -0.003494 0.002616 -0.004173 0.002013 -0.005216 0.002830 -0.000318 -0.002690 0.002128 -0.001683 0.004284 -0.002975 0.004756 0.004276 -0.002303 0.003457 0.003382 -0.000569 -0.001552 -0.001982 0.004765 -0.002489 0.004311 -0.000718 0.004150 0.003680 -0.003169 0.000396 0.001838 -0.000879 -0.005088 -0.001751 0.003169 -0.004009 -0.004222 0.001936 0.000096 -0.000031 -0.001593 0.000938 0.003499 -0.002194 0.003207 -0.000706 0.000375 0.002386 -0.002415 0.004092 0.002005 0.001246 -0.002449 0.001732 -0.002138 0.003222 -0.004570 -0.003221 0.000585 0.002243 -0.000015 0.004123 0.004800 0.000027 0.002469 -0.000034 0.001599 -0.002855 -0.004034 0.004706 0.003089 -0.002411 0.000840 -0.001161 -0.003163 -0.000731 -0.001675 -0.005030 -0.000758 0.004124 0.003126 0.000791 -0.001951 -0.003004 0.004560 0.000581
sent_31 -0.003002 -0.002529 0.004342 -0.002666 -0.003934 -0.003364 0.002732 0.002052 -0.000380 0.002868 0.000319 -0.001045 -0.003975 0.003869 -0.002197 0.001408 0.004818 -0.002766 0.004570 0.001601 -0.004054 0.002940 0.004288 0.000683 0.001751 -0.004480 0.005204 -0.001508 -0.004517 0.002723 0.004534 0.002189 -0.005071 -0.004184 0.000550 -0.001423 0.003525 0.003623 0.004993 0.002211 0.003443 -0.001520 -0.003596 0.003436 -0.001884 -0.000712 0.001180 0.000890 -0.001047 -0.000917 -0.003819 0.000217 -0.002718 0.002587 0.001606 -0.004363 0.004970 0.002989 -0.002843 -0.004627 -0.000046 -0.001552 0.000591 0.001399 0.002919 -0.004763 0.002053 -0.002204 0.005096 0.003564 0.000881 0.001053 -0.003128 -0.002583 -0.003506 -0.001045 -0.003880 0.000369 0.001184 -0.003921 -0.001675 -0.004620 0.000057 0.001432 0.001047 0.002735 -0.002757 0.001172 -0.001751 -0.004300 -0.001758 -0.004463 0.004657 0.002196 -0.004252 0.003028 -0.001589 0.003815 -0.000158 0.003671
sent_32 -0.002655 -0.001606 -0.001554 -0.004501 -0.001553 0.001505 -0.000457 0.003790 -0.002077 -0.001460 -0.001578 0.000733 -0.003400 -0.003351 0.004729 -0.001303 0.000936 -0.004571 -0.003598 -0.003881 0.002795 -0.003496 -0.000198 -0.003787 -0.002141 0.004148 0.001164 0.004997 0.000873 -0.004850 -0.000717 -0.005013 -0.001966 -0.000056 0.000472 -0.002564 0.000364 -0.001056 0.000329 -0.003017 -0.003554 0.002676 -0.001631 0.001272 0.000394 0.004181 0.003453 -0.000829 -0.003132 0.001069 0.001659 0.001634 0.004236 0.002925 0.001477 0.000784 -0.002574 0.001883 0.003401 0.004424 0.003920 0.000215 -0.002089 -0.002051 0.004996 0.000379 0.003500 0.001082 0.000333 -0.001657 0.000556 -0.005037 0.003671 0.000902 -0.005089 0.003002 -0.003607 -0.004535 -0.000375 0.004362 -0.004279 -0.004637 0.003654 0.003301 0.002923 -0.000761 -0.000822 -0.001069 0.000987 0.001760 0.002487 0.001505 0.000344 -0.001080 -0.002174 -0.001847 -0.002000 0.001606 0.002310 0.000943
sent_33 -0.002913 -0.003163 0.002482 0.004591 -0.004865 -0.002677 0.002892 0.002208 -0.002368 0.000504 0.001005 0.002122 -0.000533 -0.001044 -0.001849 -0.002498 -0.004135 0.001561 0.001657 0.001990 -0.005147 -0.000264 -0.003827 0.000287 0.004746 0.000197 -0.001118 0.003325 0.004787 -0.002319 0.002960 0.004788 -0.003907 0.000517 0.002899 -0.001181 -0.000692 0.002397 -0.003952 -0.001400 0.000437 -0.002343 0.003581 0.002588 0.004614 0.000254 -0.004098 0.004175 0.003177 0.000497 0.003470 0.003694 0.002824 0.000732 0.001178 0.003356 0.001275 -0.002703 0.001918 0.000389 -0.002490 -0.005221 -0.002517 0.001453 0.003694 0.003422 -0.003863 -0.004319 0.002789 -0.002127 -0.002033 -0.004996 -0.004089 -0.003519 -0.003524 -0.000465 0.003137 0.003259 0.004007 -0.000767 0.002078 -0.000375 -0.004731 -0.004192 -0.002608 0.004440 0.001863 -0.002257 0.002207 0.001368 -0.004604 -0.001450 0.002664 -0.004261 0.003548 0.004441 0.003454 -0.004043 0.000465 0.002042
sent_34 0.003816 -0.003813 0.003036 -0.002249 0.001025 0.002046 0.002910 -0.002250 0.001070 -0.001980 0.004957 0.003167 -0.000772 0.003977 0.002263 0.004341 -0.003352 -0.002160 -0.004149 -0.001875 -0.001099 0.001123 -0.000361 0.002266 -0.002283 -0.003409 -0.001281 -0.000694 -0.000799 0.004103 -0.002368 -0.001482 -0.002864 -0.001277 -0.000989 0.000678 -0.002173 -0.002318 0.002124 0.004193 -0.003715 -0.003159 -0.003819 0.001554 -0.002896 0.001075 -0.002833 0.003327 -0.001741 0.001626 -0.003698 -0.001879 -0.002030 0.001210 0.001712 0.003268 -0.003151 0.002428 0.002150 0.000703 0.001767 -0.004011 -0.003639 -0.000705 0.002234 -0.003368 -0.001116 0.000007 0.004469 -0.004677 0.003269 0.004873 -0.002305 0.003965 -0.002076 0.003157 -0.000298 0.001240 -0.002554 0.002174 -0.003480 0.000796 0.000090 0.003338 -0.000174 0.003057 -0.000871 -0.001925 0.002736 -0.000547 0.000012 0.000833 0.003507 0.000604 -0.000773 -0.003547 0.002105 0.003813 -0.003793 -0.000345
sent_35 0.004434 0.001100 0.000268 -0.004330 0.000633 0.001410 -0.003298 0.004193 -0.003205 0.002020 -0.002366 -0.003726 -0.002122 -0.001184 -0.000422 -0.002720 0.002203 0.002823 0.002793 0.001982 -0.002177 -0.003444 -0.004190 -0.001009 -0.004007 0.001225 0.004231 0.002454 -0.004029 -0.004653 -0.001685 0.004976 -0.001960 0.002224 0.002477 0.000554 -0.001208 -0.002729 0.004688 -0.004049 -0.002487 -0.002146 0.003656 0.001580 -0.002385 -0.003204 0.004020 0.003301 -0.004415 0.003552 0.000459 -0.000231 0.001691 -0.004814 -0.001792 -0.004501 0.001918 -0.001460 -0.000073 -0.001938 0.003476 -0.004227 -0.002410 0.001385 0.003130 0.000832 0.002339 -0.004724 -0.002264 -0.005054 -0.000179 0.004980 -0.004838 -0.000425 -0.004896 0.001301 -0.002988 0.002551 -0.003215 0.003998 -0.002976 -0.001001 -0.002274 0.003052 -0.000151 0.004362 -0.003513 -0.000128 0.002538 0.005338 0.001813 -0.002986 0.003104 -0.004658 0.003058 0.003006 0.000842 0.000055 0.004666 -0.004949
sent_36 -0.004955 -0.002527 -0.000182 0.000186 -0.001303 -0.002175 -0.003000 0.003015 -0.001813 -0.000120 0.003306 0.001104 -0.001080 -0.003270 -0.000982 -0.000114 0.004828 -0.002010 -0.003352 -0.002752 -0.003207 -0.003845 -0.001538 -0.002120 0.003826 0.003040 -0.003789 0.003862 -0.003860 0.002111 0.000613 -0.004344 0.004005 0.004003 0.003226 -0.001333 -0.002875 0.004734 0.003234 -0.004494 -0.001620 0.003286 0.000437 -0.002547 0.002928 -0.002255 -0.005267 -0.002938 0.004691 0.001574 -0.002727 0.001755 0.001962 0.001466 -0.004124 -0.002714 0.003834 0.002625 -0.003297 -0.002102 0.000439 0.003043 -0.002848 -0.004300 -0.001394 0.004176 -0.002288 -0.004066 -0.004183 -0.001549 -0.004348 0.000899 0.001574 -0.000158 0.002337 0.000034 0.001953 -0.002563 0.002287 -0.000155 0.001980 -0.000769 -0.000212 -0.004539 -0.000254 -0.003933 -0.003723 -0.000649 0.000950 -0.001877 -0.003420 0.002417 0.004444 0.002303 -0.004624 0.003611 -0.004361 -0.000759 0.004095 -0.002407
