37 100
sent_0 -0.000628 0.002350 -0.004989 -0.001848 -0.003275 -0.004191 -0.002864 -0.001778 -0.001028 0.000582 -0.000839 0.002056 -0.002732 0.003973 -0.004596 0.001597 -0.000943 0.000180 -0.003692 -0.003061 0.003252 0.004132 -0.001892 0.001956 0.003739 0.003676 -0.004467 -0.004889 -0.003479 0.003859 -0.003940 -0.000685 0.004397 0.000201 0.001993 -0.001746 0.001604 0.003610 -0.005130 0.002684 0.004841 0.002433 -0.002635 0.002622 -0.003895 -0.000388 0.004364 -0.001961 -0.001831 -0.003907 -0.004886 0.001866 -0.003038 -0.002734 -0.000170 -0.004618 0.000924 -0.003863 0.000951 0.002177 -0.003358 -0.000694 0.001762 -0.000481 -0.004122 0.000278 0.001541 0.000414 0.004432 0.000606 0.003683 -0.003532 -0.003465 0.003041 -0.000983 -0.003250 0.004330 -0.001255 0.002770 0.002894 0.003790 0.001503 0.002850 -0.001660 -0.002141 0.004428 -0.000523 0.004428 0.001407 0.001725 -0.003887 0.004599 -0.000133 0.000383 -0.000438 -0.003052 0.004369 0.000723 -0.004554 0.001026
sent_1 -0.001573 0.000395 0.003959 -0.001250 0.004232 0.001238 -0.004693 0.004206 0.001696 0.005081 -0.003315 -0.003529 0.004528 0.002076 -0.004371 0.002364 0.002427 0.004006 0.002108 -0.003854 -0.004608 -0.005119 -0.004559 -0.002388 0.003590 0.000103 0.000370 0.003214 -0.003921 -0.002041 0.000925 0.004785 0.000554 -0.004892 0.003139 -0.002766 0.003096 -0.001111 0.003333 0.002618 0.000462 -0.003818 -0.004729 -0.003729 -0.004436 -0.003897 -0.002526 0.002203 0.000812 -0.004961 -0.004342 0.004868 0.000611 -0.003182 -0.002433 0.002439 -0.003068 0.000632 0.004718 0.003335 -0.002377 0.000088 0.001010 0.003569 -0.003418 -0.004968 -0.004416 -0.000073 0.000979 0.000529 -0.002082 0.005060 0.000879 -0.001242 0.000650 0.002468 0.001620 -0.002363 -0.004236 -0.000894 0.001368 -0.002621 0.002662 -0.004364 -0.002223 0.003458 -0.002993 0.001298 0.000077 0.004599 -0.002308 -0.004207 0.002442 0.002623 0.004369 0.004018 -0.004716 -0.002494 0.001450 0.004428
sent_2 0.004979 0.001037 0.004556 0.001967 -0.000941 0.000263 0.001181 0.000272 0.003538 0.004301 -0.001276 0.004986 -0.002583 -0.003412 -0.003794 -0.000405 -0.004878 0.004001 0.003278 -0.005080 -0.002683 -0.002772 -0.003485 0.003211 -0.001456 0.003659 0.000188 0.003298 0.002950 0.004618 -0.000249 0.000918 0.002982 -0.002412 0.000499 0.000679 -0.004615 0.000977 -0.001282 0.003353 -0.001703 0.003336 0.000055 -0.003090 0.003175 0.001153 -0.003856 -0.000357 0.002325 0.003830 -0.005271 0.005218 -0.001526 0.004438 0.001266 0.003309 0.000721 0.000489 -0.002085 0.000457 0.003011 0.004171 0.002136 0.002887 0.003903 -0.002203 0.001512 -0.000462 -0.001640 -0.001297 -0.001711 -0.001593 0.001357 -0.000864 0.005109 0.001737 -0.002960 -0.000827 -0.001238 0.003882 0.003952 0.004754 0.002273 -0.002383 -0.002131 0.004804 0.000474 0.002805 0.000370 0.003170 0.000286 0.003216 0.000912 -0.000502 -0.000667 -0.004960 -0.000712 -0.003497 0.005558 -0.003217
sent_3 0.003071 0.003934 0.001846 0.000760 -0.003364 -0.000354 -0.001495 -0.002839 0.000817 -0.001810 0.004092 0.004068 -0.002331 -0.003742 -0.003183 0.000012 0.002263 -0.002893 -0.002540 0.003431 -0.000783 0.001010 -0.002675 -0.003890 0.000192 -0.000361 -0.003464 0.001170 0.000428 0.001563 -0.003608 0.002541 -0.002740 0.000159 0.002993 -0.004873 -0.001609 0.003720 0.003406 0.000441 0.003738 0.004404 0.003182 0.003432 -0.003990 0.001497 0.002127 0.001253 0.003035 -0.004643 0.002510 0.002426 -0.002409 -0.002444 0.001267 -0.001608 0.002891 -0.000687 0.002811 0.004871 -0.001884 -0.003422 0.003906 0.000562 0.004725 0.001286 0.004903 0.000391 0.000295 -0.003739 -0.001447 -0.004688 -0.003391 0.002475 -0.004615 -0.001251 0.003662 0.001996 0.001912 -0.002943 -0.000528 0.000987 0.004984 -0.002947 -0.002512 -0.002173 0.002541 -0.000407 -0.004493 0.000268 -0.002774 0.003043 -0.001869 -0.004743 0.001039 0.003367 -0.001181 0.002585 0.000187 0.000455
sent_4 0.004722 0.003378 -0.004288 0.002455 -0.000431 0.004799 -0.002741 -0.002327 -0.004660 -0.000630 -0.004147 0.001374 0.003451 0.001952 0.002313 -0.001835 0.003354 -0.001004 0.003352 0.001081 -0.003091 -0.004896 -0.004350 -0.004072 -0.000412 -0.004374 -0.005012 0.002119 -0.001200 0.002782 -0.000424 -0.000132 -0.000102 -0.000355 0.003545 -0.001362 0.004528 -0.004675 0.002402 -0.003789 0.001356 -0.005252 0.000062 -0.004617 0.004728 0.003873 0.003524 0.004470 -0.003126 -0.003533 -0.003213 0.001600 0.004061 0.004755 0.002194 0.002583 0.003869 -0.001343 -0.002581 -0.003613 -0.003857 0.003402 -0.003877 -0.001959 0.003236 -0.002095 0.004682 -0.002353 -0.000137 -0.002039 0.003637 -0.001245 -0.000590 -0.000205 0.004782 -0.004702 0.002120 0.003658 -0.004628 0.000560 -0.001465 0.004164 0.000852 0.001848 -0.000107 0.001965 -0.001913 -0.004880 0.000370 -0.001337 0.000288 0.004433 -0.000617 -0.002390 -0.000726 0.003932 0.004473 0.003926 0.004650 -0.002760
sent_5 -0.003671 -0.001821 -0.001374 -0.002707 0.001395 -0.000610 0.003430 -0.003566 0.001001 -0.002048 0.000239 -0.001075 -0.003577 -0.002083 0.001078 -0.000672 -0.000023 -0.004007 0.000727 0.004389 0.004143 -0.000600 0.005171 0.004422 0.001261 -0.005933 -0.004811 -0.005200 -0.001122 -0.000318 0.004966 -0.002779 0.004907 0.002153 0.004385 0.000479 0.002652 -0.000038 -0.005557 -0.001113 0.000516 0.001258 -0.001519 -0.000451 -0.003474 -0.005038 0.003615 -0.000881 0.005777 -0.003216 -0.002291 0.001107 0.002484 -0.000760 -0.003647 -0.001925 -0.000303 0.000696 0.002868 -0.004081 -0.004216 0.001037 0.002325 -0.003603 0.001881 0.001215 -0.000658 0.004209 0.001001 -0.005714 -0.001101 0.003907 0.003529 0.001304 0.002312 0.000833 -0.002182 0.000473 0.002192 -0.000045 0.003977 -0.001481 0.003367 -0.002075 0.003130 0.001255 0.003480 -0.001557 -0.003731 0.004092 -0.001740 0.003012 0.003048 -0.002920 -0.001568 -0.003998 -0.003166 -0.000243 -0.003806 -0.003814
sent_6 0.002489 0.003371 -0.003835 -0.002279 -0.002513 0.004484 0.002391 0.000139 -0.002388 0.003549 -0.000773 0.004889 0.002711 0.000145 -0.003555 0.004251 -0.003441 -0.003774 -0.000764 -0.001072 -0.002998 0.000969 -0.003212 0.001249 0.002629 -0.003598 0.000048 0.002006 0.000755 0.001501 -0.001739 0.002790 0.004228 -0.001085 0.003269 -0.004520 0.003147 -0.002725 -0.001638 -0.001640 -0.004058 0.003550 -0.002171 -0.000012 0.000123 -0.003463 -0.002373 -0.003811 0.000761 -0.002974 -0.001532 -0.003657 0.002485 -0.004416 0.005024 -0.003383 0.001043 -0.005390 0.003096 -0.003162 0.001222 0.002908 -0.003778 0.001486 -0.002084 0.002225 0.002129 -0.002917 0.003185 -0.005413 0.002641 0.000748 -0.000714 0.002495 0.002320 0.004816 -0.002032 -0.004732 0.004863 0.004706 0.002205 0.000839 0.002970 0.002586 -0.000967 0.003977 0.002815 0.000673 -0.001423 0.002832 -0.005085 0.003188 0.004370 -0.003205 -0.002662 -0.003563 -0.001210 0.004321 0.001307 -0.002334
sent_7 -0.003404 -0.002023 0.001173 -0.001656 -0.000259 -0.000545 0.003400 -0.000872 -0.001541 0.001825 -0.002796 -0.000134 -0.001708 0.001393 0.003875 -0.000621 0.002826 -0.000638 0.001506 -0.003694 -0.000599 0.003718 0.000921 0.002574 0.000046 -0.000146 0.003193 -0.004410 0.000604 0.004498 0.000246 -0.002966 0.003340 -0.002608 0.002055 0.000492 0.004276 0.001412 0.003257 -0.004772 0.004861 -0.004299 -0.002011 0.004269 -0.004855 0.003340 0.003697 -0.000527 -0.002271 0.002880 -0.000261 -0.003617 0.004139 0.003782 -0.000111 0.003483 -0.000650 0.001630 -0.000961 0.000153 -0.002686 0.004770 -0.002104 -0.003685 -0.003272 -0.004912 0.002109 0.000777 0.002901 -0.000076 0.002646 0.002005 0.002856 -0.000924 0.001487 -0.003192 -0.001719 -0.003125 -0.000760 -0.002228 -0.001033 0.004869 -0.001531 0.004705 0.001392 -0.000957 0.003647 0.001013 -0.002570 0.003165 -0.000693 -0.001368 -0.001521 0.001724 -0.001998 0.002877 -0.001832 0.000458 0.000134 0.003470
sent_8 0.003975 -0.003329 0.000624 0.003589 -0.000304 0.004026 -0.002197 0.000992 0.002059 -0.002608 -0.004746 -0.000662 0.004177 -0.001507 0.003104 -0.003291 -0.001513 -0.003765 0.002126 0.002073 0.001730 -0.002235 0.001637 -0.002995 -0.000664 -0.001126 -0.001596 -0.004258 0.001191 0.002130 0.001278 0.001282 -0.003411 -0.003501 -0.000031 0.003808 -0.003288 -0.000215 -0.000492 -0.000013 -0.003338 -0.001542 -0.002461 0.003154 0.002719 -0.000575 0.000875 -0.003625 0.000033 -0.002267 0.003749 0.001495 0.001487 -0.003752 -0.000254 0.004606 0.004697 0.001653 -0.003239 0.001702 0.000633 -0.000558 -0.000561 0.000776 0.003594 0.002594 0.001066 0.004445 -0.004081 0.004727 -0.004371 -0.003085 -0.000773 -0.003709 0.000944 -0.004628 -0.002086 -0.004158 0.002122 0.001678 -0.001393 -0.003198 0.002450 -0.001495 0.002759 -0.000341 0.000279 -0.004814 0.001451 -0.001754 -0.002976 -0.000735 -0.001210 -0.000577 0.004634 -0.001213 0.002799 0.000315 0.003692 -0.001456
sent_9 -0.002472 0.003832 -0.004787 0.003935 0.000764 -0.001358 0.004671 -0.004422 0.000376 -0.004701 0.000908 -0.003013 0.000980 0.004770 0.004009 -0.000580 0.002214 0.002703 -0.000078 0.000487 -0.003795 -0.000744 -0.003883 0.001825 -0.000021 -0.000251 0.003737 0.000660 -0.001062 -0.002224 -0.004050 -0.001107 -0.004756 -0.002023 -0.000166 0.004515 -0.003855 0.001711 0.000447 0.002809 -0.003453 -0.004135 -0.000880 0.002712 -0.003500 0.002721 -0.002503 -0.002901 -0.004966 -0.001266 -0.000922 0.001407 -0.004042 -0.003200 -0.004643 -0.004138 0.001611 -0.000544 -0.001399 0.000807 0.004513 0.002901 0.002344 0.003830 -0.004709 -0.004171 0.000149 -0.001438 0.004626 -0.000264 0.000635 0.003804 -0.000640 0.004139 -0.002893 -0.002435 -0.001577 0.000597 -0.002799 0.001344 -0.003705 -0.004303 0.003528 -0.002439 -0.001507 0.000273 0.000151 -0.004198 0.003909 0.003827 0.002802 -0.002222 -0.000044 -0.001738 0.000137 0.005130 -0.002047 0.001523 -0.002260 0.002875
sent_10 -0.001668 0.004353 0.002529 0.002596 -0.000152 -0.002932 -0.004430 -0.002036 -0.004977 0.002155 0.001710 -0.000529 0.002855 0.000580 -0.004935 -0.003844 -0.003144 -0.001835 -0.004546 0.000841 0.000218 0.000766 -0.000698 0.003689 -0.000385 -0.005195 0.003553 0.001533 0.003090 0.004744 -0.004539 -0.002571 -0.004308 -0.000767 0.004054 -0.004694 0.000170 -0.003819 0.002638 0.003608 -0.004509 -0.000392 -0.002861 0.004479 0.004364 0.001125 0.004989 -0.001285 0.004268 -0.000808 -0.002849 0.004692 0.001942 -0.004468 0.003804 0.001861 0.000943 0.002200 -0.002339 0.000836 0.003183 -0.004363 -0.003850 0.003623 0.001095 0.000064 -0.002502 -0.002210 0.003782 -0.001327 -0.004563 0.004175 -0.002961 0.003400 0.003992 -0.000027 0.001045 0.000422 0.001268 0.003922 -0.002068 0.004403 0.000857 -0.003818 -0.002719 0.001429 -0.002477 -0.003639 -0.003763 0.003805 0.001110 0.004825 -0.001352 0.000819 0.001241 0.000946 -0.004431 0.002792 0.004665 0.000357
sent_11 -0.003112 0.002547 -0.005048 -0.001849 0.004249 0.000780 0.003524 0.001002 0.003202 0.003818 -0.001712 -0.003779 0.002162 -0.000553 -0.003735 0.000875 -0.004690 -0.002973 0.002857 -0.004855 -0.002061 -0.004646 0.004939 0.000845 -0.002032 0.004300 0.000102 -0.000330 0.000848 -0.002367 -0.001948 -0.001404 -0.002552 0.000940 0.001909 -0.004395 0.004767 0.002412 0.003083 0.002603 -0.004299 -0.000159 -0.000538 0.001638 -0.000563 0.002053 0.001733 0.001949 0.001137 -0.003516 0.002603 0.002844 0.004114 -0.002633 -0.003168 -0.001207 -0.001822 0.003266 0.001213 0.002568 -0.000811 -0.004103 -0.003816 -0.001344 -0.003204 0.003192 0.001055 0.001825 0.000041 -0.004224 -0.002527 -0.000325 -0.003064 -0.004593 0.002241 0.002293 -0.001690 0.003526 -0.000767 0.003633 0.001600 0.000788 -0.003102 0.000354 0.003882 -0.002026 0.003670 0.004130 -0.001653 0.001721 0.003999 -0.004213 0.003738 -0.003138 0.003359 0.001721 -0.001618 -0.003514 0.001244 0.003507
sent_12 0.003544 0.001509 0.004787 0.001063 -0.002875 -0.000498 -0.001628 0.004804 -0.001609 0.005054 0.000069 -0.002968 -0.003928 -0.001146 -0.003863 0.000981 -0.000926 0.004515 0.004325 -0.003633 -0.000731 -0.000907 0.000723 0.002791 0.000018 -0.001226 -0.002829 0.003840 -0.005146 0.003642 -0.002931 0.002074 -0.001429 0.004546 -0.003390 -0.003439 0.004136 0.000880 -0.002191 -0.004788 -0.002574 -0.003938 -0.003448 0.004009 0.003769 0.001992 0.000022 0.003520 0.000321 -0.001672 -0.002347 0.004543 -0.001190 -0.000217 -0.002248 0.003804 -0.001188 -0.002372 0.002345 -0.003271 -0.003687 0.003583 0.002247 0.001380 -0.002473 0.001000 0.001400 -0.001643 -0.004540 0.003488 -0.000830 0.002726 -0.002416 0.000889 -0.000577 -0.001270 -0.003697 -0.002659 -0.003976 -0.001485 0.002520 0.001615 0.002076 -0.004920 0.001891 0.000747 -0.002587 -0.003338 -0.003393 0.003831 0.004743 0.004455 -0.001483 0.002706 0.000925 0.002830 0.000074 0.001311 0.003187 -0.003978
sent_13 0.000456 -0.001222 0.001088 0.004684 -0.001013 -0.001029 0.002978 0.001363 -0.001153 0.001918 -0.000975 -0.003570 -0.000374 -0.001565 -0.002835 0.004205 0.001893 0.000911 0.002434 0.000381 0.002072 0.004053 0.003597 -0.003311 -0.002375 -0.004408 0.004675 -0.002692 0.001542 -0.004046 -0.002892 0.000108 -0.003984 -0.001146 0.000476 -0.001636 0.000549 0.000403 -0.001182 0.002023 0.001793 0.001794 0.000504 -0.001475 0.001182 0.004394 0.001069 0.004891 -0.000486 0.002336 -0.004683 0.002703 0.000109 -0.005023 -0.002228 0.000324 0.002708 -0.004621 0.000496 0.002972 0.001680 0.004427 -0.004314 -0.002064 0.004296 0.002574 0.000944 0.003325 0.003901 0.004612 0.004840 -0.003543 -0.004253 -0.004274 -0.004791 0.004745 -0.004013 0.003486 0.001908 0.000070 -0.001545 -0.001332 -0.002315 0.004069 0.002311 -0.004527 -0.000331 -0.002254 -0.004797 0.004019 0.002757 -0.001639 0.003068 -0.001848 -0.001726 0.004159 0.004870 0.000329 0.004678 0.003851
sent_14 0.000457 -0.000696 0.002416 -0.000060 0.001169 0.005178 0.002896 -0.001911 -0.004780 -0.002955 0.000039 -0.000571 0.003559 0.004662 -0.003555 0.003245 0.004508 0.004196 -0.004632 -0.004718 -0.004424 -0.002823 -0.004239 -0.001851 -0.001313 0.003829 -0.000706 -0.002656 -0.000336 0.001931 -0.003822 0.002969 0.003617 0.003221 0.004602 -0.001674 -0.000050 -0.003941 -0.003163 0.004908 -0.001852 0.003513 0.003312 0.004285 -0.003311 0.003741 0.001932 -0.002376 -0.001030 -0.003677 -0.000901 -0.003709 -0.003465 -0.003251 0.002038 0.000721 0.003575 -0.003209 0.001366 -0.004989 0.000466 0.004133 0.004433 -0.004178 -0.002345 -0.003167 -0.004649 -0.004953 -0.000422 -0.005036 -0.002791 0.001597 -0.001945 -0.002430 0.001266 -0.001164 0.002109 -0.000090 0.001579 -0.000709 -0.001920 -0.002833 0.004921 0.003038 0.004641 -0.002027 0.004571 0.004297 -0.002645 -0.001455 0.000639 -0.002728 -0.000278 -0.003238 0.005243 -0.000592 0.004927 0.002108 0.000407 0.004713
sent_15 -0.003562 0.001598 0.001608 -0.000777 -0.004298 -0.000142 -0.000321 0.002905 -0.002727 -0.000903 -0.002615 0.001979 0.005035 -0.003097 0.003019 -0.002872 -0.004553 -0.003895 0.004322 0.003789 -0.001883 0.004328 0.003651 -0.000490 -0.000185 0.000984 -0.003640 -0.004994 -0.002554 -0.004606 0.001795 0.000531 -0.001679 0.002846 -0.003247 -0.003008 -0.001674 -0.003117 -0.004286 0.003833 -0.003997 0.001681 -0.004097 -0.004932 0.000459 0.003997 0.003879 -0.001425 -0.004501 0.002794 0.002945 0.003915 0.001835 0.002966 0.004133 -0.000641 0.000449 -0.000055 0.002092 0.001735 0.000081 0.003282 -0.000101 0.003378 -0.002302 -0.003371 0.004802 0.002409 -0.002356 0.000405 0.004477 -0.004114 -0.004194 0.001293 -0.002699 0.002729 0.000734 0.001738 -0.003815 -0.003868 0.001461 -0.000489 -0.004045 -0.001196 0.001775 -0.002724 0.004089 0.004608 0.004364 0.002547 -0.001001 0.002685 -0.002025 -0.001954 0.001198 0.000745 0.003821 -0.002220 0.002725 0.004468
sent_16 -0.004583 0.000117 0.001831 0.003669 -0.002990 0.003936 -0.001450 0.003750 -0.005467 -0.004074 0.004669 0.001445 -0.000353 -0.003016 0.001376 -0.005126 -0.001904 -0.002146 0.001112 0.001354 0.003836 0.003640 0.001759 0.000745 -0.000773 0.004048 -0.004050 0.003692 -0.002453 0.001118 0.002051 -0.002382 -0.003208 -0.000084 0.003460 0.001391 -0.003311 0.003887 -0.000557 0.004719 0.000779 -0.004773 -0.003536 0.003594 0.002139 0.003940 -0.001312 0.000724 0.001885 0.000527 -0.002876 -0.000321 -0.002606 0.003448 0.005231 -0.004425 0.002009 -0.002224 0.001502 -0.002872 0.001544 -0.000920 -0.002311 0.004757 0.004394 0.000748 -0.002806 0.004316 0.002185 0.002061 -0.003325 0.003467 -0.002581 0.001360 0.002297 0.002283 -0.000997 0.002464 0.004258 0.001434 -0.003911 -0.003105 -0.003522 -0.003157 -0.003588 0.003754 -0.004514 -0.002651 0.003574 0.005126 0.001059 0.005283 -0.004618 0.004423 -0.001357 0.002657 0.003412 0.004314 -0.000089 0.004427
sent_17 -0.001805 0.004827 0.001711 0.005292 -0.004517 0.002786 0.000657 -0.000205 -0.003230 -0.001472 -0.002872 -0.002260 0.003711 0.000236 -0.004463 0.002074 0.000172 0.001614 0.000302 -0.001305 0.005576 -0.005841 0.004659 0.004342 -0.000843 -0.003706 0.000312 -0.003851 0.002375 -0.001613 -0.001770 0.004685 0.004090 -0.000073 0.004467 -0.002071 0.005529 -0.000549 -0.002635 -0.004277 0.005218 -0.001157 0.001394 0.001624 0.002419 -0.004557 0.004930 0.004769 0.001255 0.004080 -0.002426 0.001648 -0.001123 0.000985 -0.001631 0.003255 -0.004357 -0.005317 -0.004289 -0.003876 -0.000832 0.005041 -0.004360 0.002434 0.000521 -0.001876 -0.003013 -0.002608 -0.005112 0.001620 0.000626 -0.000458 0.002259 -0.004126 0.004787 0.003276 0.001597 -0.001535 -0.000397 0.000769 0.004593 0.004598 0.000498 0.000476 0.004039 0.005951 0.001611 0.002319 -0.002004 0.005052 0.003225 0.001149 0.003806 0.003428 0.004069 -0.004377 0.000841 0.004849 0.003434 -0.000788
sent_18 0.005244 -0.001815 -0.001543 0.004977 0.003398 0.004198 -0.004504 -0.001662 -0.003240 -0.001746 0.002192 0.002687 0.000259 -0.000792 0.000723 -0.000013 0.000393 0.000617 -0.001135 0.002397 -0.002065 0.000318 0.004461 -0.004848 0.002305 -0.004622 -0.000234 0.000882 -0.003040 0.004608 0.001242 -0.002326 0.002577 -0.004201 0.001158 -0.004305 0.000925 -0.002259 0.000945 0.002551 0.000337 0.001030 0.002324 0.002760 0.001436 -0.000248 -0.000326 0.004251 0.002554 -0.003573 0.000188 0.004461 -0.003778 0.003027 0.003278 -0.000254 -0.004450 -0.004405 0.004322 -0.004746 -0.000373 0.001838 -0.003472 0.005738 -0.002995 -0.000019 0.001040 -0.002641 -0.000504 -0.000757 0.001973 0.001614 -0.000193 0.001664 -0.000124 0.000343 0.001724 -0.002881 0.003243 0.002229 0.004790 -0.001935 0.000446 0.003814 0.001237 0.003560 -0.000588 0.001518 0.003999 -0.001974 0.003216 0.005166 -0.004295 -0.003330 -0.002866 0.002004 -0.003563 0.005534 -0.000280 0.003952
sent_19 -0.003201 -0.000270 0.003307 0.000956 -0.000263 -0.000037 0.000906 -0.000838 -0.003122 -0.003681 -0.003549 -0.004467 0.000724 0.003738 -0.001527 -0.004185 -0.000822 0.000924 -0.000842 0.003009 0.004537 0.003417 0.001957 -0.000163 0.001868 -0.005072 0.004757 -0.003379 0.004036 0.003049 0.002911 -0.002301 -0.002805 -0.000726 0.003676 -0.000620 0.004471 -0.001391 0.001107 0.004927 0.001535 -0.004574 -0.000556 -0.001990 0.000297 -0.002131 -0.003581 0.001908 0.001931 0.003607 -0.003957 0.003102 0.003263 0.001318 -0.003076 -0.002601 -0.000836 0.000168 -0.000203 -0.000214 0.003721 0.003864 0.003007 0.003990 0.000819 0.004554 0.001042 0.001032 -0.001673 0.001536 -0.004503 -0.003598 -0.003673 0.001625 -0.003186 -0.001380 -0.004435 -0.002364 0.004723 0.000474 -0.003430 0.000515 0.004625 0.003630 -0.001063 -0.001849 0.002763 -0.002587 -0.002625 -0.003800 0.003739 -0.000433 0.001007 0.002148 0.003183 -0.000714 -0.003071 0.003311 -0.004529 0.004483
sent_20 0.000885 0.004318 0.000917 -0.002425 -0.001750 0.000227 0.004876 -0.003561 -0.000189 -0.001229 0.002540 0.003258 -0.000412 -0.002423 -0.004460 -0.003134 -0.002371 0.000666 0.003626 -0.003958 0.004791 0.001188 0.002166 0.004897 -0.000680 -0.000117 0.001451 -0.000037 -0.002277 -0.003701 -0.002181 0.002775 0.001352 0.002835 0.000604 -0.002956 0.001522 -0.001774 -0.004879 0.004354 -0.000585 -0.001074 0.001861 0.003940 -0.004314 -0.003125 -0.001468 -0.002079 0.000213 0.002944 0.003043 0.001220 -0.002628 -0.003371 0.002380 -0.003040 0.000452 0.001957 -0.002558 -0.003141 -0.004011 -0.003147 0.003218 -0.003390 -0.002551 -0.004919 0.001817 -0.002650 -0.000687 -0.004172 -0.001454 -0.000650 -0.000251 -0.000610 -0.003866 0.002894 -0.003448 -0.000346 -0.002052 -0.001157 0.001729 0.000801 -0.002613 -0.000306 -0.001637 0.002843 -0.002519 0.003339 -0.000038 0.000651 -0.002391 -0.002871 0.000264 0.004412 -0.003163 -0.002502 0.003307 0.001886 -0.001852 -0.001782
sent_21 -0.000826 0.001049 0.002026 0.003459 0.001797 -0.002688 0.004248 0.002809 -0.001982 -0.001984 0.003957 -0.003753 0.001259 -0.002231 0.003253 -0.001357 0.002240 -0.002949 -0.000191 0.003044 -0.001266 -0.003141 0.001371 0.002613 -0.002242 -0.000355 0.004093 0.003988 0.002090 0.000858 0.003065 0.003932 -0.005006 -0.000819 0.000488 0.002272 -0.004178 -0.001238 -0.002221 -0.000653 -0.000342 0.001696 0.000050 0.001213 0.000876 -0.000622 -0.005130 -0.003233 -0.001965 -0.003512 0.000996 0.001097 0.000051 -0.001763 0.001690 -0.003203 -0.004867 0.002525 -0.000561 0.001833 -0.003271 -0.004502 -0.001140 0.001775 -0.004170 -0.003042 -0.000414 0.001051 0.002681 -0.003980 0.001433 -0.001026 0.001577 -0.002775 0.000276 -0.003237 -0.004882 -0.000039 -0.003294 0.001309 0.000339 0.002610 -0.001270 0.004919 0.000063 -0.000408 0.002371 0.000743 -0.001236 -0.000286 -0.003082 -0.001018 -0.004840 -0.000389 -0.002527 0.000380 -0.004724 0.000512 -0.002170 0.000741
sent_22 0.002503 -0.000393 0.001875 -0.002228 0.004939 -0.002324 0.004452 -0.002806 -0.000281 0.003235 0.002000 0.002122 -0.000262 0.002545 0.004002 -0.000749 0.000151 -0.004448 -0.001012 -0.000439 0.004163 -0.004428 0.002499 0.000594 0.001016 -0.004978 -0.003704 -0.002391 -0.005024 0.001817 0.003701 0.000724 0.000406 0.001032 -0.001736 -0.001400 0.000791 0.003065 -0.003287 -0.001610 0.002324 -0.001785 -0.004755 -0.003283 -0.002750 -0.000092 0.001621 0.003919 0.004262 -0.001942 0.002408 -0.001886 -0.001453 -0.002221 -0.000836 -0.002665 -0.001839 -0.004068 0.004509 -0.000190 0.004466 0.002725 -0.000634 0.002953 0.001403 -0.002071 0.000025 0.002111 -0.002258 -0.004882 -0.002690 0.003061 0.004330 0.001052 -0.003366 0.002594 0.000201 0.002387 0.003637 0.004809 0.001639 0.003782 0.002652 0.002095 0.003787 0.004715 0.004050 -0.001129 -0.004278 0.003706 0.000527 0.000591 0.003363 -0.004628 0.004191 -0.004952 0.002082 0.001117 0.001831 -0.001347
sent_23 -0.002062 0.001042 0.004155 0.001320 0.001743 -0.000397 0.005025 0.002055 -0.002184 0.001928 -0.000034 0.003980 -0.001486 -0.003337 -0.003734 -0.001380 0.003313 -0.002516 0.001246 0.000715 -0.000297 -0.005884 0.002624 -0.001545 -0.000921 -0.002152 0.001308 -0.004694 0.000278 -0.004425 0.004706 0.001454 -0.001044 -0.003881 0.002857 0.003552 -0.001189 0.002744 -0.002665 0.004890 0.002308 0.000573 0.003567 -0.002501 0.004620 0.001680 0.003494 0.001488 0.003958 0.001936 -0.004348 0.001867 -0.002398 0.003854 -0.003159 -0.002120 -0.004800 -0.001477 0.000432 0.000395 0.004836 -0.000644 -0.001187 0.004622 0.000973 0.001055 -0.002557 -0.000304 0.000870 -0.004139 -0.005340 -0.003561 -0.000079 -0.004946 0.001919 -0.003744 -0.002403 -0.000678 -0.003638 -0.001118 -0.004488 0.006007 0.001853 -0.001381 -0.004428 0.000433 -0.000207 0.004236 -0.002799 0.002440 0.002123 -0.002678 0.000818 0.002792 -0.002966 0.000276 -0.004455 -0.004253 -0.003508 -0.000188
sent_24 0.004628 -0.000590 -0.003867 0.003971 0.000290 -0.001503 0.004732 0.004263 -0.002867 -0.002811 0.000665 0.003752 -0.001161 0.000990 -0.003610 -0.003443 0.002521 -0.003990 -0.002290 0.001685 -0.004363 -0.005542 -0.001896 -0.001550 -0.001289 0.002507 -0.005160 -0.001875 0.001048 -0.003112 0.003733 0.001849 -0.003837 -0.003204 0.003008 -0.001290 0.000127 0.004020 -0.004017 0.004815 -0.004372 -0.004466 -0.003341 0.003219 -0.000293 0.001481 -0.002723 -0.002994 0.000748 0.002116 -0.000528 0.004089 0.001489 -0.002775 -0.002523 -0.001166 0.002530 0.003876 0.003691 -0.002587 -0.000597 0.001464 0.000149 -0.000463 -0.003735 0.001861 -0.004217 0.003784 0.003244 0.001755 -0.000803 0.002088 -0.000944 0.002765 0.003167 -0.003512 -0.001807 -0.001724 -0.001077 0.001312 -0.004446 0.002257 -0.002472 -0.000951 -0.000250 -0.000566 -0.000972 -0.003321 -0.004746 0.001193 0.000938 -0.003211 -0.002495 -0.002216 0.004044 -0.003977 0.000812 0.001179 -0.001006 -0.001545
sent_25 0.004651 0.000867 0.001572 0.000099 0.001586 0.001062 -0.003422 -0.001809 -0.000757 -0.003567 -0.001490 -0.002674 0.003750 -0.001333 -0.002937 -0.001078 0.001716 -0.004476 -0.003204 0.001758 0.002748 0.000745 0.003931 -0.003080 0.002101 0.003777 -0.003609 -0.002765 0.000301 -0.001355 0.001903 -0.004326 -0.003343 0.002074 0.005020 0.004018 0.004310 -0.003782 -0.003812 -0.004095 0.000464 0.003534 -0.000027 0.002777 -0.003016 0.003601 -0.002847 -0.004198 -0.000576 0.000483 0.004425 -0.003767 -0.002285 -0.004084 -0.001074 -0.002181 -0.000019 -0.001819 0.004300 0.002697 0.003803 -0.003426 0.000477 -0.002476 0.003591 -0.005085 -0.004043 -0.001315 -0.001018 -0.002480 -0.004216 -0.003622 -0.001781 0.004513 -0.002714 0.002566 -0.002430 -0.004605 -0.004775 -0.003002 -0.000221 0.003002 0.002469 -0.001445 -0.000077 0.003717 0.003471 -0.001803 -0.005158 -0.004080 0.002539 -0.002064 0.000016 -0.003124 0.003782 -0.000257 0.000361 -0.001830 0.000383 -0.004939
sent_26 -0.002068 -0.001504 -0.002190 -0.004443 0.000416 0.002815 0.004333 -0.000122 0.000884 -0.001965 -0.003428 -0.003413 0.002289 0.002396 -0.003124 -0.001093 0.000927 -0.004080 0.002817 0.001244 0.001175 0.002081 0.004766 0.000417 0.003824 -0.000873 0.001241 0.004303 0.001389 -0.001706 0.001396 -0.001551 -0.001814 0.001076 -0.003318 -0.000416 0.004590 -0.001092 -0.003012 -0.000170 0.003552 0.003321 0.003057 -0.005045 -0.002592 0.005046 -0.003821 -0.000026 0.003040 -0.004103 0.001736 -0.000077 -0.002912 0.003788 -0.002977 0.001145 0.002463 0.000705 0.001618 -0.003659 -0.002050 0.000671 -0.000961 0.001671 0.003537 -0.003128 0.004313 -0.001033 0.004524 0.000838 0.002819 0.000072 0.000255 -0.001515 -0.003917 -0.001261 -0.002745 -0.004571 -0.002098 -0.003098 0.003744 -0.004016 -0.003077 0.002144 0.004045 -0.002390 -0.004712 0.004618 0.001712 -0.002018 -0.000539 0.001126 -0.001361 0.003542 0.002289 0.004549 -0.001457 0.004433 -0.000324 0.001509
sent_27 0.001919 0.003203 -0.001543 -0.000695 0.003268 0.001670 0.004680 0.004631 -0.002892 -0.002597 0.002219 0.002090 0.000807 0.004029 -0.002468 -0.001183 -0.000083 -0.001478 0.000334 0.001771 -0.003085 0.000113 0.004710 -0.001512 -0.004760 0.003364 0.000558 -0.004242 0.004245 -0.001407 0.004000 -0.001311 -0.004282 -0.002368 -0.001748 0.002699 -0.003214 -0.000706 0.003927 0.000301 -0.004121 -0.004502 0.002286 0.004353 0.002795 0.002744 0.001550 0.002937 -0.004933 -0.002044 0.001679 0.003522 0.001862 -0.003239 0.003969 0.003799 -0.004187 -0.002913 -0.002402 0.002626 0.003833 0.000787 -0.003042 -0.001135 -0.003798 0.004258 0.002581 -0.000041 0.000048 -0.004000 -0.001296 -0.003687 0.002823 0.000630 -0.002781 -0.002449 -0.002400 -0.001457 -0.001352 -0.002023 0.001729 -0.004769 -0.001984 0.002535 0.004330 0.002622 -0.002590 -0.002610 -0.003009 0.003815 -0.002319 0.002298 -0.002021 -0.004803 0.002006 0.002433 -0.004312 -0.002150 0.004299 -0.003348
sent_28 -0.004119 0.000970 0.004308 -0.003630 0.000178 0.001805 -0.003221 -0.004921 0.003872 -0.004610 -0.002438 0.001521 -0.002111 -0.004862 0.000767 -0.001934 -0.003502 0.004667 -0.003362 0.002251 0.003948 0.003497 -0.003138 -0.002598 -0.004827 0.004261 0.003858 0.000902 -0.003921 -0.003258 0.000777 -0.002476 -0.002023 -0.003316 -0.003092 -0.000351 0.000081 0.000152 0.004921 -0.003684 0.002552 0.002913 0.000780 -0.000400 0.003949 0.003297 -0.004452 0.004652 -0.004887 0.000726 0.000700 0.003366 -0.001168 -0.004149 0.000781 -0.004763 -0.001381 0.004810 0.003683 -0.003459 0.003082 0.003149 0.004235 -0.002701 0.000015 0.003252 0.001642 0.000972 0.001526 -0.002643 -0.004788 0.002397 -0.001699 -0.001246 0.001145 0.001590 -0.002981 0.003291 -0.001173 0.001420 0.004665 0.000706 -0.001377 0.001182 0.000056 -0.000403 0.002353 0.004215 -0.000252 -0.004025 0.000719 -0.002551 -0.004541 0.002836 -0.002203 0.002704 -0.000088 -0.001824 -0.001797 -0.004597
sent_29 0.001093 0.004034 -0.003602 -0.003437 0.000692 0.002106 0.001987 -0.002221 -0.005957 -0.000438 -0.003122 -0.004276 0.002810 0.005052 -0.001549 -0.003003 0.000289 0.002527 0.003033 0.001389 0.000261 0.000469 -0.002374 -0.001960 0.003218 0.002969 -0.004197 -0.002813 -0.005945 0.000541 -0.002459 0.001966 0.002265 -0.004304 -0.002987 0.002966 -0.000111 0.000297 0.003783 0.003184 -0.001312 -0.005336 -0.001015 -0.001471 -0.004663 0.002597 -0.000187 0.001511 0.003544 0.003648 0.000659 -0.000860 -0.003969 -0.004628 -0.001239 0.001457 0.001674 -0.003907 -0.003736 -0.002611 0.000707 0.003226 -0.000384 -0.000797 0.001230 -0.003103 0.001536 0.003489 0.000869 -0.000292 -0.002984 0.004122 0.004986 0.002739 0.001225 -0.003748 -0.001801 -0.001639 -0.001535 0.000870 0.001555 -0.001394 -0.001631 -0.003775 -0.001579 0.002076 0.000188 0.004843 0.004085 0.000554 0.004648 -0.001915 0.000575 -0.000616 0.005892 0.002409 -0.002324 0.000656 -0.002481 0.000435
sent_30 0.002910 -0.004649 -0.003106 0.004680 0.004611 0.000536 0.001447 -0.002303 0.004528 0.001700 0.001713 -0.004879 0.003501 0.002758 0.001876 0.002407 -0.003435 0.002122 -0.004052 0.002107 -0.004950 0.002829 -0.000065 -0.002965 0.002305 -0.001839 0.003787 -0.003193 0.004361 0.004718 -0.001942 0.003605 0.003439 -0.000683 -0.001371 -0.002232 0.004961 -0.002452 0.004216 -0.000751 0.004388 0.003441 -0.003435 0.000733 0.001670 -0.000949 -0.004921 -0.001753 0.003400 -0.004434 -0.003882 0.001972 0.000184 -0.000026 -0.001218 0.000990 0.003523 -0.002200 0.003494 -0.000808 -0.000076 0.002215 -0.002388 0.004137 0.002027 0.001203 -0.002212 0.001980 -0.002412 0.003090 -0.004852 -0.003360 0.000570 0.002148 -0.000127 0.003786 0.004793 -0.000307 0.002704 -0.000091 0.001676 -0.002752 -0.003927 0.004820 0.003160 -0.002197 0.000898 -0.001169 -0.003266 -0.000859 -0.002093 -0.004809 -0.001144 0.004165 0.003250 0.000749 -0.001802 -0.002692 0.004514 0.000644
sent_31 -0.003174 -0.003002 0.004024 -0.003256 -0.003834 -0.003694 0.002658 0.002138 0.000168 0.002868 0.000512 -0.001125 -0.004503 0.003708 -0.001806 0.001590 0.004971 -0.002752 0.004552 0.001808 -0.004360 0.003705 0.004088 0.000388 0.001778 -0.004003 0.005390 -0.001219 -0.004392 0.002531 0.004642 0.001817 -0.005134 -0.004059 0.000098 -0.001205 0.003357 0.003767 0.005481 0.001966 0.003515 -0.001229 -0.003299 0.003278 -0.002300 -0.000637 0.000768 0.000619 -0.001351 -0.000940 -0.003459 -0.000240 -0.002428 0.002755 0.001524 -0.004516 0.005101 0.003557 -0.002670 -0.004175 -0.000428 -0.002061 0.000910 0.000725 0.002850 -0.004468 0.002379 -0.001994 0.005466 0.003683 0.001315 0.000840 -0.003153 -0.002410 -0.003961 -0.001178 -0.003872 0.000514 0.001126 -0.004452 -0.001867 -0.005043 -0.000312 0.001624 0.000798 0.001900 -0.002801 0.001209 -0.001599 -0.004968 -0.002056 -0.004800 0.004449 0.002108 -0.004824 0.003471 -0.001804 0.003322 -0.000719 0.003704
sent_32 -0.002795 -0.001328 -0.001332 -0.004029 -0.001690 0.001597 -0.000335 0.003792 -0.002303 -0.001452 -0.001796 0.000517 -0.003118 -0.003268 0.004395 -0.001234 0.000871 -0.004448 -0.003591 -0.004036 0.003121 -0.003969 0.000163 -0.003444 -0.002212 0.003826 0.001316 0.004637 0.000997 -0.004905 -0.000844 -0.004776 -0.001860 -0.000184 0.000755 -0.002613 0.000583 -0.001051 0.000066 -0.003040 -0.003432 0.002545 -0.001700 0.001442 0.000655 0.003995 0.003807 -0.000569 -0.002953 0.001322 0.001368 0.001924 0.004075 0.002826 0.001253 0.001010 -0.002872 0.001514 0.003145 0.004223 0.004167 0.000611 -0.002402 -0.001662 0.004978 0.000256 0.003159 0.000970 0.000069 -0.001515 0.000378 -0.004933 0.003767 0.000615 -0.004757 0.003182 -0.003646 -0.004694 -0.000377 0.004607 -0.004064 -0.004344 0.003799 0.003214 0.003200 -0.000322 -0.000725 -0.000989 0.000822 0.002290 0.002843 0.001548 0.000625 -0.000876 -0.001801 -0.002138 -0.002038 0.001828 0.002624 0.000976
sent_33 -0.002642 -0.002469 0.002767 0.005186 -0.004765 -0.002378 0.003101 0.001957 -0.003122 0.000694 0.000700 0.002304 0.000114 -0.000605 -0.002305 -0.002818 -0.004257 0.001401 0.001682 0.001600 -0.004725 -0.001345 -0.003675 0.000621 0.004830 -0.000556 -0.001423 0.002941 0.004490 -0.001908 0.002922 0.005188 -0.003820 0.000242 0.003605 -0.001612 -0.000207 0.002326 -0.004462 -0.001070 0.000561 -0.002986 0.002998 0.002593 0.004944 0.000213 -0.003561 0.004719 0.003620 0.000408 0.002899 0.004302 0.002609 0.000536 0.001226 0.003383 0.001064 -0.003448 0.001852 -0.000098 -0.001985 -0.004505 -0.003001 0.002349 0.003719 0.002940 -0.004140 -0.004537 0.002480 -0.002512 -0.002582 -0.004678 -0.003995 -0.003634 -0.003011 -0.000350 0.003143 0.003182 0.004125 0.000107 0.002286 0.000465 -0.004185 -0.004260 -0.002363 0.005683 0.001991 -0.002344 0.001837 0.002293 -0.004245 -0.001040 0.003046 -0.004263 0.004330 0.003877 0.003718 -0.003360 0.001136 0.002077
sent_34 0.004463 -0.003081 0.003894 -0.001333 0.000967 0.002831 0.002860 -0.002248 -0.000226 -0.001801 0.004493 0.003565 0.000194 0.004152 0.001499 0.003508 -0.003671 -0.002594 -0.003913 -0.002386 -0.000309 -0.000302 0.000306 0.002736 -0.002142 -0.004514 -0.001942 -0.001363 -0.001364 0.005057 -0.002205 -0.000765 -0.002658 -0.001663 0.000068 -0.000172 -0.001326 -0.002605 0.001249 0.004584 -0.003657 -0.004193 -0.004734 0.002246 -0.002271 0.000833 -0.001965 0.003907 -0.000910 0.001411 -0.004131 -0.000834 -0.002238 0.000996 0.002179 0.003714 -0.003527 0.001591 0.002084 -0.000317 0.001898 -0.003222 -0.004293 0.000526 0.002137 -0.004001 -0.001454 -0.000223 0.003571 -0.005036 0.002186 0.005265 -0.002245 0.003603 -0.001212 0.003031 -0.000484 0.000534 -0.002344 0.003166 -0.002996 0.001996 0.000735 0.003191 0.000317 0.004864 -0.000802 -0.001997 0.002191 0.000569 0.000298 0.001627 0.003506 0.000963 0.000347 -0.004425 0.002435 0.005032 -0.002793 -0.000379
sent_35 0.004411 0.000947 0.000337 -0.004217 0.000545 0.001410 -0.003265 0.004290 -0.003116 0.001918 -0.002300 -0.003831 -0.002157 -0.001356 -0.000369 -0.002657 0.002147 0.002924 0.002806 0.002047 -0.002209 -0.003382 -0.004050 -0.000886 -0.004160 0.001312 0.004360 0.002439 -0.003912 -0.004807 -0.001738 0.004978 -0.001990 0.002330 0.002277 0.000754 -0.001462 -0.002823 0.004542 -0.004115 -0.002755 -0.001958 0.003781 0.001775 -0.002216 -0.003218 0.004003 0.003084 -0.004471 0.003707 0.000598 -0.000294 0.001601 -0.004887 -0.001806 -0.004319 0.001950 -0.001358 -0.000234 -0.002040 0.003483 -0.004280 -0.002383 0.001259 0.003118 0.000881 0.002178 -0.004733 -0.002350 -0.004856 -0.000165 0.005052 -0.004795 -0.000529 -0.004827 0.001328 -0.003100 0.002468 -0.003298 0.003880 -0.002959 -0.001216 -0.002421 0.002954 -0.000016 0.004176 -0.003574 -0.000157 0.002629 0.005305 0.001867 -0.003055 0.003019 -0.004583 0.002977 0.002959 0.000841 -0.000061 0.004729 -0.005091
sent_36 -0.005207 -0.002767 -0.000384 0.000004 -0.001287 -0.002423 -0.002995 0.003023 -0.001247 -0.000179 0.003347 0.000890 -0.001376 -0.003300 -0.000758 0.000261 0.005011 -0.001737 -0.003433 -0.002588 -0.003447 -0.003549 -0.001779 -0.002323 0.003765 0.003389 -0.003476 0.004023 -0.003550 0.001693 0.000560 -0.004514 0.003944 0.003996 0.002891 -0.000921 -0.003175 0.004945 0.003646 -0.004701 -0.001494 0.003606 0.000828 -0.002887 0.002761 -0.002249 -0.005546 -0.002990 0.004456 0.001784 -0.002660 0.001436 0.001974 0.001608 -0.004501 -0.002731 0.003881 0.002840 -0.003366 -0.001657 0.000571 0.002910 -0.002640 -0.004584 -0.001226 0.004412 -0.002278 -0.003988 -0.004005 -0.001279 -0.004061 0.000727 0.001647 -0.000145 0.002094 0.000110 0.002078 -0.002345 0.002189 -0.000511 0.001801 -0.001153 -0.000322 -0.004566 -0.000409 -0.004506 -0.003726 -0.000640 0.001118 -0.002190 -0.003386 0.002030 0.004596 0.002231 -0.004848 0.003895 -0.004566 -0.001236 0.003824 -0.002390
