42 100
sent_0 -0.000719 0.002089 -0.005025 -0.002125 -0.003423 -0.004123 -0.003154 -0.001566 -0.000908 0.000410 -0.000729 0.001998 -0.003018 0.003743 -0.004556 0.001635 -0.000811 0.000402 -0.003624 -0.002927 0.002966 0.004738 -0.001973 0.001736 0.003797 0.004022 -0.004305 -0.004570 -0.003389 0.003821 -0.003904 -0.000828 0.004475 0.000312 0.001827 -0.001801 0.001700 0.003461 -0.004753 0.002549 0.004885 0.002535 -0.002258 0.002789 -0.004082 -0.000442 0.004015 -0.002129 -0.002085 -0.003860 -0.004651 0.001701 -0.002867 -0.002391 -0.000026 -0.004571 0.000881 -0.003452 0.001037 0.002176 -0.003939 -0.001013 0.002048 -0.000891 -0.004368 0.000421 0.001759 0.000307 0.004492 0.000779 0.003971 -0.003700 -0.003612 0.003146 -0.001186 -0.003417 0.004321 -0.001434 0.002604 0.002269 0.003735 0.001168 0.002551 -0.001523 -0.002372 0.003874 -0.000686 0.004582 0.001633 0.001100 -0.004029 0.004480 -0.000554 0.000615 -0.000912 -0.002607 0.004098 0.000639 -0.005016 0.001154
sent_1 -0.001758 0.000202 0.003788 -0.001532 0.004084 0.001189 -0.004857 0.004309 0.001993 0.004962 -0.003228 -0.003634 0.004235 0.001937 -0.004280 0.002590 0.002554 0.004252 0.002113 -0.003723 -0.004887 -0.004587 -0.004785 -0.002585 0.003595 0.000495 0.000559 0.003509 -0.003732 -0.002248 0.000851 0.004628 0.000593 -0.004765 0.002919 -0.002631 0.003020 -0.001123 0.003713 0.002444 0.000531 -0.003568 -0.004335 -0.003813 -0.004607 -0.003892 -0.002834 0.002057 0.000521 -0.004880 -0.004224 0.004585 0.000724 -0.002937 -0.002464 0.002400 -0.002994 0.000916 0.004722 0.003526 -0.002668 -0.000156 0.001268 0.003159 -0.003446 -0.004761 -0.004239 -0.000125 0.001142 0.000701 -0.001738 0.004854 0.000771 -0.001150 0.000438 0.002436 0.001690 -0.002312 -0.004360 -0.001396 0.001251 -0.002995 0.002456 -0.004313 -0.002455 0.002887 -0.003090 0.001396 0.000295 0.004119 -0.002419 -0.004384 0.002303 0.002703 0.003955 0.004410 -0.004880 -0.002740 0.001074 0.004485
sent_2 0.004944 0.000574 0.004347 0.001568 -0.000835 0.000033 0.001109 0.000366 0.004033 0.004248 -0.001071 0.004987 -0.003011 -0.003609 -0.003426 -0.000291 -0.004770 0.004023 0.003256 -0.004852 -0.002995 -0.002211 -0.003660 0.002909 -0.001482 0.004080 0.000305 0.003550 0.003047 0.004414 -0.000133 0.000624 0.002858 -0.002328 0.000037 0.000961 -0.004955 0.001099 -0.000935 0.003229 -0.001798 0.003626 0.000327 -0.003196 0.002935 0.001254 -0.004235 -0.000648 0.002111 0.003836 -0.004904 0.004865 -0.001396 0.004555 0.001203 0.003239 0.000893 0.000971 -0.001950 0.000798 0.002826 0.003746 0.002447 0.002400 0.003921 -0.001931 0.001710 -0.000274 -0.001409 -0.001137 -0.001455 -0.001736 0.001348 -0.000723 0.004742 0.001612 -0.002966 -0.000725 -0.001290 0.003450 0.003742 0.004300 0.001987 -0.002331 -0.002325 0.004092 0.000388 0.002770 0.000560 0.002597 0.000077 0.002929 0.000690 -0.000614 -0.001100 -0.004629 -0.000865 -0.003950 0.005162 -0.003257
sent_3 0.003266 0.003947 0.001859 0.000589 -0.003180 -0.000375 -0.001484 -0.002927 0.000664 -0.001654 0.004104 0.004316 -0.002272 -0.003687 -0.003093 -0.000252 0.002196 -0.003326 -0.002530 0.003407 -0.000595 0.000929 -0.002610 -0.003952 0.000326 -0.000552 -0.003817 0.001033 0.000120 0.001882 -0.003410 0.002535 -0.002754 0.000114 0.003120 -0.005107 -0.001467 0.003790 0.003275 0.000537 0.003832 0.004231 0.002812 0.003416 -0.004143 0.001539 0.002282 0.001299 0.003232 -0.004975 0.002595 0.002489 -0.002296 -0.002581 0.001474 -0.001773 0.002955 -0.000733 0.003055 0.004902 -0.001969 -0.003511 0.003840 0.000637 0.004749 0.001205 0.005090 0.000587 0.000324 -0.004046 -0.001605 -0.004683 -0.003384 0.002553 -0.004696 -0.001360 0.003668 0.002015 0.002115 -0.002679 -0.000477 0.001243 0.005090 -0.002852 -0.002489 -0.001897 0.002642 -0.000454 -0.004673 0.000364 -0.003028 0.003233 -0.001916 -0.004916 0.001165 0.003208 -0.001014 0.002725 0.000235 0.000457
sent_4 0.004938 0.003470 -0.004389 0.002567 -0.000196 0.004732 -0.002630 -0.002514 -0.004868 -0.000598 -0.004058 0.001559 0.003593 0.002250 0.002463 -0.001983 0.003290 -0.001050 0.003248 0.001038 -0.003141 -0.005080 -0.004549 -0.004069 -0.000367 -0.004526 -0.005135 0.002173 -0.001444 0.002915 -0.000394 -0.000188 -0.000214 -0.000405 0.003504 -0.001322 0.004298 -0.004739 0.002131 -0.003442 0.001130 -0.005388 -0.000228 -0.004840 0.004819 0.004065 0.003454 0.004468 -0.003124 -0.003642 -0.003385 0.001696 0.003852 0.004620 0.002321 0.002334 0.003989 -0.001570 -0.002482 -0.003739 -0.003435 0.003596 -0.003928 -0.001639 0.003211 -0.002298 0.004604 -0.002397 0.000017 -0.002217 0.003573 -0.001016 -0.000570 0.000034 0.004764 -0.004666 0.002127 0.003822 -0.004539 0.001005 -0.001541 0.004218 0.000988 0.001859 -0.000144 0.002314 -0.001977 -0.005044 0.000480 -0.001164 0.000350 0.004603 -0.000586 -0.002615 -0.000620 0.003753 0.004718 0.004039 0.004803 -0.002756
sent_5 -0.004056 -0.002691 -0.001807 -0.003204 0.001099 -0.000825 0.003181 -0.003172 0.001961 -0.002573 0.000718 -0.001449 -0.004364 -0.002687 0.001637 -0.000088 0.000179 -0.003335 0.000709 0.004946 0.003235 0.000820 0.004778 0.004011 0.000970 -0.004752 -0.004153 -0.004410 -0.000544 -0.001177 0.004786 -0.003269 0.004716 0.002630 0.003304 0.001301 0.001694 -0.000200 -0.004933 -0.001435 -0.000059 0.002239 -0.000408 -0.000420 -0.003603 -0.004884 0.002650 -0.001762 0.004918 -0.002851 -0.001627 0.000283 0.002520 -0.000409 -0.003729 -0.001875 0.000059 0.001660 0.002721 -0.003714 -0.004706 0.000240 0.003061 -0.004774 0.001776 0.001831 -0.000519 0.004180 0.001394 -0.004995 -0.000256 0.003608 0.003323 0.001470 0.001766 0.000770 -0.002254 0.000593 0.001770 -0.001369 0.003565 -0.002970 0.002554 -0.002122 0.002770 -0.000585 0.003104 -0.001498 -0.002913 0.002766 -0.001928 0.002382 0.002470 -0.002818 -0.002750 -0.003089 -0.003513 -0.001166 -0.004650 -0.003902
sent_6 0.001581 0.002801 -0.004448 -0.002966 -0.002904 0.003940 0.002107 0.000561 -0.001641 0.003314 -0.000485 0.004118 0.001779 -0.000294 -0.003571 0.004943 -0.003384 -0.002826 -0.000732 -0.000832 -0.003807 0.002744 -0.003274 0.001374 0.002488 -0.002579 0.001220 0.002751 0.001539 0.000727 -0.002105 0.002071 0.004392 -0.000567 0.002497 -0.004277 0.003152 -0.003108 -0.000832 -0.002066 -0.004355 0.004328 -0.001046 0.000164 -0.000182 -0.003608 -0.003217 -0.004452 -0.000167 -0.002304 -0.001292 -0.004156 0.002982 -0.003864 0.004797 -0.003339 0.000817 -0.004225 0.002887 -0.002913 0.000163 0.002129 -0.003314 0.000119 -0.002908 0.002761 0.002330 -0.003228 0.003884 -0.004725 0.003927 0.000539 -0.001021 0.002738 0.001967 0.004915 -0.002223 -0.004782 0.004221 0.003291 0.002183 -0.000164 0.001800 0.002849 -0.001391 0.002166 0.002436 0.001162 -0.000812 0.001612 -0.005021 0.002561 0.003894 -0.002677 -0.004175 -0.002551 -0.002106 0.003497 0.000148 -0.002154
sent_7 -0.003918 -0.002064 0.000856 -0.001747 -0.000405 -0.000882 0.003486 -0.000798 -0.001319 0.001760 -0.002704 -0.000649 -0.001982 0.001366 0.003767 -0.000219 0.002780 -0.000084 0.001479 -0.003688 -0.000904 0.004238 0.000982 0.002917 -0.000125 0.000135 0.003875 -0.004156 0.001038 0.004024 -0.000065 -0.003259 0.003407 -0.002315 0.001748 0.000623 0.004299 0.001154 0.003413 -0.004923 0.004595 -0.003970 -0.001551 0.004274 -0.004807 0.003285 0.003454 -0.000711 -0.002683 0.003350 -0.000361 -0.003730 0.004268 0.003919 -0.000362 0.003514 -0.000857 0.001974 -0.001225 0.000121 -0.002879 0.004660 -0.002079 -0.004151 -0.003700 -0.004796 0.001982 0.000499 0.003220 0.000194 0.003239 0.002103 0.002792 -0.000860 0.001511 -0.002954 -0.001848 -0.003014 -0.001134 -0.002618 -0.000967 0.004564 -0.002042 0.004802 0.001373 -0.001584 0.003528 0.001219 -0.002360 0.002933 -0.000369 -0.001647 -0.001491 0.001930 -0.002539 0.003156 -0.002202 0.000126 -0.000176 0.003503
sent_8 0.004338 -0.002250 0.001336 0.004527 -0.000215 0.004473 -0.001943 0.000671 0.000807 -0.002170 -0.005366 -0.000398 0.005238 -0.000941 0.002235 -0.003897 -0.001794 -0.004309 0.002188 0.001414 0.002859 -0.004010 0.002335 -0.002320 -0.000448 -0.002538 -0.002194 -0.005277 0.000678 0.003001 0.001348 0.002024 -0.003122 -0.004027 0.001284 0.002906 -0.002196 -0.000178 -0.001399 0.000329 -0.002790 -0.002618 -0.003587 0.003420 0.003153 -0.000880 0.002102 -0.002626 0.001030 -0.002449 0.002919 0.002584 0.001270 -0.004151 -0.000189 0.004816 0.004134 0.000409 -0.003316 0.001007 0.001211 0.000533 -0.001494 0.002263 0.003656 0.001858 0.000643 0.004308 -0.004795 0.004147 -0.005415 -0.002691 -0.000547 -0.004113 0.001811 -0.004472 -0.002077 -0.004522 0.002510 0.003115 -0.000795 -0.001550 0.003363 -0.001567 0.003345 0.001856 0.000660 -0.004807 0.000575 -0.000074 -0.002535 0.000018 -0.000572 -0.000436 0.006086 -0.002344 0.003153 0.001514 0.004819 -0.001374
sent_9 -0.001955 0.004367 -0.004303 0.004764 0.000900 -0.000999 0.005150 -0.004738 -0.000141 -0.004551 0.000645 -0.002671 0.001785 0.005086 0.003947 -0.000874 0.002082 0.002147 -0.000117 0.000232 -0.003106 -0.002290 -0.003694 0.002067 -0.000157 -0.001030 0.003088 -0.000056 -0.001413 -0.001908 -0.004021 -0.000469 -0.004922 -0.002322 0.000342 0.004605 -0.004088 0.002000 -0.000420 0.003031 -0.003442 -0.004532 -0.001655 0.002679 -0.002979 0.002860 -0.001697 -0.002504 -0.004325 -0.001498 -0.001222 0.001747 -0.004585 -0.003820 -0.004686 -0.004008 0.001791 -0.001595 -0.001584 0.000554 0.005638 0.003700 0.001827 0.004891 -0.004001 -0.004571 -0.000298 -0.001257 0.004041 -0.000600 -0.000324 0.004058 -0.000335 0.003728 -0.002401 -0.002318 -0.001546 0.000692 -0.002394 0.002541 -0.003659 -0.003578 0.004390 -0.002782 -0.000938 0.001646 0.000498 -0.004603 0.003418 0.005101 0.003003 -0.001831 0.000568 -0.002102 0.001391 0.004186 -0.001275 0.002049 -0.001101 0.002585
sent_10 -0.001535 0.003936 0.002495 0.002682 -0.000106 -0.002928 -0.004456 -0.001934 -0.004533 0.002008 0.001729 -0.000500 0.002773 0.000491 -0.004439 -0.003709 -0.003069 -0.001827 -0.004556 0.001073 0.000120 0.000844 -0.000894 0.003332 -0.000474 -0.004904 0.003516 0.001537 0.003130 0.004525 -0.004429 -0.002603 -0.004547 -0.000894 0.003609 -0.004023 -0.000578 -0.003548 0.002662 0.003571 -0.004636 -0.000152 -0.002795 0.004247 0.004473 0.001289 0.004747 -0.001509 0.004111 -0.000795 -0.002659 0.004390 0.001695 -0.004525 0.003644 0.001891 0.001265 0.002164 -0.002396 0.001174 0.003621 -0.004380 -0.003691 0.003662 0.001511 0.000299 -0.002556 -0.001901 0.003736 -0.000923 -0.004593 0.004007 -0.002887 0.003315 0.003774 -0.000110 0.001069 0.000496 0.001392 0.003883 -0.002337 0.003876 0.000929 -0.003985 -0.002744 0.001157 -0.002545 -0.003896 -0.003433 0.003622 0.000993 0.004643 -0.001349 0.000649 0.001265 0.000992 -0.004197 0.002432 0.004704 0.000248
sent_11 -0.003162 0.002791 -0.005002 -0.001628 0.004265 0.000782 0.003682 0.000905 0.003056 0.003931 -0.001887 -0.003845 0.002349 -0.000359 -0.003888 0.000903 -0.004702 -0.002991 0.002851 -0.005022 -0.001856 -0.005022 0.005029 0.001024 -0.002028 0.004053 0.000121 -0.000560 0.000853 -0.002322 -0.002012 -0.001282 -0.002506 0.000803 0.002146 -0.004439 0.004953 0.002505 0.002954 0.002605 -0.004133 -0.000339 -0.000713 0.001587 -0.000482 0.002017 0.001975 0.002182 0.001256 -0.003458 0.002332 0.002995 0.004062 -0.002727 -0.003334 -0.001183 -0.001943 0.002967 0.001112 0.002536 -0.000559 -0.003798 -0.004052 -0.001066 -0.003162 0.003069 0.000921 0.001803 -0.000010 -0.004272 -0.002642 -0.000256 -0.002982 -0.004717 0.002423 0.002384 -0.001685 0.003539 -0.000720 0.003946 0.001678 0.001105 -0.002915 0.000349 0.004006 -0.001639 0.003781 0.004123 -0.001829 0.002138 0.004174 -0.004173 0.004025 -0.003129 0.003644 0.001526 -0.001565 -0.003374 0.001471 0.003538
sent_12 0.003387 0.001370 0.004843 0.001158 -0.003124 -0.000410 -0.001728 0.005043 -0.001493 0.004901 0.000058 -0.003207 -0.004012 -0.001416 -0.003964 0.001118 -0.000970 0.004798 0.004431 -0.003576 -0.000862 -0.000673 0.000885 0.002896 -0.000126 -0.001015 -0.002551 0.003931 -0.004887 0.003416 -0.003049 0.002068 -0.001401 0.004668 -0.003549 -0.003308 0.004070 0.000711 -0.002138 -0.004938 -0.002791 -0.003751 -0.003128 0.004283 0.003955 0.001897 -0.000088 0.003322 0.000152 -0.001411 -0.002238 0.004517 -0.001163 -0.000105 -0.002295 0.004078 -0.001256 -0.002147 0.002123 -0.003391 -0.003929 0.003483 0.002305 0.001147 -0.002605 0.001148 0.001299 -0.001752 -0.004656 0.003831 -0.000692 0.002683 -0.002484 0.000734 -0.000469 -0.001260 -0.003835 -0.002857 -0.004189 -0.001864 0.002562 0.001327 0.001813 -0.005000 0.001945 0.000372 -0.002713 -0.003253 -0.003226 0.003630 0.004856 0.004326 -0.001643 0.002982 0.000699 0.002987 -0.000107 0.001185 0.003109 -0.004034
sent_13 0.000986 -0.001259 0.001425 0.004853 -0.000834 -0.000693 0.002917 0.001322 -0.001468 0.001928 -0.001028 -0.003133 -0.000068 -0.001540 -0.002632 0.003753 0.001910 0.000372 0.002474 0.000396 0.002401 0.003545 0.003684 -0.003566 -0.002254 -0.004740 0.004036 -0.002972 0.001063 -0.003552 -0.002552 0.000370 -0.004068 -0.001369 0.000688 -0.001732 0.000486 0.000544 -0.001484 0.002162 0.001915 0.001438 0.000008 -0.001364 0.001229 0.004466 0.001319 0.005012 -0.000117 0.001897 -0.004513 0.002822 -0.000051 -0.005185 -0.001925 0.000344 0.002867 -0.004949 0.000722 0.002846 0.001841 0.004556 -0.004389 -0.001612 0.004595 0.002406 0.000997 0.003581 0.003536 0.004398 0.004275 -0.003529 -0.004156 -0.004359 -0.004784 0.004486 -0.003972 0.003323 0.002245 0.000480 -0.001566 -0.001076 -0.001910 0.004033 0.002461 -0.003907 -0.000237 -0.002489 -0.004952 0.004237 0.002501 -0.001334 0.002931 -0.002021 -0.001214 0.003837 0.005273 0.000705 0.005016 0.003797
sent_14 0.000711 -0.001248 0.002334 -0.000200 0.001308 0.005140 0.002812 -0.001774 -0.004127 -0.003083 0.000194 -0.000407 0.003325 0.004404 -0.003005 0.003299 0.004555 0.004126 -0.004627 -0.004389 -0.004763 -0.002618 -0.004591 -0.002371 -0.001430 0.004305 -0.000812 -0.002420 -0.000268 0.001659 -0.003642 0.002843 0.003253 0.003158 0.004013 -0.001021 -0.000947 -0.003677 -0.002952 0.004933 -0.002200 0.003862 0.003473 0.004024 -0.003274 0.003957 0.001491 -0.002770 -0.001162 -0.003747 -0.000472 -0.004058 -0.003595 -0.003295 0.001953 0.000742 0.004055 -0.002894 0.001424 -0.004540 0.000788 0.003803 0.004792 -0.004352 -0.001873 -0.002808 -0.004582 -0.004585 -0.000412 -0.004722 -0.002878 0.001407 -0.001920 -0.002398 0.000947 -0.001313 0.002118 0.000051 0.001638 -0.000916 -0.002314 -0.003507 0.004893 0.002781 0.004474 -0.002599 0.004434 0.003983 -0.002307 -0.001922 0.000388 -0.003007 -0.000413 -0.003519 0.005132 -0.000423 0.005056 0.001553 0.000349 0.004496
sent_15 -0.003398 0.001501 0.001774 -0.000344 -0.004380 0.000113 -0.000258 0.002979 -0.002710 -0.001122 -0.002656 0.001931 0.005195 -0.003090 0.003212 -0.002803 -0.004440 -0.003692 0.004333 0.003823 -0.001935 0.004008 0.003558 -0.000580 -0.000362 0.001043 -0.003607 -0.005004 -0.002484 -0.004716 0.001739 0.000709 -0.001820 0.002760 -0.003390 -0.002547 -0.002125 -0.003070 -0.004409 0.003782 -0.004163 0.001668 -0.003998 -0.004867 0.000797 0.004126 0.003817 -0.001476 -0.004588 0.002939 0.002957 0.003804 0.001488 0.002957 0.004030 -0.000412 0.000600 -0.000295 0.001850 0.001606 0.000512 0.003576 -0.000099 0.003608 -0.002045 -0.003386 0.004530 0.002370 -0.002624 0.000726 0.004290 -0.004057 -0.004092 0.001098 -0.002575 0.002673 0.000700 0.001671 -0.003838 -0.003817 0.001276 -0.000728 -0.003885 -0.001357 0.001917 -0.002665 0.004018 0.004369 0.004549 0.002630 -0.000803 0.002613 -0.002020 -0.001926 0.001425 0.000700 0.004035 -0.002194 0.003006 0.004356
sent_16 -0.004953 -0.000370 0.001529 0.003293 -0.003135 0.003544 -0.001442 0.003962 -0.004651 -0.004193 0.004911 0.001138 -0.000933 -0.003384 0.001589 -0.004663 -0.001867 -0.001757 0.001074 0.001592 0.003334 0.004479 0.001540 0.000671 -0.000997 0.004788 -0.003469 0.004092 -0.001910 0.000478 0.001874 -0.002721 -0.003349 0.000146 0.002795 0.001926 -0.003881 0.003956 -0.000110 0.004481 0.000456 -0.004089 -0.002895 0.003545 0.001992 0.003973 -0.001860 0.000174 0.001441 0.000902 -0.002547 -0.000802 -0.002473 0.003522 0.004955 -0.004368 0.002192 -0.001522 0.001335 -0.002400 0.001369 -0.001455 -0.001923 0.003972 0.004378 0.001189 -0.002769 0.004401 0.002554 0.002514 -0.002815 0.003279 -0.002639 0.001411 0.001996 0.002366 -0.001098 0.002601 0.004000 0.000716 -0.004144 -0.003861 -0.004052 -0.003247 -0.003821 0.002582 -0.004671 -0.002584 0.003881 0.004493 0.000966 0.004735 -0.004726 0.004471 -0.002048 0.003107 0.003060 0.003529 -0.000558 0.004305
sent_17 -0.002442 0.004261 0.001135 0.004757 -0.004660 0.002207 0.000624 -0.000060 -0.002305 -0.001753 -0.002457 -0.002814 0.002905 -0.000009 -0.004100 0.002806 0.000365 0.002426 0.000144 -0.000948 0.004775 -0.004579 0.004262 0.004237 -0.001090 -0.002753 0.001227 -0.003134 0.003061 -0.002513 -0.002080 0.004094 0.004010 0.000385 0.003534 -0.001427 0.004918 -0.000656 -0.001955 -0.004607 0.004882 -0.000283 0.002426 0.001363 0.002173 -0.004472 0.004098 0.004213 0.000457 0.004642 -0.002125 0.000943 -0.001004 0.001325 -0.002000 0.003165 -0.004267 -0.004475 -0.004476 -0.003425 -0.001099 0.004460 -0.003811 0.001365 0.000274 -0.001411 -0.002968 -0.002779 -0.004503 0.002159 0.001614 -0.000597 0.002175 -0.003852 0.004304 0.003460 0.001604 -0.001176 -0.000857 -0.000290 0.004307 0.003526 -0.000284 0.000560 0.003692 0.004328 0.001365 0.002487 -0.001427 0.004034 0.003326 0.000462 0.003628 0.003479 0.002976 -0.003601 0.000318 0.003915 0.002606 -0.000790
sent_18 0.004676 -0.002422 -0.001807 0.004660 0.003195 0.003783 -0.004614 -0.001295 -0.002479 -0.001931 0.002349 0.002087 -0.000355 -0.001222 0.000882 0.000487 0.000423 0.001200 -0.001089 0.002657 -0.002506 0.001348 0.004593 -0.004779 0.002092 -0.003935 0.000613 0.001203 -0.002418 0.003917 0.001108 -0.002738 0.002568 -0.003951 0.000442 -0.003828 0.000611 -0.002370 0.001399 0.002180 0.000054 0.001659 0.003077 0.002894 0.001331 -0.000406 -0.000877 0.003738 0.002012 -0.002998 0.000527 0.004088 -0.003542 0.003262 0.002926 -0.000023 -0.004590 -0.003576 0.004072 -0.004433 -0.000863 0.001308 -0.003167 0.004867 -0.003355 0.000421 0.001004 -0.002638 -0.000216 -0.000053 0.002679 0.001462 -0.000234 0.001616 -0.000375 0.000422 0.001519 -0.002973 0.002839 0.001285 0.004753 -0.002747 -0.000341 0.003869 0.001124 0.002262 -0.000804 0.001740 0.004406 -0.002734 0.003279 0.004554 -0.004543 -0.002996 -0.003719 0.002538 -0.004160 0.004772 -0.000916 0.003945
sent_19 -0.003617 -0.000978 0.002799 0.000389 -0.000312 -0.000528 0.000824 -0.000594 -0.002171 -0.003942 -0.003128 -0.004862 -0.000060 0.003382 -0.001028 -0.003659 -0.000675 0.001503 -0.000915 0.003416 0.003698 0.004642 0.001561 -0.000444 0.001633 -0.004076 0.005479 -0.002651 0.004594 0.002289 0.002766 -0.002878 -0.003041 -0.000348 0.002685 0.000040 0.003734 -0.001438 0.001787 0.004678 0.001067 -0.003786 0.000325 -0.002181 0.000071 -0.001958 -0.004480 0.001245 0.001196 0.003996 -0.003461 0.002430 0.003429 0.001609 -0.003319 -0.002671 -0.000616 0.001127 -0.000275 0.000293 0.003426 0.003152 0.003599 0.002965 0.000638 0.005074 0.001196 0.001039 -0.001138 0.002061 -0.003699 -0.003791 -0.003797 0.001884 -0.003726 -0.001370 -0.004511 -0.002089 0.004323 -0.000540 -0.003809 -0.000589 0.003862 0.003683 -0.001428 -0.003484 0.002500 -0.002533 -0.002040 -0.004915 0.003682 -0.001101 0.000658 0.002127 0.002153 0.000068 -0.003523 0.002357 -0.005308 0.004447
sent_20 0.000777 0.003954 0.000831 -0.002414 -0.001882 0.000091 0.004894 -0.003302 0.000254 -0.001459 0.002739 0.003045 -0.000592 -0.002815 -0.004255 -0.002960 -0.002491 0.000835 0.003639 -0.003671 0.004466 0.001531 0.002221 0.004910 -0.000980 0.000343 0.001743 0.000174 -0.001919 -0.004205 -0.002248 0.002671 0.001101 0.003070 0.000044 -0.002513 0.000874 -0.001881 -0.004882 0.004293 -0.001192 -0.000552 0.002233 0.004054 -0.004094 -0.003083 -0.001795 -0.002602 -0.000058 0.003219 0.003446 0.001025 -0.002660 -0.003447 0.002310 -0.002864 0.000616 0.002429 -0.002772 -0.003021 -0.004023 -0.003515 0.003419 -0.003772 -0.002547 -0.004623 0.001681 -0.002565 -0.000684 -0.003776 -0.001269 -0.000712 -0.000299 -0.000685 -0.003930 0.002949 -0.003616 -0.000314 -0.002276 -0.001553 0.001606 0.000183 -0.003036 -0.000488 -0.001577 0.002096 -0.002642 0.003300 0.000264 0.000265 -0.002381 -0.003171 0.000063 0.004414 -0.003460 -0.002388 0.003205 0.001401 -0.001936 -0.001995
sent_21 -0.000666 0.001991 0.002262 0.004178 0.002103 -0.002650 0.004766 0.002285 -0.002571 -0.001538 0.003484 -0.003610 0.002067 -0.001503 0.002785 -0.001532 0.002113 -0.003354 -0.000316 0.002563 -0.000516 -0.004781 0.001543 0.003046 -0.002151 -0.001392 0.003716 0.003209 0.001837 0.001178 0.003012 0.004427 -0.004985 -0.001322 0.001385 0.001950 -0.003713 -0.000879 -0.002806 -0.000324 0.000111 0.001034 -0.000819 0.000810 0.001139 -0.000679 -0.004224 -0.002354 -0.001242 -0.003632 0.000157 0.001768 -0.000245 -0.002259 0.001313 -0.003303 -0.005118 0.001395 -0.000654 0.001748 -0.002122 -0.003524 -0.001885 0.003034 -0.003762 -0.003552 -0.000837 0.001078 0.002418 -0.004527 0.000675 -0.000711 0.001877 -0.003022 0.000835 -0.002902 -0.004708 0.000206 -0.002942 0.002723 0.000568 0.003824 -0.000355 0.004751 0.000454 0.001248 0.002809 0.000583 -0.001942 0.001248 -0.002612 -0.000680 -0.003814 -0.000706 -0.001231 -0.000531 -0.004357 0.001087 -0.001191 0.000766
sent_22 0.002359 -0.000503 0.001674 -0.002545 0.005014 -0.002539 0.004463 -0.002878 -0.000148 0.003244 0.002123 0.002067 -0.000514 0.002612 0.004160 -0.000632 0.000285 -0.004375 -0.001080 -0.000385 0.004038 -0.004053 0.002374 0.000515 0.001075 -0.004843 -0.003580 -0.002239 -0.005012 0.001755 0.003715 0.000522 0.000466 0.001143 -0.001882 -0.001411 0.000868 0.003074 -0.003066 -0.001725 0.002485 -0.001701 -0.004604 -0.003435 -0.003034 -0.000057 0.001457 0.003912 0.004088 -0.001939 0.002473 -0.002109 -0.001327 -0.002083 -0.000864 -0.002844 -0.001868 -0.003891 0.004626 -0.000052 0.004266 0.002577 -0.000504 0.002641 0.001265 -0.002052 0.000191 0.002088 -0.002006 -0.004953 -0.002374 0.003020 0.004339 0.001224 -0.003611 0.002587 0.000267 0.002538 0.003592 0.004584 0.001593 0.003695 0.002487 0.002305 0.003660 0.004403 0.004064 -0.001046 -0.004241 0.003423 0.000451 0.000474 0.003307 -0.004683 0.003884 -0.004736 0.001975 0.000986 0.001503 -0.001258
sent_23 -0.002054 0.001250 0.003878 0.000920 0.002185 -0.000964 0.005508 0.001583 -0.001816 0.002240 0.000287 0.004185 -0.001730 -0.003084 -0.003663 -0.001279 0.003388 -0.002757 0.000911 0.000665 -0.000483 -0.006134 0.002160 -0.001533 -0.001003 -0.002127 0.001280 -0.004503 0.000378 -0.004596 0.004623 0.001284 -0.001275 -0.003793 0.002811 0.003505 -0.001382 0.003104 -0.002409 0.004995 0.002305 0.000752 0.003531 -0.002991 0.004233 0.001900 0.003464 0.001570 0.004185 0.001843 -0.004301 0.001657 -0.002326 0.003556 -0.003416 -0.002508 -0.004582 -0.001290 0.000636 0.000876 0.005344 -0.000860 -0.001060 0.004447 0.001278 0.001034 -0.002519 -0.000211 0.001315 -0.004764 -0.005451 -0.003384 0.000101 -0.004625 0.001703 -0.003523 -0.002212 0.000024 -0.003556 -0.000813 -0.004757 0.006304 0.001995 -0.001429 -0.004576 0.000302 0.000041 0.004098 -0.003278 0.002596 0.002124 -0.002939 0.001276 0.002165 -0.002833 0.000164 -0.004524 -0.004600 -0.003467 -0.000354
sent_24 0.004048 -0.001056 -0.004757 0.003330 0.000279 -0.002216 0.004862 0.004266 -0.001875 -0.002961 0.001107 0.003280 -0.001956 0.000947 -0.003100 -0.002674 0.002612 -0.003251 -0.002467 0.001984 -0.005328 -0.004298 -0.002628 -0.001674 -0.001560 0.003542 -0.004326 -0.000997 0.001676 -0.004041 0.003330 0.001123 -0.004080 -0.002686 0.001970 -0.000519 -0.000701 0.003956 -0.003381 0.004637 -0.004943 -0.003566 -0.002479 0.002612 -0.000489 0.001826 -0.003661 -0.003632 -0.000183 0.002549 -0.000376 0.003294 0.001624 -0.002570 -0.002886 -0.001529 0.002903 0.004655 0.003528 -0.002006 -0.000548 0.000915 0.000668 -0.001532 -0.003868 0.002350 -0.004075 0.003665 0.004145 0.002125 0.000276 0.001991 -0.001100 0.003214 0.002654 -0.003269 -0.001812 -0.001033 -0.001510 0.000567 -0.004899 0.001162 -0.003204 -0.000897 -0.000703 -0.002165 -0.001233 -0.003322 -0.004097 0.000259 0.001007 -0.003850 -0.002488 -0.002450 0.002912 -0.003210 0.000532 0.000106 -0.001736 -0.001630
sent_25 0.004516 0.000969 0.001468 0.000073 0.001551 0.000860 -0.003282 -0.001912 -0.000509 -0.003512 -0.001431 -0.002754 0.003650 -0.001265 -0.002972 -0.000836 0.001709 -0.004282 -0.003321 0.001733 0.002610 0.000738 0.003680 -0.003008 0.001987 0.003939 -0.003419 -0.002624 0.000547 -0.001596 0.001696 -0.004371 -0.003416 0.002156 0.004893 0.004196 0.004089 -0.003674 -0.003680 -0.004127 0.000409 0.003765 0.000146 0.002532 -0.002989 0.003682 -0.002930 -0.004207 -0.000651 0.000673 0.004319 -0.003895 -0.002350 -0.004116 -0.001280 -0.002228 0.000074 -0.001811 0.004167 0.002913 0.004126 -0.003400 0.000546 -0.002535 0.003774 -0.005006 -0.004117 -0.001381 -0.000888 -0.002461 -0.004134 -0.003638 -0.001759 0.004569 -0.002727 0.002751 -0.002351 -0.004335 -0.004832 -0.002992 -0.000332 0.002956 0.002497 -0.001565 -0.000156 0.003540 0.003507 -0.001822 -0.005178 -0.004030 0.002675 -0.002203 0.000274 -0.003243 0.003776 -0.000247 0.000329 -0.002072 0.000437 -0.005025
sent_26 -0.002227 -0.001512 -0.002160 -0.004140 0.000218 0.002885 0.004426 -0.000027 0.000938 -0.002091 -0.003508 -0.003681 0.002324 0.002345 -0.003206 -0.000864 0.000941 -0.003747 0.002854 0.001200 0.001152 0.002012 0.004872 0.000624 0.003644 -0.000813 0.001545 0.004253 0.001642 -0.001969 0.001199 -0.001487 -0.001776 0.001102 -0.003397 -0.000133 0.004456 -0.001161 -0.003110 -0.000312 0.003409 0.003427 0.003278 -0.004885 -0.002330 0.004999 -0.003803 -0.000099 0.002900 -0.003778 0.001624 -0.000119 -0.003057 0.003786 -0.003185 0.001391 0.002408 0.000627 0.001288 -0.003810 -0.001920 0.000870 -0.001045 0.001639 0.003520 -0.003098 0.004033 -0.001168 0.004431 0.001174 0.002901 0.000148 0.000311 -0.001724 -0.003706 -0.001162 -0.002850 -0.004671 -0.002251 -0.003194 0.003755 -0.004188 -0.003161 0.002040 0.004192 -0.002485 -0.004787 0.004605 0.001822 -0.001893 -0.000276 0.000993 -0.001261 0.003745 0.002262 0.004543 -0.001489 0.004372 -0.000209 0.001423
sent_27 0.002619 0.003428 -0.001000 -0.000471 0.003471 0.002108 0.004700 0.004498 -0.003440 -0.002444 0.002139 0.002760 0.001273 0.004036 -0.002550 -0.001851 -0.000138 -0.002274 0.000377 0.001637 -0.002602 -0.000778 0.004866 -0.001642 -0.004612 0.002784 -0.000316 -0.004663 0.003657 -0.000687 0.004354 -0.000859 -0.004328 -0.002660 -0.001188 0.002268 -0.003046 -0.000547 0.003493 0.000555 -0.003960 -0.005023 0.001574 0.004637 0.002828 0.002764 0.002072 0.003163 -0.004232 -0.002621 0.001813 0.003868 0.001731 -0.003555 0.004400 0.003867 -0.004045 -0.003326 -0.002112 0.002381 0.003985 0.000950 -0.003207 -0.000505 -0.003440 0.003935 0.002622 0.000196 -0.000439 -0.004544 -0.002210 -0.003588 0.002943 0.000508 -0.002595 -0.002716 -0.002360 -0.001693 -0.000944 -0.001379 0.001790 -0.004092 -0.001375 0.002406 0.004530 0.003635 -0.002394 -0.002831 -0.003506 0.004353 -0.002634 0.002753 -0.002091 -0.005012 0.002801 0.001877 -0.003891 -0.001543 0.004877 -0.003473
sent_28 -0.003302 0.002049 0.004825 -0.002763 0.000668 0.002115 -0.002665 -0.005635 0.002918 -0.004077 -0.002830 0.002282 -0.000928 -0.004055 0.000478 -0.002593 -0.003804 0.003641 -0.003537 0.001753 0.004982 0.001245 -0.003091 -0.002307 -0.004692 0.002901 0.002676 -0.000034 -0.004700 -0.002421 0.000924 -0.001717 -0.002184 -0.003858 -0.002041 -0.000780 0.000216 0.000588 0.003818 -0.003032 0.002816 0.002056 -0.000712 -0.000840 0.004408 0.003476 -0.003262 0.005536 -0.003745 0.000089 -0.000024 0.004148 -0.001732 -0.005001 0.000873 -0.004988 -0.001218 0.003250 0.003798 -0.003704 0.004688 0.004250 0.003441 -0.000925 0.000910 0.002547 0.001259 0.001208 0.000971 -0.003630 -0.006199 0.002814 -0.001359 -0.001422 0.001767 0.001807 -0.002733 0.003629 -0.000421 0.003527 0.004830 0.002218 0.000039 0.000813 0.000580 0.002001 0.002886 0.003717 -0.001133 -0.002117 0.000903 -0.001718 -0.003538 0.002114 -0.000320 0.001271 0.000942 -0.000893 -0.000242 -0.004820
sent_29 0.000470 0.003724 -0.004219 -0.003479 0.000710 0.001260 0.002599 -0.002326 -0.004683 -0.000467 -0.002864 -0.004939 0.002244 0.005072 -0.001128 -0.001992 0.000345 0.003278 0.002748 0.001559 -0.000384 0.000818 -0.002908 -0.001761 0.002627 0.003779 -0.003177 -0.002420 -0.004970 -0.000726 -0.003020 0.001542 0.001839 -0.004026 -0.004004 0.004236 -0.001363 0.000664 0.004152 0.002885 -0.001906 -0.004328 -0.000234 -0.002126 -0.004499 0.002911 -0.000726 0.001037 0.002939 0.004468 0.000646 -0.001585 -0.004184 -0.004839 -0.002229 0.001451 0.002025 -0.003511 -0.004329 -0.001809 0.001726 0.003115 -0.000155 -0.001428 0.001639 -0.002611 0.001104 0.003543 0.001465 0.000320 -0.002380 0.004160 0.005192 0.002724 0.001040 -0.003235 -0.001841 -0.000834 -0.001886 0.000604 0.001062 -0.002249 -0.002021 -0.004099 -0.001625 0.000812 0.000173 0.004630 0.004384 0.000420 0.005137 -0.002828 0.001255 -0.000976 0.005471 0.002650 -0.002523 -0.000628 -0.002537 0.000070
sent_30 0.002778 -0.004164 -0.003362 0.005214 0.004827 0.000205 0.002050 -0.002666 0.004643 0.001904 0.001582 -0.005101 0.003807 0.003288 0.001773 0.002732 -0.003588 0.002380 -0.004238 0.001874 -0.004985 0.001999 -0.000323 -0.002556 0.002048 -0.002064 0.004097 -0.003314 0.004635 0.004282 -0.002313 0.003647 0.003179 -0.000812 -0.001374 -0.001798 0.004525 -0.002264 0.003904 -0.000470 0.004037 0.003483 -0.003620 0.000140 0.002102 -0.000733 -0.004775 -0.001548 0.003427 -0.004084 -0.004517 0.002149 -0.000181 -0.000431 -0.001817 0.000863 0.003600 -0.002712 0.003117 -0.000680 0.001222 0.002832 -0.002745 0.004702 0.002328 0.001070 -0.002743 0.001876 -0.002203 0.003062 -0.004971 -0.003011 0.000755 0.002114 0.000213 0.004265 0.004796 0.000248 0.002647 0.000754 0.001542 -0.002537 -0.003618 0.004522 0.003324 -0.001744 0.001003 -0.001431 -0.003351 0.000000 -0.001453 -0.004957 -0.000269 0.003800 0.003749 0.000328 -0.001614 -0.002915 0.005135 0.000475
sent_31 -0.002939 -0.002698 0.004329 -0.002909 -0.003869 -0.003402 0.002721 0.002089 -0.000320 0.002959 0.000320 -0.000932 -0.004102 0.003802 -0.002035 0.001308 0.004869 -0.003052 0.004619 0.001607 -0.003955 0.003116 0.004334 0.000559 0.001835 -0.004447 0.005045 -0.001593 -0.004652 0.002911 0.004694 0.002135 -0.005062 -0.004226 0.000544 -0.001471 0.003623 0.003773 0.005072 0.002083 0.003636 -0.001586 -0.003733 0.003515 -0.002113 -0.000684 0.001210 0.000838 -0.001014 -0.001114 -0.003638 0.000075 -0.002543 0.002566 0.001693 -0.004418 0.005036 0.003103 -0.002686 -0.004470 -0.000294 -0.001724 0.000615 0.001213 0.002930 -0.004712 0.002275 -0.001979 0.005160 0.003491 0.000884 0.000934 -0.003114 -0.002598 -0.003663 -0.001224 -0.003913 0.000303 0.001313 -0.003971 -0.001700 -0.004550 0.000028 0.001571 0.001025 0.002666 -0.002684 0.001160 -0.001866 -0.004408 -0.002044 -0.004468 0.004541 0.002157 -0.004325 0.003077 -0.001540 0.003795 -0.000284 0.003688
sent_32 -0.002973 -0.001246 -0.001979 -0.004662 -0.001287 0.000816 0.000160 0.003423 -0.001926 -0.000997 -0.001567 0.000498 -0.003536 -0.002895 0.004631 -0.001035 0.000786 -0.004546 -0.003766 -0.004210 0.002833 -0.003662 -0.000314 -0.003244 -0.002270 0.004012 0.001530 0.004965 0.001093 -0.005031 -0.001008 -0.005273 -0.002038 0.000071 0.000440 -0.002572 0.000511 -0.000874 0.000287 -0.003048 -0.003602 0.002695 -0.001838 0.000851 0.000313 0.004347 0.003585 -0.000674 -0.003154 0.001319 0.001260 0.001583 0.004416 0.002630 0.001049 0.000494 -0.002628 0.001846 0.003262 0.004681 0.004423 0.000389 -0.002382 -0.002171 0.004917 0.000296 0.003407 0.001056 0.000867 -0.001966 0.000797 -0.004768 0.003820 0.001046 -0.005010 0.003369 -0.003691 -0.003975 -0.000422 0.004909 -0.004285 -0.004139 0.003570 0.003427 0.002996 -0.000680 -0.000613 -0.001104 0.000590 0.002274 0.002813 0.001328 0.001007 -0.001375 -0.002153 -0.002085 -0.002025 0.001328 0.002470 0.000827
sent_33 -0.002973 -0.002848 0.002359 0.004977 -0.004754 -0.002832 0.003276 0.002019 -0.002421 0.000598 0.000949 0.001956 -0.000327 -0.000731 -0.001965 -0.002351 -0.004241 0.001781 0.001568 0.001802 -0.005205 -0.000777 -0.003925 0.000628 0.004553 0.000035 -0.000872 0.003294 0.004953 -0.002545 0.002704 0.004817 -0.004054 0.000485 0.002913 -0.000977 -0.000893 0.002393 -0.004196 -0.001219 0.000114 -0.002385 0.003483 0.002379 0.004946 0.000392 -0.004023 0.004266 0.003170 0.000760 0.003091 0.003847 0.002607 0.000504 0.000877 0.003340 0.001276 -0.002974 0.001647 0.000292 -0.001784 -0.004824 -0.002759 0.001774 0.003738 0.003281 -0.004234 -0.004482 0.002892 -0.002141 -0.002106 -0.004687 -0.003986 -0.003540 -0.003239 -0.000197 0.003058 0.003519 0.003898 -0.000272 0.002016 -0.000217 -0.004618 -0.004340 -0.002465 0.004725 0.001880 -0.002414 0.002155 0.001884 -0.004138 -0.001521 0.003099 -0.004402 0.003811 0.004192 0.003538 -0.004093 0.000860 0.001930
sent_34 0.003557 -0.004056 0.002769 -0.002367 0.001039 0.001692 0.003073 -0.002175 0.001530 -0.002043 0.005143 0.002891 -0.001057 0.003873 0.002486 0.004640 -0.003376 -0.001912 -0.004216 -0.001734 -0.001454 0.001529 -0.000475 0.002310 -0.002498 -0.002995 -0.000841 -0.000460 -0.000463 0.003647 -0.002523 -0.001738 -0.003082 -0.001103 -0.001485 0.001088 -0.002657 -0.002291 0.002282 0.004140 -0.004086 -0.002735 -0.003500 0.001440 -0.002881 0.001224 -0.003165 0.002988 -0.002074 0.001891 -0.003545 -0.002136 -0.002021 0.001166 0.001477 0.003223 -0.003050 0.002791 0.002012 0.000987 0.001908 -0.004247 -0.003489 -0.001070 0.002164 -0.003149 -0.001177 0.000046 0.004768 -0.004428 0.003610 0.004861 -0.002333 0.004021 -0.002248 0.003267 -0.000409 0.001464 -0.002746 0.001918 -0.003658 0.000347 -0.000256 0.003308 -0.000226 0.002362 -0.000918 -0.001936 0.002952 -0.000813 0.000117 0.000482 0.003508 0.000508 -0.001134 -0.003320 0.001939 0.003294 -0.003984 -0.000399
sent_35 0.004291 0.000623 0.000401 -0.004382 0.000372 0.001472 -0.003491 0.004553 -0.002985 0.001754 -0.002245 -0.003972 -0.002427 -0.001642 -0.000336 -0.002607 0.002270 0.003108 0.002896 0.002157 -0.002329 -0.002862 -0.003907 -0.000995 -0.004151 0.001577 0.004573 0.002567 -0.003784 -0.004857 -0.001676 0.004885 -0.001885 0.002395 0.002116 0.000766 -0.001347 -0.002912 0.004813 -0.004356 -0.002667 -0.001873 0.004121 0.002101 -0.002351 -0.003347 0.003784 0.002921 -0.004651 0.003841 0.000869 -0.000447 0.001753 -0.004618 -0.001755 -0.004131 0.001824 -0.000984 -0.000234 -0.002068 0.002911 -0.004545 -0.002197 0.000861 0.002876 0.001031 0.002285 -0.004765 -0.002396 -0.004559 0.000057 0.004911 -0.004851 -0.000584 -0.004961 0.001162 -0.003181 0.002171 -0.003431 0.003281 -0.002943 -0.001500 -0.002742 0.003087 -0.000091 0.003674 -0.003696 -0.000007 0.002771 0.004811 0.001771 -0.003220 0.002635 -0.004267 0.002588 0.003289 0.000560 -0.000139 0.004345 -0.005005
sent_36 -0.005081 -0.002460 -0.000052 0.000436 -0.001362 -0.002208 -0.002882 0.003046 -0.001584 -0.000081 0.003133 0.000962 -0.000937 -0.003327 -0.001039 0.000046 0.004793 -0.002070 -0.003355 -0.002723 -0.003023 -0.004193 -0.001388 -0.002086 0.003725 0.002994 -0.003731 0.003565 -0.003658 0.001888 0.000572 -0.004166 0.003900 0.003838 0.003267 -0.001109 -0.003047 0.005014 0.003209 -0.004565 -0.001501 0.003418 0.000430 -0.002651 0.003053 -0.002324 -0.005054 -0.002821 0.004827 0.001691 -0.002786 0.001829 0.001855 0.001309 -0.004464 -0.002571 0.003786 0.002438 -0.003462 -0.001804 0.000828 0.003178 -0.002978 -0.004047 -0.001076 0.004292 -0.002455 -0.003876 -0.004368 -0.001374 -0.004540 0.000749 0.001655 -0.000453 0.002419 0.000161 0.001996 -0.002518 0.002355 -0.000026 0.001996 -0.000723 -0.000024 -0.004740 -0.000097 -0.003858 -0.003537 -0.000654 0.000836 -0.001545 -0.003303 0.002277 0.004785 0.002247 -0.004265 0.003451 -0.004372 -0.000927 0.004341 -0.002427
sent_37 -0.003846 0.002604 0.004167 -0.001765 -0.002616 -0.003360 0.004749 0.000739 0.003696 -0.001875 -0.004402 -0.000603 -0.002999 0.000234 0.000407 -0.001961 -0.001962 -0.004678 -0.000827 -0.001774 0.001141 0.003661 -0.000035 -0.004042 0.004270 0.003110 -0.001160 -0.001675 0.004480 -0.001388 0.001299 0.004744 -0.004667 -0.001796 -0.002804 0.004298 0.000466 -0.004480 0.002543 0.001826 0.001510 0.004634 0.003783 0.002481 -0.002763 -0.003603 -0.002828 -0.002992 0.000607 0.001751 0.000247 -0.004460 -0.001334 0.004627 0.001830 -0.001327 0.001669 -0.002261 -0.004286 0.000322 -0.002035 -0.000202 0.003980 0.001421 0.002135 -0.003958 -0.000270 -0.000968 0.001600 -0.002088 -0.001041 0.004892 -0.003818 -0.002979 -0.002610 0.002053 0.002078 0.002942 -0.001263 0.003543 0.001980 0.002101 0.003089 0.001319 -0.000738 -0.004821 0.000959 0.000646 0.001012 -0.001750 0.000657 -0.003389 0.001578 -0.004312 0.003660 -0.002838 -0.002139 0.003707 0.003806 0.003342
sent_38 -0.001996 0.004154 0.002378 0.001518 0.004025 0.002543 -0.000588 -0.001859 -0.000965 -0.004349 -0.001270 -0.001715 0.003552 0.004043 0.004570 -0.001480 0.001841 0.001652 -0.002651 0.003655 -0.003131 0.002661 -0.003710 -0.003691 0.002091 0.000393 -0.000206 0.003033 -0.001194 0.003232 0.004365 0.004566 -0.002266 -0.000640 0.002072 0.004017 0.002044 0.002409 0.003869 -0.001257 0.000119 0.000531 0.001647 0.003728 0.001082 0.004790 0.002146 -0.000931 0.000556 0.004451 0.000985 0.002068 0.001652 -0.001645 -0.003117 -0.001077 -0.003512 0.003387 0.001971 -0.000999 -0.003146 0.003760 0.001374 0.004787 -0.004200 -0.002537 -0.004249 0.002232 -0.003065 0.003800 0.000268 0.000420 -0.004635 0.001321 -0.002687 -0.002628 0.003906 0.004174 -0.005168 0.003336 0.003997 0.000001 0.001329 0.002699 0.001791 -0.000666 0.000663 0.000782 0.003547 -0.002616 0.002833 0.003011 0.003137 0.003014 0.003021 -0.000722 0.001062 0.002336 0.002612 0.004570
sent_39 0.004827 0.000942 -0.000229 0.003467 -0.002772 0.002758 -0.002969 0.000780 0.000821 -0.000469 0.003516 0.000522 0.000126 -0.000664 -0.004564 -0.001469 -0.004062 0.000566 0.001439 0.002520 0.001522 -0.003528 0.002548 0.000595 -0.003924 -0.005060 -0.002155 0.001742 0.004216 0.004802 0.002651 -0.001895 0.001316 -0.002762 0.002812 -0.003571 0.002873 0.003690 0.000072 -0.004314 -0.000310 0.003134 -0.003380 -0.004684 0.002341 0.000578 -0.004343 0.005134 0.000878 0.000813 0.002704 0.004203 -0.004402 -0.001540 -0.003007 -0.000354 -0.004187 -0.004585 -0.001987 0.003909 0.004849 0.002896 -0.005145 0.002594 -0.004732 -0.003511 -0.004912 -0.003591 0.001748 0.001787 -0.001458 0.002366 0.003540 -0.003754 -0.003987 -0.001222 -0.000922 -0.002217 0.002571 -0.001531 0.003099 0.004514 0.000349 -0.000678 -0.004004 -0.001823 0.003975 -0.002524 0.000980 0.000275 -0.003970 0.004113 -0.004119 0.001795 0.004996 0.001901 -0.001653 -0.004018 0.001006 0.002338
sent_40 -0.001471 0.001405 0.000548 -0.004724 0.004157 -0.001243 -0.001195 0.003514 0.000003 -0.000576 0.001458 -0.002975 0.000210 0.001608 0.000556 0.002198 0.000987 0.003457 0.003793 -0.003911 -0.002510 -0.004292 -0.002755 0.002178 -0.004306 -0.003273 0.002757 -0.000462 -0.002004 0.001271 0.003840 -0.004686 0.001871 0.001824 0.003464 -0.002843 0.001924 -0.003992 -0.004415 0.001694 -0.004909 -0.004375 -0.004501 -0.000400 0.002622 0.004970 -0.002840 0.002768 0.002788 0.003762 -0.001725 -0.003858 0.002986 0.000675 -0.000871 -0.004410 -0.004822 -0.001725 -0.002359 -0.000184 0.004206 -0.000944 -0.002056 0.003239 -0.001882 0.004269 0.003647 0.001429 0.002513 -0.003316 0.001183 -0.001781 -0.000119 -0.002759 0.003964 -0.000873 -0.000246 0.002312 -0.003834 -0.000108 0.003071 0.001537 -0.001924 0.002103 0.004374 0.003668 0.002400 -0.002381 -0.001148 0.000410 -0.001229 -0.000526 0.002903 -0.004006 0.004595 0.002116 0.003710 0.002654 -0.000734 0.004338
sent_41 -0.002320 -0.004358 -0.003932 -0.002927 0.000491 -0.002684 0.003377 -0.005016 0.002228 0.004812 -0.002429 0.001412 0.002349 -0.001596 -0.000736 0.002157 -0.003729 -0.003837 -0.001244 -0.002805 -0.001686 -0.003828 -0.003965 0.004164 -0.001428 0.000372 0.000189 -0.000704 0.002254 -0.001427 0.004030 -0.004194 0.000781 -0.001739 -0.001093 -0.002159 0.001233 -0.002581 -0.002217 -0.002039 -0.004754 -0.001517 -0.004836 0.003696 0.002196 0.000934 0.002682 0.004216 0.002175 0.000702 -0.003868 -0.000780 0.000780 0.000924 0.004691 -0.003019 0.001603 -0.002692 -0.000707 0.004679 -0.001586 -0.001233 -0.000754 -0.004295 -0.000927 0.001052 0.000816 0.003813 0.001318 0.000339 0.001172 -0.004500 0.004996 -0.003500 -0.000749 -0.002070 0.000828 0.000587 -0.001308 0.005076 0.002597 0.004236 -0.000201 0.001009 -0.000801 -0.001488 0.000365 -0.003122 -0.003047 0.000399 -0.004924 -0.000348 0.005078 0.003135 -0.003861 0.001337 -0.002594 -0.003584 -0.001326 0.001804
