36 100
sent_0 -0.000712 0.002393 -0.005165 -0.001839 -0.003359 -0.004207 -0.002822 -0.001781 -0.000913 0.000506 -0.000782 0.001965 -0.002820 0.004024 -0.004606 0.001786 -0.000901 0.000501 -0.003713 -0.003080 0.002941 0.004263 -0.002200 0.001946 0.003643 0.003917 -0.004251 -0.004593 -0.003292 0.003648 -0.004146 -0.000765 0.004337 0.000295 0.001858 -0.001568 0.001429 0.003539 -0.004976 0.002697 0.004651 0.002553 -0.002386 0.002500 -0.003808 -0.000262 0.004116 -0.002061 -0.002078 -0.003747 -0.004994 0.001738 -0.003089 -0.002636 -0.000245 -0.004656 0.001047 -0.003792 0.000822 0.002176 -0.003239 -0.000662 0.001867 -0.000609 -0.004129 0.000336 0.001505 0.000229 0.004592 0.000700 0.003870 -0.003511 -0.003542 0.003138 -0.000966 -0.003184 0.004326 -0.001115 0.002601 0.002767 0.003624 0.001286 0.002773 -0.001714 -0.002289 0.004173 -0.000644 0.004387 0.001585 0.001586 -0.003746 0.004484 -0.000098 0.000389 -0.000633 -0.002851 0.004338 0.000587 -0.004613 0.000999
sent_1 -0.001611 0.000458 0.003860 -0.001346 0.004228 0.001171 -0.004663 0.004104 0.001870 0.005104 -0.003279 -0.003472 0.004504 0.002102 -0.004330 0.002488 0.002435 0.003969 0.002033 -0.003794 -0.004650 -0.005132 -0.004767 -0.002486 0.003582 0.000195 0.000292 0.003267 -0.003869 -0.002166 0.000860 0.004786 0.000504 -0.004855 0.003107 -0.002676 0.002926 -0.000986 0.003414 0.002631 0.000509 -0.003639 -0.004678 -0.003987 -0.004493 -0.003841 -0.002531 0.002216 0.000812 -0.005026 -0.004369 0.004755 0.000571 -0.003236 -0.002499 0.002307 -0.002915 0.000568 0.004739 0.003557 -0.002185 0.000047 0.001084 0.003556 -0.003168 -0.004883 -0.004364 -0.000016 0.001058 0.000440 -0.002068 0.004956 0.000860 -0.001190 0.000565 0.002566 0.001762 -0.002127 -0.004171 -0.000860 0.001286 -0.002691 0.002779 -0.004465 -0.002307 0.003393 -0.002928 0.001273 0.000075 0.004617 -0.002377 -0.004225 0.002627 0.002435 0.004412 0.004023 -0.004630 -0.002633 0.001469 0.004385
sent_2 0.004640 0.000638 0.004255 0.001513 -0.001043 -0.000062 0.001079 0.000450 0.004145 0.004234 -0.001099 0.004754 -0.003128 -0.003687 -0.003658 -0.000065 -0.004808 0.004315 0.003274 -0.004893 -0.003105 -0.001926 -0.003655 0.003086 -0.001525 0.004248 0.000644 0.003660 0.003324 0.004191 -0.000337 0.000566 0.002963 -0.002233 0.000025 0.000941 -0.004832 0.000997 -0.000792 0.003143 -0.001808 0.003805 0.000589 -0.003149 0.002919 0.001135 -0.004327 -0.000720 0.001940 0.004079 -0.005024 0.004856 -0.001292 0.004644 0.001093 0.003289 0.000775 0.001124 -0.002106 0.000833 0.002630 0.003681 0.002473 0.002180 0.003747 -0.001847 0.001684 -0.000426 -0.001277 -0.000987 -0.001185 -0.001797 0.001258 -0.000740 0.004795 0.001748 -0.003004 -0.000757 -0.001461 0.003191 0.003813 0.004198 0.001789 -0.002335 -0.002413 0.003823 0.000330 0.002955 0.000625 0.002518 0.000161 0.002808 0.000740 -0.000406 -0.001355 -0.004474 -0.001097 -0.004078 0.004995 -0.003207
sent_3 0.003070 0.004024 0.002059 0.001053 -0.003543 -0.000201 -0.001485 -0.002713 0.000790 -0.001822 0.003955 0.003956 -0.002197 -0.003875 -0.003417 0.000035 0.002158 -0.002764 -0.002448 0.003346 -0.000705 0.000743 -0.002498 -0.003700 0.000056 -0.000412 -0.003367 0.001071 0.000607 0.001493 -0.003716 0.002711 -0.002735 0.000135 0.003065 -0.004826 -0.001601 0.003674 0.003305 0.000373 0.003605 0.004396 0.003241 0.003641 -0.003687 0.001401 0.002256 0.001268 0.003127 -0.004428 0.002454 0.002584 -0.002469 -0.002471 0.001170 -0.001289 0.002822 -0.000740 0.002560 0.004724 -0.001796 -0.003282 0.003800 0.000687 0.004798 0.001317 0.004699 0.000315 0.000016 -0.003537 -0.001636 -0.004660 -0.003371 0.002237 -0.004332 -0.001194 0.003559 0.001820 0.001818 -0.002932 -0.000453 0.001055 0.005012 -0.003136 -0.002360 -0.002074 0.002516 -0.000417 -0.004552 0.000466 -0.002574 0.003032 -0.001789 -0.004550 0.001225 0.003233 -0.001226 0.002618 0.000451 0.000328
sent_4 0.004664 0.003076 -0.004627 0.002142 -0.000322 0.004515 -0.002768 -0.002352 -0.004244 -0.000690 -0.003934 0.001399 0.003096 0.001993 0.002658 -0.001636 0.003447 -0.000795 0.003242 0.001244 -0.003499 -0.004340 -0.004799 -0.004337 -0.000400 -0.003943 -0.004810 0.002484 -0.001113 0.002538 -0.000444 -0.000448 -0.000231 -0.000305 0.003093 -0.001001 0.004053 -0.004599 0.002675 -0.003709 0.001205 -0.004958 0.000292 -0.004964 0.004532 0.004061 0.003026 0.004192 -0.003470 -0.003476 -0.003138 0.001269 0.004029 0.004852 0.002134 0.002318 0.004107 -0.001069 -0.002482 -0.003284 -0.003740 0.003175 -0.003571 -0.002257 0.003242 -0.001931 0.004812 -0.002301 0.000287 -0.001903 0.004008 -0.001320 -0.000645 0.000102 0.004417 -0.004705 0.002174 0.003898 -0.004675 0.000328 -0.001734 0.003675 0.000666 0.001884 -0.000440 0.001420 -0.002072 -0.004940 0.000718 -0.001792 0.000158 0.004213 -0.000710 -0.002558 -0.001178 0.004240 0.004430 0.003506 0.004286 -0.002733
sent_5 -0.003826 -0.002177 -0.001768 -0.003140 0.001384 -0.000732 0.003202 -0.003490 0.001436 -0.002292 0.000506 -0.001142 -0.003970 -0.002216 0.001411 -0.000428 0.000135 -0.003705 0.000677 0.004713 0.003572 0.000182 0.004730 0.004004 0.001277 -0.005353 -0.004620 -0.004645 -0.000984 -0.000680 0.004943 -0.003114 0.004818 0.002366 0.003911 0.000744 0.002279 -0.000140 -0.005095 -0.001121 0.000342 0.001662 -0.001010 -0.000747 -0.003708 -0.004914 0.003010 -0.001196 0.005308 -0.003230 -0.002051 0.000716 0.002555 -0.000474 -0.003608 -0.002169 -0.000086 0.001151 0.003007 -0.003826 -0.004478 0.000604 0.002769 -0.004130 0.001810 0.001489 -0.000411 0.004160 0.001360 -0.005567 -0.000585 0.003719 0.003347 0.001619 0.001891 0.000795 -0.002065 0.000706 0.002016 -0.000664 0.003720 -0.002226 0.003040 -0.002014 0.002747 0.000387 0.003269 -0.001516 -0.003237 0.003286 -0.001914 0.002773 0.002764 -0.003016 -0.002218 -0.003415 -0.003327 -0.000658 -0.004389 -0.003723
sent_6 0.002360 0.003490 -0.003985 -0.002285 -0.002387 0.004202 0.002583 0.000062 -0.002291 0.003716 -0.000742 0.004799 0.002645 0.000238 -0.003726 0.004310 -0.003557 -0.003729 -0.000842 -0.001182 -0.003092 0.000909 -0.003219 0.001476 0.002568 -0.003607 0.000279 0.002027 0.000914 0.001378 -0.001856 0.002664 0.004149 -0.001116 0.003279 -0.004561 0.003161 -0.002680 -0.001618 -0.001505 -0.004242 0.003585 -0.002215 -0.000051 0.000121 -0.003449 -0.002383 -0.003845 0.000810 -0.002833 -0.001675 -0.003528 0.002557 -0.004570 0.004838 -0.003444 0.000976 -0.005255 0.003055 -0.003065 0.001404 0.002870 -0.003873 0.001482 -0.002213 0.002235 0.002009 -0.002937 0.003430 -0.005484 0.002660 0.000911 -0.000703 0.002573 0.002410 0.004956 -0.002112 -0.004616 0.004796 0.004885 0.002199 0.000971 0.002880 0.002534 -0.000999 0.003951 0.002822 0.000686 -0.001553 0.003017 -0.004920 0.003062 0.004556 -0.003269 -0.002681 -0.003630 -0.001405 0.004160 0.001337 -0.002353
sent_7 -0.003493 -0.001632 0.000976 -0.001202 0.000092 -0.001016 0.004101 -0.001248 -0.001665 0.002086 -0.002772 -0.000364 -0.001349 0.001821 0.003886 -0.000541 0.002462 -0.000757 0.001316 -0.003878 -0.000373 0.002934 0.001159 0.003274 -0.000257 -0.000615 0.003352 -0.004749 0.000651 0.004248 0.000017 -0.002995 0.003078 -0.002499 0.001976 0.000695 0.003915 0.001397 0.002506 -0.004477 0.004255 -0.004237 -0.002493 0.003986 -0.004402 0.003531 0.004104 -0.000480 -0.002094 0.003067 -0.000618 -0.003362 0.003875 0.003115 -0.000448 0.003342 -0.000666 0.001222 -0.001244 0.000041 -0.001644 0.005190 -0.002610 -0.003243 -0.003224 -0.005155 0.001569 0.000797 0.003069 -0.000318 0.002490 0.002561 0.003094 -0.000968 0.001841 -0.002719 -0.001887 -0.002614 -0.000739 -0.001210 -0.000923 0.005224 -0.001445 0.004545 0.001894 -0.000417 0.003858 0.000781 -0.002813 0.004124 -0.000159 -0.001325 -0.000843 0.001280 -0.001510 0.002178 -0.001537 0.000349 0.000830 0.003202
sent_8 0.003986 -0.002431 0.000855 0.004506 -0.000259 0.004210 -0.001773 0.000608 0.001377 -0.002485 -0.005075 -0.000812 0.005012 -0.000935 0.002623 -0.003309 -0.001695 -0.003737 0.002013 0.001721 0.002264 -0.003660 0.001902 -0.002395 -0.000787 -0.001978 -0.001710 -0.004780 0.001135 0.002180 0.000999 0.001756 -0.003385 -0.003639 0.000614 0.003623 -0.003024 -0.000277 -0.001197 0.000244 -0.003325 -0.001946 -0.002935 0.002964 0.003327 -0.000623 0.001630 -0.002955 0.000464 -0.002136 0.003002 0.002093 0.001046 -0.004121 -0.000526 0.004678 0.004418 0.000609 -0.003596 0.001227 0.001650 0.000406 -0.001225 0.001847 0.003814 0.002127 0.000446 0.004142 -0.004480 0.004436 -0.004896 -0.002658 -0.000575 -0.003982 0.001633 -0.004181 -0.001989 -0.003934 0.002206 0.002761 -0.001120 -0.002411 0.003074 -0.001717 0.003288 0.000960 0.000548 -0.004929 0.001077 -0.000469 -0.002237 -0.000381 -0.000408 -0.000707 0.005680 -0.001977 0.003146 0.000900 0.004648 -0.001504
sent_9 -0.002444 0.004058 -0.004744 0.004329 0.000885 -0.001471 0.005080 -0.004598 0.000384 -0.004544 0.000773 -0.003064 0.001243 0.004991 0.003999 -0.000503 0.002118 0.002576 -0.000151 0.000332 -0.003548 -0.001413 -0.003807 0.002089 -0.000181 -0.000521 0.003735 0.000309 -0.001006 -0.002326 -0.004155 -0.000945 -0.004907 -0.002180 -0.000078 0.004771 -0.004099 0.001957 0.000097 0.002877 -0.003538 -0.004181 -0.001177 0.002571 -0.003247 0.002814 -0.002179 -0.002773 -0.004767 -0.001167 -0.001169 0.001509 -0.004273 -0.003585 -0.004959 -0.004099 0.001665 -0.000954 -0.001613 0.000891 0.005263 0.003287 0.002035 0.004238 -0.004408 -0.004272 -0.000179 -0.001308 0.004567 -0.000289 0.000344 0.003973 -0.000443 0.003928 -0.002656 -0.002248 -0.001623 0.000781 -0.002678 0.001957 -0.003727 -0.004024 0.003817 -0.002623 -0.001229 0.000728 0.000334 -0.004395 0.003679 0.004522 0.003049 -0.002253 0.000462 -0.001953 0.000645 0.004697 -0.001808 0.001491 -0.001737 0.002718
sent_10 -0.001387 0.004157 0.002775 0.002972 -0.000220 -0.002618 -0.004475 -0.001865 -0.004920 0.002080 0.001492 -0.000416 0.003095 0.000470 -0.004703 -0.003939 -0.003180 -0.002043 -0.004409 0.000897 0.000459 0.000415 -0.000591 0.003491 -0.000433 -0.005238 0.003276 0.001218 0.002974 0.004829 -0.004384 -0.002330 -0.004453 -0.001035 0.004000 -0.004277 -0.000240 -0.003581 0.002381 0.003587 -0.004530 -0.000469 -0.003101 0.004546 0.004669 0.001184 0.005118 -0.001338 0.004367 -0.000898 -0.002785 0.004690 0.001696 -0.004616 0.003771 0.002084 0.001156 0.001872 -0.002458 0.000902 0.003557 -0.004139 -0.003955 0.003996 0.001520 0.000161 -0.002613 -0.001889 0.003414 -0.000982 -0.004927 0.004025 -0.002894 0.003071 0.004080 -0.000185 0.000977 0.000204 0.001486 0.004160 -0.002153 0.004268 0.001136 -0.004031 -0.002542 0.001715 -0.002476 -0.003891 -0.003642 0.004027 0.001007 0.004895 -0.001322 0.000818 0.001627 0.000730 -0.004059 0.002816 0.005032 0.000239
sent_11 -0.003292 0.002691 -0.005288 -0.002244 0.004509 0.000159 0.003865 0.000764 0.003373 0.004226 -0.001584 -0.003819 0.001911 -0.000335 -0.003750 0.000933 -0.004816 -0.003138 0.002700 -0.005032 -0.002053 -0.004525 0.004860 0.001142 -0.002048 0.004282 0.000281 -0.000287 0.000939 -0.002331 -0.002033 -0.001670 -0.002623 0.001075 0.001828 -0.004582 0.004924 0.002580 0.003196 0.002578 -0.004261 -0.000096 -0.000725 0.001388 -0.000840 0.002170 0.001770 0.001989 0.001190 -0.003463 0.002540 0.002776 0.004395 -0.002809 -0.003319 -0.001474 -0.001868 0.003487 0.001306 0.002908 -0.000696 -0.004262 -0.003888 -0.001573 -0.003318 0.003165 0.001189 0.001907 0.000470 -0.004578 -0.002366 -0.000220 -0.002993 -0.004371 0.002113 0.002454 -0.001724 0.003905 -0.000744 0.003891 0.001607 0.001209 -0.003239 0.000524 0.003838 -0.002127 0.003872 0.004183 -0.002030 0.001869 0.004015 -0.004321 0.004015 -0.003399 0.003276 0.001608 -0.001748 -0.003771 0.001195 0.003464
sent_12 0.003218 0.001282 0.004563 0.000899 -0.003022 -0.000707 -0.001633 0.004919 -0.001198 0.004927 0.000188 -0.003277 -0.004254 -0.001297 -0.003766 0.001345 -0.000861 0.004909 0.004300 -0.003508 -0.001051 -0.000384 0.000609 0.002804 -0.000128 -0.000800 -0.002380 0.004108 -0.004777 0.003211 -0.003115 0.001858 -0.001448 0.004742 -0.003772 -0.003124 0.003894 0.000834 -0.001908 -0.004992 -0.002724 -0.003546 -0.002966 0.003963 0.003731 0.002003 -0.000295 0.003271 -0.000042 -0.001365 -0.002244 0.004247 -0.001130 -0.000071 -0.002456 0.003850 -0.001167 -0.002024 0.002176 -0.003091 -0.003818 0.003370 0.002441 0.000905 -0.002571 0.001232 0.001384 -0.001724 -0.004325 0.003805 -0.000400 0.002639 -0.002461 0.000914 -0.000712 -0.001179 -0.003733 -0.002557 -0.004207 -0.001971 0.002417 0.001150 0.001724 -0.004916 0.001784 0.000032 -0.002691 -0.003251 -0.003150 0.003443 0.004826 0.004137 -0.001526 0.002802 0.000465 0.003164 -0.000163 0.000900 0.002873 -0.003998
sent_13 0.000700 -0.001035 0.001201 0.004646 -0.000876 -0.000905 0.002921 0.001285 -0.001601 0.002102 -0.001072 -0.003280 -0.000151 -0.001443 -0.002952 0.003808 0.001770 0.000474 0.002501 0.000242 0.002375 0.003825 0.003771 -0.003276 -0.002159 -0.004795 0.004256 -0.002915 0.001127 -0.003543 -0.002688 0.000198 -0.003894 -0.001262 0.000845 -0.002106 0.000971 0.000356 -0.001436 0.002217 0.001949 0.001404 -0.000006 -0.001380 0.001104 0.004359 0.001347 0.005069 -0.000202 0.001978 -0.004764 0.002996 0.000224 -0.005124 -0.001911 0.000192 0.002640 -0.004819 0.000747 0.002783 0.001511 0.004495 -0.004504 -0.001778 0.004182 0.002360 0.001111 0.003411 0.003835 0.004241 0.004595 -0.003484 -0.004292 -0.004212 -0.004721 0.004622 -0.004033 0.003346 0.002114 0.000466 -0.001366 -0.000856 -0.002133 0.004194 0.002357 -0.003922 -0.000254 -0.002239 -0.005020 0.004276 0.002562 -0.001276 0.002993 -0.001886 -0.001496 0.003913 0.005042 0.000732 0.004809 0.003930
sent_14 0.000416 -0.000708 0.002293 0.000103 0.001222 0.005060 0.002991 -0.001908 -0.004829 -0.003005 0.000119 -0.000726 0.003609 0.004724 -0.003511 0.003276 0.004344 0.004397 -0.004649 -0.004707 -0.004568 -0.002797 -0.004185 -0.001630 -0.001443 0.003835 -0.000493 -0.002556 -0.000279 0.001769 -0.003927 0.002847 0.003521 0.003353 0.004376 -0.001533 -0.000294 -0.004178 -0.003410 0.005079 -0.002331 0.003606 0.003311 0.004270 -0.003042 0.003820 0.001819 -0.002547 -0.001179 -0.003501 -0.000974 -0.003619 -0.003577 -0.003341 0.002032 0.000715 0.003568 -0.003173 0.001227 -0.005192 0.000669 0.004197 0.004368 -0.004141 -0.002542 -0.003212 -0.004849 -0.005081 -0.000326 -0.004927 -0.002663 0.001830 -0.001963 -0.002351 0.001370 -0.001034 0.001962 -0.000019 0.001433 -0.000577 -0.001897 -0.003008 0.004729 0.002994 0.004735 -0.002083 0.004443 0.004239 -0.002438 -0.001413 0.000874 -0.002721 -0.000298 -0.003249 0.005128 -0.000666 0.004950 0.002021 0.000495 0.004639
sent_15 -0.003499 0.001359 0.001668 -0.000613 -0.004378 -0.000034 -0.000331 0.003045 -0.002492 -0.001062 -0.002622 0.001925 0.004965 -0.003201 0.003210 -0.002751 -0.004432 -0.003694 0.004353 0.003864 -0.002041 0.004354 0.003517 -0.000658 -0.000306 0.001222 -0.003508 -0.004916 -0.002407 -0.004777 0.001777 0.000566 -0.001795 0.002757 -0.003481 -0.002576 -0.002071 -0.003010 -0.004185 0.003734 -0.004098 0.001775 -0.003891 -0.004887 0.000593 0.004078 0.003671 -0.001577 -0.004654 0.002955 0.003046 0.003729 0.001667 0.003031 0.003998 -0.000461 0.000592 -0.000017 0.001939 0.001811 0.000268 0.003334 0.000019 0.003348 -0.002130 -0.003252 0.004687 0.002452 -0.002451 0.000765 0.004453 -0.004178 -0.004145 0.001170 -0.002727 0.002637 0.000687 0.001650 -0.003869 -0.004050 0.001258 -0.000823 -0.004046 -0.001308 0.001753 -0.002967 0.003984 0.004465 0.004566 0.002394 -0.000952 0.002487 -0.002095 -0.001887 0.001168 0.000870 0.003848 -0.002391 0.002746 0.004399
sent_16 -0.004999 -0.000007 0.001549 0.003567 -0.003067 0.003503 -0.001222 0.003798 -0.004915 -0.004030 0.004741 0.001072 -0.000658 -0.003111 0.001370 -0.004681 -0.001969 -0.001807 0.001048 0.001380 0.003582 0.003988 0.001680 0.000977 -0.001000 0.004420 -0.003467 0.003829 -0.001949 0.000550 0.001780 -0.002602 -0.003310 0.000042 0.003086 0.001790 -0.003653 0.003975 -0.000380 0.004587 0.000520 -0.004306 -0.003181 0.003466 0.002141 0.003945 -0.001539 0.000441 0.001611 0.000949 -0.002904 -0.000537 -0.002542 0.003345 0.004816 -0.004396 0.002036 -0.001891 0.001231 -0.002523 0.001709 -0.001090 -0.002247 0.004351 0.004360 0.000989 -0.002957 0.004334 0.002529 0.002359 -0.002957 0.003453 -0.002560 0.001327 0.002253 0.002532 -0.001112 0.002671 0.004046 0.001207 -0.004003 -0.003435 -0.003852 -0.003259 -0.003641 0.003125 -0.004544 -0.002592 0.003665 0.005059 0.001214 0.004858 -0.004372 0.004432 -0.001697 0.002795 0.003149 0.003731 -0.000234 0.004322
sent_17 -0.002288 0.004381 0.001131 0.004482 -0.004455 0.002139 0.000558 -0.000190 -0.002470 -0.001570 -0.002418 -0.002523 0.002956 0.000090 -0.004092 0.002525 0.000306 0.001998 0.000109 -0.000951 0.004899 -0.004607 0.004223 0.004091 -0.000876 -0.002924 0.000859 -0.003175 0.002752 -0.002169 -0.001881 0.004074 0.003991 0.000336 0.003734 -0.001831 0.005168 -0.000581 -0.001933 -0.004422 0.005085 -0.000453 0.002086 0.001208 0.001905 -0.004439 0.004199 0.004361 0.000669 0.004258 -0.002079 0.001077 -0.000842 0.001275 -0.001762 0.002878 -0.004261 -0.004492 -0.004119 -0.003289 -0.001217 0.004311 -0.003811 0.001501 0.000272 -0.001497 -0.002673 -0.002632 -0.004422 0.001724 0.001481 -0.000672 0.002104 -0.003657 0.004133 0.003382 0.001716 -0.001074 -0.000657 -0.000066 0.004359 0.003852 -0.000137 0.000683 0.003582 0.004589 0.001504 0.002535 -0.001622 0.004052 0.003059 0.000677 0.003583 0.003259 0.003101 -0.003676 0.000383 0.004069 0.002554 -0.000666
sent_18 0.004386 -0.002370 -0.002117 0.004384 0.003163 0.003572 -0.004656 -0.001357 -0.002379 -0.001932 0.002428 0.001913 -0.000571 -0.001107 0.000842 0.000710 0.000482 0.001491 -0.001150 0.002664 -0.002751 0.001784 0.004382 -0.004756 0.002144 -0.003742 0.000889 0.001489 -0.002276 0.003748 0.000955 -0.002971 0.002664 -0.003786 0.000351 -0.003899 0.000772 -0.002491 0.001676 0.002136 0.000119 0.001790 0.003335 0.002669 0.001145 -0.000400 -0.001104 0.003746 0.001731 -0.002890 0.000393 0.003962 -0.003391 0.003466 0.002866 -0.000230 -0.004665 -0.003403 0.004096 -0.004350 -0.001064 0.001204 -0.003061 0.004570 -0.003592 0.000466 0.001136 -0.002833 0.000120 -0.000088 0.003129 0.001430 -0.000338 0.001843 -0.000511 0.000533 0.001596 -0.002777 0.002678 0.001035 0.004742 -0.002874 -0.000555 0.004028 0.000909 0.001919 -0.000865 0.001901 0.004543 -0.003007 0.003339 0.004461 -0.004523 -0.002969 -0.004115 0.002834 -0.004358 0.004633 -0.001268 0.004080
sent_19 -0.002856 -0.000261 0.003521 0.001083 -0.000204 0.000117 0.000929 -0.000846 -0.003310 -0.003656 -0.003508 -0.004219 0.000824 0.003739 -0.001506 -0.004434 -0.000858 0.000829 -0.000823 0.002915 0.004533 0.003162 0.001876 -0.000160 0.001835 -0.005163 0.004566 -0.003341 0.003882 0.003312 0.002970 -0.002191 -0.002873 -0.000769 0.003708 -0.000647 0.004352 -0.001440 0.000946 0.005034 0.001349 -0.004755 -0.000738 -0.001825 0.000445 -0.002024 -0.003574 0.001845 0.002067 0.003541 -0.003893 0.003170 0.003155 0.001257 -0.002869 -0.002487 -0.000702 0.000124 -0.000198 -0.000426 0.003845 0.003950 0.003025 0.004153 0.000892 0.004409 0.000990 0.000995 -0.001834 0.001449 -0.004807 -0.003449 -0.003620 0.001650 -0.003070 -0.001513 -0.004514 -0.002483 0.004758 0.000664 -0.003502 0.000664 0.004756 0.003553 -0.001031 -0.001589 0.002700 -0.002756 -0.002696 -0.003716 0.003713 -0.000299 0.000864 0.002131 0.003357 -0.000881 -0.002911 0.003480 -0.004280 0.004336
sent_20 0.000774 0.003731 0.000838 -0.002710 -0.001915 0.000184 0.004629 -0.003260 0.000251 -0.001537 0.002818 0.003084 -0.000878 -0.002861 -0.004181 -0.002951 -0.002259 0.001056 0.003672 -0.003662 0.004303 0.002012 0.002081 0.004702 -0.000826 0.000485 0.001808 0.000412 -0.002008 -0.004038 -0.002187 0.002513 0.001324 0.003110 0.000001 -0.002610 0.001110 -0.001996 -0.004548 0.004125 -0.000941 -0.000631 0.002483 0.004176 -0.004367 -0.003127 -0.002013 -0.002602 -0.000203 0.003178 0.003534 0.000829 -0.002554 -0.003088 0.002453 -0.002839 0.000562 0.002636 -0.002628 -0.003124 -0.004526 -0.003646 0.003663 -0.004103 -0.002747 -0.004639 0.001886 -0.002722 -0.000609 -0.003734 -0.001053 -0.000741 -0.000321 -0.000531 -0.004117 0.002754 -0.003559 -0.000492 -0.002347 -0.002018 0.001578 0.000020 -0.003152 -0.000297 -0.001797 0.001827 -0.002801 0.003392 0.000395 -0.000206 -0.002514 -0.003187 -0.000268 0.004622 -0.003867 -0.002010 0.003017 0.001462 -0.002344 -0.001873
sent_21 -0.000603 0.001532 0.001860 0.003870 0.002407 -0.003031 0.004890 0.002183 -0.001724 -0.001589 0.003754 -0.003548 0.001694 -0.001489 0.003460 -0.001237 0.002239 -0.003287 -0.000490 0.002889 -0.001016 -0.004498 0.000897 0.002552 -0.002291 -0.000833 0.003799 0.003601 0.002013 0.000688 0.003058 0.004111 -0.005406 -0.001299 0.000661 0.002728 -0.004726 -0.000520 -0.002446 -0.000285 -0.000199 0.001524 -0.000568 0.000128 0.001014 -0.000334 -0.004788 -0.002682 -0.001523 -0.003632 0.000431 0.001236 -0.000383 -0.002330 0.001008 -0.003567 -0.004593 0.001702 -0.000577 0.002432 -0.001502 -0.003829 -0.001489 0.002754 -0.003261 -0.003202 -0.000773 0.001391 0.002785 -0.004357 0.000846 -0.000831 0.001958 -0.002782 0.000365 -0.002867 -0.004573 0.000770 -0.002915 0.002609 0.000054 0.003122 -0.000398 0.004572 0.000181 0.000515 0.002740 0.000250 -0.001603 0.000788 -0.002744 -0.001110 -0.003672 -0.001241 -0.001448 -0.000286 -0.004254 0.000311 -0.001361 0.000582
sent_22 0.003174 0.000546 0.002160 -0.001893 0.005477 -0.002050 0.004713 -0.003442 -0.001374 0.003792 0.001605 0.002895 0.000637 0.003397 0.003730 -0.001512 0.000041 -0.005464 -0.001084 -0.000943 0.005041 -0.005967 0.002502 0.000665 0.001488 -0.006243 -0.004830 -0.003129 -0.006001 0.002924 0.004032 0.001214 0.000506 0.000466 -0.000562 -0.002260 0.001591 0.003342 -0.003975 -0.001032 0.003007 -0.002893 -0.006180 -0.003672 -0.002826 -0.000014 0.002566 0.004853 0.005165 -0.002785 0.001709 -0.001154 -0.001588 -0.002667 -0.000513 -0.003128 -0.001901 -0.005283 0.004978 -0.000440 0.005181 0.003553 -0.001297 0.004329 0.001723 -0.002827 0.000112 0.002273 -0.002468 -0.006009 -0.003634 0.003336 0.004506 0.001141 -0.003036 0.002547 0.000464 0.002526 0.004301 0.006466 0.001879 0.005319 0.003784 0.002199 0.003977 0.006862 0.004486 -0.001351 -0.005059 0.005064 0.000409 0.001434 0.003953 -0.005128 0.005498 -0.005890 0.002796 0.002179 0.002694 -0.001192
sent_23 -0.002089 0.000269 0.004040 0.000906 0.001614 -0.000380 0.004750 0.002428 -0.001642 0.001601 0.000249 0.003934 -0.001983 -0.003891 -0.003230 -0.001274 0.003460 -0.002457 0.001343 0.001129 -0.000710 -0.004943 0.002567 -0.001989 -0.001010 -0.001464 0.001429 -0.004354 0.000403 -0.004690 0.004865 0.001197 -0.001172 -0.003681 0.002216 0.003978 -0.001721 0.002717 -0.002317 0.004638 0.002052 0.001043 0.004066 -0.002239 0.004422 0.001751 0.002958 0.000864 0.003555 0.001903 -0.003649 0.001341 -0.002271 0.004047 -0.003004 -0.002026 -0.004527 -0.000782 0.000524 0.000626 0.004228 -0.001313 -0.000706 0.003848 0.000920 0.001465 -0.002299 -0.000076 0.000971 -0.003714 -0.004990 -0.003847 -0.000201 -0.004929 0.001479 -0.004043 -0.002517 -0.000844 -0.003752 -0.001996 -0.004727 0.005105 0.001354 -0.001334 -0.004603 -0.000667 -0.000415 0.004232 -0.002356 0.001492 0.001698 -0.002995 0.000185 0.002879 -0.003668 0.000829 -0.004593 -0.004725 -0.004081 -0.000236
sent_24 0.004134 -0.000838 -0.004449 0.003313 0.000425 -0.002278 0.004835 0.004202 -0.002332 -0.002713 0.001029 0.003391 -0.001804 0.001028 -0.003404 -0.003059 0.002480 -0.003588 -0.002464 0.001799 -0.004890 -0.004553 -0.002153 -0.001398 -0.001376 0.003031 -0.004500 -0.001326 0.001415 -0.003548 0.003534 0.001216 -0.003897 -0.002773 0.002371 -0.001175 -0.000024 0.003881 -0.003581 0.004710 -0.004653 -0.003961 -0.002900 0.002876 -0.000620 0.001598 -0.003272 -0.003319 0.000242 0.002438 -0.000411 0.003719 0.001812 -0.002619 -0.002702 -0.001483 0.002489 0.004594 0.003724 -0.002226 -0.000840 0.000960 0.000431 -0.001267 -0.004172 0.002074 -0.004034 0.003661 0.003962 0.001790 0.000012 0.002135 -0.001022 0.003212 0.002771 -0.003302 -0.001853 -0.001277 -0.001384 0.000847 -0.004537 0.001871 -0.003148 -0.000700 -0.000529 -0.001594 -0.001067 -0.003137 -0.004537 0.000560 0.001006 -0.003587 -0.002554 -0.002327 0.003194 -0.003545 0.000384 0.000515 -0.001639 -0.001511
sent_25 0.004591 0.000533 0.001527 -0.000093 0.001466 0.001053 -0.003548 -0.001653 -0.000396 -0.003722 -0.001369 -0.002719 0.003475 -0.001585 -0.002732 -0.000918 0.001831 -0.004344 -0.003193 0.001943 0.002523 0.001178 0.003792 -0.003312 0.002035 0.004173 -0.003493 -0.002562 0.000467 -0.001559 0.001906 -0.004424 -0.003392 0.002162 0.004706 0.004296 0.004011 -0.003723 -0.003541 -0.004277 0.000425 0.003825 0.000318 0.002817 -0.003115 0.003631 -0.003126 -0.004452 -0.000785 0.000551 0.004707 -0.004082 -0.002261 -0.003949 -0.001096 -0.002110 0.000133 -0.001517 0.004282 0.002899 0.003610 -0.003705 0.000751 -0.002852 0.003682 -0.004850 -0.003943 -0.001239 -0.000979 -0.002228 -0.004039 -0.003813 -0.001821 0.004508 -0.002926 0.002473 -0.002418 -0.004628 -0.004839 -0.003473 -0.000379 0.002559 0.002288 -0.001476 -0.000209 0.003141 0.003384 -0.001801 -0.004957 -0.004531 0.002378 -0.002274 -0.000185 -0.003080 0.003471 0.000034 0.000272 -0.002119 0.000120 -0.004980
sent_26 -0.002477 -0.001790 -0.002577 -0.004431 0.000268 0.002567 0.004505 -0.000019 0.001290 -0.002192 -0.003273 -0.003951 0.001943 0.002340 -0.002875 -0.000565 0.001018 -0.003426 0.002791 0.001349 0.000725 0.002599 0.004670 0.000594 0.003502 -0.000401 0.001922 0.004635 0.001857 -0.002332 0.001066 -0.001875 -0.001874 0.001410 -0.003921 0.000186 0.004164 -0.001268 -0.002866 -0.000467 0.003121 0.003759 0.003666 -0.005063 -0.002398 0.005192 -0.004195 -0.000368 0.002446 -0.003594 0.001778 -0.000506 -0.002965 0.003932 -0.003315 0.001256 0.002510 0.001012 0.001233 -0.003688 -0.002009 0.000626 -0.000850 0.001085 0.003329 -0.002914 0.004101 -0.001253 0.004805 0.001331 0.003438 0.000184 0.000273 -0.001524 -0.003939 -0.001118 -0.002899 -0.004380 -0.002487 -0.003566 0.003579 -0.004669 -0.003589 0.002178 0.004095 -0.003249 -0.004899 0.004592 0.002115 -0.002383 -0.000177 0.000722 -0.001369 0.003649 0.001698 0.004921 -0.001615 0.003949 -0.000574 0.001389
sent_27 0.002494 0.003307 -0.001132 -0.000328 0.003329 0.002094 0.004696 0.004576 -0.003167 -0.002608 0.002149 0.002584 0.001215 0.004008 -0.002413 -0.001564 -0.000129 -0.001949 0.000354 0.001748 -0.002793 -0.000624 0.004683 -0.001710 -0.004747 0.003072 -0.000086 -0.004521 0.003888 -0.001038 0.004188 -0.000910 -0.004434 -0.002615 -0.001488 0.002722 -0.003501 -0.000517 0.003537 0.000530 -0.004154 -0.004742 0.001839 0.004465 0.003027 0.002854 0.001846 0.003008 -0.004504 -0.002398 0.001753 0.003686 0.001536 -0.003517 0.004218 0.003892 -0.003896 -0.003371 -0.002321 0.002502 0.004289 0.001020 -0.003118 -0.000537 -0.003281 0.004116 0.002489 0.000169 -0.000392 -0.004180 -0.002025 -0.003672 0.002900 0.000472 -0.002629 -0.002607 -0.002349 -0.001581 -0.001020 -0.001507 0.001642 -0.004536 -0.001434 0.002260 0.004478 0.003332 -0.002508 -0.002905 -0.003176 0.004240 -0.002497 0.002606 -0.002003 -0.005007 0.002675 0.002002 -0.003824 -0.001804 0.004866 -0.003520
sent_28 -0.003975 0.001220 0.004357 -0.003458 0.000266 0.001833 -0.003073 -0.005091 0.003728 -0.004519 -0.002458 0.001675 -0.001874 -0.004725 0.000691 -0.002024 -0.003613 0.004483 -0.003426 0.002182 0.004081 0.003050 -0.003184 -0.002511 -0.004851 0.004040 0.003637 0.000776 -0.004029 -0.003192 0.000742 -0.002340 -0.002103 -0.003355 -0.002932 -0.000403 -0.000015 0.000207 0.004667 -0.003491 0.002460 0.002859 0.000527 -0.000533 0.004087 0.003366 -0.004239 0.004757 -0.004676 0.000609 0.000559 0.003515 -0.001316 -0.004379 0.000801 -0.004847 -0.001282 0.004523 0.003682 -0.003496 0.003482 0.003325 0.004105 -0.002372 0.000231 0.003140 0.001534 0.000996 0.001462 -0.002875 -0.005056 0.002502 -0.001662 -0.001245 0.001279 0.001704 -0.002926 0.003453 -0.001049 0.001855 0.004674 0.000931 -0.001113 0.001033 0.000149 0.000011 0.002449 0.004105 -0.000397 -0.003634 0.000774 -0.002391 -0.004302 0.002623 -0.001852 0.002407 0.000135 -0.001707 -0.001457 -0.004691
sent_29 0.000621 0.003379 -0.003964 -0.003720 0.000406 0.001758 0.002019 -0.001960 -0.004855 -0.000761 -0.002835 -0.004746 0.002123 0.004619 -0.001106 -0.002240 0.000491 0.003191 0.002956 0.001762 -0.000413 0.001410 -0.002769 -0.002179 0.002833 0.003995 -0.003453 -0.002296 -0.005184 -0.000410 -0.002768 0.001619 0.002050 -0.003992 -0.003933 0.003962 -0.001082 0.000458 0.004376 0.002728 -0.001665 -0.004390 -0.000018 -0.001617 -0.004703 0.002741 -0.000884 0.000869 0.002856 0.004194 0.001068 -0.001669 -0.004015 -0.004449 -0.001711 0.001610 0.002008 -0.003236 -0.004095 -0.002016 0.000736 0.002743 0.000140 -0.001732 0.001447 -0.002500 0.001479 0.003549 0.001192 0.000465 -0.002328 0.003827 0.004966 0.002690 0.000851 -0.003647 -0.001831 -0.001380 -0.001871 -0.000112 0.001132 -0.002551 -0.002178 -0.003952 -0.001798 0.000523 0.000005 0.004822 0.004611 -0.000261 0.004662 -0.002658 0.000513 -0.000592 0.005111 0.003049 -0.002612 -0.000354 -0.002981 0.000244
sent_30 0.003073 -0.004569 -0.002988 0.004872 0.004665 0.000644 0.001497 -0.002325 0.004404 0.001744 0.001620 -0.004767 0.003663 0.002833 0.001841 0.002286 -0.003457 0.002023 -0.004029 0.002027 -0.004841 0.002515 -0.000049 -0.002965 0.002320 -0.001996 0.003662 -0.003326 0.004262 0.004845 -0.001891 0.003727 0.003399 -0.000844 -0.001241 -0.002226 0.004945 -0.002381 0.004078 -0.000648 0.004394 0.003264 -0.003631 0.000754 0.001775 -0.000927 -0.004818 -0.001669 0.003539 -0.004479 -0.003974 0.002106 0.000083 -0.000113 -0.001218 0.001036 0.003543 -0.002387 0.003486 -0.000869 0.000140 0.002394 -0.002491 0.004416 0.002123 0.001115 -0.002294 0.002023 -0.002526 0.003069 -0.005085 -0.003305 0.000617 0.002081 -0.000018 0.003748 0.004769 -0.000382 0.002785 0.000162 0.001664 -0.002591 -0.003742 0.004753 0.003213 -0.001872 0.000912 -0.001266 -0.003337 -0.000625 -0.002057 -0.004735 -0.001075 0.004146 0.003500 0.000584 -0.001690 -0.002562 0.004727 0.000623
sent_31 -0.002752 -0.002132 0.004823 -0.002143 -0.004014 -0.002922 0.002796 0.002028 -0.000940 0.002964 -0.000021 -0.000902 -0.003427 0.003948 -0.002535 0.001100 0.004756 -0.003113 0.004689 0.001353 -0.003472 0.002036 0.004694 0.000878 0.001796 -0.005084 0.004797 -0.002061 -0.004755 0.003147 0.004616 0.002678 -0.004959 -0.004452 0.001182 -0.001739 0.003966 0.003697 0.004577 0.002216 0.003741 -0.002016 -0.004064 0.003756 -0.001620 -0.000860 0.001821 0.001302 -0.000557 -0.001076 -0.004028 0.000635 -0.002841 0.002407 0.001675 -0.004090 0.004792 0.002394 -0.002932 -0.004970 0.000115 -0.001072 0.000181 0.002050 0.003105 -0.005033 0.001869 -0.002176 0.004541 0.003403 0.000255 0.001121 -0.003016 -0.002973 -0.003066 -0.001105 -0.003898 0.000057 0.001392 -0.003391 -0.001440 -0.003948 0.000540 0.001337 0.001414 0.003701 -0.002552 0.001120 -0.002167 -0.003562 -0.001653 -0.004128 0.004855 0.002322 -0.003487 0.002540 -0.001341 0.004417 0.000439 0.003654
sent_32 -0.002795 -0.001328 -0.001332 -0.004029 -0.001690 0.001597 -0.000335 0.003792 -0.002303 -0.001452 -0.001796 0.000517 -0.003118 -0.003268 0.004395 -0.001234 0.000871 -0.004448 -0.003591 -0.004036 0.003121 -0.003969 0.000163 -0.003444 -0.002212 0.003826 0.001316 0.004637 0.000997 -0.004905 -0.000844 -0.004776 -0.001860 -0.000184 0.000755 -0.002613 0.000583 -0.001051 0.000066 -0.003040 -0.003432 0.002545 -0.001700 0.001442 0.000655 0.003995 0.003807 -0.000569 -0.002953 0.001322 0.001368 0.001924 0.004075 0.002826 0.001253 0.001010 -0.002872 0.001514 0.003145 0.004223 0.004167 0.000611 -0.002402 -0.001662 0.004978 0.000256 0.003159 0.000970 0.000069 -0.001515 0.000378 -0.004933 0.003767 0.000615 -0.004757 0.003182 -0.003646 -0.004694 -0.000377 0.004607 -0.004064 -0.004344 0.003799 0.003214 0.003200 -0.000322 -0.000725 -0.000989 0.000822 0.002290 0.002843 0.001548 0.000625 -0.000876 -0.001801 -0.002138 -0.002038 0.001828 0.002624 0.000976
sent_33 -0.002157 -0.002425 0.003222 0.005226 -0.004675 -0.001952 0.002953 0.001994 -0.003478 0.000879 0.000436 0.002796 0.000420 -0.000676 -0.002335 -0.003353 -0.004225 0.000628 0.001844 0.001485 -0.004183 -0.001885 -0.003429 0.000364 0.005086 -0.000988 -0.002187 0.002446 0.003989 -0.001188 0.003341 0.005551 -0.003750 -0.000146 0.004155 -0.001994 0.000210 0.002617 -0.004605 -0.001093 0.001082 -0.003524 0.002378 0.002879 0.004798 0.000122 -0.003076 0.004989 0.004170 -0.000160 0.003041 0.004524 0.002718 0.000415 0.001526 0.003505 0.001100 -0.003744 0.002149 -0.000103 -0.002189 -0.004436 -0.003176 0.002758 0.004011 0.002802 -0.003899 -0.004153 0.002043 -0.002810 -0.003257 -0.004849 -0.003922 -0.003881 -0.002933 -0.000739 0.003183 0.002796 0.004540 0.000462 0.002387 0.001061 -0.003692 -0.004241 -0.002240 0.006451 0.002203 -0.002444 0.001403 0.002621 -0.004701 -0.000700 0.002941 -0.004280 0.004927 0.003570 0.003992 -0.002871 0.001435 0.002102
sent_34 0.003647 -0.004043 0.002939 -0.002239 0.000963 0.001926 0.002937 -0.002100 0.001267 -0.002098 0.005041 0.002900 -0.000978 0.003865 0.002346 0.004513 -0.003324 -0.001824 -0.004125 -0.001824 -0.001344 0.001450 -0.000319 0.002359 -0.002430 -0.003158 -0.000874 -0.000520 -0.000556 0.003841 -0.002463 -0.001647 -0.002904 -0.001167 -0.001306 0.000925 -0.002347 -0.002442 0.002227 0.004078 -0.003972 -0.002994 -0.003516 0.001693 -0.002815 0.001086 -0.003094 0.003098 -0.002012 0.001929 -0.003598 -0.002011 -0.002012 0.001311 0.001582 0.003408 -0.003207 0.002727 0.001981 0.000658 0.001657 -0.004109 -0.003553 -0.001004 0.002004 -0.003268 -0.001229 -0.000094 0.004570 -0.004356 0.003536 0.004943 -0.002300 0.003949 -0.002094 0.003164 -0.000457 0.001171 -0.002784 0.001853 -0.003539 0.000470 -0.000250 0.003376 -0.000170 0.002583 -0.001015 -0.001904 0.002940 -0.000815 0.000174 0.000587 0.003355 0.000771 -0.001111 -0.003341 0.001896 0.003576 -0.003975 -0.000372
sent_35 0.004544 0.000874 0.000612 -0.004207 0.000456 0.001688 -0.003494 0.004447 -0.003361 0.001869 -0.002400 -0.003718 -0.002113 -0.001489 -0.000468 -0.002892 0.002233 0.002785 0.002924 0.002022 -0.002010 -0.003359 -0.003813 -0.001003 -0.004009 0.001185 0.004181 0.002298 -0.004088 -0.004478 -0.001541 0.005115 -0.001833 0.002194 0.002516 0.000482 -0.001079 -0.002844 0.004585 -0.004207 -0.002444 -0.002236 0.003708 0.002126 -0.002319 -0.003380 0.004104 0.003198 -0.004328 0.003584 0.000718 -0.000181 0.001693 -0.004725 -0.001606 -0.004160 0.001784 -0.001359 -0.000111 -0.002213 0.003038 -0.004298 -0.002392 0.001315 0.002993 0.000823 0.002297 -0.004708 -0.002607 -0.004825 -0.000321 0.004951 -0.004814 -0.000642 -0.004817 0.001095 -0.003122 0.002072 -0.003219 0.003712 -0.002840 -0.001051 -0.002382 0.003080 0.000001 0.004353 -0.003583 -0.000062 0.002539 0.005203 0.001713 -0.002933 0.002727 -0.004322 0.003032 0.002997 0.000772 0.000255 0.004636 -0.004963
