41 100
sent_0 -0.000745 0.002448 -0.004991 -0.001959 -0.003330 -0.004194 -0.002994 -0.001752 -0.001181 0.000612 -0.000881 0.001964 -0.002827 0.004046 -0.004815 0.001590 -0.000872 0.000409 -0.003664 -0.003177 0.003188 0.004318 -0.001889 0.002026 0.003847 0.003653 -0.004287 -0.004748 -0.003436 0.003971 -0.003976 -0.000754 0.004585 0.000219 0.002138 -0.002042 0.002074 0.003455 -0.004903 0.002613 0.005046 0.002249 -0.002506 0.002695 -0.004018 -0.000509 0.004280 -0.001801 -0.001898 -0.003787 -0.005011 0.001956 -0.002865 -0.002459 -0.000140 -0.004590 0.000674 -0.003740 0.000979 0.002028 -0.003717 -0.000677 0.001778 -0.000583 -0.004440 0.000197 0.001624 0.000173 0.004480 0.000585 0.003857 -0.003507 -0.003512 0.003141 -0.000955 -0.003274 0.004338 -0.001384 0.002628 0.002683 0.003888 0.001670 0.002725 -0.001476 -0.002266 0.004400 -0.000594 0.004601 0.001375 0.001557 -0.003782 0.004601 -0.000244 0.000628 -0.000624 -0.002875 0.004101 0.000870 -0.004779 0.001179
sent_1 -0.001642 0.000359 0.003910 -0.001299 0.004203 0.001199 -0.004711 0.004229 0.001754 0.005058 -0.003291 -0.003590 0.004461 0.002052 -0.004367 0.002425 0.002439 0.004089 0.002107 -0.003832 -0.004674 -0.004995 -0.004577 -0.002383 0.003576 0.000180 0.000458 0.003278 -0.003859 -0.002110 0.000893 0.004734 0.000565 -0.004847 0.003078 -0.002740 0.003089 -0.001142 0.003398 0.002584 0.000442 -0.003756 -0.004634 -0.003735 -0.004456 -0.003904 -0.002593 0.002165 0.000737 -0.004908 -0.004328 0.004824 0.000641 -0.003135 -0.002456 0.002438 -0.003082 0.000710 0.004699 0.003353 -0.002442 0.000039 0.001049 0.003469 -0.003469 -0.004931 -0.004404 -0.000106 0.001028 0.000577 -0.001982 0.005046 0.000859 -0.001221 0.000621 0.002483 0.001615 -0.002351 -0.004289 -0.001001 0.001361 -0.002701 0.002581 -0.004345 -0.002255 0.003321 -0.003019 0.001332 0.000127 0.004506 -0.002294 -0.004256 0.002417 0.002654 0.004260 0.004096 -0.004778 -0.002557 0.001367 0.004439
sent_2 0.004532 0.000650 0.004187 0.001446 -0.001077 -0.000108 0.001045 0.000460 0.004159 0.004229 -0.001099 0.004671 -0.003188 -0.003676 -0.003703 -0.000001 -0.004794 0.004418 0.003277 -0.004896 -0.003158 -0.001788 -0.003660 0.003115 -0.001507 0.004293 0.000750 0.003723 0.003380 0.004144 -0.000378 0.000505 0.003017 -0.002188 0.000016 0.000895 -0.004728 0.000940 -0.000707 0.003106 -0.001771 0.003829 0.000680 -0.003169 0.002873 0.001101 -0.004378 -0.000707 0.001860 0.004135 -0.005063 0.004845 -0.001228 0.004725 0.001070 0.003268 0.000707 0.001189 -0.002114 0.000831 0.002513 0.003652 0.002488 0.002086 0.003639 -0.001832 0.001716 -0.000495 -0.001208 -0.000967 -0.001046 -0.001811 0.001225 -0.000702 0.004777 0.001776 -0.002997 -0.000749 -0.001527 0.003082 0.003843 0.004172 0.001702 -0.002278 -0.002459 0.003719 0.000308 0.003029 0.000662 0.002433 0.000194 0.002778 0.000728 -0.000346 -0.001480 -0.004380 -0.001192 -0.004103 0.004880 -0.003154
sent_3 0.002919 0.004014 0.001613 0.000789 -0.003371 -0.000608 -0.001305 -0.002938 0.001036 -0.001830 0.004262 0.003894 -0.002444 -0.003665 -0.003195 0.000280 0.002171 -0.002499 -0.002661 0.003427 -0.001142 0.001091 -0.002963 -0.003684 -0.000030 -0.000129 -0.003105 0.001502 0.000731 0.001177 -0.003916 0.002379 -0.002873 0.000395 0.002685 -0.004614 -0.002000 0.003583 0.003424 0.000525 0.003266 0.004723 0.003449 0.003208 -0.003791 0.001650 0.001886 0.001063 0.002805 -0.004335 0.002395 0.002320 -0.002523 -0.002494 0.001103 -0.001657 0.003019 -0.000551 0.002587 0.004881 -0.001521 -0.003419 0.003998 0.000408 0.004721 0.001333 0.004709 0.000161 0.000532 -0.003679 -0.001230 -0.004507 -0.003404 0.002637 -0.004553 -0.000995 0.003631 0.002326 0.001678 -0.002949 -0.000661 0.000746 0.004818 -0.003098 -0.002574 -0.002500 0.002433 -0.000470 -0.004334 0.000234 -0.002484 0.002883 -0.001696 -0.004861 0.000845 0.003413 -0.001237 0.002270 0.000241 0.000289
sent_4 0.004993 0.003308 -0.004552 0.002212 -0.000106 0.004637 -0.002746 -0.002532 -0.004583 -0.000564 -0.003962 0.001727 0.003367 0.002202 0.002629 -0.001962 0.003365 -0.001111 0.003225 0.001151 -0.003369 -0.004775 -0.004883 -0.004389 -0.000273 -0.004271 -0.005225 0.002407 -0.001465 0.002886 -0.000308 -0.000336 -0.000277 -0.000419 0.003357 -0.001268 0.004157 -0.004616 0.002446 -0.003415 0.001189 -0.005268 -0.000136 -0.005091 0.004568 0.004145 0.003192 0.004367 -0.003207 -0.003791 -0.003255 0.001514 0.003967 0.004720 0.002359 0.002156 0.004186 -0.001332 -0.002286 -0.003431 -0.003526 0.003328 -0.003681 -0.001854 0.003333 -0.002152 0.004859 -0.002279 0.000221 -0.002290 0.003679 -0.001185 -0.000637 0.000229 0.004496 -0.004751 0.002234 0.003964 -0.004508 0.000815 -0.001715 0.004026 0.000970 0.001862 -0.000433 0.002008 -0.002025 -0.005069 0.000574 -0.001515 0.000092 0.004509 -0.000660 -0.002769 -0.000835 0.003980 0.004674 0.003808 0.004550 -0.002742
sent_5 -0.003776 -0.002250 -0.002015 -0.002895 0.001661 -0.001122 0.003751 -0.003729 0.002075 -0.002233 0.000648 -0.001193 -0.003981 -0.002049 0.001823 -0.000084 0.000083 -0.003656 0.000453 0.004804 0.003342 -0.000288 0.004311 0.004010 0.000903 -0.005143 -0.004459 -0.004609 -0.000687 -0.001268 0.004752 -0.003175 0.004318 0.002334 0.003401 0.001619 0.001159 0.000268 -0.005233 -0.000987 -0.000198 0.002098 -0.001000 -0.001313 -0.003421 -0.004541 0.002875 -0.001416 0.005262 -0.003021 -0.002080 0.000430 0.002155 -0.000948 -0.004141 -0.002265 0.000389 0.001025 0.002745 -0.003337 -0.003216 0.000747 0.002785 -0.003979 0.002461 0.001654 -0.000799 0.004409 0.001565 -0.005440 -0.000747 0.003879 0.003580 0.001589 0.001862 0.001083 -0.002055 0.001335 0.002060 -0.000182 0.003299 -0.002557 0.003228 -0.002423 0.002848 0.000201 0.003352 -0.001964 -0.003180 0.003644 -0.001660 0.002398 0.003363 -0.003610 -0.001915 -0.003674 -0.003037 -0.001304 -0.003932 -0.004097
sent_6 0.002406 0.003682 -0.003917 -0.002361 -0.002548 0.004517 0.002295 0.000112 -0.002816 0.003744 -0.000946 0.004912 0.002818 0.000331 -0.003912 0.004092 -0.003552 -0.003795 -0.000671 -0.001337 -0.002935 0.001040 -0.003152 0.001475 0.002839 -0.003818 0.000045 0.001975 0.000602 0.001853 -0.001793 0.002747 0.004459 -0.001146 0.003674 -0.005029 0.003800 -0.002942 -0.001673 -0.001515 -0.003911 0.003213 -0.002425 0.000097 0.000038 -0.003546 -0.002230 -0.003667 0.000766 -0.003086 -0.001885 -0.003348 0.002737 -0.004325 0.005222 -0.003491 0.000825 -0.005449 0.003181 -0.003390 0.000845 0.003012 -0.003980 0.001568 -0.002517 0.002018 0.002287 -0.003104 0.003369 -0.005652 0.002767 0.000822 -0.000865 0.002618 0.002509 0.004768 -0.002092 -0.004908 0.004811 0.004871 0.002423 0.001267 0.002952 0.002774 -0.001080 0.004351 0.002781 0.000867 -0.001521 0.003005 -0.005113 0.003452 0.004325 -0.003003 -0.002767 -0.003544 -0.001322 0.004642 0.001231 -0.002137
sent_7 -0.003661 -0.001539 0.000931 -0.001074 -0.000117 -0.000897 0.004049 -0.001214 -0.001511 0.001966 -0.002888 -0.000525 -0.001388 0.001886 0.003774 -0.000240 0.002653 -0.000323 0.001314 -0.003916 -0.000566 0.002945 0.000864 0.003164 -0.000292 -0.000408 0.003606 -0.004580 0.000926 0.004012 -0.000191 -0.002931 0.003132 -0.002576 0.002008 0.000910 0.003898 0.001469 0.002827 -0.004612 0.004450 -0.004189 -0.002130 0.003831 -0.004358 0.003522 0.003938 -0.000356 -0.002301 0.003308 -0.000843 -0.003480 0.003780 0.003360 -0.000695 0.003426 -0.000672 0.001122 -0.001437 0.000132 -0.001512 0.005390 -0.002525 -0.003236 -0.003102 -0.005077 0.001502 0.000598 0.003063 -0.000070 0.002632 0.002425 0.003064 -0.001029 0.001886 -0.002662 -0.001769 -0.002585 -0.000880 -0.001453 -0.001064 0.005066 -0.001357 0.004476 0.001727 -0.000578 0.003789 0.000811 -0.002665 0.004043 0.000035 -0.001501 -0.000687 0.001430 -0.001557 0.002432 -0.001651 0.000280 0.000758 0.003283
sent_8 0.003549 -0.003311 0.000255 0.003559 -0.000476 0.003769 -0.002077 0.001040 0.002158 -0.002732 -0.004575 -0.001119 0.003958 -0.001507 0.003025 -0.002923 -0.001607 -0.003183 0.002091 0.002075 0.001330 -0.001739 0.001601 -0.002633 -0.000894 -0.000814 -0.000982 -0.003886 0.001571 0.001675 0.000888 0.000984 -0.003404 -0.003090 -0.000381 0.003957 -0.003389 -0.000585 -0.000453 -0.000078 -0.003824 -0.001197 -0.002007 0.003180 0.002906 -0.000495 0.000595 -0.003886 -0.000445 -0.001840 0.003640 0.001357 0.001531 -0.003643 -0.000374 0.004583 0.004619 0.001935 -0.003528 0.001510 0.000523 -0.000628 -0.000526 0.000328 0.003172 0.002683 0.000923 0.004073 -0.003748 0.004935 -0.003781 -0.002911 -0.000905 -0.003575 0.001018 -0.004385 -0.002241 -0.003971 0.001727 0.001367 -0.001388 -0.003568 0.001938 -0.001433 0.002751 -0.000944 0.000104 -0.004685 0.001743 -0.001987 -0.002605 -0.000908 -0.001239 -0.000437 0.004069 -0.000939 0.002584 0.000054 0.003468 -0.001485
sent_9 -0.002486 0.004097 -0.004591 0.004472 0.000640 -0.001274 0.005006 -0.004462 0.000194 -0.004638 0.000717 -0.003134 0.001314 0.004848 0.003830 -0.000513 0.002084 0.002675 -0.000060 0.000277 -0.003483 -0.001362 -0.003628 0.002240 -0.000226 -0.000530 0.003788 0.000253 -0.000963 -0.002272 -0.004244 -0.000829 -0.004787 -0.002113 0.000019 0.004696 -0.003968 0.001791 -0.000025 0.002787 -0.003572 -0.004187 -0.001100 0.002906 -0.003111 0.002735 -0.002080 -0.002843 -0.004807 -0.001085 -0.001174 0.001561 -0.004287 -0.003537 -0.004833 -0.003908 0.001589 -0.000989 -0.001754 0.000641 0.005016 0.003343 0.001987 0.004196 -0.004538 -0.004312 -0.000232 -0.001436 0.004411 -0.000171 0.000354 0.003964 -0.000503 0.003787 -0.002491 -0.002286 -0.001716 0.000534 -0.002754 0.001814 -0.003613 -0.004021 0.003751 -0.002632 -0.001137 0.000760 0.000290 -0.004300 0.003703 0.004557 0.003069 -0.002159 0.000317 -0.001702 0.000592 0.004702 -0.001812 0.001658 -0.001694 0.002711
sent_10 -0.001639 0.004075 0.002618 0.002733 -0.000263 -0.002767 -0.004597 -0.001850 -0.004913 0.001998 0.001601 -0.000598 0.002867 0.000488 -0.004703 -0.003809 -0.003077 -0.001783 -0.004456 0.000955 0.000311 0.000909 -0.000583 0.003511 -0.000362 -0.005109 0.003540 0.001408 0.003046 0.004751 -0.004427 -0.002537 -0.004293 -0.000875 0.003895 -0.004403 -0.000011 -0.003761 0.002595 0.003483 -0.004409 -0.000386 -0.002831 0.004548 0.004460 0.001106 0.004937 -0.001343 0.004136 -0.000783 -0.002771 0.004586 0.001828 -0.004364 0.003792 0.001991 0.000958 0.002090 -0.002399 0.000856 0.003162 -0.004280 -0.003839 0.003683 0.001165 0.000162 -0.002509 -0.002075 0.003612 -0.000944 -0.004514 0.004018 -0.002951 0.003241 0.003920 -0.000163 0.001020 0.000208 0.001339 0.003785 -0.002078 0.004129 0.000852 -0.003799 -0.002661 0.001368 -0.002544 -0.003681 -0.003507 0.003670 0.001042 0.004823 -0.001501 0.000963 0.001214 0.001011 -0.004314 0.002780 0.004618 0.000409
sent_11 -0.002886 0.002615 -0.004754 -0.001559 0.004197 0.001062 0.003535 0.001035 0.002951 0.003786 -0.001822 -0.003638 0.002409 -0.000576 -0.003776 0.000691 -0.004684 -0.003156 0.002912 -0.004925 -0.001810 -0.005046 0.005097 0.000852 -0.002038 0.004079 -0.000145 -0.000577 0.000693 -0.002138 -0.001869 -0.001145 -0.002545 0.000802 0.002119 -0.004421 0.004789 0.002466 0.002842 0.002607 -0.004222 -0.000366 -0.000749 0.001871 -0.000406 0.002039 0.001978 0.002038 0.001346 -0.003616 0.002610 0.002960 0.003964 -0.002732 -0.003064 -0.001040 -0.001808 0.002983 0.001172 0.002384 -0.000701 -0.003891 -0.003943 -0.001038 -0.003052 0.003073 0.000953 0.001880 -0.000275 -0.004226 -0.002880 -0.000301 -0.002998 -0.004792 0.002407 0.002186 -0.001720 0.003318 -0.000633 0.003846 0.001640 0.000985 -0.002859 0.000282 0.004061 -0.001608 0.003729 0.004036 -0.001779 0.002001 0.003982 -0.004054 0.003715 -0.003084 0.003716 0.001494 -0.001413 -0.003228 0.001545 0.003460
sent_12 0.003376 0.001355 0.004610 0.000864 -0.002893 -0.000654 -0.001656 0.004834 -0.001315 0.005014 0.000142 -0.003094 -0.004158 -0.001193 -0.003746 0.001181 -0.000846 0.004687 0.004295 -0.003539 -0.000932 -0.000571 0.000573 0.002691 -0.000008 -0.000965 -0.002628 0.004023 -0.004976 0.003423 -0.002981 0.001913 -0.001448 0.004624 -0.003611 -0.003272 0.004017 0.000921 -0.001930 -0.004904 -0.002562 -0.003735 -0.003191 0.003866 0.003642 0.002013 -0.000200 0.003421 0.000120 -0.001569 -0.002275 0.004334 -0.001113 -0.000101 -0.002377 0.003752 -0.001150 -0.002151 0.002335 -0.003062 -0.003767 0.003418 0.002400 0.001093 -0.002485 0.001153 0.001475 -0.001637 -0.004364 0.003614 -0.000569 0.002628 -0.002438 0.000960 -0.000744 -0.001244 -0.003660 -0.002541 -0.004068 -0.001768 0.002423 0.001356 0.001909 -0.004884 0.001758 0.000317 -0.002629 -0.003298 -0.003263 0.003542 0.004722 0.004256 -0.001492 0.002694 0.000652 0.003067 -0.000066 0.001042 0.002938 -0.003956
sent_13 0.000569 -0.001101 0.001203 0.004747 -0.000969 -0.000928 0.002946 0.001334 -0.001383 0.002019 -0.001103 -0.003441 -0.000215 -0.001486 -0.002936 0.004022 0.001855 0.000701 0.002481 0.000284 0.002299 0.003842 0.003721 -0.003295 -0.002251 -0.004653 0.004470 -0.002895 0.001349 -0.003787 -0.002782 0.000214 -0.003912 -0.001292 0.000730 -0.001851 0.000804 0.000441 -0.001309 0.002097 0.001978 0.001548 0.000228 -0.001427 0.001159 0.004333 0.001268 0.005056 -0.000302 0.002187 -0.004786 0.002891 0.000137 -0.005066 -0.002137 0.000308 0.002627 -0.004809 0.000590 0.002899 0.001651 0.004551 -0.004456 -0.001823 0.004284 0.002457 0.000989 0.003387 0.003804 0.004482 0.004664 -0.003544 -0.004243 -0.004316 -0.004718 0.004684 -0.004008 0.003362 0.002037 0.000302 -0.001435 -0.001037 -0.002150 0.004113 0.002355 -0.004126 -0.000269 -0.002239 -0.004937 0.004238 0.002689 -0.001466 0.003095 -0.001822 -0.001517 0.004000 0.004949 0.000563 0.004790 0.003916
sent_14 0.000048 -0.001198 0.001950 -0.000374 0.001118 0.004704 0.002935 -0.001753 -0.003972 -0.003097 0.000279 -0.000977 0.002997 0.004458 -0.003205 0.003773 0.004534 0.004724 -0.004692 -0.004456 -0.005014 -0.001964 -0.004512 -0.001918 -0.001546 0.004557 -0.000033 -0.002200 0.000183 0.001210 -0.004022 0.002508 0.003437 0.003475 0.003797 -0.001006 -0.000724 -0.003942 -0.002774 0.004740 -0.002294 0.004185 0.003942 0.004034 -0.003356 0.003862 0.001300 -0.002897 -0.001619 -0.003243 -0.000692 -0.004188 -0.003404 -0.003132 0.001688 0.000685 0.003745 -0.002587 0.001171 -0.004561 0.000481 0.003724 0.004774 -0.004887 -0.002438 -0.002748 -0.004667 -0.004926 0.000047 -0.004515 -0.002127 0.001497 -0.001998 -0.002290 0.000949 -0.001027 0.002010 0.000173 0.001267 -0.001323 -0.002176 -0.003695 0.004344 0.002994 0.004420 -0.003203 0.004358 0.004310 -0.002158 -0.002101 0.000707 -0.003270 -0.000334 -0.003257 0.004491 -0.000116 0.004627 0.001269 -0.000073 0.004623
sent_15 -0.003304 0.001675 0.001855 -0.000238 -0.004331 0.000147 -0.000211 0.002943 -0.002813 -0.000972 -0.002783 0.002047 0.005348 -0.003047 0.003018 -0.002930 -0.004560 -0.003859 0.004374 0.003707 -0.001792 0.003708 0.003628 -0.000500 -0.000315 0.000849 -0.003736 -0.005170 -0.002551 -0.004601 0.001770 0.000813 -0.001827 0.002605 -0.003170 -0.002696 -0.001998 -0.002998 -0.004532 0.003929 -0.004149 0.001519 -0.004237 -0.004874 0.000860 0.004079 0.003990 -0.001367 -0.004372 0.002881 0.002812 0.004048 0.001501 0.002827 0.004015 -0.000400 0.000572 -0.000422 0.001871 0.001606 0.000653 0.003680 -0.000241 0.003865 -0.001982 -0.003441 0.004497 0.002435 -0.002682 0.000612 0.004060 -0.004030 -0.004091 0.001045 -0.002432 0.002703 0.000672 0.001618 -0.003761 -0.003529 0.001345 -0.000455 -0.003723 -0.001456 0.001938 -0.002315 0.004062 0.004354 0.004386 0.002934 -0.000795 0.002708 -0.001869 -0.001948 0.001665 0.000496 0.004064 -0.002100 0.003209 0.004335
sent_16 -0.004482 0.000414 0.002064 0.004076 -0.003006 0.003945 -0.001112 0.003693 -0.005550 -0.003906 0.004569 0.001496 -0.000061 -0.003050 0.001053 -0.005199 -0.002146 -0.002334 0.001108 0.001155 0.004074 0.002956 0.001960 0.001136 -0.000972 0.003784 -0.004085 0.003375 -0.002339 0.001074 0.001914 -0.002107 -0.003338 -0.000197 0.003688 0.001402 -0.003451 0.004002 -0.000963 0.004877 0.000501 -0.004788 -0.003811 0.003790 0.002456 0.003915 -0.000949 0.000710 0.002244 0.000640 -0.003016 -0.000033 -0.002761 0.002995 0.005095 -0.004226 0.002048 -0.002441 0.001269 -0.002941 0.002039 -0.000712 -0.002580 0.005110 0.004618 0.000656 -0.003152 0.004386 0.002005 0.001973 -0.003804 0.003656 -0.002474 0.001102 0.002683 0.002463 -0.001153 0.002435 0.004320 0.001947 -0.003847 -0.002749 -0.003300 -0.003479 -0.003324 0.004217 -0.004389 -0.002765 0.003222 0.005833 0.001230 0.005309 -0.004264 0.004362 -0.000855 0.002159 0.003524 0.004361 0.000499 0.004184
sent_17 -0.002443 0.004225 0.001102 0.004740 -0.004676 0.002222 0.000644 -0.000051 -0.002352 -0.001795 -0.002411 -0.002848 0.002892 -0.000010 -0.004018 0.002807 0.000375 0.002436 0.000151 -0.000939 0.004749 -0.004507 0.004269 0.004260 -0.001124 -0.002721 0.001231 -0.003088 0.003039 -0.002496 -0.002099 0.004064 0.004002 0.000477 0.003472 -0.001400 0.004893 -0.000722 -0.001993 -0.004659 0.004816 -0.000273 0.002443 0.001420 0.002196 -0.004415 0.004078 0.004154 0.000377 0.004623 -0.002071 0.000861 -0.000998 0.001331 -0.001935 0.003158 -0.004232 -0.004457 -0.004495 -0.003501 -0.001164 0.004444 -0.003807 0.001272 0.000223 -0.001424 -0.002952 -0.002806 -0.004488 0.002157 0.001680 -0.000567 0.002166 -0.003843 0.004296 0.003430 0.001569 -0.001160 -0.000880 -0.000323 0.004292 0.003473 -0.000350 0.000617 0.003736 0.004261 0.001356 0.002464 -0.001390 0.003975 0.003321 0.000482 0.003553 0.003477 0.002905 -0.003565 0.000379 0.003939 0.002590 -0.000808
sent_18 0.004917 -0.002420 -0.001565 0.004639 0.003144 0.004081 -0.004848 -0.001248 -0.002761 -0.001994 0.002332 0.002362 -0.000249 -0.001298 0.000838 0.000216 0.000483 0.000990 -0.001040 0.002674 -0.002355 0.001311 0.004639 -0.004974 0.002261 -0.004063 0.000261 0.001141 -0.002694 0.004276 0.001288 -0.002581 0.002679 -0.004035 0.000675 -0.004101 0.000822 -0.002408 0.001366 0.002227 0.000282 0.001451 0.002944 0.003086 0.001237 -0.000474 -0.000787 0.003825 0.002179 -0.003258 0.000630 0.004177 -0.003551 0.003361 0.003248 -0.000006 -0.004596 -0.003681 0.004265 -0.004594 -0.001145 0.001289 -0.003109 0.005010 -0.003338 0.000323 0.001156 -0.002625 -0.000435 -0.000185 0.002469 0.001372 -0.000286 0.001627 -0.000409 0.000227 0.001596 -0.003213 0.002986 0.001243 0.004816 -0.002616 -0.000175 0.003920 0.001078 0.002534 -0.000810 0.001776 0.004360 -0.002811 0.003045 0.004794 -0.004803 -0.002911 -0.003609 0.002518 -0.004064 0.005109 -0.000937 0.004029
sent_19 -0.002808 -0.000440 0.003996 0.001588 -0.000633 0.000764 0.000596 -0.000348 -0.003570 -0.003995 -0.003844 -0.004417 0.001135 0.003304 -0.001680 -0.004579 -0.000836 0.000830 -0.000503 0.003013 0.004880 0.002972 0.002553 -0.000177 0.001792 -0.005282 0.004483 -0.003730 0.003923 0.003367 0.003148 -0.001788 -0.002713 -0.000928 0.003920 -0.000643 0.004623 -0.001595 0.000750 0.004744 0.001482 -0.004958 -0.000638 -0.001137 0.000798 -0.002391 -0.003337 0.001864 0.002135 0.003654 -0.003683 0.003389 0.003134 0.001419 -0.002786 -0.001875 -0.000974 0.000027 -0.000445 -0.000839 0.003322 0.004073 0.002850 0.004299 0.000812 0.004491 0.000821 0.001043 -0.002561 0.002012 -0.005034 -0.003652 -0.003635 0.001062 -0.002747 -0.001747 -0.004683 -0.003221 0.004703 0.000306 -0.003249 0.000549 0.004690 0.003504 -0.000681 -0.001455 0.002631 -0.002661 -0.002586 -0.003745 0.003726 -0.000241 0.000522 0.002718 0.003572 -0.000926 -0.002940 0.003840 -0.004160 0.004369
sent_20 0.000826 0.004090 0.001271 -0.002013 -0.002185 0.000604 0.004629 -0.003145 -0.000334 -0.001637 0.002586 0.002936 -0.000310 -0.002949 -0.004618 -0.003128 -0.002534 0.001042 0.003802 -0.003793 0.004755 0.001337 0.002712 0.005170 -0.000962 -0.000004 0.001697 -0.000010 -0.002045 -0.003920 -0.002294 0.002921 0.001425 0.003138 0.000376 -0.002838 0.001348 -0.002296 -0.005188 0.004196 -0.001154 -0.000822 0.002266 0.004656 -0.003761 -0.003336 -0.001469 -0.002429 0.000090 0.003298 0.003353 0.001331 -0.002777 -0.003272 0.002565 -0.002445 0.000296 0.002163 -0.002947 -0.003750 -0.004423 -0.003231 0.003253 -0.003562 -0.002797 -0.004827 0.001481 -0.002908 -0.001210 -0.003639 -0.001459 -0.000549 -0.000322 -0.000930 -0.003543 0.002897 -0.003708 -0.000828 -0.002356 -0.001666 0.001953 0.000329 -0.003002 -0.000498 -0.001293 0.002512 -0.002754 0.003434 0.000273 0.000420 -0.002155 -0.002831 -0.000195 0.004909 -0.003339 -0.002490 0.003185 0.001970 -0.001753 -0.001964
sent_21 -0.000801 0.001028 0.002193 0.003573 0.001811 -0.002630 0.004257 0.002812 -0.001926 -0.001950 0.003812 -0.003739 0.001335 -0.002223 0.003272 -0.001355 0.002334 -0.003076 -0.000186 0.003036 -0.001030 -0.003384 0.001490 0.002533 -0.002198 -0.000486 0.004004 0.003720 0.002072 0.000909 0.003174 0.004076 -0.004975 -0.001028 0.000614 0.002339 -0.004125 -0.001002 -0.002204 -0.000765 -0.000020 0.001600 -0.000038 0.001205 0.000824 -0.000717 -0.004950 -0.003055 -0.001798 -0.003530 0.000987 0.001115 0.000001 -0.001792 0.001533 -0.003097 -0.004941 0.002349 -0.000565 0.001978 -0.003150 -0.004374 -0.001219 0.001960 -0.003972 -0.003042 -0.000460 0.001211 0.002501 -0.003903 0.001246 -0.001126 0.001701 -0.002964 0.000279 -0.003278 -0.004813 -0.000130 -0.003158 0.001383 0.000366 0.002749 -0.001070 0.004895 0.000152 -0.000212 0.002494 0.000727 -0.001375 -0.000108 -0.003109 -0.001064 -0.004700 -0.000375 -0.002255 0.000267 -0.004707 0.000551 -0.002070 0.000775
sent_22 0.002889 0.000206 0.002231 -0.002114 0.005154 -0.002191 0.004473 -0.003100 -0.001054 0.003609 0.001843 0.002551 0.000145 0.002921 0.003542 -0.001301 -0.000003 -0.004872 -0.001048 -0.000830 0.004665 -0.005184 0.002643 0.000848 0.001288 -0.005736 -0.004219 -0.002674 -0.005501 0.002598 0.003850 0.000982 0.000605 0.000849 -0.001006 -0.002242 0.001581 0.003007 -0.003606 -0.001325 0.002675 -0.002484 -0.005460 -0.003233 -0.002772 -0.000202 0.002138 0.004485 0.004881 -0.002233 0.002059 -0.001313 -0.001395 -0.002317 -0.000511 -0.002746 -0.002089 -0.004522 0.004753 -0.000579 0.004531 0.003091 -0.000958 0.003616 0.001335 -0.002554 0.000065 0.001970 -0.002502 -0.005552 -0.003254 0.003323 0.004410 0.001178 -0.003068 0.002587 0.000288 0.002279 0.003889 0.005564 0.001937 0.004866 0.003119 0.002193 0.003877 0.005906 0.004215 -0.001109 -0.004860 0.004342 0.000570 0.001136 0.003511 -0.004658 0.004829 -0.005510 0.002229 0.001848 0.002265 -0.001300
sent_23 -0.002318 0.000318 0.003685 0.000805 0.001749 -0.000779 0.004992 0.002244 -0.001435 0.001640 0.000425 0.003747 -0.002143 -0.003683 -0.003126 -0.001009 0.003437 -0.002203 0.001172 0.001138 -0.000969 -0.004777 0.002334 -0.001826 -0.001126 -0.001319 0.001765 -0.004133 0.000591 -0.005021 0.004657 0.000945 -0.001272 -0.003505 0.001944 0.004177 -0.001979 0.002677 -0.002281 0.004719 0.001799 0.001292 0.004214 -0.002568 0.004400 0.001898 0.002761 0.000765 0.003325 0.002100 -0.003787 0.001194 -0.002317 0.003970 -0.003211 -0.002260 -0.004480 -0.000688 0.000447 0.000756 0.004545 -0.001325 -0.000671 0.003681 0.000825 0.001471 -0.002405 -0.000196 0.001370 -0.003760 -0.004661 -0.003679 -0.000175 -0.004706 0.001390 -0.003801 -0.002504 -0.000444 -0.003885 -0.001926 -0.004830 0.004946 0.001182 -0.001308 -0.004670 -0.000948 -0.000434 0.004214 -0.002251 0.001478 0.001909 -0.003171 0.000399 0.002673 -0.003896 0.000890 -0.004655 -0.005027 -0.004175 -0.000266
sent_24 0.004295 -0.000992 -0.004272 0.003524 0.000245 -0.001858 0.004634 0.004352 -0.002333 -0.002955 0.000925 0.003498 -0.001654 0.000843 -0.003290 -0.003079 0.002593 -0.003637 -0.002362 0.001946 -0.004815 -0.004655 -0.002143 -0.001696 -0.001360 0.003082 -0.004748 -0.001443 0.001327 -0.003553 0.003632 0.001437 -0.003883 -0.002907 0.002413 -0.000950 -0.000238 0.003940 -0.003642 0.004656 -0.004565 -0.003947 -0.002832 0.002998 -0.000501 0.001559 -0.003236 -0.003366 0.000250 0.002302 -0.000301 0.003647 0.001617 -0.002574 -0.002621 -0.001327 0.002643 0.004390 0.003690 -0.002280 -0.000851 0.001033 0.000496 -0.001131 -0.003893 0.002158 -0.004057 0.003770 0.003660 0.002019 -0.000163 0.001949 -0.001044 0.003000 0.002786 -0.003452 -0.001789 -0.001491 -0.001280 0.000708 -0.004599 0.001582 -0.002955 -0.000849 -0.000496 -0.001528 -0.001125 -0.003223 -0.004341 0.000500 0.000846 -0.003526 -0.002677 -0.002245 0.003327 -0.003503 0.000589 0.000625 -0.001566 -0.001523
sent_25 0.004610 0.000578 0.001524 -0.000198 0.001521 0.000967 -0.003539 -0.001722 -0.000390 -0.003636 -0.001340 -0.002657 0.003434 -0.001540 -0.002755 -0.000948 0.001813 -0.004400 -0.003235 0.001913 0.002550 0.001176 0.003745 -0.003297 0.002071 0.004140 -0.003537 -0.002541 0.000440 -0.001491 0.001919 -0.004454 -0.003375 0.002183 0.004730 0.004198 0.004078 -0.003692 -0.003502 -0.004271 0.000489 0.003812 0.000267 0.002744 -0.003192 0.003630 -0.003106 -0.004400 -0.000719 0.000521 0.004700 -0.004081 -0.002211 -0.003954 -0.001077 -0.002166 0.000131 -0.001496 0.004342 0.002952 0.003614 -0.003741 0.000767 -0.002865 0.003706 -0.004870 -0.003889 -0.001234 -0.000941 -0.002343 -0.004058 -0.003803 -0.001802 0.004582 -0.002960 0.002496 -0.002374 -0.004559 -0.004802 -0.003421 -0.000364 0.002679 0.002315 -0.001456 -0.000246 0.003183 0.003419 -0.001789 -0.005050 -0.004522 0.002346 -0.002244 -0.000142 -0.003137 0.003491 -0.000011 0.000261 -0.002122 0.000115 -0.004996
sent_26 -0.002182 -0.001340 -0.002116 -0.004069 0.000284 0.002911 0.004462 -0.000104 0.000719 -0.001996 -0.003592 -0.003633 0.002470 0.002477 -0.003320 -0.000981 0.000897 -0.003862 0.002861 0.001096 0.001311 0.001792 0.004967 0.000718 0.003718 -0.001048 0.001440 0.004117 0.001515 -0.001802 0.001236 -0.001425 -0.001723 0.001030 -0.003186 -0.000332 0.004691 -0.001177 -0.003234 -0.000232 0.003509 0.003227 0.003066 -0.004890 -0.002322 0.004962 -0.003632 0.000069 0.003036 -0.003855 0.001484 0.000057 -0.003039 0.003736 -0.003149 0.001349 0.002306 0.000461 0.001336 -0.003912 -0.001884 0.001009 -0.001195 0.001843 0.003462 -0.003231 0.004022 -0.001188 0.004395 0.001018 0.002795 0.000221 0.000331 -0.001726 -0.003610 -0.001146 -0.002845 -0.004695 -0.002190 -0.002954 0.003858 -0.003909 -0.003048 0.002089 0.004254 -0.002146 -0.004727 0.004621 0.001689 -0.001666 -0.000234 0.001125 -0.001178 0.003738 0.002436 0.004396 -0.001446 0.004565 -0.000095 0.001473
sent_27 0.002728 0.003312 -0.000889 -0.000510 0.003490 0.002237 0.004500 0.004576 -0.003510 -0.002490 0.002098 0.002862 0.001286 0.003986 -0.002499 -0.001996 -0.000090 -0.002388 0.000420 0.001707 -0.002494 -0.000715 0.004955 -0.001838 -0.004475 0.002733 -0.000480 -0.004724 0.003500 -0.000513 0.004543 -0.000827 -0.004278 -0.002769 -0.001129 0.002165 -0.002923 -0.000517 0.003543 0.000564 -0.003765 -0.005156 0.001506 0.004689 0.002739 0.002681 0.002059 0.003244 -0.004156 -0.002748 0.001905 0.003921 0.001755 -0.003445 0.004512 0.003874 -0.004107 -0.003341 -0.001961 0.002374 0.003804 0.000905 -0.003169 -0.000415 -0.003449 0.003952 0.002729 0.000284 -0.000570 -0.004502 -0.002286 -0.003692 0.002923 0.000505 -0.002695 -0.002846 -0.002313 -0.001861 -0.000836 -0.001455 0.001834 -0.004097 -0.001330 0.002474 0.004490 0.003719 -0.002417 -0.002804 -0.003465 0.004210 -0.002765 0.002831 -0.002261 -0.004939 0.002834 0.001910 -0.003895 -0.001416 0.004770 -0.003368
sent_28 -0.004133 0.000946 0.004310 -0.003662 0.000130 0.001840 -0.003282 -0.004887 0.003877 -0.004648 -0.002425 0.001517 -0.002142 -0.004903 0.000755 -0.001922 -0.003485 0.004713 -0.003350 0.002272 0.003907 0.003587 -0.003157 -0.002632 -0.004816 0.004314 0.003871 0.000955 -0.003906 -0.003265 0.000770 -0.002483 -0.001998 -0.003290 -0.003104 -0.000366 0.000099 0.000116 0.004971 -0.003704 0.002562 0.002938 0.000849 -0.000373 0.003934 0.003282 -0.004497 0.004630 -0.004927 0.000731 0.000724 0.003344 -0.001153 -0.004090 0.000817 -0.004752 -0.001382 0.004853 0.003688 -0.003475 0.002988 0.003110 0.004282 -0.002756 -0.000010 0.003274 0.001673 0.000939 0.001520 -0.002615 -0.004745 0.002363 -0.001732 -0.001232 0.001126 0.001572 -0.002971 0.003260 -0.001198 0.001317 0.004664 0.000648 -0.001411 0.001190 0.000018 -0.000476 0.002323 0.004245 -0.000207 -0.004118 0.000697 -0.002550 -0.004604 0.002881 -0.002272 0.002771 -0.000118 -0.001821 -0.001860 -0.004580
sent_29 0.000759 0.003633 -0.004028 -0.003541 0.000774 0.001544 0.002390 -0.002264 -0.004906 -0.000483 -0.002932 -0.004637 0.002368 0.004997 -0.001037 -0.002327 0.000404 0.002876 0.002846 0.001612 -0.000178 0.000738 -0.002799 -0.002052 0.002830 0.003613 -0.003633 -0.002588 -0.005337 -0.000333 -0.002713 0.001675 0.001883 -0.004201 -0.003784 0.004010 -0.001168 0.000726 0.004105 0.002937 -0.001651 -0.004602 -0.000509 -0.001981 -0.004645 0.002867 -0.000605 0.001121 0.003141 0.004078 0.000814 -0.001498 -0.004130 -0.004810 -0.001939 0.001426 0.002055 -0.003603 -0.004055 -0.001861 0.001451 0.003051 -0.000149 -0.001266 0.001696 -0.002670 0.001321 0.003738 0.001267 0.000173 -0.002636 0.004031 0.005162 0.002689 0.000949 -0.003506 -0.001797 -0.001072 -0.001669 0.000649 0.001102 -0.002118 -0.001837 -0.004016 -0.001637 0.001108 0.000210 0.004605 0.004320 0.000361 0.004804 -0.002615 0.001006 -0.000978 0.005632 0.002618 -0.002377 -0.000338 -0.002558 0.000168
sent_30 0.003006 -0.004268 -0.002860 0.005243 0.004527 0.000805 0.001595 -0.002339 0.004201 0.001723 0.001471 -0.004927 0.003928 0.002893 0.001558 0.002345 -0.003524 0.002181 -0.003995 0.001896 -0.004733 0.002079 0.000092 -0.002706 0.002203 -0.002191 0.003744 -0.003444 0.004391 0.004769 -0.002071 0.003927 0.003435 -0.000839 -0.001023 -0.002272 0.005080 -0.002482 0.003909 -0.000659 0.004326 0.003176 -0.003618 0.000845 0.002080 -0.000995 -0.004591 -0.001496 0.003623 -0.004310 -0.004201 0.002314 -0.000028 -0.000160 -0.001337 0.001226 0.003414 -0.002642 0.003238 -0.001111 0.000341 0.002697 -0.002697 0.004669 0.002153 0.001021 -0.002544 0.001830 -0.002751 0.003105 -0.005235 -0.003192 0.000641 0.001887 0.000319 0.003895 0.004741 -0.000413 0.002687 0.000334 0.001769 -0.002403 -0.003622 0.004625 0.003409 -0.001584 0.000951 -0.001261 -0.003432 -0.000261 -0.001734 -0.004675 -0.000857 0.004260 0.003781 0.000418 -0.001676 -0.002384 0.005044 0.000573
sent_31 -0.002824 -0.002505 0.004596 -0.002612 -0.003933 -0.003160 0.002662 0.002088 -0.000621 0.002938 0.000175 -0.000864 -0.003826 0.003839 -0.002244 0.001163 0.004846 -0.003106 0.004652 0.001527 -0.003713 0.002719 0.004518 0.000628 0.001886 -0.004737 0.004891 -0.001815 -0.004761 0.003086 0.004733 0.002376 -0.004973 -0.004366 0.000843 -0.001643 0.003818 0.003737 0.004875 0.002158 0.003769 -0.001803 -0.003888 0.003654 -0.001965 -0.000807 0.001460 0.001051 -0.000791 -0.001138 -0.003773 0.000339 -0.002671 0.002548 0.001749 -0.004281 0.004893 0.002805 -0.002722 -0.004693 -0.000216 -0.001473 0.000465 0.001597 0.002972 -0.004865 0.002143 -0.002047 0.004864 0.003462 0.000604 0.000978 -0.003079 -0.002737 -0.003460 -0.001222 -0.003880 0.000113 0.001385 -0.003778 -0.001558 -0.004297 0.000258 0.001503 0.001155 0.003139 -0.002644 0.001182 -0.001972 -0.004112 -0.001947 -0.004286 0.004586 0.002272 -0.003985 0.002863 -0.001478 0.004114 -0.000045 0.003727
sent_32 -0.001929 -0.000548 -0.000533 -0.003428 -0.001500 0.002388 -0.000314 0.003582 -0.003542 -0.001054 -0.002320 0.001313 -0.002085 -0.002992 0.003859 -0.002245 0.000650 -0.005560 -0.003371 -0.004526 0.004130 -0.005629 0.000646 -0.003318 -0.001870 0.002568 0.000061 0.003744 0.000083 -0.003659 -0.000424 -0.003978 -0.001713 -0.000756 0.002058 -0.003590 0.001501 -0.000947 -0.000748 -0.002641 -0.002952 0.001375 -0.003029 0.001836 0.000895 0.003863 0.004922 0.000165 -0.001856 0.000522 0.001030 0.002851 0.004004 0.002416 0.001806 0.001154 -0.002990 0.000505 0.003437 0.003611 0.004357 0.001294 -0.003070 -0.000350 0.005283 -0.000394 0.003172 0.001154 -0.000741 -0.002354 -0.000956 -0.004750 0.003878 0.000278 -0.004112 0.002892 -0.003635 -0.005181 0.000186 0.005913 -0.003680 -0.002850 0.004835 0.003113 0.003619 0.001786 -0.000381 -0.001176 -0.000028 0.003575 0.002638 0.002458 0.000807 -0.000941 -0.000388 -0.003116 -0.001416 0.003085 0.003685 0.000959
sent_33 -0.002741 -0.002966 0.002656 0.004888 -0.004804 -0.002520 0.003009 0.002127 -0.002559 0.000581 0.000832 0.002231 -0.000278 -0.000873 -0.001934 -0.002608 -0.004102 0.001442 0.001668 0.001838 -0.004938 -0.000805 -0.003811 0.000308 0.004768 -0.000075 -0.001280 0.003092 0.004681 -0.002149 0.002995 0.005006 -0.003926 0.000276 0.003170 -0.001191 -0.000614 0.002551 -0.004098 -0.001334 0.000596 -0.002632 0.003326 0.002579 0.004730 0.000268 -0.003875 0.004412 0.003392 0.000450 0.003277 0.003859 0.002684 0.000629 0.001098 0.003425 0.001256 -0.003057 0.001876 0.000326 -0.002149 -0.004885 -0.002706 0.001871 0.003874 0.003271 -0.003995 -0.004286 0.002606 -0.002190 -0.002365 -0.004931 -0.003983 -0.003659 -0.003346 -0.000489 0.003155 0.003199 0.004128 -0.000391 0.002068 -0.000052 -0.004402 -0.004258 -0.002502 0.004956 0.001950 -0.002378 0.002026 0.001779 -0.004498 -0.001367 0.002868 -0.004292 0.003980 0.004205 0.003606 -0.003817 0.000791 0.002039
sent_34 0.004372 -0.003823 0.003524 -0.001922 0.001015 0.002632 0.002745 -0.002081 0.000496 -0.002013 0.004782 0.003536 -0.000398 0.003857 0.002229 0.003766 -0.003394 -0.002602 -0.003923 -0.001982 -0.000752 0.000629 -0.000030 0.002156 -0.002181 -0.003791 -0.001854 -0.001004 -0.001267 0.004740 -0.002055 -0.001143 -0.002843 -0.001506 -0.000629 0.000403 -0.001929 -0.002384 0.001757 0.004276 -0.003682 -0.003714 -0.004292 0.002091 -0.002670 0.001062 -0.002527 0.003419 -0.001389 0.001282 -0.003545 -0.001578 -0.002095 0.001170 0.002145 0.003542 -0.003137 0.002165 0.002265 0.000230 0.001568 -0.003823 -0.003813 -0.000275 0.002263 -0.003571 -0.001084 0.000116 0.003926 -0.004752 0.002669 0.004923 -0.002297 0.003735 -0.001835 0.002770 -0.000451 0.000711 -0.002357 0.002448 -0.003385 0.001145 0.000364 0.003335 0.000050 0.003741 -0.000889 -0.002085 0.002585 -0.000336 -0.000158 0.001221 0.003140 0.000772 -0.000334 -0.003815 0.002408 0.004410 -0.003427 -0.000384
sent_35 0.004326 0.000234 0.000177 -0.004889 0.000391 0.001386 -0.003707 0.004667 -0.002679 0.001637 -0.001966 -0.003867 -0.002827 -0.001868 -0.000036 -0.002598 0.002345 0.003147 0.002902 0.002386 -0.002749 -0.002137 -0.004210 -0.001339 -0.004120 0.002056 0.004578 0.003033 -0.003784 -0.004925 -0.001592 0.004595 -0.001964 0.002613 0.001720 0.000845 -0.001584 -0.002999 0.005173 -0.004401 -0.002849 -0.001613 0.004413 0.002059 -0.002605 -0.003219 0.003304 0.002560 -0.004939 0.003714 0.001257 -0.000793 0.001936 -0.004416 -0.001527 -0.004284 0.002070 -0.000449 -0.000025 -0.001901 0.002471 -0.005065 -0.001791 0.000295 0.002788 0.001256 0.002617 -0.004719 -0.002141 -0.004538 0.000368 0.004761 -0.005005 -0.000303 -0.005333 0.000989 -0.003174 0.002247 -0.003518 0.002758 -0.003149 -0.001993 -0.003066 0.003182 -0.000399 0.002956 -0.003871 -0.000005 0.003047 0.004062 0.001445 -0.003342 0.002213 -0.004333 0.002017 0.003723 0.000463 -0.000429 0.003869 -0.005017
sent_36 -0.004890 -0.002391 0.000071 0.000445 -0.001244 -0.002078 -0.002943 0.002961 -0.001956 -0.000021 0.003076 0.001134 -0.000840 -0.003159 -0.001083 -0.000208 0.004871 -0.002212 -0.003342 -0.002852 -0.002807 -0.004351 -0.001286 -0.002078 0.003904 0.002676 -0.003944 0.003435 -0.003964 0.002279 0.000741 -0.004112 0.004076 0.003719 0.003535 -0.001407 -0.002652 0.004949 0.003093 -0.004532 -0.001244 0.003023 0.000170 -0.002524 0.002942 -0.002400 -0.004908 -0.002610 0.005000 0.001536 -0.002867 0.001960 0.001882 0.001370 -0.004281 -0.002591 0.003647 0.002273 -0.003305 -0.002078 0.000650 0.003335 -0.003082 -0.003885 -0.001233 0.004050 -0.002414 -0.003932 -0.004448 -0.001564 -0.004669 0.000889 0.001739 -0.000393 0.002468 0.000028 0.002012 -0.002701 0.002467 0.000150 0.002113 -0.000387 0.000098 -0.004556 -0.000063 -0.003407 -0.003546 -0.000658 0.000692 -0.001444 -0.003357 0.002478 0.004675 0.002332 -0.004148 0.003324 -0.004310 -0.000545 0.004351 -0.002348
sent_37 -0.003467 0.002955 0.004404 -0.001690 -0.002364 -0.003189 0.004822 0.000498 0.003285 -0.001625 -0.004543 -0.000167 -0.002652 0.000473 0.000261 -0.002377 -0.001975 -0.005256 -0.000848 -0.001955 0.001549 0.002945 0.000003 -0.004114 0.004483 0.002574 -0.001760 -0.002009 0.004048 -0.000859 0.001533 0.005012 -0.004647 -0.002076 -0.002246 0.003845 0.000850 -0.004272 0.002347 0.002036 0.001875 0.004142 0.003186 0.002411 -0.002880 -0.003615 -0.002397 -0.002578 0.001141 0.001314 0.000112 -0.004144 -0.001337 0.004432 0.001994 -0.001460 0.001658 -0.002673 -0.004003 0.000276 -0.001834 0.000019 0.003762 0.001971 0.002368 -0.004229 -0.000180 -0.000815 0.001403 -0.002631 -0.001611 0.004953 -0.003723 -0.002982 -0.002505 0.001962 0.002212 0.002944 -0.000931 0.004167 0.002060 0.002809 0.003612 0.001325 -0.000667 -0.003940 0.001185 0.000544 0.000546 -0.001235 0.000510 -0.003065 0.001770 -0.004541 0.004296 -0.003239 -0.001895 0.004166 0.004167 0.003376
sent_38 -0.001731 0.004023 0.002718 0.001581 0.003998 0.002831 -0.000753 -0.001757 -0.001061 -0.004386 -0.001366 -0.001470 0.003656 0.003887 0.004631 -0.001718 0.001933 0.001331 -0.002576 0.003700 -0.002859 0.002477 -0.003553 -0.003932 0.002203 0.000263 -0.000571 0.002782 -0.001413 0.003533 0.004622 0.004791 -0.002224 -0.000850 0.002250 0.003949 0.002113 0.002581 0.003834 -0.001331 0.000425 0.000348 0.001476 0.003952 0.001008 0.004699 0.002321 -0.000847 0.000811 0.004223 0.001185 0.002099 0.001613 -0.001639 -0.002967 -0.000922 -0.003492 0.003263 0.002105 -0.000989 -0.003286 0.003758 0.001391 0.004966 -0.003989 -0.002552 -0.004163 0.002447 -0.003404 0.003817 -0.000085 0.000262 -0.004575 0.001141 -0.002724 -0.002865 0.003953 0.003880 -0.004947 0.003323 0.004023 0.000119 0.001562 0.002678 0.001854 -0.000409 0.000735 0.000741 0.003421 -0.002596 0.002572 0.003123 0.002970 0.003077 0.003293 -0.000825 0.001179 0.002552 0.002698 0.004586
sent_39 0.005007 0.000911 -0.000363 0.003552 -0.002392 0.002514 -0.002722 0.000582 0.000999 -0.000300 0.003549 0.000662 0.000225 -0.000427 -0.004269 -0.001535 -0.004150 0.000248 0.001287 0.002541 0.001581 -0.003914 0.002405 0.000522 -0.003957 -0.005164 -0.002334 0.001597 0.004095 0.004810 0.002752 -0.001960 0.001014 -0.002948 0.002690 -0.003289 0.002411 0.004007 -0.000097 -0.004078 -0.000484 0.003126 -0.003770 -0.005025 0.002389 0.000793 -0.004286 0.005124 0.001049 0.000639 0.002665 0.004207 -0.004557 -0.001907 -0.003179 -0.000558 -0.003959 -0.004754 -0.001898 0.004220 0.005565 0.002963 -0.005262 0.002919 -0.004412 -0.003498 -0.005033 -0.003271 0.001899 0.001668 -0.001719 0.002501 0.003676 -0.003686 -0.004043 -0.001175 -0.000887 -0.001909 0.002814 -0.000935 0.002927 0.004570 0.000587 -0.000815 -0.003941 -0.001572 0.004084 -0.002822 0.000905 0.000603 -0.003972 0.004086 -0.003824 0.001345 0.005349 0.001614 -0.001416 -0.004209 0.001291 0.002238
sent_40 -0.001192 0.001819 0.000704 -0.004503 0.004355 -0.001131 -0.001065 0.003279 -0.000424 -0.000346 0.001328 -0.002664 0.000557 0.001914 0.000324 0.001898 0.000891 0.003161 0.003763 -0.004160 -0.002249 -0.004940 -0.002777 0.002267 -0.004167 -0.003748 0.002410 -0.000699 -0.002324 0.001665 0.003893 -0.004492 0.001868 0.001577 0.003930 -0.003178 0.002171 -0.003904 -0.004693 0.002033 -0.004792 -0.004792 -0.005019 -0.000479 0.002679 0.005022 -0.002512 0.003095 0.003177 0.003520 -0.002056 -0.003476 0.002868 0.000471 -0.000771 -0.004545 -0.004847 -0.002177 -0.002219 -0.000330 0.004593 -0.000597 -0.002303 0.003848 -0.001779 0.003975 0.003595 0.001420 0.002439 -0.003728 0.000736 -0.001603 -0.000084 -0.002711 0.004159 -0.000850 -0.000200 0.002330 -0.003621 0.000566 0.003137 0.002125 -0.001476 0.002044 0.004411 0.004512 0.002512 -0.002475 -0.001451 0.001004 -0.001167 -0.000217 0.003140 -0.004165 0.005107 0.001749 0.003914 0.003047 -0.000339 0.004382
