54 100
sent_0 -0.000830 0.002203 -0.004999 -0.001977 -0.003532 -0.004077 -0.003137 -0.001544 -0.001032 0.000388 -0.000808 0.001852 -0.002955 0.003781 -0.004726 0.001705 -0.000827 0.000587 -0.003596 -0.003019 0.003007 0.004683 -0.001866 0.001923 0.003764 0.003946 -0.004150 -0.004609 -0.003302 0.003781 -0.004017 -0.000789 0.004579 0.000332 0.001919 -0.001845 0.001865 0.003346 -0.004817 0.002501 0.004889 0.002482 -0.002196 0.002893 -0.003968 -0.000521 0.004086 -0.002064 -0.002122 -0.003700 -0.004806 0.001788 -0.002884 -0.002345 -0.000084 -0.004466 0.000741 -0.003533 0.000893 0.001998 -0.003977 -0.000859 0.001944 -0.000858 -0.004500 0.000359 0.001638 0.000149 0.004446 0.000866 0.004034 -0.003625 -0.003607 0.003074 -0.001023 -0.003346 0.004275 -0.001522 0.002508 0.002260 0.003833 0.001237 0.002509 -0.001511 -0.002301 0.003959 -0.000719 0.004648 0.001634 0.001217 -0.003853 0.004495 -0.000501 0.000784 -0.000919 -0.002630 0.004034 0.000737 -0.004971 0.001171
sent_1 -0.001351 0.000909 0.004231 -0.001137 0.004255 0.001433 -0.004782 0.004031 0.001146 0.005301 -0.003480 -0.003262 0.004833 0.002323 -0.004835 0.002045 0.002335 0.003873 0.002107 -0.004145 -0.004319 -0.005641 -0.004547 -0.002234 0.003792 -0.000374 0.000052 0.003109 -0.004167 -0.001539 0.000944 0.005015 0.000753 -0.005010 0.003722 -0.003398 0.003734 -0.001204 0.003225 0.002796 0.000763 -0.004297 -0.005085 -0.003731 -0.004400 -0.004023 -0.002202 0.002668 0.001206 -0.005097 -0.004680 0.005304 0.000650 -0.003121 -0.002220 0.002433 -0.003267 0.000287 0.004829 0.003030 -0.002374 0.000392 0.000822 0.004054 -0.003437 -0.005276 -0.004381 -0.000297 0.000747 0.000112 -0.002449 0.005177 0.000872 -0.001159 0.000919 0.002500 0.001742 -0.002459 -0.004127 -0.000479 0.001583 -0.001885 0.003023 -0.004351 -0.002239 0.004273 -0.002924 0.001367 -0.000277 0.004994 -0.002214 -0.003810 0.002572 0.002698 0.004803 0.003712 -0.004672 -0.001950 0.001738 0.004486
sent_2 0.004509 0.000907 0.003935 0.001529 -0.000872 -0.000361 0.001381 0.000212 0.004159 0.004404 -0.001075 0.004647 -0.003080 -0.003367 -0.003692 0.000075 -0.004927 0.004405 0.003170 -0.005022 -0.003218 -0.002094 -0.003846 0.003329 -0.001601 0.004178 0.000805 0.003746 0.003402 0.004025 -0.000538 0.000423 0.002859 -0.002151 -0.000007 0.000986 -0.004903 0.000980 -0.000892 0.003311 -0.002035 0.003836 0.000474 -0.003511 0.003002 0.001294 -0.004329 -0.000665 0.001860 0.004163 -0.005333 0.004903 -0.001306 0.004471 0.000910 0.003045 0.000822 0.001016 -0.002183 0.000887 0.003067 0.003840 0.002322 0.002258 0.003712 -0.001924 0.001581 -0.000524 -0.000952 -0.001184 -0.001045 -0.001591 0.001271 -0.000577 0.004879 0.001995 -0.003015 -0.000361 -0.001530 0.003584 0.003766 0.004332 0.001794 -0.002346 -0.002416 0.003928 0.000370 0.002882 0.000584 0.002808 0.000405 0.002782 0.001108 -0.000649 -0.001330 -0.004585 -0.001034 -0.004207 0.005137 -0.003254
sent_3 0.003157 0.003702 0.001862 0.000605 -0.003338 -0.000378 -0.001544 -0.002781 0.000991 -0.001846 0.004199 0.004169 -0.002450 -0.003913 -0.002983 -0.000029 0.002266 -0.003056 -0.002541 0.003567 -0.000807 0.001190 -0.002681 -0.004042 0.000176 -0.000218 -0.003581 0.001191 0.000384 0.001559 -0.003500 0.002496 -0.002816 0.000205 0.002811 -0.004761 -0.001839 0.003795 0.003431 0.000397 0.003675 0.004557 0.003199 0.003473 -0.004072 0.001539 0.002056 0.001070 0.003038 -0.004755 0.002777 0.002268 -0.002390 -0.002494 0.001353 -0.001614 0.003043 -0.000528 0.002898 0.005009 -0.001971 -0.003652 0.004041 0.000392 0.004841 0.001402 0.005001 0.000570 0.000290 -0.003712 -0.001471 -0.004780 -0.003390 0.002481 -0.004775 -0.001342 0.003656 0.001996 0.001988 -0.003072 -0.000596 0.000798 0.004926 -0.002975 -0.002527 -0.002393 0.002544 -0.000456 -0.004453 0.000073 -0.002993 0.003005 -0.002013 -0.004833 0.000953 0.003402 -0.001122 0.002443 0.000111 0.000380
sent_4 0.004518 0.002931 -0.004798 0.001852 -0.000320 0.004316 -0.002821 -0.002345 -0.003994 -0.000693 -0.003808 0.001329 0.002848 0.001921 0.002756 -0.001500 0.003466 -0.000704 0.003196 0.001346 -0.003669 -0.003945 -0.004913 -0.004401 -0.000403 -0.003710 -0.004676 0.002679 -0.001000 0.002387 -0.000471 -0.000638 -0.000230 -0.000158 0.002873 -0.000951 0.003979 -0.004608 0.002890 -0.003794 0.001185 -0.004732 0.000494 -0.005088 0.004370 0.004071 0.002834 0.004068 -0.003624 -0.003432 -0.003018 0.001083 0.004152 0.004942 0.002106 0.002225 0.004146 -0.000802 -0.002433 -0.003100 -0.003907 0.002926 -0.003404 -0.002586 0.003194 -0.001793 0.004940 -0.002291 0.000478 -0.001877 0.004266 -0.001401 -0.000686 0.000235 0.004228 -0.004670 0.002215 0.004033 -0.004740 0.000062 -0.001777 0.003467 0.000467 0.001937 -0.000572 0.001005 -0.002103 -0.004869 0.000808 -0.002104 0.000073 0.004090 -0.000766 -0.002599 -0.001480 0.004432 0.004301 0.003259 0.004023 -0.002732
sent_5 -0.003918 -0.002461 -0.001659 -0.003081 0.001163 -0.000729 0.003261 -0.003278 0.001716 -0.002458 0.000631 -0.001297 -0.004158 -0.002583 0.001483 -0.000260 0.000145 -0.003566 0.000704 0.004819 0.003463 0.000416 0.004865 0.004087 0.001027 -0.005043 -0.004381 -0.004612 -0.000698 -0.000954 0.004834 -0.003101 0.004746 0.002516 0.003610 0.001074 0.001907 -0.000135 -0.005092 -0.001351 0.000080 0.002012 -0.000678 -0.000374 -0.003590 -0.004913 0.002920 -0.001561 0.005184 -0.002990 -0.001735 0.000473 0.002496 -0.000533 -0.003675 -0.001880 0.000012 0.001425 0.002777 -0.003805 -0.004593 0.000401 0.002902 -0.004492 0.001858 0.001678 -0.000550 0.004203 0.001266 -0.005232 -0.000541 0.003674 0.003374 0.001412 0.001902 0.000769 -0.002224 0.000563 0.001897 -0.001049 0.003643 -0.002589 0.002795 -0.002144 0.002865 -0.000124 0.003221 -0.001525 -0.003170 0.003110 -0.001925 0.002541 0.002599 -0.002875 -0.002415 -0.003327 -0.003408 -0.000915 -0.004413 -0.003905
sent_6 0.002141 0.003768 -0.003861 -0.002067 -0.002645 0.004478 0.002380 0.000139 -0.002866 0.003652 -0.001028 0.004547 0.002898 0.000399 -0.004044 0.004286 -0.003525 -0.003523 -0.000711 -0.001361 -0.002783 0.000900 -0.002854 0.001720 0.002737 -0.003939 0.000360 0.001817 0.000810 0.001643 -0.001916 0.002798 0.004529 -0.001127 0.003698 -0.004960 0.003931 -0.002980 -0.001741 -0.001653 -0.003823 0.003218 -0.002267 0.000182 0.000195 -0.003692 -0.002105 -0.003484 0.000740 -0.002769 -0.002026 -0.003271 0.002637 -0.004293 0.004948 -0.003335 0.000523 -0.005603 0.002955 -0.003516 0.000960 0.003240 -0.004156 0.001677 -0.002633 0.002004 0.002006 -0.003241 0.003232 -0.005413 0.002850 0.000907 -0.000777 0.002433 0.002652 0.004948 -0.002110 -0.004947 0.004726 0.004846 0.002562 0.001289 0.002878 0.002810 -0.000854 0.004378 0.002830 0.000959 -0.001535 0.003181 -0.004731 0.003345 0.004491 -0.002823 -0.002662 -0.003606 -0.001463 0.004694 0.001282 -0.002063
sent_7 -0.003591 -0.002042 0.001077 -0.001652 -0.000271 -0.000690 0.003486 -0.000861 -0.001497 0.001823 -0.002782 -0.000352 -0.001776 0.001419 0.003874 -0.000494 0.002813 -0.000490 0.001495 -0.003712 -0.000629 0.003834 0.001031 0.002747 -0.000025 -0.000120 0.003435 -0.004404 0.000731 0.004359 0.000162 -0.003063 0.003363 -0.002516 0.001955 0.000545 0.004316 0.001339 0.003251 -0.004861 0.004794 -0.004230 -0.001914 0.004298 -0.004831 0.003319 0.003680 -0.000559 -0.002390 0.003046 -0.000292 -0.003653 0.004186 0.003790 -0.000229 0.003511 -0.000765 0.001711 -0.001066 0.000122 -0.002729 0.004775 -0.002161 -0.003824 -0.003443 -0.004906 0.002031 0.000710 0.002993 0.000014 0.002836 0.002080 0.002884 -0.000945 0.001514 -0.003113 -0.001790 -0.003092 -0.000871 -0.002297 -0.000981 0.004827 -0.001709 0.004780 0.001469 -0.001116 0.003647 0.001070 -0.002547 0.003159 -0.000550 -0.001468 -0.001484 0.001788 -0.002133 0.002918 -0.001941 0.000368 0.000067 0.003480
sent_8 0.003973 -0.002944 0.000773 0.004191 -0.000279 0.004005 -0.001829 0.000818 0.001890 -0.002516 -0.004900 -0.000766 0.004602 -0.001297 0.002890 -0.003229 -0.001707 -0.003791 0.002039 0.001912 0.002051 -0.003059 0.001854 -0.002579 -0.000854 -0.001525 -0.001574 -0.004660 0.001274 0.001990 0.001094 0.001545 -0.003511 -0.003612 0.000160 0.003956 -0.003482 -0.000124 -0.001020 0.000161 -0.003527 -0.001571 -0.002741 0.003090 0.003155 -0.000575 0.001309 -0.003436 0.000306 -0.002080 0.003398 0.001793 0.001141 -0.004159 -0.000532 0.004716 0.004635 0.001108 -0.003541 0.001577 0.001444 -0.000059 -0.000944 0.001373 0.003845 0.002428 0.000582 0.004429 -0.004285 0.004716 -0.004733 -0.002837 -0.000608 -0.003957 0.001338 -0.004314 -0.002122 -0.004026 0.002206 0.002359 -0.001281 -0.002881 0.002767 -0.001772 0.003128 0.000294 0.000439 -0.004943 0.001245 -0.000909 -0.002565 -0.000649 -0.000673 -0.000707 0.005254 -0.001774 0.003027 0.000423 0.004344 -0.001611
sent_9 -0.002394 0.004265 -0.004505 0.004722 0.000805 -0.001338 0.005231 -0.004576 0.000012 -0.004503 0.000649 -0.003116 0.001537 0.005005 0.003765 -0.000643 0.001959 0.002487 -0.000092 0.000156 -0.003242 -0.001831 -0.003415 0.002470 -0.000267 -0.000862 0.003713 -0.000021 -0.001062 -0.002180 -0.004212 -0.000737 -0.004854 -0.002218 0.000159 0.004641 -0.003942 0.001846 -0.000354 0.002928 -0.003659 -0.004362 -0.001433 0.002926 -0.002959 0.002741 -0.001816 -0.002715 -0.004571 -0.001089 -0.001303 0.001790 -0.004382 -0.003797 -0.004912 -0.003896 0.001507 -0.001223 -0.001791 0.000539 0.005365 0.003564 0.001729 0.004533 -0.004516 -0.004465 -0.000433 -0.001369 0.004334 -0.000294 0.000097 0.004171 -0.000381 0.003701 -0.002313 -0.002198 -0.001794 0.000560 -0.002656 0.002292 -0.003521 -0.003701 0.003893 -0.002674 -0.000909 0.001208 0.000397 -0.004394 0.003493 0.005022 0.003232 -0.002075 0.000528 -0.001807 0.000948 0.004342 -0.001698 0.001787 -0.001362 0.002651
sent_10 -0.001113 0.004498 0.003087 0.003347 -0.000142 -0.002288 -0.004482 -0.002031 -0.005687 0.002036 0.001416 -0.000248 0.003577 0.000752 -0.004809 -0.004307 -0.003175 -0.002248 -0.004439 0.000757 0.000864 -0.000189 -0.000333 0.003637 -0.000310 -0.005840 0.002891 0.000935 0.002535 0.005327 -0.004270 -0.002045 -0.004314 -0.001092 0.004448 -0.004682 0.000142 -0.003791 0.001907 0.003750 -0.004359 -0.000960 -0.003530 0.004728 0.004828 0.001146 0.005531 -0.000970 0.004658 -0.001136 -0.002962 0.005016 0.001486 -0.004672 0.004087 0.002077 0.000954 0.001307 -0.002373 0.000341 0.003639 -0.003704 -0.004233 0.004577 0.001416 -0.000283 -0.002748 -0.002071 0.003065 -0.001308 -0.005277 0.004283 -0.002811 0.003043 0.004315 -0.000232 0.001041 0.000059 0.001653 0.004649 -0.001926 0.004773 0.001471 -0.003899 -0.002256 0.002602 -0.002373 -0.003925 -0.003820 0.004467 0.001139 0.005356 -0.001377 0.000836 0.002124 0.000356 -0.003763 0.003532 0.005385 0.000340
sent_11 -0.003122 0.002714 -0.004965 -0.001653 0.004202 0.000861 0.003606 0.000957 0.003118 0.003862 -0.001862 -0.003799 0.002311 -0.000447 -0.003845 0.000914 -0.004662 -0.002973 0.002863 -0.004965 -0.001908 -0.004943 0.004963 0.000911 -0.002033 0.004157 0.000081 -0.000501 0.000866 -0.002337 -0.002001 -0.001258 -0.002516 0.000811 0.002098 -0.004377 0.004858 0.002522 0.003021 0.002573 -0.004127 -0.000277 -0.000625 0.001615 -0.000491 0.002027 0.001908 0.002122 0.001225 -0.003479 0.002416 0.002919 0.004036 -0.002677 -0.003290 -0.001150 -0.001869 0.003006 0.001119 0.002567 -0.000610 -0.003858 -0.003957 -0.001119 -0.003084 0.003127 0.000960 0.001819 -0.000058 -0.004211 -0.002653 -0.000334 -0.003009 -0.004727 0.002375 0.002333 -0.001658 0.003504 -0.000713 0.003817 0.001623 0.000981 -0.002906 0.000310 0.003955 -0.001745 0.003749 0.004111 -0.001764 0.002014 0.004099 -0.004187 0.003944 -0.003111 0.003603 0.001600 -0.001548 -0.003400 0.001429 0.003524
sent_12 0.003326 0.001740 0.004904 0.001190 -0.003008 -0.000490 -0.001481 0.004783 -0.001748 0.005091 -0.000002 -0.003209 -0.003816 -0.001195 -0.004128 0.001066 -0.000960 0.004513 0.004336 -0.003736 -0.000506 -0.001149 0.001071 0.003139 -0.000102 -0.001424 -0.002724 0.003639 -0.004988 0.003580 -0.003073 0.002208 -0.001315 0.004688 -0.003174 -0.003638 0.004482 0.000812 -0.002285 -0.005017 -0.002476 -0.003938 -0.003387 0.004243 0.003848 0.001844 0.000373 0.003679 0.000452 -0.001549 -0.002375 0.004626 -0.001100 -0.000291 -0.002367 0.003993 -0.001419 -0.002437 0.002164 -0.003426 -0.003824 0.003661 0.002044 0.001318 -0.002540 0.000946 0.001260 -0.001753 -0.004715 0.003407 -0.000877 0.002798 -0.002347 0.000655 -0.000338 -0.001134 -0.003731 -0.002674 -0.004056 -0.001488 0.002723 0.001898 0.002040 -0.004903 0.002179 0.000831 -0.002408 -0.003210 -0.003695 0.004111 0.004944 0.004449 -0.001308 0.002820 0.001091 0.002697 -0.000030 0.001440 0.003344 -0.004023
sent_13 0.000306 -0.001455 0.000991 0.004563 -0.001096 -0.001117 0.002892 0.001524 -0.000825 0.001866 -0.000964 -0.003734 -0.000571 -0.001766 -0.002766 0.004364 0.001874 0.001059 0.002496 0.000498 0.001905 0.004384 0.003609 -0.003372 -0.002444 -0.004133 0.004884 -0.002577 0.001751 -0.004293 -0.002912 -0.000020 -0.004023 -0.001086 0.000219 -0.001436 0.000392 0.000406 -0.000994 0.001901 0.001672 0.002026 0.000750 -0.001480 0.001185 0.004354 0.000873 0.004704 -0.000657 0.002483 -0.004543 0.002582 0.000210 -0.004937 -0.002351 0.000420 0.002733 -0.004328 0.000419 0.003142 0.001531 0.004214 -0.004193 -0.002348 0.004276 0.002801 0.000979 0.003391 0.003957 0.004879 0.005033 -0.003669 -0.004300 -0.004319 -0.004875 0.004747 -0.004074 0.003460 0.001786 -0.000255 -0.001586 -0.001656 -0.002547 0.004021 0.002246 -0.004991 -0.000414 -0.002212 -0.004628 0.003732 0.002731 -0.001839 0.002999 -0.001763 -0.001989 0.004356 0.004702 0.000018 0.004492 0.003814
sent_14 0.000156 -0.001195 0.002051 -0.000359 0.001109 0.004821 0.002867 -0.001733 -0.004075 -0.003104 0.000256 -0.000868 0.003056 0.004427 -0.003219 0.003659 0.004541 0.004614 -0.004663 -0.004460 -0.004937 -0.002027 -0.004478 -0.001981 -0.001493 0.004491 -0.000182 -0.002253 0.000075 0.001351 -0.003947 0.002581 0.003462 0.003428 0.003890 -0.001095 -0.000658 -0.003937 -0.002810 0.004759 -0.002224 0.004094 0.003858 0.004113 -0.003369 0.003843 0.001358 -0.002865 -0.001534 -0.003347 -0.000653 -0.004142 -0.003409 -0.003125 0.001797 0.000707 0.003755 -0.002640 0.001234 -0.004616 0.000409 0.003730 0.004773 -0.004810 -0.002407 -0.002783 -0.004621 -0.004895 -0.000053 -0.004564 -0.002242 0.001468 -0.002008 -0.002311 0.000957 -0.001104 0.002024 0.000080 0.001333 -0.001298 -0.002154 -0.003626 0.004423 0.002996 0.004426 -0.003071 0.004366 0.004303 -0.002196 -0.002089 0.000621 -0.003179 -0.000411 -0.003237 0.004571 -0.000154 0.004683 0.001393 -0.000038 0.004635
sent_15 -0.003592 0.001401 0.001567 -0.000577 -0.004350 -0.000156 -0.000221 0.002992 -0.002398 -0.001039 -0.002611 0.001825 0.004948 -0.003131 0.003217 -0.002632 -0.004453 -0.003593 0.004310 0.003850 -0.002102 0.004323 0.003464 -0.000573 -0.000373 0.001253 -0.003372 -0.004887 -0.002300 -0.004928 0.001685 0.000515 -0.001841 0.002787 -0.003557 -0.002465 -0.002173 -0.002994 -0.004189 0.003745 -0.004189 0.001857 -0.003844 -0.005006 0.000642 0.004117 0.003643 -0.001586 -0.004714 0.003062 0.002964 0.003705 0.001634 0.002981 0.003861 -0.000493 0.000600 -0.000025 0.001857 0.001869 0.000450 0.003382 -0.000011 0.003339 -0.002117 -0.003236 0.004603 0.002422 -0.002357 0.000794 0.004527 -0.004124 -0.004120 0.001184 -0.002704 0.002742 0.000680 0.001781 -0.003921 -0.003989 0.001227 -0.000860 -0.004075 -0.001341 0.001767 -0.003029 0.003991 0.004444 0.004585 0.002465 -0.000831 0.002405 -0.001952 -0.001946 0.001156 0.000857 0.003830 -0.002510 0.002781 0.004368
sent_16 -0.004705 -0.000309 0.001648 0.003385 -0.002981 0.003622 -0.001362 0.003854 -0.004706 -0.004093 0.004840 0.001378 -0.000765 -0.003284 0.001681 -0.004826 -0.001856 -0.002080 0.001054 0.001558 0.003531 0.004073 0.001496 0.000544 -0.000941 0.004592 -0.003798 0.003890 -0.002111 0.000671 0.002017 -0.002575 -0.003437 -0.000047 0.002942 0.001941 -0.003963 0.004183 -0.000234 0.004572 0.000588 -0.004258 -0.003207 0.003435 0.001985 0.004038 -0.001681 0.000309 0.001687 0.000683 -0.002559 -0.000745 -0.002571 0.003355 0.004963 -0.004418 0.002315 -0.001771 0.001440 -0.002298 0.001679 -0.001325 -0.002005 0.004283 0.004674 0.001119 -0.002766 0.004602 0.002435 0.002353 -0.003155 0.003270 -0.002544 0.001357 0.002000 0.002302 -0.001030 0.002645 0.004223 0.001076 -0.004202 -0.003640 -0.003732 -0.003321 -0.003764 0.002976 -0.004553 -0.002745 0.003712 0.004764 0.000858 0.004833 -0.004581 0.004269 -0.001667 0.002875 0.003290 0.003636 -0.000304 0.004257
sent_17 -0.002049 0.004868 0.001515 0.005286 -0.004507 0.002582 0.000760 -0.000322 -0.003120 -0.001544 -0.002782 -0.002489 0.003618 0.000405 -0.004392 0.002345 0.000263 0.001930 0.000167 -0.001271 0.005431 -0.005710 0.004522 0.004428 -0.000911 -0.003611 0.000610 -0.003710 0.002548 -0.001878 -0.001940 0.004558 0.004104 0.000054 0.004308 -0.001908 0.005424 -0.000598 -0.002547 -0.004331 0.005214 -0.000989 0.001627 0.001399 0.002395 -0.004516 0.004807 0.004804 0.001040 0.004282 -0.002555 0.001499 -0.001207 0.001055 -0.001822 0.003145 -0.004421 -0.005341 -0.004393 -0.003829 -0.000660 0.005123 -0.004325 0.002334 0.000448 -0.001892 -0.003123 -0.002778 -0.004923 0.001679 0.000922 -0.000383 0.002301 -0.004022 0.004720 0.003453 0.001682 -0.001292 -0.000514 0.000686 0.004553 0.004445 0.000402 0.000543 0.004018 0.005740 0.001610 0.002363 -0.001881 0.004994 0.003444 0.001012 0.003951 0.003377 0.003918 -0.004265 0.000762 0.004710 0.003312 -0.000734
sent_18 0.005593 -0.002092 -0.001065 0.004924 0.003480 0.004475 -0.004747 -0.001477 -0.003437 -0.001813 0.002236 0.002936 0.000311 -0.001120 0.000782 -0.000483 0.000443 0.000174 -0.001033 0.002510 -0.001788 0.000225 0.004888 -0.005033 0.002412 -0.004823 -0.000618 0.000677 -0.003338 0.005031 0.001668 -0.002144 0.002619 -0.004302 0.001296 -0.004623 0.001153 -0.002281 0.000889 0.002474 0.000491 0.000779 0.002142 0.003282 0.001296 -0.000451 -0.000181 0.004244 0.002927 -0.003848 0.000701 0.004589 -0.003668 0.003039 0.003613 0.000012 -0.004575 -0.004196 0.004573 -0.004929 -0.000905 0.001566 -0.003400 0.005749 -0.003042 -0.000083 0.001140 -0.002435 -0.000951 -0.000833 0.001539 0.001592 -0.000102 0.001516 -0.000184 0.000014 0.001658 -0.003337 0.003397 0.002052 0.004925 -0.001786 0.000454 0.003892 0.001400 0.003697 -0.000546 0.001524 0.003780 -0.002172 0.002902 0.005272 -0.004775 -0.003186 -0.002677 0.001893 -0.003633 0.005825 -0.000298 0.003947
sent_19 -0.003027 -0.000621 0.003477 0.000931 -0.000336 0.000157 0.000714 -0.000600 -0.003087 -0.003860 -0.003463 -0.004393 0.000598 0.003464 -0.001368 -0.004324 -0.000746 0.000942 -0.000744 0.003128 0.004422 0.003677 0.002025 -0.000357 0.001848 -0.004881 0.004732 -0.003273 0.003991 0.003136 0.003060 -0.002302 -0.002833 -0.000727 0.003493 -0.000521 0.004325 -0.001468 0.001176 0.004848 0.001415 -0.004576 -0.000419 -0.001646 0.000308 -0.002134 -0.003786 0.001669 0.001857 0.003597 -0.003621 0.002995 0.003261 0.001451 -0.002884 -0.002402 -0.000774 0.000428 -0.000166 -0.000334 0.003393 0.003667 0.003193 0.003805 0.000738 0.004630 0.001097 0.001076 -0.001831 0.001766 -0.004547 -0.003651 -0.003698 0.001579 -0.003274 -0.001632 -0.004552 -0.002674 0.004680 0.000119 -0.003507 0.000234 0.004464 0.003651 -0.001090 -0.002125 0.002611 -0.002628 -0.002462 -0.004187 0.003583 -0.000485 0.000563 0.002328 0.002993 -0.000545 -0.003120 0.003315 -0.004678 0.004455
sent_20 0.001217 0.004075 0.001438 -0.001971 -0.001898 0.000671 0.004783 -0.003335 -0.000410 -0.001505 0.002544 0.003338 -0.000192 -0.002725 -0.004348 -0.003370 -0.002342 0.000578 0.003719 -0.003866 0.005019 0.000868 0.002549 0.004884 -0.000826 -0.000245 0.001251 -0.000280 -0.002395 -0.003543 -0.002027 0.003088 0.001326 0.002791 0.000569 -0.002776 0.001257 -0.001866 -0.005250 0.004253 -0.000761 -0.001156 0.001833 0.004532 -0.003971 -0.003189 -0.001297 -0.002221 0.000394 0.002961 0.003381 0.001254 -0.002923 -0.003445 0.002580 -0.002577 0.000473 0.001824 -0.002710 -0.003549 -0.004034 -0.003036 0.003201 -0.003196 -0.002422 -0.004991 0.001547 -0.002602 -0.001283 -0.003884 -0.001890 -0.000561 -0.000119 -0.000949 -0.003678 0.002687 -0.003590 -0.000797 -0.001987 -0.001221 0.001775 0.000673 -0.002533 -0.000450 -0.001283 0.003033 -0.002572 0.003187 -0.000004 0.000709 -0.002387 -0.002765 -0.000079 0.004621 -0.002870 -0.002727 0.003502 0.002158 -0.001534 -0.001954
sent_21 -0.000752 0.000981 0.002186 0.003525 0.001853 -0.002636 0.004243 0.002804 -0.001882 -0.001948 0.003836 -0.003686 0.001310 -0.002231 0.003335 -0.001380 0.002351 -0.003126 -0.000194 0.003067 -0.001051 -0.003369 0.001442 0.002457 -0.002183 -0.000460 0.003951 0.003742 0.002039 0.000925 0.003218 0.004062 -0.005005 -0.001042 0.000581 0.002362 -0.004180 -0.000965 -0.002171 -0.000753 -0.000016 0.001606 -0.000052 0.001165 0.000786 -0.000692 -0.004986 -0.003071 -0.001787 -0.003581 0.001038 0.001081 0.000003 -0.001794 0.001549 -0.003125 -0.004892 0.002377 -0.000516 0.002031 -0.003137 -0.004419 -0.001177 0.001949 -0.003923 -0.003022 -0.000423 0.001259 0.002511 -0.003923 0.001222 -0.001147 0.001706 -0.002937 0.000224 -0.003309 -0.004794 -0.000107 -0.003129 0.001379 0.000326 0.002719 -0.001053 0.004891 0.000122 -0.000239 0.002494 0.000696 -0.001368 -0.000160 -0.003164 -0.001074 -0.004723 -0.000426 -0.002255 0.000281 -0.004687 0.000521 -0.002089 0.000766
sent_22 0.002657 -0.000565 0.001851 -0.002475 0.005014 -0.002274 0.004344 -0.002822 -0.000422 0.003146 0.002193 0.002294 -0.000366 0.002530 0.004263 -0.000918 0.000247 -0.004602 -0.001042 -0.000343 0.004110 -0.004137 0.002424 0.000412 0.001104 -0.004919 -0.003912 -0.002242 -0.005278 0.002056 0.003844 0.000631 0.000422 0.001172 -0.001831 -0.001512 0.000797 0.002961 -0.003272 -0.001630 0.002352 -0.001832 -0.004794 -0.003193 -0.002941 0.000015 0.001504 0.003812 0.004184 -0.002195 0.002656 -0.002077 -0.001405 -0.002137 -0.000504 -0.002815 -0.001735 -0.003960 0.004731 -0.000294 0.004154 0.002536 -0.000480 0.002754 0.001292 -0.002135 0.000240 0.002123 -0.002197 -0.005051 -0.002605 0.003065 0.004293 0.001234 -0.003585 0.002406 0.000230 0.002383 0.003711 0.004674 0.001587 0.003691 0.002570 0.002299 0.003731 0.004606 0.004022 -0.001154 -0.004210 0.003380 0.000278 0.000717 0.003014 -0.004700 0.003995 -0.004825 0.002206 0.001250 0.001625 -0.001303
sent_23 -0.002444 -0.000114 0.003586 0.000369 0.001636 -0.000826 0.004691 0.002445 -0.001057 0.001470 0.000588 0.003697 -0.002557 -0.003992 -0.002910 -0.000879 0.003595 -0.002066 0.001201 0.001394 -0.001245 -0.004026 0.002218 -0.002161 -0.001075 -0.000857 0.001889 -0.003831 0.000713 -0.005168 0.004749 0.000735 -0.001226 -0.003364 0.001610 0.004284 -0.002074 0.002661 -0.001830 0.004490 0.001895 0.001584 0.004647 -0.002530 0.004105 0.001844 0.002379 0.000519 0.003059 0.002104 -0.003410 0.000853 -0.002128 0.004274 -0.003139 -0.002254 -0.004423 -0.000193 0.000574 0.000987 0.003986 -0.001795 -0.000292 0.003116 0.000746 0.001746 -0.002126 -0.000135 0.001478 -0.003540 -0.004316 -0.003952 -0.000278 -0.004602 0.001031 -0.003957 -0.002447 -0.000516 -0.003979 -0.002645 -0.004929 0.004446 0.000860 -0.001201 -0.004917 -0.001710 -0.000556 0.004343 -0.001998 0.000735 0.001626 -0.003379 0.000023 0.002789 -0.004431 0.001358 -0.004898 -0.005321 -0.004722 -0.000197
sent_24 0.004322 -0.000864 -0.004408 0.003363 0.000420 -0.001943 0.004711 0.004208 -0.002474 -0.002842 0.000957 0.003549 -0.001669 0.001051 -0.003276 -0.003166 0.002646 -0.003718 -0.002395 0.001852 -0.004852 -0.004694 -0.002253 -0.001694 -0.001277 0.002974 -0.004809 -0.001350 0.001201 -0.003395 0.003663 0.001347 -0.003871 -0.002882 0.002527 -0.001169 0.000028 0.003915 -0.003553 0.004687 -0.004466 -0.004153 -0.002954 0.002876 -0.000657 0.001632 -0.003245 -0.003220 0.000260 0.002172 -0.000372 0.003655 0.001754 -0.002535 -0.002571 -0.001508 0.002608 0.004406 0.003832 -0.002315 -0.000918 0.001044 0.000455 -0.001161 -0.004022 0.002041 -0.003933 0.003706 0.003820 0.001736 -0.000113 0.002048 -0.001037 0.003162 0.002744 -0.003481 -0.001758 -0.001349 -0.001283 0.000838 -0.004621 0.001814 -0.002943 -0.000671 -0.000553 -0.001422 -0.001080 -0.003238 -0.004471 0.000496 0.000857 -0.003484 -0.002651 -0.002354 0.003312 -0.003459 0.000579 0.000737 -0.001633 -0.001454
sent_25 0.004603 0.000938 0.001450 -0.000106 0.001591 0.000933 -0.003348 -0.001868 -0.000676 -0.003522 -0.001332 -0.002612 0.003652 -0.001390 -0.002967 -0.001053 0.001656 -0.004554 -0.003263 0.001786 0.002594 0.000892 0.003786 -0.003066 0.002055 0.003921 -0.003622 -0.002596 0.000356 -0.001423 0.001810 -0.004400 -0.003430 0.002240 0.004972 0.003924 0.004235 -0.003792 -0.003735 -0.004033 0.000320 0.003716 0.000034 0.002728 -0.003114 0.003703 -0.002911 -0.004325 -0.000607 0.000405 0.004514 -0.003844 -0.002200 -0.004160 -0.000992 -0.002336 0.000106 -0.001651 0.004369 0.002813 0.003755 -0.003645 0.000577 -0.002664 0.003600 -0.005027 -0.003926 -0.001324 -0.000839 -0.002691 -0.004151 -0.003650 -0.001880 0.004645 -0.002798 0.002622 -0.002413 -0.004408 -0.004802 -0.003049 -0.000291 0.002979 0.002397 -0.001468 -0.000172 0.003504 0.003518 -0.001768 -0.005222 -0.004162 0.002448 -0.002078 0.000011 -0.003281 0.003658 -0.000184 0.000342 -0.001947 0.000317 -0.004975
sent_26 -0.002545 -0.001539 -0.002814 -0.004620 0.000632 0.002088 0.004733 -0.000375 0.001640 -0.001856 -0.003275 -0.003888 0.001875 0.002720 -0.002927 -0.000421 0.000997 -0.003433 0.002569 0.001258 0.000651 0.002307 0.004248 0.000582 0.003569 -0.000472 0.002005 0.004725 0.001981 -0.002499 0.001023 -0.002001 -0.002002 0.001248 -0.003897 0.000203 0.004091 -0.000948 -0.002612 -0.000267 0.003269 0.003784 0.003534 -0.005800 -0.002611 0.005226 -0.004275 -0.000094 0.002612 -0.003537 0.001472 -0.000444 -0.002932 0.003799 -0.003705 0.000945 0.002541 0.000980 0.001336 -0.003177 -0.001369 0.000686 -0.000846 0.001289 0.003606 -0.002922 0.004077 -0.001178 0.005134 0.001045 0.003386 0.000246 0.000410 -0.001271 -0.004054 -0.000828 -0.002680 -0.003859 -0.002411 -0.003158 0.003456 -0.004391 -0.003353 0.002081 0.003869 -0.003103 -0.004774 0.004516 0.001894 -0.002143 -0.000053 0.000534 -0.000779 0.003258 0.001931 0.004768 -0.001734 0.003633 -0.000500 0.001375
sent_27 0.002651 0.003331 -0.000837 -0.000275 0.003280 0.002403 0.004510 0.004631 -0.003538 -0.002696 0.002080 0.002680 0.001360 0.003961 -0.002473 -0.001811 -0.000020 -0.002058 0.000451 0.001737 -0.002567 -0.000748 0.004929 -0.001778 -0.004618 0.002813 -0.000319 -0.004648 0.003645 -0.000718 0.004380 -0.000729 -0.004247 -0.002639 -0.001240 0.002396 -0.003083 -0.000665 0.003475 0.000432 -0.003863 -0.005048 0.001766 0.004716 0.002977 0.002702 0.002011 0.003224 -0.004355 -0.002534 0.001858 0.003810 0.001570 -0.003336 0.004457 0.004029 -0.004097 -0.003481 -0.002211 0.002180 0.003897 0.001105 -0.003145 -0.000430 -0.003403 0.003935 0.002570 0.000082 -0.000732 -0.004276 -0.002176 -0.003684 0.002935 0.000384 -0.002593 -0.002773 -0.002320 -0.001863 -0.000988 -0.001618 0.001810 -0.004315 -0.001356 0.002423 0.004593 0.003613 -0.002478 -0.002820 -0.003275 0.004179 -0.002559 0.002796 -0.002251 -0.004814 0.002804 0.001973 -0.003809 -0.001391 0.004855 -0.003424
sent_28 -0.004017 0.001150 0.004264 -0.003734 0.000439 0.001657 -0.003012 -0.005153 0.003852 -0.004388 -0.002478 0.001677 -0.002034 -0.004643 0.000810 -0.002028 -0.003485 0.004388 -0.003400 0.002168 0.004086 0.003160 -0.003212 -0.002621 -0.004752 0.004015 0.003659 0.000774 -0.004080 -0.003161 0.000888 -0.002446 -0.002071 -0.003409 -0.002947 -0.000490 0.000215 0.000330 0.004891 -0.003608 0.002743 0.002742 0.000504 -0.000720 0.003790 0.003351 -0.004302 0.004897 -0.004689 0.000568 0.000614 0.003432 -0.001110 -0.004274 0.000695 -0.004957 -0.001372 0.004667 0.003839 -0.003298 0.003324 0.003250 0.004142 -0.002533 0.000163 0.003123 0.001731 0.001092 0.001590 -0.002998 -0.004933 0.002429 -0.001586 -0.001186 0.001078 0.001645 -0.002904 0.003535 -0.001060 0.001769 0.004653 0.001075 -0.001167 0.001245 0.000073 -0.000099 0.002536 0.004152 -0.000526 -0.003771 0.000688 -0.002537 -0.004263 0.002561 -0.001945 0.002519 0.000016 -0.001799 -0.001661 -0.004608
sent_29 0.000838 0.004132 -0.004120 -0.003257 0.001002 0.001465 0.002684 -0.002620 -0.005079 -0.000264 -0.003086 -0.004543 0.002727 0.005475 -0.001171 -0.002323 0.000325 0.002784 0.002721 0.001414 -0.000025 -0.000016 -0.003011 -0.001918 0.002853 0.003230 -0.003788 -0.002754 -0.005431 -0.000308 -0.002820 0.001808 0.001789 -0.004384 -0.003484 0.003978 -0.001164 0.000888 0.003884 0.003225 -0.001600 -0.004822 -0.000884 -0.002478 -0.004490 0.002979 -0.000344 0.001503 0.003365 0.004012 0.000319 -0.001243 -0.004328 -0.005053 -0.002156 0.001200 0.002090 -0.004149 -0.004087 -0.001809 0.002250 0.003524 -0.000431 -0.000657 0.001974 -0.002882 0.001134 0.003701 0.001323 -0.000151 -0.002898 0.004213 0.005261 0.002742 0.001153 -0.003256 -0.001650 -0.000697 -0.001536 0.001412 0.001080 -0.001675 -0.001379 -0.004152 -0.001580 0.001813 0.000365 0.004444 0.004118 0.001036 0.005079 -0.002476 0.001603 -0.001310 0.006185 0.002245 -0.002131 -0.000202 -0.002097 0.000151
sent_30 0.003094 -0.004638 -0.002992 0.004830 0.004668 0.000666 0.001452 -0.002307 0.004424 0.001695 0.001661 -0.004761 0.003627 0.002806 0.001915 0.002280 -0.003422 0.002037 -0.004030 0.002076 -0.004886 0.002591 -0.000077 -0.003033 0.002321 -0.001945 0.003647 -0.003267 0.004246 0.004846 -0.001863 0.003705 0.003390 -0.000810 -0.001301 -0.002200 0.004904 -0.002404 0.004120 -0.000673 0.004384 0.003285 -0.003581 0.000757 0.001754 -0.000911 -0.004879 -0.001700 0.003497 -0.004502 -0.003900 0.002047 0.000083 -0.000066 -0.001178 0.001033 0.003568 -0.002339 0.003512 -0.000877 0.000082 0.002344 -0.002432 0.004356 0.002121 0.001133 -0.002262 0.002021 -0.002537 0.003087 -0.005056 -0.003320 0.000612 0.002106 -0.000071 0.003711 0.004782 -0.000380 0.002776 0.000078 0.001636 -0.002675 -0.003775 0.004777 0.003197 -0.001960 0.000890 -0.001278 -0.003284 -0.000744 -0.002088 -0.004744 -0.001155 0.004141 0.003445 0.000645 -0.001687 -0.002573 0.004670 0.000626
sent_31 -0.002946 -0.002213 0.004551 -0.002350 -0.003891 -0.003252 0.002880 0.001971 -0.000711 0.003079 0.000015 -0.001069 -0.003589 0.004077 -0.002367 0.001303 0.004736 -0.003041 0.004640 0.001396 -0.003543 0.002265 0.004617 0.000913 0.001806 -0.005000 0.004949 -0.001993 -0.004714 0.002954 0.004597 0.002469 -0.004986 -0.004357 0.000938 -0.001597 0.003881 0.003746 0.004625 0.002163 0.003727 -0.001863 -0.004064 0.003410 -0.001716 -0.000815 0.001708 0.001289 -0.000726 -0.001028 -0.004108 0.000503 -0.002763 0.002383 0.001494 -0.004279 0.004783 0.002456 -0.002894 -0.004744 0.000208 -0.001123 0.000183 0.001889 0.003052 -0.004953 0.001912 -0.002101 0.004815 0.003434 0.000567 0.001126 -0.002990 -0.002856 -0.003228 -0.000970 -0.003881 0.000313 0.001354 -0.003373 -0.001442 -0.004066 0.000399 0.001416 0.001375 0.003486 -0.002539 0.001131 -0.002086 -0.003618 -0.001631 -0.004237 0.005024 0.002188 -0.003677 0.002601 -0.001362 0.004135 0.000290 0.003657
sent_32 -0.002489 -0.001147 -0.001080 -0.003721 -0.001605 0.001843 -0.000263 0.003697 -0.002653 -0.001422 -0.001895 0.000735 -0.002764 -0.003142 0.004388 -0.001495 0.000837 -0.004741 -0.003585 -0.004125 0.003420 -0.004558 0.000274 -0.003430 -0.002184 0.003461 0.000939 0.004366 0.000720 -0.004602 -0.000733 -0.004514 -0.001896 -0.000330 0.001023 -0.002710 0.000606 -0.000999 -0.000278 -0.002913 -0.003382 0.002255 -0.002082 0.001516 0.000827 0.004035 0.004119 -0.000382 -0.002660 0.001112 0.001301 0.002115 0.003887 0.002645 0.001386 0.001053 -0.002833 0.001103 0.003176 0.004018 0.004458 0.000899 -0.002593 -0.001192 0.005177 0.000049 0.003049 0.001033 -0.000221 -0.001696 -0.000056 -0.004823 0.003858 0.000497 -0.004581 0.003122 -0.003626 -0.004762 -0.000177 0.005069 -0.004018 -0.004020 0.004154 0.003144 0.003406 0.000313 -0.000620 -0.001146 0.000646 0.002707 0.002854 0.001805 0.000703 -0.000980 -0.001299 -0.002487 -0.001725 0.002184 0.003035 0.000924
sent_33 -0.002865 -0.003486 0.002168 0.004182 -0.004680 -0.002914 0.002941 0.002210 -0.001995 0.000522 0.001230 0.002189 -0.000899 -0.001077 -0.001474 -0.002443 -0.004050 0.001557 0.001626 0.002102 -0.005542 0.000195 -0.004193 0.000035 0.004713 0.000591 -0.001042 0.003699 0.004818 -0.002427 0.003013 0.004478 -0.004098 0.000624 0.002496 -0.000945 -0.001017 0.002480 -0.003643 -0.001428 0.000230 -0.002184 0.003718 0.002406 0.004395 0.000495 -0.004530 0.003880 0.002919 0.000426 0.003726 0.003336 0.002973 0.000782 0.001190 0.003160 0.001560 -0.002272 0.002062 0.000665 -0.002562 -0.005572 -0.002250 0.001002 0.003685 0.003596 -0.003639 -0.004195 0.003155 -0.002139 -0.001791 -0.005029 -0.004124 -0.003274 -0.003840 -0.000593 0.003088 0.003479 0.003945 -0.000988 0.001778 -0.000712 -0.004968 -0.004098 -0.002849 0.003861 0.001760 -0.002395 0.002359 0.000886 -0.004797 -0.001683 0.002492 -0.004468 0.003141 0.004753 0.003422 -0.004418 0.000160 0.001979
sent_34 0.004069 -0.004157 0.003089 -0.002388 0.001087 0.002137 0.002818 -0.002093 0.001102 -0.002062 0.005104 0.003339 -0.000919 0.003780 0.002522 0.004130 -0.003328 -0.002298 -0.004071 -0.001783 -0.001246 0.001381 -0.000381 0.002072 -0.002296 -0.003231 -0.001402 -0.000550 -0.000943 0.004261 -0.002189 -0.001565 -0.002974 -0.001246 -0.001212 0.000758 -0.002377 -0.002367 0.002141 0.004195 -0.003939 -0.003188 -0.003839 0.001808 -0.002932 0.001191 -0.003056 0.003033 -0.001806 0.001493 -0.003343 -0.002020 -0.001980 0.001237 0.001965 0.003323 -0.002972 0.002721 0.002274 0.000633 0.001511 -0.004265 -0.003467 -0.000925 0.002160 -0.003313 -0.000985 0.000125 0.004456 -0.004612 0.003220 0.004879 -0.002335 0.004022 -0.002215 0.002888 -0.000447 0.001061 -0.002546 0.001990 -0.003615 0.000577 -0.000073 0.003395 -0.000223 0.002814 -0.001001 -0.002047 0.002850 -0.000902 -0.000223 0.000816 0.003084 0.000620 -0.000977 -0.003424 0.002158 0.003780 -0.003914 -0.000419
sent_35 0.004533 0.000637 0.000325 -0.004414 0.000599 0.001401 -0.003307 0.004391 -0.002896 0.001880 -0.002195 -0.003722 -0.002365 -0.001513 -0.000114 -0.002705 0.002240 0.002803 0.002832 0.002151 -0.002321 -0.003135 -0.004142 -0.001129 -0.004166 0.001538 0.004294 0.002540 -0.003942 -0.004779 -0.001601 0.004893 -0.002093 0.002315 0.002069 0.000914 -0.001663 -0.002688 0.004713 -0.004211 -0.002767 -0.001900 0.003842 0.001853 -0.002361 -0.003129 0.003809 0.002894 -0.004530 0.003615 0.000895 -0.000526 0.001667 -0.004857 -0.001750 -0.004312 0.002122 -0.001110 -0.000126 -0.001872 0.003340 -0.004523 -0.002205 0.001014 0.003197 0.001022 0.002325 -0.004548 -0.002308 -0.004773 -0.000167 0.004945 -0.004788 -0.000510 -0.005034 0.001138 -0.003145 0.002419 -0.003247 0.003669 -0.003130 -0.001424 -0.002513 0.002993 -0.000104 0.003859 -0.003614 -0.000251 0.002675 0.004992 0.001642 -0.003186 0.002803 -0.004630 0.002820 0.003116 0.000849 -0.000219 0.004567 -0.005136
sent_36 -0.004501 -0.002348 0.000229 0.000425 -0.001021 -0.001950 -0.002942 0.002817 -0.002066 0.000113 0.003031 0.001562 -0.000640 -0.003075 -0.000929 -0.000519 0.004866 -0.002765 -0.003365 -0.002839 -0.002533 -0.004774 -0.001352 -0.002341 0.004055 0.002419 -0.004531 0.003200 -0.004344 0.002637 0.001014 -0.003942 0.003983 0.003504 0.003742 -0.001512 -0.002712 0.005216 0.002942 -0.004374 -0.001037 0.002806 -0.000290 -0.002678 0.002840 -0.002324 -0.004680 -0.002453 0.005361 0.001097 -0.002791 0.002032 0.001812 0.001171 -0.004117 -0.002734 0.003845 0.001997 -0.003035 -0.001934 0.000900 0.003378 -0.003126 -0.003520 -0.000848 0.003968 -0.002277 -0.003624 -0.004601 -0.001884 -0.005120 0.000822 0.001813 -0.000387 0.002386 -0.000107 0.002144 -0.002645 0.002821 0.000583 0.002064 -0.000104 0.000516 -0.004621 -0.000042 -0.002895 -0.003390 -0.000840 0.000477 -0.001203 -0.003655 0.002701 0.004755 0.002024 -0.003696 0.003040 -0.003975 -0.000362 0.004605 -0.002391
sent_37 -0.003891 0.002488 0.004042 -0.002112 -0.002560 -0.003508 0.004677 0.000717 0.003855 -0.001853 -0.004243 -0.000541 -0.003201 0.000131 0.000491 -0.001959 -0.001964 -0.004779 -0.000871 -0.001656 0.001029 0.003988 -0.000110 -0.004151 0.004314 0.003262 -0.001207 -0.001520 0.004468 -0.001420 0.001353 0.004593 -0.004673 -0.001651 -0.002928 0.004198 0.000459 -0.004491 0.002709 0.001805 0.001503 0.004806 0.003875 0.002406 -0.002986 -0.003598 -0.002945 -0.003103 0.000574 0.001634 0.000444 -0.004591 -0.001177 0.004660 0.001925 -0.001469 0.001734 -0.001990 -0.004120 0.000477 -0.002284 -0.000527 0.004149 0.001125 0.002105 -0.003854 -0.000074 -0.000904 0.001757 -0.002229 -0.000900 0.004814 -0.003875 -0.002820 -0.002817 0.002042 0.002137 0.003067 -0.001259 0.003338 0.001960 0.001984 0.002944 0.001376 -0.000861 -0.005132 0.000969 0.000714 0.001012 -0.002040 0.000460 -0.003425 0.001465 -0.004421 0.003427 -0.002701 -0.002226 0.003553 0.003565 0.003340
sent_38 -0.001054 0.004397 0.003054 0.001856 0.004504 0.003055 -0.000559 -0.002118 -0.001624 -0.004033 -0.001598 -0.000833 0.004262 0.004323 0.004696 -0.002365 0.001873 0.000399 -0.002607 0.003483 -0.002192 0.001276 -0.003459 -0.004071 0.002468 -0.000582 -0.001511 0.002168 -0.002148 0.004305 0.005057 0.005171 -0.002333 -0.001341 0.002886 0.003575 0.002351 0.002956 0.003325 -0.000959 0.000807 -0.000398 0.000409 0.003746 0.000993 0.004792 0.002956 -0.000302 0.001574 0.003558 0.001003 0.002534 0.001454 -0.002065 -0.002779 -0.001123 -0.003407 0.002511 0.002482 -0.001031 -0.002650 0.004213 0.000989 0.005955 -0.003533 -0.002964 -0.004142 0.002831 -0.003730 0.003150 -0.000998 0.000422 -0.004344 0.001085 -0.002585 -0.003023 0.004089 0.003922 -0.004370 0.004493 0.004082 0.001052 0.002388 0.002654 0.002091 0.001006 0.001061 0.000409 0.002858 -0.001720 0.002385 0.003607 0.003297 0.002614 0.004364 -0.001565 0.001754 0.003161 0.003398 0.004571
sent_39 0.005204 0.000570 -0.000345 0.003074 -0.002491 0.002734 -0.003102 0.000761 0.001052 -0.000418 0.003685 0.000959 -0.000036 -0.000718 -0.004048 -0.001717 -0.004012 0.000072 0.001398 0.002708 0.001390 -0.003301 0.002196 0.000068 -0.003785 -0.004837 -0.002634 0.001881 0.003886 0.005084 0.002962 -0.002045 0.001083 -0.002857 0.002590 -0.003422 0.002459 0.003949 0.000221 -0.004200 -0.000344 0.003156 -0.003641 -0.004859 0.002069 0.000838 -0.004560 0.004884 0.000910 0.000293 0.003070 0.003928 -0.004337 -0.001633 -0.002737 -0.000617 -0.003734 -0.004395 -0.001602 0.004279 0.004858 0.002519 -0.004898 0.002483 -0.004442 -0.003367 -0.004559 -0.003173 0.001921 0.001611 -0.001603 0.002215 0.003502 -0.003529 -0.004360 -0.001542 -0.000838 -0.002100 0.002860 -0.001462 0.002811 0.004298 0.000464 -0.000673 -0.004232 -0.001971 0.003963 -0.002777 0.001067 -0.000075 -0.004521 0.004172 -0.004380 0.001413 0.004941 0.002005 -0.001397 -0.004186 0.000873 0.002290
sent_40 -0.001045 0.001496 0.000847 -0.004596 0.004369 -0.001007 -0.001237 0.003401 -0.000306 -0.000493 0.001410 -0.002573 0.000453 0.001722 0.000582 0.001808 0.001027 0.003063 0.003786 -0.003978 -0.002259 -0.004781 -0.002744 0.001979 -0.004142 -0.003625 0.002271 -0.000673 -0.002411 0.001732 0.004097 -0.004479 0.001837 0.001560 0.003770 -0.003063 0.002016 -0.003847 -0.004576 0.001907 -0.004709 -0.004758 -0.004923 -0.000356 0.002579 0.005009 -0.002625 0.003000 0.003180 0.003411 -0.001713 -0.003647 0.002852 0.000577 -0.000665 -0.004445 -0.004779 -0.002027 -0.002108 -0.000276 0.004393 -0.000783 -0.002118 0.003721 -0.001682 0.004062 0.003687 0.001560 0.002269 -0.003604 0.000664 -0.001720 -0.000041 -0.002753 0.003972 -0.001050 -0.000166 0.002192 -0.003556 0.000286 0.003061 0.001895 -0.001506 0.002076 0.004408 0.004293 0.002485 -0.002527 -0.001362 0.000667 -0.001366 -0.000272 0.002856 -0.004148 0.005057 0.001869 0.003921 0.003017 -0.000477 0.004376
sent_41 -0.002262 -0.004272 -0.003834 -0.002822 0.000483 -0.002629 0.003451 -0.005036 0.002156 0.004829 -0.002439 0.001451 0.002420 -0.001602 -0.000827 0.002112 -0.003734 -0.003876 -0.001249 -0.002865 -0.001636 -0.004027 -0.003929 0.004231 -0.001470 0.000293 0.000155 -0.000763 0.002263 -0.001393 0.004005 -0.004100 0.000767 -0.001768 -0.000993 -0.002201 0.001256 -0.002560 -0.002280 -0.002026 -0.004773 -0.001573 -0.004875 0.003796 0.002252 0.000932 0.002776 0.004250 0.002281 0.000715 -0.003880 -0.000720 0.000737 0.000856 0.004685 -0.002950 0.001598 -0.002749 -0.000747 0.004611 -0.001511 -0.001169 -0.000802 -0.004211 -0.000881 0.001000 0.000739 0.003789 0.001234 0.000285 0.001021 -0.004443 0.005032 -0.003562 -0.000650 -0.002064 0.000807 0.000554 -0.001299 0.005163 0.002597 0.004359 -0.000124 0.000954 -0.000739 -0.001359 0.000399 -0.003150 -0.003166 0.000545 -0.004873 -0.000336 0.005122 0.003138 -0.003722 0.001243 -0.002579 -0.003506 -0.001192 0.001757
sent_42 0.000676 -0.004473 0.003848 0.000035 0.003466 -0.002826 -0.004258 0.000283 -0.000750 -0.004887 -0.004737 -0.003994 -0.004351 -0.003362 0.000557 -0.000460 0.004689 -0.004404 0.003805 0.000717 0.003954 -0.004732 -0.003733 0.003723 0.000705 0.000370 -0.005041 0.001245 0.003367 0.005167 -0.000604 -0.001675 -0.000905 -0.002794 -0.002516 -0.000847 0.002021 0.001485 0.002495 -0.002778 0.002220 0.002748 0.000456 -0.000024 -0.003194 -0.004641 -0.000155 0.001594 -0.002680 -0.001046 -0.000017 0.004819 0.003742 0.003706 0.005127 0.002963 -0.003058 0.003276 -0.003390 0.003591 -0.001725 -0.002007 0.000926 -0.004152 0.004037 -0.001273 0.002815 0.002078 0.001711 0.000351 -0.000625 0.001498 0.001892 -0.002821 0.002781 0.004285 0.003049 0.002006 0.003235 -0.004823 -0.003107 -0.001403 0.002424 0.004700 0.002490 0.000130 0.004188 -0.001225 0.001341 -0.004798 -0.003176 -0.001863 -0.001247 -0.000222 0.003201 -0.002379 -0.004118 0.000499 0.005048 -0.001029
sent_43 -0.001923 0.002794 0.001436 -0.004764 0.005081 0.000161 -0.001955 0.001542 -0.002410 -0.000321 0.001482 -0.003350 -0.000024 0.002437 0.004791 -0.005188 0.003343 0.003876 0.004856 0.004379 -0.003420 0.003285 -0.003469 -0.001634 -0.001288 -0.002531 -0.002066 0.000186 -0.004650 -0.000842 0.001125 -0.003410 -0.002687 -0.002088 -0.004042 0.003000 -0.002465 -0.000718 -0.001216 -0.001785 -0.003618 0.003610 0.001332 -0.002330 -0.004035 -0.003663 -0.001993 -0.004356 -0.003172 -0.000669 0.004476 -0.000547 0.001918 0.000511 0.004997 -0.003248 0.002575 -0.001840 0.005128 -0.001541 0.005074 0.003752 0.000902 -0.004257 -0.002793 -0.004603 0.002954 -0.004024 0.002558 -0.004993 -0.003012 -0.001985 0.000757 0.000572 0.003884 0.001178 -0.003309 -0.004777 0.002947 0.000826 0.000729 -0.000577 0.001338 -0.001011 -0.000416 0.001548 0.000040 -0.004664 0.004581 0.003821 -0.001414 0.000734 0.004300 -0.001271 0.004992 -0.005029 0.002855 0.003295 -0.002694 -0.003443
sent_44 0.001613 0.000017 0.001340 -0.003094 -0.001995 -0.003827 -0.003799 0.002035 -0.005054 0.000487 -0.002244 0.004189 0.001092 0.005099 0.000689 0.000149 -0.001739 -0.003100 -0.000676 -0.002807 -0.003843 -0.002002 -0.003893 0.002034 -0.002017 -0.000637 -0.003837 0.001340 0.002877 -0.002378 -0.004647 -0.001975 0.001021 -0.002303 0.003739 0.003595 -0.001567 -0.001038 -0.005342 0.000784 -0.003481 -0.004319 -0.005162 -0.003259 -0.003048 -0.004522 0.005298 0.001869 -0.000509 -0.004788 -0.004560 0.003386 -0.001154 -0.004316 -0.003235 0.001948 -0.000451 -0.004710 -0.001028 -0.004658 -0.001471 0.000483 -0.000690 0.003629 -0.002685 -0.000094 -0.003792 -0.002788 -0.001512 -0.003771 -0.000384 -0.000359 0.004609 0.001416 -0.003675 0.000940 -0.000737 -0.000046 0.001964 -0.002256 -0.001489 0.000250 0.001923 -0.002507 0.000332 -0.001145 0.000898 -0.002028 0.003100 0.002596 0.003126 -0.003124 -0.002885 0.000090 -0.003313 -0.000273 -0.001037 -0.001353 -0.001823 -0.005179
sent_45 0.002041 0.002705 -0.001462 0.000016 0.003000 0.001660 -0.004680 -0.002249 0.004268 0.003795 -0.001806 0.004172 0.000088 -0.002844 -0.002288 -0.002703 -0.004464 -0.000709 0.004028 0.000195 0.000626 -0.003199 -0.004477 -0.003668 -0.002891 0.003479 0.004696 -0.004974 -0.000706 -0.001179 0.000359 0.001360 -0.001077 -0.003204 0.001005 -0.004663 0.003892 0.001415 -0.004343 0.000596 -0.003755 -0.003981 -0.002546 0.002655 0.002207 0.000644 -0.002235 0.000318 0.004438 -0.003216 0.002239 0.003841 0.001486 -0.003084 -0.003653 0.000200 -0.003675 0.002901 0.000167 -0.002308 0.000990 -0.002102 0.000688 -0.002320 -0.002673 0.000015 0.003185 0.001399 -0.004280 -0.003746 -0.001360 -0.001669 0.003985 0.003819 -0.004521 -0.002874 -0.001098 -0.003227 0.004270 -0.002764 0.002365 0.004744 0.000019 0.003074 -0.000522 0.003574 0.002677 0.004467 -0.001700 0.002995 0.004351 0.003283 0.003244 0.004412 -0.001728 -0.000847 -0.003691 0.004033 -0.001219 0.003999
sent_46 -0.002925 -0.001635 0.001863 0.004087 0.001908 -0.001616 -0.004685 -0.001643 -0.000167 0.002257 0.004033 -0.004894 -0.004342 -0.002259 0.000447 0.000325 -0.000731 0.003844 0.002274 -0.003557 -0.002775 0.000256 -0.001440 0.002976 -0.000791 0.004533 -0.003185 -0.000031 0.003922 -0.004349 -0.002154 -0.003058 0.004821 -0.000255 0.003759 0.003541 -0.004032 -0.001552 0.000060 0.003803 0.004740 -0.001568 0.002899 0.003590 -0.002255 -0.002987 0.001315 0.000535 -0.003517 0.002381 -0.001261 0.000977 -0.004889 0.000971 0.002422 -0.001577 0.002646 -0.000554 -0.000687 -0.001988 0.002270 0.004004 -0.000440 0.004725 0.002947 -0.001834 -0.002583 -0.001403 -0.000904 -0.000038 0.002083 0.003388 -0.004449 -0.000374 -0.000836 -0.000817 0.000637 0.004400 -0.001727 0.004332 -0.002589 0.000333 0.002030 0.003832 0.002732 0.004457 0.000446 0.004054 0.001637 -0.003552 -0.004782 0.002580 0.001616 -0.002132 -0.004100 0.002012 0.002448 0.000512 0.001509 -0.000961
sent_47 0.003928 0.000630 0.004005 0.002859 0.000461 0.002237 0.004268 -0.003341 -0.000944 0.003685 -0.004749 -0.003553 -0.000513 -0.003518 0.002394 0.004647 -0.000197 0.004374 -0.003749 0.001871 0.001054 0.002042 0.000322 0.004967 -0.000746 0.004113 0.003914 -0.001016 -0.001076 -0.004719 -0.000566 -0.002794 -0.001865 -0.002262 0.001818 -0.000401 0.000675 0.003564 0.002823 0.001061 -0.000807 -0.001184 -0.004742 -0.000546 -0.000619 -0.002743 0.003353 0.002158 0.004982 -0.001258 -0.001056 0.000310 -0.001819 0.000046 0.003806 0.002232 -0.002748 0.002420 0.002831 0.002866 -0.000945 0.001610 0.001219 -0.003213 0.004553 -0.001560 0.001571 0.004343 0.001612 0.004153 0.001565 -0.003000 0.002479 -0.001034 -0.001567 0.002940 0.002915 0.004787 -0.002786 0.001153 0.002637 0.000475 -0.002283 0.004789 0.004211 0.001464 0.000548 0.003054 0.003966 0.003902 -0.000425 0.003728 -0.002323 0.000023 -0.001195 -0.004311 -0.003051 0.004551 -0.002381 0.001311
sent_48 -0.002506 0.000315 -0.003698 -0.002156 -0.000846 0.002046 0.004030 -0.000810 0.002075 -0.003508 -0.004029 -0.000392 0.002665 -0.002563 0.003128 -0.002591 -0.004152 -0.000057 -0.005009 0.002050 0.002484 0.004580 0.001597 -0.000132 -0.004168 0.000201 -0.003755 0.002949 0.000609 -0.002721 0.002180 -0.001659 0.001678 0.002696 -0.004022 -0.000001 -0.003865 0.001587 -0.001854 0.001509 -0.004382 0.003519 -0.000418 0.002805 -0.002827 -0.001633 0.002712 0.003668 -0.000502 0.004147 0.000755 -0.004445 -0.000441 -0.003438 0.002348 -0.001636 -0.002983 0.003336 0.003313 -0.001500 -0.000884 -0.004355 -0.003261 0.002502 0.000722 0.003168 0.000083 0.002766 0.000116 0.000509 -0.003266 0.000453 -0.002953 0.000616 -0.003627 -0.003172 0.002706 -0.004232 -0.001195 0.003978 -0.003956 -0.001224 -0.003722 0.003808 -0.003756 -0.002233 -0.000715 0.001609 -0.001660 -0.002767 -0.001333 0.000779 0.004979 -0.001850 -0.001230 0.001976 -0.001946 -0.001426 0.004992 0.001078
sent_49 0.003394 -0.004763 -0.003559 0.002208 0.000415 0.005024 -0.000088 -0.001147 -0.003104 0.000858 0.002726 0.004337 -0.003652 -0.004944 -0.000093 -0.003245 0.001137 0.001130 -0.000887 0.001813 -0.003047 0.003166 -0.004548 -0.003390 0.004822 0.004048 0.004272 0.004149 -0.000696 0.004484 -0.002571 -0.004532 0.000551 -0.001816 0.000267 -0.000283 -0.000214 0.000673 0.004233 -0.002650 0.003728 0.002313 -0.004225 0.003391 -0.001043 -0.001557 -0.005040 -0.002597 0.001840 0.003394 -0.002481 -0.001377 -0.003492 0.003073 0.002305 0.001967 0.001884 0.003945 0.003904 0.001202 -0.002200 -0.001026 -0.004651 0.004099 0.001882 0.004085 -0.001885 0.004468 0.003633 0.003815 -0.004996 -0.001242 -0.003806 0.004378 0.000072 -0.000210 -0.000130 0.000702 0.000472 0.004129 0.003789 0.002775 -0.001784 0.002890 -0.003564 0.003556 0.002706 0.002708 0.000337 -0.000628 -0.002827 0.003149 0.004517 0.000390 0.003961 -0.002116 0.000275 -0.001673 0.004878 -0.002511
sent_50 0.002216 0.002850 -0.004327 0.005177 -0.003964 0.001469 -0.003442 0.000099 -0.004524 0.002873 0.002595 0.001313 -0.004410 -0.004444 -0.003199 0.004333 -0.002498 0.002062 -0.002164 -0.002558 -0.002006 -0.002772 -0.004746 0.004856 0.000734 0.000535 -0.000157 -0.004937 -0.000684 0.000847 0.001922 0.000683 -0.004486 0.000982 0.001185 0.000286 0.003505 -0.000433 0.000604 -0.003597 -0.002365 0.003098 -0.005372 -0.003313 0.003409 -0.002671 -0.001992 0.002250 0.005082 -0.003337 0.002423 -0.003336 -0.001383 -0.002000 0.004044 0.001608 -0.001614 -0.005290 -0.001222 0.004478 0.000604 0.002754 -0.001785 0.000208 -0.002627 0.003107 -0.001498 -0.004503 0.001506 -0.003700 0.002395 -0.004733 0.000971 -0.000197 0.005177 -0.003774 0.001749 -0.004181 -0.003092 0.005473 0.003135 -0.002102 0.003930 -0.004719 0.000606 -0.003246 0.004852 0.000636 0.000299 -0.001299 0.003447 0.000648 -0.004765 -0.003279 -0.000014 -0.004654 -0.001795 -0.002019 -0.004485 0.001871
sent_51 0.003108 0.003546 0.003541 -0.003078 0.004239 0.001558 0.002365 0.000271 0.004378 -0.002293 0.002798 0.000260 0.004327 -0.001848 -0.004732 -0.004443 0.003900 0.001095 0.002142 -0.000062 0.000734 -0.002378 0.002517 0.002545 0.001910 0.004280 0.002305 0.004552 0.000736 0.001206 0.001380 -0.001506 -0.004996 0.002623 0.002238 -0.003936 -0.004034 0.002216 -0.000027 -0.002716 -0.004612 0.000983 -0.004968 -0.003376 0.000305 -0.003789 -0.000653 -0.004581 -0.003449 0.004224 0.000300 0.002018 -0.001627 0.002158 0.003761 0.003923 0.000298 0.002023 0.002063 0.004682 -0.001390 0.001064 -0.004779 0.004976 0.005103 -0.000151 0.000582 0.002910 -0.002577 -0.001513 -0.002699 0.000587 0.004683 -0.001160 -0.004383 0.002006 0.000079 -0.001597 -0.000561 0.004582 0.003000 -0.002979 0.002483 0.004634 0.002977 0.003003 -0.001721 -0.003824 0.003433 0.001868 -0.000934 0.002666 0.002798 0.000904 -0.002133 0.003303 0.002689 -0.001953 -0.003641 0.003908
sent_52 0.002886 0.000210 -0.001134 0.001397 -0.000715 -0.004998 -0.001471 -0.002863 0.005002 0.002858 -0.000953 0.002263 -0.001849 0.000649 -0.002795 -0.002211 -0.000758 -0.004125 0.003336 0.004086 -0.002941 -0.000821 0.003142 -0.001924 0.000894 -0.000667 -0.000866 0.002840 -0.000178 -0.000729 0.004720 0.004566 -0.002953 -0.002791 0.001458 -0.000441 0.001651 0.002588 0.002647 -0.002165 0.004670 0.000084 -0.004321 -0.004454 0.000835 0.000344 0.004394 0.004076 -0.000315 -0.002766 0.000333 -0.001925 0.001251 -0.000234 0.002960 -0.003872 -0.002302 0.000703 0.001062 -0.000589 0.005063 0.003407 0.000227 -0.000641 -0.000677 -0.003887 0.004038 -0.002578 -0.003228 0.000013 -0.000542 -0.004017 0.000942 0.002024 0.000002 -0.003926 -0.003170 -0.003267 0.000857 -0.003506 -0.001354 -0.003467 -0.000673 0.001024 -0.001296 0.004138 -0.000701 0.004059 0.003127 -0.003291 -0.003597 -0.003861 0.002051 0.001375 0.003249 0.000110 0.001943 0.001525 -0.001195 0.001313
sent_53 -0.001014 0.001389 0.004295 -0.000717 0.000081 -0.001753 0.000830 0.003624 -0.002110 0.003359 0.000206 -0.002796 -0.000841 -0.003313 0.004140 -0.004371 0.001035 -0.003924 -0.001879 -0.003571 -0.000031 0.001394 0.003294 -0.000462 0.002671 0.000976 0.004797 -0.003792 0.003210 0.003290 0.002891 -0.000496 0.000259 0.004873 0.004397 0.002670 -0.000421 0.000408 0.003059 -0.002246 -0.002464 -0.002824 0.000538 0.004481 -0.002627 0.003024 -0.004717 0.000046 -0.002195 -0.002125 -0.001091 0.000332 0.002743 0.004604 -0.003555 -0.001064 -0.003385 0.003402 -0.004176 0.003597 0.002437 0.003574 0.003891 -0.003537 0.000541 -0.001960 -0.002308 -0.004836 0.000207 -0.004789 0.004039 -0.002311 -0.000053 0.001372 -0.004994 -0.003835 -0.000349 0.001276 0.003170 -0.000856 0.004263 0.000952 -0.005029 0.001811 -0.002866 -0.004912 0.002361 0.000523 0.002841 -0.004119 -0.001406 -0.002053 0.000727 0.000088 0.002782 -0.003118 0.000733 0.001378 -0.000422 0.000574
