32 100
sent_0 -0.000830 0.002203 -0.004999 -0.001977 -0.003532 -0.004077 -0.003137 -0.001544 -0.001032 0.000388 -0.000808 0.001852 -0.002955 0.003781 -0.004726 0.001705 -0.000827 0.000587 -0.003596 -0.003019 0.003007 0.004683 -0.001866 0.001923 0.003764 0.003946 -0.004150 -0.004609 -0.003302 0.003781 -0.004017 -0.000789 0.004579 0.000332 0.001919 -0.001845 0.001865 0.003346 -0.004817 0.002501 0.004889 0.002482 -0.002196 0.002893 -0.003968 -0.000521 0.004086 -0.002064 -0.002122 -0.003700 -0.004806 0.001788 -0.002884 -0.002345 -0.000084 -0.004466 0.000741 -0.003533 0.000893 0.001998 -0.003977 -0.000859 0.001944 -0.000858 -0.004500 0.000359 0.001638 0.000149 0.004446 0.000866 0.004034 -0.003625 -0.003607 0.003074 -0.001023 -0.003346 0.004275 -0.001522 0.002508 0.002260 0.003833 0.001237 0.002509 -0.001511 -0.002301 0.003959 -0.000719 0.004648 0.001634 0.001217 -0.003853 0.004495 -0.000501 0.000784 -0.000919 -0.002630 0.004034 0.000737 -0.004971 0.001171
sent_1 -0.001734 0.000271 0.003859 -0.001427 0.004085 0.001234 -0.004842 0.004294 0.001909 0.004973 -0.003277 -0.003629 0.004326 0.001968 -0.004340 0.002555 0.002539 0.004230 0.002115 -0.003757 -0.004801 -0.004738 -0.004717 -0.002538 0.003600 0.000388 0.000528 0.003420 -0.003758 -0.002208 0.000858 0.004696 0.000610 -0.004814 0.003006 -0.002670 0.003071 -0.001121 0.003635 0.002471 0.000562 -0.003635 -0.004401 -0.003787 -0.004554 -0.003925 -0.002743 0.002130 0.000597 -0.004874 -0.004280 0.004673 0.000681 -0.002967 -0.002477 0.002438 -0.003046 0.000814 0.004700 0.003468 -0.002602 -0.000062 0.001200 0.003290 -0.003432 -0.004814 -0.004300 -0.000137 0.001063 0.000689 -0.001826 0.004886 0.000797 -0.001199 0.000509 0.002453 0.001692 -0.002351 -0.004337 -0.001299 0.001297 -0.002898 0.002528 -0.004335 -0.002397 0.003048 -0.003066 0.001395 0.000247 0.004248 -0.002367 -0.004340 0.002351 0.002722 0.004078 0.004320 -0.004860 -0.002656 0.001168 0.004490
sent_2 0.004629 0.000644 0.004236 0.001345 -0.001016 -0.000188 0.001075 0.000399 0.004233 0.004337 -0.001052 0.004815 -0.003174 -0.003744 -0.003657 -0.000080 -0.004917 0.004148 0.003241 -0.004856 -0.003023 -0.001869 -0.003622 0.003121 -0.001514 0.004242 0.000534 0.003629 0.003305 0.004209 -0.000315 0.000527 0.002961 -0.002139 -0.000012 0.000858 -0.004848 0.001035 -0.000821 0.003135 -0.001814 0.003935 0.000515 -0.003234 0.002859 0.001116 -0.004244 -0.000748 0.002035 0.003997 -0.004948 0.004839 -0.001212 0.004552 0.001137 0.003225 0.000826 0.001183 -0.002043 0.000960 0.002606 0.003533 0.002491 0.002101 0.003844 -0.001786 0.001770 -0.000323 -0.001252 -0.001113 -0.001201 -0.001846 0.001252 -0.000698 0.004739 0.001813 -0.002961 -0.000644 -0.001384 0.003240 0.003875 0.004257 0.001782 -0.002374 -0.002402 0.003797 0.000404 0.002983 0.000530 0.002531 0.000039 0.002867 0.000805 -0.000522 -0.001344 -0.004574 -0.001060 -0.004170 0.005013 -0.003285
sent_3 0.003133 0.003773 0.001882 0.000727 -0.003342 -0.000366 -0.001488 -0.002783 0.000921 -0.001839 0.004150 0.004101 -0.002398 -0.003850 -0.003058 -0.000016 0.002269 -0.002964 -0.002532 0.003495 -0.000801 0.001077 -0.002644 -0.003947 0.000148 -0.000282 -0.003487 0.001165 0.000425 0.001548 -0.003547 0.002523 -0.002804 0.000168 0.002865 -0.004762 -0.001774 0.003765 0.003396 0.000404 0.003657 0.004474 0.003195 0.003514 -0.003997 0.001528 0.002081 0.001125 0.003036 -0.004660 0.002678 0.002339 -0.002418 -0.002489 0.001288 -0.001558 0.002967 -0.000581 0.002823 0.004921 -0.001904 -0.003531 0.003966 0.000470 0.004773 0.001344 0.004907 0.000493 0.000270 -0.003673 -0.001486 -0.004704 -0.003363 0.002443 -0.004677 -0.001316 0.003614 0.001958 0.001935 -0.003011 -0.000580 0.000874 0.004931 -0.002969 -0.002484 -0.002305 0.002532 -0.000460 -0.004476 0.000177 -0.002858 0.002985 -0.001964 -0.004769 0.001004 0.003371 -0.001160 0.002496 0.000175 0.000392
sent_4 0.004388 0.003187 -0.004892 0.001992 -0.000263 0.004138 -0.002547 -0.002460 -0.004035 -0.000598 -0.003789 0.001220 0.002972 0.002038 0.002623 -0.001431 0.003334 -0.000723 0.003126 0.001264 -0.003678 -0.004184 -0.004872 -0.004140 -0.000523 -0.003802 -0.004546 0.002615 -0.000891 0.002236 -0.000639 -0.000625 -0.000355 -0.000108 0.002929 -0.000975 0.003919 -0.004603 0.002728 -0.003646 0.000980 -0.004659 0.000405 -0.005165 0.004481 0.004151 0.002959 0.004084 -0.003589 -0.003357 -0.003175 0.001219 0.004107 0.004715 0.001973 0.002127 0.004112 -0.000893 -0.002527 -0.003068 -0.003591 0.003020 -0.003565 -0.002446 0.003159 -0.001856 0.004795 -0.002333 0.000606 -0.002028 0.004242 -0.001274 -0.000698 0.000225 0.004351 -0.004474 0.002161 0.004243 -0.004789 0.000350 -0.001761 0.003625 0.000484 0.001871 -0.000467 0.001108 -0.001986 -0.004860 0.000680 -0.001759 0.000277 0.004064 -0.000512 -0.002749 -0.001339 0.004285 0.004299 0.003206 0.004217 -0.002745
sent_5 -0.004408 -0.002504 -0.002207 -0.003361 0.001164 -0.001343 0.003435 -0.003400 0.002369 -0.002457 0.000879 -0.001715 -0.004609 -0.002452 0.001580 0.000357 0.000133 -0.002862 0.000488 0.004908 0.002844 0.000979 0.004336 0.004218 0.000800 -0.004475 -0.003649 -0.004018 -0.000110 -0.001676 0.004409 -0.003544 0.004605 0.002859 0.003001 0.001522 0.001427 -0.000187 -0.004663 -0.001404 -0.000294 0.002619 -0.000068 -0.000967 -0.003597 -0.004746 0.002367 -0.001779 0.004660 -0.002465 -0.001888 0.000119 0.002511 -0.000397 -0.004112 -0.002084 0.000110 0.001823 0.002536 -0.003417 -0.004238 0.000232 0.003168 -0.004985 0.001811 0.001932 -0.000639 0.003946 0.001831 -0.005017 0.000124 0.003717 0.003330 0.001739 0.001711 0.001163 -0.002152 0.001165 0.001537 -0.001373 0.003413 -0.003099 0.002401 -0.002210 0.002580 -0.001013 0.003088 -0.001480 -0.002847 0.002730 -0.001572 0.002100 0.002895 -0.003033 -0.002979 -0.002971 -0.003713 -0.001644 -0.004727 -0.003984
sent_6 0.002081 0.003263 -0.003711 -0.001910 -0.003109 0.004759 0.002129 0.000654 -0.002468 0.003215 -0.001010 0.004299 0.002724 -0.000212 -0.003934 0.004491 -0.003474 -0.003161 -0.000534 -0.001070 -0.003040 0.001306 -0.002721 0.001594 0.002458 -0.003384 0.000640 0.001995 0.001247 0.001189 -0.001949 0.002893 0.004482 -0.000988 0.003247 -0.004441 0.003458 -0.003127 -0.001610 -0.002013 -0.004171 0.003629 -0.001650 0.000617 0.000495 -0.003840 -0.002449 -0.003988 0.000403 -0.002376 -0.001559 -0.003549 0.002600 -0.004090 0.004919 -0.002799 0.000637 -0.005151 0.002586 -0.003589 0.000569 0.002958 -0.003893 0.001199 -0.002583 0.002370 0.001861 -0.003234 0.002892 -0.004651 0.003009 0.000665 -0.000819 0.002107 0.002713 0.004812 -0.002281 -0.005335 0.004443 0.004043 0.002465 0.000540 0.002460 0.002612 -0.000795 0.003585 0.002575 0.000959 -0.001124 0.002590 -0.004784 0.003023 0.004082 -0.002413 -0.002999 -0.003349 -0.001597 0.004385 0.001133 -0.002285
sent_7 -0.003321 -0.001571 0.001542 -0.001408 -0.000367 -0.000217 0.003398 -0.000936 -0.002258 0.001895 -0.002966 -0.000058 -0.001335 0.001485 0.003418 -0.000926 0.002809 -0.000856 0.001569 -0.003956 -0.000140 0.003204 0.001343 0.002881 0.000157 -0.000708 0.002931 -0.004749 0.000365 0.004974 0.000265 -0.002635 0.003612 -0.002645 0.002721 -0.000166 0.005067 0.001238 0.002977 -0.004804 0.005208 -0.004778 -0.002307 0.004709 -0.004814 0.003136 0.004243 -0.000127 -0.001899 0.002735 -0.000431 -0.003236 0.004197 0.003770 0.000131 0.003631 -0.000997 0.001269 -0.000939 -0.000357 -0.003003 0.005061 -0.002422 -0.003353 -0.003479 -0.005264 0.002059 0.000567 0.002541 -0.000430 0.002316 0.002148 0.002883 -0.001099 0.001838 -0.003234 -0.001722 -0.003422 -0.000686 -0.001974 -0.000698 0.005583 -0.001305 0.004843 0.001660 -0.000209 0.003817 0.001171 -0.003009 0.003635 -0.000596 -0.001001 -0.001534 0.001955 -0.001588 0.002590 -0.001803 0.001160 0.000399 0.003576
sent_8 0.003859 -0.003100 0.000799 0.004048 -0.000453 0.004105 -0.002064 0.001012 0.001865 -0.002649 -0.004876 -0.000877 0.004423 -0.001473 0.002819 -0.003210 -0.001616 -0.003573 0.002128 0.001953 0.001915 -0.002617 0.001926 -0.002634 -0.000802 -0.001345 -0.001399 -0.004488 0.001348 0.002008 0.001101 0.001469 -0.003361 -0.003529 0.000121 0.003832 -0.003238 -0.000309 -0.000789 0.000008 -0.003444 -0.001571 -0.002461 0.003345 0.003051 -0.000692 0.001124 -0.003517 0.000126 -0.001986 0.003519 0.001737 0.001296 -0.003867 -0.000416 0.004833 0.004489 0.001383 -0.003530 0.001444 0.000888 -0.000230 -0.000805 0.001070 0.003545 0.002486 0.000704 0.004281 -0.004297 0.004886 -0.004497 -0.002927 -0.000710 -0.003938 0.001277 -0.004440 -0.002172 -0.004278 0.002047 0.001869 -0.001228 -0.003050 0.002506 -0.001625 0.003017 -0.000043 0.000306 -0.004771 0.001385 -0.001320 -0.002614 -0.000703 -0.001010 -0.000399 0.004893 -0.001463 0.002780 0.000464 0.004004 -0.001492
sent_9 -0.002500 0.004204 -0.004508 0.004550 0.000586 -0.001226 0.004979 -0.004462 0.000073 -0.004631 0.000681 -0.003148 0.001373 0.004866 0.003680 -0.000539 0.002061 0.002724 -0.000062 0.000221 -0.003410 -0.001443 -0.003555 0.002326 -0.000210 -0.000620 0.003803 0.000218 -0.000954 -0.002221 -0.004277 -0.000770 -0.004721 -0.002119 0.000135 0.004570 -0.003818 0.001741 -0.000058 0.002800 -0.003517 -0.004254 -0.001105 0.002975 -0.003068 0.002666 -0.002008 -0.002750 -0.004741 -0.001031 -0.001251 0.001668 -0.004299 -0.003506 -0.004818 -0.003859 0.001487 -0.001057 -0.001783 0.000535 0.004988 0.003419 0.001937 0.004287 -0.004587 -0.004362 -0.000280 -0.001524 0.004331 -0.000183 0.000306 0.003993 -0.000509 0.003766 -0.002406 -0.002248 -0.001707 0.000469 -0.002762 0.001839 -0.003534 -0.003899 0.003780 -0.002634 -0.001111 0.000891 0.000292 -0.004245 0.003647 0.004638 0.003151 -0.002098 0.000333 -0.001613 0.000660 0.004646 -0.001854 0.001778 -0.001649 0.002737
sent_10 -0.000988 0.005383 0.003220 0.003423 0.000189 -0.002349 -0.004232 -0.002465 -0.006374 0.002683 0.001003 0.000103 0.004074 0.001316 -0.005502 -0.004736 -0.003349 -0.002913 -0.004454 0.000221 0.001563 -0.001193 -0.000101 0.003986 0.000078 -0.006810 0.002401 0.000307 0.002102 0.006002 -0.004141 -0.001769 -0.004079 -0.001550 0.005546 -0.005665 0.001290 -0.003542 0.001643 0.004096 -0.003654 -0.001769 -0.004465 0.004528 0.004582 0.000937 0.006334 -0.000142 0.005428 -0.001517 -0.003651 0.005778 0.001727 -0.004966 0.004059 0.001790 0.000562 0.000677 -0.002065 0.000305 0.003848 -0.003226 -0.004840 0.005398 0.001373 -0.000753 -0.002658 -0.002009 0.003082 -0.002177 -0.005825 0.004442 -0.002724 0.003058 0.004661 -0.000101 0.001169 0.000090 0.002003 0.005723 -0.001547 0.006215 0.002106 -0.003776 -0.002190 0.004059 -0.001984 -0.003788 -0.004689 0.005581 0.001174 0.005794 -0.000733 0.000683 0.002948 -0.000281 -0.003724 0.004191 0.005833 0.000554
sent_11 -0.002749 0.002668 -0.004949 -0.001902 0.004550 0.000863 0.003598 0.000803 0.003048 0.004064 -0.001858 -0.003367 0.002358 -0.000309 -0.003601 0.000562 -0.004622 -0.003554 0.002850 -0.004963 -0.001738 -0.005146 0.004835 0.000588 -0.001813 0.003958 -0.000461 -0.000619 0.000435 -0.001911 -0.001655 -0.001253 -0.002608 0.000609 0.002245 -0.004565 0.004934 0.002779 0.003028 0.002712 -0.003880 -0.000573 -0.001099 0.001414 -0.000772 0.002140 0.001997 0.002261 0.001506 -0.003972 0.002544 0.002930 0.004137 -0.002794 -0.003100 -0.001403 -0.001694 0.002927 0.001517 0.002769 -0.000555 -0.003948 -0.003953 -0.000939 -0.002871 0.003051 0.001246 0.002147 -0.000026 -0.004608 -0.002956 -0.000387 -0.002950 -0.004587 0.002166 0.002117 -0.001557 0.003591 -0.000394 0.004170 0.001535 0.001279 -0.002624 0.000408 0.003871 -0.001384 0.003876 0.003944 -0.001982 0.002057 0.003730 -0.004025 0.003922 -0.003438 0.003858 0.001460 -0.001314 -0.003273 0.001475 0.003545
sent_12 0.003639 0.002133 0.004953 0.001538 -0.002823 -0.000272 -0.001482 0.004551 -0.002287 0.005184 -0.000204 -0.002930 -0.003357 -0.000696 -0.004197 0.000798 -0.001002 0.004408 0.004310 -0.003931 -0.000305 -0.001749 0.000890 0.003096 0.000117 -0.001889 -0.003076 0.003486 -0.005405 0.003978 -0.002999 0.002383 -0.001292 0.004392 -0.002784 -0.003818 0.004633 0.000790 -0.002619 -0.004598 -0.002341 -0.004446 -0.003919 0.003931 0.004015 0.001941 0.000544 0.004061 0.000622 -0.001779 -0.002880 0.004993 -0.001358 -0.000341 -0.002222 0.003758 -0.001426 -0.003101 0.002282 -0.003674 -0.003304 0.004226 0.001793 0.002112 -0.002475 0.000589 0.001192 -0.001853 -0.004777 0.003153 -0.001154 0.002961 -0.002345 0.000794 -0.000173 -0.001125 -0.003613 -0.002639 -0.003853 -0.000759 0.002759 0.002311 0.002530 -0.004892 0.002148 0.001792 -0.002420 -0.003357 -0.003669 0.004608 0.005066 0.004853 -0.001111 0.002691 0.001565 0.002386 0.000335 0.001927 0.003697 -0.003877
sent_13 0.000390 -0.001162 0.001050 0.004665 -0.000958 -0.001115 0.003014 0.001336 -0.001217 0.002025 -0.001056 -0.003615 -0.000353 -0.001477 -0.002899 0.004181 0.001855 0.000855 0.002452 0.000305 0.002180 0.004032 0.003707 -0.003214 -0.002312 -0.004531 0.004707 -0.002809 0.001504 -0.003979 -0.002863 0.000075 -0.003927 -0.001208 0.000569 -0.001746 0.000750 0.000420 -0.001218 0.002032 0.001899 0.001686 0.000374 -0.001498 0.001129 0.004341 0.001159 0.004984 -0.000446 0.002336 -0.004793 0.002802 0.000195 -0.005045 -0.002277 0.000284 0.002587 -0.004660 0.000523 0.002985 0.001643 0.004483 -0.004432 -0.002012 0.004182 0.002525 0.000962 0.003354 0.003964 0.004569 0.004878 -0.003520 -0.004236 -0.004280 -0.004765 0.004765 -0.004042 0.003460 0.001930 0.000186 -0.001452 -0.001161 -0.002326 0.004153 0.002337 -0.004392 -0.000289 -0.002198 -0.004876 0.004142 0.002778 -0.001616 0.003144 -0.001818 -0.001705 0.004100 0.004824 0.000369 0.004666 0.003916
sent_14 0.000458 -0.000856 0.002320 -0.000261 0.001217 0.005068 0.002890 -0.001906 -0.004529 -0.002996 0.000204 -0.000540 0.003358 0.004555 -0.003424 0.003308 0.004556 0.004230 -0.004683 -0.004602 -0.004644 -0.002603 -0.004412 -0.001987 -0.001365 0.004062 -0.000655 -0.002443 -0.000246 0.001787 -0.003819 0.002851 0.003523 0.003319 0.004387 -0.001563 -0.000270 -0.003908 -0.002972 0.004886 -0.001977 0.003708 0.003499 0.004216 -0.003417 0.003809 0.001719 -0.002538 -0.001111 -0.003673 -0.000704 -0.003888 -0.003426 -0.003222 0.002028 0.000673 0.003708 -0.002943 0.001422 -0.004835 0.000423 0.003889 0.004634 -0.004432 -0.002287 -0.003042 -0.004579 -0.004920 -0.000306 -0.005038 -0.002710 0.001562 -0.001958 -0.002321 0.001104 -0.001179 0.002134 0.000035 0.001527 -0.000924 -0.002061 -0.003062 0.004802 0.003006 0.004523 -0.002403 0.004529 0.004264 -0.002584 -0.001738 0.000556 -0.002878 -0.000364 -0.003343 0.005054 -0.000435 0.004845 0.001880 0.000250 0.004650
sent_15 -0.003810 0.001351 0.001355 -0.000691 -0.004352 -0.000391 -0.000135 0.002979 -0.002152 -0.001046 -0.002522 0.001642 0.004786 -0.003132 0.003275 -0.002412 -0.004469 -0.003412 0.004252 0.003908 -0.002297 0.004565 0.003365 -0.000514 -0.000464 0.001460 -0.003106 -0.004735 -0.002092 -0.005209 0.001553 0.000351 -0.001908 0.002916 -0.003781 -0.002304 -0.002342 -0.003000 -0.004065 0.003711 -0.004331 0.002105 -0.003642 -0.005160 0.000615 0.004170 0.003481 -0.001706 -0.004908 0.003217 0.002962 0.003573 0.001672 0.002984 0.003703 -0.000573 0.000621 0.000147 0.001783 0.002037 0.000513 0.003269 0.000058 0.003121 -0.002170 -0.003123 0.004587 0.002391 -0.002137 0.000874 0.004786 -0.004134 -0.004149 0.001256 -0.002792 0.002869 0.000671 0.001977 -0.004042 -0.004125 0.001164 -0.001066 -0.004260 -0.001342 0.001707 -0.003396 0.003978 0.004485 0.004689 0.002338 -0.000745 0.002228 -0.001869 -0.002008 0.000932 0.000994 0.003712 -0.002793 0.002642 0.004361
sent_16 -0.004567 -0.000038 0.001990 0.003671 -0.003107 0.003895 -0.001442 0.003911 -0.005188 -0.004039 0.004683 0.001427 -0.000488 -0.003300 0.001292 -0.005085 -0.001994 -0.002114 0.001160 0.001357 0.003798 0.003694 0.001820 0.000815 -0.000915 0.004234 -0.003923 0.003707 -0.002219 0.000994 0.002014 -0.002344 -0.003278 -0.000079 0.003311 0.001540 -0.003516 0.003973 -0.000489 0.004612 0.000607 -0.004585 -0.003403 0.003797 0.002228 0.003878 -0.001371 0.000513 0.001951 0.000719 -0.002692 -0.000362 -0.002568 0.003378 0.005147 -0.004162 0.002080 -0.001962 0.001356 -0.002749 0.001524 -0.001096 -0.002219 0.004587 0.004524 0.000917 -0.002881 0.004410 0.002071 0.002275 -0.003455 0.003408 -0.002550 0.001216 0.002357 0.002281 -0.001120 0.002327 0.004205 0.001259 -0.003948 -0.003200 -0.003626 -0.003348 -0.003575 0.003500 -0.004555 -0.002674 0.003504 0.005070 0.001021 0.005116 -0.004646 0.004534 -0.001380 0.002616 0.003286 0.004078 -0.000014 0.004235
sent_17 -0.002382 0.004362 0.001227 0.004881 -0.004673 0.002288 0.000645 -0.000072 -0.002474 -0.001734 -0.002506 -0.002778 0.003033 0.000019 -0.004191 0.002718 0.000316 0.002365 0.000164 -0.001011 0.004886 -0.004754 0.004361 0.004325 -0.001084 -0.002897 0.001153 -0.003236 0.002993 -0.002412 -0.002077 0.004182 0.004035 0.000353 0.003661 -0.001522 0.005005 -0.000696 -0.002102 -0.004555 0.004873 -0.000388 0.002305 0.001454 0.002255 -0.004494 0.004227 0.004271 0.000552 0.004616 -0.002187 0.001065 -0.001044 0.001268 -0.001944 0.003205 -0.004311 -0.004599 -0.004495 -0.003556 -0.001065 0.004565 -0.003908 0.001514 0.000255 -0.001497 -0.003025 -0.002805 -0.004596 0.002106 0.001496 -0.000538 0.002184 -0.003901 0.004415 0.003463 0.001576 -0.001247 -0.000826 -0.000146 0.004375 0.003670 -0.000210 0.000543 0.003774 0.004557 0.001386 0.002483 -0.001496 0.004205 0.003365 0.000566 0.003644 0.003511 0.003112 -0.003727 0.000378 0.004065 0.002739 -0.000796
sent_18 0.004825 -0.002083 -0.001619 0.004800 0.003306 0.003858 -0.004508 -0.001455 -0.002932 -0.001781 0.002293 0.002260 -0.000090 -0.001059 0.000618 0.000209 0.000346 0.000928 -0.001118 0.002469 -0.002206 0.000882 0.004797 -0.004566 0.002183 -0.004386 0.000369 0.000960 -0.002657 0.004255 0.001166 -0.002565 0.002657 -0.004032 0.000866 -0.004270 0.001013 -0.002417 0.001124 0.002343 0.000181 0.001328 0.002710 0.003037 0.001331 -0.000477 -0.000516 0.003998 0.002361 -0.003157 0.000376 0.004411 -0.003545 0.003109 0.003074 -0.000058 -0.004757 -0.003837 0.004175 -0.004692 -0.000833 0.001499 -0.003397 0.005210 -0.003443 0.000138 0.000945 -0.002703 -0.000341 -0.000436 0.002367 0.001653 -0.000177 0.001613 -0.000179 0.000446 0.001524 -0.003040 0.002961 0.001701 0.004938 -0.002187 -0.000121 0.003918 0.001272 0.002892 -0.000670 0.001772 0.004055 -0.002295 0.003332 0.004812 -0.004454 -0.003026 -0.003357 0.002209 -0.004090 0.005182 -0.000660 0.003978
sent_19 -0.002283 0.000427 0.004067 0.001587 0.000119 0.000646 0.000951 -0.001097 -0.004538 -0.003279 -0.004032 -0.003674 0.001756 0.004214 -0.001914 -0.005318 -0.001009 -0.000196 -0.000674 0.002498 0.005617 0.001811 0.002535 -0.000016 0.002307 -0.006480 0.003545 -0.004331 0.002932 0.004452 0.003462 -0.001614 -0.002643 -0.001379 0.004934 -0.001633 0.005456 -0.001330 0.000170 0.005440 0.002058 -0.005947 -0.002065 -0.001601 0.000471 -0.002240 -0.002523 0.002702 0.003001 0.002799 -0.004348 0.004088 0.003142 0.000922 -0.002478 -0.002581 -0.001092 -0.000910 0.000205 -0.000943 0.003949 0.004652 0.002264 0.005436 0.000878 0.003753 0.001020 0.001214 -0.002382 0.000697 -0.005764 -0.003260 -0.003497 0.001413 -0.002634 -0.001720 -0.004470 -0.002907 0.005347 0.001940 -0.003007 0.002075 0.005604 0.003738 -0.000617 0.000428 0.003068 -0.002792 -0.003414 -0.002513 0.003594 0.000524 0.001076 0.002090 0.004561 -0.001744 -0.002435 0.004696 -0.003562 0.004600
sent_20 0.000770 0.003754 0.001086 -0.002483 -0.002039 0.000329 0.004621 -0.003155 0.000099 -0.001562 0.002697 0.003029 -0.000754 -0.002959 -0.004329 -0.003014 -0.002276 0.000988 0.003731 -0.003718 0.004582 0.001832 0.002420 0.004829 -0.000839 0.000316 0.001792 0.000129 -0.002009 -0.003946 -0.002151 0.002689 0.001408 0.003013 0.000171 -0.002679 0.001280 -0.001960 -0.004705 0.004033 -0.000796 -0.000739 0.002413 0.004485 -0.004275 -0.003273 -0.001776 -0.002516 -0.000045 0.003245 0.003540 0.000958 -0.002598 -0.003135 0.002434 -0.002628 0.000395 0.002493 -0.002718 -0.003255 -0.004603 -0.003524 0.003514 -0.003954 -0.002764 -0.004672 0.001764 -0.002683 -0.000864 -0.003607 -0.001228 -0.000756 -0.000270 -0.000772 -0.003972 0.002726 -0.003628 -0.000757 -0.002280 -0.001990 0.001724 0.000178 -0.003099 -0.000309 -0.001605 0.002045 -0.002739 0.003450 0.000262 0.000006 -0.002463 -0.003138 -0.000282 0.004818 -0.003671 -0.002165 0.003006 0.001648 -0.002212 -0.001854
sent_21 -0.000801 0.001028 0.002193 0.003573 0.001811 -0.002630 0.004257 0.002812 -0.001926 -0.001950 0.003812 -0.003739 0.001335 -0.002223 0.003272 -0.001355 0.002334 -0.003076 -0.000186 0.003036 -0.001030 -0.003384 0.001490 0.002533 -0.002198 -0.000486 0.004004 0.003720 0.002072 0.000909 0.003174 0.004076 -0.004975 -0.001028 0.000614 0.002339 -0.004125 -0.001002 -0.002204 -0.000765 -0.000020 0.001600 -0.000038 0.001205 0.000824 -0.000717 -0.004950 -0.003055 -0.001798 -0.003530 0.000987 0.001115 0.000001 -0.001792 0.001533 -0.003097 -0.004941 0.002349 -0.000565 0.001978 -0.003150 -0.004374 -0.001219 0.001960 -0.003972 -0.003042 -0.000460 0.001211 0.002501 -0.003903 0.001246 -0.001126 0.001701 -0.002964 0.000279 -0.003278 -0.004813 -0.000130 -0.003158 0.001383 0.000366 0.002749 -0.001070 0.004895 0.000152 -0.000212 0.002494 0.000727 -0.001375 -0.000108 -0.003109 -0.001064 -0.004700 -0.000375 -0.002255 0.000267 -0.004707 0.000551 -0.002070 0.000775
sent_22 0.002273 -0.000609 0.001580 -0.002627 0.005005 -0.002645 0.004451 -0.002838 0.000030 0.003226 0.002177 0.001999 -0.000631 0.002558 0.004216 -0.000537 0.000274 -0.004304 -0.001106 -0.000328 0.003925 -0.003861 0.002313 0.000493 0.001041 -0.004679 -0.003458 -0.002149 -0.004905 0.001630 0.003678 0.000426 0.000418 0.001177 -0.002028 -0.001292 0.000726 0.003097 -0.002971 -0.001740 0.002400 -0.001553 -0.004498 -0.003469 -0.003066 -0.000041 0.001330 0.003786 0.003990 -0.001881 0.002523 -0.002198 -0.001300 -0.002085 -0.000922 -0.002865 -0.001823 -0.003745 0.004606 0.000074 0.004259 0.002452 -0.000431 0.002501 0.001255 -0.001947 0.000197 0.002123 -0.001892 -0.004855 -0.002260 0.002987 0.004313 0.001261 -0.003681 0.002609 0.000254 0.002582 0.003559 0.004471 0.001540 0.003520 0.002379 0.002282 0.003595 0.004166 0.004024 -0.001039 -0.004155 0.003295 0.000426 0.000371 0.003289 -0.004694 0.003740 -0.004642 0.001900 0.000809 0.001397 -0.001265
sent_23 -0.002322 0.000202 0.003758 0.000757 0.001649 -0.000682 0.004856 0.002342 -0.001372 0.001552 0.000426 0.003753 -0.002212 -0.003812 -0.003107 -0.000991 0.003510 -0.002161 0.001205 0.001208 -0.000991 -0.004625 0.002340 -0.001950 -0.001102 -0.001211 0.001759 -0.004101 0.000619 -0.005024 0.004696 0.000970 -0.001225 -0.003511 0.001916 0.004201 -0.001976 0.002687 -0.002161 0.004624 0.001901 0.001339 0.004350 -0.002480 0.004345 0.001842 0.002699 0.000730 0.003289 0.002102 -0.003678 0.001120 -0.002301 0.004085 -0.003174 -0.002182 -0.004483 -0.000611 0.000460 0.000783 0.004360 -0.001410 -0.000568 0.003584 0.000847 0.001542 -0.002345 -0.000184 0.001288 -0.003648 -0.004636 -0.003797 -0.000201 -0.004748 0.001326 -0.003879 -0.002474 -0.000559 -0.003891 -0.002163 -0.004841 0.004820 0.001152 -0.001305 -0.004721 -0.001097 -0.000467 0.004260 -0.002187 0.001292 0.001819 -0.003204 0.000268 0.002775 -0.003979 0.001011 -0.004712 -0.005036 -0.004294 -0.000236
sent_24 0.004271 -0.000995 -0.004285 0.003536 0.000193 -0.001819 0.004605 0.004402 -0.002383 -0.002999 0.000938 0.003449 -0.001687 0.000828 -0.003340 -0.003070 0.002608 -0.003506 -0.002334 0.001919 -0.004911 -0.004564 -0.002160 -0.001664 -0.001376 0.003137 -0.004648 -0.001344 0.001369 -0.003561 0.003585 0.001410 -0.003859 -0.002871 0.002401 -0.000974 -0.000181 0.003840 -0.003598 0.004646 -0.004629 -0.003974 -0.002742 0.003086 -0.000469 0.001560 -0.003322 -0.003403 0.000164 0.002374 -0.000315 0.003652 0.001639 -0.002491 -0.002588 -0.001286 0.002609 0.004463 0.003651 -0.002387 -0.000962 0.001033 0.000520 -0.001200 -0.004021 0.002146 -0.004064 0.003661 0.003679 0.002071 -0.000089 0.001983 -0.001083 0.003022 0.002821 -0.003475 -0.001838 -0.001556 -0.001373 0.000602 -0.004607 0.001538 -0.003044 -0.000815 -0.000530 -0.001609 -0.001198 -0.003198 -0.004282 0.000408 0.000904 -0.003544 -0.002771 -0.002143 0.003212 -0.003409 0.000520 0.000655 -0.001629 -0.001503
sent_25 0.004680 0.000879 0.001617 0.000051 0.001599 0.001106 -0.003477 -0.001807 -0.000833 -0.003532 -0.001537 -0.002621 0.003768 -0.001321 -0.002958 -0.001152 0.001742 -0.004574 -0.003178 0.001735 0.002840 0.000737 0.003982 -0.003123 0.002182 0.003702 -0.003702 -0.002833 0.000213 -0.001225 0.001978 -0.004300 -0.003285 0.002019 0.005128 0.003896 0.004479 -0.003755 -0.003788 -0.004118 0.000625 0.003426 -0.000107 0.002807 -0.003101 0.003557 -0.002783 -0.004116 -0.000514 0.000396 0.004426 -0.003731 -0.002224 -0.004049 -0.001023 -0.002193 -0.000071 -0.001849 0.004377 0.002696 0.003681 -0.003426 0.000452 -0.002445 0.003568 -0.005115 -0.003964 -0.001278 -0.001052 -0.002539 -0.004252 -0.003666 -0.001781 0.004504 -0.002734 0.002505 -0.002407 -0.004674 -0.004718 -0.002993 -0.000175 0.003117 0.002515 -0.001379 -0.000086 0.003820 0.003504 -0.001768 -0.005224 -0.004075 0.002462 -0.002008 -0.000018 -0.003094 0.003820 -0.000261 0.000358 -0.001733 0.000348 -0.004881
sent_26 -0.002227 -0.001512 -0.002160 -0.004140 0.000218 0.002885 0.004426 -0.000027 0.000938 -0.002091 -0.003508 -0.003681 0.002324 0.002345 -0.003206 -0.000864 0.000941 -0.003747 0.002854 0.001200 0.001152 0.002012 0.004872 0.000624 0.003644 -0.000813 0.001545 0.004253 0.001642 -0.001969 0.001199 -0.001487 -0.001776 0.001102 -0.003397 -0.000133 0.004456 -0.001161 -0.003110 -0.000312 0.003409 0.003427 0.003278 -0.004885 -0.002330 0.004999 -0.003803 -0.000099 0.002900 -0.003778 0.001624 -0.000119 -0.003057 0.003786 -0.003185 0.001391 0.002408 0.000627 0.001288 -0.003810 -0.001920 0.000870 -0.001045 0.001639 0.003520 -0.003098 0.004033 -0.001168 0.004431 0.001174 0.002901 0.000148 0.000311 -0.001724 -0.003706 -0.001162 -0.002850 -0.004671 -0.002251 -0.003194 0.003755 -0.004188 -0.003161 0.002040 0.004192 -0.002485 -0.004787 0.004605 0.001822 -0.001893 -0.000276 0.000993 -0.001261 0.003745 0.002262 0.004543 -0.001489 0.004372 -0.000209 0.001423
sent_27 0.002172 0.002954 -0.001319 -0.000812 0.003189 0.001935 0.004367 0.004787 -0.002912 -0.002765 0.002328 0.002350 0.000769 0.003729 -0.002356 -0.001403 -0.000049 -0.001655 0.000389 0.001967 -0.003094 0.000307 0.004733 -0.001825 -0.004681 0.003476 0.000247 -0.004171 0.004066 -0.001228 0.004209 -0.001232 -0.004274 -0.002346 -0.001803 0.002624 -0.003330 -0.000762 0.003963 0.000315 -0.004124 -0.004450 0.002338 0.004569 0.002731 0.002698 0.001462 0.002782 -0.004850 -0.002270 0.002041 0.003470 0.001842 -0.003139 0.004306 0.003881 -0.004063 -0.002766 -0.002221 0.002567 0.003494 0.000519 -0.002804 -0.001207 -0.003702 0.004336 0.002746 0.000057 -0.000186 -0.003978 -0.001458 -0.003843 0.002746 0.000647 -0.002931 -0.002664 -0.002351 -0.001681 -0.001256 -0.002312 0.001713 -0.004988 -0.001976 0.002483 0.004256 0.002505 -0.002671 -0.002610 -0.002896 0.003454 -0.002642 0.002422 -0.002428 -0.004754 0.001947 0.002516 -0.004256 -0.002058 0.004182 -0.003368
sent_28 -0.004094 0.000964 0.004345 -0.003635 0.000131 0.001876 -0.003293 -0.004883 0.003810 -0.004650 -0.002426 0.001546 -0.002106 -0.004908 0.000732 -0.001974 -0.003505 0.004684 -0.003341 0.002262 0.003931 0.003550 -0.003124 -0.002615 -0.004810 0.004272 0.003832 0.000939 -0.003946 -0.003215 0.000784 -0.002461 -0.001993 -0.003291 -0.003071 -0.000413 0.000124 0.000083 0.004921 -0.003675 0.002538 0.002901 0.000808 -0.000326 0.003959 0.003276 -0.004470 0.004632 -0.004895 0.000708 0.000728 0.003387 -0.001161 -0.004101 0.000867 -0.004740 -0.001391 0.004835 0.003698 -0.003536 0.002970 0.003121 0.004266 -0.002718 -0.000031 0.003245 0.001667 0.000928 0.001486 -0.002640 -0.004787 0.002387 -0.001738 -0.001233 0.001154 0.001559 -0.002985 0.003225 -0.001190 0.001350 0.004686 0.000682 -0.001400 0.001188 0.000038 -0.000412 0.002317 0.004243 -0.000219 -0.004093 0.000694 -0.002505 -0.004636 0.002893 -0.002244 0.002737 -0.000100 -0.001764 -0.001829 -0.004583
sent_29 0.000273 0.003688 -0.004158 -0.003712 0.000366 0.001502 0.002222 -0.002080 -0.004892 -0.000678 -0.002797 -0.005042 0.002079 0.004754 -0.001434 -0.002016 0.000413 0.003505 0.002877 0.001619 -0.000539 0.001419 -0.002741 -0.001771 0.002723 0.003961 -0.003047 -0.002176 -0.004904 -0.000668 -0.003069 0.001511 0.002124 -0.003801 -0.003865 0.003794 -0.000833 0.000276 0.004413 0.002733 -0.001799 -0.004293 0.000173 -0.001665 -0.004663 0.002684 -0.000855 0.000945 0.002766 0.004490 0.000809 -0.001562 -0.003922 -0.004456 -0.001910 0.001568 0.001790 -0.003150 -0.004268 -0.002122 0.000750 0.002802 0.000028 -0.001867 0.001165 -0.002565 0.001325 0.003242 0.001417 0.000356 -0.002077 0.004021 0.004946 0.002767 0.001024 -0.003359 -0.001867 -0.001184 -0.002117 -0.000111 0.001240 -0.002400 -0.002370 -0.003920 -0.001774 0.000416 0.000024 0.004986 0.004500 -0.000104 0.005018 -0.002763 0.000755 -0.000534 0.004970 0.003071 -0.002876 -0.000419 -0.003012 0.000260
sent_30 0.002962 -0.004446 -0.003046 0.004772 0.004694 0.000533 0.001564 -0.002399 0.004398 0.001829 0.001633 -0.004816 0.003612 0.002885 0.001709 0.002327 -0.003445 0.002034 -0.004065 0.001963 -0.004844 0.002513 -0.000044 -0.002868 0.002334 -0.002040 0.003737 -0.003307 0.004323 0.004825 -0.001944 0.003691 0.003451 -0.000806 -0.001139 -0.002389 0.005158 -0.002378 0.004175 -0.000679 0.004488 0.003247 -0.003598 0.000726 0.001663 -0.000971 -0.004770 -0.001576 0.003578 -0.004449 -0.004032 0.002136 0.000195 -0.000103 -0.001282 0.000986 0.003445 -0.002324 0.003509 -0.000840 0.000058 0.002361 -0.002519 0.004334 0.002039 0.001088 -0.002268 0.001959 -0.002433 0.002928 -0.005030 -0.003273 0.000625 0.002123 -0.000005 0.003815 0.004795 -0.000304 0.002741 0.000150 0.001707 -0.002432 -0.003776 0.004811 0.003190 -0.001889 0.000972 -0.001183 -0.003484 -0.000583 -0.002006 -0.004778 -0.000982 0.004138 0.003473 0.000605 -0.001822 -0.002562 0.004668 0.000656
sent_31 -0.002954 -0.002361 0.004369 -0.002559 -0.003658 -0.003614 0.003097 0.001827 -0.000411 0.003186 0.000189 -0.000997 -0.003803 0.004116 -0.002153 0.001329 0.004717 -0.003186 0.004499 0.001437 -0.003639 0.002400 0.004495 0.000910 0.001749 -0.004876 0.005046 -0.001967 -0.004645 0.002859 0.004622 0.002260 -0.005145 -0.004365 0.000716 -0.001430 0.003579 0.003938 0.004695 0.002235 0.003606 -0.001692 -0.004100 0.003281 -0.001907 -0.000683 0.001599 0.001108 -0.000718 -0.001015 -0.003966 0.000337 -0.002726 0.002202 0.001385 -0.004444 0.004928 0.002683 -0.002826 -0.004437 0.000427 -0.001329 0.000258 0.001712 0.003114 -0.004895 0.001940 -0.001917 0.005115 0.003332 0.000604 0.001180 -0.002901 -0.002715 -0.003417 -0.000946 -0.003903 0.000535 0.001431 -0.003272 -0.001590 -0.004110 0.000311 0.001437 0.001310 0.003260 -0.002475 0.001050 -0.002162 -0.003663 -0.001723 -0.004428 0.005099 0.001927 -0.003777 0.002562 -0.001399 0.003831 0.000215 0.003589
