34 100
sent_0 -0.000497 0.002425 -0.004783 -0.001560 -0.003296 -0.003963 -0.002892 -0.001709 -0.001494 0.000471 -0.000845 0.002007 -0.002523 0.004000 -0.004701 0.001366 -0.000979 0.000256 -0.003624 -0.003151 0.003333 0.003934 -0.001609 0.002159 0.003706 0.003428 -0.004465 -0.004932 -0.003621 0.004079 -0.003912 -0.000584 0.004462 0.000251 0.002120 -0.001950 0.001827 0.003289 -0.005408 0.002742 0.004662 0.002147 -0.002732 0.003004 -0.003661 -0.000428 0.004460 -0.001918 -0.001787 -0.003861 -0.004889 0.002090 -0.003110 -0.002690 0.000041 -0.004436 0.000730 -0.003947 0.000883 0.001637 -0.003519 -0.000514 0.001621 -0.000312 -0.004440 0.000043 0.001376 0.000186 0.004197 0.000607 0.003562 -0.003274 -0.003448 0.002985 -0.000751 -0.003330 0.004175 -0.001523 0.002670 0.002970 0.003932 0.001651 0.002781 -0.001563 -0.001928 0.004711 -0.000606 0.004423 0.001410 0.001810 -0.003681 0.004776 -0.000387 0.000599 -0.000353 -0.003159 0.004382 0.001107 -0.004412 0.001047
sent_1 -0.001758 0.000202 0.003788 -0.001532 0.004084 0.001189 -0.004857 0.004309 0.001993 0.004962 -0.003228 -0.003634 0.004235 0.001937 -0.004280 0.002590 0.002554 0.004252 0.002113 -0.003723 -0.004887 -0.004587 -0.004785 -0.002585 0.003595 0.000495 0.000559 0.003509 -0.003732 -0.002248 0.000851 0.004628 0.000593 -0.004765 0.002919 -0.002631 0.003020 -0.001123 0.003713 0.002444 0.000531 -0.003568 -0.004335 -0.003813 -0.004607 -0.003892 -0.002834 0.002057 0.000521 -0.004880 -0.004224 0.004585 0.000724 -0.002937 -0.002464 0.002400 -0.002994 0.000916 0.004722 0.003526 -0.002668 -0.000156 0.001268 0.003159 -0.003446 -0.004761 -0.004239 -0.000125 0.001142 0.000701 -0.001738 0.004854 0.000771 -0.001150 0.000438 0.002436 0.001690 -0.002312 -0.004360 -0.001396 0.001251 -0.002995 0.002456 -0.004313 -0.002455 0.002887 -0.003090 0.001396 0.000295 0.004119 -0.002419 -0.004384 0.002303 0.002703 0.003955 0.004410 -0.004880 -0.002740 0.001074 0.004485
sent_2 0.004301 0.000487 0.003784 0.001065 -0.001089 -0.000384 0.001063 0.000457 0.004538 0.004204 -0.000916 0.004531 -0.003549 -0.003699 -0.003523 0.000281 -0.004749 0.004664 0.003226 -0.004795 -0.003573 -0.001202 -0.004011 0.003024 -0.001569 0.004738 0.001030 0.004134 0.003599 0.003838 -0.000533 0.000187 0.002945 -0.001955 -0.000349 0.001099 -0.004945 0.000909 -0.000369 0.003018 -0.001940 0.004160 0.001019 -0.003420 0.002708 0.001250 -0.004772 -0.000955 0.001476 0.004230 -0.004991 0.004502 -0.001077 0.004849 0.000991 0.003066 0.000881 0.001557 -0.002114 0.001086 0.002391 0.003361 0.002725 0.001571 0.003559 -0.001623 0.001890 -0.000545 -0.000790 -0.000908 -0.000575 -0.001896 0.001113 -0.000472 0.004537 0.001834 -0.002984 -0.000458 -0.001696 0.002738 0.003653 0.003776 0.001395 -0.002209 -0.002711 0.003046 0.000207 0.003056 0.000888 0.001988 0.000137 0.002550 0.000694 -0.000444 -0.002001 -0.004003 -0.001315 -0.004509 0.004514 -0.003166
sent_3 0.002870 0.003920 0.001718 0.000718 -0.003420 -0.000624 -0.001331 -0.002787 0.001087 -0.001713 0.004145 0.003805 -0.002526 -0.003819 -0.003290 0.000223 0.002121 -0.002608 -0.002536 0.003353 -0.000991 0.001150 -0.002686 -0.003588 -0.000030 -0.000156 -0.003057 0.001360 0.000793 0.001273 -0.003838 0.002378 -0.002814 0.000356 0.002733 -0.004724 -0.001726 0.003643 0.003498 0.000322 0.003384 0.004627 0.003406 0.003445 -0.003825 0.001525 0.001989 0.001079 0.002893 -0.004277 0.002502 0.002365 -0.002295 -0.002469 0.001050 -0.001459 0.002884 -0.000373 0.002555 0.004914 -0.001820 -0.003521 0.003912 0.000258 0.004633 0.001422 0.004774 0.000279 0.000424 -0.003574 -0.001273 -0.004577 -0.003378 0.002465 -0.004492 -0.001086 0.003497 0.002112 0.001668 -0.003058 -0.000554 0.000907 0.004691 -0.003036 -0.002483 -0.002565 0.002474 -0.000407 -0.004509 0.000221 -0.002529 0.002819 -0.001748 -0.004677 0.000832 0.003402 -0.001384 0.002249 0.000215 0.000263
sent_4 0.004739 0.003001 -0.004919 0.001819 -0.000122 0.004240 -0.002633 -0.002522 -0.003893 -0.000580 -0.003739 0.001553 0.002867 0.002100 0.002924 -0.001538 0.003466 -0.000839 0.003115 0.001298 -0.003795 -0.004186 -0.005298 -0.004526 -0.000440 -0.003673 -0.004850 0.002802 -0.001077 0.002419 -0.000486 -0.000658 -0.000436 -0.000209 0.002811 -0.000790 0.003666 -0.004427 0.002893 -0.003641 0.001046 -0.004761 0.000325 -0.005387 0.004384 0.004325 0.002748 0.004050 -0.003583 -0.003566 -0.003068 0.000982 0.004058 0.004787 0.002084 0.002041 0.004456 -0.000893 -0.002371 -0.002934 -0.003445 0.002985 -0.003364 -0.002467 0.003486 -0.001809 0.004965 -0.002201 0.000621 -0.002076 0.004104 -0.001337 -0.000647 0.000374 0.004180 -0.004667 0.002263 0.004325 -0.004641 0.000394 -0.002023 0.003520 0.000675 0.001835 -0.000672 0.001123 -0.002081 -0.005117 0.000753 -0.001985 0.000036 0.004084 -0.000585 -0.002930 -0.001318 0.004343 0.004536 0.003161 0.004216 -0.002863
sent_5 -0.003791 -0.002154 -0.001585 -0.002855 0.001395 -0.000758 0.003448 -0.003490 0.001355 -0.002226 0.000440 -0.001219 -0.003830 -0.002218 0.001408 -0.000461 0.000057 -0.003834 0.000681 0.004605 0.003842 -0.000173 0.005035 0.004285 0.001131 -0.005559 -0.004594 -0.004969 -0.000963 -0.000647 0.004927 -0.002981 0.004772 0.002319 0.003939 0.000864 0.002197 -0.000053 -0.005422 -0.001201 0.000262 0.001607 -0.001207 -0.000513 -0.003515 -0.004915 0.003294 -0.001202 0.005468 -0.003122 -0.002045 0.000774 0.002445 -0.000729 -0.003719 -0.001973 -0.000138 0.000981 0.002827 -0.003921 -0.004234 0.000792 0.002542 -0.003979 0.001873 0.001402 -0.000653 0.004260 0.001192 -0.005495 -0.000806 0.003865 0.003512 0.001371 0.002086 0.000827 -0.002215 0.000612 0.002082 -0.000382 0.003796 -0.002020 0.003098 -0.002069 0.003069 0.000638 0.003388 -0.001607 -0.003444 0.003697 -0.001786 0.002768 0.002901 -0.003002 -0.001934 -0.003736 -0.003206 -0.000603 -0.004054 -0.003861
sent_6 0.001753 0.003655 -0.004318 -0.002189 -0.002487 0.003830 0.002775 0.000049 -0.002250 0.003785 -0.000879 0.004174 0.002571 0.000467 -0.003923 0.004731 -0.003641 -0.003211 -0.000849 -0.001334 -0.003130 0.001150 -0.003006 0.001994 0.002470 -0.003617 0.000978 0.001996 0.001280 0.000998 -0.002179 0.002434 0.004302 -0.000982 0.003189 -0.004484 0.003438 -0.002871 -0.001630 -0.001649 -0.004279 0.003689 -0.002015 -0.000168 0.000227 -0.003560 -0.002379 -0.003764 0.000463 -0.002339 -0.002101 -0.003466 0.002672 -0.004498 0.004431 -0.003448 0.000591 -0.005253 0.002727 -0.003118 0.001414 0.003095 -0.004136 0.001322 -0.002682 0.002217 0.001798 -0.003197 0.003744 -0.005223 0.003243 0.001054 -0.000699 0.002534 0.002574 0.005275 -0.002241 -0.004509 0.004499 0.004850 0.002406 0.000978 0.002522 0.002710 -0.000890 0.003759 0.002807 0.000915 -0.001443 0.003188 -0.004449 0.002875 0.004862 -0.003034 -0.002986 -0.003542 -0.001697 0.003981 0.001191 -0.002218
sent_7 -0.003758 -0.001919 0.001170 -0.001498 -0.000490 -0.000581 0.003408 -0.000693 -0.001577 0.001855 -0.002977 -0.000594 -0.001692 0.001356 0.003598 -0.000362 0.002750 -0.000271 0.001637 -0.003805 -0.000549 0.003766 0.001226 0.002938 -0.000051 -0.000186 0.003571 -0.004463 0.000851 0.004261 0.000056 -0.002948 0.003499 -0.002477 0.002054 0.000472 0.004592 0.001218 0.003204 -0.005013 0.004834 -0.004271 -0.001839 0.004375 -0.004631 0.003152 0.003786 -0.000432 -0.002426 0.003225 -0.000485 -0.003497 0.004241 0.003886 -0.000346 0.003720 -0.000971 0.001620 -0.001235 -0.000030 -0.002882 0.004936 -0.002290 -0.003787 -0.003549 -0.004873 0.001931 0.000580 0.002820 0.000216 0.002913 0.002055 0.002842 -0.001133 0.001730 -0.003013 -0.001859 -0.003248 -0.001029 -0.002400 -0.000801 0.004887 -0.001764 0.004721 0.001568 -0.001059 0.003603 0.001185 -0.002550 0.003291 -0.000364 -0.001442 -0.001384 0.002064 -0.002116 0.002922 -0.002042 0.000420 0.000139 0.003471
sent_8 0.004231 -0.002961 0.001157 0.004345 -0.000464 0.004531 -0.002151 0.000996 0.001392 -0.002716 -0.004968 -0.000601 0.004795 -0.001439 0.002797 -0.003557 -0.001608 -0.003864 0.002182 0.001901 0.002225 -0.003118 0.002072 -0.002709 -0.000725 -0.001697 -0.001873 -0.004722 0.000994 0.002429 0.001262 0.001787 -0.003327 -0.003649 0.000443 0.003635 -0.003117 -0.000350 -0.001110 0.000098 -0.003329 -0.001913 -0.002793 0.003567 0.003213 -0.000694 0.001423 -0.003335 0.000411 -0.002267 0.003538 0.001926 0.001115 -0.003931 -0.000115 0.004935 0.004512 0.000982 -0.003456 0.001109 0.000942 0.000018 -0.000933 0.001515 0.003699 0.002266 0.000665 0.004292 -0.004712 0.004722 -0.004950 -0.002875 -0.000673 -0.004067 0.001442 -0.004601 -0.002134 -0.004493 0.002249 0.002174 -0.001150 -0.002768 0.002856 -0.001657 0.003205 0.000590 0.000367 -0.004886 0.001262 -0.001050 -0.002686 -0.000355 -0.001129 -0.000391 0.005350 -0.001737 0.003102 0.000966 0.004347 -0.001503
sent_9 -0.002604 0.003609 -0.005058 0.003822 0.000718 -0.001611 0.004894 -0.004372 0.000760 -0.004752 0.001123 -0.003170 0.000718 0.004634 0.004246 -0.000321 0.002143 0.002869 -0.000117 0.000566 -0.004126 -0.000389 -0.004064 0.001928 -0.000290 0.000166 0.004031 0.000912 -0.000791 -0.002600 -0.004261 -0.001324 -0.004965 -0.001763 -0.000649 0.004959 -0.004419 0.001703 0.000455 0.002730 -0.003957 -0.003707 -0.000634 0.002705 -0.003396 0.002952 -0.002773 -0.003356 -0.005284 -0.001077 -0.000750 0.001057 -0.004061 -0.003347 -0.004745 -0.004162 0.001904 -0.000240 -0.001589 0.000960 0.004659 0.002681 0.002479 0.003383 -0.004678 -0.003967 0.000090 -0.001400 0.004915 -0.000084 0.000907 0.003849 -0.000670 0.004182 -0.002972 -0.002357 -0.001741 0.000824 -0.002949 0.001184 -0.003922 -0.004742 0.003220 -0.002530 -0.001517 -0.000339 0.000069 -0.004316 0.004089 0.003639 0.002817 -0.002468 -0.000052 -0.001866 -0.000224 0.005269 -0.002001 0.001070 -0.002314 0.002657
sent_10 -0.001762 0.003815 0.002461 0.002529 -0.000292 -0.002937 -0.004617 -0.001766 -0.004526 0.001917 0.001752 -0.000702 0.002587 0.000327 -0.004534 -0.003616 -0.003037 -0.001611 -0.004487 0.001104 0.000034 0.001313 -0.000742 0.003405 -0.000458 -0.004744 0.003765 0.001649 0.003259 0.004465 -0.004479 -0.002715 -0.004386 -0.000752 0.003544 -0.004136 -0.000330 -0.003738 0.002825 0.003392 -0.004583 -0.000068 -0.002525 0.004480 0.004381 0.001157 0.004633 -0.001607 0.003915 -0.000651 -0.002576 0.004330 0.001873 -0.004306 0.003698 0.001985 0.001084 0.002430 -0.002436 0.001075 0.003094 -0.004553 -0.003614 0.003314 0.001181 0.000369 -0.002467 -0.002034 0.003786 -0.000756 -0.004280 0.003935 -0.002980 0.003311 0.003734 -0.000148 0.000999 0.000309 0.001225 0.003439 -0.002225 0.003728 0.000614 -0.003834 -0.002792 0.000795 -0.002632 -0.003684 -0.003324 0.003303 0.000981 0.004577 -0.001591 0.000937 0.000882 0.001249 -0.004450 0.002411 0.004380 0.000350
sent_11 -0.002946 0.002510 -0.005170 -0.001839 0.004418 0.000651 0.003827 0.000877 0.003403 0.003938 -0.001657 -0.003632 0.002162 -0.000460 -0.003472 0.000895 -0.004721 -0.003203 0.002800 -0.004887 -0.002097 -0.004873 0.004703 0.000799 -0.002156 0.004367 -0.000033 -0.000359 0.000820 -0.002412 -0.001967 -0.001418 -0.002805 0.000898 0.001755 -0.004067 0.004315 0.002680 0.002971 0.002655 -0.004493 -0.000087 -0.000742 0.001451 -0.000513 0.002327 0.001734 0.001808 0.001162 -0.003625 0.002640 0.002653 0.004013 -0.002929 -0.003264 -0.001327 -0.001468 0.003179 0.001192 0.002809 -0.000312 -0.004070 -0.003843 -0.001309 -0.002865 0.003238 0.001029 0.002060 0.000183 -0.004317 -0.002684 -0.000282 -0.002979 -0.004597 0.002201 0.002289 -0.001735 0.003791 -0.000632 0.003987 0.001356 0.000780 -0.002949 0.000235 0.003916 -0.001989 0.003753 0.003852 -0.001740 0.001937 0.003918 -0.004288 0.003956 -0.003482 0.003527 0.001568 -0.001317 -0.003717 0.001498 0.003308
sent_12 0.003509 0.001419 0.004815 0.001156 -0.002956 -0.000457 -0.001604 0.004856 -0.001538 0.004941 0.000102 -0.003068 -0.003943 -0.001211 -0.003766 0.001079 -0.000882 0.004626 0.004320 -0.003578 -0.000768 -0.000880 0.000738 0.002797 -0.000086 -0.001131 -0.002743 0.003861 -0.005054 0.003524 -0.002987 0.002097 -0.001462 0.004613 -0.003522 -0.003244 0.003954 0.000865 -0.002211 -0.004895 -0.002653 -0.003827 -0.003310 0.004077 0.003866 0.002024 -0.000013 0.003435 0.000226 -0.001578 -0.002268 0.004417 -0.001280 -0.000210 -0.002295 0.003903 -0.001145 -0.002374 0.002226 -0.003299 -0.003635 0.003604 0.002280 0.001308 -0.002417 0.001044 0.001311 -0.001663 -0.004611 0.003643 -0.000793 0.002724 -0.002386 0.000803 -0.000567 -0.001267 -0.003719 -0.002664 -0.004021 -0.001596 0.002473 0.001442 0.002029 -0.004954 0.001970 0.000597 -0.002601 -0.003379 -0.003308 0.003777 0.004803 0.004385 -0.001513 0.002737 0.000898 0.002867 0.000113 0.001251 0.003214 -0.004032
sent_13 0.000636 -0.000472 0.001263 0.005106 -0.000817 -0.000920 0.003237 0.001018 -0.001839 0.002270 -0.001299 -0.003365 0.000237 -0.001059 -0.003304 0.003893 0.001712 0.000544 0.002409 -0.000025 0.002617 0.003004 0.003786 -0.002944 -0.002211 -0.005229 0.004301 -0.003195 0.001204 -0.003594 -0.002894 0.000437 -0.003881 -0.001446 0.001253 -0.002181 0.001152 0.000465 -0.001674 0.002366 0.002067 0.001180 -0.000235 -0.001610 0.001341 0.004326 0.001731 0.005499 0.000051 0.002128 -0.005299 0.003327 0.000018 -0.005328 -0.002232 0.000193 0.002475 -0.005372 0.000542 0.002698 0.002189 0.005057 -0.004868 -0.001185 0.004349 0.002123 0.000769 0.003254 0.003744 0.004065 0.004322 -0.003277 -0.004156 -0.004343 -0.004352 0.004916 -0.003949 0.003534 0.002145 0.001088 -0.001274 -0.000336 -0.001736 0.004045 0.002538 -0.003221 -0.000081 -0.002285 -0.005310 0.005059 0.003002 -0.001205 0.003604 -0.001981 -0.000913 0.003522 0.005124 0.000944 0.005308 0.003926
sent_14 0.000212 -0.001179 0.002146 -0.000378 0.001080 0.004937 0.002794 -0.001708 -0.004234 -0.003119 0.000226 -0.000818 0.003088 0.004403 -0.003261 0.003555 0.004580 0.004559 -0.004609 -0.004481 -0.004855 -0.002032 -0.004381 -0.002001 -0.001430 0.004396 -0.000278 -0.002297 -0.000031 0.001497 -0.003875 0.002633 0.003554 0.003428 0.004001 -0.001260 -0.000443 -0.004002 -0.002824 0.004713 -0.002098 0.003963 0.003825 0.004226 -0.003411 0.003789 0.001426 -0.002784 -0.001487 -0.003411 -0.000618 -0.004096 -0.003360 -0.003038 0.001909 0.000746 0.003675 -0.002663 0.001292 -0.004748 0.000197 0.003748 0.004761 -0.004807 -0.002487 -0.002851 -0.004550 -0.004934 -0.000157 -0.004623 -0.002273 0.001452 -0.002014 -0.002333 0.000966 -0.001183 0.002023 -0.000040 0.001338 -0.001357 -0.002081 -0.003515 0.004432 0.003083 0.004452 -0.002973 0.004374 0.004354 -0.002246 -0.002126 0.000576 -0.003094 -0.000523 -0.003150 0.004578 -0.000144 0.004682 0.001560 -0.000071 0.004678
sent_15 -0.003365 0.002467 0.001711 -0.000387 -0.003895 -0.000432 0.000380 0.002266 -0.002884 -0.000368 -0.002759 0.002201 0.005413 -0.002401 0.002596 -0.002887 -0.004598 -0.004046 0.004023 0.003274 -0.001612 0.002896 0.003289 -0.000082 -0.000282 0.000362 -0.003757 -0.005237 -0.002490 -0.004497 0.001551 0.000816 -0.001833 0.002553 -0.002684 -0.003176 -0.001537 -0.002663 -0.004439 0.004091 -0.003805 0.001280 -0.004599 -0.005480 0.000590 0.004147 0.004374 -0.000751 -0.003876 0.002910 0.002283 0.004257 0.001601 0.002527 0.003640 -0.000767 0.000450 -0.000701 0.001965 0.001880 0.001387 0.003974 -0.000496 0.004186 -0.001760 -0.003757 0.004402 0.002293 -0.002349 -0.000242 0.003783 -0.003696 -0.003838 0.001321 -0.002283 0.003126 0.000926 0.002312 -0.003641 -0.002699 0.001354 0.000615 -0.003287 -0.001457 0.001899 -0.001647 0.004445 0.004325 0.003549 0.003733 -0.000459 0.002698 -0.000978 -0.002448 0.002234 0.000026 0.003983 -0.002051 0.003591 0.004251
sent_16 -0.004991 0.000131 0.001515 0.003710 -0.003041 0.003483 -0.001100 0.003698 -0.004881 -0.004002 0.004706 0.001073 -0.000555 -0.002991 0.001352 -0.004600 -0.001986 -0.001767 0.000995 0.001341 0.003579 0.003740 0.001554 0.001011 -0.001055 0.004379 -0.003467 0.003806 -0.001898 0.000453 0.001687 -0.002543 -0.003380 -0.000000 0.003111 0.001914 -0.003805 0.004055 -0.000444 0.004659 0.000471 -0.004280 -0.003219 0.003287 0.002250 0.004011 -0.001492 0.000507 0.001639 0.000990 -0.003055 -0.000518 -0.002671 0.003249 0.004691 -0.004434 0.002112 -0.002074 0.001147 -0.002467 0.002070 -0.000926 -0.002304 0.004529 0.004537 0.000968 -0.003071 0.004319 0.002537 0.002336 -0.003037 0.003493 -0.002524 0.001311 0.002327 0.002642 -0.001062 0.002827 0.004068 0.001418 -0.004065 -0.003398 -0.003698 -0.003375 -0.003622 0.003267 -0.004508 -0.002676 0.003649 0.005273 0.001333 0.004849 -0.004141 0.004311 -0.001521 0.002689 0.003252 0.003696 -0.000050 0.004270
sent_17 -0.002640 0.005023 0.000815 0.005351 -0.004379 0.001764 0.001353 -0.000575 -0.002463 -0.001449 -0.002558 -0.003080 0.003384 0.000663 -0.004372 0.003063 0.000016 0.002604 -0.000096 -0.001265 0.004866 -0.005586 0.004171 0.004967 -0.001362 -0.003240 0.001506 -0.003337 0.003254 -0.002904 -0.002542 0.004124 0.003787 0.000408 0.003663 -0.001255 0.004652 -0.000664 -0.002573 -0.004165 0.004357 -0.000267 0.002041 0.000743 0.002712 -0.004272 0.004465 0.004494 0.000585 0.004960 -0.002920 0.001335 -0.001360 0.000750 -0.002514 0.002917 -0.004300 -0.005124 -0.004863 -0.003507 0.000275 0.005160 -0.004360 0.002060 0.000413 -0.001702 -0.003586 -0.003000 -0.004235 0.001863 0.001500 -0.000044 0.002342 -0.003808 0.004798 0.004130 0.001582 -0.000479 -0.000923 0.000876 0.004364 0.003989 0.000008 0.000281 0.004009 0.005067 0.001541 0.002286 -0.001629 0.005194 0.004105 0.000513 0.004640 0.003024 0.003572 -0.004261 0.000572 0.003841 0.003390 -0.000981
sent_18 0.004740 -0.001911 -0.001807 0.004894 0.003326 0.003803 -0.004458 -0.001603 -0.002824 -0.001758 0.002194 0.002211 0.000011 -0.000806 0.000659 0.000416 0.000361 0.001083 -0.001189 0.002461 -0.002262 0.000729 0.004500 -0.004637 0.002202 -0.004371 0.000398 0.001002 -0.002595 0.004084 0.001038 -0.002568 0.002612 -0.004101 0.000860 -0.004064 0.000842 -0.002310 0.001163 0.002433 0.000249 0.001386 0.002711 0.002562 0.001408 -0.000390 -0.000553 0.004152 0.002257 -0.003123 0.000062 0.004385 -0.003690 0.003111 0.002872 -0.000234 -0.004661 -0.004128 0.004104 -0.004508 -0.000367 0.001742 -0.003437 0.005441 -0.003213 0.000157 0.000896 -0.002735 -0.000226 -0.000413 0.002455 0.001598 -0.000187 0.001675 -0.000182 0.000615 0.001687 -0.002752 0.002992 0.001920 0.004849 -0.002246 0.000086 0.003824 0.001175 0.003020 -0.000653 0.001705 0.004194 -0.002134 0.003463 0.004811 -0.004105 -0.003192 -0.003235 0.002199 -0.003951 0.005083 -0.000563 0.004015
sent_19 -0.003053 -0.000641 0.003331 0.000909 -0.000213 -0.000022 0.000841 -0.000679 -0.002935 -0.003830 -0.003380 -0.004437 0.000545 0.003537 -0.001266 -0.004245 -0.000781 0.000996 -0.000813 0.003158 0.004291 0.003665 0.001909 -0.000328 0.001772 -0.004816 0.004832 -0.003178 0.004062 0.002975 0.003012 -0.002410 -0.002954 -0.000679 0.003323 -0.000369 0.004098 -0.001446 0.001173 0.004923 0.001216 -0.004464 -0.000397 -0.001828 0.000343 -0.002038 -0.003891 0.001598 0.001798 0.003661 -0.003632 0.002944 0.003221 0.001367 -0.002996 -0.002489 -0.000696 0.000493 -0.000191 -0.000238 0.003636 0.003642 0.003215 0.003773 0.000775 0.004660 0.001028 0.001088 -0.001686 0.001751 -0.004489 -0.003561 -0.003664 0.001666 -0.003314 -0.001538 -0.004562 -0.002472 0.004637 0.000211 -0.003595 0.000136 0.004414 0.003604 -0.001104 -0.002245 0.002599 -0.002709 -0.002416 -0.004183 0.003672 -0.000586 0.000673 0.002171 0.002958 -0.000560 -0.003118 0.003126 -0.004653 0.004388
sent_20 0.001091 0.004037 0.000987 -0.002397 -0.001755 0.000296 0.004922 -0.003469 0.000014 -0.001329 0.002666 0.003381 -0.000498 -0.002624 -0.004201 -0.003161 -0.002360 0.000583 0.003639 -0.003850 0.004688 0.001221 0.002081 0.004762 -0.000824 0.000089 0.001361 0.000022 -0.002266 -0.003763 -0.002134 0.002791 0.001181 0.002866 0.000331 -0.002617 0.001028 -0.001687 -0.004946 0.004313 -0.000862 -0.000909 0.001910 0.004077 -0.004210 -0.002983 -0.001593 -0.002383 0.000186 0.002920 0.003332 0.000999 -0.002754 -0.003491 0.002440 -0.002923 0.000748 0.002080 -0.002608 -0.003093 -0.003887 -0.003282 0.003362 -0.003525 -0.002323 -0.004801 0.001771 -0.002492 -0.000762 -0.004023 -0.001594 -0.000656 -0.000204 -0.000676 -0.003924 0.002775 -0.003539 -0.000378 -0.002010 -0.001230 0.001538 0.000508 -0.002637 -0.000451 -0.001599 0.002621 -0.002586 0.003136 0.000051 0.000518 -0.002531 -0.002959 0.000115 0.004323 -0.003187 -0.002515 0.003475 0.001716 -0.001757 -0.001995
sent_21 -0.000476 0.002053 0.002576 0.004522 0.002127 -0.002404 0.004803 0.002368 -0.002880 -0.001525 0.003329 -0.003614 0.002373 -0.001559 0.002699 -0.001793 0.002018 -0.003572 -0.000192 0.002480 -0.000205 -0.005284 0.001970 0.003208 -0.002205 -0.001746 0.003530 0.002889 0.001694 0.001402 0.003144 0.004654 -0.004994 -0.001415 0.001589 0.001823 -0.003536 -0.000944 -0.003131 -0.000347 0.000048 0.000741 -0.001096 0.001143 0.001404 -0.000768 -0.003896 -0.002230 -0.000972 -0.003682 0.000216 0.002037 -0.000282 -0.002388 0.001375 -0.003020 -0.005259 0.001221 -0.000735 0.001435 -0.002112 -0.003338 -0.002138 0.003332 -0.003769 -0.003683 -0.001009 0.001132 0.002012 -0.004518 0.000290 -0.000572 0.001979 -0.003299 0.001117 -0.002989 -0.004853 -0.000057 -0.002895 0.002980 0.000730 0.004109 -0.000247 0.004712 0.000802 0.001681 0.002880 0.000498 -0.002133 0.001573 -0.002496 -0.000534 -0.003851 -0.000598 -0.000832 -0.000829 -0.004258 0.001382 -0.000829 0.000685
sent_22 0.002681 0.000073 0.001963 -0.002293 0.005199 -0.002272 0.004487 -0.003127 -0.000851 0.003552 0.001801 0.002452 0.000044 0.002993 0.003795 -0.001106 0.000189 -0.004946 -0.001059 -0.000703 0.004646 -0.004931 0.002561 0.000605 0.001386 -0.005612 -0.004200 -0.002748 -0.005523 0.002445 0.003912 0.000881 0.000613 0.000761 -0.001050 -0.002063 0.001563 0.003205 -0.003421 -0.001436 0.002989 -0.002399 -0.005393 -0.003461 -0.003062 -0.000170 0.002084 0.004508 0.004686 -0.002384 0.002057 -0.001550 -0.001332 -0.002282 -0.000668 -0.002978 -0.002055 -0.004565 0.004870 -0.000257 0.004461 0.003031 -0.000936 0.003467 0.001366 -0.002450 0.000231 0.002160 -0.002258 -0.005515 -0.002972 0.003113 0.004391 0.001167 -0.003328 0.002541 0.000396 0.002411 0.003967 0.005431 0.001850 0.004652 0.003116 0.002352 0.003789 0.005686 0.004307 -0.001061 -0.004743 0.004220 0.000393 0.000987 0.003590 -0.004773 0.004669 -0.005265 0.002247 0.001700 0.001972 -0.001101
sent_23 -0.002084 0.000079 0.004102 0.000933 0.001625 -0.000365 0.004720 0.002527 -0.001568 0.001521 0.000276 0.003841 -0.002028 -0.004005 -0.003099 -0.001283 0.003488 -0.002441 0.001377 0.001213 -0.000712 -0.004884 0.002715 -0.002013 -0.001071 -0.001420 0.001485 -0.004373 0.000433 -0.004737 0.004940 0.001176 -0.001206 -0.003650 0.002068 0.004090 -0.001806 0.002689 -0.002315 0.004529 0.001981 0.001076 0.004141 -0.002113 0.004465 0.001725 0.002918 0.000787 0.003523 0.001955 -0.003466 0.001281 -0.002265 0.004074 -0.003028 -0.001891 -0.004564 -0.000658 0.000487 0.000593 0.004135 -0.001388 -0.000678 0.003748 0.000884 0.001516 -0.002345 -0.000024 0.000864 -0.003562 -0.004988 -0.003835 -0.000147 -0.005015 0.001454 -0.004107 -0.002583 -0.000933 -0.003794 -0.002140 -0.004724 0.004967 0.001235 -0.001311 -0.004498 -0.000837 -0.000435 0.004204 -0.002304 0.001355 0.001716 -0.003081 0.000056 0.002936 -0.003710 0.000865 -0.004642 -0.004788 -0.004116 -0.000271
sent_24 0.004283 -0.000927 -0.004163 0.003703 0.000141 -0.001716 0.004599 0.004438 -0.002448 -0.002996 0.000824 0.003417 -0.001566 0.000813 -0.003443 -0.003090 0.002589 -0.003512 -0.002290 0.001876 -0.004790 -0.004767 -0.002037 -0.001612 -0.001387 0.003027 -0.004667 -0.001481 0.001387 -0.003541 0.003588 0.001527 -0.003832 -0.002955 0.002517 -0.000987 -0.000106 0.003862 -0.003666 0.004627 -0.004572 -0.004053 -0.002788 0.003156 -0.000366 0.001488 -0.003193 -0.003311 0.000258 0.002415 -0.000378 0.003766 0.001600 -0.002508 -0.002646 -0.001163 0.002535 0.004345 0.003577 -0.002443 -0.000905 0.001156 0.000425 -0.001044 -0.003971 0.002125 -0.004151 0.003664 0.003520 0.002135 -0.000218 0.001977 -0.001053 0.002887 0.002944 -0.003466 -0.001852 -0.001658 -0.001362 0.000671 -0.004544 0.001637 -0.002956 -0.000875 -0.000440 -0.001439 -0.001170 -0.003194 -0.004339 0.000569 0.000978 -0.003518 -0.002701 -0.002064 0.003383 -0.003504 0.000522 0.000739 -0.001494 -0.001507
sent_25 0.004630 0.000565 0.001459 -0.000090 0.001562 0.000959 -0.003441 -0.001742 -0.000285 -0.003678 -0.001327 -0.002661 0.003499 -0.001523 -0.002642 -0.000889 0.001800 -0.004422 -0.003256 0.001972 0.002482 0.001060 0.003660 -0.003356 0.001996 0.004196 -0.003546 -0.002550 0.000472 -0.001635 0.001890 -0.004434 -0.003521 0.002150 0.004638 0.004411 0.003787 -0.003614 -0.003567 -0.004186 0.000336 0.003908 0.000254 0.002627 -0.003099 0.003735 -0.003139 -0.004472 -0.000759 0.000503 0.004697 -0.004117 -0.002331 -0.004072 -0.001160 -0.002215 0.000261 -0.001570 0.004300 0.003053 0.003897 -0.003702 0.000761 -0.002770 0.003851 -0.004825 -0.003962 -0.001157 -0.000909 -0.002303 -0.004102 -0.003808 -0.001803 0.004551 -0.002972 0.002535 -0.002376 -0.004438 -0.004784 -0.003308 -0.000473 0.002537 0.002380 -0.001559 -0.000223 0.003155 0.003436 -0.001890 -0.004970 -0.004440 0.002376 -0.002302 -0.000045 -0.003281 0.003573 -0.000034 0.000367 -0.002236 0.000219 -0.005032
sent_26 -0.002051 -0.001107 -0.001927 -0.003966 0.000290 0.003035 0.004538 -0.000189 0.000498 -0.001910 -0.003635 -0.003470 0.002640 0.002498 -0.003529 -0.001138 0.000876 -0.004072 0.002850 0.000978 0.001500 0.001415 0.005044 0.000802 0.003737 -0.001283 0.001226 0.003961 0.001417 -0.001611 0.001246 -0.001231 -0.001689 0.000965 -0.002873 -0.000582 0.004897 -0.001124 -0.003350 -0.000181 0.003624 0.003060 0.002888 -0.004757 -0.002318 0.004921 -0.003370 0.000226 0.003315 -0.003972 0.001439 0.000216 -0.003055 0.003619 -0.003073 0.001391 0.002277 0.000295 0.001373 -0.004017 -0.001842 0.001105 -0.001301 0.002043 0.003560 -0.003358 0.003989 -0.001199 0.004239 0.000771 0.002488 0.000275 0.000368 -0.001799 -0.003462 -0.001148 -0.002815 -0.004741 -0.002094 -0.002737 0.003920 -0.003551 -0.002831 0.002032 0.004339 -0.001773 -0.004611 0.004616 0.001397 -0.001368 -0.000244 0.001257 -0.001086 0.003706 0.002742 0.004191 -0.001384 0.004807 0.000130 0.001437
sent_27 0.002478 0.002979 -0.001063 -0.000669 0.003282 0.002129 0.004392 0.004774 -0.003086 -0.002699 0.002239 0.002620 0.000970 0.003734 -0.002310 -0.001675 -0.000038 -0.002035 0.000426 0.001917 -0.002838 -0.000091 0.004823 -0.001946 -0.004614 0.003249 -0.000123 -0.004432 0.003816 -0.000915 0.004405 -0.001018 -0.004336 -0.002566 -0.001589 0.002551 -0.003317 -0.000575 0.003797 0.000385 -0.003972 -0.004701 0.001996 0.004687 0.002738 0.002726 0.001684 0.002890 -0.004562 -0.002514 0.002110 0.003583 0.001763 -0.003283 0.004421 0.003929 -0.003993 -0.002990 -0.002104 0.002563 0.003631 0.000630 -0.002900 -0.000882 -0.003489 0.004236 0.002766 0.000260 -0.000419 -0.004108 -0.001876 -0.003869 0.002818 0.000521 -0.002890 -0.002828 -0.002350 -0.001823 -0.001027 -0.002016 0.001698 -0.004718 -0.001677 0.002441 0.004357 0.002942 -0.002559 -0.002737 -0.003098 0.003708 -0.002797 0.002567 -0.002442 -0.004838 0.002341 0.002285 -0.004046 -0.001831 0.004439 -0.003388
sent_28 -0.004158 0.000878 0.004239 -0.003767 0.000129 0.001796 -0.003296 -0.004872 0.003961 -0.004658 -0.002377 0.001512 -0.002233 -0.004934 0.000815 -0.001886 -0.003470 0.004734 -0.003353 0.002306 0.003822 0.003738 -0.003226 -0.002679 -0.004822 0.004421 0.003902 0.001043 -0.003881 -0.003304 0.000763 -0.002552 -0.002016 -0.003241 -0.003191 -0.000327 0.000047 0.000114 0.005049 -0.003731 0.002531 0.003005 0.000915 -0.000399 0.003882 0.003315 -0.004589 0.004557 -0.005003 0.000725 0.000781 0.003256 -0.001110 -0.004059 0.000829 -0.004789 -0.001331 0.004955 0.003709 -0.003418 0.002922 0.003016 0.004350 -0.002887 -0.000024 0.003327 0.001735 0.000951 0.001598 -0.002603 -0.004656 0.002330 -0.001759 -0.001184 0.001055 0.001554 -0.002973 0.003299 -0.001221 0.001220 0.004618 0.000552 -0.001483 0.001212 -0.000040 -0.000637 0.002298 0.004247 -0.000159 -0.004247 0.000644 -0.002594 -0.004652 0.002863 -0.002396 0.002861 -0.000138 -0.001904 -0.001954 -0.004585
sent_29 0.000674 0.003197 -0.004058 -0.003856 0.000533 0.001675 0.002012 -0.001976 -0.004714 -0.000794 -0.002729 -0.004716 0.001997 0.004616 -0.000867 -0.002241 0.000557 0.003162 0.002923 0.001870 -0.000533 0.001546 -0.002860 -0.002337 0.002828 0.004101 -0.003477 -0.002190 -0.005227 -0.000447 -0.002680 0.001495 0.001968 -0.003952 -0.004134 0.004084 -0.001250 0.000495 0.004471 0.002708 -0.001720 -0.004333 0.000031 -0.001722 -0.004781 0.002833 -0.001027 0.000799 0.002784 0.004138 0.001225 -0.001815 -0.004005 -0.004409 -0.001714 0.001539 0.002094 -0.003104 -0.004003 -0.001923 0.000746 0.002620 0.000251 -0.001859 0.001475 -0.002440 0.001549 0.003622 0.001266 0.000469 -0.002261 0.003825 0.004995 0.002783 0.000688 -0.003711 -0.001808 -0.001277 -0.001868 -0.000196 0.001027 -0.002715 -0.002249 -0.003904 -0.001839 0.000312 -0.000017 0.004748 0.004695 -0.000480 0.004609 -0.002736 0.000423 -0.000717 0.005002 0.003150 -0.002602 -0.000488 -0.003097 0.000226
sent_30 0.002891 -0.004626 -0.003193 0.004780 0.004648 0.000468 0.001539 -0.002338 0.004654 0.001701 0.001704 -0.004931 0.003500 0.002843 0.001900 0.002517 -0.003435 0.002277 -0.004085 0.002090 -0.005081 0.002742 -0.000223 -0.002960 0.002235 -0.001767 0.003921 -0.003116 0.004474 0.004555 -0.002028 0.003575 0.003347 -0.000729 -0.001467 -0.002033 0.004757 -0.002404 0.004245 -0.000683 0.004257 0.003492 -0.003377 0.000573 0.001769 -0.000875 -0.005031 -0.001772 0.003326 -0.004307 -0.003995 0.001959 0.000087 -0.000052 -0.001376 0.000977 0.003587 -0.002229 0.003400 -0.000737 0.000220 0.002314 -0.002384 0.004209 0.002103 0.001229 -0.002322 0.001946 -0.002335 0.003182 -0.004833 -0.003311 0.000592 0.002170 -0.000096 0.003864 0.004788 -0.000195 0.002646 -0.000012 0.001569 -0.002844 -0.003900 0.004729 0.003114 -0.002239 0.000851 -0.001251 -0.003184 -0.000802 -0.001951 -0.004915 -0.001004 0.004106 0.003270 0.000756 -0.001804 -0.002828 0.004583 0.000606
sent_31 -0.002956 -0.002568 0.004319 -0.002817 -0.003715 -0.003557 0.002867 0.001967 -0.000316 0.003060 0.000306 -0.000943 -0.003981 0.003929 -0.002047 0.001291 0.004788 -0.003173 0.004541 0.001598 -0.003855 0.002848 0.004398 0.000646 0.001821 -0.004611 0.005027 -0.001735 -0.004668 0.002866 0.004708 0.002157 -0.005158 -0.004290 0.000585 -0.001486 0.003561 0.003864 0.004946 0.002223 0.003608 -0.001588 -0.003906 0.003340 -0.002083 -0.000669 0.001340 0.000948 -0.000877 -0.001129 -0.003728 0.000217 -0.002605 0.002395 0.001569 -0.004510 0.004980 0.002976 -0.002664 -0.004360 0.000029 -0.001639 0.000496 0.001453 0.002999 -0.004770 0.002178 -0.001903 0.005183 0.003368 0.000769 0.001005 -0.003053 -0.002596 -0.003644 -0.001096 -0.003879 0.000463 0.001379 -0.003673 -0.001663 -0.004389 0.000139 0.001522 0.001113 0.002865 -0.002562 0.001138 -0.001979 -0.004140 -0.001940 -0.004465 0.004760 0.001978 -0.004091 0.002883 -0.001519 0.003758 -0.000123 0.003700
sent_32 -0.002617 -0.001035 -0.001117 -0.003819 -0.001645 0.001823 -0.000325 0.003686 -0.002768 -0.001379 -0.001938 0.000666 -0.002790 -0.003095 0.004225 -0.001487 0.000855 -0.004682 -0.003568 -0.004189 0.003446 -0.004450 0.000334 -0.003357 -0.002098 0.003400 0.001007 0.004382 0.000725 -0.004541 -0.000759 -0.004548 -0.001758 -0.000302 0.001172 -0.002951 0.000959 -0.001084 -0.000179 -0.002956 -0.003209 0.002167 -0.002046 0.001541 0.000714 0.003937 0.004156 -0.000258 -0.002674 0.001125 0.001204 0.002189 0.004027 0.002765 0.001405 0.001018 -0.003004 0.001137 0.003216 0.003957 0.004204 0.000893 -0.002630 -0.001257 0.004983 0.000002 0.003129 0.000922 -0.000166 -0.001778 0.000072 -0.004836 0.003812 0.000540 -0.004565 0.003141 -0.003600 -0.004803 -0.000232 0.004979 -0.003907 -0.003875 0.004091 0.003269 0.003359 0.000334 -0.000607 -0.000999 0.000584 0.002673 0.002880 0.001840 0.000691 -0.000865 -0.001394 -0.002405 -0.001869 0.002288 0.002895 0.001040
sent_33 -0.002631 -0.002869 0.002779 0.004783 -0.004850 -0.002466 0.002951 0.002172 -0.002773 0.000717 0.000822 0.002341 -0.000287 -0.000939 -0.002142 -0.002814 -0.004225 0.001339 0.001748 0.001686 -0.004870 -0.000787 -0.003715 0.000461 0.004805 -0.000164 -0.001376 0.003134 0.004604 -0.001863 0.003006 0.005020 -0.003841 0.000356 0.003318 -0.001533 -0.000285 0.002419 -0.004127 -0.001353 0.000564 -0.002801 0.003197 0.002817 0.004743 0.000228 -0.003795 0.004418 0.003513 0.000408 0.003307 0.003988 0.002872 0.000663 0.001320 0.003513 0.001206 -0.002933 0.001913 0.000130 -0.002457 -0.004961 -0.002743 0.001795 0.003722 0.003207 -0.003883 -0.004365 0.002533 -0.002345 -0.002464 -0.004876 -0.004038 -0.003625 -0.003222 -0.000566 0.003052 0.003044 0.004106 -0.000370 0.002178 0.000243 -0.004466 -0.004206 -0.002500 0.005087 0.001925 -0.002330 0.001840 0.001781 -0.004557 -0.001206 0.002724 -0.004160 0.003959 0.004135 0.003569 -0.003638 0.000841 0.001974
