39 100
sent_0 -0.000939 0.002525 -0.005170 -0.001706 -0.003427 -0.004272 -0.002805 -0.001780 -0.000981 0.000501 -0.000869 0.001720 -0.002777 0.004097 -0.004807 0.001913 -0.000915 0.000741 -0.003720 -0.003143 0.002986 0.004228 -0.002034 0.002163 0.003626 0.003817 -0.003987 -0.004655 -0.003143 0.003521 -0.004256 -0.000768 0.004452 0.000303 0.001938 -0.001640 0.001650 0.003431 -0.004982 0.002657 0.004712 0.002535 -0.002278 0.002515 -0.003741 -0.000403 0.004185 -0.001923 -0.002114 -0.003519 -0.005185 0.001879 -0.003082 -0.002564 -0.000410 -0.004577 0.000783 -0.003842 0.000687 0.002071 -0.003257 -0.000518 0.001749 -0.000554 -0.004323 0.000281 0.001357 0.000060 0.004580 0.000800 0.004000 -0.003439 -0.003520 0.003080 -0.000838 -0.003040 0.004316 -0.001155 0.002474 0.002730 0.003773 0.001366 0.002691 -0.001675 -0.002217 0.004211 -0.000643 0.004526 0.001582 0.001700 -0.003491 0.004436 0.000021 0.000555 -0.000645 -0.002859 0.004147 0.000622 -0.004634 0.001085
sent_1 -0.001818 0.000021 0.003573 -0.001813 0.004128 0.001021 -0.004840 0.004321 0.002240 0.004968 -0.003095 -0.003646 0.003994 0.001883 -0.004087 0.002686 0.002582 0.004269 0.002093 -0.003643 -0.005103 -0.004223 -0.004970 -0.002692 0.003568 0.000762 0.000639 0.003720 -0.003670 -0.002361 0.000837 0.004431 0.000517 -0.004644 0.002670 -0.002500 0.002848 -0.001092 0.003896 0.002384 0.000428 -0.003388 -0.004206 -0.003919 -0.004750 -0.003776 -0.003064 0.001861 0.000333 -0.004904 -0.004079 0.004344 0.000838 -0.002906 -0.002462 0.002275 -0.002839 0.001179 0.004781 0.003714 -0.002775 -0.000397 0.001425 0.002820 -0.003463 -0.004624 -0.004087 -0.000057 0.001383 0.000709 -0.001514 0.004791 0.000723 -0.001018 0.000245 0.002401 0.001673 -0.002164 -0.004405 -0.001585 0.001114 -0.003226 0.002274 -0.004255 -0.002591 0.002479 -0.003134 0.001371 0.000396 0.003824 -0.002553 -0.004516 0.002221 0.002601 0.003654 0.004612 -0.004909 -0.002993 0.000855 0.004452
sent_2 0.004491 0.000646 0.003685 0.000891 -0.000745 -0.000639 0.001376 0.000202 0.004418 0.004555 -0.000892 0.004757 -0.003512 -0.003438 -0.003440 0.000060 -0.004855 0.004227 0.003177 -0.004988 -0.003398 -0.001491 -0.004049 0.003163 -0.001517 0.004460 0.000783 0.004001 0.003346 0.004129 -0.000428 0.000119 0.002855 -0.001988 -0.000236 0.000899 -0.004810 0.001064 -0.000549 0.003132 -0.001929 0.003917 0.000520 -0.003588 0.002570 0.001412 -0.004581 -0.000850 0.001703 0.003998 -0.005050 0.004553 -0.000940 0.004572 0.001037 0.002828 0.000975 0.001482 -0.001935 0.001169 0.002609 0.003400 0.002548 0.001658 0.003599 -0.001792 0.002001 -0.000369 -0.000595 -0.001366 -0.000749 -0.001720 0.001227 -0.000341 0.004523 0.001830 -0.003043 -0.000227 -0.001522 0.003294 0.003641 0.004280 0.001525 -0.002091 -0.002644 0.003430 0.000377 0.002910 0.000516 0.002330 0.000039 0.002659 0.000903 -0.000765 -0.001789 -0.004304 -0.001111 -0.004453 0.004723 -0.003268
sent_3 0.003346 0.003985 0.001870 0.000780 -0.003026 -0.000562 -0.001219 -0.003078 0.000945 -0.001589 0.004156 0.004316 -0.002273 -0.003549 -0.003004 -0.000109 0.002212 -0.003196 -0.002678 0.003375 -0.000694 0.000539 -0.002856 -0.003917 0.000146 -0.000518 -0.003688 0.001075 0.000313 0.001650 -0.003513 0.002561 -0.002965 0.000035 0.002942 -0.004740 -0.001928 0.004012 0.003282 0.000594 0.003655 0.004342 0.002847 0.003143 -0.003984 0.001673 0.002217 0.001323 0.003310 -0.004756 0.002519 0.002422 -0.002531 -0.002741 0.001154 -0.001723 0.003100 -0.000816 0.002895 0.005096 -0.001263 -0.003342 0.003859 0.000821 0.005092 0.001220 0.004820 0.000609 0.000324 -0.003982 -0.001804 -0.004542 -0.003198 0.002547 -0.004647 -0.001201 0.003709 0.002282 0.002112 -0.002424 -0.000681 0.001237 0.005260 -0.003078 -0.002459 -0.001874 0.002673 -0.000678 -0.004743 0.000584 -0.002777 0.003026 -0.001579 -0.005145 0.001432 0.003026 -0.000967 0.002471 0.000526 0.000261
sent_4 0.004820 0.003082 -0.004550 0.002170 -0.000251 0.004584 -0.002775 -0.002379 -0.004324 -0.000667 -0.003933 0.001542 0.003174 0.002004 0.002695 -0.001774 0.003432 -0.000955 0.003245 0.001243 -0.003430 -0.004485 -0.004796 -0.004402 -0.000365 -0.004035 -0.004992 0.002427 -0.001247 0.002672 -0.000352 -0.000388 -0.000267 -0.000365 0.003154 -0.001051 0.004030 -0.004562 0.002593 -0.003633 0.001206 -0.005051 0.000142 -0.004952 0.004538 0.004088 0.003084 0.004216 -0.003352 -0.003604 -0.003096 0.001323 0.003994 0.004791 0.002224 0.002302 0.004162 -0.001138 -0.002403 -0.003310 -0.003681 0.003190 -0.003585 -0.002131 0.003321 -0.001978 0.004831 -0.002233 0.000214 -0.001997 0.003842 -0.001301 -0.000626 0.000107 0.004419 -0.004764 0.002184 0.003875 -0.004584 0.000463 -0.001745 0.003759 0.000776 0.001860 -0.000419 0.001594 -0.002052 -0.005007 0.000663 -0.001726 0.000085 0.004299 -0.000739 -0.002628 -0.001041 0.004142 0.004530 0.003596 0.004381 -0.002756
sent_5 -0.003063 -0.001108 -0.000927 -0.002170 0.001680 -0.000156 0.003705 -0.003965 0.000138 -0.001790 -0.000023 -0.000467 -0.002761 -0.001666 0.000802 -0.001280 -0.000084 -0.004854 0.000692 0.004072 0.004868 -0.002080 0.005353 0.004484 0.001447 -0.006913 -0.005760 -0.005888 -0.001792 0.000416 0.005187 -0.002180 0.004893 0.001733 0.005338 -0.000082 0.003075 0.000208 -0.006223 -0.000713 0.000884 0.000496 -0.002494 -0.000421 -0.003338 -0.004988 0.004492 -0.000242 0.006618 -0.003841 -0.002630 0.001680 0.002208 -0.001234 -0.003409 -0.002047 -0.000290 -0.000290 0.003105 -0.004411 -0.003589 0.001676 0.001808 -0.002485 0.002311 0.000684 -0.000785 0.004352 0.000542 -0.006508 -0.002119 0.004135 0.003696 0.001127 0.002712 0.000776 -0.002027 0.000466 0.002701 0.001161 0.004121 -0.000392 0.004311 -0.002192 0.003476 0.002892 0.003860 -0.001794 -0.004418 0.005259 -0.001759 0.003615 0.003458 -0.003284 -0.000348 -0.004804 -0.002566 0.000641 -0.002925 -0.003821
sent_6 0.002045 0.003356 -0.004250 -0.002789 -0.002681 0.004198 0.002294 0.000236 -0.002284 0.003615 -0.000661 0.004619 0.002286 0.000067 -0.003766 0.004476 -0.003473 -0.003378 -0.000711 -0.001165 -0.003475 0.001858 -0.003378 0.001475 0.002651 -0.003198 0.000564 0.002469 0.001032 0.001365 -0.002009 0.002390 0.004419 -0.000777 0.003146 -0.004757 0.003522 -0.003076 -0.001240 -0.001768 -0.004210 0.003751 -0.001786 0.000104 -0.000132 -0.003479 -0.002709 -0.004107 0.000297 -0.002795 -0.001602 -0.003791 0.002938 -0.004138 0.005105 -0.003489 0.000928 -0.004778 0.003067 -0.003178 0.000464 0.002528 -0.003623 0.000736 -0.002726 0.002303 0.002393 -0.003229 0.003749 -0.005431 0.003346 0.000749 -0.000955 0.002772 0.002271 0.004821 -0.002162 -0.004735 0.004468 0.004146 0.002253 0.000679 0.002400 0.002824 -0.001288 0.003277 0.002634 0.000988 -0.001271 0.002342 -0.005138 0.003047 0.004125 -0.002944 -0.003513 -0.003037 -0.001673 0.004083 0.000729 -0.002214
sent_7 -0.003508 -0.002053 0.001330 -0.001558 -0.000498 -0.000332 0.003225 -0.000675 -0.001757 0.001684 -0.002865 -0.000309 -0.001674 0.001229 0.003721 -0.000643 0.002834 -0.000480 0.001629 -0.003707 -0.000528 0.003878 0.001219 0.002697 0.000039 -0.000166 0.003304 -0.004442 0.000645 0.004563 0.000221 -0.002898 0.003515 -0.002514 0.002136 0.000337 0.004578 0.001170 0.003229 -0.004944 0.004907 -0.004365 -0.001860 0.004649 -0.004761 0.003182 0.003758 -0.000532 -0.002349 0.002987 -0.000207 -0.003549 0.004211 0.003963 0.000013 0.003716 -0.000866 0.001685 -0.001070 -0.000156 -0.003144 0.004777 -0.002145 -0.003798 -0.003542 -0.004935 0.002091 0.000612 0.002693 0.000103 0.002743 0.001985 0.002793 -0.001071 0.001618 -0.003266 -0.001813 -0.003441 -0.000889 -0.002526 -0.000856 0.004841 -0.001707 0.004803 0.001506 -0.001022 0.003582 0.001171 -0.002508 0.003039 -0.000631 -0.001299 -0.001771 0.002075 -0.002131 0.002982 -0.001956 0.000662 0.000041 0.003541
sent_8 0.003892 -0.003216 0.000743 0.003900 -0.000439 0.004089 -0.002133 0.001051 0.001918 -0.002686 -0.004779 -0.000831 0.004314 -0.001548 0.002902 -0.003243 -0.001613 -0.003576 0.002135 0.002019 0.001790 -0.002401 0.001859 -0.002720 -0.000793 -0.001219 -0.001412 -0.004345 0.001324 0.002013 0.001136 0.001380 -0.003386 -0.003450 0.000005 0.003825 -0.003299 -0.000369 -0.000714 0.000017 -0.003539 -0.001508 -0.002395 0.003367 0.002989 -0.000653 0.000984 -0.003640 0.000050 -0.002035 0.003649 0.001657 0.001353 -0.003815 -0.000309 0.004789 0.004558 0.001555 -0.003458 0.001451 0.000732 -0.000396 -0.000688 0.000905 0.003486 0.002537 0.000801 0.004285 -0.004227 0.004875 -0.004417 -0.002947 -0.000763 -0.003843 0.001177 -0.004500 -0.002189 -0.004273 0.002017 0.001725 -0.001276 -0.003188 0.002393 -0.001592 0.002936 -0.000240 0.000243 -0.004771 0.001467 -0.001545 -0.002713 -0.000715 -0.001171 -0.000413 0.004717 -0.001349 0.002755 0.000402 0.003869 -0.001501
sent_9 -0.002666 0.004074 -0.004717 0.004462 0.000599 -0.001407 0.005020 -0.004428 0.000275 -0.004702 0.000806 -0.003334 0.001209 0.004823 0.003776 -0.000373 0.002037 0.002941 -0.000090 0.000313 -0.003661 -0.001152 -0.003612 0.002374 -0.000313 -0.000403 0.004076 0.000419 -0.000783 -0.002498 -0.004372 -0.000963 -0.004793 -0.001965 -0.000148 0.004744 -0.004023 0.001630 0.000019 0.002799 -0.003791 -0.004028 -0.000882 0.002907 -0.003043 0.002717 -0.002236 -0.002945 -0.004970 -0.000872 -0.001191 0.001554 -0.004274 -0.003479 -0.004908 -0.003900 0.001508 -0.000816 -0.001853 0.000577 0.004972 0.003273 0.002030 0.004033 -0.004732 -0.004260 -0.000323 -0.001589 0.004528 -0.000057 0.000577 0.004048 -0.000546 0.003858 -0.002480 -0.002163 -0.001771 0.000593 -0.002929 0.001649 -0.003595 -0.004205 0.003515 -0.002627 -0.001154 0.000480 0.000198 -0.004229 0.003837 0.004417 0.003247 -0.002267 0.000288 -0.001630 0.000362 0.004811 -0.001982 0.001519 -0.001819 0.002713
sent_10 -0.001816 0.003824 0.002411 0.002531 -0.000302 -0.002981 -0.004592 -0.001776 -0.004477 0.001910 0.001764 -0.000755 0.002563 0.000341 -0.004536 -0.003551 -0.003039 -0.001537 -0.004502 0.001107 -0.000017 0.001343 -0.000778 0.003431 -0.000487 -0.004701 0.003840 0.001690 0.003320 0.004386 -0.004529 -0.002744 -0.004397 -0.000725 0.003500 -0.004088 -0.000373 -0.003748 0.002849 0.003387 -0.004623 -0.000014 -0.002467 0.004434 0.004398 0.001168 0.004596 -0.001623 0.003865 -0.000595 -0.002605 0.004307 0.001864 -0.004301 0.003648 0.001975 0.001087 0.002447 -0.002474 0.001096 0.003138 -0.004549 -0.003605 0.003282 0.001175 0.000388 -0.002493 -0.002065 0.003830 -0.000728 -0.004221 0.003944 -0.002984 0.003324 0.003736 -0.000105 0.001000 0.000359 0.001186 0.003418 -0.002241 0.003680 0.000582 -0.003847 -0.002804 0.000728 -0.002644 -0.003679 -0.003292 0.003292 0.001030 0.004536 -0.001551 0.000930 0.000841 0.001276 -0.004474 0.002353 0.004365 0.000343
sent_11 -0.003074 0.002529 -0.004927 -0.001717 0.004176 0.000884 0.003552 0.001047 0.003226 0.003795 -0.001790 -0.003770 0.002213 -0.000597 -0.003733 0.000898 -0.004639 -0.002998 0.002883 -0.004879 -0.001967 -0.004786 0.004975 0.000820 -0.002066 0.004289 0.000071 -0.000453 0.000879 -0.002359 -0.001947 -0.001283 -0.002556 0.000845 0.001958 -0.004281 0.004711 0.002531 0.003062 0.002516 -0.004199 -0.000183 -0.000543 0.001725 -0.000513 0.002043 0.001816 0.001971 0.001186 -0.003490 0.002608 0.002810 0.004041 -0.002662 -0.003233 -0.001089 -0.001794 0.003155 0.001135 0.002600 -0.000723 -0.004006 -0.003850 -0.001266 -0.003062 0.003207 0.000996 0.001888 -0.000089 -0.004118 -0.002649 -0.000384 -0.003014 -0.004745 0.002294 0.002249 -0.001696 0.003435 -0.000716 0.003647 0.001571 0.000810 -0.002993 0.000295 0.003944 -0.001950 0.003709 0.004087 -0.001702 0.001831 0.003992 -0.004243 0.003786 -0.003092 0.003498 0.001671 -0.001557 -0.003486 0.001354 0.003478
sent_12 0.003147 0.001134 0.004339 0.000724 -0.002878 -0.000959 -0.001540 0.004857 -0.000859 0.004948 0.000308 -0.003334 -0.004448 -0.001260 -0.003548 0.001499 -0.000825 0.004979 0.004217 -0.003408 -0.001267 -0.000214 0.000397 0.002703 -0.000189 -0.000592 -0.002242 0.004280 -0.004660 0.002978 -0.003132 0.001669 -0.001588 0.004795 -0.004059 -0.002879 0.003597 0.000938 -0.001737 -0.004995 -0.002851 -0.003346 -0.002840 0.003689 0.003641 0.002115 -0.000518 0.003157 -0.000178 -0.001309 -0.002168 0.004054 -0.001114 -0.000093 -0.002623 0.003722 -0.001039 -0.001835 0.002198 -0.002825 -0.003634 0.003224 0.002569 0.000718 -0.002488 0.001359 0.001405 -0.001644 -0.004098 0.003840 -0.000241 0.002636 -0.002426 0.001039 -0.000892 -0.001118 -0.003702 -0.002299 -0.004250 -0.002035 0.002255 0.000920 0.001620 -0.004932 0.001681 -0.000314 -0.002707 -0.003329 -0.003055 0.003262 0.004831 0.003928 -0.001440 0.002608 0.000306 0.003282 -0.000214 0.000563 0.002747 -0.004048
sent_13 0.000370 -0.001340 0.001043 0.004588 -0.001072 -0.001070 0.002906 0.001451 -0.001061 0.001890 -0.000960 -0.003639 -0.000494 -0.001656 -0.002820 0.004258 0.001896 0.000988 0.002467 0.000420 0.002005 0.004306 0.003626 -0.003326 -0.002369 -0.004284 0.004787 -0.002636 0.001606 -0.004104 -0.002892 0.000028 -0.003950 -0.001111 0.000380 -0.001608 0.000559 0.000368 -0.001094 0.001963 0.001785 0.001873 0.000615 -0.001419 0.001131 0.004357 0.000969 0.004796 -0.000590 0.002396 -0.004624 0.002647 0.000183 -0.004947 -0.002228 0.000348 0.002680 -0.004469 0.000491 0.003010 0.001496 0.004314 -0.004253 -0.002232 0.004192 0.002650 0.000997 0.003330 0.003960 0.004727 0.004985 -0.003604 -0.004295 -0.004265 -0.004853 0.004718 -0.004052 0.003417 0.001852 -0.000124 -0.001533 -0.001464 -0.002462 0.004110 0.002256 -0.004741 -0.000385 -0.002187 -0.004710 0.003847 0.002710 -0.001703 0.002966 -0.001754 -0.001921 0.004281 0.004769 0.000236 0.004519 0.003880
sent_14 0.000027 -0.001281 0.001894 -0.000471 0.001132 0.004659 0.002903 -0.001737 -0.003869 -0.003119 0.000327 -0.000984 0.002905 0.004425 -0.003138 0.003809 0.004562 0.004756 -0.004701 -0.004404 -0.005101 -0.001826 -0.004578 -0.001989 -0.001545 0.004659 0.000002 -0.002114 0.000212 0.001158 -0.004010 0.002443 0.003418 0.003506 0.003702 -0.000959 -0.000785 -0.003935 -0.002677 0.004717 -0.002310 0.004253 0.004022 0.003990 -0.003414 0.003879 0.001198 -0.002952 -0.001682 -0.003240 -0.000627 -0.004266 -0.003373 -0.003087 0.001682 0.000657 0.003780 -0.002481 0.001201 -0.004491 0.000429 0.003630 0.004855 -0.004998 -0.002441 -0.002692 -0.004617 -0.004911 0.000105 -0.004488 -0.002051 0.001462 -0.002013 -0.002241 0.000866 -0.001043 0.002024 0.000209 0.001244 -0.001435 -0.002222 -0.003805 0.004281 0.003009 0.004358 -0.003367 0.004331 0.004313 -0.002101 -0.002247 0.000666 -0.003329 -0.000382 -0.003277 0.004382 -0.000024 0.004585 0.001177 -0.000175 0.004626
sent_15 -0.003584 0.001208 0.001449 -0.000802 -0.004311 -0.000221 -0.000316 0.003017 -0.002154 -0.001102 -0.002489 0.001869 0.004753 -0.003208 0.003397 -0.002570 -0.004376 -0.003540 0.004281 0.003989 -0.002322 0.004611 0.003247 -0.000805 -0.000361 0.001503 -0.003357 -0.004662 -0.002260 -0.005034 0.001728 0.000385 -0.001908 0.002843 -0.003773 -0.002339 -0.002369 -0.002957 -0.003954 0.003723 -0.004226 0.002015 -0.003664 -0.005147 0.000510 0.004180 0.003387 -0.001712 -0.004844 0.003026 0.003127 0.003513 0.001675 0.003087 0.003874 -0.000576 0.000735 0.000197 0.001951 0.002048 0.000374 0.003163 0.000209 0.003119 -0.002054 -0.003100 0.004734 0.002469 -0.002241 0.000836 0.004656 -0.004224 -0.004160 0.001314 -0.002914 0.002691 0.000744 0.001884 -0.003949 -0.004232 0.001083 -0.001136 -0.004168 -0.001339 0.001593 -0.003388 0.003923 0.004418 0.004733 0.002112 -0.000957 0.002288 -0.002068 -0.002030 0.000940 0.001070 0.003775 -0.002717 0.002563 0.004364
sent_16 -0.004992 -0.000317 0.001465 0.003294 -0.003150 0.003506 -0.001378 0.003942 -0.004707 -0.004167 0.004920 0.001095 -0.000922 -0.003352 0.001569 -0.004642 -0.001916 -0.001712 0.001087 0.001539 0.003285 0.004506 0.001529 0.000796 -0.001037 0.004786 -0.003406 0.004128 -0.001894 0.000468 0.001796 -0.002757 -0.003340 0.000221 0.002778 0.001919 -0.003875 0.003859 -0.000185 0.004490 0.000332 -0.004073 -0.002911 0.003566 0.002045 0.004017 -0.001851 0.000110 0.001370 0.000930 -0.002602 -0.000800 -0.002450 0.003490 0.004985 -0.004380 0.002206 -0.001508 0.001277 -0.002479 0.001356 -0.001431 -0.001962 0.003913 0.004284 0.001139 -0.002785 0.004333 0.002633 0.002476 -0.002735 0.003352 -0.002656 0.001435 0.002061 0.002393 -0.001157 0.002631 0.003930 0.000759 -0.004126 -0.003841 -0.004114 -0.003230 -0.003796 0.002576 -0.004687 -0.002580 0.003894 0.004543 0.001000 0.004761 -0.004717 0.004475 -0.002121 0.003099 0.003082 0.003525 -0.000526 0.004271
sent_17 -0.002252 0.004500 0.001320 0.004982 -0.004594 0.002362 0.000693 -0.000157 -0.002627 -0.001644 -0.002601 -0.002648 0.003202 0.000134 -0.004230 0.002591 0.000304 0.002168 0.000163 -0.001090 0.005075 -0.005073 0.004393 0.004319 -0.001018 -0.003116 0.000945 -0.003414 0.002842 -0.002234 -0.002004 0.004303 0.004037 0.000218 0.003865 -0.001622 0.005108 -0.000596 -0.002224 -0.004483 0.005014 -0.000575 0.002058 0.001410 0.002265 -0.004494 0.004417 0.004437 0.000739 0.004481 -0.002285 0.001187 -0.001087 0.001173 -0.001925 0.003174 -0.004314 -0.004829 -0.004437 -0.003569 -0.000904 0.004721 -0.004033 0.001780 0.000373 -0.001601 -0.003034 -0.002733 -0.004689 0.001961 0.001278 -0.000518 0.002234 -0.003947 0.004483 0.003444 0.001618 -0.001252 -0.000689 0.000142 0.004409 0.003929 0.000016 0.000528 0.003835 0.004937 0.001476 0.002426 -0.001647 0.004469 0.003343 0.000688 0.003767 0.003433 0.003395 -0.003912 0.000512 0.004234 0.002927 -0.000787
sent_18 0.004679 -0.002650 -0.001872 0.004344 0.003044 0.003916 -0.004904 -0.001170 -0.002461 -0.002144 0.002535 0.002147 -0.000589 -0.001401 0.001035 0.000490 0.000561 0.001330 -0.001066 0.002820 -0.002763 0.001946 0.004403 -0.005047 0.002161 -0.003608 0.000583 0.001561 -0.002463 0.003968 0.001133 -0.002860 0.002648 -0.003737 0.000271 -0.003881 0.000611 -0.002556 0.001664 0.002063 0.000078 0.001790 0.003386 0.003003 0.001148 -0.000366 -0.001187 0.003544 0.001745 -0.003108 0.000786 0.003816 -0.003445 0.003559 0.003231 -0.000088 -0.004484 -0.003300 0.004205 -0.004499 -0.001399 0.001006 -0.002852 0.004458 -0.003494 0.000516 0.001275 -0.002753 -0.000151 -0.000016 0.002960 0.001306 -0.000395 0.001794 -0.000616 0.000248 0.001580 -0.003041 0.002761 0.000750 0.004669 -0.003108 -0.000554 0.004014 0.000907 0.001797 -0.000950 0.001829 0.004662 -0.003353 0.003036 0.004582 -0.004983 -0.002888 -0.004170 0.002935 -0.004204 0.004782 -0.001324 0.004024
sent_19 -0.003060 -0.000392 0.003457 0.001247 -0.000302 0.000160 0.000958 -0.000795 -0.003156 -0.003892 -0.003509 -0.004482 0.000847 0.003679 -0.001364 -0.004219 -0.000795 0.001003 -0.000841 0.003073 0.004522 0.003239 0.001992 -0.000161 0.001734 -0.005066 0.004760 -0.003415 0.004034 0.003006 0.002898 -0.002188 -0.002904 -0.000728 0.003551 -0.000321 0.004104 -0.001449 0.000902 0.004942 0.001272 -0.004549 -0.000514 -0.001786 0.000526 -0.002075 -0.003612 0.001738 0.001906 0.003656 -0.003834 0.003035 0.003002 0.001222 -0.003054 -0.002434 -0.000718 0.000067 -0.000356 -0.000410 0.003946 0.003986 0.003045 0.004110 0.000917 0.004516 0.000826 0.001007 -0.001880 0.001714 -0.004689 -0.003479 -0.003598 0.001510 -0.003103 -0.001444 -0.004523 -0.002487 0.004725 0.000503 -0.003522 0.000277 0.004704 0.003503 -0.000905 -0.001819 0.002708 -0.002761 -0.002480 -0.003763 0.003821 -0.000451 0.000906 0.002169 0.003308 -0.000795 -0.002929 0.003366 -0.004353 0.004370
sent_20 0.000899 0.003824 0.001330 -0.002252 -0.002142 0.000590 0.004536 -0.003036 -0.000130 -0.001586 0.002567 0.003070 -0.000549 -0.003073 -0.004505 -0.003189 -0.002365 0.000905 0.003852 -0.003776 0.004747 0.001579 0.002662 0.004905 -0.000844 0.000143 0.001660 -0.000033 -0.002079 -0.003790 -0.002100 0.002877 0.001449 0.002940 0.000361 -0.002816 0.001430 -0.002050 -0.004885 0.004058 -0.000840 -0.000907 0.002291 0.004758 -0.004076 -0.003373 -0.001596 -0.002467 0.000117 0.003222 0.003542 0.001185 -0.002623 -0.003157 0.002544 -0.002411 0.000315 0.002388 -0.002781 -0.003494 -0.004695 -0.003422 0.003394 -0.003750 -0.002777 -0.004727 0.001686 -0.002699 -0.001161 -0.003556 -0.001477 -0.000736 -0.000288 -0.000950 -0.003757 0.002658 -0.003716 -0.001022 -0.002271 -0.001915 0.001847 0.000320 -0.003022 -0.000391 -0.001463 0.002321 -0.002755 0.003450 0.000199 0.000169 -0.002430 -0.002995 -0.000366 0.004986 -0.003465 -0.002309 0.003044 0.001876 -0.002007 -0.001887
sent_21 -0.001122 0.000911 0.001790 0.003274 0.001811 -0.003037 0.004381 0.002783 -0.001431 -0.001970 0.004034 -0.003951 0.001021 -0.002272 0.003452 -0.000993 0.002296 -0.002858 -0.000303 0.003200 -0.001437 -0.002884 0.001191 0.002514 -0.002349 -0.000022 0.004356 0.004063 0.002397 0.000429 0.002957 0.003780 -0.005164 -0.000769 0.000170 0.002641 -0.004558 -0.000968 -0.001946 -0.000778 -0.000310 0.002121 0.000309 0.000870 0.000725 -0.000542 -0.005293 -0.003345 -0.002153 -0.003377 0.001070 0.000810 0.000067 -0.001814 0.001343 -0.003330 -0.004764 0.002689 -0.000618 0.002381 -0.003025 -0.004684 -0.001007 0.001539 -0.003961 -0.002788 -0.000383 0.001225 0.002930 -0.003835 0.001684 -0.001227 0.001590 -0.002776 0.000028 -0.003089 -0.004789 0.000292 -0.003318 0.001127 0.000177 0.002310 -0.001362 0.004858 -0.000030 -0.000938 0.002485 0.000770 -0.001163 -0.000418 -0.003094 -0.001348 -0.004599 -0.000595 -0.002673 0.000554 -0.004837 0.000001 -0.002338 0.000749
sent_22 0.002439 -0.000439 0.001658 -0.002545 0.005120 -0.002620 0.004538 -0.002943 -0.000153 0.003330 0.002166 0.002190 -0.000425 0.002643 0.004190 -0.000729 0.000161 -0.004609 -0.001133 -0.000371 0.004084 -0.004179 0.002351 0.000518 0.001078 -0.004892 -0.003728 -0.002302 -0.005096 0.001812 0.003743 0.000535 0.000330 0.001113 -0.001865 -0.001439 0.000712 0.003158 -0.003196 -0.001541 0.002364 -0.001661 -0.004820 -0.003516 -0.003024 0.000026 0.001526 0.003861 0.004203 -0.002090 0.002484 -0.002030 -0.001360 -0.002289 -0.000806 -0.002978 -0.001763 -0.003946 0.004711 0.000070 0.004477 0.002523 -0.000546 0.002797 0.001368 -0.002055 0.000205 0.002226 -0.001945 -0.005109 -0.002517 0.003030 0.004308 0.001274 -0.003634 0.002621 0.000272 0.002653 0.003716 0.004849 0.001571 0.003770 0.002587 0.002227 0.003669 0.004542 0.004140 -0.001103 -0.004308 0.003588 0.000365 0.000556 0.003378 -0.004882 0.004036 -0.004885 0.002088 0.000957 0.001636 -0.001278
sent_23 -0.002265 0.000683 0.003801 0.000925 0.001990 -0.000827 0.005180 0.002022 -0.001822 0.001963 0.000148 0.003821 -0.001843 -0.003327 -0.003323 -0.001235 0.003410 -0.002582 0.001188 0.000869 -0.000453 -0.005382 0.002636 -0.001617 -0.000931 -0.001947 0.001532 -0.004626 0.000308 -0.004641 0.004821 0.001100 -0.001130 -0.003781 0.002464 0.003761 -0.001347 0.002838 -0.002507 0.004771 0.002280 0.000773 0.003653 -0.002662 0.004284 0.001767 0.003264 0.001280 0.003718 0.001929 -0.004110 0.001552 -0.002211 0.003818 -0.003310 -0.002345 -0.004787 -0.001107 0.000575 0.000705 0.004681 -0.000958 -0.001084 0.004149 0.000774 0.001168 -0.002413 -0.000094 0.001286 -0.004122 -0.004933 -0.003561 -0.000007 -0.004810 0.001555 -0.003770 -0.002472 -0.000471 -0.003677 -0.001319 -0.004581 0.005736 0.001503 -0.001129 -0.004467 -0.000119 -0.000170 0.004251 -0.002719 0.002114 0.001984 -0.002977 0.000750 0.002615 -0.003386 0.000494 -0.004585 -0.004648 -0.003909 -0.000135
sent_24 0.004098 -0.001452 -0.004721 0.002950 0.000348 -0.002242 0.004537 0.004377 -0.001596 -0.003066 0.001245 0.003395 -0.002218 0.000702 -0.002853 -0.002742 0.002736 -0.003373 -0.002476 0.002275 -0.005406 -0.003849 -0.002636 -0.002084 -0.001418 0.003752 -0.004460 -0.000878 0.001595 -0.004027 0.003613 0.000999 -0.004060 -0.002677 0.001756 -0.000536 -0.000768 0.004015 -0.003066 0.004549 -0.004756 -0.003411 -0.002302 0.002564 -0.000807 0.001718 -0.003883 -0.003722 -0.000184 0.002384 0.000028 0.003127 0.001753 -0.002368 -0.002771 -0.001561 0.002915 0.005007 0.003807 -0.001763 -0.000953 0.000490 0.000983 -0.001804 -0.003829 0.002535 -0.003818 0.003854 0.004109 0.002186 0.000354 0.001761 -0.001117 0.003323 0.002280 -0.003434 -0.001678 -0.001102 -0.001443 0.000105 -0.004926 0.000850 -0.003333 -0.000825 -0.000875 -0.002587 -0.001272 -0.003243 -0.003964 -0.000320 0.000675 -0.003941 -0.002813 -0.002470 0.002675 -0.002967 0.000363 -0.000069 -0.002141 -0.001552
sent_25 0.004587 0.000739 0.001499 -0.000017 0.001511 0.001035 -0.003490 -0.001759 -0.000555 -0.003650 -0.001411 -0.002705 0.003611 -0.001442 -0.002849 -0.000954 0.001756 -0.004371 -0.003219 0.001866 0.002595 0.000988 0.003801 -0.003194 0.002063 0.004004 -0.003540 -0.002615 0.000409 -0.001509 0.001860 -0.004393 -0.003371 0.002160 0.004847 0.004162 0.004126 -0.003774 -0.003666 -0.004160 0.000414 0.003740 0.000181 0.002721 -0.003057 0.003629 -0.003007 -0.004330 -0.000711 0.000522 0.004531 -0.003935 -0.002285 -0.004015 -0.001087 -0.002192 0.000083 -0.001679 0.004284 0.002818 0.003744 -0.003572 0.000633 -0.002673 0.003658 -0.004952 -0.003988 -0.001308 -0.000959 -0.002376 -0.004083 -0.003726 -0.001828 0.004550 -0.002828 0.002570 -0.002390 -0.004544 -0.004820 -0.003238 -0.000306 0.002742 0.002380 -0.001485 -0.000174 0.003399 0.003422 -0.001791 -0.005023 -0.004315 0.002471 -0.002158 -0.000045 -0.003136 0.003601 -0.000097 0.000327 -0.002005 0.000243 -0.004963
sent_26 -0.002006 -0.001412 -0.001958 -0.003932 0.000255 0.003096 0.004437 -0.000067 0.000655 -0.002101 -0.003571 -0.003533 0.002569 0.002406 -0.003202 -0.001070 0.000932 -0.003948 0.002872 0.001151 0.001369 0.001640 0.004983 0.000622 0.003673 -0.001068 0.001269 0.004069 0.001427 -0.001725 0.001295 -0.001299 -0.001779 0.001018 -0.003207 -0.000227 0.004509 -0.001160 -0.003349 -0.000248 0.003460 0.003207 0.003028 -0.004777 -0.002215 0.005012 -0.003588 0.000026 0.003093 -0.003937 0.001614 0.000007 -0.003178 0.003695 -0.003047 0.001443 0.002416 0.000355 0.001319 -0.004000 -0.001802 0.001055 -0.001167 0.001942 0.003622 -0.003250 0.003972 -0.001139 0.004195 0.001059 0.002608 0.000218 0.000368 -0.001813 -0.003589 -0.001235 -0.002841 -0.004765 -0.002118 -0.002926 0.003804 -0.003976 -0.002937 0.002021 0.004347 -0.002058 -0.004724 0.004511 0.001714 -0.001653 -0.000285 0.001191 -0.001274 0.003711 0.002587 0.004324 -0.001276 0.004661 0.000049 0.001401
sent_27 0.002366 0.003093 -0.001037 -0.000521 0.003173 0.002176 0.004408 0.004796 -0.003211 -0.002721 0.002160 0.002474 0.001032 0.003773 -0.002480 -0.001605 -0.000054 -0.001850 0.000454 0.001825 -0.002796 -0.000147 0.004930 -0.001758 -0.004646 0.003174 0.000033 -0.004472 0.003903 -0.000955 0.004293 -0.000979 -0.004232 -0.002547 -0.001497 0.002507 -0.003153 -0.000690 0.003732 0.000338 -0.003968 -0.004755 0.002058 0.004791 0.002852 0.002647 0.001754 0.002955 -0.004600 -0.002353 0.001954 0.003670 0.001746 -0.003237 0.004363 0.004034 -0.004133 -0.003070 -0.002248 0.002384 0.003594 0.000783 -0.003004 -0.000849 -0.003621 0.004174 0.002645 0.000102 -0.000464 -0.004022 -0.001813 -0.003794 0.002823 0.000449 -0.002727 -0.002758 -0.002396 -0.001911 -0.001123 -0.002025 0.001796 -0.004649 -0.001719 0.002453 0.004428 0.003027 -0.002592 -0.002671 -0.003097 0.003825 -0.002621 0.002582 -0.002390 -0.004669 0.002334 0.002262 -0.004110 -0.001733 0.004484 -0.003371
sent_28 -0.004103 0.001030 0.004340 -0.003631 0.000153 0.001872 -0.003280 -0.004923 0.003774 -0.004606 -0.002473 0.001555 -0.002069 -0.004843 0.000701 -0.001979 -0.003494 0.004651 -0.003345 0.002226 0.003987 0.003479 -0.003127 -0.002612 -0.004771 0.004206 0.003801 0.000889 -0.003973 -0.003175 0.000792 -0.002442 -0.001968 -0.003335 -0.002990 -0.000462 0.000215 0.000121 0.004928 -0.003672 0.002638 0.002837 0.000750 -0.000382 0.003928 0.003262 -0.004414 0.004721 -0.004857 0.000680 0.000657 0.003421 -0.001146 -0.004102 0.000839 -0.004772 -0.001422 0.004762 0.003718 -0.003513 0.003001 0.003179 0.004220 -0.002651 -0.000016 0.003215 0.001681 0.000935 0.001491 -0.002690 -0.004805 0.002378 -0.001726 -0.001237 0.001165 0.001570 -0.002954 0.003245 -0.001158 0.001423 0.004707 0.000781 -0.001336 0.001210 0.000036 -0.000306 0.002354 0.004253 -0.000271 -0.004016 0.000701 -0.002482 -0.004565 0.002879 -0.002179 0.002708 -0.000090 -0.001720 -0.001808 -0.004550
sent_29 0.001050 0.003952 -0.003676 -0.003232 0.000663 0.001992 0.002268 -0.002287 -0.005434 -0.000480 -0.003121 -0.004354 0.002777 0.005055 -0.001311 -0.002637 0.000363 0.002643 0.002924 0.001466 0.000155 0.000216 -0.002682 -0.002054 0.002965 0.003228 -0.004070 -0.002840 -0.005635 0.000093 -0.002640 0.002038 0.002007 -0.004377 -0.003277 0.003665 -0.000853 0.000681 0.003824 0.003084 -0.001437 -0.004974 -0.000840 -0.001782 -0.004493 0.002787 -0.000249 0.001389 0.003462 0.003839 0.000640 -0.001175 -0.004265 -0.004844 -0.001663 0.001512 0.002011 -0.004067 -0.004004 -0.002188 0.001470 0.003362 -0.000325 -0.000747 0.001817 -0.002898 0.001303 0.003673 0.000889 -0.000028 -0.003075 0.004029 0.005126 0.002563 0.001202 -0.003597 -0.001732 -0.001325 -0.001486 0.000980 0.001248 -0.001702 -0.001431 -0.004091 -0.001541 0.001861 0.000266 0.004595 0.004148 0.000750 0.004755 -0.002219 0.000995 -0.000880 0.006099 0.002342 -0.002129 0.000219 -0.002213 0.000214
sent_30 0.003148 -0.003611 -0.002698 0.005130 0.004861 0.000659 0.001928 -0.002768 0.003657 0.002247 0.001353 -0.004556 0.004191 0.003268 0.001074 0.001946 -0.003575 0.001480 -0.004108 0.001487 -0.004161 0.001321 0.000304 -0.002397 0.002458 -0.002953 0.003292 -0.003923 0.004018 0.005371 -0.001942 0.004136 0.003606 -0.001072 -0.000164 -0.003161 0.006002 -0.002236 0.003727 -0.000484 0.004921 0.002595 -0.004325 0.000869 0.001686 -0.001118 -0.003897 -0.000909 0.004336 -0.004698 -0.004496 0.002753 0.000213 -0.000484 -0.001269 0.000969 0.003140 -0.002987 0.003580 -0.001135 0.000359 0.002884 -0.003093 0.005086 0.002114 0.000599 -0.002431 0.001906 -0.002697 0.002186 -0.005732 -0.002993 0.000791 0.001942 0.000493 0.003951 0.004850 -0.000323 0.003008 0.001101 0.002028 -0.001162 -0.003169 0.004805 0.003521 -0.000557 0.001370 -0.001152 -0.004358 0.000562 -0.001819 -0.004380 -0.000446 0.004029 0.004406 -0.000103 -0.001670 -0.001844 0.005345 0.000677
sent_31 -0.002755 -0.002469 0.004645 -0.002563 -0.003904 -0.003121 0.002680 0.002065 -0.000679 0.002961 0.000151 -0.000803 -0.003759 0.003864 -0.002248 0.001102 0.004834 -0.003188 0.004654 0.001506 -0.003646 0.002596 0.004535 0.000623 0.001899 -0.004813 0.004802 -0.001880 -0.004823 0.003154 0.004765 0.002427 -0.004984 -0.004411 0.000904 -0.001668 0.003825 0.003768 0.004811 0.002193 0.003789 -0.001866 -0.003983 0.003659 -0.001945 -0.000799 0.001527 0.001090 -0.000716 -0.001192 -0.003787 0.000383 -0.002701 0.002501 0.001772 -0.004280 0.004907 0.002726 -0.002702 -0.004710 -0.000151 -0.001423 0.000426 0.001696 0.003024 -0.004902 0.002131 -0.002014 0.004815 0.003415 0.000504 0.000992 -0.003060 -0.002759 -0.003431 -0.001237 -0.003875 0.000100 0.001437 -0.003671 -0.001552 -0.004217 0.000339 0.001484 0.001186 0.003276 -0.002618 0.001148 -0.002022 -0.004019 -0.001962 -0.004237 0.004611 0.002240 -0.003877 0.002784 -0.001417 0.004177 0.000039 0.003715
sent_32 -0.002734 -0.001155 -0.001302 -0.003897 -0.001630 0.001620 -0.000247 0.003692 -0.002425 -0.001379 -0.001868 0.000573 -0.002960 -0.003129 0.004327 -0.001282 0.000835 -0.004527 -0.003614 -0.004118 0.003232 -0.004264 0.000156 -0.003382 -0.002196 0.003649 0.001219 0.004525 0.000929 -0.004836 -0.000856 -0.004690 -0.001874 -0.000263 0.000903 -0.002664 0.000627 -0.001004 -0.000060 -0.002947 -0.003397 0.002427 -0.001872 0.001353 0.000723 0.004014 0.003949 -0.000432 -0.002834 0.001277 0.001216 0.002044 0.004005 0.002729 0.001220 0.000970 -0.002879 0.001300 0.003137 0.004192 0.004397 0.000787 -0.002525 -0.001421 0.005063 0.000161 0.003091 0.000969 0.000031 -0.001628 0.000235 -0.004868 0.003805 0.000595 -0.004658 0.003237 -0.003616 -0.004634 -0.000309 0.004885 -0.004041 -0.004146 0.003974 0.003171 0.003256 -0.000012 -0.000663 -0.001040 0.000723 0.002557 0.002916 0.001635 0.000794 -0.000956 -0.001571 -0.002303 -0.001935 0.001938 0.002815 0.000969
sent_33 -0.002408 -0.002992 0.002705 0.004890 -0.004565 -0.002437 0.003026 0.001986 -0.002575 0.000600 0.000880 0.002529 -0.000156 -0.000751 -0.001674 -0.002800 -0.004042 0.001151 0.001606 0.001908 -0.004897 -0.001123 -0.004018 0.000022 0.004830 -0.000182 -0.001670 0.003079 0.004419 -0.001972 0.003184 0.005077 -0.004084 0.000160 0.003176 -0.001124 -0.000847 0.002716 -0.004150 -0.001192 0.000624 -0.002761 0.003081 0.002344 0.004700 0.000419 -0.003865 0.004499 0.003561 0.000155 0.003370 0.003823 0.002552 0.000530 0.001190 0.003287 0.001479 -0.003228 0.002066 0.000422 -0.001822 -0.004842 -0.002655 0.002127 0.004196 0.003214 -0.003937 -0.004116 0.002521 -0.002398 -0.002662 -0.004918 -0.003905 -0.003575 -0.003459 -0.000587 0.003281 0.003359 0.004332 -0.000101 0.001912 -0.000000 -0.004108 -0.004315 -0.002518 0.005215 0.002009 -0.002608 0.001986 0.001827 -0.004634 -0.001269 0.002902 -0.004604 0.004280 0.004073 0.003877 -0.003750 0.000963 0.001983
sent_34 0.004188 -0.003577 0.003307 -0.001857 0.001205 0.002273 0.003032 -0.002355 0.000630 -0.001864 0.004791 0.003414 -0.000362 0.004192 0.002179 0.003982 -0.003423 -0.002469 -0.004114 -0.002064 -0.000777 0.000388 -0.000211 0.002344 -0.002223 -0.003895 -0.001632 -0.001022 -0.001124 0.004492 -0.002217 -0.001220 -0.002914 -0.001552 -0.000635 0.000516 -0.002051 -0.002260 0.001727 0.004430 -0.003693 -0.003629 -0.004345 0.001647 -0.002688 0.001106 -0.002506 0.003575 -0.001377 0.001446 -0.003875 -0.001527 -0.002206 0.001000 0.001811 0.003325 -0.003185 0.001992 0.002194 0.000438 0.002139 -0.003622 -0.003925 -0.000083 0.002337 -0.003655 -0.001278 0.000063 0.004198 -0.004877 0.002749 0.005081 -0.002186 0.003856 -0.001821 0.003079 -0.000352 0.001096 -0.002362 0.002805 -0.003417 0.001280 0.000474 0.003284 0.000030 0.003883 -0.000794 -0.002110 0.002504 0.000004 0.000102 0.001095 0.003614 0.000534 -0.000191 -0.003975 0.002373 0.004232 -0.003313 -0.000373
sent_35 0.004457 0.001061 0.000456 -0.004005 0.000607 0.001444 -0.003153 0.004254 -0.003246 0.001992 -0.002426 -0.003845 -0.002006 -0.001243 -0.000454 -0.002723 0.002149 0.002850 0.002814 0.001932 -0.002011 -0.003728 -0.003900 -0.000783 -0.004155 0.001083 0.004339 0.002216 -0.003952 -0.004716 -0.001702 0.005094 -0.001985 0.002167 0.002453 0.000719 -0.001330 -0.002725 0.004420 -0.004101 -0.002635 -0.002166 0.003602 0.001828 -0.002147 -0.003262 0.004190 0.003263 -0.004309 0.003742 0.000472 -0.000143 0.001544 -0.004973 -0.001920 -0.004243 0.001831 -0.001558 -0.000279 -0.002096 0.003669 -0.004059 -0.002567 0.001520 0.003143 0.000778 0.002047 -0.004700 -0.002466 -0.004861 -0.000356 0.005132 -0.004694 -0.000657 -0.004694 0.001338 -0.003133 0.002390 -0.003231 0.004130 -0.002904 -0.000956 -0.002276 0.002955 0.000118 0.004508 -0.003497 -0.000197 0.002465 0.005613 0.001997 -0.003039 0.003165 -0.004555 0.003254 0.002772 0.000865 0.000081 0.004923 -0.005071
sent_36 -0.004523 -0.002209 -0.000124 0.000609 -0.000779 -0.002308 -0.002431 0.002520 -0.001613 0.000197 0.003140 0.001478 -0.000639 -0.002763 -0.000703 -0.000163 0.004840 -0.002532 -0.003564 -0.002860 -0.002877 -0.005189 -0.001899 -0.002277 0.003755 0.002589 -0.004288 0.003409 -0.004050 0.002096 0.000725 -0.004043 0.003596 0.003527 0.003386 -0.000874 -0.003506 0.005453 0.002913 -0.004194 -0.001512 0.003097 -0.000216 -0.003325 0.003089 -0.001965 -0.004884 -0.002534 0.005219 0.001341 -0.003028 0.001835 0.001506 0.000871 -0.004596 -0.002923 0.004216 0.001859 -0.003280 -0.001604 0.002006 0.003610 -0.003122 -0.003387 -0.000405 0.004030 -0.002589 -0.003622 -0.004292 -0.001889 -0.005124 0.001027 0.001958 -0.000282 0.002414 0.000223 0.002181 -0.001979 0.002734 0.001026 0.001680 -0.000303 0.000671 -0.004918 -0.000068 -0.003019 -0.003368 -0.001191 0.000549 -0.000893 -0.003290 0.002389 0.005361 0.001522 -0.003517 0.002910 -0.003777 -0.000863 0.004958 -0.002660
sent_37 -0.003589 0.002730 0.004233 -0.001651 -0.002511 -0.003265 0.004837 0.000546 0.003662 -0.001846 -0.004385 -0.000324 -0.002747 0.000333 0.000577 -0.002055 -0.002019 -0.005026 -0.000920 -0.001706 0.001324 0.003213 -0.000188 -0.004186 0.004264 0.002955 -0.001617 -0.001825 0.004267 -0.001300 0.001356 0.004922 -0.004814 -0.001832 -0.002743 0.004409 0.000117 -0.004297 0.002283 0.001978 0.001491 0.004681 0.003492 0.002209 -0.002663 -0.003456 -0.002612 -0.002920 0.000828 0.001451 0.000248 -0.004484 -0.001571 0.004361 0.001911 -0.001477 0.001963 -0.002646 -0.004211 0.000440 -0.001524 -0.000078 0.003943 0.001771 0.002635 -0.003996 -0.000290 -0.000776 0.001463 -0.002327 -0.001379 0.004863 -0.003763 -0.002989 -0.002622 0.002108 0.002248 0.003203 -0.000988 0.003987 0.001899 0.002174 0.003490 0.001121 -0.000645 -0.004432 0.001109 0.000436 0.000935 -0.001439 0.000524 -0.003181 0.001810 -0.004694 0.004098 -0.003147 -0.001700 0.003774 0.004175 0.003203
sent_38 -0.001628 0.003968 0.002787 0.001652 0.003937 0.003031 -0.000820 -0.001722 -0.001259 -0.004555 -0.001293 -0.001465 0.003732 0.003869 0.004780 -0.001792 0.001996 0.001355 -0.002557 0.003756 -0.002872 0.002496 -0.003536 -0.003982 0.002167 0.000264 -0.000680 0.002861 -0.001529 0.003642 0.004636 0.004840 -0.002218 -0.000709 0.002200 0.003966 0.002069 0.002415 0.003737 -0.001403 0.000350 0.000299 0.001513 0.004096 0.001108 0.004775 0.002306 -0.000890 0.000719 0.004137 0.001312 0.001994 0.001533 -0.001565 -0.002762 -0.000878 -0.003436 0.003196 0.002089 -0.001240 -0.003406 0.003793 0.001426 0.004931 -0.004023 -0.002620 -0.004159 0.002350 -0.003548 0.003822 -0.000081 0.000309 -0.004589 0.001133 -0.002714 -0.002965 0.003947 0.003834 -0.004963 0.003244 0.004005 0.000009 0.001542 0.002752 0.001955 -0.000414 0.000698 0.000679 0.003530 -0.002730 0.002568 0.003244 0.002754 0.003107 0.003274 -0.000775 0.001341 0.002737 0.002722 0.004570
