35 100
sent_0 -0.000475 0.002514 -0.004768 -0.001881 -0.003301 -0.003990 -0.003018 -0.001750 -0.001399 0.000650 -0.000915 0.002274 -0.002584 0.003967 -0.004786 0.001292 -0.000958 -0.000088 -0.003627 -0.003151 0.003449 0.004036 -0.001763 0.001901 0.003926 0.003463 -0.004755 -0.005005 -0.003732 0.004280 -0.003799 -0.000535 0.004499 0.000101 0.002354 -0.002206 0.002041 0.003579 -0.005154 0.002768 0.005113 0.002133 -0.002877 0.002820 -0.004018 -0.000461 0.004542 -0.001782 -0.001624 -0.004158 -0.004886 0.002093 -0.002927 -0.002669 0.000119 -0.004647 0.000796 -0.003962 0.001156 0.002049 -0.003668 -0.000689 0.001703 -0.000277 -0.004236 0.000133 0.001734 0.000412 0.004279 0.000359 0.003479 -0.003613 -0.003559 0.003049 -0.000962 -0.003408 0.004358 -0.001477 0.002892 0.002970 0.003921 0.001877 0.002999 -0.001542 -0.002172 0.004794 -0.000444 0.004544 0.001217 0.001793 -0.004056 0.004857 -0.000315 0.000478 -0.000276 -0.003103 0.004377 0.001102 -0.004546 0.001188
sent_1 -0.001556 0.000360 0.003994 -0.001303 0.004143 0.001348 -0.004817 0.004253 0.001726 0.005018 -0.003324 -0.003478 0.004495 0.002012 -0.004371 0.002381 0.002495 0.004037 0.002128 -0.003811 -0.004644 -0.005022 -0.004648 -0.002531 0.003635 0.000194 0.000313 0.003276 -0.003921 -0.002022 0.000937 0.004821 0.000593 -0.004904 0.003162 -0.002768 0.003109 -0.001092 0.003457 0.002570 0.000579 -0.003796 -0.004631 -0.003729 -0.004490 -0.003916 -0.002583 0.002210 0.000778 -0.005005 -0.004304 0.004805 0.000615 -0.003073 -0.002381 0.002451 -0.003026 0.000639 0.004749 0.003372 -0.002490 0.000047 0.001105 0.003527 -0.003351 -0.004918 -0.004330 -0.000083 0.000931 0.000568 -0.002068 0.004940 0.000831 -0.001242 0.000594 0.002410 0.001688 -0.002410 -0.004223 -0.001053 0.001332 -0.002704 0.002701 -0.004373 -0.002314 0.003386 -0.003018 0.001326 0.000135 0.004460 -0.002399 -0.004196 0.002370 0.002671 0.004324 0.004130 -0.004719 -0.002474 0.001366 0.004463
sent_2 0.004847 0.001280 0.004640 0.001783 -0.001046 0.000249 0.001157 0.000300 0.003501 0.004532 -0.001406 0.005015 -0.002594 -0.003579 -0.004262 -0.000472 -0.005002 0.003778 0.003370 -0.005219 -0.002504 -0.002833 -0.003258 0.003385 -0.001383 0.003530 0.000120 0.003148 0.003033 0.004710 -0.000271 0.001002 0.003133 -0.002426 0.000881 0.000196 -0.004050 0.001024 -0.001155 0.003280 -0.001477 0.003281 0.000001 -0.002912 0.003015 0.000924 -0.003576 -0.000215 0.002601 0.003774 -0.005303 0.005449 -0.001191 0.004401 0.001257 0.003385 0.000544 0.000641 -0.002028 0.000531 0.002611 0.003993 0.002032 0.002775 0.003842 -0.002146 0.001660 -0.000428 -0.001679 -0.001537 -0.001829 -0.001711 0.001280 -0.000971 0.005251 0.001785 -0.002973 -0.000936 -0.001241 0.003829 0.004160 0.005169 0.002269 -0.002413 -0.002147 0.004894 0.000611 0.003031 -0.000027 0.003336 0.000181 0.003251 0.001035 -0.000381 -0.000603 -0.005016 -0.000962 -0.003432 0.005546 -0.003208
sent_3 0.003056 0.003896 0.001815 0.000779 -0.003368 -0.000391 -0.001454 -0.002836 0.000911 -0.001835 0.004127 0.004038 -0.002361 -0.003763 -0.003137 0.000073 0.002259 -0.002840 -0.002559 0.003460 -0.000848 0.001024 -0.002724 -0.003888 0.000132 -0.000287 -0.003407 0.001212 0.000494 0.001463 -0.003649 0.002521 -0.002793 0.000187 0.002896 -0.004753 -0.001761 0.003736 0.003409 0.000439 0.003641 0.004496 0.003244 0.003401 -0.003947 0.001536 0.002074 0.001184 0.002991 -0.004589 0.002534 0.002370 -0.002453 -0.002473 0.001217 -0.001597 0.002949 -0.000657 0.002761 0.004912 -0.001787 -0.003438 0.003938 0.000525 0.004775 0.001327 0.004857 0.000397 0.000319 -0.003683 -0.001428 -0.004679 -0.003382 0.002471 -0.004624 -0.001220 0.003651 0.002049 0.001886 -0.002963 -0.000580 0.000886 0.004959 -0.002998 -0.002510 -0.002273 0.002525 -0.000443 -0.004448 0.000249 -0.002743 0.002983 -0.001843 -0.004779 0.001015 0.003378 -0.001172 0.002488 0.000205 0.000408
sent_4 0.004884 0.003334 -0.004265 0.002722 -0.000424 0.004912 -0.002716 -0.002310 -0.004590 -0.000712 -0.004191 0.001435 0.003578 0.002006 0.002446 -0.001810 0.003335 -0.000904 0.003355 0.001110 -0.003178 -0.005108 -0.004533 -0.004181 -0.000487 -0.004316 -0.005043 0.002142 -0.001195 0.002691 -0.000450 -0.000059 -0.000255 -0.000476 0.003416 -0.001017 0.004097 -0.004614 0.002280 -0.003646 0.001141 -0.005231 0.000024 -0.004756 0.004981 0.004002 0.003418 0.004397 -0.003179 -0.003480 -0.003300 0.001601 0.003801 0.004690 0.002131 0.002623 0.004061 -0.001531 -0.002694 -0.003603 -0.003399 0.003598 -0.003867 -0.001693 0.003467 -0.002075 0.004527 -0.002321 -0.000213 -0.001847 0.003503 -0.001223 -0.000573 -0.000241 0.004839 -0.004696 0.002110 0.003687 -0.004602 0.000742 -0.001619 0.003966 0.001010 0.001658 -0.000117 0.002075 -0.002009 -0.005077 0.000577 -0.001238 0.000376 0.004428 -0.000543 -0.002466 -0.000572 0.003856 0.004672 0.003860 0.004869 -0.002844
sent_5 -0.003956 -0.002565 -0.001758 -0.003054 0.001165 -0.000795 0.003285 -0.003259 0.001884 -0.002518 0.000670 -0.001371 -0.004212 -0.002584 0.001618 -0.000140 0.000140 -0.003434 0.000683 0.004889 0.003332 0.000509 0.004758 0.004048 0.000954 -0.004897 -0.004267 -0.004521 -0.000607 -0.001129 0.004783 -0.003173 0.004660 0.002550 0.003400 0.001322 0.001628 -0.000128 -0.005079 -0.001341 -0.000080 0.002159 -0.000576 -0.000495 -0.003509 -0.004839 0.002776 -0.001677 0.005043 -0.002899 -0.001727 0.000370 0.002414 -0.000540 -0.003761 -0.001893 0.000108 0.001460 0.002701 -0.003726 -0.004423 0.000396 0.002961 -0.004539 0.001918 0.001758 -0.000607 0.004216 0.001335 -0.005082 -0.000438 0.003672 0.003375 0.001434 0.001855 0.000813 -0.002235 0.000657 0.001850 -0.001089 0.003552 -0.002825 0.002735 -0.002203 0.002840 -0.000309 0.003161 -0.001590 -0.002999 0.003025 -0.001873 0.002449 0.002626 -0.002926 -0.002505 -0.003270 -0.003376 -0.001094 -0.004427 -0.003950
sent_6 0.001714 0.003009 -0.004227 -0.002662 -0.002883 0.004098 0.002176 0.000526 -0.001980 0.003374 -0.000625 0.004179 0.002062 -0.000197 -0.003750 0.004755 -0.003453 -0.002959 -0.000696 -0.000979 -0.003536 0.002286 -0.003043 0.001548 0.002509 -0.002930 0.001081 0.002480 0.001397 0.000946 -0.002065 0.002273 0.004438 -0.000707 0.002788 -0.004452 0.003357 -0.003132 -0.001122 -0.001970 -0.004306 0.004049 -0.001328 0.000334 -0.000020 -0.003674 -0.002925 -0.004267 0.000073 -0.002335 -0.001442 -0.003877 0.002887 -0.003983 0.004840 -0.003229 0.000681 -0.004517 0.002845 -0.003157 0.000299 0.002403 -0.003549 0.000498 -0.002927 0.002563 0.002176 -0.003257 0.003662 -0.004813 0.003632 0.000676 -0.000953 0.002601 0.002206 0.004913 -0.002277 -0.004946 0.004301 0.003635 0.002322 0.000192 0.001997 0.002823 -0.001199 0.002703 0.002502 0.001135 -0.000995 0.002021 -0.004901 0.002739 0.003974 -0.002610 -0.003816 -0.002842 -0.002006 0.003813 0.000453 -0.002151
sent_7 -0.003527 -0.001720 0.001213 -0.001538 -0.000263 -0.000587 0.003534 -0.000964 -0.001801 0.001967 -0.002922 -0.000233 -0.001559 0.001544 0.003585 -0.000645 0.002763 -0.000667 0.001508 -0.003891 -0.000383 0.003460 0.001139 0.002882 0.000072 -0.000441 0.003253 -0.004613 0.000604 0.004596 0.000165 -0.002889 0.003468 -0.002638 0.002363 0.000207 0.004698 0.001367 0.003122 -0.004773 0.005009 -0.004492 -0.002169 0.004353 -0.004838 0.003232 0.003982 -0.000298 -0.002128 0.002938 -0.000503 -0.003392 0.004213 0.003713 -0.000180 0.003499 -0.000893 0.001457 -0.001020 0.000003 -0.002704 0.004968 -0.002355 -0.003532 -0.003441 -0.005077 0.002021 0.000667 0.002889 -0.000239 0.002604 0.002127 0.002894 -0.000998 0.001695 -0.003082 -0.001751 -0.003157 -0.000773 -0.001997 -0.000840 0.005287 -0.001477 0.004782 0.001528 -0.000607 0.003761 0.001125 -0.002825 0.003538 -0.000520 -0.001279 -0.001324 0.001810 -0.001828 0.002702 -0.001902 0.000672 0.000267 0.003532
sent_8 0.003929 -0.003121 0.000815 0.003994 -0.000501 0.004204 -0.002158 0.001039 0.001829 -0.002698 -0.004845 -0.000790 0.004414 -0.001524 0.002834 -0.003255 -0.001600 -0.003571 0.002151 0.001982 0.001843 -0.002533 0.001833 -0.002726 -0.000776 -0.001280 -0.001482 -0.004391 0.001299 0.002065 0.001111 0.001481 -0.003348 -0.003495 0.000120 0.003799 -0.003258 -0.000369 -0.000752 0.000025 -0.003468 -0.001562 -0.002424 0.003370 0.003040 -0.000666 0.001061 -0.003571 0.000089 -0.002060 0.003568 0.001703 0.001298 -0.003804 -0.000286 0.004823 0.004564 0.001416 -0.003490 0.001400 0.000780 -0.000286 -0.000720 0.001026 0.003557 0.002489 0.000783 0.004246 -0.004314 0.004859 -0.004494 -0.002969 -0.000768 -0.003890 0.001250 -0.004503 -0.002149 -0.004309 0.002038 0.001780 -0.001260 -0.003119 0.002515 -0.001634 0.002944 -0.000083 0.000257 -0.004773 0.001451 -0.001443 -0.002706 -0.000644 -0.001127 -0.000386 0.004827 -0.001390 0.002817 0.000504 0.003961 -0.001495
sent_9 -0.002148 0.004386 -0.004402 0.004789 0.000830 -0.001117 0.005149 -0.004665 -0.000059 -0.004510 0.000594 -0.002833 0.001702 0.005083 0.003782 -0.000753 0.002020 0.002333 -0.000113 0.000166 -0.003192 -0.002130 -0.003664 0.002206 -0.000173 -0.000933 0.003364 -0.000029 -0.001229 -0.002024 -0.004142 -0.000563 -0.004896 -0.002366 0.000336 0.004625 -0.004025 0.001988 -0.000336 0.003052 -0.003500 -0.004477 -0.001565 0.002739 -0.002957 0.002805 -0.001766 -0.002565 -0.004418 -0.001315 -0.001366 0.001820 -0.004520 -0.003800 -0.004820 -0.003976 0.001687 -0.001487 -0.001681 0.000604 0.005604 0.003686 0.001779 0.004835 -0.004176 -0.004501 -0.000364 -0.001314 0.004195 -0.000441 -0.000177 0.004069 -0.000395 0.003727 -0.002328 -0.002255 -0.001619 0.000622 -0.002487 0.002478 -0.003628 -0.003617 0.004254 -0.002799 -0.001011 0.001522 0.000430 -0.004511 0.003469 0.005120 0.003113 -0.001928 0.000611 -0.001959 0.001241 0.004268 -0.001479 0.001936 -0.001197 0.002649
sent_10 -0.001718 0.003777 0.002349 0.002426 -0.000185 -0.003056 -0.004490 -0.001827 -0.004444 0.002006 0.001801 -0.000642 0.002534 0.000372 -0.004400 -0.003628 -0.003066 -0.001754 -0.004507 0.001089 0.000011 0.001325 -0.000825 0.003399 -0.000482 -0.004709 0.003709 0.001656 0.003216 0.004480 -0.004464 -0.002788 -0.004479 -0.000733 0.003462 -0.004062 -0.000452 -0.003646 0.002797 0.003407 -0.004660 -0.000042 -0.002640 0.004397 0.004331 0.001277 0.004618 -0.001687 0.003904 -0.000737 -0.002535 0.004233 0.001912 -0.004427 0.003694 0.001878 0.001220 0.002466 -0.002391 0.001192 0.003198 -0.004612 -0.003623 0.003240 0.001244 0.000391 -0.002409 -0.001917 0.003924 -0.000851 -0.004275 0.003956 -0.002962 0.003359 0.003672 -0.000164 0.000962 0.000439 0.001281 0.003572 -0.002308 0.003744 0.000610 -0.003817 -0.002796 0.000761 -0.002592 -0.003774 -0.003376 0.003339 0.000896 0.004553 -0.001537 0.000778 0.000867 0.001214 -0.004346 0.002309 0.004410 0.000285
sent_11 -0.002848 0.003480 -0.004775 -0.001105 0.004508 0.000914 0.004042 0.000532 0.002471 0.004235 -0.002130 -0.003564 0.002994 0.000106 -0.004220 0.000589 -0.004882 -0.003416 0.002780 -0.005370 -0.001352 -0.006245 0.005134 0.001336 -0.001980 0.003281 -0.000331 -0.001051 0.000529 -0.001945 -0.002019 -0.000896 -0.002552 0.000514 0.002800 -0.004773 0.005210 0.002647 0.002376 0.002980 -0.004041 -0.000854 -0.001455 0.001435 -0.000213 0.002060 0.002622 0.002690 0.001838 -0.003680 0.001830 0.003531 0.003819 -0.003165 -0.003360 -0.001276 -0.001999 0.002183 0.001111 0.002301 0.000226 -0.003164 -0.004557 -0.000135 -0.002886 0.002645 0.000645 0.001805 -0.000239 -0.004805 -0.003323 0.000055 -0.002823 -0.004824 0.002864 0.002558 -0.001623 0.003679 -0.000441 0.005056 0.001822 0.001992 -0.002251 0.000187 0.004298 -0.000356 0.004045 0.003936 -0.002339 0.003231 0.004424 -0.003783 0.004597 -0.003411 0.004591 0.000798 -0.001172 -0.002843 0.002271 0.003472
sent_12 0.003250 0.001376 0.004605 0.000965 -0.002994 -0.000674 -0.001578 0.004869 -0.001321 0.004959 0.000145 -0.003266 -0.004173 -0.001226 -0.003805 0.001300 -0.000855 0.004874 0.004312 -0.003565 -0.000964 -0.000543 0.000672 0.002864 -0.000118 -0.000941 -0.002428 0.004029 -0.004838 0.003275 -0.003103 0.001910 -0.001414 0.004727 -0.003676 -0.003202 0.004013 0.000816 -0.001989 -0.004992 -0.002668 -0.003657 -0.003046 0.003964 0.003758 0.001995 -0.000189 0.003381 0.000021 -0.001375 -0.002305 0.004314 -0.001143 -0.000082 -0.002457 0.003858 -0.001226 -0.002134 0.002172 -0.003183 -0.003783 0.003485 0.002361 0.001000 -0.002586 0.001143 0.001358 -0.001760 -0.004384 0.003728 -0.000457 0.002691 -0.002422 0.000885 -0.000651 -0.001167 -0.003735 -0.002558 -0.004200 -0.001863 0.002465 0.001303 0.001785 -0.004882 0.001856 0.000205 -0.002648 -0.003254 -0.003232 0.003570 0.004888 0.004191 -0.001471 0.002799 0.000569 0.003082 -0.000120 0.001010 0.002958 -0.003996
sent_13 0.000734 -0.000460 0.001222 0.004801 -0.000584 -0.001236 0.003448 0.000799 -0.001490 0.002477 -0.001099 -0.003167 -0.000004 -0.001020 -0.003237 0.003925 0.001777 0.000390 0.002223 -0.000041 0.002501 0.002892 0.003459 -0.003027 -0.002269 -0.005122 0.004245 -0.003035 0.001305 -0.003645 -0.002894 0.000357 -0.004029 -0.001413 0.001157 -0.002164 0.000976 0.000762 -0.001398 0.002334 0.002115 0.001312 -0.000201 -0.001863 0.001094 0.004440 0.001657 0.005520 0.000243 0.002105 -0.005145 0.003133 0.000086 -0.005444 -0.002378 0.000081 0.002661 -0.005150 0.000662 0.003070 0.002452 0.004845 -0.004687 -0.001356 0.004663 0.002188 0.000835 0.003365 0.003898 0.003771 0.004156 -0.003248 -0.004015 -0.004178 -0.004518 0.004979 -0.003823 0.003884 0.002217 0.001152 -0.001481 -0.000170 -0.001635 0.003959 0.002405 -0.003394 0.000048 -0.002403 -0.005635 0.005027 0.002929 -0.001404 0.003816 -0.002317 -0.000817 0.003465 0.005051 0.000667 0.005336 0.003746
sent_14 0.000094 -0.001357 0.001695 -0.000680 0.001177 0.004581 0.002964 -0.001787 -0.003693 -0.003095 0.000451 -0.000861 0.002774 0.004425 -0.002946 0.003855 0.004563 0.004686 -0.004730 -0.004360 -0.005303 -0.001646 -0.004892 -0.002132 -0.001580 0.004888 -0.000080 -0.001904 0.000201 0.001111 -0.004053 0.002329 0.003286 0.003603 0.003525 -0.000808 -0.001059 -0.003862 -0.002585 0.004745 -0.002462 0.004399 0.004041 0.003822 -0.003483 0.004086 0.001020 -0.003138 -0.001815 -0.003365 -0.000542 -0.004497 -0.003347 -0.003141 0.001749 0.000479 0.004081 -0.002374 0.001263 -0.004317 0.000512 0.003476 0.004993 -0.005194 -0.002296 -0.002590 -0.004467 -0.004830 0.000319 -0.004581 -0.001964 0.001405 -0.002079 -0.002099 0.000722 -0.001078 0.002038 0.000426 0.001271 -0.001438 -0.002423 -0.003978 0.004262 0.002981 0.004212 -0.003594 0.004304 0.004194 -0.002025 -0.002403 0.000499 -0.003362 -0.000391 -0.003485 0.004228 0.000089 0.004735 0.000995 -0.000230 0.004536
sent_15 -0.003291 0.001739 0.001836 -0.000479 -0.004241 0.000091 -0.000198 0.002819 -0.002852 -0.000931 -0.002663 0.002153 0.005251 -0.003003 0.003012 -0.002983 -0.004438 -0.003976 0.004290 0.003708 -0.001810 0.003748 0.003531 -0.000579 -0.000245 0.000824 -0.003844 -0.005077 -0.002621 -0.004492 0.001813 0.000785 -0.001780 0.002678 -0.003060 -0.002932 -0.001784 -0.002965 -0.004351 0.003872 -0.003941 0.001471 -0.004202 -0.004902 0.000594 0.004083 0.004004 -0.001259 -0.004290 0.002737 0.002913 0.003959 0.001617 0.002884 0.004093 -0.000527 0.000553 -0.000328 0.002046 0.001650 0.000464 0.003541 -0.000149 0.003718 -0.001997 -0.003496 0.004645 0.002398 -0.002610 0.000319 0.004059 -0.004030 -0.004070 0.001174 -0.002556 0.002668 0.000790 0.001736 -0.003727 -0.003615 0.001320 -0.000297 -0.003696 -0.001331 0.001864 -0.002361 0.004155 0.004405 0.004196 0.002816 -0.000895 0.002707 -0.001905 -0.002052 0.001640 0.000575 0.003993 -0.002024 0.003069 0.004383
sent_16 -0.005285 -0.000202 0.001257 0.003406 -0.003118 0.003200 -0.001118 0.003825 -0.004393 -0.004113 0.004902 0.000820 -0.000960 -0.003200 0.001557 -0.004287 -0.001934 -0.001491 0.000959 0.001535 0.003220 0.004393 0.001434 0.000946 -0.001186 0.004870 -0.003071 0.004109 -0.001576 0.000042 0.001579 -0.002828 -0.003458 0.000226 0.002635 0.002220 -0.004118 0.004038 -0.000124 0.004473 0.000281 -0.003830 -0.002763 0.003230 0.002118 0.004060 -0.001869 0.000173 0.001274 0.001208 -0.002812 -0.000867 -0.002552 0.003368 0.004544 -0.004456 0.002185 -0.001596 0.001079 -0.002190 0.001864 -0.001300 -0.002042 0.003958 0.004430 0.001247 -0.002993 0.004335 0.002814 0.002601 -0.002591 0.003370 -0.002587 0.001395 0.002072 0.002685 -0.001106 0.002963 0.003871 0.000886 -0.004199 -0.003921 -0.004112 -0.003338 -0.003763 0.002424 -0.004596 -0.002594 0.003896 0.004762 0.001295 0.004513 -0.004275 0.004327 -0.002055 0.003062 0.003008 0.003203 -0.000449 0.004251
sent_17 -0.001998 0.004546 0.001610 0.005092 -0.004618 0.002585 0.000570 -0.000087 -0.002872 -0.001625 -0.002636 -0.002476 0.003332 0.000032 -0.004375 0.002315 0.000226 0.002046 0.000239 -0.001152 0.005200 -0.005299 0.004543 0.004342 -0.000993 -0.003287 0.000728 -0.003464 0.002703 -0.001952 -0.001898 0.004450 0.004073 0.000190 0.004021 -0.001858 0.005273 -0.000698 -0.002338 -0.004439 0.004970 -0.000784 0.001918 0.001662 0.002400 -0.004560 0.004538 0.004501 0.000966 0.004415 -0.002197 0.001391 -0.001085 0.001203 -0.001713 0.003366 -0.004361 -0.004844 -0.004405 -0.003826 -0.001032 0.004746 -0.004059 0.001945 0.000375 -0.001686 -0.003044 -0.002778 -0.004995 0.001896 0.000967 -0.000456 0.002238 -0.004001 0.004636 0.003333 0.001568 -0.001482 -0.000659 0.000206 0.004500 0.004146 0.000100 0.000470 0.003915 0.005209 0.001443 0.002396 -0.001770 0.004514 0.003334 0.000874 0.003595 0.003547 0.003590 -0.004066 0.000539 0.004486 0.003109 -0.000864
sent_18 0.004763 -0.002470 -0.001718 0.004503 0.003190 0.003861 -0.004784 -0.001277 -0.002587 -0.001952 0.002397 0.002228 -0.000414 -0.001266 0.000874 0.000354 0.000488 0.001126 -0.001089 0.002683 -0.002478 0.001502 0.004582 -0.004908 0.002220 -0.003947 0.000477 0.001256 -0.002554 0.004121 0.001221 -0.002737 0.002666 -0.003951 0.000520 -0.004036 0.000795 -0.002411 0.001497 0.002169 0.000235 0.001571 0.003073 0.002976 0.001164 -0.000462 -0.000909 0.003779 0.002062 -0.003124 0.000626 0.004084 -0.003471 0.003395 0.003118 -0.000055 -0.004631 -0.003510 0.004235 -0.004482 -0.001152 0.001200 -0.003063 0.004814 -0.003427 0.000381 0.001159 -0.002659 -0.000258 -0.000149 0.002668 0.001401 -0.000268 0.001708 -0.000481 0.000306 0.001584 -0.003085 0.002893 0.001140 0.004791 -0.002691 -0.000336 0.003971 0.001027 0.002279 -0.000823 0.001813 0.004384 -0.002926 0.003117 0.004650 -0.004748 -0.002933 -0.003791 0.002612 -0.004202 0.004913 -0.001073 0.004024
sent_19 -0.002796 -0.000546 0.003451 0.000815 -0.000046 0.000095 0.000802 -0.000843 -0.003142 -0.003768 -0.003352 -0.004162 0.000599 0.003679 -0.001200 -0.004464 -0.000635 0.000753 -0.000869 0.003127 0.004409 0.003401 0.001816 -0.000531 0.001907 -0.005028 0.004460 -0.003204 0.003786 0.003314 0.003181 -0.002337 -0.002913 -0.000734 0.003530 -0.000624 0.004336 -0.001347 0.001254 0.004908 0.001528 -0.004742 -0.000561 -0.001904 0.000187 -0.001980 -0.003752 0.001888 0.002026 0.003394 -0.003573 0.002947 0.003230 0.001461 -0.002857 -0.002573 -0.000687 0.000343 0.000043 -0.000293 0.003626 0.003706 0.003238 0.003927 0.000914 0.004526 0.001178 0.001091 -0.001826 0.001421 -0.004728 -0.003547 -0.003589 0.001763 -0.003383 -0.001678 -0.004387 -0.002406 0.004790 0.000344 -0.003627 0.000459 0.004670 0.003705 -0.001116 -0.001942 0.002709 -0.002779 -0.002637 -0.004178 0.003601 -0.000423 0.000641 0.002012 0.003201 -0.000616 -0.003007 0.003392 -0.004602 0.004417
sent_20 0.000834 0.003934 0.001166 -0.002416 -0.001998 0.000390 0.004654 -0.003232 -0.000097 -0.001475 0.002618 0.003113 -0.000612 -0.002859 -0.004458 -0.003126 -0.002297 0.000852 0.003733 -0.003817 0.004743 0.001583 0.002484 0.004889 -0.000772 0.000100 0.001652 -0.000005 -0.002122 -0.003779 -0.002120 0.002789 0.001459 0.002934 0.000408 -0.002876 0.001499 -0.001937 -0.004796 0.004091 -0.000660 -0.000921 0.002226 0.004496 -0.004284 -0.003311 -0.001592 -0.002344 0.000120 0.003151 0.003426 0.001109 -0.002589 -0.003187 0.002472 -0.002651 0.000324 0.002323 -0.002669 -0.003329 -0.004566 -0.003399 0.003392 -0.003757 -0.002753 -0.004789 0.001762 -0.002692 -0.000932 -0.003776 -0.001381 -0.000715 -0.000249 -0.000794 -0.003879 0.002731 -0.003598 -0.000781 -0.002203 -0.001778 0.001803 0.000462 -0.002945 -0.000290 -0.001555 0.002377 -0.002662 0.003461 0.000096 0.000233 -0.002450 -0.003015 -0.000191 0.004803 -0.003465 -0.002308 0.003057 0.001843 -0.002084 -0.001820
sent_21 -0.000701 0.001147 0.002273 0.003652 0.001863 -0.002559 0.004277 0.002754 -0.002087 -0.001886 0.003740 -0.003640 0.001474 -0.002138 0.003214 -0.001473 0.002313 -0.003219 -0.000178 0.002968 -0.000883 -0.003616 0.001537 0.002548 -0.002139 -0.000671 0.003846 0.003591 0.001943 0.001068 0.003229 0.004169 -0.004956 -0.001118 0.000789 0.002217 -0.004003 -0.000966 -0.002312 -0.000698 0.000076 0.001438 -0.000231 0.001201 0.000838 -0.000729 -0.004801 -0.002925 -0.001654 -0.003635 0.000906 0.001237 -0.000022 -0.001851 0.001578 -0.003117 -0.004968 0.002180 -0.000515 0.001923 -0.003072 -0.004255 -0.001321 0.002165 -0.003926 -0.003138 -0.000464 0.001240 0.002423 -0.004025 0.001086 -0.001097 0.001726 -0.002990 0.000347 -0.003295 -0.004791 -0.000158 -0.003066 0.001596 0.000415 0.002963 -0.000915 0.004896 0.000201 0.000095 0.002552 0.000701 -0.001489 0.000088 -0.003119 -0.000946 -0.004636 -0.000409 -0.002053 0.000126 -0.004617 0.000715 -0.001935 0.000793
sent_22 0.002358 -0.000513 0.001662 -0.002580 0.005009 -0.002539 0.004410 -0.002863 -0.000127 0.003253 0.002118 0.002094 -0.000523 0.002602 0.004146 -0.000644 0.000270 -0.004401 -0.001087 -0.000374 0.004032 -0.004003 0.002341 0.000475 0.001111 -0.004811 -0.003603 -0.002225 -0.005018 0.001781 0.003725 0.000511 0.000462 0.001112 -0.001864 -0.001429 0.000866 0.003098 -0.003028 -0.001692 0.002506 -0.001691 -0.004623 -0.003446 -0.003068 -0.000068 0.001434 0.003893 0.004095 -0.001979 0.002467 -0.002098 -0.001308 -0.002085 -0.000841 -0.002873 -0.001851 -0.003872 0.004661 0.000002 0.004244 0.002531 -0.000485 0.002651 0.001275 -0.002022 0.000225 0.002119 -0.001976 -0.004950 -0.002378 0.002983 0.004306 0.001249 -0.003633 0.002574 0.000286 0.002523 0.003626 0.004581 0.001588 0.003676 0.002501 0.002291 0.003605 0.004400 0.004052 -0.001035 -0.004223 0.003398 0.000393 0.000490 0.003291 -0.004683 0.003873 -0.004716 0.001960 0.000976 0.001469 -0.001230
sent_23 -0.001987 0.000287 0.003949 0.000749 0.001734 -0.000449 0.004730 0.002283 -0.001878 0.001548 0.000506 0.004074 -0.001943 -0.003830 -0.003068 -0.001435 0.003357 -0.002623 0.001232 0.001239 -0.000721 -0.004802 0.002561 -0.001951 -0.000979 -0.001545 0.001210 -0.004234 0.000143 -0.004553 0.004907 0.001092 -0.001190 -0.003401 0.002115 0.003792 -0.001815 0.002468 -0.002575 0.004818 0.001814 0.001131 0.003928 -0.002282 0.004393 0.001859 0.002964 0.000750 0.003546 0.001664 -0.003517 0.001312 -0.002316 0.003949 -0.002650 -0.002282 -0.004436 -0.000791 0.000704 0.000426 0.004152 -0.001457 -0.000648 0.003798 0.000799 0.001337 -0.002218 -0.000137 0.001071 -0.004033 -0.004914 -0.003696 -0.000258 -0.004668 0.001363 -0.004002 -0.002468 -0.000653 -0.003684 -0.001871 -0.004661 0.005057 0.001279 -0.001240 -0.004556 -0.000618 -0.000413 0.004225 -0.002285 0.001394 0.001581 -0.002736 0.000001 0.002662 -0.003771 0.000738 -0.004390 -0.004596 -0.004114 -0.000263
sent_24 0.004323 -0.000714 -0.004126 0.004024 0.000224 -0.001753 0.004833 0.004345 -0.002571 -0.002904 0.000745 0.003359 -0.001327 0.000951 -0.003555 -0.003116 0.002434 -0.003536 -0.002306 0.001755 -0.004676 -0.005243 -0.001917 -0.001343 -0.001507 0.002789 -0.004640 -0.001653 0.001410 -0.003592 0.003499 0.001623 -0.003929 -0.003004 0.002598 -0.000936 -0.000195 0.003851 -0.003979 0.004774 -0.004811 -0.004132 -0.002999 0.003128 -0.000083 0.001525 -0.002995 -0.003240 0.000397 0.002513 -0.000572 0.003983 0.001461 -0.002749 -0.002776 -0.001105 0.002508 0.004120 0.003418 -0.002570 -0.000466 0.001414 0.000187 -0.000729 -0.003915 0.002012 -0.004415 0.003639 0.003450 0.002093 -0.000422 0.002192 -0.000970 0.002788 0.003200 -0.003311 -0.001942 -0.001579 -0.001367 0.001105 -0.004493 0.001839 -0.002838 -0.001013 -0.000233 -0.001086 -0.001118 -0.003305 -0.004451 0.001027 0.001239 -0.003471 -0.002435 -0.002151 0.003696 -0.003816 0.000632 0.000789 -0.001113 -0.001620
sent_25 0.004536 0.000508 0.001463 -0.000237 0.001484 0.000938 -0.003552 -0.001684 -0.000307 -0.003680 -0.001316 -0.002721 0.003385 -0.001599 -0.002706 -0.000878 0.001810 -0.004368 -0.003227 0.001972 0.002506 0.001310 0.003761 -0.003308 0.002046 0.004227 -0.003481 -0.002519 0.000489 -0.001588 0.001899 -0.004497 -0.003384 0.002233 0.004642 0.004273 0.004004 -0.003708 -0.003486 -0.004305 0.000441 0.003922 0.000345 0.002743 -0.003199 0.003631 -0.003149 -0.004482 -0.000801 0.000539 0.004748 -0.004146 -0.002198 -0.003952 -0.001095 -0.002175 0.000151 -0.001434 0.004321 0.002995 0.003560 -0.003811 0.000798 -0.002970 0.003688 -0.004805 -0.003877 -0.001211 -0.000896 -0.002277 -0.003957 -0.003844 -0.001829 0.004571 -0.003003 0.002509 -0.002386 -0.004541 -0.004830 -0.003520 -0.000370 0.002541 0.002233 -0.001456 -0.000247 0.003027 0.003407 -0.001766 -0.004974 -0.004603 0.002320 -0.002289 -0.000168 -0.003133 0.003386 0.000055 0.000245 -0.002211 0.000043 -0.004995
sent_26 -0.001941 -0.000946 -0.001890 -0.003821 0.000352 0.003137 0.004553 -0.000273 0.000279 -0.001860 -0.003770 -0.003399 0.002849 0.002687 -0.003548 -0.001235 0.000854 -0.004115 0.002895 0.000896 0.001637 0.001141 0.005046 0.000812 0.003819 -0.001523 0.001084 0.003847 0.001245 -0.001478 0.001300 -0.001138 -0.001647 0.000864 -0.002722 -0.000655 0.005018 -0.001158 -0.003520 -0.000072 0.003712 0.002836 0.002670 -0.004917 -0.002227 0.004924 -0.003259 0.000425 0.003378 -0.004035 0.001235 0.000375 -0.003131 0.003621 -0.003045 0.001336 0.002234 0.000005 0.001391 -0.004141 -0.001667 0.001376 -0.001434 0.002349 0.003588 -0.003515 0.003972 -0.001234 0.004153 0.000685 0.002401 0.000320 0.000397 -0.001802 -0.003383 -0.001126 -0.002788 -0.004734 -0.002042 -0.002457 0.003984 -0.003356 -0.002649 0.002061 0.004385 -0.001369 -0.004594 0.004573 0.001396 -0.001148 -0.000176 0.001414 -0.000968 0.003680 0.002945 0.004040 -0.001218 0.005002 0.000296 0.001475
sent_27 0.002459 0.003097 -0.001106 -0.000576 0.003293 0.002132 0.004421 0.004718 -0.003167 -0.002700 0.002221 0.002574 0.001031 0.003841 -0.002397 -0.001646 -0.000059 -0.001896 0.000409 0.001861 -0.002883 -0.000195 0.004774 -0.001858 -0.004629 0.003187 -0.000052 -0.004379 0.003843 -0.000955 0.004328 -0.001022 -0.004314 -0.002552 -0.001549 0.002530 -0.003277 -0.000666 0.003756 0.000452 -0.004048 -0.004751 0.002010 0.004620 0.002832 0.002725 0.001673 0.002954 -0.004582 -0.002434 0.001962 0.003662 0.001715 -0.003264 0.004384 0.003922 -0.004034 -0.003062 -0.002165 0.002444 0.003741 0.000753 -0.002947 -0.000797 -0.003541 0.004171 0.002675 0.000125 -0.000399 -0.004124 -0.001854 -0.003762 0.002823 0.000566 -0.002793 -0.002747 -0.002345 -0.001775 -0.001094 -0.001929 0.001715 -0.004680 -0.001663 0.002420 0.004357 0.003041 -0.002607 -0.002748 -0.003067 0.003787 -0.002643 0.002591 -0.002362 -0.004822 0.002364 0.002254 -0.004057 -0.001781 0.004499 -0.003394
sent_28 -0.003905 0.001206 0.004522 -0.003480 0.000231 0.001940 -0.003188 -0.005025 0.003572 -0.004486 -0.002534 0.001732 -0.001882 -0.004740 0.000607 -0.002157 -0.003555 0.004446 -0.003367 0.002100 0.004204 0.003066 -0.003077 -0.002528 -0.004749 0.003945 0.003581 0.000710 -0.004119 -0.002947 0.000840 -0.002284 -0.001977 -0.003441 -0.002781 -0.000594 0.000288 0.000199 0.004729 -0.003578 0.002696 0.002641 0.000465 -0.000351 0.004005 0.003272 -0.004185 0.004870 -0.004594 0.000588 0.000572 0.003581 -0.001228 -0.004248 0.000895 -0.004744 -0.001416 0.004529 0.003740 -0.003598 0.003226 0.003357 0.004086 -0.002348 0.000123 0.003069 0.001610 0.000972 0.001339 -0.002868 -0.005125 0.002472 -0.001644 -0.001282 0.001300 0.001570 -0.002943 0.003222 -0.001019 0.001782 0.004753 0.001127 -0.001092 0.001147 0.000140 0.000150 0.002443 0.004167 -0.000496 -0.003677 0.000718 -0.002324 -0.004444 0.002804 -0.001827 0.002417 0.000064 -0.001515 -0.001511 -0.004619
sent_29 0.000387 0.003150 -0.004225 -0.004010 0.000366 0.001546 0.001944 -0.001892 -0.004485 -0.000858 -0.002679 -0.004934 0.001784 0.004518 -0.000964 -0.001982 0.000569 0.003494 0.002918 0.001913 -0.000771 0.001964 -0.002972 -0.002287 0.002779 0.004394 -0.003132 -0.001953 -0.004942 -0.000731 -0.002859 0.001357 0.002024 -0.003812 -0.004289 0.004157 -0.001260 0.000400 0.004720 0.002610 -0.001776 -0.004076 0.000390 -0.001763 -0.004842 0.002772 -0.001259 0.000665 0.002530 0.004363 0.001197 -0.001937 -0.003904 -0.004260 -0.001820 0.001542 0.002053 -0.002849 -0.004113 -0.001820 0.000546 0.002461 0.000389 -0.002185 0.001333 -0.002294 0.001576 0.003483 0.001453 0.000643 -0.001918 0.003737 0.004895 0.002843 0.000629 -0.003605 -0.001811 -0.001234 -0.002061 -0.000570 0.001011 -0.002979 -0.002498 -0.003899 -0.001997 -0.000147 -0.000114 0.004898 0.004857 -0.000750 0.004658 -0.002915 0.000406 -0.000575 0.004637 0.003416 -0.002842 -0.000722 -0.003367 0.000267
sent_30 0.002969 -0.004691 -0.003055 0.004931 0.004690 0.000527 0.001581 -0.002243 0.004707 0.001765 0.001568 -0.004962 0.003597 0.002747 0.001895 0.002432 -0.003505 0.002126 -0.003985 0.002070 -0.004932 0.002484 0.000006 -0.002925 0.002183 -0.001877 0.003868 -0.003327 0.004486 0.004575 -0.001924 0.003666 0.003278 -0.000861 -0.001440 -0.001965 0.004748 -0.002304 0.004155 -0.000731 0.004215 0.003398 -0.003515 0.000685 0.001901 -0.000934 -0.004893 -0.001749 0.003481 -0.004291 -0.003926 0.002079 0.000115 -0.000158 -0.001486 0.001175 0.003551 -0.002230 0.003334 -0.000712 0.000297 0.002350 -0.002510 0.004328 0.002198 0.001278 -0.002408 0.002114 -0.002532 0.003296 -0.005059 -0.003311 0.000670 0.001955 0.000024 0.003813 0.004680 -0.000331 0.002677 0.000104 0.001609 -0.002755 -0.003858 0.004641 0.003278 -0.002124 0.000895 -0.001330 -0.003291 -0.000639 -0.001919 -0.004964 -0.000944 0.004140 0.003488 0.000609 -0.001805 -0.002859 0.004775 0.000522
sent_31 -0.002230 -0.000993 0.005422 -0.001877 -0.003669 -0.002712 0.003130 0.001487 -0.002033 0.003692 -0.000410 -0.000165 -0.002621 0.004471 -0.003371 0.000286 0.004530 -0.004262 0.004635 0.000702 -0.002399 0.000405 0.005075 0.001282 0.002182 -0.006418 0.003780 -0.002954 -0.005468 0.004281 0.004851 0.003326 -0.004754 -0.004952 0.002662 -0.003060 0.005227 0.004039 0.004005 0.002629 0.004558 -0.003063 -0.005375 0.003860 -0.001796 -0.001043 0.003060 0.002292 0.000706 -0.001752 -0.004580 0.001567 -0.002725 0.001876 0.001951 -0.004271 0.004471 0.001461 -0.002525 -0.005206 0.000441 -0.000484 -0.000532 0.003242 0.003346 -0.005725 0.001932 -0.002046 0.004146 0.002134 -0.000932 0.001349 -0.002846 -0.003087 -0.002550 -0.001075 -0.003724 -0.000015 0.002002 -0.001934 -0.000996 -0.001973 0.001575 0.001356 0.001705 0.005785 -0.001945 0.001156 -0.003490 -0.002031 -0.001745 -0.003369 0.005480 0.002045 -0.002071 0.001482 -0.001016 0.005522 0.001355 0.003737
sent_32 -0.002648 -0.001003 -0.001251 -0.003966 -0.001477 0.001583 -0.000212 0.003598 -0.002660 -0.001202 -0.001928 0.000724 -0.002820 -0.003017 0.004273 -0.001516 0.000755 -0.004902 -0.003609 -0.004195 0.003481 -0.004444 0.000315 -0.003346 -0.002051 0.003368 0.000962 0.004308 0.000677 -0.004536 -0.000706 -0.004644 -0.001856 -0.000354 0.001153 -0.002994 0.000923 -0.000941 -0.000196 -0.002830 -0.003213 0.002204 -0.002248 0.001340 0.000589 0.003994 0.004190 -0.000262 -0.002609 0.001018 0.001175 0.002239 0.004117 0.002607 0.001347 0.000819 -0.002971 0.001170 0.003340 0.004212 0.004344 0.000802 -0.002683 -0.001215 0.005006 0.000029 0.003222 0.001102 0.000034 -0.001938 0.000078 -0.004863 0.003801 0.000625 -0.004671 0.003194 -0.003600 -0.004637 -0.000138 0.005195 -0.003912 -0.003758 0.004108 0.003286 0.003314 0.000370 -0.000506 -0.000997 0.000487 0.002790 0.002787 0.001826 0.000834 -0.001066 -0.001360 -0.002487 -0.001861 0.002144 0.002892 0.001068
sent_33 -0.002758 -0.003075 0.002645 0.004735 -0.004815 -0.002546 0.002934 0.002185 -0.002504 0.000566 0.000886 0.002253 -0.000376 -0.000973 -0.001877 -0.002637 -0.004093 0.001374 0.001684 0.001903 -0.004969 -0.000592 -0.003786 0.000231 0.004801 0.000016 -0.001301 0.003133 0.004660 -0.002121 0.003054 0.004951 -0.003925 0.000319 0.003110 -0.001238 -0.000597 0.002548 -0.004017 -0.001372 0.000625 -0.002573 0.003365 0.002633 0.004618 0.000260 -0.003935 0.004333 0.003357 0.000385 0.003416 0.003798 0.002774 0.000671 0.001177 0.003396 0.001264 -0.002911 0.001961 0.000395 -0.002356 -0.005055 -0.002625 0.001725 0.003819 0.003330 -0.003874 -0.004226 0.002643 -0.002197 -0.002297 -0.005014 -0.004030 -0.003627 -0.003460 -0.000556 0.003149 0.003163 0.004136 -0.000547 0.002069 -0.000125 -0.004495 -0.004200 -0.002551 0.004786 0.001952 -0.002324 0.002047 0.001602 -0.004632 -0.001381 0.002729 -0.004281 0.003849 0.004304 0.003555 -0.003864 0.000645 0.002076
sent_34 0.003873 -0.004223 0.002756 -0.002538 0.001317 0.001645 0.003116 -0.002255 0.001565 -0.001945 0.005252 0.003191 -0.001085 0.003889 0.002769 0.004389 -0.003397 -0.002301 -0.004235 -0.001678 -0.001426 0.001451 -0.000560 0.002116 -0.002441 -0.003050 -0.001180 -0.000473 -0.000738 0.003863 -0.002284 -0.001797 -0.003229 -0.001156 -0.001577 0.001099 -0.002844 -0.002167 0.002202 0.004257 -0.004178 -0.002829 -0.003794 0.001364 -0.002991 0.001364 -0.003190 0.002900 -0.001921 0.001592 -0.003325 -0.002201 -0.001996 0.001009 0.001637 0.003088 -0.002828 0.002861 0.002248 0.001082 0.001995 -0.004401 -0.003433 -0.001056 0.002313 -0.003164 -0.001045 0.000298 0.004811 -0.004642 0.003402 0.004913 -0.002267 0.004139 -0.002402 0.003115 -0.000422 0.001546 -0.002563 0.002140 -0.003773 0.000389 -0.000172 0.003322 -0.000239 0.002461 -0.000895 -0.002135 0.002872 -0.000861 -0.000137 0.000546 0.003412 0.000236 -0.001043 -0.003441 0.002138 0.003268 -0.003926 -0.000506
