38 100
sent_0 -0.000962 0.002096 -0.005152 -0.002143 -0.003497 -0.004277 -0.003106 -0.001542 -0.000875 0.000398 -0.000702 0.001748 -0.003108 0.003733 -0.004643 0.001796 -0.000875 0.000629 -0.003629 -0.002947 0.002905 0.004945 -0.001849 0.001980 0.003720 0.004071 -0.004010 -0.004518 -0.003220 0.003636 -0.004046 -0.000953 0.004551 0.000471 0.001721 -0.001791 0.001774 0.003295 -0.004778 0.002474 0.004751 0.002667 -0.002101 0.002841 -0.004028 -0.000505 0.003984 -0.002203 -0.002236 -0.003644 -0.004717 0.001692 -0.002801 -0.002364 -0.000117 -0.004535 0.000747 -0.003330 0.000899 0.002084 -0.004060 -0.001038 0.002002 -0.001094 -0.004603 0.000441 0.001670 0.000170 0.004612 0.000884 0.004236 -0.003610 -0.003625 0.003154 -0.001123 -0.003284 0.004240 -0.001412 0.002443 0.002143 0.003838 0.001084 0.002303 -0.001470 -0.002316 0.003669 -0.000735 0.004691 0.001699 0.001065 -0.003868 0.004406 -0.000528 0.000735 -0.001141 -0.002555 0.003951 0.000538 -0.005118 0.001147
sent_1 -0.001186 0.000571 0.004134 -0.001311 0.004327 0.001548 -0.004829 0.004097 0.001321 0.005201 -0.003438 -0.003073 0.004774 0.002200 -0.004374 0.001986 0.002465 0.003553 0.002175 -0.003953 -0.004382 -0.005441 -0.004683 -0.002629 0.003840 -0.000187 -0.000239 0.003075 -0.004378 -0.001489 0.001151 0.004988 0.000627 -0.005084 0.003547 -0.003112 0.003382 -0.001037 0.003242 0.002750 0.000785 -0.004217 -0.005173 -0.003768 -0.004567 -0.003851 -0.002300 0.002423 0.001084 -0.005455 -0.004392 0.005006 0.000646 -0.003190 -0.002082 0.002309 -0.002942 0.000330 0.005003 0.003259 -0.002459 0.000202 0.000959 0.003895 -0.003241 -0.005172 -0.004152 0.000035 0.000826 0.000128 -0.002432 0.004979 0.000850 -0.001188 0.000657 0.002236 0.001748 -0.002457 -0.003976 -0.000571 0.001385 -0.002214 0.003074 -0.004312 -0.002296 0.004076 -0.002904 0.001219 -0.000108 0.004768 -0.002644 -0.003838 0.002375 0.002502 0.004696 0.003871 -0.004413 -0.002075 0.001617 0.004485
sent_2 0.004517 0.000572 0.003997 0.001217 -0.000961 -0.000276 0.001116 0.000399 0.004305 0.004314 -0.001033 0.004703 -0.003327 -0.003624 -0.003538 0.000032 -0.004779 0.004336 0.003255 -0.004884 -0.003265 -0.001616 -0.003815 0.003050 -0.001493 0.004402 0.000745 0.003822 0.003358 0.004131 -0.000359 0.000356 0.002955 -0.002141 -0.000109 0.000953 -0.004801 0.001008 -0.000605 0.003086 -0.001794 0.003883 0.000646 -0.003327 0.002729 0.001213 -0.004482 -0.000790 0.001768 0.004049 -0.005012 0.004693 -0.001117 0.004698 0.001060 0.003114 0.000827 0.001321 -0.002028 0.001004 0.002503 0.003523 0.002545 0.001897 0.003645 -0.001786 0.001854 -0.000403 -0.000986 -0.001064 -0.000914 -0.001830 0.001222 -0.000586 0.004638 0.001747 -0.002999 -0.000585 -0.001516 0.003090 0.003747 0.004129 0.001635 -0.002204 -0.002547 0.003548 0.000326 0.002983 0.000663 0.002322 0.000075 0.002712 0.000746 -0.000496 -0.001628 -0.004294 -0.001165 -0.004264 0.004770 -0.003175
sent_3 0.003317 0.003988 0.002044 0.000854 -0.003287 -0.000189 -0.001508 -0.002866 0.000603 -0.001748 0.004020 0.004294 -0.002150 -0.003721 -0.003186 -0.000240 0.002244 -0.003205 -0.002505 0.003381 -0.000548 0.000703 -0.002568 -0.003950 0.000277 -0.000598 -0.003790 0.000959 0.000183 0.001858 -0.003444 0.002701 -0.002741 0.000013 0.003203 -0.005020 -0.001511 0.003802 0.003232 0.000518 0.003859 0.004173 0.002877 0.003533 -0.003985 0.001489 0.002335 0.001363 0.003284 -0.004863 0.002541 0.002561 -0.002448 -0.002549 0.001414 -0.001587 0.002913 -0.000878 0.002927 0.004794 -0.001842 -0.003333 0.003810 0.000825 0.004839 0.001173 0.004931 0.000518 0.000108 -0.003891 -0.001764 -0.004678 -0.003345 0.002405 -0.004561 -0.001368 0.003668 0.001871 0.002094 -0.002688 -0.000483 0.001242 0.005209 -0.002958 -0.002424 -0.001764 0.002618 -0.000482 -0.004657 0.000476 -0.002901 0.003223 -0.001897 -0.004793 0.001338 0.003157 -0.001010 0.002826 0.000382 0.000445
sent_4 0.004709 0.003169 -0.004571 0.002185 -0.000300 0.004525 -0.002739 -0.002398 -0.004337 -0.000633 -0.003964 0.001446 0.003160 0.002049 0.002588 -0.001693 0.003423 -0.000845 0.003232 0.001179 -0.003417 -0.004477 -0.004776 -0.004281 -0.000380 -0.004051 -0.004867 0.002426 -0.001158 0.002628 -0.000441 -0.000399 -0.000209 -0.000336 0.003193 -0.001090 0.004141 -0.004588 0.002618 -0.003681 0.001252 -0.005045 0.000195 -0.004959 0.004547 0.004049 0.003116 0.004273 -0.003378 -0.003494 -0.003200 0.001344 0.004021 0.004820 0.002151 0.002322 0.004076 -0.001153 -0.002475 -0.003327 -0.003687 0.003250 -0.003630 -0.002153 0.003258 -0.001997 0.004793 -0.002317 0.000246 -0.001982 0.003918 -0.001279 -0.000620 0.000098 0.004476 -0.004692 0.002183 0.003891 -0.004638 0.000453 -0.001696 0.003834 0.000744 0.001881 -0.000410 0.001596 -0.002039 -0.004945 0.000623 -0.001665 0.000184 0.004278 -0.000655 -0.002565 -0.001065 0.004142 0.004460 0.003596 0.004377 -0.002741
sent_5 -0.004213 -0.003529 -0.002401 -0.004288 0.001165 -0.001199 0.002806 -0.002979 0.002830 -0.002794 0.001247 -0.001459 -0.005294 -0.003073 0.002318 0.000179 0.000420 -0.003026 0.000684 0.005430 0.002266 0.002394 0.004084 0.003350 0.000991 -0.003683 -0.003860 -0.003428 -0.000345 -0.001562 0.004877 -0.003965 0.004584 0.003073 0.002358 0.001660 0.001158 -0.000339 -0.004030 -0.001661 -0.000358 0.002899 0.000373 -0.000721 -0.004182 -0.004653 0.001592 -0.002471 0.004174 -0.002921 -0.000925 -0.000528 0.002926 0.000083 -0.003540 -0.002169 0.000478 0.002830 0.003037 -0.003194 -0.005515 -0.000786 0.003908 -0.006060 0.001572 0.002320 0.000101 0.004238 0.002049 -0.004823 0.000609 0.003293 0.003095 0.002031 0.000967 0.000512 -0.002195 0.000877 0.001457 -0.002566 0.003128 -0.004080 0.001811 -0.001904 0.002116 -0.002280 0.002768 -0.001446 -0.002283 0.001190 -0.002471 0.001919 0.001780 -0.002953 -0.004035 -0.002088 -0.003876 -0.002007 -0.005729 -0.003903
sent_6 0.002594 0.004113 -0.003337 -0.001702 -0.002579 0.004959 0.002368 0.000053 -0.003704 0.003710 -0.001177 0.004896 0.003441 0.000505 -0.004263 0.003702 -0.003571 -0.004061 -0.000638 -0.001565 -0.002198 0.000100 -0.002421 0.001850 0.002879 -0.004651 -0.000276 0.001356 0.000274 0.002361 -0.001675 0.003233 0.004661 -0.001282 0.004347 -0.005548 0.004477 -0.003081 -0.002260 -0.001532 -0.003578 0.002585 -0.002880 0.000633 0.000328 -0.003786 -0.001493 -0.003111 0.001293 -0.003169 -0.002048 -0.002844 0.002544 -0.004456 0.005371 -0.003199 0.000352 -0.006122 0.003108 -0.004085 0.000867 0.003581 -0.004490 0.002285 -0.002636 0.001575 0.001950 -0.003257 0.002692 -0.005851 0.002183 0.001104 -0.000682 0.002248 0.002975 0.004757 -0.002123 -0.005289 0.004999 0.005396 0.002829 0.002035 0.003310 0.002885 -0.000492 0.005436 0.003012 0.000900 -0.001976 0.003745 -0.004780 0.003870 0.004372 -0.002770 -0.001971 -0.004107 -0.001140 0.005528 0.001777 -0.002041
sent_7 -0.003334 -0.001878 0.001278 -0.001682 -0.000209 -0.000400 0.003252 -0.000869 -0.001780 0.001946 -0.002996 -0.000046 -0.001563 0.001470 0.003703 -0.000825 0.002825 -0.000829 0.001607 -0.003790 -0.000382 0.003540 0.001070 0.002518 0.000247 -0.000414 0.002979 -0.004572 0.000411 0.004796 0.000410 -0.002876 0.003475 -0.002777 0.002398 0.000127 0.004784 0.001421 0.003303 -0.004756 0.005193 -0.004645 -0.002242 0.004275 -0.004953 0.003194 0.003881 -0.000231 -0.002075 0.002703 -0.000372 -0.003368 0.004308 0.003885 -0.000037 0.003486 -0.000840 0.001518 -0.000809 0.000089 -0.002915 0.004851 -0.002239 -0.003479 -0.003349 -0.005001 0.002252 0.000807 0.002764 -0.000229 0.002505 0.001942 0.002836 -0.000962 0.001553 -0.003287 -0.001671 -0.003285 -0.000678 -0.002114 -0.000876 0.005224 -0.001388 0.004812 0.001384 -0.000586 0.003707 0.001095 -0.002732 0.003266 -0.000755 -0.001206 -0.001516 0.001820 -0.001815 0.002827 -0.001884 0.000730 0.000138 0.003612
sent_8 0.004359 -0.002774 0.001169 0.004227 -0.000276 0.004463 -0.002110 0.000837 0.001291 -0.002446 -0.005088 -0.000341 0.004914 -0.001287 0.002703 -0.003752 -0.001686 -0.004287 0.002171 0.001797 0.002492 -0.003385 0.002084 -0.002753 -0.000531 -0.001977 -0.002207 -0.004966 0.000751 0.002703 0.001421 0.001846 -0.003302 -0.003855 0.000748 0.003354 -0.002863 -0.000135 -0.001179 0.000255 -0.003046 -0.002128 -0.003215 0.003376 0.003025 -0.000729 0.001673 -0.003110 0.000719 -0.002552 0.003401 0.002120 0.001221 -0.004091 -0.000082 0.004739 0.004509 0.000796 -0.003225 0.001294 0.001046 0.000058 -0.001075 0.001782 0.003833 0.002184 0.000820 0.004506 -0.004660 0.004384 -0.005179 -0.002928 -0.000650 -0.004018 0.001417 -0.004608 -0.002044 -0.004429 0.002495 0.002580 -0.001069 -0.002336 0.003128 -0.001642 0.003159 0.001060 0.000526 -0.004886 0.000980 -0.000733 -0.002881 -0.000188 -0.000916 -0.000578 0.005637 -0.001972 0.003205 0.001088 0.004464 -0.001450
sent_9 -0.002568 0.004203 -0.004584 0.004540 0.000577 -0.001248 0.004977 -0.004461 0.000113 -0.004655 0.000676 -0.003209 0.001359 0.004884 0.003693 -0.000474 0.002073 0.002787 -0.000062 0.000242 -0.003463 -0.001385 -0.003584 0.002314 -0.000213 -0.000577 0.003865 0.000252 -0.000915 -0.002300 -0.004307 -0.000806 -0.004723 -0.002106 0.000105 0.004611 -0.003832 0.001726 -0.000021 0.002799 -0.003528 -0.004215 -0.001049 0.002915 -0.003072 0.002670 -0.002051 -0.002756 -0.004813 -0.001008 -0.001285 0.001648 -0.004294 -0.003481 -0.004862 -0.003893 0.001481 -0.001048 -0.001798 0.000562 0.004991 0.003419 0.001943 0.004256 -0.004614 -0.004337 -0.000278 -0.001543 0.004388 -0.000151 0.000395 0.003977 -0.000531 0.003779 -0.002424 -0.002220 -0.001697 0.000510 -0.002798 0.001799 -0.003546 -0.003973 0.003745 -0.002624 -0.001135 0.000818 0.000278 -0.004228 0.003710 0.004603 0.003178 -0.002134 0.000357 -0.001615 0.000599 0.004708 -0.001879 0.001731 -0.001703 0.002768
sent_10 -0.001607 0.004134 0.002441 0.002417 0.000030 -0.003087 -0.004393 -0.002093 -0.004699 0.002226 0.001708 -0.000449 0.002765 0.000607 -0.004588 -0.003822 -0.003099 -0.002067 -0.004559 0.000973 0.000312 0.000819 -0.000748 0.003461 -0.000328 -0.005168 0.003400 0.001423 0.002981 0.004703 -0.004343 -0.002647 -0.004397 -0.000845 0.003855 -0.004474 -0.000057 -0.003571 0.002670 0.003555 -0.004360 -0.000316 -0.002987 0.004163 0.004205 0.001179 0.004957 -0.001277 0.004282 -0.000942 -0.002716 0.004517 0.001952 -0.004537 0.003699 0.001723 0.001072 0.002185 -0.002203 0.001176 0.003350 -0.004439 -0.003798 0.003598 0.001340 0.000165 -0.002372 -0.001897 0.003837 -0.001316 -0.004547 0.004033 -0.002863 0.003406 0.003732 -0.000056 0.001115 0.000586 0.001435 0.003997 -0.002145 0.004304 0.000921 -0.003782 -0.002726 0.001356 -0.002386 -0.003738 -0.003740 0.003736 0.000912 0.004741 -0.001245 0.000586 0.001282 0.000904 -0.004282 0.002570 0.004616 0.000327
sent_11 -0.002730 0.003090 -0.004564 -0.001415 0.004328 0.001144 0.003702 0.000804 0.002567 0.004064 -0.002012 -0.003399 0.002735 -0.000334 -0.004117 0.000446 -0.004737 -0.003549 0.002888 -0.005190 -0.001406 -0.005739 0.005213 0.001009 -0.001900 0.003559 -0.000495 -0.000938 0.000464 -0.001774 -0.001813 -0.000883 -0.002460 0.000573 0.002718 -0.004877 0.005280 0.002635 0.002651 0.002748 -0.003868 -0.000774 -0.001221 0.001854 -0.000467 0.001960 0.002466 0.002465 0.001819 -0.003842 0.002328 0.003312 0.003992 -0.002937 -0.003053 -0.001108 -0.001938 0.002575 0.001289 0.002320 -0.000503 -0.003603 -0.004246 -0.000558 -0.002924 0.002813 0.000937 0.001919 -0.000408 -0.004692 -0.003322 -0.000212 -0.002912 -0.004867 0.002634 0.002231 -0.001633 0.003325 -0.000414 0.004424 0.001792 0.001740 -0.002426 0.000271 0.004172 -0.000794 0.003970 0.004040 -0.002290 0.002645 0.004000 -0.003811 0.004051 -0.003196 0.004288 0.001100 -0.001299 -0.002825 0.001911 0.003498
sent_12 0.003612 0.001469 0.005140 0.001439 -0.003193 -0.000074 -0.001818 0.005116 -0.001907 0.004829 -0.000022 -0.003102 -0.003724 -0.001471 -0.004085 0.000842 -0.001041 0.004662 0.004526 -0.003633 -0.000647 -0.000999 0.001149 0.002974 -0.000114 -0.001287 -0.002793 0.003763 -0.005092 0.003699 -0.002963 0.002293 -0.001349 0.004636 -0.003322 -0.003514 0.004237 0.000540 -0.002438 -0.004873 -0.002849 -0.004004 -0.003330 0.004609 0.004178 0.001835 0.000137 0.003399 0.000341 -0.001520 -0.002211 0.004755 -0.001254 -0.000137 -0.002048 0.004261 -0.001334 -0.002350 0.002105 -0.003786 -0.004024 0.003643 0.002168 0.001428 -0.002653 0.000985 0.001210 -0.001819 -0.005010 0.003786 -0.000994 0.002781 -0.002488 0.000596 -0.000247 -0.001363 -0.003909 -0.003129 -0.004140 -0.001708 0.002704 0.001519 0.001935 -0.005027 0.002147 0.000792 -0.002723 -0.003285 -0.003289 0.003814 0.004887 0.004588 -0.001813 0.003120 0.000964 0.002785 0.000038 0.001577 0.003363 -0.004057
sent_13 0.000439 -0.001304 0.001092 0.004637 -0.001043 -0.001031 0.002924 0.001428 -0.001119 0.001913 -0.000984 -0.003578 -0.000427 -0.001631 -0.002825 0.004197 0.001885 0.000906 0.002468 0.000398 0.002072 0.004182 0.003644 -0.003330 -0.002355 -0.004360 0.004698 -0.002700 0.001544 -0.004035 -0.002860 0.000079 -0.003962 -0.001156 0.000441 -0.001633 0.000565 0.000399 -0.001158 0.001997 0.001805 0.001811 0.000520 -0.001414 0.001151 0.004365 0.001036 0.004835 -0.000515 0.002343 -0.004638 0.002692 0.000154 -0.004994 -0.002205 0.000349 0.002694 -0.004547 0.000510 0.002992 0.001561 0.004364 -0.004292 -0.002132 0.004244 0.002613 0.000985 0.003362 0.003911 0.004679 0.004885 -0.003589 -0.004275 -0.004286 -0.004824 0.004703 -0.004047 0.003405 0.001904 -0.000017 -0.001527 -0.001384 -0.002381 0.004092 0.002288 -0.004604 -0.000358 -0.002220 -0.004760 0.003940 0.002696 -0.001653 0.002991 -0.001785 -0.001812 0.004203 0.004831 0.000298 0.004603 0.003868
sent_14 0.000195 -0.001249 0.002101 -0.000411 0.001100 0.004869 0.002800 -0.001691 -0.004114 -0.003113 0.000256 -0.000825 0.003037 0.004373 -0.003209 0.003589 0.004557 0.004549 -0.004633 -0.004446 -0.004902 -0.001963 -0.004424 -0.002028 -0.001450 0.004483 -0.000244 -0.002271 0.000015 0.001440 -0.003880 0.002588 0.003495 0.003417 0.003917 -0.001167 -0.000579 -0.003948 -0.002793 0.004733 -0.002163 0.004050 0.003837 0.004198 -0.003423 0.003812 0.001365 -0.002871 -0.001509 -0.003407 -0.000581 -0.004140 -0.003362 -0.003088 0.001875 0.000727 0.003735 -0.002596 0.001292 -0.004640 0.000255 0.003672 0.004794 -0.004847 -0.002446 -0.002783 -0.004556 -0.004866 -0.000092 -0.004573 -0.002260 0.001434 -0.002020 -0.002317 0.000925 -0.001177 0.002015 -0.000008 0.001357 -0.001363 -0.002128 -0.003610 0.004405 0.003040 0.004419 -0.003073 0.004362 0.004328 -0.002209 -0.002161 0.000537 -0.003148 -0.000516 -0.003192 0.004543 -0.000129 0.004669 0.001446 -0.000094 0.004660
sent_15 -0.003967 0.000990 0.001026 -0.001215 -0.004306 -0.000712 -0.000271 0.003023 -0.001775 -0.001129 -0.002176 0.001580 0.004381 -0.003366 0.003547 -0.002288 -0.004557 -0.003349 0.004185 0.004202 -0.002643 0.005348 0.003256 -0.000613 -0.000506 0.001875 -0.002976 -0.004348 -0.002006 -0.005480 0.001562 -0.000036 -0.001968 0.003306 -0.004305 -0.002216 -0.002659 -0.003194 -0.003899 0.003696 -0.004697 0.002604 -0.003342 -0.005290 0.000429 0.004222 0.003107 -0.002126 -0.005188 0.003195 0.003329 0.003276 0.001849 0.003040 0.003848 -0.000771 0.000781 0.000709 0.001921 0.002206 0.000152 0.002686 0.000389 0.002490 -0.002326 -0.002874 0.004797 0.002436 -0.001805 0.000880 0.005234 -0.004185 -0.004272 0.001557 -0.003137 0.002925 0.000671 0.002211 -0.004161 -0.004574 0.001120 -0.001616 -0.004730 -0.001292 0.001539 -0.004183 0.003847 0.004565 0.004976 0.001699 -0.000971 0.002113 -0.002145 -0.002148 0.000307 0.001276 0.003582 -0.003231 0.002192 0.004278
sent_16 -0.005131 -0.000277 0.001520 0.003441 -0.003215 0.003539 -0.001407 0.004024 -0.004559 -0.004143 0.004715 0.000907 -0.000872 -0.003379 0.001426 -0.004515 -0.001904 -0.001610 0.001152 0.001523 0.003383 0.004332 0.001663 0.000799 -0.001053 0.004752 -0.003278 0.003989 -0.001709 0.000313 0.001785 -0.002679 -0.003322 0.000073 0.002863 0.001987 -0.003746 0.003993 -0.000047 0.004374 0.000508 -0.004109 -0.002824 0.003504 0.002122 0.003866 -0.001775 0.000299 0.001431 0.001094 -0.002710 -0.000693 -0.002416 0.003553 0.004691 -0.004214 0.002050 -0.001561 0.001153 -0.002351 0.001441 -0.001322 -0.002063 0.004031 0.004387 0.001261 -0.002879 0.004379 0.002479 0.002691 -0.002792 0.003243 -0.002619 0.001230 0.002161 0.002464 -0.001136 0.002569 0.003898 0.000716 -0.004075 -0.003803 -0.004062 -0.003311 -0.003744 0.002588 -0.004647 -0.002540 0.003850 0.004647 0.001170 0.004622 -0.004507 0.004596 -0.001960 0.003102 0.002927 0.003449 -0.000473 0.004310
sent_17 -0.002395 0.004361 0.001278 0.004943 -0.004726 0.002346 0.000624 -0.000020 -0.002456 -0.001742 -0.002570 -0.002816 0.003063 -0.000028 -0.004234 0.002734 0.000312 0.002381 0.000205 -0.001019 0.004921 -0.004807 0.004416 0.004330 -0.001100 -0.002900 0.001165 -0.003285 0.003036 -0.002432 -0.002081 0.004231 0.004044 0.000318 0.003691 -0.001496 0.005028 -0.000675 -0.002092 -0.004601 0.004899 -0.000399 0.002326 0.001498 0.002306 -0.004534 0.004264 0.004291 0.000569 0.004651 -0.002193 0.001091 -0.001040 0.001281 -0.001988 0.003290 -0.004334 -0.004616 -0.004548 -0.003554 -0.001074 0.004594 -0.003936 0.001539 0.000291 -0.001465 -0.003050 -0.002791 -0.004676 0.002182 0.001456 -0.000576 0.002186 -0.003989 0.004467 0.003455 0.001560 -0.001309 -0.000838 -0.000173 0.004392 0.003673 -0.000193 0.000506 0.003805 0.004567 0.001390 0.002488 -0.001504 0.004237 0.003387 0.000547 0.003666 0.003571 0.003159 -0.003732 0.000360 0.004065 0.002780 -0.000806
sent_18 0.004722 -0.002682 -0.001906 0.004250 0.003206 0.003746 -0.004848 -0.001244 -0.002235 -0.002046 0.002573 0.002262 -0.000619 -0.001397 0.001120 0.000478 0.000526 0.001139 -0.001140 0.002903 -0.002769 0.001866 0.004312 -0.005181 0.002185 -0.003582 0.000494 0.001514 -0.002468 0.003897 0.001221 -0.002886 0.002502 -0.003841 0.000209 -0.003815 0.000402 -0.002339 0.001725 0.002193 0.000090 0.001898 0.003290 0.002765 0.001039 -0.000328 -0.001205 0.003546 0.001869 -0.003198 0.000844 0.003834 -0.003459 0.003428 0.003127 -0.000218 -0.004398 -0.003262 0.004330 -0.004173 -0.001145 0.000893 -0.002800 0.004561 -0.003293 0.000595 0.001317 -0.002547 -0.000073 -0.000109 0.002843 0.001228 -0.000370 0.001848 -0.000761 0.000294 0.001659 -0.002873 0.002873 0.000881 0.004592 -0.003106 -0.000447 0.003917 0.000834 0.001777 -0.000858 0.001787 0.004597 -0.003304 0.002939 0.004504 -0.004844 -0.003123 -0.004043 0.002864 -0.004213 0.004582 -0.001300 0.004018
sent_19 -0.002938 -0.000186 0.003681 0.001127 -0.000307 0.000277 0.000851 -0.000759 -0.003504 -0.003679 -0.003615 -0.004263 0.000903 0.003630 -0.001731 -0.004521 -0.000808 0.000695 -0.000749 0.002885 0.004766 0.003102 0.002213 -0.000119 0.001920 -0.005336 0.004506 -0.003571 0.003839 0.003429 0.003048 -0.002055 -0.002721 -0.000849 0.004017 -0.000946 0.004795 -0.001437 0.000955 0.004937 0.001649 -0.004911 -0.000754 -0.001525 0.000334 -0.002230 -0.003344 0.002008 0.002228 0.003478 -0.003861 0.003321 0.003270 0.001298 -0.002839 -0.002386 -0.000946 0.000086 -0.000141 -0.000532 0.003476 0.003936 0.002912 0.004181 0.000751 0.004380 0.001022 0.001009 -0.001999 0.001409 -0.004893 -0.003527 -0.003641 0.001477 -0.003003 -0.001575 -0.004522 -0.002732 0.004799 0.000548 -0.003324 0.000867 0.004765 0.003649 -0.000932 -0.001449 0.002794 -0.002584 -0.002883 -0.003633 0.003674 -0.000256 0.000793 0.002328 0.003445 -0.000877 -0.003053 0.003723 -0.004351 0.004481
sent_20 0.000849 0.003336 0.000771 -0.003040 -0.001872 0.000075 0.004615 -0.003097 0.000524 -0.001531 0.002989 0.003173 -0.001158 -0.003155 -0.003889 -0.003034 -0.002294 0.000776 0.003730 -0.003515 0.004213 0.002448 0.002132 0.004537 -0.000872 0.000778 0.001727 0.000490 -0.002039 -0.004018 -0.002035 0.002350 0.001170 0.003217 -0.000308 -0.002494 0.000875 -0.001888 -0.004451 0.004015 -0.001104 -0.000446 0.002492 0.004365 -0.004531 -0.003017 -0.002183 -0.002962 -0.000274 0.003027 0.003984 0.000566 -0.002368 -0.003167 0.002593 -0.002863 0.000776 0.003047 -0.002489 -0.002906 -0.004833 -0.004097 0.003832 -0.004530 -0.002739 -0.004408 0.002116 -0.002421 -0.000498 -0.003683 -0.000996 -0.000879 -0.000378 -0.000520 -0.004370 0.002558 -0.003704 -0.000534 -0.002280 -0.002260 0.001453 -0.000235 -0.003408 -0.000238 -0.001831 0.001346 -0.002809 0.003333 0.000412 -0.000570 -0.002859 -0.003304 -0.000567 0.004541 -0.004146 -0.001865 0.003036 0.001206 -0.002550 -0.001966
sent_21 -0.000801 0.001028 0.002193 0.003573 0.001811 -0.002630 0.004257 0.002812 -0.001926 -0.001950 0.003812 -0.003739 0.001335 -0.002223 0.003272 -0.001355 0.002334 -0.003076 -0.000186 0.003036 -0.001030 -0.003384 0.001490 0.002533 -0.002198 -0.000486 0.004004 0.003720 0.002072 0.000909 0.003174 0.004076 -0.004975 -0.001028 0.000614 0.002339 -0.004125 -0.001002 -0.002204 -0.000765 -0.000020 0.001600 -0.000038 0.001205 0.000824 -0.000717 -0.004950 -0.003055 -0.001798 -0.003530 0.000987 0.001115 0.000001 -0.001792 0.001533 -0.003097 -0.004941 0.002349 -0.000565 0.001978 -0.003150 -0.004374 -0.001219 0.001960 -0.003972 -0.003042 -0.000460 0.001211 0.002501 -0.003903 0.001246 -0.001126 0.001701 -0.002964 0.000279 -0.003278 -0.004813 -0.000130 -0.003158 0.001383 0.000366 0.002749 -0.001070 0.004895 0.000152 -0.000212 0.002494 0.000727 -0.001375 -0.000108 -0.003109 -0.001064 -0.004700 -0.000375 -0.002255 0.000267 -0.004707 0.000551 -0.002070 0.000775
sent_22 0.002245 -0.000703 0.001496 -0.002830 0.005056 -0.002790 0.004466 -0.002836 0.000196 0.003255 0.002292 0.002055 -0.000735 0.002469 0.004350 -0.000536 0.000231 -0.004476 -0.001144 -0.000216 0.003859 -0.003661 0.002262 0.000393 0.001038 -0.004532 -0.003513 -0.002100 -0.004910 0.001584 0.003718 0.000342 0.000301 0.001248 -0.002166 -0.001271 0.000556 0.003184 -0.002907 -0.001704 0.002344 -0.001366 -0.004507 -0.003551 -0.003199 0.000041 0.001263 0.003648 0.003960 -0.002004 0.002695 -0.002300 -0.001232 -0.002164 -0.000871 -0.003010 -0.001712 -0.003594 0.004725 0.000315 0.004230 0.002213 -0.000331 0.002370 0.001309 -0.001841 0.000344 0.002280 -0.001763 -0.004942 -0.002205 0.002869 0.004247 0.001333 -0.003870 0.002597 0.000273 0.002715 0.003616 0.004416 0.001479 0.003415 0.002316 0.002287 0.003532 0.003936 0.004097 -0.001019 -0.004150 0.003166 0.000247 0.000333 0.003239 -0.004861 0.003648 -0.004579 0.001910 0.000632 0.001293 -0.001253
sent_23 -0.002197 0.000047 0.003851 0.000604 0.001673 -0.000592 0.004707 0.002418 -0.001407 0.001537 0.000451 0.003894 -0.002274 -0.003928 -0.003024 -0.001154 0.003557 -0.002341 0.001256 0.001266 -0.000940 -0.004482 0.002400 -0.002119 -0.001001 -0.001202 0.001582 -0.004114 0.000466 -0.004830 0.004874 0.000970 -0.001189 -0.003547 0.001936 0.004081 -0.001874 0.002703 -0.002093 0.004584 0.002028 0.001256 0.004293 -0.002349 0.004198 0.001805 0.002678 0.000700 0.003350 0.001932 -0.003482 0.001091 -0.002205 0.004157 -0.003001 -0.002171 -0.004474 -0.000496 0.000625 0.000788 0.004067 -0.001571 -0.000483 0.003501 0.000817 0.001559 -0.002179 -0.000078 0.001219 -0.003687 -0.004695 -0.003886 -0.000220 -0.004732 0.001207 -0.004055 -0.002471 -0.000711 -0.003812 -0.002299 -0.004829 0.004820 0.001134 -0.001220 -0.004765 -0.001129 -0.000475 0.004279 -0.002208 0.001095 0.001596 -0.003150 0.000035 0.002814 -0.004034 0.001074 -0.004719 -0.004959 -0.004424 -0.000195
sent_24 0.004371 -0.000685 -0.004220 0.003723 0.000389 -0.001833 0.004768 0.004193 -0.002624 -0.002792 0.000758 0.003550 -0.001402 0.001134 -0.003453 -0.003208 0.002566 -0.003752 -0.002372 0.001747 -0.004599 -0.005139 -0.002080 -0.001558 -0.001276 0.002708 -0.004857 -0.001654 0.001180 -0.003350 0.003656 0.001552 -0.003846 -0.003092 0.002743 -0.001154 0.000061 0.003991 -0.003802 0.004788 -0.004399 -0.004296 -0.003158 0.002899 -0.000451 0.001540 -0.002989 -0.003047 0.000457 0.002244 -0.000602 0.003915 0.001586 -0.002664 -0.002689 -0.001382 0.002500 0.004064 0.003712 -0.002391 -0.000595 0.001361 0.000238 -0.000726 -0.003908 0.001939 -0.004147 0.003730 0.003614 0.001812 -0.000368 0.002094 -0.000964 0.002976 0.002966 -0.003402 -0.001769 -0.001472 -0.001197 0.001164 -0.004509 0.002037 -0.002705 -0.000808 -0.000404 -0.000952 -0.001025 -0.003261 -0.004559 0.000940 0.001009 -0.003390 -0.002430 -0.002293 0.003685 -0.003747 0.000662 0.000890 -0.001317 -0.001455
sent_25 0.004224 0.000577 0.001096 -0.000265 0.001670 0.000499 -0.003252 -0.001871 -0.000110 -0.003565 -0.001328 -0.003014 0.003240 -0.001295 -0.002639 -0.000622 0.001843 -0.004143 -0.003341 0.001892 0.002373 0.001373 0.003673 -0.003115 0.001973 0.004255 -0.003061 -0.002518 0.000705 -0.001858 0.001739 -0.004770 -0.003451 0.002228 0.004504 0.004469 0.003976 -0.003622 -0.003389 -0.004285 0.000419 0.003979 0.000416 0.002428 -0.003261 0.003745 -0.003214 -0.004417 -0.001000 0.000786 0.004481 -0.004191 -0.002152 -0.003983 -0.001498 -0.002353 0.000052 -0.001388 0.004204 0.003202 0.003876 -0.003691 0.000688 -0.003059 0.003529 -0.004811 -0.003973 -0.001256 -0.000491 -0.002252 -0.003640 -0.003726 -0.001761 0.004669 -0.003040 0.002665 -0.002414 -0.004225 -0.004958 -0.003378 -0.000442 0.002578 0.002102 -0.001334 -0.000266 0.002850 0.003460 -0.001757 -0.004972 -0.004490 0.002621 -0.002536 0.000145 -0.003262 0.003245 0.000123 0.000094 -0.002494 -0.000064 -0.004916
sent_26 -0.002059 -0.001166 -0.002178 -0.004255 0.000416 0.002886 0.004529 -0.000269 0.000557 -0.001828 -0.003594 -0.003442 0.002502 0.002625 -0.003350 -0.001136 0.000898 -0.004096 0.002885 0.000977 0.001404 0.001707 0.004868 0.000698 0.003841 -0.001221 0.001209 0.004111 0.001277 -0.001572 0.001284 -0.001423 -0.001697 0.001030 -0.003000 -0.000604 0.004950 -0.001149 -0.003256 -0.000158 0.003659 0.003018 0.002823 -0.004995 -0.002507 0.005022 -0.003536 0.000206 0.003139 -0.004102 0.001419 0.000106 -0.002926 0.003668 -0.003019 0.001145 0.002364 0.000385 0.001514 -0.003909 -0.001966 0.001009 -0.001229 0.001861 0.003455 -0.003365 0.004226 -0.001163 0.004504 0.000663 0.002739 0.000239 0.000309 -0.001603 -0.003683 -0.001187 -0.002816 -0.004582 -0.002107 -0.002747 0.003868 -0.003615 -0.002924 0.002195 0.004187 -0.001893 -0.004665 0.004596 0.001498 -0.001558 -0.000379 0.001259 -0.001118 0.003608 0.002491 0.004353 -0.001314 0.004723 -0.000077 0.001491
sent_27 0.002417 0.003216 -0.001050 -0.000531 0.003265 0.002161 0.004458 0.004707 -0.003337 -0.002611 0.002101 0.002549 0.001118 0.003903 -0.002515 -0.001695 -0.000074 -0.001997 0.000451 0.001744 -0.002681 -0.000302 0.004941 -0.001732 -0.004571 0.003010 -0.000090 -0.004567 0.003780 -0.000808 0.004339 -0.000957 -0.004212 -0.002614 -0.001345 0.002368 -0.002989 -0.000645 0.003672 0.000395 -0.003856 -0.004912 0.001858 0.004719 0.002802 0.002657 0.001874 0.003087 -0.004497 -0.002467 0.001852 0.003759 0.001787 -0.003292 0.004385 0.003943 -0.004161 -0.003194 -0.002170 0.002383 0.003646 0.000868 -0.003107 -0.000715 -0.003621 0.004087 0.002691 0.000138 -0.000438 -0.004187 -0.001888 -0.003762 0.002842 0.000475 -0.002701 -0.002762 -0.002374 -0.001873 -0.001041 -0.001807 0.001836 -0.004421 -0.001607 0.002507 0.004443 0.003280 -0.002524 -0.002684 -0.003219 0.003992 -0.002643 0.002675 -0.002296 -0.004739 0.002467 0.002160 -0.004044 -0.001617 0.004556 -0.003334
sent_28 -0.003890 0.001112 0.004344 -0.003459 0.000334 0.001845 -0.003078 -0.005087 0.003861 -0.004541 -0.002460 0.001728 -0.001912 -0.004700 0.000842 -0.002011 -0.003530 0.004488 -0.003434 0.002224 0.004010 0.003024 -0.003327 -0.002684 -0.004847 0.004119 0.003608 0.000820 -0.004037 -0.003215 0.000802 -0.002350 -0.002182 -0.003449 -0.003022 -0.000230 -0.000185 0.000327 0.004767 -0.003495 0.002488 0.002844 0.000543 -0.000645 0.004064 0.003433 -0.004352 0.004750 -0.004705 0.000591 0.000599 0.003426 -0.001369 -0.004351 0.000735 -0.004855 -0.001184 0.004526 0.003708 -0.003374 0.003625 0.003337 0.004175 -0.002340 0.000365 0.003185 0.001547 0.001075 0.001465 -0.002800 -0.005099 0.002459 -0.001623 -0.001236 0.001196 0.001639 -0.002895 0.003485 -0.001017 0.001848 0.004543 0.000829 -0.001046 0.001007 0.000085 -0.000044 0.002425 0.004004 -0.000334 -0.003715 0.000744 -0.002475 -0.004297 0.002555 -0.001820 0.002462 0.000172 -0.001794 -0.001466 -0.004700
sent_29 0.000211 0.002911 -0.004757 -0.004780 0.000629 0.001037 0.001891 -0.001953 -0.004164 -0.000756 -0.002323 -0.004929 0.001315 0.004504 -0.000672 -0.001956 0.000511 0.003415 0.002833 0.002111 -0.001232 0.002826 -0.003256 -0.002463 0.002871 0.004792 -0.003010 -0.001454 -0.004965 -0.000840 -0.002793 0.000823 0.001889 -0.003492 -0.004708 0.004006 -0.001316 0.000286 0.005097 0.002719 -0.002006 -0.003785 0.000518 -0.002097 -0.005288 0.002951 -0.001736 0.000368 0.002211 0.004175 0.001472 -0.002183 -0.003510 -0.004162 -0.001658 0.001050 0.002172 -0.002191 -0.003747 -0.001473 0.000127 0.001814 0.000695 -0.002813 0.000992 -0.002113 0.002028 0.003556 0.002088 0.000360 -0.001369 0.003672 0.004694 0.003353 0.000134 -0.003615 -0.001803 -0.000842 -0.002171 -0.000884 0.000888 -0.003279 -0.002974 -0.003631 -0.002348 -0.000910 -0.000168 0.005012 0.005028 -0.001430 0.004377 -0.003048 0.000147 -0.000862 0.003946 0.003839 -0.003066 -0.001149 -0.003983 0.000376
sent_30 0.002721 -0.004925 -0.003477 0.004292 0.004611 0.000268 0.001429 -0.002273 0.005014 0.001660 0.001877 -0.004992 0.003116 0.002685 0.002155 0.002697 -0.003363 0.002366 -0.004081 0.002253 -0.005400 0.003440 -0.000454 -0.003135 0.002241 -0.001340 0.004059 -0.002796 0.004582 0.004390 -0.002046 0.003289 0.003351 -0.000504 -0.001821 -0.001898 0.004606 -0.002447 0.004573 -0.000861 0.004206 0.003818 -0.003083 0.000453 0.001503 -0.000794 -0.005357 -0.002071 0.002992 -0.004343 -0.003754 0.001583 0.000309 0.000107 -0.001317 0.000843 0.003750 -0.001792 0.003486 -0.000479 -0.000170 0.001903 -0.002097 0.003608 0.002013 0.001432 -0.002033 0.001996 -0.002018 0.003231 -0.004394 -0.003484 0.000493 0.002349 -0.000402 0.003791 0.004806 -0.000056 0.002529 -0.000489 0.001451 -0.003243 -0.004218 0.004848 0.002889 -0.002931 0.000777 -0.001175 -0.002975 -0.001359 -0.002221 -0.005082 -0.001209 0.004060 0.002714 0.001144 -0.001918 -0.003191 0.004147 0.000601
sent_31 -0.002767 -0.002558 0.004457 -0.002736 -0.003809 -0.003256 0.002657 0.002020 -0.000492 0.002928 0.000296 -0.000795 -0.003905 0.003883 -0.002118 0.001171 0.004847 -0.003075 0.004591 0.001609 -0.003913 0.002802 0.004294 0.000499 0.001882 -0.004620 0.004876 -0.001610 -0.004771 0.003003 0.004745 0.002261 -0.005079 -0.004313 0.000686 -0.001571 0.003616 0.003725 0.004968 0.002275 0.003610 -0.001715 -0.003839 0.003439 -0.002001 -0.000706 0.001266 0.000981 -0.000855 -0.001183 -0.003725 0.000273 -0.002689 0.002559 0.001763 -0.004420 0.005021 0.002919 -0.002637 -0.004602 -0.000096 -0.001582 0.000595 0.001545 0.003023 -0.004822 0.002189 -0.002051 0.004998 0.003390 0.000655 0.001008 -0.003104 -0.002560 -0.003579 -0.001196 -0.003828 0.000300 0.001360 -0.003782 -0.001679 -0.004451 0.000230 0.001470 0.001029 0.002985 -0.002703 0.001109 -0.001864 -0.004281 -0.001964 -0.004331 0.004572 0.002104 -0.004077 0.002940 -0.001472 0.003973 -0.000116 0.003696
sent_32 -0.002795 -0.001328 -0.001332 -0.004029 -0.001690 0.001597 -0.000335 0.003792 -0.002303 -0.001452 -0.001796 0.000517 -0.003118 -0.003268 0.004395 -0.001234 0.000871 -0.004448 -0.003591 -0.004036 0.003121 -0.003969 0.000163 -0.003444 -0.002212 0.003826 0.001316 0.004637 0.000997 -0.004905 -0.000844 -0.004776 -0.001860 -0.000184 0.000755 -0.002613 0.000583 -0.001051 0.000066 -0.003040 -0.003432 0.002545 -0.001700 0.001442 0.000655 0.003995 0.003807 -0.000569 -0.002953 0.001322 0.001368 0.001924 0.004075 0.002826 0.001253 0.001010 -0.002872 0.001514 0.003145 0.004223 0.004167 0.000611 -0.002402 -0.001662 0.004978 0.000256 0.003159 0.000970 0.000069 -0.001515 0.000378 -0.004933 0.003767 0.000615 -0.004757 0.003182 -0.003646 -0.004694 -0.000377 0.004607 -0.004064 -0.004344 0.003799 0.003214 0.003200 -0.000322 -0.000725 -0.000989 0.000822 0.002290 0.002843 0.001548 0.000625 -0.000876 -0.001801 -0.002138 -0.002038 0.001828 0.002624 0.000976
sent_33 -0.002741 -0.002966 0.002656 0.004888 -0.004804 -0.002520 0.003009 0.002127 -0.002559 0.000581 0.000832 0.002231 -0.000278 -0.000873 -0.001934 -0.002608 -0.004102 0.001442 0.001668 0.001838 -0.004938 -0.000805 -0.003811 0.000308 0.004768 -0.000075 -0.001280 0.003092 0.004681 -0.002149 0.002995 0.005006 -0.003926 0.000276 0.003170 -0.001191 -0.000614 0.002551 -0.004098 -0.001334 0.000596 -0.002632 0.003326 0.002579 0.004730 0.000268 -0.003875 0.004412 0.003392 0.000450 0.003277 0.003859 0.002684 0.000629 0.001098 0.003425 0.001256 -0.003057 0.001876 0.000326 -0.002149 -0.004885 -0.002706 0.001871 0.003874 0.003271 -0.003995 -0.004286 0.002606 -0.002190 -0.002365 -0.004931 -0.003983 -0.003659 -0.003346 -0.000489 0.003155 0.003199 0.004128 -0.000391 0.002068 -0.000052 -0.004402 -0.004258 -0.002502 0.004956 0.001950 -0.002378 0.002026 0.001779 -0.004498 -0.001367 0.002868 -0.004292 0.003980 0.004205 0.003606 -0.003817 0.000791 0.002039
sent_34 0.003716 -0.004162 0.002769 -0.002732 0.001143 0.001788 0.002760 -0.002151 0.001396 -0.002038 0.005207 0.003134 -0.001162 0.003839 0.002541 0.004377 -0.003299 -0.002100 -0.004171 -0.001654 -0.001501 0.001831 -0.000549 0.002001 -0.002238 -0.002997 -0.001116 -0.000300 -0.000749 0.003974 -0.002268 -0.001830 -0.002981 -0.001115 -0.001389 0.000714 -0.002326 -0.002379 0.002509 0.004200 -0.003858 -0.002927 -0.003567 0.001430 -0.003193 0.001170 -0.003303 0.003055 -0.002032 0.001577 -0.003378 -0.002108 -0.001803 0.001401 0.001800 0.003063 -0.003084 0.002989 0.002376 0.000965 0.001396 -0.004506 -0.003316 -0.001180 0.002001 -0.003172 -0.000821 0.000069 0.004799 -0.004650 0.003646 0.004749 -0.002442 0.004251 -0.002478 0.003050 -0.000310 0.001358 -0.002678 0.001713 -0.003628 0.000391 -0.000292 0.003508 -0.000452 0.002338 -0.000978 -0.001846 0.002980 -0.001225 -0.000189 0.000631 0.003162 0.000526 -0.001316 -0.003118 0.001856 0.003463 -0.004316 -0.000235
sent_35 0.004384 0.000653 0.000488 -0.004338 0.000354 0.001582 -0.003545 0.004568 -0.003105 0.001737 -0.002257 -0.003887 -0.002354 -0.001664 -0.000375 -0.002708 0.002255 0.003043 0.002919 0.002147 -0.002280 -0.002932 -0.003875 -0.001017 -0.004121 0.001512 0.004459 0.002540 -0.003870 -0.004746 -0.001636 0.004951 -0.001866 0.002374 0.002198 0.000679 -0.001298 -0.002950 0.004750 -0.004312 -0.002662 -0.001948 0.004054 0.002180 -0.002322 -0.003361 0.003832 0.002940 -0.004584 0.003770 0.000883 -0.000381 0.001730 -0.004617 -0.001647 -0.004108 0.001828 -0.001038 -0.000200 -0.002163 0.002864 -0.004524 -0.002205 0.000944 0.002880 0.000987 0.002298 -0.004776 -0.002485 -0.004605 -0.000042 0.004915 -0.004871 -0.000592 -0.004925 0.001116 -0.003181 0.002092 -0.003395 0.003318 -0.002916 -0.001443 -0.002683 0.003075 -0.000078 0.003802 -0.003705 -0.000013 0.002754 0.004837 0.001731 -0.003125 0.002566 -0.004242 0.002656 0.003245 0.000610 -0.000016 0.004396 -0.005003
sent_36 -0.004953 -0.002123 0.000013 0.000601 -0.001020 -0.002358 -0.002529 0.002734 -0.002003 0.000224 0.003037 0.001053 -0.000705 -0.002918 -0.001194 -0.000191 0.004757 -0.002358 -0.003440 -0.003036 -0.002628 -0.004841 -0.001151 -0.001719 0.003800 0.002372 -0.003865 0.003193 -0.003918 0.002225 0.000657 -0.004095 0.003988 0.003671 0.003664 -0.001445 -0.002598 0.005077 0.002857 -0.004449 -0.001323 0.002933 -0.000105 -0.002633 0.003012 -0.002361 -0.004623 -0.002456 0.005214 0.001618 -0.003071 0.002120 0.001863 0.001042 -0.004539 -0.002647 0.003555 0.002107 -0.003392 -0.002040 0.001100 0.003538 -0.003370 -0.003680 -0.001208 0.003905 -0.002637 -0.003888 -0.004345 -0.001792 -0.004828 0.001145 0.001910 -0.000449 0.002651 0.000234 0.001945 -0.002474 0.002503 0.000668 0.002172 0.000025 0.000201 -0.004587 0.000158 -0.003070 -0.003357 -0.000732 0.000347 -0.000883 -0.003109 0.002426 0.005098 0.002126 -0.003826 0.002974 -0.004285 -0.000569 0.004675 -0.002443
sent_37 -0.003053 0.003365 0.004700 -0.001339 -0.002226 -0.002834 0.004840 0.000339 0.002557 -0.001423 -0.004843 0.000202 -0.002071 0.000789 0.000100 -0.002869 -0.002104 -0.005766 -0.000753 -0.002224 0.002087 0.002156 0.000208 -0.004022 0.004711 0.001880 -0.002376 -0.002488 0.003485 -0.000184 0.001738 0.005353 -0.004548 -0.002383 -0.001629 0.003420 0.001279 -0.004272 0.001806 0.002312 0.002121 0.003497 0.002395 0.002469 -0.002724 -0.003622 -0.001851 -0.002185 0.001577 0.000894 -0.000218 -0.003674 -0.001442 0.004227 0.002297 -0.001514 0.001593 -0.003353 -0.003855 -0.000077 -0.001617 0.000517 0.003351 0.002748 0.002441 -0.004641 -0.000179 -0.000744 0.001101 -0.003028 -0.002147 0.005089 -0.003674 -0.003078 -0.002203 0.001838 0.002222 0.002744 -0.000613 0.004986 0.002278 0.003543 0.004151 0.001360 -0.000456 -0.002737 0.001330 0.000433 0.000259 -0.000519 0.000435 -0.002512 0.001893 -0.004599 0.004972 -0.003763 -0.001452 0.004850 0.004698 0.003439
