35 100
sent_0 -0.000631 0.002442 -0.004839 -0.001818 -0.003430 -0.003934 -0.003097 -0.001661 -0.001354 0.000517 -0.000951 0.002050 -0.002677 0.003951 -0.004842 0.001469 -0.000869 0.000300 -0.003582 -0.003155 0.003301 0.004219 -0.001770 0.001954 0.003882 0.003577 -0.004467 -0.004868 -0.003559 0.004098 -0.003906 -0.000603 0.004617 0.000151 0.002269 -0.002088 0.002110 0.003419 -0.005033 0.002635 0.005082 0.002157 -0.002582 0.002885 -0.003940 -0.000546 0.004385 -0.001804 -0.001834 -0.003909 -0.004968 0.002032 -0.002929 -0.002464 0.000006 -0.004507 0.000688 -0.003872 0.000992 0.001887 -0.003821 -0.000623 0.001741 -0.000449 -0.004409 0.000166 0.001630 0.000206 0.004290 0.000620 0.003713 -0.003566 -0.003556 0.003023 -0.000888 -0.003380 0.004320 -0.001578 0.002693 0.002686 0.003931 0.001663 0.002821 -0.001508 -0.002202 0.004573 -0.000603 0.004597 0.001408 0.001608 -0.003874 0.004731 -0.000371 0.000715 -0.000515 -0.002911 0.004214 0.001064 -0.004701 0.001207
sent_1 -0.001367 0.000801 0.004066 -0.000907 0.004428 0.001288 -0.004440 0.003950 0.001390 0.005289 -0.003494 -0.003354 0.004941 0.002419 -0.004498 0.002195 0.002326 0.003721 0.002053 -0.004061 -0.004279 -0.005924 -0.004536 -0.002235 0.003625 -0.000379 0.000075 0.002874 -0.004135 -0.001827 0.000941 0.005016 0.000489 -0.005122 0.003509 -0.002876 0.003172 -0.000949 0.002968 0.002858 0.000544 -0.004140 -0.005237 -0.003929 -0.004264 -0.003838 -0.002129 0.002538 0.001164 -0.005111 -0.004685 0.005174 0.000427 -0.003482 -0.002512 0.002348 -0.003064 0.000084 0.004717 0.003270 -0.001757 0.000530 0.000678 0.004204 -0.003171 -0.005218 -0.004596 -0.000010 0.000858 0.000226 -0.002511 0.005238 0.001006 -0.001316 0.000896 0.002583 0.001677 -0.002224 -0.004023 -0.000127 0.001422 -0.002088 0.003125 -0.004475 -0.002041 0.004287 -0.002812 0.001133 -0.000217 0.005320 -0.002153 -0.003985 0.002870 0.002387 0.005006 0.003542 -0.004418 -0.002214 0.001979 0.004385
sent_2 0.005213 0.001469 0.004801 0.002028 -0.000818 0.000407 0.001203 0.000127 0.002995 0.004589 -0.001445 0.005318 -0.002269 -0.003265 -0.004225 -0.000837 -0.005017 0.003532 0.003324 -0.005350 -0.002274 -0.003305 -0.003247 0.003380 -0.001232 0.003099 -0.000232 0.002962 0.002597 0.005154 -0.000100 0.001145 0.003130 -0.002627 0.001152 -0.000009 -0.003951 0.000990 -0.001527 0.003594 -0.001422 0.002840 -0.000497 -0.002923 0.003084 0.001008 -0.003394 -0.000002 0.002838 0.003527 -0.005485 0.005711 -0.001396 0.004281 0.001497 0.003247 0.000524 0.000216 -0.001857 0.000237 0.002900 0.004333 0.001853 0.003332 0.003815 -0.002497 0.001592 -0.000447 -0.001785 -0.001813 -0.002157 -0.001485 0.001355 -0.000867 0.005338 0.001694 -0.002952 -0.001007 -0.001031 0.004395 0.004205 0.005547 0.002595 -0.002337 -0.002067 0.005654 0.000632 0.002888 -0.000116 0.003696 0.000195 0.003581 0.001008 -0.000497 -0.000219 -0.005339 -0.000666 -0.002976 0.005825 -0.003135
sent_3 0.003014 0.003678 0.001772 0.000585 -0.003373 -0.000468 -0.001522 -0.002753 0.001070 -0.001870 0.004216 0.004015 -0.002542 -0.003910 -0.003006 0.000094 0.002282 -0.002869 -0.002546 0.003563 -0.000917 0.001335 -0.002688 -0.003969 0.000130 -0.000124 -0.003364 0.001280 0.000520 0.001420 -0.003584 0.002411 -0.002799 0.000264 0.002721 -0.004703 -0.001828 0.003736 0.003516 0.000341 0.003621 0.004627 0.003352 0.003469 -0.004067 0.001526 0.001958 0.001031 0.002907 -0.004603 0.002743 0.002226 -0.002354 -0.002427 0.001257 -0.001593 0.002977 -0.000419 0.002820 0.005008 -0.002021 -0.003670 0.004058 0.000259 0.004717 0.001436 0.004962 0.000483 0.000381 -0.003611 -0.001300 -0.004754 -0.003399 0.002498 -0.004773 -0.001290 0.003620 0.002017 0.001869 -0.003204 -0.000600 0.000705 0.004783 -0.002939 -0.002550 -0.002587 0.002500 -0.000406 -0.004387 -0.000016 -0.002885 0.002896 -0.002008 -0.004760 0.000795 0.003509 -0.001250 0.002342 0.000007 0.000401
sent_4 0.004726 0.003319 -0.004649 0.002163 -0.000231 0.004406 -0.002601 -0.002534 -0.004327 -0.000515 -0.003940 0.001493 0.003168 0.002192 0.002553 -0.001662 0.003377 -0.000848 0.003163 0.001086 -0.003444 -0.004606 -0.004940 -0.004194 -0.000409 -0.004081 -0.004869 0.002482 -0.001136 0.002629 -0.000534 -0.000424 -0.000255 -0.000306 0.003211 -0.001096 0.004100 -0.004537 0.002600 -0.003621 0.001203 -0.005045 0.000117 -0.005125 0.004565 0.004141 0.003134 0.004319 -0.003348 -0.003479 -0.003326 0.001336 0.004005 0.004738 0.002103 0.002224 0.004155 -0.001222 -0.002496 -0.003273 -0.003450 0.003323 -0.003663 -0.002102 0.003344 -0.002039 0.004774 -0.002354 0.000355 -0.002125 0.003891 -0.001205 -0.000597 0.000185 0.004512 -0.004598 0.002211 0.004081 -0.004621 0.000660 -0.001748 0.003977 0.000825 0.001844 -0.000442 0.001699 -0.002002 -0.005007 0.000527 -0.001514 0.000249 0.004295 -0.000472 -0.002701 -0.000988 0.004048 0.004530 0.003560 0.004496 -0.002810
sent_5 -0.004177 -0.003194 -0.002447 -0.004104 0.001423 -0.001563 0.003307 -0.003294 0.002796 -0.002478 0.001287 -0.001331 -0.004948 -0.002908 0.002332 0.000094 -0.000001 -0.003707 0.000500 0.005401 0.002752 0.001746 0.004361 0.003715 0.000862 -0.004086 -0.004202 -0.003952 -0.000491 -0.001595 0.004845 -0.003855 0.004293 0.003104 0.002438 0.001655 0.000795 -0.000042 -0.004716 -0.001331 -0.000620 0.003098 -0.000288 -0.000985 -0.004009 -0.004506 0.002165 -0.002437 0.004613 -0.003158 -0.001024 -0.000314 0.002749 -0.000696 -0.003637 -0.002475 0.000641 0.002380 0.003064 -0.002921 -0.004674 -0.000689 0.003522 -0.005578 0.001974 0.002280 -0.000086 0.004647 0.002112 -0.005254 0.000218 0.003420 0.003180 0.001948 0.001056 0.000870 -0.002199 0.001350 0.001850 -0.001586 0.003254 -0.003673 0.002113 -0.002138 0.002498 -0.001692 0.003164 -0.001588 -0.002685 0.002095 -0.002473 0.002141 0.002379 -0.003551 -0.003397 -0.002831 -0.003419 -0.002085 -0.005105 -0.004101
sent_6 0.002016 0.003069 -0.004164 -0.002845 -0.002692 0.004209 0.002091 0.000375 -0.002076 0.003521 -0.000687 0.004586 0.002181 -0.000080 -0.003615 0.004495 -0.003399 -0.003449 -0.000706 -0.000972 -0.003330 0.002055 -0.003206 0.001222 0.002740 -0.003121 0.000525 0.002342 0.001021 0.001323 -0.001806 0.002376 0.004428 -0.000896 0.003028 -0.004646 0.003464 -0.002895 -0.001105 -0.001869 -0.003950 0.003822 -0.001711 0.000096 -0.000256 -0.003619 -0.002765 -0.004065 0.000338 -0.002806 -0.001413 -0.003858 0.002930 -0.004044 0.005025 -0.003448 0.000847 -0.004732 0.003172 -0.002962 0.000357 0.002395 -0.003539 0.000739 -0.002621 0.002496 0.002450 -0.003002 0.003611 -0.005173 0.003346 0.000529 -0.000935 0.002684 0.002052 0.004756 -0.002085 -0.004865 0.004615 0.003927 0.002279 0.000469 0.002373 0.002852 -0.001299 0.003115 0.002644 0.001036 -0.001173 0.002115 -0.005260 0.002960 0.004027 -0.002878 -0.003516 -0.002969 -0.001745 0.003990 0.000532 -0.002108
sent_7 -0.003705 -0.001759 0.001063 -0.001601 -0.000282 -0.000744 0.003583 -0.000961 -0.001640 0.001951 -0.002875 -0.000403 -0.001685 0.001550 0.003603 -0.000470 0.002767 -0.000475 0.001477 -0.003866 -0.000526 0.003647 0.001087 0.002950 0.000006 -0.000299 0.003491 -0.004497 0.000773 0.004386 0.000059 -0.003013 0.003456 -0.002546 0.002208 0.000321 0.004626 0.001331 0.003223 -0.004826 0.004919 -0.004339 -0.001990 0.004270 -0.004846 0.003244 0.003857 -0.000369 -0.002287 0.003096 -0.000529 -0.003481 0.004247 0.003753 -0.000312 0.003476 -0.000917 0.001588 -0.001101 0.000075 -0.002696 0.004914 -0.002315 -0.003709 -0.003523 -0.005006 0.001987 0.000604 0.003038 -0.000143 0.002819 0.002141 0.002884 -0.000955 0.001659 -0.002990 -0.001769 -0.003052 -0.000892 -0.002129 -0.000868 0.005137 -0.001636 0.004798 0.001491 -0.000876 0.003727 0.001167 -0.002738 0.003433 -0.000419 -0.001419 -0.001273 0.001821 -0.002017 0.002818 -0.002020 0.000486 0.000149 0.003532
sent_8 0.003929 -0.003121 0.000815 0.003994 -0.000501 0.004204 -0.002158 0.001039 0.001829 -0.002698 -0.004845 -0.000790 0.004414 -0.001524 0.002834 -0.003255 -0.001600 -0.003571 0.002151 0.001982 0.001843 -0.002533 0.001833 -0.002726 -0.000776 -0.001280 -0.001482 -0.004391 0.001299 0.002065 0.001111 0.001481 -0.003348 -0.003495 0.000120 0.003799 -0.003258 -0.000369 -0.000752 0.000025 -0.003468 -0.001562 -0.002424 0.003370 0.003040 -0.000666 0.001061 -0.003571 0.000089 -0.002060 0.003568 0.001703 0.001298 -0.003804 -0.000286 0.004823 0.004564 0.001416 -0.003490 0.001400 0.000780 -0.000286 -0.000720 0.001026 0.003557 0.002489 0.000783 0.004246 -0.004314 0.004859 -0.004494 -0.002969 -0.000768 -0.003890 0.001250 -0.004503 -0.002149 -0.004309 0.002038 0.001780 -0.001260 -0.003119 0.002515 -0.001634 0.002944 -0.000083 0.000257 -0.004773 0.001451 -0.001443 -0.002706 -0.000644 -0.001127 -0.000386 0.004827 -0.001390 0.002817 0.000504 0.003961 -0.001495
sent_9 -0.002182 0.004472 -0.004364 0.004817 0.000793 -0.001074 0.005123 -0.004660 -0.000197 -0.004487 0.000533 -0.002857 0.001757 0.005113 0.003672 -0.000790 0.002008 0.002330 -0.000085 0.000106 -0.003107 -0.002160 -0.003568 0.002282 -0.000128 -0.001033 0.003361 -0.000093 -0.001263 -0.001940 -0.004146 -0.000529 -0.004813 -0.002380 0.000466 0.004483 -0.003818 0.001935 -0.000371 0.003042 -0.003408 -0.004575 -0.001613 0.002808 -0.002962 0.002742 -0.001677 -0.002480 -0.004384 -0.001318 -0.001442 0.001910 -0.004478 -0.003769 -0.004787 -0.003959 0.001580 -0.001546 -0.001680 0.000512 0.005495 0.003747 0.001705 0.004884 -0.004275 -0.004561 -0.000356 -0.001367 0.004162 -0.000476 -0.000172 0.004080 -0.000410 0.003703 -0.002265 -0.002255 -0.001628 0.000545 -0.002490 0.002502 -0.003536 -0.003486 0.004262 -0.002744 -0.000982 0.001649 0.000446 -0.004443 0.003417 0.005192 0.003138 -0.001859 0.000607 -0.001873 0.001265 0.004243 -0.001508 0.002062 -0.001196 0.002706
sent_10 -0.001821 0.003818 0.002394 0.002505 -0.000287 -0.003011 -0.004557 -0.001777 -0.004491 0.001942 0.001763 -0.000757 0.002552 0.000345 -0.004525 -0.003567 -0.003056 -0.001586 -0.004493 0.001085 0.000009 0.001359 -0.000743 0.003468 -0.000489 -0.004716 0.003837 0.001661 0.003302 0.004416 -0.004523 -0.002761 -0.004397 -0.000715 0.003502 -0.004105 -0.000344 -0.003741 0.002820 0.003373 -0.004628 -0.000030 -0.002514 0.004466 0.004381 0.001180 0.004622 -0.001641 0.003868 -0.000612 -0.002596 0.004298 0.001899 -0.004333 0.003658 0.001964 0.001088 0.002461 -0.002468 0.001096 0.003108 -0.004562 -0.003635 0.003249 0.001144 0.000381 -0.002476 -0.002037 0.003860 -0.000751 -0.004210 0.003957 -0.002980 0.003318 0.003737 -0.000117 0.000967 0.000355 0.001198 0.003449 -0.002230 0.003719 0.000558 -0.003816 -0.002781 0.000735 -0.002627 -0.003681 -0.003328 0.003318 0.001007 0.004542 -0.001554 0.000924 0.000827 0.001258 -0.004460 0.002354 0.004368 0.000336
sent_11 -0.002551 0.003530 -0.004510 -0.001036 0.004518 0.001188 0.003963 0.000518 0.002304 0.004263 -0.002219 -0.003247 0.003168 0.000072 -0.004226 0.000347 -0.004826 -0.003764 0.002817 -0.005394 -0.001111 -0.006573 0.005142 0.001133 -0.001868 0.003101 -0.000764 -0.001251 0.000283 -0.001624 -0.001840 -0.000655 -0.002540 0.000323 0.003070 -0.004905 0.005289 0.002823 0.002307 0.003006 -0.003777 -0.001070 -0.001704 0.001526 -0.000264 0.002046 0.002832 0.002832 0.002123 -0.003965 0.001900 0.003598 0.003758 -0.003222 -0.003194 -0.001236 -0.001903 0.001953 0.001254 0.002305 0.000249 -0.003091 -0.004578 0.000134 -0.002611 0.002577 0.000736 0.001965 -0.000500 -0.004960 -0.003716 -0.000055 -0.002789 -0.004927 0.002879 0.002389 -0.001534 0.003537 -0.000204 0.005228 0.001810 0.002228 -0.001913 0.000128 0.004321 0.000046 0.004142 0.003853 -0.002523 0.003391 0.004199 -0.003602 0.004566 -0.003466 0.004945 0.000638 -0.000967 -0.002582 0.002460 0.003465
sent_12 0.003218 0.001282 0.004563 0.000899 -0.003022 -0.000707 -0.001633 0.004919 -0.001198 0.004927 0.000188 -0.003277 -0.004254 -0.001297 -0.003766 0.001345 -0.000861 0.004909 0.004300 -0.003508 -0.001051 -0.000384 0.000609 0.002804 -0.000128 -0.000800 -0.002380 0.004108 -0.004777 0.003211 -0.003115 0.001858 -0.001448 0.004742 -0.003772 -0.003124 0.003894 0.000834 -0.001908 -0.004992 -0.002724 -0.003546 -0.002966 0.003963 0.003731 0.002003 -0.000295 0.003271 -0.000042 -0.001365 -0.002244 0.004247 -0.001130 -0.000071 -0.002456 0.003850 -0.001167 -0.002024 0.002176 -0.003091 -0.003818 0.003370 0.002441 0.000905 -0.002571 0.001232 0.001384 -0.001724 -0.004325 0.003805 -0.000400 0.002639 -0.002461 0.000914 -0.000712 -0.001179 -0.003733 -0.002557 -0.004207 -0.001971 0.002417 0.001150 0.001724 -0.004916 0.001784 0.000032 -0.002691 -0.003251 -0.003150 0.003443 0.004826 0.004137 -0.001526 0.002802 0.000465 0.003164 -0.000163 0.000900 0.002873 -0.003998
sent_13 0.000369 -0.001447 0.000975 0.004446 -0.001033 -0.001139 0.002876 0.001451 -0.000925 0.001884 -0.000894 -0.003610 -0.000596 -0.001700 -0.002709 0.004281 0.001915 0.000952 0.002446 0.000497 0.001935 0.004455 0.003552 -0.003428 -0.002359 -0.004176 0.004767 -0.002563 0.001607 -0.004147 -0.002853 -0.000047 -0.003988 -0.001074 0.000265 -0.001552 0.000457 0.000407 -0.001006 0.001946 0.001774 0.001971 0.000663 -0.001498 0.001043 0.004388 0.000877 0.004724 -0.000632 0.002348 -0.004521 0.002544 0.000220 -0.004934 -0.002219 0.000286 0.002753 -0.004357 0.000556 0.003132 0.001457 0.004179 -0.004158 -0.002355 0.004236 0.002724 0.001078 0.003399 0.004032 0.004721 0.005047 -0.003660 -0.004306 -0.004204 -0.004975 0.004699 -0.004022 0.003488 0.001868 -0.000215 -0.001587 -0.001582 -0.002511 0.004118 0.002192 -0.004913 -0.000390 -0.002198 -0.004665 0.003695 0.002612 -0.001752 0.002925 -0.001828 -0.002020 0.004355 0.004761 0.000115 0.004416 0.003868
sent_14 0.000265 -0.001248 0.002195 -0.000342 0.001038 0.005031 0.002710 -0.001652 -0.004272 -0.003202 0.000254 -0.000794 0.003106 0.004345 -0.003209 0.003516 0.004588 0.004560 -0.004604 -0.004430 -0.004870 -0.001985 -0.004372 -0.002063 -0.001433 0.004439 -0.000330 -0.002269 -0.000066 0.001541 -0.003853 0.002652 0.003542 0.003445 0.003968 -0.001229 -0.000516 -0.004042 -0.002844 0.004714 -0.002143 0.003977 0.003848 0.004315 -0.003368 0.003802 0.001397 -0.002844 -0.001508 -0.003453 -0.000543 -0.004121 -0.003405 -0.003014 0.002000 0.000783 0.003713 -0.002662 0.001298 -0.004807 0.000146 0.003716 0.004800 -0.004801 -0.002479 -0.002833 -0.004551 -0.004935 -0.000224 -0.004565 -0.002301 0.001438 -0.002042 -0.002340 0.000960 -0.001243 0.002025 -0.000107 0.001357 -0.001416 -0.002096 -0.003617 0.004428 0.003067 0.004460 -0.003001 0.004336 0.004333 -0.002167 -0.002210 0.000537 -0.003047 -0.000647 -0.003120 0.004566 -0.000114 0.004722 0.001606 -0.000079 0.004681
sent_15 -0.003568 0.001323 0.001619 -0.000662 -0.004406 -0.000073 -0.000349 0.003067 -0.002433 -0.001086 -0.002598 0.001864 0.004899 -0.003226 0.003214 -0.002690 -0.004420 -0.003612 0.004352 0.003885 -0.002107 0.004478 0.003499 -0.000653 -0.000320 0.001299 -0.003420 -0.004852 -0.002345 -0.004846 0.001745 0.000515 -0.001784 0.002802 -0.003542 -0.002551 -0.002077 -0.003041 -0.004121 0.003700 -0.004118 0.001837 -0.003796 -0.004893 0.000573 0.004071 0.003605 -0.001615 -0.004728 0.003009 0.003060 0.003685 0.001696 0.003078 0.003975 -0.000462 0.000578 0.000061 0.001920 0.001829 0.000203 0.003285 0.000058 0.003249 -0.002182 -0.003215 0.004699 0.002419 -0.002402 0.000812 0.004553 -0.004192 -0.004165 0.001191 -0.002755 0.002652 0.000682 0.001662 -0.003922 -0.004157 0.001251 -0.000903 -0.004127 -0.001289 0.001721 -0.003104 0.003957 0.004498 0.004616 0.002301 -0.000937 0.002437 -0.002120 -0.001856 0.001059 0.000948 0.003787 -0.002454 0.002662 0.004410
sent_16 -0.004767 0.000324 0.001683 0.003699 -0.002820 0.003461 -0.000895 0.003535 -0.005130 -0.003763 0.004694 0.001325 -0.000400 -0.002912 0.001246 -0.004909 -0.002047 -0.002252 0.000974 0.001181 0.003869 0.003275 0.001732 0.001144 -0.001006 0.004002 -0.003793 0.003533 -0.002140 0.000794 0.001833 -0.002410 -0.003398 -0.000101 0.003434 0.001570 -0.003535 0.004178 -0.000650 0.004740 0.000578 -0.004562 -0.003647 0.003430 0.002144 0.004011 -0.001135 0.000664 0.002049 0.000737 -0.003013 -0.000329 -0.002583 0.002985 0.004795 -0.004464 0.002081 -0.002174 0.001311 -0.002524 0.002111 -0.000901 -0.002489 0.004715 0.004586 0.000769 -0.003049 0.004460 0.002459 0.001898 -0.003435 0.003645 -0.002401 0.001272 0.002433 0.002582 -0.001098 0.002819 0.004247 0.001838 -0.003981 -0.002838 -0.003489 -0.003341 -0.003460 0.003754 -0.004304 -0.002739 0.003174 0.005672 0.001230 0.004992 -0.004043 0.004142 -0.001146 0.002352 0.003346 0.003935 0.000217 0.004198
sent_17 -0.001940 0.005336 0.001470 0.005605 -0.004286 0.002349 0.001223 -0.000725 -0.003117 -0.001277 -0.002820 -0.002375 0.003931 0.000799 -0.004473 0.002420 0.000071 0.001794 -0.000044 -0.001455 0.005602 -0.006546 0.004296 0.004708 -0.001058 -0.003925 0.000480 -0.003897 0.002575 -0.001980 -0.002144 0.004701 0.003896 -0.000011 0.004422 -0.001747 0.005069 -0.000357 -0.002916 -0.004061 0.005026 -0.000960 0.001255 0.000906 0.002672 -0.004325 0.005120 0.005019 0.001331 0.004318 -0.002949 0.001649 -0.001514 0.000596 -0.002095 0.002978 -0.004229 -0.005859 -0.004547 -0.003683 0.000424 0.005542 -0.004581 0.002886 0.000938 -0.002045 -0.003442 -0.002740 -0.004881 0.001369 0.000557 -0.000139 0.002478 -0.004004 0.004954 0.003818 0.001793 -0.000778 -0.000345 0.001559 0.004483 0.004846 0.000858 0.000236 0.004179 0.006359 0.001816 0.002108 -0.002165 0.005802 0.003737 0.001104 0.004673 0.002905 0.004550 -0.004834 0.001115 0.004653 0.003977 -0.000979
sent_18 0.004711 -0.002087 -0.001872 0.004863 0.003467 0.003510 -0.004225 -0.001625 -0.002534 -0.001686 0.002315 0.002113 -0.000164 -0.000828 0.000833 0.000513 0.000331 0.001114 -0.001262 0.002471 -0.002351 0.000752 0.004502 -0.004518 0.002031 -0.004256 0.000612 0.001028 -0.002432 0.003898 0.001011 -0.002702 0.002454 -0.004049 0.000555 -0.003787 0.000518 -0.002197 0.001156 0.002369 0.000011 0.001550 0.002754 0.002544 0.001437 -0.000296 -0.000651 0.003977 0.002227 -0.002936 0.000198 0.004238 -0.003706 0.002959 0.002672 -0.000177 -0.004592 -0.003921 0.004007 -0.004353 -0.000127 0.001650 -0.003412 0.005269 -0.003172 0.000227 0.000761 -0.002631 -0.000108 -0.000311 0.002474 0.001725 -0.000047 0.001668 -0.000229 0.000672 0.001570 -0.002623 0.002943 0.001954 0.004741 -0.002336 -0.000065 0.003783 0.001256 0.002758 -0.000639 0.001588 0.004139 -0.002132 0.003557 0.004575 -0.004025 -0.003309 -0.003289 0.002131 -0.004008 0.004770 -0.000513 0.003849
sent_19 -0.002932 -0.000374 0.003355 0.001050 -0.000140 0.000054 0.000922 -0.000830 -0.003150 -0.003734 -0.003469 -0.004305 0.000774 0.003741 -0.001362 -0.004341 -0.000829 0.000886 -0.000834 0.003040 0.004399 0.003284 0.001822 -0.000279 0.001821 -0.005047 0.004643 -0.003269 0.003923 0.003119 0.002990 -0.002292 -0.002959 -0.000767 0.003553 -0.000484 0.004178 -0.001427 0.001014 0.005081 0.001254 -0.004644 -0.000642 -0.001974 0.000426 -0.001987 -0.003720 0.001779 0.001940 0.003541 -0.003856 0.003106 0.003136 0.001266 -0.002963 -0.002580 -0.000662 0.000196 -0.000171 -0.000314 0.003909 0.003876 0.003077 0.004098 0.000886 0.004506 0.000989 0.001049 -0.001721 0.001536 -0.004674 -0.003480 -0.003649 0.001691 -0.003181 -0.001485 -0.004499 -0.002377 0.004722 0.000588 -0.003576 0.000408 0.004674 0.003552 -0.001077 -0.001800 0.002662 -0.002780 -0.002525 -0.003855 0.003729 -0.000413 0.000868 0.002049 0.003244 -0.000755 -0.002943 0.003317 -0.004404 0.004383
sent_20 0.000792 0.004215 0.001173 -0.002256 -0.001955 0.000310 0.004860 -0.003354 -0.000286 -0.001380 0.002628 0.003057 -0.000472 -0.002745 -0.004695 -0.003150 -0.002419 0.000871 0.003683 -0.003960 0.004797 0.001279 0.002587 0.005209 -0.000859 -0.000107 0.001730 -0.000065 -0.002075 -0.003802 -0.002258 0.002837 0.001453 0.002996 0.000562 -0.003043 0.001623 -0.002041 -0.004997 0.004209 -0.000834 -0.000980 0.002126 0.004550 -0.004147 -0.003317 -0.001417 -0.002265 0.000245 0.003246 0.003259 0.001309 -0.002620 -0.003348 0.002427 -0.002647 0.000222 0.002230 -0.002765 -0.003514 -0.004391 -0.003263 0.003221 -0.003620 -0.002855 -0.004934 0.001581 -0.002841 -0.000915 -0.003961 -0.001477 -0.000488 -0.000215 -0.000794 -0.003660 0.002898 -0.003660 -0.000695 -0.002269 -0.001508 0.001897 0.000730 -0.002924 -0.000339 -0.001422 0.002618 -0.002607 0.003474 -0.000092 0.000572 -0.002218 -0.002960 -0.000010 0.004768 -0.003309 -0.002516 0.003031 0.001949 -0.001864 -0.001881
sent_21 -0.000773 0.001223 0.002234 0.003570 0.001897 -0.002663 0.004360 0.002692 -0.002049 -0.001819 0.003776 -0.003666 0.001417 -0.002121 0.003131 -0.001436 0.002323 -0.003230 -0.000219 0.002929 -0.000900 -0.003633 0.001530 0.002621 -0.002156 -0.000682 0.003904 0.003611 0.002009 0.001026 0.003185 0.004142 -0.004946 -0.001080 0.000838 0.002125 -0.003899 -0.000938 -0.002236 -0.000727 0.000114 0.001459 -0.000193 0.001188 0.000752 -0.000746 -0.004769 -0.002884 -0.001609 -0.003608 0.000900 0.001233 0.000054 -0.001876 0.001514 -0.003146 -0.005011 0.002256 -0.000503 0.001973 -0.003101 -0.004309 -0.001325 0.002078 -0.003954 -0.003143 -0.000458 0.001212 0.002497 -0.004139 0.001101 -0.001065 0.001747 -0.002964 0.000349 -0.003241 -0.004777 -0.000077 -0.003097 0.001586 0.000421 0.003069 -0.000942 0.004915 0.000192 0.000045 0.002608 0.000743 -0.001623 0.000121 -0.003086 -0.001008 -0.004556 -0.000446 -0.002064 0.000131 -0.004715 0.000676 -0.001962 0.000785
sent_22 0.002143 -0.000325 0.001351 -0.002568 0.005389 -0.003249 0.005030 -0.003227 0.000192 0.003635 0.002171 0.001883 -0.000563 0.002970 0.004245 -0.000398 0.000078 -0.004482 -0.001317 -0.000523 0.004128 -0.004376 0.002329 0.000933 0.000906 -0.004984 -0.003321 -0.002408 -0.004813 0.001468 0.003552 0.000309 0.000246 0.001161 -0.002074 -0.001169 0.000574 0.003364 -0.003245 -0.001629 0.002277 -0.001508 -0.004884 -0.003931 -0.003016 0.000086 0.001615 0.003955 0.004196 -0.001748 0.002223 -0.002120 -0.001337 -0.002554 -0.001355 -0.003078 -0.001837 -0.003958 0.004504 0.000362 0.005080 0.002683 -0.000757 0.002723 0.001423 -0.002060 -0.000055 0.002275 -0.001600 -0.005135 -0.002341 0.003287 0.004570 0.001304 -0.003580 0.002975 0.000237 0.003111 0.003663 0.005238 0.001565 0.003972 0.002507 0.002224 0.003819 0.004501 0.004289 -0.001188 -0.004534 0.003989 0.000719 0.000267 0.003992 -0.005134 0.004106 -0.005135 0.002008 0.000546 0.001797 -0.001445
sent_23 -0.002093 0.000181 0.003938 0.000682 0.001684 -0.000487 0.004705 0.002390 -0.001662 0.001585 0.000403 0.003992 -0.002128 -0.003876 -0.003130 -0.001316 0.003494 -0.002471 0.001288 0.001181 -0.000811 -0.004651 0.002494 -0.002042 -0.000948 -0.001389 0.001431 -0.004209 0.000317 -0.004629 0.004908 0.001054 -0.001145 -0.003575 0.002123 0.003881 -0.001696 0.002635 -0.002255 0.004671 0.002041 0.001082 0.004099 -0.002247 0.004246 0.001791 0.002825 0.000778 0.003471 0.001826 -0.003551 0.001245 -0.002203 0.004106 -0.002860 -0.002178 -0.004516 -0.000628 0.000668 0.000617 0.004028 -0.001479 -0.000591 0.003663 0.000758 0.001438 -0.002173 -0.000108 0.001142 -0.003828 -0.004827 -0.003821 -0.000238 -0.004739 0.001313 -0.004085 -0.002499 -0.000794 -0.003756 -0.002114 -0.004742 0.005036 0.001222 -0.001197 -0.004705 -0.000826 -0.000453 0.004281 -0.002303 0.001264 0.001583 -0.002976 0.000010 0.002836 -0.003900 0.000942 -0.004632 -0.004735 -0.004301 -0.000180
sent_24 0.003942 -0.000910 -0.004481 0.003687 0.000161 -0.002076 0.004815 0.004373 -0.002157 -0.002984 0.000905 0.003067 -0.001732 0.000915 -0.003428 -0.002734 0.002545 -0.003137 -0.002383 0.001880 -0.005048 -0.004586 -0.002143 -0.001379 -0.001566 0.003223 -0.004182 -0.001299 0.001731 -0.003993 0.003330 0.001302 -0.003910 -0.002786 0.002225 -0.000720 -0.000321 0.003805 -0.003582 0.004594 -0.004846 -0.003763 -0.002519 0.002923 -0.000287 0.001552 -0.003378 -0.003422 -0.000015 0.002761 -0.000521 0.003650 0.001597 -0.002537 -0.002973 -0.001227 0.002500 0.004503 0.003362 -0.002318 -0.000661 0.001155 0.000420 -0.001267 -0.004093 0.002217 -0.004322 0.003529 0.003829 0.002284 0.000145 0.002099 -0.001034 0.002962 0.002951 -0.003205 -0.001904 -0.001363 -0.001590 0.000607 -0.004602 0.001414 -0.003212 -0.000896 -0.000449 -0.001837 -0.001211 -0.003169 -0.004207 0.000548 0.001283 -0.003786 -0.002462 -0.002120 0.003130 -0.003397 0.000348 0.000367 -0.001581 -0.001554
sent_25 0.004522 0.000560 0.001396 -0.000250 0.001547 0.000838 -0.003435 -0.001736 -0.000308 -0.003599 -0.001310 -0.002749 0.003350 -0.001502 -0.002718 -0.000862 0.001803 -0.004331 -0.003245 0.001881 0.002464 0.001273 0.003704 -0.003216 0.002017 0.004215 -0.003394 -0.002480 0.000522 -0.001582 0.001849 -0.004552 -0.003410 0.002238 0.004634 0.004276 0.004037 -0.003693 -0.003472 -0.004304 0.000399 0.003864 0.000307 0.002710 -0.003200 0.003689 -0.003173 -0.004469 -0.000824 0.000599 0.004675 -0.004154 -0.002163 -0.003978 -0.001155 -0.002202 0.000149 -0.001411 0.004291 0.002995 0.003641 -0.003763 0.000754 -0.002995 0.003634 -0.004845 -0.003899 -0.001248 -0.000795 -0.002321 -0.003928 -0.003758 -0.001799 0.004612 -0.002970 0.002531 -0.002435 -0.004478 -0.004867 -0.003426 -0.000406 0.002641 0.002206 -0.001417 -0.000253 0.003043 0.003409 -0.001802 -0.005039 -0.004537 0.002399 -0.002333 -0.000098 -0.003159 0.003373 0.000039 0.000227 -0.002238 0.000073 -0.005018
sent_26 -0.002111 -0.001672 -0.002195 -0.004307 0.000315 0.002864 0.004355 -0.000023 0.001062 -0.002111 -0.003411 -0.003552 0.002219 0.002290 -0.003034 -0.000930 0.000983 -0.003843 0.002838 0.001304 0.001048 0.002143 0.004744 0.000416 0.003681 -0.000700 0.001432 0.004368 0.001566 -0.001940 0.001314 -0.001558 -0.001851 0.001104 -0.003524 -0.000087 0.004311 -0.001111 -0.002999 -0.000281 0.003379 0.003470 0.003290 -0.004962 -0.002440 0.005059 -0.003950 -0.000185 0.002892 -0.003900 0.001796 -0.000222 -0.003030 0.003815 -0.003107 0.001317 0.002533 0.000771 0.001427 -0.003697 -0.001964 0.000696 -0.000897 0.001544 0.003593 -0.003032 0.004151 -0.001070 0.004475 0.001134 0.002887 0.000096 0.000302 -0.001621 -0.003872 -0.001252 -0.002812 -0.004623 -0.002207 -0.003282 0.003652 -0.004323 -0.003178 0.002046 0.004089 -0.002640 -0.004820 0.004543 0.001882 -0.002119 -0.000432 0.000960 -0.001386 0.003635 0.002183 0.004630 -0.001472 0.004277 -0.000318 0.001405
sent_27 0.002633 0.003282 -0.001031 -0.000600 0.003419 0.002190 0.004515 0.004582 -0.003402 -0.002486 0.002076 0.002812 0.001233 0.004005 -0.002385 -0.001862 -0.000081 -0.002334 0.000442 0.001715 -0.002592 -0.000528 0.004801 -0.001866 -0.004490 0.002888 -0.000427 -0.004659 0.003548 -0.000584 0.004459 -0.000889 -0.004288 -0.002714 -0.001235 0.002319 -0.003046 -0.000504 0.003589 0.000498 -0.003776 -0.005031 0.001551 0.004562 0.002720 0.002779 0.001993 0.003137 -0.004354 -0.002765 0.001858 0.003764 0.001782 -0.003427 0.004501 0.003800 -0.003986 -0.003344 -0.002013 0.002503 0.003811 0.000897 -0.003135 -0.000546 -0.003415 0.003999 0.002824 0.000307 -0.000424 -0.004454 -0.002092 -0.003792 0.002869 0.000521 -0.002752 -0.002853 -0.002308 -0.001767 -0.000869 -0.001509 0.001770 -0.004226 -0.001360 0.002492 0.004423 0.003564 -0.002414 -0.002803 -0.003344 0.004154 -0.002853 0.002812 -0.002225 -0.004980 0.002686 0.002025 -0.003811 -0.001548 0.004714 -0.003366
sent_28 -0.004133 0.000946 0.004310 -0.003662 0.000130 0.001840 -0.003282 -0.004887 0.003877 -0.004648 -0.002425 0.001517 -0.002142 -0.004903 0.000755 -0.001922 -0.003485 0.004713 -0.003350 0.002272 0.003907 0.003587 -0.003157 -0.002632 -0.004816 0.004314 0.003871 0.000955 -0.003906 -0.003265 0.000770 -0.002483 -0.001998 -0.003290 -0.003104 -0.000366 0.000099 0.000116 0.004971 -0.003704 0.002562 0.002938 0.000849 -0.000373 0.003934 0.003282 -0.004497 0.004630 -0.004927 0.000731 0.000724 0.003344 -0.001153 -0.004090 0.000817 -0.004752 -0.001382 0.004853 0.003688 -0.003475 0.002988 0.003110 0.004282 -0.002756 -0.000010 0.003274 0.001673 0.000939 0.001520 -0.002615 -0.004745 0.002363 -0.001732 -0.001232 0.001126 0.001572 -0.002971 0.003260 -0.001198 0.001317 0.004664 0.000648 -0.001411 0.001190 0.000018 -0.000476 0.002323 0.004245 -0.000207 -0.004118 0.000697 -0.002550 -0.004604 0.002881 -0.002272 0.002771 -0.000118 -0.001821 -0.001860 -0.004580
sent_29 0.000535 0.003693 -0.003991 -0.004026 0.000467 0.001669 0.001992 -0.002122 -0.005108 -0.000569 -0.002803 -0.004639 0.002117 0.004691 -0.001434 -0.002383 0.000452 0.002971 0.002914 0.001651 -0.000283 0.001418 -0.002682 -0.002052 0.003006 0.003765 -0.003606 -0.002306 -0.005308 -0.000179 -0.002751 0.001603 0.002238 -0.003895 -0.003552 0.003321 -0.000441 0.000371 0.004472 0.002765 -0.001384 -0.004536 -0.000135 -0.001605 -0.005006 0.002600 -0.000669 0.001110 0.003078 0.003996 0.001002 -0.001487 -0.003727 -0.004421 -0.001551 0.001425 0.001804 -0.003167 -0.003861 -0.002072 0.000330 0.002595 0.000085 -0.001813 0.001241 -0.002627 0.001695 0.003444 0.001296 -0.000038 -0.002321 0.003847 0.004900 0.002850 0.000851 -0.003588 -0.001722 -0.001307 -0.001840 -0.000076 0.001337 -0.002085 -0.002168 -0.003789 -0.001865 0.000716 0.000147 0.005050 0.004259 -0.000195 0.004564 -0.002490 0.000552 -0.000619 0.005110 0.003021 -0.002783 -0.000121 -0.003114 0.000362
sent_30 0.002956 -0.004710 -0.003091 0.004733 0.004611 0.000588 0.001416 -0.002261 0.004541 0.001648 0.001709 -0.004883 0.003495 0.002756 0.001923 0.002402 -0.003399 0.002202 -0.004034 0.002119 -0.005019 0.002838 -0.000112 -0.003024 0.002294 -0.001792 0.003823 -0.003139 0.004369 0.004708 -0.001928 0.003602 0.003413 -0.000720 -0.001424 -0.002150 0.004891 -0.002466 0.004248 -0.000742 0.004344 0.003409 -0.003392 0.000746 0.001714 -0.000925 -0.005012 -0.001778 0.003348 -0.004395 -0.003872 0.001958 0.000141 0.000028 -0.001224 0.001033 0.003540 -0.002182 0.003473 -0.000841 -0.000048 0.002246 -0.002354 0.004157 0.002018 0.001207 -0.002238 0.001956 -0.002438 0.003182 -0.004856 -0.003349 0.000573 0.002148 -0.000129 0.003741 0.004772 -0.000356 0.002671 -0.000137 0.001623 -0.002835 -0.003937 0.004813 0.003134 -0.002234 0.000836 -0.001211 -0.003184 -0.000931 -0.002059 -0.004843 -0.001206 0.004204 0.003227 0.000802 -0.001810 -0.002698 0.004503 0.000649
sent_31 -0.002824 -0.002505 0.004596 -0.002612 -0.003933 -0.003160 0.002662 0.002088 -0.000621 0.002938 0.000175 -0.000864 -0.003826 0.003839 -0.002244 0.001163 0.004846 -0.003106 0.004652 0.001527 -0.003713 0.002719 0.004518 0.000628 0.001886 -0.004737 0.004891 -0.001815 -0.004761 0.003086 0.004733 0.002376 -0.004973 -0.004366 0.000843 -0.001643 0.003818 0.003737 0.004875 0.002158 0.003769 -0.001803 -0.003888 0.003654 -0.001965 -0.000807 0.001460 0.001051 -0.000791 -0.001138 -0.003773 0.000339 -0.002671 0.002548 0.001749 -0.004281 0.004893 0.002805 -0.002722 -0.004693 -0.000216 -0.001473 0.000465 0.001597 0.002972 -0.004865 0.002143 -0.002047 0.004864 0.003462 0.000604 0.000978 -0.003079 -0.002737 -0.003460 -0.001222 -0.003880 0.000113 0.001385 -0.003778 -0.001558 -0.004297 0.000258 0.001503 0.001155 0.003139 -0.002644 0.001182 -0.001972 -0.004112 -0.001947 -0.004286 0.004586 0.002272 -0.003985 0.002863 -0.001478 0.004114 -0.000045 0.003727
sent_32 -0.002769 -0.001311 -0.001245 -0.003940 -0.001742 0.001691 -0.000366 0.003848 -0.002351 -0.001462 -0.001861 0.000509 -0.003051 -0.003319 0.004329 -0.001269 0.000847 -0.004462 -0.003540 -0.004055 0.003180 -0.004058 0.000251 -0.003423 -0.002221 0.003781 0.001289 0.004572 0.001001 -0.004876 -0.000833 -0.004704 -0.001845 -0.000220 0.000817 -0.002635 0.000632 -0.001063 0.000026 -0.003058 -0.003430 0.002498 -0.001720 0.001532 0.000730 0.003951 0.003870 -0.000547 -0.002903 0.001334 0.001366 0.001994 0.004071 0.002826 0.001258 0.001107 -0.002904 0.001479 0.003103 0.004164 0.004139 0.000651 -0.002445 -0.001599 0.004992 0.000258 0.003127 0.000973 -0.000045 -0.001464 0.000295 -0.004947 0.003764 0.000527 -0.004677 0.003161 -0.003676 -0.004791 -0.000380 0.004612 -0.004025 -0.004307 0.003827 0.003174 0.003251 -0.000248 -0.000727 -0.000987 0.000802 0.002346 0.002862 0.001575 0.000615 -0.000804 -0.001726 -0.002176 -0.002038 0.001885 0.002696 0.000963
sent_33 -0.002671 -0.002931 0.002706 0.004936 -0.004775 -0.002481 0.003026 0.002104 -0.002617 0.000604 0.000808 0.002292 -0.000212 -0.000849 -0.001938 -0.002669 -0.004114 0.001360 0.001670 0.001817 -0.004871 -0.000929 -0.003794 0.000303 0.004782 -0.000152 -0.001368 0.003028 0.004619 -0.002081 0.003027 0.005057 -0.003938 0.000231 0.003231 -0.001216 -0.000608 0.002582 -0.004163 -0.001300 0.000616 -0.002694 0.003232 0.002584 0.004750 0.000275 -0.003808 0.004451 0.003467 0.000396 0.003263 0.003903 0.002655 0.000582 0.001121 0.003425 0.001271 -0.003135 0.001896 0.000308 -0.002084 -0.004836 -0.002745 0.001971 0.003925 0.003234 -0.004007 -0.004253 0.002557 -0.002238 -0.002465 -0.004916 -0.003964 -0.003680 -0.003317 -0.000504 0.003160 0.003187 0.004180 -0.000284 0.002074 0.000028 -0.004321 -0.004277 -0.002470 0.005093 0.001976 -0.002412 0.001976 0.001872 -0.004512 -0.001318 0.002893 -0.004323 0.004089 0.004127 0.003668 -0.003754 0.000875 0.002028
sent_34 0.003884 -0.004003 0.003016 -0.002235 0.000990 0.002093 0.002888 -0.002136 0.001129 -0.002097 0.005053 0.003141 -0.000868 0.003870 0.002396 0.004341 -0.003337 -0.001995 -0.004101 -0.001832 -0.001341 0.001313 -0.000449 0.002238 -0.002383 -0.003210 -0.001156 -0.000496 -0.000745 0.004039 -0.002396 -0.001557 -0.002938 -0.001195 -0.001222 0.000865 -0.002415 -0.002458 0.002136 0.004186 -0.004019 -0.003088 -0.003675 0.001694 -0.002787 0.001175 -0.003063 0.003073 -0.001931 0.001715 -0.003562 -0.001989 -0.002066 0.001271 0.001794 0.003367 -0.003040 0.002630 0.002073 0.000585 0.001693 -0.004092 -0.003516 -0.000884 0.002130 -0.003343 -0.001147 -0.000066 0.004498 -0.004515 0.003356 0.004942 -0.002331 0.003998 -0.002080 0.003059 -0.000426 0.001158 -0.002699 0.001987 -0.003595 0.000528 -0.000085 0.003323 -0.000208 0.002786 -0.001026 -0.002002 0.002933 -0.000784 0.000021 0.000754 0.003273 0.000675 -0.000995 -0.003406 0.002091 0.003714 -0.003850 -0.000424
