36 100
sent_0 -0.000562 0.002243 -0.004969 -0.002195 -0.003327 -0.004052 -0.003114 -0.001692 -0.001057 0.000535 -0.000770 0.002204 -0.002939 0.003845 -0.004618 0.001485 -0.000766 0.000190 -0.003625 -0.003037 0.003060 0.004498 -0.002062 0.001696 0.003887 0.003848 -0.004549 -0.004625 -0.003554 0.004057 -0.003838 -0.000743 0.004521 0.000234 0.002071 -0.002011 0.001916 0.003530 -0.004745 0.002571 0.005063 0.002325 -0.002452 0.002758 -0.004197 -0.000424 0.004160 -0.001979 -0.001904 -0.004058 -0.004700 0.001753 -0.002803 -0.002426 0.000063 -0.004628 0.000922 -0.003552 0.001157 0.002154 -0.003954 -0.000958 0.002005 -0.000800 -0.004282 0.000294 0.001856 0.000324 0.004471 0.000491 0.003785 -0.003669 -0.003568 0.003182 -0.001145 -0.003488 0.004385 -0.001410 0.002695 0.002453 0.003730 0.001479 0.002751 -0.001493 -0.002398 0.004169 -0.000605 0.004537 0.001409 0.001248 -0.004136 0.004590 -0.000487 0.000522 -0.000734 -0.002700 0.004179 0.000814 -0.004915 0.001138
sent_1 -0.002345 -0.000347 0.002938 -0.002427 0.004334 0.000178 -0.004646 0.004260 0.003168 0.005014 -0.002720 -0.004030 0.003351 0.001828 -0.003683 0.003220 0.002588 0.004564 0.001874 -0.003341 -0.005700 -0.003366 -0.005319 -0.002762 0.003385 0.001440 0.001276 0.004205 -0.003171 -0.003107 0.000672 0.003836 0.000230 -0.004312 0.001867 -0.002036 0.002256 -0.000952 0.004431 0.002290 0.000103 -0.002631 -0.003678 -0.004497 -0.005083 -0.003591 -0.003653 0.001472 -0.000155 -0.004617 -0.003827 0.003856 0.001052 -0.002895 -0.002893 0.001929 -0.002713 0.001904 0.004804 0.004472 -0.002656 -0.000993 0.001780 0.002071 -0.003540 -0.004215 -0.003954 0.000073 0.002092 0.000843 -0.000801 0.004680 0.000685 -0.000688 -0.000284 0.002662 0.001709 -0.001517 -0.004647 -0.002053 0.000852 -0.003870 0.001711 -0.004194 -0.002863 0.001232 -0.003123 0.001453 0.000651 0.003208 -0.002526 -0.005113 0.002354 0.002244 0.002959 0.005068 -0.005308 -0.003979 0.000283 0.004445
sent_2 0.004426 0.001093 0.004085 0.001604 -0.000904 -0.000260 0.001276 0.000201 0.003895 0.004480 -0.001291 0.004596 -0.002936 -0.003257 -0.003933 -0.000004 -0.004875 0.004359 0.003219 -0.005140 -0.002921 -0.002263 -0.003596 0.003400 -0.001424 0.003870 0.000759 0.003490 0.003306 0.004239 -0.000455 0.000546 0.003086 -0.002318 0.000366 0.000653 -0.004340 0.000985 -0.000879 0.003246 -0.001577 0.003538 0.000342 -0.003445 0.002899 0.001068 -0.004071 -0.000309 0.002027 0.004139 -0.005530 0.005140 -0.001210 0.004592 0.000877 0.003100 0.000490 0.000811 -0.002130 0.000790 0.002859 0.004032 0.002140 0.002480 0.003569 -0.002063 0.001605 -0.000575 -0.001103 -0.001244 -0.001101 -0.001633 0.001304 -0.000681 0.004977 0.001981 -0.002945 -0.000560 -0.001473 0.003643 0.003998 0.004708 0.001921 -0.002204 -0.002356 0.004311 0.000467 0.003057 0.000407 0.003002 0.000458 0.002899 0.001180 -0.000452 -0.001146 -0.004657 -0.001157 -0.003906 0.005119 -0.003056
sent_3 0.003064 0.003737 0.001832 0.000678 -0.003371 -0.000405 -0.001506 -0.002760 0.000979 -0.001863 0.004174 0.004040 -0.002464 -0.003874 -0.003054 0.000045 0.002280 -0.002882 -0.002533 0.003516 -0.000867 0.001200 -0.002662 -0.003942 0.000135 -0.000206 -0.003399 0.001229 0.000487 0.001479 -0.003579 0.002471 -0.002793 0.000213 0.002803 -0.004736 -0.001780 0.003734 0.003461 0.000370 0.003637 0.004536 0.003290 0.003508 -0.004017 0.001521 0.002014 0.001086 0.002961 -0.004606 0.002692 0.002295 -0.002389 -0.002442 0.001265 -0.001559 0.002953 -0.000503 0.002804 0.004939 -0.001969 -0.003580 0.004005 0.000371 0.004722 0.001381 0.004919 0.000461 0.000319 -0.003626 -0.001386 -0.004718 -0.003383 0.002464 -0.004705 -0.001302 0.003609 0.001970 0.001882 -0.003118 -0.000586 0.000794 0.004850 -0.002950 -0.002516 -0.002443 0.002505 -0.000427 -0.004425 0.000084 -0.002843 0.002936 -0.001990 -0.004737 0.000895 0.003450 -0.001222 0.002433 0.000091 0.000404
sent_4 0.004636 0.002902 -0.004685 0.002011 -0.000343 0.004519 -0.002874 -0.002293 -0.004146 -0.000813 -0.003828 0.001351 0.002959 0.001914 0.002810 -0.001588 0.003529 -0.000684 0.003236 0.001363 -0.003656 -0.004065 -0.004872 -0.004469 -0.000411 -0.003764 -0.004752 0.002667 -0.001085 0.002471 -0.000421 -0.000544 -0.000237 -0.000192 0.002910 -0.000924 0.003965 -0.004677 0.002821 -0.003794 0.001165 -0.004855 0.000486 -0.004963 0.004471 0.004087 0.002837 0.004090 -0.003627 -0.003470 -0.002976 0.001106 0.004057 0.004992 0.002191 0.002313 0.004143 -0.000894 -0.002450 -0.003280 -0.003922 0.003025 -0.003414 -0.002475 0.003186 -0.001859 0.004887 -0.002339 0.000316 -0.001820 0.004167 -0.001364 -0.000675 0.000173 0.004282 -0.004766 0.002196 0.003913 -0.004745 0.000052 -0.001797 0.003427 0.000521 0.001949 -0.000504 0.001107 -0.002143 -0.004930 0.000874 -0.002124 0.000110 0.004146 -0.000895 -0.002536 -0.001396 0.004440 0.004376 0.003422 0.004087 -0.002715
sent_5 -0.003835 -0.002394 -0.001554 -0.002968 0.001123 -0.000526 0.003112 -0.003236 0.001344 -0.002535 0.000584 -0.001282 -0.003990 -0.002534 0.001426 -0.000439 0.000115 -0.003559 0.000768 0.004790 0.003565 0.000383 0.005025 0.004132 0.001114 -0.005228 -0.004491 -0.004645 -0.000893 -0.000722 0.004898 -0.003042 0.004857 0.002543 0.003749 0.000852 0.002153 -0.000373 -0.005260 -0.001290 0.000090 0.001795 -0.000793 -0.000218 -0.003494 -0.004967 0.002994 -0.001473 0.005191 -0.003073 -0.001785 0.000638 0.002481 -0.000432 -0.003443 -0.001850 -0.000122 0.001294 0.002816 -0.004145 -0.004800 0.000518 0.002819 -0.004340 0.001646 0.001525 -0.000541 0.004066 0.001117 -0.005268 -0.000556 0.003751 0.003322 0.001428 0.001996 0.000696 -0.002250 0.000384 0.001889 -0.001006 0.003789 -0.002494 0.002793 -0.002032 0.002941 0.000133 0.003163 -0.001476 -0.003096 0.003107 -0.001890 0.002774 0.002402 -0.002729 -0.002389 -0.003361 -0.003344 -0.000591 -0.004395 -0.003812
sent_6 0.001677 0.002988 -0.004246 -0.002660 -0.002894 0.004092 0.002186 0.000521 -0.001930 0.003350 -0.000632 0.004135 0.002045 -0.000180 -0.003699 0.004817 -0.003406 -0.002920 -0.000708 -0.000962 -0.003542 0.002297 -0.003071 0.001519 0.002496 -0.002898 0.001110 0.002484 0.001430 0.000901 -0.002079 0.002271 0.004437 -0.000702 0.002756 -0.004380 0.003325 -0.003098 -0.001077 -0.002032 -0.004252 0.004074 -0.001277 0.000290 -0.000031 -0.003664 -0.002937 -0.004247 0.000031 -0.002315 -0.001442 -0.003945 0.002872 -0.003958 0.004786 -0.003226 0.000689 -0.004538 0.002820 -0.003113 0.000330 0.002425 -0.003538 0.000473 -0.002885 0.002584 0.002171 -0.003252 0.003661 -0.004772 0.003670 0.000648 -0.000932 0.002579 0.002181 0.004918 -0.002250 -0.004911 0.004299 0.003597 0.002296 0.000149 0.002006 0.002835 -0.001192 0.002651 0.002518 0.001125 -0.000975 0.001998 -0.004885 0.002698 0.004007 -0.002619 -0.003818 -0.002806 -0.001998 0.003781 0.000436 -0.002144
sent_7 -0.003738 -0.001774 0.000957 -0.001678 -0.000288 -0.000790 0.003537 -0.000969 -0.001549 0.001925 -0.002833 -0.000384 -0.001704 0.001559 0.003691 -0.000416 0.002740 -0.000470 0.001451 -0.003782 -0.000628 0.003784 0.000943 0.002840 0.000022 -0.000174 0.003471 -0.004398 0.000776 0.004314 0.000036 -0.003067 0.003384 -0.002506 0.002107 0.000391 0.004462 0.001345 0.003273 -0.004748 0.004867 -0.004208 -0.001960 0.004089 -0.004866 0.003321 0.003751 -0.000428 -0.002390 0.003035 -0.000529 -0.003535 0.004225 0.003762 -0.000285 0.003338 -0.000818 0.001591 -0.001054 0.000217 -0.002620 0.004847 -0.002238 -0.003708 -0.003461 -0.004936 0.002073 0.000639 0.003135 -0.000148 0.002916 0.002042 0.002796 -0.000868 0.001545 -0.002960 -0.001709 -0.002921 -0.000875 -0.002149 -0.000929 0.004987 -0.001633 0.004773 0.001391 -0.000995 0.003723 0.001172 -0.002603 0.003333 -0.000484 -0.001405 -0.001269 0.001715 -0.002088 0.002900 -0.001967 0.000380 0.000084 0.003574
sent_8 0.004148 -0.002733 0.000760 0.004042 -0.000121 0.004098 -0.001884 0.000660 0.001599 -0.002330 -0.005031 -0.000507 0.004740 -0.001050 0.002858 -0.003465 -0.001655 -0.004075 0.002076 0.001766 0.002189 -0.003248 0.001721 -0.002702 -0.000607 -0.001790 -0.001923 -0.004732 0.000941 0.002407 0.001243 0.001593 -0.003406 -0.003765 0.000512 0.003603 -0.003061 -0.000080 -0.000989 0.000249 -0.003180 -0.001956 -0.003098 0.002919 0.002948 -0.000549 0.001459 -0.003161 0.000453 -0.002426 0.003224 0.001921 0.001283 -0.004106 -0.000354 0.004514 0.004625 0.000909 -0.003293 0.001563 0.001342 0.000062 -0.001037 0.001576 0.003834 0.002227 0.000832 0.004457 -0.004234 0.004333 -0.004844 -0.002858 -0.000621 -0.003832 0.001323 -0.004449 -0.002011 -0.004008 0.002349 0.002640 -0.001239 -0.002454 0.003028 -0.001609 0.003020 0.000764 0.000527 -0.004948 0.001068 -0.000772 -0.002752 -0.000411 -0.000630 -0.000808 0.005422 -0.001823 0.003155 0.000720 0.004367 -0.001483
sent_9 -0.002471 0.004295 -0.004511 0.004645 0.000614 -0.001199 0.005065 -0.004523 0.000050 -0.004617 0.000641 -0.003132 0.001469 0.004934 0.003674 -0.000525 0.002061 0.002703 -0.000063 0.000196 -0.003379 -0.001636 -0.003587 0.002338 -0.000232 -0.000696 0.003761 0.000164 -0.000968 -0.002260 -0.004297 -0.000707 -0.004752 -0.002156 0.000186 0.004613 -0.003862 0.001777 -0.000131 0.002843 -0.003524 -0.004285 -0.001160 0.002882 -0.003010 0.002694 -0.001946 -0.002685 -0.004705 -0.001039 -0.001330 0.001702 -0.004367 -0.003568 -0.004875 -0.003880 0.001517 -0.001190 -0.001814 0.000533 0.005169 0.003537 0.001882 0.004410 -0.004494 -0.004405 -0.000333 -0.001522 0.004305 -0.000230 0.000238 0.004017 -0.000479 0.003731 -0.002358 -0.002199 -0.001691 0.000541 -0.002748 0.001978 -0.003553 -0.003845 0.003884 -0.002680 -0.001070 0.001024 0.000329 -0.004294 0.003617 0.004789 0.003207 -0.002091 0.000463 -0.001684 0.000789 0.004568 -0.001770 0.001799 -0.001527 0.002712
sent_10 -0.001341 0.003598 0.002322 0.002218 0.000097 -0.002940 -0.004645 -0.001904 -0.004316 0.002035 0.001830 -0.000283 0.002562 0.000386 -0.004015 -0.003864 -0.003002 -0.002171 -0.004493 0.001285 -0.000004 0.001174 -0.001048 0.002871 -0.000345 -0.004721 0.003158 0.001701 0.002884 0.004679 -0.004134 -0.002807 -0.004655 -0.000837 0.003382 -0.004018 -0.000655 -0.003441 0.002919 0.003495 -0.004577 -0.000145 -0.002858 0.004044 0.004220 0.001431 0.004564 -0.001596 0.004061 -0.001187 -0.002287 0.004148 0.001926 -0.004405 0.003826 0.001707 0.001505 0.002443 -0.002060 0.001425 0.003334 -0.004760 -0.003480 0.003372 0.001639 0.000495 -0.002139 -0.001613 0.003816 -0.001056 -0.004533 0.003805 -0.002949 0.003476 0.003425 -0.000365 0.001146 0.000625 0.001507 0.003704 -0.002485 0.003674 0.000860 -0.003863 -0.002892 0.000833 -0.002546 -0.004006 -0.003340 0.003123 0.000610 0.004658 -0.001597 0.000402 0.001070 0.001228 -0.004094 0.002267 0.004437 0.000235
sent_11 -0.002906 0.002685 -0.004798 -0.001589 0.004256 0.000994 0.003590 0.000966 0.003006 0.003883 -0.001885 -0.003611 0.002419 -0.000487 -0.003795 0.000720 -0.004672 -0.003224 0.002892 -0.004968 -0.001754 -0.005141 0.005040 0.000831 -0.001993 0.004029 -0.000176 -0.000646 0.000688 -0.002132 -0.001860 -0.001139 -0.002548 0.000710 0.002195 -0.004427 0.004840 0.002598 0.002890 0.002618 -0.004083 -0.000407 -0.000831 0.001726 -0.000479 0.002038 0.002033 0.002140 0.001405 -0.003648 0.002513 0.002976 0.003989 -0.002769 -0.003165 -0.001109 -0.001807 0.002907 0.001204 0.002527 -0.000581 -0.003838 -0.003990 -0.000962 -0.002964 0.003074 0.000980 0.001949 -0.000216 -0.004289 -0.002910 -0.000339 -0.002969 -0.004792 0.002390 0.002217 -0.001669 0.003395 -0.000571 0.003967 0.001626 0.001104 -0.002756 0.000279 0.004025 -0.001506 0.003794 0.004028 -0.001865 0.002120 0.003967 -0.004075 0.003876 -0.003158 0.003808 0.001452 -0.001405 -0.003260 0.001573 0.003484
sent_12 0.003106 0.001148 0.004357 0.000758 -0.003084 -0.000771 -0.001640 0.004945 -0.001048 0.004788 0.000348 -0.003410 -0.004429 -0.001330 -0.003574 0.001522 -0.000801 0.005139 0.004269 -0.003404 -0.001335 -0.000029 0.000411 0.002751 -0.000228 -0.000506 -0.002209 0.004413 -0.004654 0.003015 -0.003239 0.001694 -0.001502 0.004981 -0.004064 -0.002928 0.003674 0.000707 -0.001770 -0.005094 -0.002922 -0.003325 -0.002685 0.003894 0.003737 0.002137 -0.000558 0.003076 -0.000354 -0.001292 -0.002136 0.003971 -0.001123 0.000040 -0.002432 0.003784 -0.001034 -0.001840 0.002112 -0.003088 -0.003904 0.003233 0.002607 0.000572 -0.002631 0.001332 0.001434 -0.001836 -0.004164 0.003898 -0.000097 0.002632 -0.002527 0.001029 -0.000830 -0.001166 -0.003737 -0.002394 -0.004351 -0.002243 0.002284 0.000796 0.001507 -0.004863 0.001710 -0.000422 -0.002784 -0.003275 -0.002921 0.003104 0.004848 0.004034 -0.001647 0.002770 0.000134 0.003420 -0.000158 0.000721 0.002684 -0.004032
sent_13 0.000345 -0.001243 0.000975 0.004755 -0.001011 -0.001099 0.003091 0.001261 -0.001043 0.001805 -0.000908 -0.003698 -0.000334 -0.001513 -0.002683 0.004351 0.001856 0.000999 0.002351 0.000472 0.002046 0.004060 0.003563 -0.003222 -0.002470 -0.004374 0.004773 -0.002704 0.001614 -0.004249 -0.003001 0.000066 -0.004042 -0.001031 0.000312 -0.001376 0.000235 0.000361 -0.001327 0.002045 0.001588 0.002007 0.000571 -0.001569 0.001263 0.004431 0.001055 0.004751 -0.000588 0.002374 -0.004681 0.002578 -0.000048 -0.005168 -0.002321 0.000258 0.002808 -0.004703 0.000377 0.002985 0.001939 0.004466 -0.004285 -0.002073 0.004372 0.002594 0.000811 0.003313 0.003956 0.004654 0.004904 -0.003467 -0.004215 -0.004262 -0.004812 0.004869 -0.004005 0.003639 0.001917 0.000136 -0.001576 -0.001584 -0.002291 0.003983 0.002405 -0.004616 -0.000302 -0.002323 -0.004653 0.004076 0.002824 -0.001680 0.003194 -0.001972 -0.001732 0.004104 0.004963 0.000211 0.004718 0.003782
sent_14 0.000447 -0.001034 0.002277 -0.000203 0.001256 0.004984 0.002916 -0.001828 -0.004396 -0.002963 0.000124 -0.000600 0.003340 0.004549 -0.003263 0.003339 0.004496 0.004194 -0.004635 -0.004578 -0.004582 -0.002532 -0.004321 -0.001988 -0.001374 0.004093 -0.000593 -0.002581 -0.000252 0.001743 -0.003752 0.002791 0.003467 0.003211 0.004226 -0.001324 -0.000462 -0.003814 -0.003079 0.004888 -0.002036 0.003739 0.003385 0.004178 -0.003355 0.003829 0.001694 -0.002641 -0.001176 -0.003624 -0.000714 -0.003908 -0.003458 -0.003302 0.001930 0.000696 0.003738 -0.002965 0.001375 -0.004714 0.000556 0.003928 0.004568 -0.004388 -0.002272 -0.002976 -0.004616 -0.004740 -0.000263 -0.004819 -0.002663 0.001527 -0.001923 -0.002398 0.001068 -0.001205 0.002038 -0.000029 0.001580 -0.000834 -0.002065 -0.003179 0.004756 0.002997 0.004569 -0.002419 0.004503 0.004205 -0.002468 -0.001687 0.000520 -0.002931 -0.000338 -0.003335 0.005032 -0.000493 0.004912 0.001732 0.000272 0.004637
sent_15 -0.004185 0.001270 0.000758 -0.000909 -0.004351 -0.000860 0.000090 0.002928 -0.001750 -0.001108 -0.002217 0.001260 0.004413 -0.003075 0.003391 -0.001966 -0.004574 -0.002812 0.004142 0.003966 -0.002960 0.005158 0.002984 -0.000263 -0.000748 0.001975 -0.002454 -0.004125 -0.001651 -0.005831 0.001140 -0.000113 -0.002072 0.003365 -0.004382 -0.001930 -0.002805 -0.003289 -0.003905 0.003746 -0.005055 0.002615 -0.003152 -0.005437 0.000741 0.004411 0.002947 -0.002138 -0.005485 0.003629 0.002898 0.003270 0.001719 0.003009 0.003507 -0.000759 0.000794 0.000613 0.001538 0.002079 0.000652 0.003050 0.000242 0.002523 -0.002452 -0.002945 0.004482 0.002094 -0.001544 0.001022 0.005448 -0.003918 -0.004262 0.001577 -0.002857 0.003160 0.000532 0.002442 -0.004463 -0.004387 0.000959 -0.001634 -0.004810 -0.001361 0.001536 -0.004244 0.003743 0.004463 0.005067 0.001967 -0.000437 0.001905 -0.001807 -0.002116 0.000239 0.001331 0.003530 -0.003366 0.002376 0.004211
sent_16 -0.004920 -0.000203 0.001620 0.003482 -0.003134 0.003601 -0.001338 0.003900 -0.004781 -0.004123 0.004790 0.001156 -0.000757 -0.003283 0.001495 -0.004691 -0.001895 -0.001847 0.001076 0.001487 0.003527 0.004152 0.001622 0.000777 -0.000999 0.004590 -0.003548 0.003887 -0.001951 0.000553 0.001853 -0.002584 -0.003334 0.000040 0.002980 0.001899 -0.003804 0.004038 -0.000267 0.004501 0.000554 -0.004214 -0.003070 0.003548 0.002079 0.003957 -0.001642 0.000319 0.001579 0.000889 -0.002699 -0.000688 -0.002548 0.003409 0.004890 -0.004334 0.002153 -0.001777 0.001274 -0.002437 0.001575 -0.001239 -0.002091 0.004217 0.004476 0.001098 -0.002867 0.004427 0.002455 0.002463 -0.002983 0.003316 -0.002580 0.001295 0.002136 0.002409 -0.001092 0.002586 0.004082 0.000981 -0.004089 -0.003630 -0.003866 -0.003291 -0.003704 0.002920 -0.004579 -0.002618 0.003741 0.004829 0.001040 0.004812 -0.004540 0.004454 -0.001778 0.002911 0.003168 0.003663 -0.000331 0.004295
sent_17 -0.002525 0.003972 0.000996 0.004430 -0.004670 0.002094 0.000501 0.000028 -0.002066 -0.001898 -0.002220 -0.002855 0.002655 -0.000196 -0.003804 0.002874 0.000423 0.002428 0.000107 -0.000699 0.004528 -0.004043 0.004158 0.004014 -0.001117 -0.002401 0.001269 -0.002866 0.003100 -0.002641 -0.002035 0.003905 0.003908 0.000617 0.003185 -0.001325 0.004673 -0.000709 -0.001736 -0.004694 0.004771 0.000021 0.002677 0.001326 0.001996 -0.004371 0.003816 0.003959 0.000216 0.004552 -0.001769 0.000652 -0.000910 0.001435 -0.001870 0.003040 -0.004144 -0.004128 -0.004349 -0.003240 -0.001381 0.004065 -0.003538 0.000967 0.000221 -0.001234 -0.002752 -0.002711 -0.004364 0.002193 0.001883 -0.000754 0.002067 -0.003711 0.003981 0.003382 0.001640 -0.001050 -0.000910 -0.000701 0.004193 0.003119 -0.000542 0.000658 0.003580 0.003725 0.001346 0.002537 -0.001220 0.003508 0.003124 0.000357 0.003336 0.003380 0.002610 -0.003290 0.000258 0.003674 0.002265 -0.000748
sent_18 0.004827 -0.002540 -0.001671 0.004494 0.003129 0.003998 -0.004898 -0.001210 -0.002600 -0.002039 0.002404 0.002295 -0.000407 -0.001356 0.000910 0.000312 0.000523 0.001105 -0.001052 0.002748 -0.002509 0.001572 0.004556 -0.005041 0.002248 -0.003884 0.000384 0.001292 -0.002603 0.004155 0.001267 -0.002697 0.002671 -0.003959 0.000519 -0.004028 0.000755 -0.002432 0.001527 0.002170 0.000246 0.001581 0.003119 0.003036 0.001159 -0.000464 -0.000956 0.003731 0.002041 -0.003201 0.000709 0.004054 -0.003491 0.003453 0.003219 -0.000035 -0.004575 -0.003497 0.004275 -0.004506 -0.001262 0.001145 -0.002989 0.004799 -0.003392 0.000416 0.001218 -0.002643 -0.000327 -0.000111 0.002645 0.001322 -0.000319 0.001697 -0.000521 0.000226 0.001605 -0.003164 0.002910 0.001024 0.004764 -0.002806 -0.000320 0.003953 0.000984 0.002232 -0.000863 0.001812 0.004468 -0.003051 0.003018 0.004686 -0.004877 -0.002899 -0.003826 0.002688 -0.004168 0.004954 -0.001123 0.004043
sent_19 -0.002949 -0.000230 0.003366 0.001120 -0.000133 0.000104 0.000970 -0.000908 -0.003280 -0.003690 -0.003572 -0.004317 0.000889 0.003891 -0.001387 -0.004337 -0.000779 0.000822 -0.000843 0.002963 0.004560 0.003097 0.001841 -0.000263 0.001873 -0.005199 0.004558 -0.003396 0.003854 0.003218 0.002986 -0.002214 -0.002908 -0.000828 0.003725 -0.000550 0.004357 -0.001350 0.000985 0.005029 0.001486 -0.004793 -0.000758 -0.002047 0.000406 -0.001990 -0.003564 0.001982 0.001995 0.003477 -0.003994 0.003126 0.003125 0.001262 -0.003008 -0.002628 -0.000716 -0.000038 -0.000169 -0.000320 0.003992 0.004055 0.002952 0.004248 0.000947 0.004433 0.000996 0.001052 -0.001765 0.001456 -0.004718 -0.003497 -0.003614 0.001636 -0.003138 -0.001472 -0.004433 -0.002337 0.004807 0.000752 -0.003541 0.000606 0.004827 0.003619 -0.001016 -0.001554 0.002759 -0.002785 -0.002629 -0.003669 0.003771 -0.000340 0.001013 0.002026 0.003420 -0.000823 -0.002846 0.003470 -0.004319 0.004448
sent_20 0.000586 0.003935 0.000813 -0.002460 -0.001768 -0.000110 0.005013 -0.003417 0.000255 -0.001312 0.002670 0.002864 -0.000716 -0.002643 -0.004271 -0.002844 -0.002388 0.000918 0.003597 -0.003815 0.004667 0.001557 0.002416 0.005098 -0.000919 0.000144 0.001951 -0.000031 -0.001921 -0.004151 -0.002250 0.002556 0.001287 0.002999 0.000111 -0.002545 0.001179 -0.001789 -0.004851 0.004112 -0.000873 -0.000680 0.002195 0.004082 -0.004264 -0.003184 -0.001628 -0.002397 0.000000 0.003337 0.003289 0.000993 -0.002603 -0.003427 0.002075 -0.002836 0.000366 0.002351 -0.002787 -0.003013 -0.004053 -0.003366 0.003280 -0.003833 -0.002699 -0.004718 0.001607 -0.002577 -0.000580 -0.003761 -0.001159 -0.000578 -0.000124 -0.000733 -0.003938 0.002999 -0.003630 -0.000347 -0.002244 -0.001504 0.001733 0.000391 -0.003056 -0.000313 -0.001476 0.002193 -0.002567 0.003372 0.000090 0.000439 -0.002242 -0.003255 0.000229 0.004507 -0.003498 -0.002414 0.003052 0.001414 -0.002023 -0.001913
sent_21 -0.000682 0.001077 0.002051 0.003430 0.002048 -0.002737 0.004293 0.002631 -0.001817 -0.001846 0.003839 -0.003566 0.001333 -0.002026 0.003418 -0.001390 0.002382 -0.003214 -0.000271 0.003066 -0.001096 -0.003516 0.001196 0.002314 -0.002103 -0.000512 0.003824 0.003801 0.001952 0.000944 0.003263 0.004014 -0.005079 -0.001122 0.000615 0.002356 -0.004221 -0.000837 -0.002080 -0.000625 0.000070 0.001542 -0.000173 0.000798 0.000684 -0.000606 -0.005027 -0.002927 -0.001733 -0.003712 0.000927 0.001085 -0.000007 -0.001819 0.001482 -0.003339 -0.004804 0.002284 -0.000383 0.002210 -0.002870 -0.004373 -0.001162 0.002091 -0.003769 -0.003047 -0.000352 0.001314 0.002640 -0.004117 0.001179 -0.001144 0.001731 -0.002786 0.000129 -0.003263 -0.004659 0.000142 -0.003046 0.001596 0.000230 0.002808 -0.000882 0.004884 0.000004 -0.000108 0.002542 0.000611 -0.001402 -0.000106 -0.003179 -0.001067 -0.004535 -0.000666 -0.002135 0.000256 -0.004618 0.000473 -0.002065 0.000793
sent_22 0.002669 0.000085 0.001886 -0.002139 0.005297 -0.002371 0.004655 -0.003200 -0.000830 0.003560 0.001805 0.002357 0.000105 0.003119 0.003912 -0.001040 0.000160 -0.004896 -0.001103 -0.000713 0.004646 -0.005101 0.002579 0.000706 0.001290 -0.005674 -0.004121 -0.002804 -0.005500 0.002337 0.003865 0.000844 0.000521 0.000773 -0.001167 -0.001872 0.001373 0.003220 -0.003572 -0.001403 0.002830 -0.002381 -0.005451 -0.003570 -0.002913 -0.000073 0.002117 0.004513 0.004648 -0.002299 0.001983 -0.001559 -0.001450 -0.002387 -0.000804 -0.002992 -0.002036 -0.004682 0.004772 -0.000279 0.004785 0.003183 -0.001037 0.003572 0.001400 -0.002485 0.000076 0.002163 -0.002226 -0.005468 -0.002966 0.003245 0.004472 0.001146 -0.003272 0.002622 0.000358 0.002546 0.003950 0.005636 0.001816 0.004630 0.003126 0.002325 0.003915 0.005745 0.004328 -0.001167 -0.004707 0.004384 0.000576 0.000950 0.003734 -0.004885 0.004759 -0.005374 0.002342 0.001630 0.002121 -0.001163
sent_23 -0.002441 -0.000072 0.003561 0.000536 0.001680 -0.000826 0.004771 0.002421 -0.001222 0.001411 0.000632 0.003590 -0.002486 -0.003906 -0.002897 -0.000899 0.003562 -0.001926 0.001190 0.001367 -0.001299 -0.004122 0.002312 -0.002007 -0.001159 -0.000948 0.001996 -0.003798 0.000702 -0.005197 0.004693 0.000694 -0.001247 -0.003274 0.001548 0.004297 -0.002090 0.002481 -0.001991 0.004543 0.001670 0.001523 0.004654 -0.002459 0.004290 0.001901 0.002383 0.000521 0.002998 0.002211 -0.003459 0.000927 -0.002212 0.004279 -0.003133 -0.002213 -0.004502 -0.000236 0.000488 0.000726 0.004074 -0.001666 -0.000377 0.003177 0.000573 0.001645 -0.002276 -0.000293 0.001455 -0.003519 -0.004277 -0.003748 -0.000252 -0.004579 0.001146 -0.003917 -0.002528 -0.000502 -0.004090 -0.002561 -0.004897 0.004442 0.000769 -0.001167 -0.004789 -0.001660 -0.000610 0.004305 -0.001932 0.000790 0.001865 -0.003343 -0.000020 0.002811 -0.004441 0.001315 -0.004888 -0.005241 -0.004640 -0.000220
sent_24 0.004257 -0.000944 -0.004250 0.003614 0.000193 -0.001811 0.004630 0.004383 -0.002400 -0.002986 0.000889 0.003425 -0.001633 0.000864 -0.003378 -0.003054 0.002613 -0.003499 -0.002341 0.001895 -0.004849 -0.004678 -0.002125 -0.001634 -0.001378 0.003072 -0.004640 -0.001416 0.001383 -0.003570 0.003577 0.001456 -0.003847 -0.002919 0.002455 -0.000966 -0.000155 0.003875 -0.003626 0.004644 -0.004574 -0.004006 -0.002768 0.003066 -0.000441 0.001533 -0.003257 -0.003333 0.000208 0.002403 -0.000375 0.003696 0.001604 -0.002509 -0.002651 -0.001260 0.002566 0.004379 0.003619 -0.002384 -0.000877 0.001115 0.000468 -0.001107 -0.003986 0.002122 -0.004119 0.003661 0.003634 0.002085 -0.000136 0.001991 -0.001050 0.002975 0.002864 -0.003445 -0.001822 -0.001560 -0.001358 0.000666 -0.004583 0.001600 -0.002984 -0.000835 -0.000491 -0.001513 -0.001167 -0.003197 -0.004319 0.000513 0.000959 -0.003545 -0.002691 -0.002136 0.003308 -0.003466 0.000521 0.000681 -0.001566 -0.001494
sent_25 0.004907 0.000386 0.001124 -0.000715 0.001838 0.000798 -0.003424 -0.001879 -0.000077 -0.003509 -0.001097 -0.002213 0.003253 -0.001484 -0.002207 -0.001069 0.001814 -0.004924 -0.003293 0.002069 0.002252 0.001419 0.003145 -0.003789 0.002133 0.004466 -0.003996 -0.002253 0.000160 -0.001397 0.002072 -0.004676 -0.003743 0.002233 0.004452 0.004391 0.003542 -0.003402 -0.003354 -0.004067 0.000293 0.003963 0.000011 0.002287 -0.003489 0.004094 -0.003396 -0.004700 -0.000829 -0.000044 0.004971 -0.004464 -0.002110 -0.004166 -0.000852 -0.002700 0.000776 -0.001327 0.004727 0.003458 0.003820 -0.004129 0.001015 -0.003084 0.004066 -0.004697 -0.003435 -0.000831 -0.000495 -0.002741 -0.004048 -0.003977 -0.001933 0.004918 -0.003401 0.002314 -0.002300 -0.004079 -0.004563 -0.003217 -0.000788 0.002451 0.002417 -0.001448 -0.000550 0.002917 0.003473 -0.002082 -0.004980 -0.004795 0.001808 -0.002233 -0.000190 -0.003767 0.003350 0.000147 0.000660 -0.002434 0.000008 -0.005086
sent_26 -0.002160 -0.001537 -0.002008 -0.004023 0.000103 0.003098 0.004328 0.000098 0.000849 -0.002149 -0.003604 -0.003688 0.002420 0.002220 -0.003258 -0.000937 0.000928 -0.003763 0.002965 0.001194 0.001214 0.001928 0.004999 0.000613 0.003626 -0.000843 0.001472 0.004189 0.001627 -0.001894 0.001232 -0.001370 -0.001744 0.001079 -0.003328 -0.000151 0.004524 -0.001223 -0.003155 -0.000387 0.003400 0.003352 0.003279 -0.004698 -0.002204 0.004944 -0.003730 -0.000104 0.002932 -0.003792 0.001681 -0.000059 -0.003049 0.003833 -0.003115 0.001575 0.002391 0.000605 0.001221 -0.003942 -0.002058 0.000904 -0.001078 0.001677 0.003536 -0.003089 0.004022 -0.001172 0.004216 0.001275 0.002790 0.000103 0.000293 -0.001874 -0.003590 -0.001253 -0.002905 -0.004862 -0.002277 -0.003267 0.003803 -0.004187 -0.003141 0.001997 0.004274 -0.002426 -0.004811 0.004599 0.001835 -0.001894 -0.000291 0.001050 -0.001363 0.003884 0.002333 0.004538 -0.001464 0.004478 -0.000121 0.001393
sent_27 0.002441 0.003007 -0.000944 -0.000507 0.003109 0.002317 0.004309 0.004910 -0.003172 -0.002748 0.002096 0.002507 0.001047 0.003634 -0.002474 -0.001660 -0.000057 -0.001897 0.000550 0.001853 -0.002797 -0.000153 0.004971 -0.001849 -0.004650 0.003220 -0.000044 -0.004486 0.003902 -0.000917 0.004354 -0.000919 -0.004240 -0.002587 -0.001495 0.002533 -0.003160 -0.000684 0.003775 0.000277 -0.003978 -0.004776 0.002075 0.004891 0.002901 0.002618 0.001751 0.002910 -0.004578 -0.002392 0.002054 0.003678 0.001788 -0.003194 0.004404 0.004165 -0.004092 -0.003006 -0.002262 0.002382 0.003475 0.000729 -0.002972 -0.000875 -0.003556 0.004241 0.002691 0.000163 -0.000601 -0.003932 -0.001902 -0.003880 0.002801 0.000351 -0.002696 -0.002858 -0.002431 -0.002043 -0.001133 -0.002129 0.001786 -0.004705 -0.001712 0.002397 0.004434 0.002982 -0.002621 -0.002694 -0.003073 0.003745 -0.002702 0.002580 -0.002482 -0.004596 0.002353 0.002302 -0.004111 -0.001738 0.004507 -0.003410
sent_28 -0.004128 0.000957 0.004267 -0.003747 0.000153 0.001831 -0.003302 -0.004912 0.003864 -0.004616 -0.002431 0.001552 -0.002162 -0.004870 0.000774 -0.001938 -0.003466 0.004680 -0.003343 0.002260 0.003890 0.003636 -0.003215 -0.002670 -0.004771 0.004316 0.003831 0.000984 -0.003951 -0.003211 0.000788 -0.002511 -0.001976 -0.003290 -0.003079 -0.000416 0.000164 0.000115 0.005018 -0.003709 0.002620 0.002905 0.000821 -0.000424 0.003866 0.003297 -0.004509 0.004648 -0.004946 0.000668 0.000711 0.003323 -0.001098 -0.004058 0.000853 -0.004807 -0.001367 0.004866 0.003739 -0.003449 0.002924 0.003089 0.004297 -0.002792 -0.000028 0.003259 0.001753 0.000943 0.001573 -0.002681 -0.004705 0.002340 -0.001748 -0.001186 0.001091 0.001542 -0.002948 0.003284 -0.001191 0.001313 0.004658 0.000682 -0.001402 0.001236 -0.000031 -0.000472 0.002329 0.004255 -0.000214 -0.004156 0.000636 -0.002527 -0.004615 0.002859 -0.002312 0.002811 -0.000110 -0.001809 -0.001908 -0.004555
sent_29 0.000290 0.003244 -0.004211 -0.003913 0.000283 0.001558 0.001972 -0.001877 -0.004573 -0.000862 -0.002728 -0.005041 0.001833 0.004535 -0.001091 -0.001932 0.000536 0.003594 0.002934 0.001851 -0.000730 0.001934 -0.002876 -0.002135 0.002750 0.004342 -0.003025 -0.001998 -0.004877 -0.000763 -0.002947 0.001385 0.002085 -0.003784 -0.004222 0.004112 -0.001150 0.000324 0.004656 0.002586 -0.001785 -0.004088 0.000418 -0.001684 -0.004766 0.002723 -0.001188 0.000697 0.002508 0.004465 0.001094 -0.001869 -0.003908 -0.004256 -0.001854 0.001598 0.001955 -0.002906 -0.004211 -0.001924 0.000520 0.002551 0.000305 -0.002162 0.001236 -0.002333 0.001501 0.003388 0.001434 0.000685 -0.001870 0.003778 0.004885 0.002788 0.000738 -0.003543 -0.001849 -0.001281 -0.002120 -0.000561 0.001090 -0.002919 -0.002534 -0.003891 -0.001936 -0.000093 -0.000113 0.004960 0.004843 -0.000645 0.004769 -0.002897 0.000451 -0.000472 0.004636 0.003388 -0.002883 -0.000663 -0.003329 0.000284
sent_30 0.003470 -0.003955 -0.002954 0.005342 0.005062 0.000688 0.001992 -0.002812 0.003925 0.002063 0.001433 -0.004445 0.004302 0.003466 0.001856 0.002019 -0.003597 0.001511 -0.004152 0.001721 -0.004410 0.001261 -0.000178 -0.002778 0.002331 -0.002699 0.003109 -0.003747 0.003847 0.005201 -0.001883 0.004022 0.003197 -0.001097 -0.000780 -0.002294 0.004894 -0.002130 0.003465 -0.000269 0.004400 0.002778 -0.004485 0.000322 0.002052 -0.000651 -0.004258 -0.001213 0.003995 -0.004829 -0.004462 0.002421 -0.000231 -0.000642 -0.001273 0.000760 0.003729 -0.003273 0.003513 -0.000964 0.001233 0.003078 -0.002986 0.005341 0.002582 0.000708 -0.002522 0.002145 -0.002611 0.002484 -0.005711 -0.002975 0.000820 0.002056 0.000301 0.003903 0.004862 0.000028 0.003146 0.001471 0.001627 -0.001822 -0.003008 0.004623 0.003509 -0.000620 0.001207 -0.001656 -0.003755 0.000463 -0.001854 -0.004358 -0.000405 0.003591 0.004471 -0.000144 -0.001030 -0.002150 0.005594 0.000493
sent_31 -0.001885 -0.001289 0.005352 -0.001197 -0.003406 -0.002540 0.003300 0.001473 -0.001931 0.003458 -0.000529 -0.000233 -0.002223 0.004733 -0.002657 0.000312 0.004502 -0.004204 0.004654 0.000884 -0.002400 -0.000185 0.004980 0.001079 0.001982 -0.006510 0.003654 -0.003130 -0.005644 0.004064 0.004978 0.003389 -0.005150 -0.005170 0.002184 -0.002096 0.004188 0.004125 0.003455 0.002842 0.004010 -0.003104 -0.005669 0.003466 -0.001154 -0.000719 0.002957 0.002170 0.000536 -0.001741 -0.004662 0.001493 -0.003329 0.001610 0.001731 -0.004215 0.004829 0.000919 -0.002770 -0.005281 0.001557 0.000043 -0.000707 0.003858 0.003790 -0.005742 0.001489 -0.001805 0.003934 0.002614 -0.001151 0.001562 -0.002635 -0.003262 -0.002463 -0.001080 -0.003810 0.000146 0.002121 -0.001318 -0.001257 -0.002504 0.001837 0.001110 0.002023 0.006103 -0.002079 0.000578 -0.002949 -0.001745 -0.001473 -0.003375 0.005669 0.001728 -0.001643 0.001182 -0.000382 0.005379 0.001902 0.003535
sent_32 -0.002566 -0.000865 -0.001108 -0.003798 -0.001566 0.001767 -0.000170 0.003551 -0.002766 -0.001299 -0.001885 0.000752 -0.002741 -0.003036 0.004129 -0.001502 0.000836 -0.004763 -0.003645 -0.004245 0.003439 -0.004713 0.000243 -0.003294 -0.002152 0.003326 0.000945 0.004389 0.000753 -0.004568 -0.000819 -0.004491 -0.001826 -0.000294 0.001270 -0.003017 0.000930 -0.001013 -0.000197 -0.002880 -0.003260 0.002173 -0.002093 0.001472 0.000714 0.003982 0.004242 -0.000196 -0.002526 0.001101 0.001170 0.002232 0.003993 0.002634 0.001354 0.000973 -0.002946 0.001096 0.003222 0.003992 0.004414 0.000913 -0.002650 -0.001182 0.005113 -0.000044 0.003067 0.000901 -0.000148 -0.001987 -0.000092 -0.004750 0.003856 0.000570 -0.004503 0.003229 -0.003557 -0.004643 -0.000212 0.005153 -0.003955 -0.003708 0.004213 0.003176 0.003373 0.000449 -0.000528 -0.001052 0.000395 0.002858 0.002941 0.001827 0.000862 -0.001021 -0.001221 -0.002525 -0.001852 0.002288 0.003050 0.000958
sent_33 -0.003015 -0.003092 0.002382 0.004656 -0.004779 -0.002860 0.003104 0.002129 -0.002214 0.000590 0.000974 0.002021 -0.000531 -0.000918 -0.001809 -0.002363 -0.004128 0.001583 0.001598 0.001944 -0.005173 -0.000411 -0.003901 0.000349 0.004671 0.000212 -0.000975 0.003274 0.004914 -0.002474 0.002879 0.004765 -0.004027 0.000450 0.002853 -0.001014 -0.000826 0.002568 -0.003920 -0.001391 0.000433 -0.002296 0.003556 0.002406 0.004622 0.000340 -0.004088 0.004219 0.003152 0.000591 0.003361 0.003665 0.002788 0.000619 0.000933 0.003294 0.001289 -0.002764 0.001843 0.000600 -0.002155 -0.005125 -0.002594 0.001529 0.003785 0.003440 -0.003947 -0.004255 0.002912 -0.002116 -0.002022 -0.004980 -0.004030 -0.003554 -0.003527 -0.000367 0.003132 0.003440 0.004002 -0.000601 0.001991 -0.000321 -0.004678 -0.004222 -0.002585 0.004424 0.001958 -0.002309 0.002138 0.001556 -0.004474 -0.001599 0.002915 -0.004395 0.003654 0.004401 0.003443 -0.004208 0.000555 0.002045
sent_34 0.004288 -0.003917 0.003534 -0.002003 0.000984 0.002524 0.002685 -0.002046 0.000711 -0.002051 0.004859 0.003462 -0.000558 0.003773 0.002206 0.003881 -0.003362 -0.002403 -0.003975 -0.001918 -0.000890 0.000795 -0.000107 0.002132 -0.002223 -0.003628 -0.001665 -0.000853 -0.001086 0.004574 -0.002096 -0.001208 -0.002843 -0.001458 -0.000781 0.000481 -0.002029 -0.002387 0.001947 0.004223 -0.003710 -0.003549 -0.004054 0.002044 -0.002711 0.001000 -0.002695 0.003366 -0.001441 0.001459 -0.003475 -0.001645 -0.002090 0.001270 0.002046 0.003611 -0.003172 0.002365 0.002223 0.000331 0.001546 -0.003944 -0.003663 -0.000418 0.002269 -0.003482 -0.001122 0.000055 0.003943 -0.004628 0.002751 0.004899 -0.002277 0.003784 -0.001905 0.002831 -0.000414 0.000735 -0.002451 0.002210 -0.003419 0.000994 0.000256 0.003283 -0.000042 0.003462 -0.000947 -0.002036 0.002642 -0.000539 -0.000103 0.001067 0.003119 0.000825 -0.000465 -0.003714 0.002215 0.004226 -0.003554 -0.000409
sent_35 0.004399 0.000693 0.000448 -0.004356 0.000484 0.001442 -0.003416 0.004466 -0.003039 0.001852 -0.002264 -0.003867 -0.002357 -0.001552 -0.000330 -0.002700 0.002246 0.002961 0.002866 0.002102 -0.002227 -0.003075 -0.003913 -0.000981 -0.004127 0.001441 0.004449 0.002479 -0.003877 -0.004744 -0.001621 0.004926 -0.001918 0.002324 0.002194 0.000714 -0.001332 -0.002827 0.004738 -0.004296 -0.002625 -0.001978 0.003941 0.002040 -0.002359 -0.003320 0.003883 0.003009 -0.004509 0.003766 0.000834 -0.000385 0.001731 -0.004713 -0.001757 -0.004167 0.001843 -0.001083 -0.000183 -0.002043 0.003071 -0.004476 -0.002261 0.001009 0.002965 0.000963 0.002271 -0.004701 -0.002421 -0.004686 -0.000100 0.004965 -0.004789 -0.000574 -0.004939 0.001163 -0.003163 0.002218 -0.003339 0.003505 -0.002944 -0.001313 -0.002612 0.003073 -0.000053 0.003895 -0.003632 -0.000074 0.002639 0.004978 0.001763 -0.003166 0.002730 -0.004371 0.002772 0.003138 0.000639 -0.000081 0.004480 -0.005039
