36 100
sent_0 -0.000830 0.002203 -0.004999 -0.001977 -0.003532 -0.004077 -0.003137 -0.001544 -0.001032 0.000388 -0.000808 0.001852 -0.002955 0.003781 -0.004726 0.001705 -0.000827 0.000587 -0.003596 -0.003019 0.003007 0.004683 -0.001866 0.001923 0.003764 0.003946 -0.004150 -0.004609 -0.003302 0.003781 -0.004017 -0.000789 0.004579 0.000332 0.001919 -0.001845 0.001865 0.003346 -0.004817 0.002501 0.004889 0.002482 -0.002196 0.002893 -0.003968 -0.000521 0.004086 -0.002064 -0.002122 -0.003700 -0.004806 0.001788 -0.002884 -0.002345 -0.000084 -0.004466 0.000741 -0.003533 0.000893 0.001998 -0.003977 -0.000859 0.001944 -0.000858 -0.004500 0.000359 0.001638 0.000149 0.004446 0.000866 0.004034 -0.003625 -0.003607 0.003074 -0.001023 -0.003346 0.004275 -0.001522 0.002508 0.002260 0.003833 0.001237 0.002509 -0.001511 -0.002301 0.003959 -0.000719 0.004648 0.001634 0.001217 -0.003853 0.004495 -0.000501 0.000784 -0.000919 -0.002630 0.004034 0.000737 -0.004971 0.001171
sent_1 -0.002084 0.000598 0.003569 -0.001431 0.004090 0.000803 -0.004560 0.004051 0.002108 0.005128 -0.003220 -0.003909 0.004236 0.002239 -0.004545 0.002944 0.002432 0.004644 0.001927 -0.003893 -0.004979 -0.004779 -0.004968 -0.002160 0.003442 0.000455 0.000970 0.003618 -0.003383 -0.002599 0.000461 0.004535 0.000597 -0.004612 0.002892 -0.002573 0.002990 -0.001154 0.003705 0.002495 0.000396 -0.003371 -0.004201 -0.004207 -0.004453 -0.003869 -0.002794 0.002216 0.000456 -0.004488 -0.004659 0.004648 0.000645 -0.003025 -0.002831 0.002304 -0.003096 0.000783 0.004451 0.003600 -0.002137 0.000091 0.001141 0.003231 -0.003428 -0.004814 -0.004502 -0.000404 0.001377 0.000631 -0.001546 0.005054 0.000833 -0.001039 0.000620 0.002881 0.001765 -0.001884 -0.004525 -0.001138 0.001290 -0.002820 0.002456 -0.004426 -0.002446 0.002922 -0.003034 0.001447 0.000202 0.004472 -0.001956 -0.004488 0.002850 0.002592 0.004010 0.004259 -0.004991 -0.002942 0.001251 0.004400
sent_2 0.004491 0.000626 0.004093 0.001482 -0.001094 -0.000175 0.001084 0.000467 0.004235 0.004151 -0.000980 0.004593 -0.003235 -0.003708 -0.003687 0.000084 -0.004857 0.004611 0.003240 -0.004846 -0.003367 -0.001693 -0.003749 0.003187 -0.001625 0.004430 0.000910 0.003912 0.003501 0.003951 -0.000497 0.000423 0.002935 -0.002048 -0.000175 0.001020 -0.004966 0.000802 -0.000738 0.003186 -0.002100 0.004001 0.000834 -0.003196 0.003008 0.001169 -0.004538 -0.000870 0.001730 0.004268 -0.005045 0.004814 -0.001301 0.004709 0.001062 0.003266 0.000774 0.001306 -0.002207 0.000761 0.002616 0.003600 0.002562 0.001995 0.003585 -0.001796 0.001614 -0.000613 -0.001128 -0.000900 -0.000944 -0.001712 0.001186 -0.000620 0.004800 0.001870 -0.003045 -0.000648 -0.001659 0.003018 0.003784 0.003955 0.001564 -0.002360 -0.002478 0.003508 0.000208 0.002999 0.000812 0.002336 0.000319 0.002718 0.000696 -0.000373 -0.001623 -0.004332 -0.001223 -0.004237 0.004877 -0.003233
sent_3 0.003308 0.003678 0.001823 0.000452 -0.003256 -0.000308 -0.001660 -0.002786 0.000867 -0.001849 0.004267 0.004327 -0.002485 -0.003885 -0.002942 -0.000199 0.002289 -0.003098 -0.002512 0.003568 -0.000947 0.001309 -0.002823 -0.004178 0.000273 -0.000198 -0.003707 0.001379 0.000222 0.001742 -0.003411 0.002428 -0.002812 0.000226 0.002832 -0.004930 -0.001737 0.003674 0.003513 0.000500 0.003627 0.004419 0.003152 0.003471 -0.004159 0.001598 0.001911 0.001044 0.003007 -0.004910 0.002833 0.002290 -0.002306 -0.002382 0.001571 -0.001710 0.003094 -0.000407 0.003062 0.004904 -0.002171 -0.003751 0.004141 0.000342 0.004714 0.001341 0.005160 0.000506 0.000354 -0.003862 -0.001457 -0.004748 -0.003463 0.002660 -0.004845 -0.001470 0.003658 0.001968 0.001963 -0.003120 -0.000644 0.000806 0.004895 -0.002886 -0.002669 -0.002394 0.002453 -0.000475 -0.004396 -0.000142 -0.003104 0.003097 -0.002228 -0.004848 0.000829 0.003518 -0.001126 0.002546 -0.000010 0.000424
sent_4 0.004603 0.003214 -0.004656 0.002375 -0.000265 0.004406 -0.002562 -0.002397 -0.004312 -0.000626 -0.003966 0.001244 0.003227 0.002079 0.002551 -0.001609 0.003291 -0.000720 0.003234 0.001150 -0.003469 -0.004601 -0.004644 -0.004030 -0.000536 -0.004089 -0.004646 0.002395 -0.001020 0.002416 -0.000557 -0.000447 -0.000301 -0.000272 0.003078 -0.000954 0.003996 -0.004689 0.002430 -0.003612 0.000913 -0.004965 0.000197 -0.004945 0.004777 0.004074 0.003134 0.004186 -0.003433 -0.003304 -0.003281 0.001442 0.003963 0.004676 0.002000 0.002385 0.004027 -0.001138 -0.002655 -0.003422 -0.003466 0.003332 -0.003763 -0.002117 0.003155 -0.002003 0.004571 -0.002371 0.000292 -0.001884 0.003960 -0.001101 -0.000589 0.000038 0.004632 -0.004545 0.002043 0.003959 -0.004765 0.000596 -0.001662 0.003778 0.000617 0.001804 -0.000257 0.001565 -0.002065 -0.004986 0.000667 -0.001486 0.000433 0.004197 -0.000529 -0.002575 -0.001054 0.004036 0.004427 0.003480 0.004525 -0.002825
sent_5 -0.004130 -0.002693 -0.001860 -0.003303 0.001090 -0.000916 0.003176 -0.003187 0.002016 -0.002547 0.000754 -0.001488 -0.004444 -0.002691 0.001619 -0.000036 0.000168 -0.003290 0.000685 0.004950 0.003201 0.000942 0.004756 0.004046 0.000971 -0.004703 -0.004087 -0.004354 -0.000494 -0.001215 0.004752 -0.003332 0.004743 0.002695 0.003260 0.001270 0.001728 -0.000218 -0.004870 -0.001470 -0.000048 0.002306 -0.000349 -0.000460 -0.003658 -0.004897 0.002616 -0.001774 0.004882 -0.002812 -0.001624 0.000245 0.002576 -0.000379 -0.003743 -0.001906 0.000039 0.001738 0.002724 -0.003671 -0.004769 0.000175 0.003094 -0.004881 0.001735 0.001858 -0.000484 0.004154 0.001464 -0.005012 -0.000160 0.003597 0.003312 0.001521 0.001727 0.000810 -0.002238 0.000645 0.001741 -0.001437 0.003582 -0.002979 0.002485 -0.002095 0.002734 -0.000692 0.003105 -0.001450 -0.002919 0.002700 -0.001930 0.002357 0.002481 -0.002816 -0.002845 -0.003049 -0.003573 -0.001230 -0.004727 -0.003902
sent_6 0.002032 0.003564 -0.003924 -0.002363 -0.002790 0.004425 0.002240 0.000293 -0.002613 0.003580 -0.000908 0.004517 0.002585 0.000123 -0.004080 0.004390 -0.003489 -0.003342 -0.000647 -0.001262 -0.003048 0.001422 -0.002939 0.001627 0.002718 -0.003602 0.000549 0.002083 0.000986 0.001462 -0.001945 0.002665 0.004583 -0.000983 0.003496 -0.004961 0.003914 -0.003075 -0.001459 -0.001760 -0.003896 0.003456 -0.001906 0.000275 0.000044 -0.003753 -0.002392 -0.003714 0.000557 -0.002642 -0.001819 -0.003425 0.002801 -0.004100 0.004997 -0.003283 0.000550 -0.005173 0.002973 -0.003435 0.000532 0.002907 -0.003889 0.001221 -0.002766 0.002175 0.002169 -0.003300 0.003341 -0.005291 0.003102 0.000761 -0.000882 0.002510 0.002493 0.004909 -0.002157 -0.005024 0.004548 0.004316 0.002518 0.000999 0.002581 0.002826 -0.001059 0.003819 0.002699 0.001100 -0.001407 0.002718 -0.004869 0.003170 0.004257 -0.002671 -0.003110 -0.003301 -0.001708 0.004461 0.000936 -0.002082
sent_7 -0.003616 -0.002099 0.001139 -0.001759 -0.000426 -0.000559 0.003281 -0.000737 -0.001543 0.001750 -0.002785 -0.000328 -0.001852 0.001269 0.003774 -0.000523 0.002845 -0.000430 0.001562 -0.003682 -0.000670 0.004093 0.001055 0.002668 0.000047 -0.000019 0.003429 -0.004322 0.000733 0.004428 0.000179 -0.003055 0.003479 -0.002484 0.002007 0.000403 0.004488 0.001243 0.003380 -0.004921 0.004893 -0.004223 -0.001779 0.004462 -0.004911 0.003227 0.003612 -0.000602 -0.002443 0.003027 -0.000221 -0.003657 0.004278 0.003960 -0.000085 0.003567 -0.000814 0.001835 -0.001020 0.000057 -0.003104 0.004650 -0.002058 -0.003965 -0.003557 -0.004859 0.002159 0.000645 0.002946 0.000071 0.002918 0.001958 0.002778 -0.000935 0.001478 -0.003202 -0.001782 -0.003274 -0.000914 -0.002586 -0.000931 0.004752 -0.001797 0.004825 0.001363 -0.001249 0.003575 0.001196 -0.002480 0.002929 -0.000671 -0.001425 -0.001697 0.001974 -0.002313 0.003083 -0.002047 0.000441 -0.000121 0.003554
sent_8 0.004341 -0.002406 0.001295 0.004336 -0.000320 0.004432 -0.002092 0.000752 0.000976 -0.002307 -0.005120 -0.000387 0.004986 -0.001128 0.002251 -0.003828 -0.001799 -0.004016 0.002142 0.001530 0.002492 -0.003593 0.002101 -0.002388 -0.000535 -0.002186 -0.002029 -0.004841 0.000841 0.002852 0.001243 0.001879 -0.003153 -0.003777 0.000986 0.002959 -0.002429 -0.000379 -0.001193 0.000331 -0.003093 -0.002348 -0.003216 0.003466 0.003168 -0.000831 0.001741 -0.002889 0.000839 -0.002301 0.003117 0.002423 0.001275 -0.003974 -0.000048 0.004853 0.004253 0.000780 -0.003338 0.000952 0.001022 0.000254 -0.001178 0.001922 0.003582 0.001976 0.000688 0.004114 -0.004725 0.004236 -0.005241 -0.002684 -0.000648 -0.003910 0.001705 -0.004462 -0.002076 -0.004482 0.002326 0.002704 -0.000906 -0.001900 0.003114 -0.001632 0.003152 0.001353 0.000465 -0.004780 0.000785 -0.000553 -0.002541 -0.000063 -0.000841 -0.000376 0.005714 -0.002107 0.003005 0.001330 0.004605 -0.001471
sent_9 -0.002542 0.004525 -0.004679 0.004753 0.000775 -0.001400 0.005286 -0.004702 -0.000027 -0.004464 0.000603 -0.003208 0.001593 0.005208 0.003615 -0.000487 0.001945 0.002695 -0.000144 0.000073 -0.003341 -0.001893 -0.003612 0.002559 -0.000260 -0.000873 0.003835 0.000096 -0.000966 -0.002299 -0.004400 -0.000767 -0.004819 -0.002177 0.000249 0.004600 -0.003852 0.001790 -0.000295 0.003003 -0.003644 -0.004352 -0.001368 0.002665 -0.002917 0.002771 -0.001838 -0.002577 -0.004668 -0.001004 -0.001601 0.001840 -0.004403 -0.003748 -0.005019 -0.004032 0.001481 -0.001363 -0.001863 0.000540 0.005544 0.003724 0.001678 0.004616 -0.004531 -0.004506 -0.000465 -0.001554 0.004481 -0.000376 0.000242 0.004204 -0.000438 0.003802 -0.002239 -0.002025 -0.001705 0.000766 -0.002737 0.002397 -0.003526 -0.003639 0.003952 -0.002691 -0.001002 0.001282 0.000391 -0.004351 0.003533 0.005138 0.003413 -0.002055 0.000761 -0.001848 0.000941 0.004382 -0.001712 0.001790 -0.001344 0.002706
sent_10 -0.001704 0.003851 0.002494 0.002537 -0.000253 -0.002939 -0.004581 -0.001813 -0.004563 0.001970 0.001739 -0.000623 0.002656 0.000339 -0.004514 -0.003677 -0.003086 -0.001781 -0.004498 0.001102 0.000155 0.001198 -0.000695 0.003415 -0.000442 -0.004836 0.003623 0.001535 0.003174 0.004535 -0.004436 -0.002668 -0.004403 -0.000772 0.003596 -0.004168 -0.000351 -0.003679 0.002712 0.003427 -0.004559 -0.000077 -0.002671 0.004457 0.004379 0.001166 0.004756 -0.001584 0.004020 -0.000755 -0.002567 0.004359 0.001855 -0.004416 0.003735 0.001947 0.001126 0.002335 -0.002395 0.001109 0.003172 -0.004541 -0.003667 0.003401 0.001277 0.000349 -0.002455 -0.001940 0.003752 -0.000849 -0.004383 0.003928 -0.002960 0.003287 0.003739 -0.000140 0.001018 0.000342 0.001326 0.003592 -0.002194 0.003820 0.000706 -0.003863 -0.002735 0.000945 -0.002563 -0.003712 -0.003404 0.003436 0.000909 0.004655 -0.001529 0.000847 0.001009 0.001120 -0.004341 0.002447 0.004481 0.000317
sent_11 -0.003105 0.002515 -0.004991 -0.001917 0.004228 0.000735 0.003546 0.000985 0.003323 0.003873 -0.001719 -0.003733 0.002095 -0.000587 -0.003708 0.000917 -0.004655 -0.003041 0.002829 -0.004863 -0.001988 -0.004652 0.004901 0.000809 -0.002035 0.004338 0.000061 -0.000381 0.000886 -0.002350 -0.001939 -0.001373 -0.002544 0.000917 0.001900 -0.004344 0.004731 0.002563 0.003156 0.002494 -0.004152 -0.000104 -0.000532 0.001612 -0.000639 0.002048 0.001780 0.001968 0.001198 -0.003517 0.002651 0.002743 0.004126 -0.002653 -0.003222 -0.001179 -0.001772 0.003260 0.001211 0.002722 -0.000772 -0.004131 -0.003780 -0.001390 -0.003043 0.003243 0.001092 0.001915 0.000012 -0.004219 -0.002582 -0.000411 -0.003012 -0.004637 0.002192 0.002284 -0.001641 0.003551 -0.000692 0.003613 0.001571 0.000842 -0.003033 0.000327 0.003873 -0.002052 0.003739 0.004119 -0.001756 0.001740 0.003918 -0.004253 0.003810 -0.003172 0.003418 0.001686 -0.001595 -0.003580 0.001265 0.003459
sent_12 0.003447 0.001435 0.004667 0.001087 -0.002894 -0.000630 -0.001497 0.004790 -0.001369 0.004987 0.000175 -0.003071 -0.003998 -0.001185 -0.003694 0.001172 -0.000935 0.004598 0.004255 -0.003528 -0.000878 -0.000837 0.000617 0.002782 -0.000139 -0.001025 -0.002703 0.003917 -0.004985 0.003371 -0.003051 0.002011 -0.001588 0.004661 -0.003651 -0.003134 0.003735 0.000951 -0.002188 -0.004813 -0.002780 -0.003650 -0.003294 0.003882 0.003854 0.002138 -0.000067 0.003364 0.000175 -0.001581 -0.002272 0.004362 -0.001300 -0.000303 -0.002380 0.003763 -0.001040 -0.002338 0.002240 -0.003100 -0.003422 0.003534 0.002314 0.001283 -0.002329 0.001122 0.001331 -0.001598 -0.004450 0.003589 -0.000729 0.002694 -0.002420 0.000878 -0.000651 -0.001178 -0.003691 -0.002442 -0.004018 -0.001526 0.002388 0.001360 0.002018 -0.005016 0.001921 0.000454 -0.002554 -0.003402 -0.003282 0.003795 0.004812 0.004322 -0.001393 0.002547 0.000866 0.002880 0.000135 0.001049 0.003216 -0.004056
sent_13 0.000287 -0.001399 0.001042 0.004629 -0.001139 -0.001074 0.002914 0.001555 -0.000965 0.001889 -0.001019 -0.003774 -0.000523 -0.001757 -0.002858 0.004321 0.001852 0.001056 0.002539 0.000416 0.001986 0.004345 0.003737 -0.003253 -0.002441 -0.004221 0.004914 -0.002656 0.001733 -0.004209 -0.002927 0.000015 -0.003964 -0.001096 0.000318 -0.001532 0.000559 0.000352 -0.001069 0.001872 0.001699 0.001922 0.000692 -0.001330 0.001219 0.004317 0.000962 0.004734 -0.000637 0.002510 -0.004593 0.002655 0.000246 -0.004941 -0.002322 0.000481 0.002643 -0.004365 0.000380 0.003018 0.001431 0.004282 -0.004287 -0.002326 0.004156 0.002738 0.000955 0.003348 0.003920 0.004881 0.005023 -0.003625 -0.004301 -0.004378 -0.004782 0.004725 -0.004144 0.003347 0.001767 -0.000220 -0.001511 -0.001530 -0.002573 0.004075 0.002314 -0.004882 -0.000407 -0.002173 -0.004691 0.003828 0.002771 -0.001793 0.002972 -0.001656 -0.001973 0.004317 0.004686 0.000135 0.004527 0.003837
sent_14 0.000036 -0.001385 0.001732 -0.000962 0.001235 0.004565 0.002754 -0.001789 -0.003925 -0.003012 0.000406 -0.000821 0.002753 0.004415 -0.002963 0.003663 0.004565 0.004390 -0.004686 -0.004324 -0.005009 -0.001424 -0.004554 -0.002160 -0.001331 0.004653 -0.000299 -0.002103 -0.000076 0.001433 -0.003814 0.002268 0.003518 0.003629 0.003721 -0.001266 -0.000496 -0.003935 -0.002584 0.004653 -0.002058 0.004224 0.003853 0.003908 -0.003778 0.003897 0.001237 -0.002944 -0.001685 -0.003624 -0.000449 -0.004394 -0.003084 -0.003022 0.001956 0.000375 0.003816 -0.002347 0.001541 -0.004367 -0.000051 0.003327 0.004922 -0.005270 -0.002549 -0.002658 -0.004196 -0.004741 0.000284 -0.004792 -0.001866 0.001307 -0.002107 -0.002053 0.000586 -0.001183 0.002111 0.000287 0.001399 -0.001519 -0.002141 -0.003724 0.004192 0.003267 0.004259 -0.003452 0.004418 0.004416 -0.002160 -0.002513 0.000272 -0.003152 -0.000569 -0.003409 0.004156 0.000093 0.004657 0.001227 -0.000481 0.004730
sent_15 -0.003337 0.001585 0.001820 -0.000460 -0.004309 0.000102 -0.000328 0.002980 -0.002910 -0.000974 -0.002707 0.002060 0.005221 -0.003085 0.003030 -0.003024 -0.004537 -0.003895 0.004389 0.003729 -0.001811 0.004024 0.003712 -0.000514 -0.000212 0.000862 -0.003730 -0.005099 -0.002651 -0.004463 0.001858 0.000695 -0.001724 0.002683 -0.003172 -0.002917 -0.001759 -0.003124 -0.004458 0.003902 -0.004070 0.001465 -0.004225 -0.004754 0.000673 0.004025 0.003923 -0.001402 -0.004422 0.002808 0.002917 0.004035 0.001661 0.002945 0.004184 -0.000468 0.000464 -0.000237 0.002018 0.001528 0.000248 0.003506 -0.000180 0.003667 -0.002251 -0.003473 0.004656 0.002398 -0.002590 0.000533 0.004220 -0.004032 -0.004143 0.001165 -0.002548 0.002614 0.000650 0.001522 -0.003784 -0.003713 0.001427 -0.000441 -0.003900 -0.001264 0.001873 -0.002435 0.004027 0.004475 0.004397 0.002697 -0.000918 0.002755 -0.002107 -0.001858 0.001426 0.000622 0.003946 -0.002027 0.002953 0.004438
sent_16 -0.004835 -0.000381 0.001571 0.003293 -0.003065 0.003577 -0.001438 0.003931 -0.004665 -0.004168 0.004911 0.001253 -0.000892 -0.003368 0.001649 -0.004748 -0.001862 -0.001890 0.001068 0.001602 0.003380 0.004370 0.001510 0.000591 -0.000969 0.004737 -0.003611 0.004051 -0.002004 0.000563 0.001950 -0.002684 -0.003391 0.000087 0.002824 0.001923 -0.003930 0.004025 -0.000141 0.004527 0.000480 -0.004145 -0.003004 0.003511 0.001974 0.004005 -0.001828 0.000197 0.001527 0.000797 -0.002509 -0.000792 -0.002500 0.003473 0.004994 -0.004396 0.002255 -0.001572 0.001403 -0.002366 0.001447 -0.001451 -0.001920 0.004061 0.004478 0.001172 -0.002743 0.004481 0.002515 0.002446 -0.002939 0.003274 -0.002614 0.001418 0.001970 0.002320 -0.001073 0.002612 0.004082 0.000819 -0.004177 -0.003811 -0.003953 -0.003269 -0.003819 0.002692 -0.004644 -0.002649 0.003838 0.004534 0.000895 0.004775 -0.004722 0.004388 -0.001938 0.003042 0.003142 0.003562 -0.000493 0.004285
sent_17 -0.002405 0.004095 0.001010 0.004579 -0.004497 0.002041 0.000667 -0.000104 -0.002064 -0.001717 -0.002361 -0.002767 0.002759 -0.000001 -0.003877 0.002830 0.000405 0.002349 0.000093 -0.000856 0.004662 -0.004468 0.004121 0.004085 -0.001094 -0.002629 0.001214 -0.003044 0.003057 -0.002589 -0.001997 0.003963 0.003892 0.000382 0.003335 -0.001279 0.004705 -0.000532 -0.001831 -0.004601 0.004836 -0.000189 0.002436 0.001180 0.002048 -0.004383 0.003949 0.004131 0.000421 0.004585 -0.001991 0.000796 -0.000970 0.001293 -0.002066 0.003057 -0.004145 -0.004320 -0.004377 -0.003201 -0.001003 0.004305 -0.003701 0.001241 0.000368 -0.001323 -0.002894 -0.002637 -0.004364 0.002137 0.001656 -0.000620 0.002218 -0.003754 0.004121 0.003434 0.001632 -0.001018 -0.000823 -0.000312 0.004177 0.003391 -0.000325 0.000570 0.003614 0.004117 0.001372 0.002401 -0.001395 0.003874 0.003233 0.000333 0.003636 0.003298 0.002899 -0.003537 0.000315 0.003694 0.002508 -0.000827
sent_18 0.005070 -0.002437 -0.001208 0.004945 0.002989 0.004422 -0.004980 -0.000996 -0.002924 -0.002010 0.002114 0.002359 0.000008 -0.001593 0.000631 -0.000009 0.000299 0.000806 -0.000814 0.002652 -0.002094 0.000981 0.005099 -0.004874 0.002205 -0.004254 0.000086 0.000850 -0.002725 0.004409 0.001403 -0.002328 0.002689 -0.004136 0.000849 -0.004205 0.000955 -0.002485 0.001123 0.002190 0.000155 0.001307 0.002789 0.003498 0.001558 -0.000656 -0.000514 0.003822 0.002429 -0.003269 0.000747 0.004484 -0.003525 0.003283 0.003332 0.000394 -0.004693 -0.003719 0.004138 -0.004828 -0.001308 0.001327 -0.003283 0.005217 -0.003289 0.000368 0.001047 -0.002520 -0.000914 -0.000007 0.002092 0.001336 -0.000299 0.001271 -0.000106 0.000127 0.001421 -0.003614 0.002994 0.001287 0.005007 -0.002501 -0.000133 0.003740 0.001339 0.002788 -0.000816 0.001765 0.004270 -0.002616 0.003053 0.004924 -0.004910 -0.002672 -0.003317 0.002302 -0.004046 0.005287 -0.000631 0.003915
sent_19 -0.002973 -0.000615 0.003427 0.000952 -0.000152 0.000010 0.000893 -0.000713 -0.002989 -0.003742 -0.003476 -0.004355 0.000629 0.003584 -0.001245 -0.004331 -0.000760 0.000782 -0.000798 0.003104 0.004499 0.003458 0.002002 -0.000349 0.001826 -0.004974 0.004676 -0.003394 0.003953 0.003123 0.003113 -0.002317 -0.002943 -0.000817 0.003462 -0.000406 0.004192 -0.001289 0.001107 0.004890 0.001415 -0.004606 -0.000599 -0.001813 0.000291 -0.002059 -0.003712 0.001717 0.001955 0.003552 -0.003646 0.002984 0.003227 0.001282 -0.003024 -0.002476 -0.000713 0.000346 -0.000141 -0.000173 0.003704 0.003729 0.003110 0.003920 0.000885 0.004613 0.001046 0.001232 -0.001770 0.001687 -0.004657 -0.003593 -0.003588 0.001567 -0.003298 -0.001596 -0.004548 -0.002522 0.004777 0.000391 -0.003565 0.000344 0.004572 0.003626 -0.001025 -0.001998 0.002708 -0.002747 -0.002578 -0.003987 0.003598 -0.000542 0.000761 0.002129 0.003174 -0.000698 -0.003029 0.003219 -0.004538 0.004398
sent_20 0.001513 0.004111 0.001423 -0.002441 -0.001667 0.000720 0.004632 -0.003442 -0.000621 -0.001286 0.002577 0.003801 -0.000243 -0.002665 -0.004315 -0.003776 -0.002309 0.000024 0.003755 -0.003915 0.005124 0.000952 0.002423 0.004590 -0.000509 -0.000394 0.000716 -0.000257 -0.002842 -0.002995 -0.001717 0.003044 0.001385 0.002697 0.000864 -0.003307 0.001705 -0.001768 -0.005096 0.004368 -0.000419 -0.001494 0.001449 0.004482 -0.004408 -0.003155 -0.001245 -0.002084 0.000635 0.002413 0.003513 0.001306 -0.002614 -0.003405 0.002962 -0.002875 0.000558 0.001919 -0.002217 -0.003456 -0.004456 -0.003290 0.003271 -0.003231 -0.002450 -0.005077 0.002026 -0.002415 -0.001168 -0.004419 -0.002048 -0.000672 -0.000203 -0.000704 -0.003899 0.002424 -0.003491 -0.000811 -0.001744 -0.001100 0.001776 0.001057 -0.002385 -0.000234 -0.001505 0.003293 -0.002490 0.003201 -0.000264 0.000562 -0.002863 -0.002519 -0.000281 0.004449 -0.002857 -0.002695 0.003581 0.002409 -0.001714 -0.001839
sent_21 -0.000592 0.001273 0.002344 0.003807 0.001902 -0.002496 0.004341 0.002697 -0.002239 -0.001858 0.003716 -0.003565 0.001632 -0.002070 0.003155 -0.001568 0.002245 -0.003293 -0.000187 0.002912 -0.000805 -0.003877 0.001567 0.002623 -0.002155 -0.000822 0.003741 0.003513 0.001863 0.001145 0.003224 0.004259 -0.004989 -0.001154 0.000890 0.002170 -0.004024 -0.000990 -0.002493 -0.000579 -0.000012 0.001347 -0.000386 0.001214 0.000962 -0.000702 -0.004688 -0.002875 -0.001541 -0.003675 0.000828 0.001365 -0.000114 -0.001959 0.001623 -0.003113 -0.004950 0.002022 -0.000533 0.001808 -0.002891 -0.004126 -0.001414 0.002377 -0.003877 -0.003233 -0.000554 0.001220 0.002345 -0.004115 0.000919 -0.001000 0.001746 -0.003007 0.000462 -0.003264 -0.004806 -0.000153 -0.003022 0.001834 0.000440 0.003096 -0.000793 0.004830 0.000279 0.000363 0.002571 0.000638 -0.001549 0.000303 -0.003056 -0.000838 -0.004569 -0.000462 -0.001861 -0.000044 -0.004505 0.000838 -0.001733 0.000749
sent_22 0.002427 -0.000477 0.001711 -0.002532 0.005037 -0.002500 0.004428 -0.002886 -0.000185 0.003276 0.002094 0.002155 -0.000456 0.002627 0.004142 -0.000704 0.000259 -0.004483 -0.001085 -0.000396 0.004098 -0.004126 0.002359 0.000470 0.001124 -0.004887 -0.003691 -0.002289 -0.005080 0.001850 0.003758 0.000563 0.000451 0.001067 -0.001803 -0.001454 0.000872 0.003129 -0.003092 -0.001658 0.002526 -0.001753 -0.004717 -0.003440 -0.003048 -0.000061 0.001501 0.003932 0.004169 -0.002033 0.002453 -0.002054 -0.001337 -0.002133 -0.000818 -0.002873 -0.001836 -0.003951 0.004680 -0.000015 0.004309 0.002580 -0.000525 0.002751 0.001326 -0.002059 0.000213 0.002152 -0.002025 -0.004998 -0.002478 0.002997 0.004326 0.001228 -0.003605 0.002559 0.000291 0.002511 0.003678 0.004688 0.001595 0.003756 0.002582 0.002273 0.003637 0.004537 0.004079 -0.001068 -0.004273 0.003491 0.000379 0.000539 0.003317 -0.004715 0.003981 -0.004794 0.002022 0.001038 0.001553 -0.001241
sent_23 -0.002137 0.000148 0.003943 0.000728 0.001661 -0.000511 0.004728 0.002406 -0.001576 0.001557 0.000402 0.003930 -0.002147 -0.003900 -0.003114 -0.001242 0.003509 -0.002402 0.001275 0.001204 -0.000829 -0.004657 0.002499 -0.002031 -0.000995 -0.001346 0.001509 -0.004217 0.000398 -0.004728 0.004878 0.001058 -0.001165 -0.003578 0.002063 0.003986 -0.001787 0.002663 -0.002239 0.004636 0.002019 0.001151 0.004172 -0.002258 0.004281 0.001783 0.002807 0.000757 0.003446 0.001906 -0.003544 0.001212 -0.002244 0.004100 -0.002945 -0.002131 -0.004518 -0.000620 0.000606 0.000657 0.004100 -0.001466 -0.000580 0.003650 0.000799 0.001473 -0.002235 -0.000104 0.001126 -0.003739 -0.004813 -0.003827 -0.000212 -0.004782 0.001318 -0.004052 -0.002500 -0.000782 -0.003781 -0.002155 -0.004761 0.004965 0.001208 -0.001237 -0.004684 -0.000900 -0.000454 0.004274 -0.002277 0.001266 0.001634 -0.003046 0.000051 0.002845 -0.003898 0.000949 -0.004659 -0.004810 -0.004290 -0.000201
sent_24 0.004331 -0.000881 -0.004266 0.003558 0.000285 -0.001804 0.004602 0.004315 -0.002476 -0.002932 0.000878 0.003525 -0.001591 0.000953 -0.003379 -0.003144 0.002618 -0.003594 -0.002353 0.001878 -0.004823 -0.004749 -0.002181 -0.001700 -0.001293 0.002984 -0.004764 -0.001412 0.001267 -0.003456 0.003644 0.001453 -0.003841 -0.002965 0.002544 -0.001087 -0.000056 0.003888 -0.003611 0.004723 -0.004496 -0.004116 -0.002881 0.002964 -0.000508 0.001541 -0.003239 -0.003236 0.000277 0.002286 -0.000418 0.003759 0.001633 -0.002498 -0.002596 -0.001356 0.002564 0.004330 0.003731 -0.002376 -0.000865 0.001130 0.000458 -0.001013 -0.003978 0.002069 -0.004048 0.003673 0.003656 0.001944 -0.000188 0.002000 -0.001056 0.003055 0.002833 -0.003465 -0.001766 -0.001516 -0.001303 0.000774 -0.004578 0.001713 -0.002900 -0.000799 -0.000541 -0.001368 -0.001149 -0.003209 -0.004361 0.000532 0.000916 -0.003471 -0.002675 -0.002207 0.003374 -0.003492 0.000551 0.000760 -0.001567 -0.001451
sent_25 0.004849 0.000966 0.001635 0.000222 0.001678 0.001092 -0.003288 -0.001923 -0.000719 -0.003514 -0.001477 -0.002456 0.003925 -0.001284 -0.002840 -0.001150 0.001654 -0.004744 -0.003270 0.001783 0.002824 0.000376 0.003786 -0.003183 0.002058 0.003715 -0.003886 -0.002873 0.000205 -0.001328 0.001925 -0.004184 -0.003540 0.001985 0.005053 0.004145 0.003969 -0.003573 -0.003974 -0.003926 0.000384 0.003581 -0.000250 0.002601 -0.002930 0.003755 -0.002728 -0.004194 -0.000404 0.000302 0.004429 -0.003753 -0.002467 -0.004333 -0.001068 -0.002282 0.000221 -0.002054 0.004340 0.002870 0.004277 -0.003350 0.000451 -0.002180 0.003972 -0.005090 -0.004078 -0.001135 -0.001081 -0.002634 -0.004522 -0.003656 -0.001756 0.004486 -0.002719 0.002598 -0.002356 -0.004421 -0.004587 -0.002644 -0.000344 0.003071 0.002770 -0.001636 -0.000039 0.003966 0.003592 -0.001974 -0.005247 -0.003803 0.002459 -0.001984 0.000205 -0.003424 0.004134 -0.000478 0.000639 -0.001851 0.000690 -0.005037
sent_26 -0.002222 -0.001502 -0.002203 -0.004226 0.000240 0.002875 0.004406 -0.000051 0.000925 -0.002060 -0.003514 -0.003647 0.002304 0.002378 -0.003187 -0.000881 0.000960 -0.003780 0.002861 0.001188 0.001135 0.002061 0.004815 0.000586 0.003690 -0.000811 0.001505 0.004281 0.001597 -0.001916 0.001218 -0.001514 -0.001754 0.001103 -0.003372 -0.000182 0.004522 -0.001162 -0.003063 -0.000317 0.003467 0.003394 0.003250 -0.004936 -0.002398 0.005014 -0.003816 -0.000081 0.002881 -0.003841 0.001611 -0.000140 -0.003003 0.003818 -0.003149 0.001335 0.002423 0.000640 0.001340 -0.003784 -0.001984 0.000849 -0.001031 0.001604 0.003502 -0.003113 0.004113 -0.001165 0.004485 0.001108 0.002941 0.000125 0.000296 -0.001678 -0.003742 -0.001191 -0.002827 -0.004647 -0.002244 -0.003198 0.003749 -0.004154 -0.003152 0.002086 0.004143 -0.002481 -0.004780 0.004615 0.001816 -0.001932 -0.000337 0.001016 -0.001272 0.003723 0.002222 0.004584 -0.001482 0.004383 -0.000258 0.001448
sent_27 0.002678 0.004074 -0.000821 0.000130 0.003513 0.002282 0.004885 0.004265 -0.004011 -0.002270 0.001785 0.002769 0.001878 0.004489 -0.002966 -0.001973 -0.000282 -0.002357 0.000357 0.001323 -0.002114 -0.001725 0.005072 -0.001302 -0.004529 0.002107 -0.000493 -0.005130 0.003484 -0.000460 0.004263 -0.000520 -0.004232 -0.002942 -0.000578 0.001996 -0.002649 -0.000516 0.003019 0.000821 -0.003737 -0.005489 0.001066 0.004493 0.003151 0.002669 0.002621 0.003726 -0.003870 -0.002621 0.001168 0.004414 0.001490 -0.003762 0.004268 0.003848 -0.004302 -0.004137 -0.002240 0.002094 0.004598 0.001673 -0.003726 0.000388 -0.003348 0.003589 0.002309 0.000062 -0.000685 -0.004750 -0.002602 -0.003384 0.003027 0.000343 -0.002147 -0.002484 -0.002289 -0.001688 -0.000777 -0.000537 0.002036 -0.003400 -0.000860 0.002317 0.004787 0.004759 -0.002227 -0.002857 -0.003778 0.005295 -0.002238 0.003097 -0.001557 -0.005019 0.003549 0.001333 -0.003651 -0.001019 0.005474 -0.003378
sent_28 -0.004102 0.001039 0.004352 -0.003597 0.000158 0.001873 -0.003227 -0.004938 0.003753 -0.004616 -0.002468 0.001528 -0.002060 -0.004832 0.000715 -0.001967 -0.003479 0.004677 -0.003338 0.002215 0.003994 0.003428 -0.003095 -0.002572 -0.004806 0.004174 0.003823 0.000876 -0.003967 -0.003201 0.000782 -0.002431 -0.001964 -0.003305 -0.003008 -0.000444 0.000217 0.000098 0.004890 -0.003704 0.002618 0.002827 0.000769 -0.000372 0.003962 0.003273 -0.004391 0.004739 -0.004864 0.000721 0.000663 0.003410 -0.001166 -0.004100 0.000816 -0.004743 -0.001440 0.004743 0.003684 -0.003567 0.003023 0.003226 0.004201 -0.002662 -0.000026 0.003185 0.001648 0.000904 0.001461 -0.002693 -0.004801 0.002415 -0.001693 -0.001262 0.001187 0.001583 -0.002973 0.003259 -0.001192 0.001426 0.004712 0.000801 -0.001350 0.001224 0.000090 -0.000303 0.002366 0.004242 -0.000289 -0.003990 0.000758 -0.002497 -0.004548 0.002878 -0.002168 0.002688 -0.000075 -0.001710 -0.001774 -0.004579
sent_29 0.000700 0.004485 -0.003975 -0.003585 0.000862 0.001334 0.002693 -0.002740 -0.005185 -0.000087 -0.002931 -0.004487 0.002494 0.005399 -0.001742 -0.002319 0.000357 0.002917 0.002610 0.001197 -0.000082 0.000070 -0.003084 -0.001642 0.002861 0.003225 -0.003649 -0.002505 -0.005209 -0.000190 -0.003032 0.001826 0.002027 -0.004147 -0.003164 0.003344 -0.000531 0.000782 0.004245 0.003064 -0.001358 -0.004821 -0.000607 -0.002252 -0.004765 0.002805 -0.000265 0.001681 0.003576 0.004171 0.000319 -0.001192 -0.004042 -0.004882 -0.002075 0.001275 0.001871 -0.003832 -0.004055 -0.001910 0.001777 0.003311 -0.000298 -0.001001 0.001799 -0.002965 0.001240 0.003337 0.001352 -0.000553 -0.002913 0.004275 0.005239 0.002899 0.001248 -0.003141 -0.001553 -0.000671 -0.001693 0.001110 0.001200 -0.001178 -0.001468 -0.004093 -0.001733 0.001700 0.000443 0.004722 0.003625 0.000955 0.005149 -0.002491 0.001611 -0.001147 0.006072 0.002310 -0.002551 -0.000066 -0.002238 0.000115
sent_30 0.003192 -0.004156 -0.002865 0.004998 0.004770 0.000708 0.001656 -0.002546 0.004082 0.001902 0.001563 -0.004607 0.003917 0.003033 0.001573 0.002121 -0.003488 0.001809 -0.004092 0.001843 -0.004631 0.001957 -0.000025 -0.002814 0.002366 -0.002369 0.003429 -0.003482 0.004126 0.005060 -0.001914 0.003918 0.003434 -0.000912 -0.000820 -0.002582 0.005266 -0.002343 0.003935 -0.000519 0.004541 0.003002 -0.003899 0.000730 0.001777 -0.000947 -0.004491 -0.001359 0.003869 -0.004620 -0.004167 0.002351 0.000063 -0.000259 -0.001186 0.000973 0.003465 -0.002669 0.003548 -0.001006 0.000329 0.002604 -0.002679 0.004745 0.002208 0.000891 -0.002356 0.001940 -0.002626 0.002654 -0.005409 -0.003158 0.000679 0.002080 0.000177 0.003832 0.004854 -0.000284 0.002884 0.000574 0.001748 -0.002061 -0.003441 0.004725 0.003309 -0.001315 0.001077 -0.001281 -0.003709 -0.000177 -0.001955 -0.004555 -0.000832 0.004018 0.003917 0.000307 -0.001611 -0.002246 0.005025 0.000616
sent_31 -0.003121 -0.002532 0.004271 -0.002741 -0.003881 -0.003553 0.002868 0.002015 -0.000245 0.002972 0.000305 -0.001109 -0.004017 0.003887 -0.002136 0.001481 0.004791 -0.002908 0.004539 0.001602 -0.003968 0.002956 0.004355 0.000737 0.001731 -0.004475 0.005245 -0.001639 -0.004469 0.002661 0.004532 0.002150 -0.005129 -0.004199 0.000517 -0.001371 0.003492 0.003785 0.004995 0.002158 0.003524 -0.001432 -0.003674 0.003356 -0.001981 -0.000685 0.001270 0.000888 -0.001031 -0.000935 -0.003805 0.000163 -0.002654 0.002460 0.001478 -0.004441 0.004963 0.002993 -0.002832 -0.004392 0.000041 -0.001601 0.000525 0.001359 0.002968 -0.004712 0.002089 -0.002044 0.005205 0.003527 0.000923 0.000987 -0.003098 -0.002634 -0.003579 -0.000998 -0.003888 0.000480 0.001249 -0.003836 -0.001670 -0.004548 0.000050 0.001464 0.001098 0.002679 -0.002617 0.001197 -0.001864 -0.004180 -0.001805 -0.004541 0.004803 0.002085 -0.004216 0.002982 -0.001590 0.003675 -0.000156 0.003690
sent_32 -0.002396 -0.001137 -0.000913 -0.003736 -0.001669 0.001965 -0.000417 0.003811 -0.002777 -0.001381 -0.001945 0.000809 -0.002754 -0.003283 0.004190 -0.001667 0.000756 -0.004778 -0.003487 -0.004176 0.003464 -0.004552 0.000422 -0.003396 -0.002135 0.003400 0.000874 0.004364 0.000683 -0.004433 -0.000665 -0.004468 -0.001819 -0.000348 0.001141 -0.002956 0.000851 -0.001103 -0.000260 -0.002901 -0.003391 0.002130 -0.002112 0.001736 0.000866 0.003919 0.004157 -0.000362 -0.002534 0.001113 0.001358 0.002298 0.004003 0.002735 0.001523 0.001207 -0.002936 0.001228 0.003210 0.003866 0.004179 0.000823 -0.002591 -0.001186 0.005064 0.000047 0.003103 0.000987 -0.000382 -0.001699 -0.000180 -0.004831 0.003806 0.000470 -0.004483 0.003041 -0.003692 -0.004994 -0.000215 0.004978 -0.003908 -0.003883 0.004106 0.003127 0.003393 0.000384 -0.000681 -0.001075 0.000573 0.002643 0.002825 0.001896 0.000537 -0.000801 -0.001300 -0.002505 -0.001846 0.002308 0.003037 0.000910
sent_33 -0.002082 -0.001934 0.003136 0.005653 -0.004416 -0.002094 0.003329 0.001603 -0.003701 0.001054 0.000331 0.002850 0.000826 -0.000129 -0.002413 -0.003329 -0.004335 0.000576 0.001649 0.001299 -0.003970 -0.002693 -0.003575 0.000587 0.005065 -0.001427 -0.002283 0.002210 0.003882 -0.001210 0.003209 0.005681 -0.003880 -0.000326 0.004382 -0.001922 0.000059 0.002773 -0.005006 -0.000729 0.001042 -0.003708 0.001955 0.002388 0.005039 0.000263 -0.002796 0.005347 0.004388 -0.000150 0.002503 0.004791 0.002367 0.000077 0.001280 0.003248 0.001115 -0.004412 0.002071 -0.000111 -0.001183 -0.003860 -0.003514 0.003488 0.004271 0.002541 -0.004229 -0.004197 0.002110 -0.003073 -0.003520 -0.004571 -0.003779 -0.003821 -0.002724 -0.000416 0.003308 0.003198 0.004716 0.001361 0.002378 0.001462 -0.003234 -0.004383 -0.002098 0.007241 0.002355 -0.002638 0.001251 0.003413 -0.004326 -0.000545 0.003572 -0.004644 0.005533 0.003078 0.004314 -0.002717 0.001967 0.002083
sent_34 0.003445 -0.004005 0.002517 -0.002330 0.001137 0.001597 0.003097 -0.002303 0.001556 -0.002143 0.005211 0.002677 -0.001110 0.004131 0.002554 0.004832 -0.003279 -0.001445 -0.004299 -0.001729 -0.001747 0.001562 -0.000729 0.002346 -0.002551 -0.002943 -0.000558 -0.000134 -0.000343 0.003415 -0.002666 -0.001915 -0.003066 -0.000972 -0.001657 0.001226 -0.002700 -0.002507 0.002412 0.004156 -0.004251 -0.002742 -0.003250 0.001137 -0.002778 0.001279 -0.003428 0.003079 -0.002324 0.002114 -0.003739 -0.002205 -0.002097 0.001362 0.001320 0.003154 -0.003103 0.002812 0.001904 0.000818 0.002086 -0.004092 -0.003438 -0.001132 0.002024 -0.003210 -0.001324 -0.000271 0.004918 -0.004364 0.003887 0.005083 -0.002286 0.004221 -0.002220 0.003415 -0.000344 0.001704 -0.002976 0.001860 -0.003737 0.000155 -0.000374 0.003366 -0.000296 0.002211 -0.001080 -0.001998 0.003187 -0.000988 0.000471 0.000372 0.003599 0.000492 -0.001313 -0.003160 0.001846 0.003224 -0.004084 -0.000395
sent_35 0.004384 0.000653 0.000488 -0.004338 0.000354 0.001582 -0.003545 0.004568 -0.003105 0.001737 -0.002257 -0.003887 -0.002354 -0.001664 -0.000375 -0.002708 0.002255 0.003043 0.002919 0.002147 -0.002280 -0.002932 -0.003875 -0.001017 -0.004121 0.001512 0.004459 0.002540 -0.003870 -0.004746 -0.001636 0.004951 -0.001866 0.002374 0.002198 0.000679 -0.001298 -0.002950 0.004750 -0.004312 -0.002662 -0.001948 0.004054 0.002180 -0.002322 -0.003361 0.003832 0.002940 -0.004584 0.003770 0.000883 -0.000381 0.001730 -0.004617 -0.001647 -0.004108 0.001828 -0.001038 -0.000200 -0.002163 0.002864 -0.004524 -0.002205 0.000944 0.002880 0.000987 0.002298 -0.004776 -0.002485 -0.004605 -0.000042 0.004915 -0.004871 -0.000592 -0.004925 0.001116 -0.003181 0.002092 -0.003395 0.003318 -0.002916 -0.001443 -0.002683 0.003075 -0.000078 0.003802 -0.003705 -0.000013 0.002754 0.004837 0.001731 -0.003125 0.002566 -0.004242 0.002656 0.003245 0.000610 -0.000016 0.004396 -0.005003
