39 100
sent_0 -0.000586 0.002487 -0.004456 -0.001176 -0.003750 -0.003535 -0.003116 -0.001325 -0.001443 0.000395 -0.001264 0.001820 -0.002328 0.003637 -0.005155 0.001441 -0.001064 0.000421 -0.003332 -0.003217 0.003495 0.003692 -0.001288 0.002227 0.003633 0.003452 -0.004372 -0.005170 -0.003308 0.003945 -0.003979 -0.000246 0.004586 0.000039 0.002380 -0.001915 0.002063 0.003306 -0.005347 0.002527 0.004769 0.002096 -0.002549 0.003350 -0.003318 -0.000751 0.004639 -0.001850 -0.001697 -0.003591 -0.004979 0.002357 -0.003049 -0.002559 -0.000140 -0.003884 0.000565 -0.003985 0.000538 0.001559 -0.003731 -0.000373 0.001482 -0.000175 -0.004313 0.000245 0.001235 0.000185 0.003700 0.001098 0.003351 -0.003545 -0.003521 0.002480 -0.000355 -0.003362 0.004064 -0.002016 0.002536 0.002712 0.004089 0.001662 0.002828 -0.001838 -0.001826 0.004777 -0.000669 0.004539 0.001408 0.001952 -0.003575 0.004711 -0.000322 0.001092 -0.000146 -0.003175 0.004207 0.001160 -0.004210 0.000993
sent_1 -0.001439 0.000645 0.004276 -0.000926 0.004116 0.001648 -0.004815 0.004241 0.001248 0.005069 -0.003597 -0.003482 0.004907 0.002147 -0.004588 0.002163 0.002449 0.003873 0.002233 -0.003987 -0.004236 -0.005609 -0.004299 -0.002357 0.003699 -0.000287 0.000089 0.002906 -0.004118 -0.001707 0.001010 0.005107 0.000713 -0.005064 0.003596 -0.003038 0.003544 -0.001149 0.003157 0.002565 0.000794 -0.004222 -0.004967 -0.003543 -0.004281 -0.004045 -0.002153 0.002564 0.001049 -0.005093 -0.004509 0.005145 0.000567 -0.003119 -0.002332 0.002625 -0.003257 0.000211 0.004686 0.003039 -0.002450 0.000435 0.000765 0.003996 -0.003367 -0.005148 -0.004459 -0.000131 0.000553 0.000481 -0.002397 0.005033 0.000901 -0.001486 0.000915 0.002377 0.001663 -0.002636 -0.004131 -0.000685 0.001560 -0.002231 0.002968 -0.004343 -0.002027 0.004081 -0.002902 0.001321 -0.000085 0.004932 -0.002240 -0.003933 0.002478 0.002811 0.004807 0.003827 -0.004580 -0.001999 0.001728 0.004519
sent_2 0.004511 0.000638 0.004164 0.001500 -0.001117 -0.000119 0.001060 0.000489 0.004160 0.004166 -0.001028 0.004615 -0.003199 -0.003724 -0.003722 0.000031 -0.004849 0.004542 0.003269 -0.004874 -0.003268 -0.001731 -0.003662 0.003195 -0.001589 0.004361 0.000853 0.003823 0.003451 0.004043 -0.000456 0.000473 0.002981 -0.002089 -0.000087 0.000947 -0.004852 0.000817 -0.000767 0.003153 -0.002000 0.003925 0.000773 -0.003112 0.002987 0.001127 -0.004455 -0.000823 0.001786 0.004229 -0.005042 0.004851 -0.001277 0.004713 0.001096 0.003303 0.000727 0.001261 -0.002190 0.000728 0.002533 0.003625 0.002519 0.002032 0.003570 -0.001823 0.001635 -0.000587 -0.001192 -0.000911 -0.000995 -0.001735 0.001194 -0.000673 0.004824 0.001826 -0.003053 -0.000738 -0.001619 0.003032 0.003834 0.004046 0.001598 -0.002329 -0.002442 0.003606 0.000237 0.003023 0.000753 0.002385 0.000280 0.002763 0.000672 -0.000320 -0.001571 -0.004365 -0.001214 -0.004149 0.004893 -0.003207
sent_3 0.003380 0.003836 0.002093 0.000986 -0.003455 -0.000032 -0.001556 -0.002679 0.000718 -0.001904 0.003987 0.004244 -0.002123 -0.003930 -0.003118 -0.000203 0.002224 -0.003116 -0.002408 0.003468 -0.000655 0.000710 -0.002563 -0.003973 0.000133 -0.000418 -0.003757 0.001015 0.000327 0.001697 -0.003458 0.002789 -0.002801 0.000055 0.003039 -0.004769 -0.001768 0.003720 0.003179 0.000410 0.003616 0.004293 0.003025 0.003668 -0.003767 0.001475 0.002229 0.001131 0.003155 -0.004739 0.002695 0.002477 -0.002483 -0.002534 0.001430 -0.001359 0.003040 -0.000753 0.002735 0.004718 -0.001895 -0.003378 0.003864 0.000699 0.004916 0.001275 0.004844 0.000532 -0.000052 -0.003622 -0.001763 -0.004735 -0.003343 0.002255 -0.004449 -0.001433 0.003573 0.001741 0.001971 -0.002871 -0.000543 0.000989 0.005094 -0.003083 -0.002362 -0.001964 0.002512 -0.000561 -0.004495 0.000336 -0.002931 0.003134 -0.002015 -0.004682 0.001292 0.003167 -0.000949 0.002723 0.000461 0.000276
sent_4 0.004621 0.003108 -0.004565 0.002272 -0.000420 0.004581 -0.002770 -0.002267 -0.004205 -0.000708 -0.004010 0.001316 0.003169 0.001896 0.002564 -0.001597 0.003377 -0.000758 0.003301 0.001244 -0.003484 -0.004433 -0.004706 -0.004278 -0.000473 -0.003925 -0.004762 0.002432 -0.001005 0.002446 -0.000498 -0.000374 -0.000266 -0.000313 0.003104 -0.000949 0.004013 -0.004604 0.002641 -0.003729 0.001116 -0.004905 0.000333 -0.004900 0.004679 0.004025 0.003079 0.004171 -0.003456 -0.003398 -0.003148 0.001344 0.004016 0.004822 0.002068 0.002444 0.004092 -0.001079 -0.002598 -0.003285 -0.003696 0.003202 -0.003621 -0.002205 0.003295 -0.001866 0.004741 -0.002294 0.000174 -0.001789 0.003945 -0.001362 -0.000673 -0.000031 0.004528 -0.004668 0.002125 0.003843 -0.004722 0.000313 -0.001706 0.003645 0.000665 0.001775 -0.000372 0.001403 -0.002067 -0.004931 0.000726 -0.001713 0.000231 0.004190 -0.000658 -0.002494 -0.001103 0.004212 0.004407 0.003466 0.004394 -0.002772
sent_5 -0.003925 -0.002644 -0.001770 -0.003242 0.001196 -0.000751 0.003124 -0.003232 0.001823 -0.002532 0.000689 -0.001305 -0.004291 -0.002601 0.001667 -0.000234 0.000212 -0.003492 0.000712 0.004933 0.003318 0.000707 0.004757 0.003898 0.001082 -0.004887 -0.004362 -0.004456 -0.000732 -0.000980 0.004906 -0.003236 0.004740 0.002556 0.003433 0.001152 0.001835 -0.000172 -0.004937 -0.001377 0.000088 0.002063 -0.000567 -0.000482 -0.003679 -0.004876 0.002714 -0.001625 0.005024 -0.003028 -0.001639 0.000348 0.002539 -0.000379 -0.003630 -0.001954 0.000052 0.001561 0.002866 -0.003742 -0.004730 0.000280 0.003039 -0.004638 0.001803 0.001756 -0.000424 0.004217 0.001348 -0.005150 -0.000362 0.003600 0.003329 0.001525 0.001730 0.000693 -0.002185 0.000588 0.001867 -0.001250 0.003579 -0.002818 0.002684 -0.002061 0.002747 -0.000369 0.003139 -0.001522 -0.002974 0.002789 -0.002005 0.002502 0.002443 -0.002882 -0.002633 -0.003128 -0.003440 -0.001012 -0.004636 -0.003846
sent_6 0.001801 0.003203 -0.004188 -0.002448 -0.002885 0.004181 0.002258 0.000436 -0.002085 0.003375 -0.000660 0.004242 0.002250 -0.000089 -0.003832 0.004747 -0.003507 -0.002937 -0.000732 -0.001035 -0.003516 0.001961 -0.003140 0.001602 0.002462 -0.003035 0.001002 0.002455 0.001384 0.000930 -0.002153 0.002392 0.004381 -0.000742 0.002885 -0.004413 0.003237 -0.003133 -0.001275 -0.001829 -0.004413 0.004017 -0.001414 0.000235 0.000161 -0.003615 -0.002840 -0.004195 0.000149 -0.002332 -0.001605 -0.003772 0.002718 -0.004085 0.004823 -0.003243 0.000756 -0.004754 0.002768 -0.003235 0.000639 0.002603 -0.003623 0.000766 -0.002773 0.002487 0.002042 -0.003326 0.003592 -0.004879 0.003469 0.000754 -0.000945 0.002589 0.002346 0.005008 -0.002238 -0.004853 0.004328 0.003893 0.002293 0.000271 0.002189 0.002681 -0.001159 0.002970 0.002512 0.001046 -0.001007 0.002275 -0.004775 0.002830 0.004143 -0.002700 -0.003585 -0.002999 -0.001859 0.003899 0.000705 -0.002211
sent_7 -0.003523 -0.002094 0.001023 -0.001886 -0.000244 -0.000649 0.003304 -0.000865 -0.001425 0.001818 -0.002747 -0.000193 -0.001878 0.001399 0.003912 -0.000542 0.002887 -0.000531 0.001495 -0.003640 -0.000745 0.004025 0.000815 0.002479 0.000111 -0.000005 0.003298 -0.004239 0.000651 0.004435 0.000251 -0.003116 0.003386 -0.002547 0.001971 0.000445 0.004374 0.001376 0.003492 -0.004821 0.004943 -0.004240 -0.001859 0.004149 -0.005024 0.003321 0.003525 -0.000533 -0.002408 0.002891 -0.000236 -0.003707 0.004272 0.003941 -0.000124 0.003383 -0.000689 0.001815 -0.000879 0.000254 -0.002895 0.004622 -0.001989 -0.003896 -0.003391 -0.004843 0.002248 0.000734 0.003059 -0.000077 0.002877 0.001936 0.002801 -0.000793 0.001342 -0.003198 -0.001666 -0.003060 -0.000832 -0.002454 -0.001053 0.004755 -0.001670 0.004811 0.001240 -0.001220 0.003603 0.001099 -0.002482 0.002891 -0.000738 -0.001446 -0.001589 0.001743 -0.002246 0.003093 -0.001982 0.000350 -0.000135 0.003558
sent_8 0.004048 -0.003315 0.000815 0.003946 -0.000545 0.004295 -0.002362 0.001203 0.001935 -0.002862 -0.004664 -0.000789 0.004315 -0.001802 0.002842 -0.003346 -0.001716 -0.003405 0.002237 0.002133 0.001526 -0.002263 0.001792 -0.002814 -0.000871 -0.001041 -0.001423 -0.004047 0.001337 0.001932 0.001085 0.001385 -0.003491 -0.003310 -0.000160 0.003836 -0.003526 -0.000645 -0.000711 0.000167 -0.003998 -0.001398 -0.002203 0.003551 0.003201 -0.000643 0.000753 -0.003886 -0.000026 -0.002040 0.003835 0.001755 0.001286 -0.003766 -0.000105 0.004932 0.004700 0.001802 -0.003502 0.001244 0.000560 -0.000611 -0.000480 0.000816 0.003444 0.002620 0.000791 0.004147 -0.004363 0.004999 -0.004486 -0.002914 -0.000925 -0.003784 0.001206 -0.004556 -0.002271 -0.004387 0.001840 0.001475 -0.001326 -0.003552 0.002263 -0.001804 0.002850 -0.000478 -0.000014 -0.004832 0.001725 -0.001850 -0.002714 -0.000678 -0.001476 -0.000307 0.004551 -0.001190 0.002717 0.000370 0.003862 -0.001615
sent_9 -0.002428 0.004224 -0.004621 0.004371 0.000752 -0.001312 0.005012 -0.004559 0.000008 -0.004507 0.000701 -0.003013 0.001394 0.004953 0.003780 -0.000672 0.002004 0.002428 -0.000067 0.000222 -0.003326 -0.001436 -0.003555 0.002277 -0.000108 -0.000726 0.003586 0.000156 -0.001162 -0.002061 -0.004158 -0.000840 -0.004748 -0.002123 0.000188 0.004425 -0.003733 0.001786 -0.000129 0.002891 -0.003474 -0.004334 -0.001361 0.002854 -0.003208 0.002724 -0.001933 -0.002726 -0.004666 -0.001284 -0.001230 0.001687 -0.004190 -0.003613 -0.004706 -0.004067 0.001548 -0.001077 -0.001592 0.000614 0.004951 0.003335 0.001885 0.004299 -0.004596 -0.004398 -0.000117 -0.001378 0.004461 -0.000430 0.000294 0.003992 -0.000528 0.003871 -0.002503 -0.002286 -0.001689 0.000580 -0.002633 0.002043 -0.003511 -0.003765 0.003820 -0.002542 -0.001124 0.001027 0.000367 -0.004271 0.003563 0.004688 0.002974 -0.001984 0.000349 -0.001796 0.000684 0.004577 -0.001735 0.001813 -0.001669 0.002763
sent_10 -0.001447 0.004401 0.002750 0.003066 -0.000148 -0.002677 -0.004422 -0.002008 -0.005270 0.002104 0.001516 -0.000474 0.003233 0.000699 -0.004857 -0.004007 -0.003227 -0.001957 -0.004483 0.000796 0.000535 0.000298 -0.000488 0.003728 -0.000379 -0.005502 0.003336 0.001195 0.002870 0.004934 -0.004442 -0.002347 -0.004344 -0.000968 0.004164 -0.004549 0.000034 -0.003800 0.002193 0.003733 -0.004539 -0.000628 -0.003216 0.004538 0.004700 0.001141 0.005229 -0.001170 0.004400 -0.000867 -0.003001 0.004894 0.001659 -0.004615 0.003848 0.001974 0.000939 0.001711 -0.002437 0.000619 0.003569 -0.003960 -0.004099 0.004171 0.001239 -0.000078 -0.002711 -0.002118 0.003471 -0.001176 -0.004860 0.004249 -0.002886 0.003199 0.004185 -0.000064 0.000991 0.000246 0.001443 0.004365 -0.001988 0.004508 0.001128 -0.003902 -0.002469 0.002017 -0.002466 -0.003799 -0.003690 0.004211 0.001208 0.005058 -0.001288 0.000844 0.001667 0.000609 -0.004086 0.003069 0.005064 0.000343
sent_11 -0.003005 0.002565 -0.004878 -0.001669 0.004204 0.000923 0.003570 0.001024 0.003168 0.003818 -0.001814 -0.003710 0.002279 -0.000572 -0.003737 0.000838 -0.004651 -0.003080 0.002885 -0.004900 -0.001900 -0.004910 0.004993 0.000816 -0.002053 0.004213 -0.000017 -0.000517 0.000817 -0.002290 -0.001915 -0.001232 -0.002567 0.000800 0.002020 -0.004306 0.004717 0.002562 0.002997 0.002551 -0.004179 -0.000245 -0.000638 0.001730 -0.000493 0.002050 0.001883 0.002010 0.001261 -0.003544 0.002594 0.002855 0.004012 -0.002709 -0.003210 -0.001089 -0.001780 0.003077 0.001155 0.002582 -0.000658 -0.003956 -0.003889 -0.001166 -0.003010 0.003170 0.000984 0.001921 -0.000138 -0.004166 -0.002749 -0.000369 -0.002995 -0.004766 0.002323 0.002234 -0.001691 0.003423 -0.000663 0.003754 0.001577 0.000890 -0.002912 0.000277 0.003976 -0.001813 0.003736 0.004054 -0.001752 0.001924 0.003978 -0.004194 0.003811 -0.003123 0.003607 0.001593 -0.001495 -0.003424 0.001437 0.003466
sent_12 0.003033 0.001003 0.004253 0.000519 -0.002989 -0.000985 -0.001671 0.004957 -0.000781 0.004871 0.000398 -0.003401 -0.004628 -0.001404 -0.003531 0.001563 -0.000815 0.005090 0.004246 -0.003329 -0.001413 0.000205 0.000382 0.002667 -0.000182 -0.000384 -0.002135 0.004456 -0.004591 0.002915 -0.003163 0.001547 -0.001529 0.004950 -0.004191 -0.002915 0.003632 0.000811 -0.001594 -0.005082 -0.002896 -0.003196 -0.002633 0.003776 0.003549 0.002090 -0.000679 0.003003 -0.000351 -0.001281 -0.002041 0.003932 -0.000993 0.000044 -0.002522 0.003710 -0.001040 -0.001591 0.002221 -0.002830 -0.003987 0.003004 0.002709 0.000403 -0.002648 0.001458 0.001534 -0.001703 -0.004002 0.003909 -0.000000 0.002553 -0.002529 0.001113 -0.000998 -0.001153 -0.003723 -0.002341 -0.004347 -0.002370 0.002265 0.000710 0.001391 -0.004857 0.001582 -0.000670 -0.002788 -0.003219 -0.002923 0.002935 0.004733 0.003891 -0.001644 0.002713 -0.000027 0.003503 -0.000331 0.000474 0.002486 -0.004016
sent_13 0.000610 -0.001101 0.001409 0.005087 -0.001170 -0.000692 0.002908 0.001532 -0.001433 0.001901 -0.001191 -0.003552 -0.000057 -0.001709 -0.003106 0.004008 0.001723 0.000838 0.002607 0.000279 0.002300 0.003646 0.003935 -0.003149 -0.002421 -0.004646 0.004549 -0.002948 0.001498 -0.003900 -0.002868 0.000377 -0.003956 -0.001273 0.000717 -0.001744 0.000676 0.000295 -0.001487 0.002090 0.001658 0.001594 0.000323 -0.001129 0.001542 0.004264 0.001329 0.004938 -0.000272 0.002372 -0.004749 0.003051 0.000031 -0.005106 -0.002145 0.000645 0.002611 -0.004809 0.000338 0.002660 0.001685 0.004629 -0.004524 -0.001724 0.004309 0.002514 0.000767 0.003310 0.003501 0.004745 0.004487 -0.003500 -0.004274 -0.004556 -0.004439 0.004703 -0.004164 0.003133 0.001908 0.000247 -0.001378 -0.001153 -0.002196 0.003893 0.002527 -0.004117 -0.000364 -0.002274 -0.004860 0.004339 0.002864 -0.001460 0.003035 -0.001617 -0.001407 0.003910 0.004938 0.000593 0.005036 0.003776
sent_14 0.000327 -0.000556 0.002363 0.000098 0.001110 0.005099 0.002945 -0.001905 -0.004686 -0.002865 -0.000113 -0.000731 0.003614 0.004744 -0.003735 0.003395 0.004395 0.004417 -0.004605 -0.004819 -0.004446 -0.002952 -0.004265 -0.001686 -0.001367 0.003821 -0.000493 -0.002670 -0.000139 0.001764 -0.003971 0.002967 0.003616 0.003160 0.004606 -0.001574 -0.000058 -0.003932 -0.003164 0.004944 -0.001931 0.003539 0.003340 0.004123 -0.003119 0.003697 0.001936 -0.002301 -0.001065 -0.003438 -0.001170 -0.003570 -0.003488 -0.003252 0.001809 0.000798 0.003507 -0.003288 0.001173 -0.004939 0.000725 0.004313 0.004322 -0.004037 -0.002316 -0.003123 -0.004789 -0.005028 -0.000406 -0.004873 -0.002752 0.001615 -0.001949 -0.002488 0.001434 -0.000999 0.002078 -0.000047 0.001484 -0.000586 -0.001883 -0.002789 0.004937 0.002911 0.004633 -0.001959 0.004530 0.004307 -0.002605 -0.001262 0.000872 -0.002786 -0.000018 -0.003165 0.005307 -0.000660 0.004853 0.001988 0.000542 0.004679
sent_15 -0.003266 0.001642 0.001952 -0.000353 -0.004338 0.000196 -0.000265 0.002971 -0.002842 -0.000934 -0.002798 0.002130 0.005304 -0.003124 0.002986 -0.003019 -0.004501 -0.004020 0.004401 0.003697 -0.001688 0.003738 0.003710 -0.000565 -0.000245 0.000810 -0.003851 -0.005247 -0.002618 -0.004456 0.001868 0.000857 -0.001762 0.002562 -0.003051 -0.002850 -0.001801 -0.002926 -0.004448 0.003836 -0.003937 0.001439 -0.004275 -0.004745 0.000701 0.004012 0.004072 -0.001315 -0.004264 0.002775 0.002921 0.004034 0.001610 0.002859 0.004080 -0.000369 0.000528 -0.000364 0.001972 0.001644 0.000418 0.003585 -0.000223 0.003793 -0.001982 -0.003440 0.004612 0.002510 -0.002743 0.000531 0.003985 -0.004111 -0.004078 0.001003 -0.002481 0.002600 0.000691 0.001510 -0.003693 -0.003619 0.001381 -0.000325 -0.003697 -0.001387 0.001931 -0.002294 0.004126 0.004408 0.004239 0.002888 -0.000943 0.002722 -0.001950 -0.001904 0.001687 0.000516 0.004016 -0.002020 0.003138 0.004371
sent_16 -0.004953 -0.000043 0.001634 0.003520 -0.003128 0.003540 -0.001274 0.003822 -0.004862 -0.004038 0.004765 0.001136 -0.000720 -0.003180 0.001357 -0.004679 -0.001933 -0.001793 0.001039 0.001383 0.003574 0.004031 0.001614 0.000921 -0.001001 0.004491 -0.003497 0.003876 -0.001918 0.000586 0.001777 -0.002568 -0.003290 0.000051 0.003075 0.001794 -0.003676 0.004019 -0.000293 0.004520 0.000588 -0.004271 -0.003112 0.003508 0.002108 0.003937 -0.001567 0.000427 0.001637 0.000964 -0.002839 -0.000606 -0.002545 0.003397 0.004849 -0.004337 0.002081 -0.001850 0.001230 -0.002485 0.001662 -0.001135 -0.002161 0.004295 0.004450 0.001023 -0.002921 0.004331 0.002466 0.002382 -0.003005 0.003392 -0.002554 0.001322 0.002226 0.002495 -0.001077 0.002634 0.004065 0.001103 -0.004037 -0.003439 -0.003822 -0.003292 -0.003689 0.003067 -0.004550 -0.002591 0.003634 0.004979 0.001154 0.004850 -0.004416 0.004464 -0.001700 0.002820 0.003141 0.003722 -0.000247 0.004284
sent_17 -0.001902 0.004704 0.001612 0.005362 -0.004542 0.002646 0.000762 -0.000178 -0.002824 -0.001598 -0.002714 -0.002421 0.003570 0.000103 -0.004388 0.002331 0.000159 0.001924 0.000222 -0.001165 0.005240 -0.005793 0.004474 0.004345 -0.001092 -0.003394 0.000609 -0.003600 0.002722 -0.002089 -0.001946 0.004605 0.003893 0.000060 0.004102 -0.001673 0.004994 -0.000551 -0.002519 -0.004273 0.004802 -0.000771 0.001768 0.001502 0.002599 -0.004476 0.004670 0.004538 0.001105 0.004365 -0.002314 0.001496 -0.001267 0.000944 -0.001868 0.003354 -0.004207 -0.005087 -0.004493 -0.003743 -0.000514 0.004922 -0.004183 0.002263 0.000681 -0.001688 -0.003225 -0.002673 -0.005061 0.001843 0.000694 -0.000406 0.002285 -0.004120 0.004779 0.003440 0.001580 -0.001327 -0.000589 0.000571 0.004406 0.004178 0.000354 0.000233 0.004012 0.005466 0.001517 0.002225 -0.001828 0.004892 0.003431 0.000857 0.003898 0.003333 0.003950 -0.004278 0.000722 0.004442 0.003458 -0.000970
sent_18 0.005486 -0.001678 -0.001137 0.004964 0.003489 0.004321 -0.004532 -0.001697 -0.003478 -0.001571 0.002135 0.003007 0.000435 -0.000928 0.000458 -0.000398 0.000325 0.000069 -0.001121 0.002321 -0.001636 -0.000096 0.004798 -0.004814 0.002442 -0.005012 -0.000651 0.000512 -0.003280 0.005001 0.001495 -0.002057 0.002657 -0.004388 0.001604 -0.004794 0.001305 -0.002118 0.000796 0.002624 0.000627 0.000784 0.001954 0.003060 0.001260 -0.000472 0.000083 0.004436 0.003125 -0.003850 0.000342 0.004764 -0.003676 0.002823 0.003460 -0.000154 -0.004587 -0.004460 0.004546 -0.004772 -0.000569 0.001740 -0.003578 0.005983 -0.002894 -0.000157 0.001090 -0.002441 -0.000799 -0.001110 0.001437 0.001606 -0.000104 0.001532 -0.000044 0.000251 0.001750 -0.003125 0.003494 0.002449 0.004993 -0.001395 0.000700 0.003772 0.001364 0.004073 -0.000388 0.001586 0.003501 -0.001661 0.002966 0.005345 -0.004315 -0.003334 -0.002428 0.001650 -0.003593 0.005846 -0.000083 0.003939
sent_19 -0.002517 -0.000358 0.003745 0.001235 -0.000205 0.000525 0.000746 -0.000683 -0.003510 -0.003732 -0.003707 -0.003963 0.001096 0.003612 -0.001425 -0.004775 -0.000838 0.000376 -0.000655 0.002996 0.004828 0.002847 0.002089 -0.000451 0.001970 -0.005355 0.004062 -0.003637 0.003580 0.003605 0.003316 -0.001924 -0.002893 -0.001036 0.003951 -0.000736 0.004469 -0.001325 0.000790 0.005056 0.001547 -0.005071 -0.001058 -0.001656 0.000482 -0.002124 -0.003402 0.001928 0.002294 0.003214 -0.003720 0.003317 0.003171 0.001217 -0.002670 -0.002385 -0.000648 -0.000048 -0.000048 -0.000498 0.003686 0.003979 0.002921 0.004436 0.001066 0.004416 0.001091 0.001285 -0.002199 0.001474 -0.005171 -0.003627 -0.003618 0.001434 -0.003026 -0.001783 -0.004519 -0.002796 0.004982 0.000794 -0.003465 0.000769 0.004968 0.003546 -0.000928 -0.001197 0.002733 -0.002862 -0.002738 -0.003665 0.003424 -0.000131 0.000695 0.002172 0.003704 -0.001041 -0.002672 0.003779 -0.004138 0.004356
sent_20 0.000688 0.004012 0.000944 -0.002398 -0.001948 0.000160 0.004842 -0.003365 0.000146 -0.001442 0.002677 0.002993 -0.000643 -0.002744 -0.004396 -0.002882 -0.002351 0.000993 0.003622 -0.003787 0.004604 0.001537 0.002286 0.004971 -0.000898 0.000211 0.001817 0.000086 -0.001936 -0.004098 -0.002300 0.002698 0.001334 0.003022 0.000225 -0.002620 0.001175 -0.001870 -0.004801 0.004147 -0.000854 -0.000667 0.002320 0.004166 -0.004200 -0.003200 -0.001660 -0.002395 0.000012 0.003282 0.003298 0.001009 -0.002689 -0.003314 0.002245 -0.002778 0.000447 0.002281 -0.002791 -0.003136 -0.004145 -0.003356 0.003395 -0.003772 -0.002594 -0.004714 0.001643 -0.002703 -0.000740 -0.003767 -0.001257 -0.000669 -0.000225 -0.000731 -0.003891 0.002956 -0.003545 -0.000436 -0.002252 -0.001647 0.001703 0.000318 -0.002942 -0.000418 -0.001570 0.002232 -0.002635 0.003393 0.000165 0.000344 -0.002297 -0.003140 0.000112 0.004589 -0.003471 -0.002341 0.003103 0.001565 -0.002001 -0.001912
sent_21 -0.000766 0.001502 0.001960 0.003610 0.002081 -0.002809 0.004518 0.002432 -0.002043 -0.001677 0.003714 -0.003602 0.001579 -0.001734 0.003200 -0.001353 0.002260 -0.003251 -0.000318 0.002864 -0.000954 -0.003903 0.001173 0.002583 -0.002106 -0.000773 0.003812 0.003658 0.001935 0.000973 0.003090 0.004095 -0.005074 -0.001151 0.000882 0.002216 -0.004052 -0.000824 -0.002293 -0.000477 0.000090 0.001419 -0.000418 0.000605 0.000803 -0.000554 -0.004772 -0.002707 -0.001646 -0.003715 0.000537 0.001286 -0.000056 -0.001995 0.001387 -0.003489 -0.004857 0.001927 -0.000466 0.002163 -0.002512 -0.004062 -0.001431 0.002407 -0.003749 -0.003207 -0.000453 0.001221 0.002732 -0.004349 0.001126 -0.001028 0.001723 -0.002784 0.000337 -0.003062 -0.004633 0.000343 -0.003008 0.002075 0.000312 0.003178 -0.000681 0.004857 0.000086 0.000345 0.002669 0.000613 -0.001572 0.000408 -0.002980 -0.000921 -0.004154 -0.000786 -0.001866 0.000022 -0.004481 0.000621 -0.001784 0.000818
sent_22 0.002316 -0.000626 0.001428 -0.002802 0.004971 -0.002638 0.004373 -0.002811 -0.000063 0.003165 0.002359 0.002065 -0.000725 0.002497 0.004219 -0.000604 0.000181 -0.004220 -0.001091 -0.000296 0.003653 -0.003536 0.002157 0.000504 0.001023 -0.004506 -0.003451 -0.001819 -0.004947 0.001650 0.003602 0.000279 0.000389 0.001414 -0.002158 -0.001408 0.000670 0.002823 -0.002973 -0.001610 0.002052 -0.001463 -0.004411 -0.003408 -0.003038 0.000073 0.001106 0.003553 0.003814 -0.001940 0.002604 -0.002239 -0.001229 -0.002026 -0.000643 -0.002985 -0.001693 -0.003521 0.004666 -0.000109 0.004024 0.002251 -0.000292 0.002268 0.001047 -0.001940 0.000317 0.001963 -0.001723 -0.004966 -0.002083 0.003060 0.004143 0.001490 -0.003719 0.002586 0.000184 0.002635 0.003435 0.004336 0.001494 0.003340 0.002165 0.002315 0.003460 0.003937 0.003867 -0.001027 -0.003984 0.003013 0.000361 0.000468 0.003032 -0.004701 0.003412 -0.004485 0.001914 0.000809 0.001254 -0.001302
sent_23 -0.002416 -0.000020 0.003566 0.000509 0.001667 -0.000827 0.004850 0.002401 -0.001248 0.001488 0.000603 0.003644 -0.002448 -0.003895 -0.002902 -0.000928 0.003526 -0.002074 0.001205 0.001299 -0.001209 -0.004176 0.002301 -0.001957 -0.001160 -0.000974 0.001914 -0.003867 0.000667 -0.005114 0.004679 0.000742 -0.001263 -0.003284 0.001621 0.004278 -0.002073 0.002550 -0.002056 0.004522 0.001703 0.001497 0.004520 -0.002428 0.004259 0.001934 0.002466 0.000491 0.003039 0.002126 -0.003472 0.000893 -0.002171 0.004159 -0.003092 -0.002247 -0.004421 -0.000290 0.000485 0.000779 0.004088 -0.001664 -0.000433 0.003169 0.000641 0.001628 -0.002233 -0.000209 0.001488 -0.003602 -0.004335 -0.003772 -0.000252 -0.004621 0.001170 -0.003932 -0.002562 -0.000490 -0.004013 -0.002435 -0.004905 0.004553 0.000829 -0.001162 -0.004763 -0.001559 -0.000547 0.004273 -0.002040 0.000922 0.001754 -0.003304 0.000041 0.002770 -0.004373 0.001236 -0.004778 -0.005210 -0.004554 -0.000257
sent_24 0.004464 -0.000679 -0.004052 0.003784 0.000285 -0.001675 0.004728 0.004254 -0.002703 -0.002848 0.000778 0.003638 -0.001360 0.000993 -0.003536 -0.003286 0.002568 -0.003812 -0.002344 0.001746 -0.004555 -0.005205 -0.002020 -0.001562 -0.001307 0.002705 -0.004957 -0.001682 0.001167 -0.003278 0.003658 0.001675 -0.003829 -0.003077 0.002823 -0.001218 0.000065 0.003971 -0.003849 0.004763 -0.004415 -0.004295 -0.003131 0.003118 -0.000408 0.001511 -0.002920 -0.003094 0.000549 0.002211 -0.000497 0.003931 0.001551 -0.002681 -0.002574 -0.001264 0.002533 0.004066 0.003695 -0.002493 -0.000699 0.001326 0.000271 -0.000725 -0.003852 0.001933 -0.004161 0.003716 0.003457 0.001800 -0.000521 0.002073 -0.000980 0.002896 0.003030 -0.003461 -0.001787 -0.001602 -0.001179 0.001093 -0.004499 0.002061 -0.002662 -0.000875 -0.000364 -0.000914 -0.001023 -0.003257 -0.004626 0.000950 0.000947 -0.003336 -0.002536 -0.002225 0.003751 -0.003782 0.000688 0.000996 -0.001245 -0.001508
sent_25 0.004900 0.001161 0.001778 0.000387 0.001714 0.001263 -0.003314 -0.001988 -0.001112 -0.003448 -0.001683 -0.002467 0.004141 -0.001072 -0.002984 -0.001298 0.001723 -0.004805 -0.003215 0.001607 0.003135 0.000049 0.004001 -0.003076 0.002198 0.003320 -0.004009 -0.003119 0.000008 -0.001020 0.002015 -0.004049 -0.003335 0.001839 0.005418 0.003869 0.004489 -0.003621 -0.004093 -0.003991 0.000739 0.003153 -0.000485 0.002693 -0.002930 0.003619 -0.002449 -0.003836 -0.000241 0.000241 0.004212 -0.003551 -0.002436 -0.004255 -0.001046 -0.002212 -0.000035 -0.002359 0.004359 0.002599 0.004175 -0.003032 0.000210 -0.001911 0.003843 -0.005322 -0.004117 -0.001225 -0.001264 -0.002735 -0.004644 -0.003554 -0.001660 0.004389 -0.002543 0.002542 -0.002332 -0.004600 -0.004520 -0.002425 -0.000157 0.003490 0.002941 -0.001469 0.000106 0.004499 0.003656 -0.001938 -0.005426 -0.003534 0.002568 -0.001805 0.000269 -0.003269 0.004387 -0.000630 0.000676 -0.001442 0.000804 -0.004922
sent_26 -0.002201 -0.001456 -0.002222 -0.004034 0.000374 0.002754 0.004631 -0.000151 0.000984 -0.002018 -0.003505 -0.003706 0.002400 0.002495 -0.003106 -0.000836 0.000910 -0.003807 0.002786 0.001170 0.001193 0.001753 0.004848 0.000703 0.003572 -0.000914 0.001550 0.004170 0.001640 -0.002037 0.001183 -0.001494 -0.001892 0.001070 -0.003449 0.000010 0.004284 -0.001065 -0.003239 -0.000252 0.003310 0.003419 0.003143 -0.005048 -0.002250 0.005091 -0.003735 -0.000057 0.002953 -0.003759 0.001553 -0.000115 -0.003150 0.003616 -0.003330 0.001334 0.002458 0.000503 0.001243 -0.003745 -0.001544 0.000995 -0.001149 0.001781 0.003634 -0.003145 0.003905 -0.001103 0.004478 0.001117 0.002819 0.000270 0.000417 -0.001734 -0.003670 -0.001073 -0.002858 -0.004489 -0.002209 -0.002905 0.003705 -0.004113 -0.003074 0.001996 0.004298 -0.002352 -0.004715 0.004479 0.001755 -0.001663 -0.000156 0.000950 -0.001048 0.003560 0.002443 0.004378 -0.001383 0.004299 -0.000021 0.001350
sent_27 0.002526 0.003253 -0.000794 -0.000188 0.003107 0.002427 0.004409 0.004850 -0.003458 -0.002713 0.002006 0.002532 0.001323 0.003737 -0.002670 -0.001772 -0.000169 -0.001950 0.000548 0.001731 -0.002600 -0.000587 0.005136 -0.001640 -0.004681 0.002932 -0.000125 -0.004680 0.003831 -0.000819 0.004309 -0.000747 -0.004235 -0.002655 -0.001273 0.002417 -0.003075 -0.000739 0.003470 0.000423 -0.004053 -0.004941 0.001863 0.004985 0.003125 0.002585 0.001994 0.003050 -0.004388 -0.002369 0.001871 0.003939 0.001645 -0.003343 0.004418 0.004231 -0.004179 -0.003296 -0.002350 0.002151 0.003720 0.000993 -0.003184 -0.000510 -0.003544 0.004083 0.002491 0.000089 -0.000771 -0.004009 -0.002145 -0.003725 0.002837 0.000255 -0.002452 -0.002768 -0.002471 -0.002101 -0.001086 -0.001777 0.001899 -0.004442 -0.001542 0.002308 0.004608 0.003443 -0.002578 -0.002729 -0.003197 0.004153 -0.002519 0.002743 -0.002343 -0.004578 0.002677 0.002015 -0.003998 -0.001495 0.004828 -0.003440
sent_28 -0.004088 0.001040 0.004367 -0.003620 0.000152 0.001851 -0.003253 -0.004933 0.003783 -0.004590 -0.002456 0.001564 -0.002078 -0.004846 0.000685 -0.001979 -0.003508 0.004662 -0.003360 0.002208 0.003989 0.003450 -0.003135 -0.002575 -0.004796 0.004206 0.003815 0.000897 -0.003951 -0.003174 0.000773 -0.002435 -0.001976 -0.003321 -0.003004 -0.000455 0.000187 0.000127 0.004914 -0.003675 0.002609 0.002851 0.000752 -0.000367 0.003950 0.003270 -0.004408 0.004711 -0.004835 0.000713 0.000662 0.003418 -0.001161 -0.004122 0.000833 -0.004748 -0.001413 0.004769 0.003695 -0.003519 0.003042 0.003184 0.004223 -0.002652 0.000005 0.003209 0.001654 0.000923 0.001479 -0.002694 -0.004835 0.002403 -0.001708 -0.001236 0.001184 0.001586 -0.002962 0.003253 -0.001161 0.001442 0.004702 0.000807 -0.001333 0.001187 0.000047 -0.000300 0.002356 0.004240 -0.000302 -0.003991 0.000722 -0.002486 -0.004550 0.002874 -0.002159 0.002672 -0.000089 -0.001731 -0.001769 -0.004588
sent_29 0.000827 0.004024 -0.003750 -0.003607 0.000621 0.001753 0.002335 -0.002315 -0.005385 -0.000339 -0.002990 -0.004440 0.002484 0.004964 -0.001545 -0.002577 0.000384 0.002676 0.002886 0.001361 0.000080 0.000541 -0.002630 -0.001845 0.002958 0.003318 -0.003862 -0.002691 -0.005468 0.000099 -0.002745 0.001894 0.002144 -0.004167 -0.003209 0.003314 -0.000428 0.000621 0.004096 0.002888 -0.001314 -0.004907 -0.000647 -0.001596 -0.004786 0.002697 -0.000254 0.001375 0.003465 0.003933 0.000739 -0.001258 -0.003931 -0.004759 -0.001655 0.001501 0.001854 -0.003677 -0.003956 -0.002158 0.000976 0.003071 -0.000254 -0.001227 0.001542 -0.002879 0.001456 0.003544 0.001090 -0.000243 -0.002873 0.004051 0.005102 0.002662 0.001160 -0.003563 -0.001768 -0.001295 -0.001622 0.000679 0.001326 -0.001486 -0.001700 -0.003921 -0.001619 0.001535 0.000330 0.004808 0.003859 0.000577 0.004722 -0.002339 0.000937 -0.000779 0.005800 0.002497 -0.002464 0.000158 -0.002483 0.000221
sent_30 0.003331 -0.004551 -0.002895 0.004802 0.004750 0.000831 0.001436 -0.002400 0.004161 0.001743 0.001655 -0.004508 0.003754 0.002866 0.001967 0.002049 -0.003388 0.001747 -0.004011 0.002035 -0.004756 0.002378 -0.000077 -0.003128 0.002413 -0.002144 0.003274 -0.003362 0.003956 0.005166 -0.001738 0.003797 0.003423 -0.000831 -0.001109 -0.002407 0.005057 -0.002399 0.004004 -0.000640 0.004505 0.003072 -0.003820 0.000805 0.001709 -0.000834 -0.004686 -0.001584 0.003662 -0.004796 -0.003853 0.002087 0.000087 -0.000086 -0.000954 0.000974 0.003637 -0.002504 0.003673 -0.001008 0.000021 0.002401 -0.002477 0.004486 0.002193 0.000994 -0.002132 0.002057 -0.002647 0.002802 -0.005257 -0.003298 0.000624 0.002134 -0.000055 0.003566 0.004841 -0.000395 0.002905 0.000261 0.001652 -0.002427 -0.003580 0.004833 0.003248 -0.001640 0.000972 -0.001341 -0.003429 -0.000645 -0.002230 -0.004515 -0.001231 0.004024 0.003624 0.000544 -0.001484 -0.002311 0.004790 0.000614
sent_31 -0.002688 -0.002715 0.004343 -0.003072 -0.003670 -0.003355 0.002671 0.001980 -0.000354 0.003061 0.000309 -0.000636 -0.004059 0.003900 -0.001869 0.001105 0.004930 -0.003371 0.004613 0.001621 -0.003899 0.002984 0.004162 0.000297 0.001990 -0.004547 0.004684 -0.001620 -0.004925 0.003175 0.004903 0.002157 -0.005103 -0.004361 0.000643 -0.001567 0.003646 0.003917 0.005121 0.002169 0.003817 -0.001764 -0.003991 0.003327 -0.002293 -0.000605 0.001237 0.000937 -0.000867 -0.001441 -0.003581 0.000063 -0.002501 0.002546 0.001825 -0.004575 0.005176 0.003034 -0.002438 -0.004336 -0.000252 -0.001758 0.000662 0.001339 0.003106 -0.004776 0.002475 -0.001809 0.005168 0.003237 0.000704 0.000875 -0.003082 -0.002492 -0.003798 -0.001372 -0.003802 0.000372 0.001491 -0.003787 -0.001779 -0.004396 0.000252 0.001612 0.000926 0.002890 -0.002620 0.001053 -0.001956 -0.004420 -0.002294 -0.004357 0.004526 0.001946 -0.004170 0.003031 -0.001383 0.003875 -0.000261 0.003705
sent_32 -0.002711 -0.001524 -0.001472 -0.004438 -0.001539 0.001533 -0.000553 0.003792 -0.002197 -0.001462 -0.001649 0.000676 -0.003338 -0.003301 0.004573 -0.001346 0.000953 -0.004524 -0.003604 -0.003893 0.002912 -0.003574 -0.000041 -0.003765 -0.002050 0.003990 0.001194 0.004913 0.000853 -0.004803 -0.000660 -0.004975 -0.001866 -0.000135 0.000628 -0.002757 0.000641 -0.001090 0.000364 -0.002990 -0.003367 0.002542 -0.001635 0.001284 0.000361 0.004023 0.003522 -0.000619 -0.003029 0.001115 0.001571 0.001817 0.004255 0.003022 0.001434 0.000811 -0.002809 0.001822 0.003446 0.004349 0.003837 0.000287 -0.002153 -0.001898 0.004882 0.000329 0.003461 0.001014 0.000234 -0.001654 0.000525 -0.005026 0.003683 0.000890 -0.005058 0.003042 -0.003552 -0.004629 -0.000371 0.004353 -0.004147 -0.004501 0.003677 0.003356 0.002939 -0.000606 -0.000809 -0.000960 0.000939 0.001795 0.002598 0.001537 0.000359 -0.000966 -0.002087 -0.001873 -0.002148 0.001747 0.002258 0.001071
sent_33 -0.002791 -0.002799 0.002528 0.004596 -0.004693 -0.002660 0.003027 0.001990 -0.002626 0.000701 0.000943 0.002298 -0.000384 -0.000799 -0.002089 -0.002666 -0.004093 0.001402 0.001611 0.001779 -0.005063 -0.000711 -0.003930 0.000350 0.004844 -0.000106 -0.001288 0.003281 0.004657 -0.002081 0.002970 0.004894 -0.003868 0.000393 0.003302 -0.001553 -0.000294 0.002457 -0.003913 -0.001278 0.000644 -0.002683 0.003353 0.002501 0.004501 0.000256 -0.003911 0.004495 0.003441 0.000359 0.003264 0.003906 0.002897 0.000691 0.001181 0.003254 0.001190 -0.002856 0.002042 0.000318 -0.002388 -0.005058 -0.002644 0.001694 0.003698 0.003202 -0.003838 -0.004418 0.002804 -0.002549 -0.002278 -0.004860 -0.004033 -0.003438 -0.003397 -0.000450 0.003217 0.003352 0.004051 -0.000442 0.002093 0.000154 -0.004475 -0.004146 -0.002643 0.004895 0.001981 -0.002272 0.001854 0.001674 -0.004526 -0.001354 0.002861 -0.004371 0.003846 0.004303 0.003426 -0.003782 0.000625 0.002088
sent_34 0.003954 -0.004038 0.003093 -0.002214 0.001033 0.002134 0.002853 -0.002143 0.001193 -0.002097 0.005020 0.003217 -0.000849 0.003867 0.002435 0.004311 -0.003279 -0.002095 -0.004122 -0.001790 -0.001249 0.001199 -0.000453 0.002092 -0.002336 -0.003243 -0.001268 -0.000579 -0.000784 0.004068 -0.002301 -0.001493 -0.002965 -0.001315 -0.001177 0.000894 -0.002441 -0.002298 0.002197 0.004182 -0.003852 -0.003129 -0.003712 0.001632 -0.002844 0.001144 -0.003032 0.003175 -0.001817 0.001657 -0.003524 -0.001990 -0.002109 0.001268 0.001737 0.003367 -0.003031 0.002556 0.002140 0.000707 0.001790 -0.004078 -0.003499 -0.000763 0.002296 -0.003300 -0.001137 0.000047 0.004404 -0.004500 0.003218 0.004860 -0.002289 0.003954 -0.002144 0.003030 -0.000348 0.001150 -0.002585 0.002019 -0.003628 0.000554 0.000047 0.003289 -0.000220 0.002865 -0.000978 -0.002037 0.002882 -0.000765 -0.000025 0.000732 0.003322 0.000627 -0.000841 -0.003443 0.002113 0.003724 -0.003829 -0.000398
sent_35 0.004325 0.000552 0.000396 -0.004462 0.000366 0.001501 -0.003566 0.004579 -0.002936 0.001718 -0.002208 -0.003923 -0.002482 -0.001692 -0.000285 -0.002621 0.002303 0.003104 0.002900 0.002210 -0.002391 -0.002757 -0.003974 -0.001105 -0.004126 0.001656 0.004533 0.002643 -0.003802 -0.004848 -0.001639 0.004863 -0.001891 0.002406 0.002071 0.000773 -0.001385 -0.002910 0.004897 -0.004364 -0.002653 -0.001843 0.004176 0.002089 -0.002404 -0.003338 0.003703 0.002883 -0.004679 0.003796 0.000945 -0.000503 0.001770 -0.004561 -0.001703 -0.004148 0.001871 -0.000914 -0.000181 -0.002032 0.002831 -0.004629 -0.002108 0.000795 0.002899 0.001072 0.002355 -0.004750 -0.002392 -0.004552 0.000076 0.004856 -0.004879 -0.000543 -0.005035 0.001113 -0.003152 0.002163 -0.003427 0.003174 -0.002985 -0.001588 -0.002757 0.003092 -0.000159 0.003574 -0.003726 -0.000008 0.002823 0.004666 0.001693 -0.003229 0.002550 -0.004273 0.002520 0.003370 0.000551 -0.000165 0.004263 -0.004996
sent_36 -0.004927 -0.002667 -0.000038 0.000302 -0.001246 -0.002127 -0.003022 0.003036 -0.001758 -0.000206 0.003270 0.001035 -0.001041 -0.003275 -0.000816 -0.000107 0.004959 -0.002027 -0.003373 -0.002665 -0.003075 -0.003990 -0.001400 -0.002222 0.003818 0.002961 -0.003808 0.003713 -0.003878 0.002100 0.000741 -0.004272 0.004000 0.003913 0.003178 -0.001191 -0.002932 0.004835 0.003247 -0.004630 -0.001444 0.003239 0.000462 -0.002536 0.002924 -0.002317 -0.005206 -0.002826 0.004753 0.001597 -0.002613 0.001701 0.001871 0.001503 -0.004242 -0.002589 0.003744 0.002545 -0.003310 -0.002068 0.000517 0.003119 -0.002858 -0.004206 -0.001288 0.004167 -0.002380 -0.003979 -0.004384 -0.001413 -0.004447 0.000883 0.001720 -0.000294 0.002289 -0.000019 0.002008 -0.002623 0.002342 -0.000202 0.001986 -0.000808 -0.000141 -0.004510 -0.000115 -0.003909 -0.003657 -0.000695 0.000940 -0.001889 -0.003371 0.002336 0.004441 0.002312 -0.004457 0.003574 -0.004365 -0.000744 0.004124 -0.002384
sent_37 -0.003508 0.002562 0.004244 -0.001927 -0.002530 -0.003165 0.004630 0.000700 0.003619 -0.001835 -0.004384 -0.000204 -0.002953 0.000221 0.000558 -0.002214 -0.001907 -0.005053 -0.000801 -0.001741 0.001197 0.003588 -0.000243 -0.004384 0.004420 0.003092 -0.001640 -0.001663 0.004172 -0.001059 0.001501 0.004830 -0.004718 -0.001902 -0.002684 0.004190 0.000437 -0.004332 0.002582 0.001908 0.001669 0.004480 0.003547 0.002422 -0.002916 -0.003492 -0.002818 -0.002972 0.000756 0.001350 0.000386 -0.004523 -0.001318 0.004612 0.002101 -0.001464 0.001922 -0.002341 -0.004024 0.000414 -0.002082 -0.000292 0.004086 0.001517 0.002388 -0.003966 -0.000010 -0.000780 0.001537 -0.002326 -0.001287 0.004752 -0.003863 -0.002896 -0.002753 0.001836 0.002181 0.002936 -0.001033 0.003656 0.001858 0.002187 0.003340 0.001316 -0.000870 -0.004619 0.000992 0.000519 0.000947 -0.001829 0.000297 -0.003207 0.001448 -0.004489 0.003801 -0.002852 -0.001887 0.003856 0.003838 0.003333
sent_38 -0.001510 0.003729 0.002610 0.001275 0.004097 0.002863 -0.000901 -0.001712 -0.000975 -0.004515 -0.001089 -0.001265 0.003466 0.003749 0.004964 -0.001863 0.001966 0.001246 -0.002584 0.003896 -0.003163 0.002864 -0.003797 -0.004232 0.002210 0.000538 -0.000749 0.003148 -0.001570 0.003604 0.004750 0.004618 -0.002359 -0.000656 0.001939 0.003999 0.001817 0.002453 0.003947 -0.001265 0.000140 0.000465 0.001564 0.003948 0.000910 0.004885 0.001979 -0.001143 0.000657 0.004000 0.001553 0.001863 0.001657 -0.001555 -0.002644 -0.001059 -0.003212 0.003589 0.002313 -0.001006 -0.003516 0.003399 0.001693 0.004660 -0.004005 -0.002465 -0.003939 0.002485 -0.003301 0.003728 -0.000001 0.000249 -0.004673 0.001392 -0.002984 -0.003047 0.003949 0.003960 -0.004960 0.003082 0.003834 -0.000241 0.001391 0.002730 0.001692 -0.000797 0.000592 0.000624 0.003642 -0.003129 0.002311 0.003149 0.002566 0.002924 0.002982 -0.000599 0.001273 0.002453 0.002474 0.004517
