41 100
sent_0 -0.000800 0.002349 -0.004813 -0.001549 -0.003632 -0.003873 -0.003068 -0.001469 -0.001195 0.000367 -0.001006 0.001721 -0.002680 0.003766 -0.004896 0.001684 -0.000925 0.000643 -0.003493 -0.003113 0.003173 0.004224 -0.001604 0.002121 0.003643 0.003738 -0.004132 -0.004835 -0.003236 0.003752 -0.004081 -0.000589 0.004566 0.000254 0.002056 -0.001786 0.001902 0.003296 -0.005062 0.002484 0.004765 0.002352 -0.002275 0.003057 -0.003594 -0.000580 0.004328 -0.001949 -0.002007 -0.003558 -0.004940 0.002018 -0.003007 -0.002421 -0.000204 -0.004191 0.000637 -0.003771 0.000653 0.001767 -0.003760 -0.000566 0.001708 -0.000558 -0.004439 0.000313 0.001383 0.000094 0.004133 0.001027 0.003802 -0.003534 -0.003556 0.002797 -0.000691 -0.003295 0.004171 -0.001670 0.002454 0.002463 0.003935 0.001370 0.002617 -0.001663 -0.002039 0.004261 -0.000701 0.004587 0.001583 0.001573 -0.003576 0.004552 -0.000358 0.000913 -0.000599 -0.002840 0.004097 0.000878 -0.004608 0.001085
sent_1 -0.001754 0.000187 0.003803 -0.001524 0.004098 0.001189 -0.004874 0.004310 0.002012 0.004952 -0.003228 -0.003636 0.004235 0.001935 -0.004272 0.002590 0.002567 0.004263 0.002106 -0.003705 -0.004888 -0.004600 -0.004783 -0.002609 0.003601 0.000491 0.000563 0.003507 -0.003729 -0.002261 0.000869 0.004631 0.000591 -0.004782 0.002912 -0.002623 0.003010 -0.001114 0.003732 0.002449 0.000547 -0.003567 -0.004320 -0.003831 -0.004613 -0.003908 -0.002845 0.002075 0.000534 -0.004872 -0.004215 0.004594 0.000712 -0.002922 -0.002483 0.002410 -0.003011 0.000920 0.004730 0.003538 -0.002654 -0.000156 0.001280 0.003179 -0.003435 -0.004758 -0.004250 -0.000122 0.001122 0.000716 -0.001750 0.004851 0.000783 -0.001150 0.000426 0.002438 0.001706 -0.002315 -0.004360 -0.001411 0.001251 -0.003008 0.002464 -0.004320 -0.002459 0.002883 -0.003092 0.001397 0.000304 0.004102 -0.002408 -0.004399 0.002303 0.002702 0.003970 0.004412 -0.004902 -0.002749 0.001065 0.004493
sent_2 0.004992 0.000904 0.004246 0.001353 -0.000716 0.000019 0.001085 0.000161 0.003855 0.004513 -0.001234 0.005212 -0.002892 -0.003329 -0.003587 -0.000411 -0.004768 0.003784 0.003262 -0.005033 -0.002880 -0.002370 -0.003900 0.002841 -0.001224 0.003864 0.000036 0.003508 0.002830 0.004718 -0.000084 0.000662 0.002975 -0.002488 0.000438 0.000590 -0.004519 0.001197 -0.000830 0.003354 -0.001411 0.003343 -0.000000 -0.003522 0.002674 0.001242 -0.004096 -0.000358 0.002249 0.003536 -0.005210 0.005010 -0.001209 0.004563 0.001286 0.002958 0.000895 0.000774 -0.001732 0.000944 0.002798 0.003847 0.002354 0.002589 0.003965 -0.002087 0.001973 -0.000249 -0.001234 -0.001558 -0.001501 -0.001816 0.001297 -0.000567 0.004730 0.001604 -0.002808 -0.000597 -0.001153 0.003763 0.003791 0.004754 0.002274 -0.002229 -0.002528 0.004541 0.000501 0.002824 0.000351 0.002811 -0.000120 0.003123 0.000914 -0.000743 -0.000947 -0.004681 -0.000793 -0.003759 0.005171 -0.003118
sent_3 0.003516 0.004227 0.002203 0.001012 -0.003185 -0.000046 -0.001468 -0.002982 0.000281 -0.001619 0.003877 0.004492 -0.001872 -0.003551 -0.003301 -0.000475 0.002202 -0.003493 -0.002491 0.003245 -0.000255 0.000240 -0.002473 -0.003919 0.000395 -0.000967 -0.004107 0.000701 -0.000075 0.002175 -0.003334 0.002887 -0.002703 -0.000168 0.003553 -0.005264 -0.001266 0.003875 0.003016 0.000652 0.004053 0.003849 0.002490 0.003526 -0.003958 0.001464 0.002634 0.001623 0.003572 -0.005073 0.002379 0.002804 -0.002494 -0.002668 0.001504 -0.001628 0.002860 -0.001218 0.003026 0.004683 -0.001687 -0.003096 0.003607 0.001234 0.004931 0.000981 0.004923 0.000575 -0.000048 -0.004137 -0.002085 -0.004619 -0.003294 0.002355 -0.004426 -0.001402 0.003713 0.001815 0.002279 -0.002261 -0.000384 0.001669 0.005521 -0.002955 -0.002326 -0.001149 0.002733 -0.000534 -0.004884 0.000867 -0.002922 0.003459 -0.001767 -0.004861 0.001742 0.002875 -0.000830 0.003153 0.000653 0.000481
sent_4 0.004685 0.003391 -0.004666 0.002236 -0.000140 0.004441 -0.002621 -0.002564 -0.004463 -0.000485 -0.004077 0.001448 0.003310 0.002312 0.002530 -0.001722 0.003400 -0.000952 0.003199 0.001074 -0.003286 -0.004755 -0.004778 -0.004211 -0.000296 -0.004296 -0.004934 0.002286 -0.001260 0.002700 -0.000425 -0.000390 -0.000198 -0.000451 0.003389 -0.001213 0.004337 -0.004517 0.002542 -0.003571 0.001396 -0.005233 -0.000045 -0.005192 0.004514 0.004053 0.003273 0.004514 -0.003276 -0.003576 -0.003447 0.001498 0.004037 0.004738 0.002045 0.002165 0.003989 -0.001380 -0.002417 -0.003289 -0.003467 0.003446 -0.003817 -0.001903 0.003257 -0.002118 0.004778 -0.002299 0.000331 -0.002174 0.003873 -0.001207 -0.000576 0.000133 0.004531 -0.004606 0.002241 0.004033 -0.004565 0.000803 -0.001639 0.004118 0.000907 0.001937 -0.000379 0.001947 -0.001937 -0.004959 0.000496 -0.001367 0.000276 0.004347 -0.000396 -0.002692 -0.000857 0.004002 0.004514 0.003695 0.004488 -0.002660
sent_5 -0.003330 -0.001746 -0.001324 -0.002013 0.001484 -0.000439 0.003808 -0.003675 0.001315 -0.002171 0.000213 -0.000947 -0.003164 -0.002043 0.001331 -0.000540 -0.000153 -0.004046 0.000652 0.004497 0.004025 -0.001539 0.004836 0.004314 0.000878 -0.005887 -0.004998 -0.005298 -0.000981 -0.000771 0.004808 -0.002484 0.004373 0.001983 0.004141 0.001328 0.001450 0.000258 -0.005983 -0.000793 -0.000171 0.001530 -0.001638 -0.000810 -0.002808 -0.004692 0.003654 -0.001062 0.005895 -0.003164 -0.002371 0.001094 0.001841 -0.001278 -0.003966 -0.001823 0.000274 0.000221 0.002527 -0.003915 -0.002831 0.001411 0.002254 -0.002988 0.002744 0.001324 -0.001169 0.004419 0.000763 -0.005520 -0.001677 0.004026 0.003660 0.001060 0.002560 0.001034 -0.002180 0.000844 0.002297 0.000601 0.003585 -0.001837 0.003856 -0.002742 0.003340 0.001517 0.003492 -0.002107 -0.003564 0.004673 -0.001477 0.002907 0.003560 -0.003414 -0.000889 -0.004411 -0.002617 -0.000540 -0.002981 -0.004229
sent_6 0.002271 0.003751 -0.003754 -0.002139 -0.002654 0.004502 0.002399 0.000159 -0.002768 0.003708 -0.000969 0.004746 0.002846 0.000230 -0.004130 0.004198 -0.003561 -0.003702 -0.000712 -0.001359 -0.002794 0.000844 -0.002899 0.001661 0.002716 -0.003880 0.000227 0.001811 0.000822 0.001675 -0.001884 0.002868 0.004469 -0.001170 0.003747 -0.005012 0.003839 -0.002861 -0.001708 -0.001601 -0.003872 0.003287 -0.002287 0.000298 0.000135 -0.003691 -0.002082 -0.003588 0.000909 -0.002843 -0.001885 -0.003262 0.002657 -0.004402 0.005007 -0.003293 0.000651 -0.005483 0.003017 -0.003412 0.000945 0.003076 -0.004068 0.001635 -0.002478 0.002068 0.002049 -0.003134 0.003198 -0.005510 0.002638 0.000853 -0.000789 0.002415 0.002642 0.004903 -0.002121 -0.004990 0.004790 0.004829 0.002500 0.001336 0.002943 0.002671 -0.000917 0.004351 0.002852 0.000934 -0.001684 0.003199 -0.004891 0.003321 0.004464 -0.002880 -0.002599 -0.003663 -0.001479 0.004638 0.001340 -0.002165
sent_7 -0.003026 -0.001978 0.001409 -0.001548 -0.000036 -0.000412 0.003468 -0.000964 -0.001768 0.001972 -0.002880 0.000207 -0.001467 0.001473 0.003963 -0.000985 0.002792 -0.001166 0.001524 -0.003761 -0.000253 0.003216 0.001056 0.002479 0.000153 -0.000506 0.002710 -0.004746 0.000236 0.004901 0.000520 -0.002776 0.003270 -0.002847 0.002299 0.000349 0.004326 0.001614 0.002990 -0.004639 0.005008 -0.004625 -0.002526 0.004322 -0.004875 0.003374 0.003997 -0.000373 -0.001881 0.002542 -0.000199 -0.003449 0.004080 0.003551 0.000033 0.003463 -0.000580 0.001364 -0.000766 0.000139 -0.002489 0.004888 -0.002261 -0.003292 -0.003052 -0.005068 0.002138 0.001047 0.002691 -0.000334 0.002161 0.002053 0.002977 -0.001006 0.001523 -0.003348 -0.001714 -0.003214 -0.000459 -0.001751 -0.001008 0.005258 -0.001190 0.004687 0.001538 -0.000362 0.003795 0.000842 -0.002849 0.003516 -0.000880 -0.001158 -0.001485 0.001540 -0.001520 0.002521 -0.001557 0.000722 0.000451 0.003423
sent_8 0.004745 -0.002145 0.001164 0.004699 0.000352 0.004224 -0.001485 0.000277 0.000835 -0.001977 -0.005212 -0.000040 0.005565 -0.000625 0.002651 -0.004123 -0.002031 -0.004918 0.001993 0.001488 0.002974 -0.004746 0.002173 -0.002343 -0.000545 -0.002854 -0.002681 -0.005496 0.000321 0.003001 0.001495 0.002029 -0.003580 -0.004115 0.001144 0.003182 -0.002949 0.000066 -0.001997 0.000856 -0.003309 -0.002583 -0.004260 0.002908 0.003338 -0.000514 0.002297 -0.002698 0.001345 -0.002840 0.002910 0.002680 0.000940 -0.004833 -0.000206 0.004416 0.004569 0.000039 -0.003146 0.001201 0.002288 0.000658 -0.001676 0.002802 0.004137 0.001728 0.000459 0.004697 -0.004645 0.003691 -0.005873 -0.002389 -0.000382 -0.003964 0.001775 -0.004311 -0.002051 -0.003956 0.002846 0.004139 -0.000979 -0.001443 0.003747 -0.001817 0.003549 0.002405 0.000838 -0.005260 0.000460 0.000533 -0.002575 0.000168 -0.000159 -0.001241 0.006659 -0.002937 0.003738 0.001381 0.005408 -0.001636
sent_9 -0.002497 0.004194 -0.004351 0.004856 0.000511 -0.001077 0.005007 -0.004305 -0.000031 -0.004663 0.000531 -0.003307 0.001549 0.004742 0.003574 -0.000599 0.001946 0.002724 0.000078 0.000183 -0.003275 -0.001688 -0.003189 0.002509 -0.000320 -0.000761 0.003862 0.000006 -0.000900 -0.002251 -0.004265 -0.000654 -0.004738 -0.002166 0.000179 0.004611 -0.003770 0.001652 -0.000278 0.002757 -0.003698 -0.004344 -0.001168 0.003250 -0.002775 0.002576 -0.001835 -0.002761 -0.004667 -0.000912 -0.001240 0.001868 -0.004319 -0.003581 -0.004886 -0.003577 0.001359 -0.001099 -0.001965 0.000325 0.004983 0.003538 0.001743 0.004417 -0.004660 -0.004358 -0.000470 -0.001507 0.004076 0.000019 0.000155 0.004069 -0.000478 0.003500 -0.002153 -0.002260 -0.001889 0.000239 -0.002838 0.001906 -0.003409 -0.003863 0.003725 -0.002719 -0.000854 0.001014 0.000279 -0.004267 0.003630 0.004836 0.003324 -0.002092 0.000322 -0.001440 0.000817 0.004508 -0.001874 0.001848 -0.001430 0.002668
sent_10 -0.001596 0.003756 0.002496 0.002481 -0.000181 -0.002910 -0.004627 -0.001804 -0.004496 0.001945 0.001777 -0.000534 0.002603 0.000335 -0.004411 -0.003727 -0.003015 -0.001793 -0.004501 0.001144 0.000059 0.001219 -0.000820 0.003248 -0.000415 -0.004768 0.003569 0.001629 0.003133 0.004566 -0.004359 -0.002692 -0.004458 -0.000825 0.003539 -0.004116 -0.000434 -0.003631 0.002826 0.003450 -0.004554 -0.000118 -0.002648 0.004407 0.004324 0.001213 0.004628 -0.001600 0.004012 -0.000807 -0.002487 0.004306 0.001848 -0.004357 0.003755 0.001930 0.001197 0.002408 -0.002319 0.001162 0.003185 -0.004594 -0.003570 0.003390 0.001329 0.000371 -0.002403 -0.001907 0.003756 -0.000846 -0.004428 0.003909 -0.002950 0.003345 0.003653 -0.000225 0.001042 0.000344 0.001337 0.003537 -0.002298 0.003747 0.000730 -0.003860 -0.002821 0.000878 -0.002606 -0.003779 -0.003360 0.003291 0.000854 0.004607 -0.001610 0.000803 0.000992 0.001199 -0.004348 0.002414 0.004425 0.000321
sent_11 -0.003099 0.002456 -0.005000 -0.001833 0.004176 0.000842 0.003529 0.001058 0.003316 0.003785 -0.001748 -0.003774 0.002120 -0.000624 -0.003659 0.000939 -0.004611 -0.002970 0.002885 -0.004845 -0.002064 -0.004629 0.004888 0.000763 -0.002066 0.004400 0.000101 -0.000359 0.000902 -0.002395 -0.001952 -0.001353 -0.002564 0.000891 0.001870 -0.004234 0.004660 0.002524 0.003152 0.002478 -0.004218 -0.000116 -0.000472 0.001683 -0.000575 0.002078 0.001721 0.001898 0.001098 -0.003502 0.002662 0.002712 0.004089 -0.002618 -0.003220 -0.001124 -0.001739 0.003260 0.001157 0.002664 -0.000800 -0.004096 -0.003773 -0.001407 -0.003074 0.003251 0.001068 0.001896 -0.000007 -0.004109 -0.002549 -0.000421 -0.003036 -0.004694 0.002220 0.002222 -0.001691 0.003475 -0.000749 0.003537 0.001522 0.000711 -0.003059 0.000322 0.003878 -0.002116 0.003685 0.004090 -0.001645 0.001691 0.003928 -0.004289 0.003736 -0.003111 0.003365 0.001774 -0.001577 -0.003576 0.001253 0.003473
sent_12 0.003731 0.001336 0.004645 0.000732 -0.002780 -0.000521 -0.001640 0.004783 -0.001496 0.005104 0.000203 -0.002717 -0.004082 -0.001200 -0.003582 0.000875 -0.000905 0.004268 0.004344 -0.003577 -0.000891 -0.000655 0.000445 0.002558 0.000058 -0.001027 -0.003071 0.004022 -0.005312 0.003787 -0.002836 0.001956 -0.001534 0.004622 -0.003543 -0.003386 0.003941 0.000944 -0.002101 -0.004781 -0.002664 -0.003885 -0.003541 0.003934 0.003596 0.002202 -0.000139 0.003294 0.000234 -0.001960 -0.002130 0.004295 -0.001077 -0.000252 -0.002023 0.003625 -0.000859 -0.002191 0.002531 -0.003115 -0.003813 0.003330 0.002420 0.001122 -0.002367 0.001066 0.001684 -0.001477 -0.004351 0.003311 -0.000791 0.002640 -0.002481 0.001050 -0.000785 -0.001453 -0.003705 -0.002544 -0.003894 -0.001520 0.002333 0.001495 0.002055 -0.004870 0.001733 0.000552 -0.002607 -0.003464 -0.003355 0.003578 0.004387 0.004491 -0.001658 0.002497 0.000738 0.002956 0.000260 0.001198 0.003078 -0.004061
sent_13 0.000469 -0.001155 0.001140 0.004676 -0.001025 -0.000970 0.002899 0.001384 -0.001334 0.001970 -0.001055 -0.003534 -0.000311 -0.001540 -0.002950 0.004091 0.001858 0.000837 0.002487 0.000316 0.002190 0.004052 0.003719 -0.003270 -0.002271 -0.004542 0.004607 -0.002782 0.001433 -0.003875 -0.002832 0.000134 -0.003884 -0.001202 0.000640 -0.001848 0.000817 0.000346 -0.001231 0.002057 0.001914 0.001636 0.000377 -0.001392 0.001143 0.004313 0.001161 0.004981 -0.000419 0.002271 -0.004754 0.002845 0.000187 -0.004984 -0.002133 0.000319 0.002590 -0.004670 0.000562 0.002874 0.001503 0.004464 -0.004394 -0.001984 0.004161 0.002502 0.001006 0.003310 0.003869 0.004552 0.004822 -0.003549 -0.004288 -0.004275 -0.004747 0.004701 -0.004032 0.003351 0.001940 0.000120 -0.001426 -0.001163 -0.002301 0.004148 0.002311 -0.004336 -0.000328 -0.002174 -0.004849 0.004076 0.002715 -0.001520 0.003012 -0.001747 -0.001707 0.004123 0.004844 0.000495 0.004654 0.003935
sent_14 0.000146 -0.001252 0.001967 -0.000452 0.001216 0.004721 0.002896 -0.001778 -0.004006 -0.003081 0.000296 -0.000883 0.002998 0.004485 -0.003102 0.003669 0.004573 0.004589 -0.004694 -0.004427 -0.004974 -0.001979 -0.004520 -0.002029 -0.001480 0.004506 -0.000172 -0.002214 0.000052 0.001334 -0.003902 0.002498 0.003426 0.003441 0.003811 -0.001062 -0.000685 -0.003907 -0.002753 0.004748 -0.002212 0.004096 0.003847 0.004002 -0.003444 0.003879 0.001302 -0.002854 -0.001565 -0.003377 -0.000615 -0.004203 -0.003373 -0.003118 0.001759 0.000632 0.003763 -0.002584 0.001291 -0.004540 0.000433 0.003684 0.004795 -0.004866 -0.002417 -0.002774 -0.004583 -0.004855 0.000028 -0.004602 -0.002183 0.001487 -0.001976 -0.002248 0.000869 -0.001108 0.002044 0.000176 0.001339 -0.001290 -0.002190 -0.003650 0.004389 0.003057 0.004410 -0.003145 0.004382 0.004274 -0.002188 -0.002161 0.000612 -0.003229 -0.000400 -0.003323 0.004531 -0.000119 0.004671 0.001322 -0.000104 0.004647
sent_15 -0.003657 0.001610 0.001295 -0.000868 -0.003995 -0.000613 0.000080 0.002671 -0.002382 -0.000633 -0.002619 0.001886 0.004916 -0.002779 0.003270 -0.002669 -0.004566 -0.003949 0.004193 0.003689 -0.001912 0.004181 0.003425 -0.000390 -0.000272 0.000999 -0.003475 -0.005038 -0.002446 -0.004784 0.001728 0.000334 -0.001872 0.002780 -0.003461 -0.002672 -0.001946 -0.002794 -0.004252 0.003816 -0.004025 0.001740 -0.004272 -0.005404 0.000392 0.004206 0.003849 -0.001387 -0.004554 0.002887 0.002776 0.003737 0.001846 0.002736 0.003739 -0.000853 0.000583 -0.000103 0.002039 0.002146 0.000683 0.003395 -0.000218 0.003371 -0.002112 -0.003337 0.004740 0.002606 -0.002000 0.000346 0.004571 -0.004013 -0.004018 0.001366 -0.002790 0.002882 0.000725 0.002171 -0.003751 -0.003463 0.001287 -0.000376 -0.003995 -0.001178 0.001787 -0.002750 0.004221 0.004416 0.004236 0.002808 -0.000882 0.002455 -0.001561 -0.002305 0.001286 0.000613 0.003914 -0.002592 0.002848 0.004364
sent_16 -0.004982 -0.000239 0.001551 0.003331 -0.003143 0.003541 -0.001408 0.003911 -0.004776 -0.004125 0.004850 0.001142 -0.000832 -0.003329 0.001496 -0.004695 -0.001930 -0.001857 0.001075 0.001535 0.003490 0.004364 0.001648 0.000781 -0.000964 0.004637 -0.003539 0.003955 -0.001968 0.000553 0.001863 -0.002670 -0.003294 0.000140 0.002934 0.001800 -0.003738 0.003952 -0.000234 0.004502 0.000532 -0.004143 -0.003031 0.003546 0.002003 0.003930 -0.001685 0.000265 0.001530 0.000852 -0.002642 -0.000706 -0.002458 0.003449 0.004973 -0.004400 0.002130 -0.001659 0.001338 -0.002438 0.001382 -0.001378 -0.002041 0.004077 0.004368 0.001128 -0.002776 0.004411 0.002532 0.002415 -0.002855 0.003293 -0.002637 0.001377 0.002065 0.002418 -0.001085 0.002606 0.004059 0.000872 -0.004037 -0.003686 -0.003984 -0.003233 -0.003747 0.002792 -0.004597 -0.002541 0.003781 0.004688 0.000968 0.004842 -0.004628 0.004461 -0.001937 0.002980 0.003115 0.003634 -0.000469 0.004323
sent_17 -0.001863 0.005269 0.001899 0.006160 -0.004587 0.002872 0.001050 -0.000261 -0.003309 -0.001400 -0.003196 -0.002559 0.004240 0.000393 -0.004823 0.002238 -0.000083 0.001823 0.000331 -0.001525 0.005803 -0.006896 0.004919 0.004857 -0.001169 -0.004076 0.000530 -0.004242 0.002686 -0.001953 -0.002067 0.005024 0.003930 -0.000250 0.004649 -0.001757 0.005287 -0.000502 -0.003134 -0.004141 0.004835 -0.001206 0.001234 0.001580 0.003154 -0.004598 0.005343 0.004977 0.001485 0.004502 -0.002897 0.002080 -0.001492 0.000613 -0.002128 0.003618 -0.004463 -0.005852 -0.004843 -0.004064 0.000141 0.005690 -0.004833 0.003127 0.000814 -0.001967 -0.003683 -0.002708 -0.005467 0.001859 0.000195 -0.000181 0.002429 -0.004562 0.005426 0.003648 0.001458 -0.001478 -0.000497 0.001437 0.004689 0.004855 0.000800 0.000028 0.004480 0.006554 0.001697 0.002135 -0.002144 0.006002 0.003902 0.001109 0.004478 0.003438 0.004788 -0.004928 0.000967 0.004862 0.004270 -0.001027
sent_18 0.004817 -0.002056 -0.001849 0.004408 0.003262 0.003895 -0.004679 -0.001509 -0.002847 -0.001759 0.002325 0.002425 -0.000254 -0.000999 0.000683 0.000264 0.000466 0.000916 -0.001116 0.002497 -0.002408 0.001239 0.004360 -0.004885 0.002351 -0.004149 0.000213 0.001256 -0.002729 0.004341 0.001151 -0.002674 0.002710 -0.003981 0.000905 -0.004378 0.001136 -0.002361 0.001491 0.002312 0.000429 0.001346 0.002812 0.002757 0.001045 -0.000374 -0.000726 0.004026 0.002188 -0.003390 0.000344 0.004195 -0.003377 0.003324 0.003217 -0.000336 -0.004563 -0.003765 0.004375 -0.004480 -0.001070 0.001338 -0.003192 0.004989 -0.003362 0.000235 0.001324 -0.002719 -0.000105 -0.000614 0.002586 0.001412 -0.000347 0.001843 -0.000409 0.000354 0.001703 -0.002868 0.002999 0.001503 0.004790 -0.002272 -0.000072 0.004022 0.000923 0.002699 -0.000702 0.001813 0.004150 -0.002632 0.003058 0.004862 -0.004507 -0.003120 -0.003607 0.002533 -0.004042 0.005153 -0.000955 0.004089
sent_19 -0.002999 -0.000427 0.003528 0.001082 -0.000308 0.000193 0.000802 -0.000687 -0.003235 -0.003780 -0.003571 -0.004368 0.000769 0.003601 -0.001474 -0.004360 -0.000777 0.000868 -0.000753 0.003022 0.004581 0.003374 0.002069 -0.000261 0.001871 -0.005085 0.004653 -0.003432 0.003933 0.003219 0.003039 -0.002196 -0.002812 -0.000820 0.003686 -0.000595 0.004441 -0.001416 0.001045 0.004904 0.001511 -0.004716 -0.000595 -0.001696 0.000373 -0.002146 -0.003598 0.001836 0.001982 0.003570 -0.003800 0.003129 0.003207 0.001364 -0.002933 -0.002415 -0.000824 0.000187 -0.000195 -0.000378 0.003585 0.003873 0.003036 0.004050 0.000801 0.004526 0.001023 0.001070 -0.001890 0.001670 -0.004682 -0.003600 -0.003656 0.001519 -0.003149 -0.001577 -0.004528 -0.002653 0.004748 0.000391 -0.003450 0.000476 0.004641 0.003627 -0.001011 -0.001784 0.002690 -0.002650 -0.002589 -0.003881 0.003666 -0.000394 0.000748 0.002294 0.003235 -0.000717 -0.003031 0.003456 -0.004485 0.004467
sent_20 0.001014 0.004038 0.001628 -0.001683 -0.002256 0.000871 0.004643 -0.002936 -0.000312 -0.001555 0.002241 0.002997 -0.000127 -0.003103 -0.004758 -0.003277 -0.002513 0.000822 0.003995 -0.003916 0.005069 0.000841 0.002997 0.005133 -0.000970 -0.000179 0.001570 -0.000432 -0.002015 -0.003782 -0.002114 0.003231 0.001415 0.002721 0.000633 -0.002750 0.001477 -0.002000 -0.005235 0.004058 -0.000916 -0.001124 0.002059 0.004942 -0.003625 -0.003503 -0.001223 -0.002302 0.000380 0.003354 0.003367 0.001527 -0.002764 -0.003349 0.002378 -0.002046 0.000219 0.002040 -0.003072 -0.003693 -0.004357 -0.003038 0.003052 -0.003271 -0.002576 -0.004787 0.001361 -0.002647 -0.001610 -0.003374 -0.001911 -0.000675 -0.000184 -0.001366 -0.003304 0.002711 -0.003839 -0.001251 -0.002252 -0.001537 0.001980 0.000603 -0.002781 -0.000635 -0.001130 0.002863 -0.002689 0.003340 0.000036 0.000742 -0.002186 -0.002923 -0.000103 0.005126 -0.002898 -0.002710 0.003179 0.002071 -0.001451 -0.002032
sent_21 -0.000480 0.001358 0.002629 0.004131 0.001857 -0.002216 0.004330 0.002763 -0.002572 -0.001885 0.003519 -0.003613 0.001930 -0.002058 0.003096 -0.001743 0.002244 -0.003437 -0.000077 0.002827 -0.000463 -0.004301 0.001935 0.002732 -0.002155 -0.001157 0.003572 0.003190 0.001718 0.001381 0.003327 0.004496 -0.004917 -0.001255 0.001135 0.002061 -0.003766 -0.001030 -0.002744 -0.000687 0.000131 0.001042 -0.000604 0.001479 0.001157 -0.000803 -0.004357 -0.002666 -0.001354 -0.003730 0.000809 0.001550 -0.000166 -0.001989 0.001665 -0.002875 -0.005121 0.001738 -0.000618 0.001525 -0.002924 -0.003862 -0.001660 0.002668 -0.003876 -0.003377 -0.000677 0.001236 0.001957 -0.004072 0.000646 -0.000940 0.001840 -0.003285 0.000695 -0.003356 -0.004870 -0.000404 -0.002953 0.002022 0.000605 0.003368 -0.000640 0.004867 0.000589 0.000801 0.002662 0.000602 -0.001693 0.000593 -0.002953 -0.000676 -0.004581 -0.000312 -0.001496 -0.000261 -0.004380 0.001186 -0.001453 0.000757
sent_22 0.002298 -0.000543 0.001603 -0.002554 0.004968 -0.002586 0.004436 -0.002838 -0.000060 0.003193 0.002189 0.002009 -0.000570 0.002560 0.004149 -0.000560 0.000235 -0.004249 -0.001104 -0.000341 0.003897 -0.003909 0.002306 0.000539 0.001022 -0.004701 -0.003461 -0.002110 -0.004908 0.001632 0.003633 0.000456 0.000421 0.001212 -0.002000 -0.001330 0.000716 0.003007 -0.003038 -0.001674 0.002301 -0.001558 -0.004489 -0.003435 -0.002978 -0.000037 0.001330 0.003775 0.003989 -0.001862 0.002483 -0.002135 -0.001349 -0.002086 -0.000864 -0.002850 -0.001821 -0.003782 0.004574 -0.000040 0.004282 0.002492 -0.000438 0.002559 0.001226 -0.001983 0.000151 0.002039 -0.001926 -0.004869 -0.002285 0.003035 0.004281 0.001278 -0.003614 0.002637 0.000244 0.002569 0.003525 0.004498 0.001557 0.003516 0.002385 0.002242 0.003602 0.004223 0.003986 -0.001038 -0.004119 0.003324 0.000482 0.000430 0.003267 -0.004670 0.003754 -0.004667 0.001921 0.000873 0.001451 -0.001279
sent_23 -0.002107 0.000153 0.003968 0.000897 0.001528 -0.000370 0.004721 0.002510 -0.001551 0.001478 0.000286 0.003875 -0.002034 -0.003968 -0.003133 -0.001203 0.003488 -0.002333 0.001358 0.001212 -0.000850 -0.004800 0.002495 -0.002005 -0.001083 -0.001298 0.001516 -0.004235 0.000508 -0.004838 0.004845 0.001178 -0.001180 -0.003598 0.002050 0.004139 -0.001880 0.002615 -0.002305 0.004559 0.001912 0.001161 0.004221 -0.002234 0.004479 0.001747 0.002804 0.000690 0.003373 0.002008 -0.003556 0.001216 -0.002267 0.004106 -0.002984 -0.001965 -0.004460 -0.000644 0.000425 0.000588 0.004135 -0.001379 -0.000626 0.003664 0.000880 0.001505 -0.002326 -0.000117 0.000987 -0.003566 -0.004832 -0.003868 -0.000195 -0.004926 0.001482 -0.004064 -0.002545 -0.000858 -0.003871 -0.002180 -0.004774 0.004896 0.001200 -0.001332 -0.004618 -0.000892 -0.000502 0.004216 -0.002197 0.001295 0.001664 -0.003082 0.000084 0.002932 -0.003826 0.000894 -0.004584 -0.004826 -0.004152 -0.000314
sent_24 0.004429 -0.000715 -0.004150 0.003919 0.000286 -0.001723 0.004807 0.004233 -0.002578 -0.002927 0.000810 0.003534 -0.001340 0.001051 -0.003404 -0.003140 0.002555 -0.003634 -0.002387 0.001799 -0.004679 -0.005239 -0.002143 -0.001551 -0.001422 0.002808 -0.004831 -0.001600 0.001273 -0.003489 0.003555 0.001638 -0.003938 -0.003030 0.002619 -0.000920 -0.000273 0.003958 -0.003909 0.004796 -0.004630 -0.004150 -0.003039 0.002960 -0.000235 0.001615 -0.003030 -0.003179 0.000404 0.002335 -0.000552 0.003843 0.001391 -0.002722 -0.002693 -0.001271 0.002639 0.004000 0.003557 -0.002467 -0.000382 0.001422 0.000286 -0.000684 -0.003753 0.001974 -0.004301 0.003681 0.003496 0.001950 -0.000447 0.002125 -0.000959 0.002900 0.003044 -0.003366 -0.001791 -0.001456 -0.001236 0.001146 -0.004598 0.001835 -0.002673 -0.000970 -0.000336 -0.001020 -0.001075 -0.003361 -0.004445 0.000964 0.001093 -0.003410 -0.002436 -0.002307 0.003743 -0.003782 0.000779 0.000845 -0.001159 -0.001578
sent_25 0.004419 0.000558 0.001322 0.000006 0.001607 0.000754 -0.003272 -0.001757 -0.000305 -0.003693 -0.001280 -0.002987 0.003453 -0.001430 -0.002638 -0.000753 0.001750 -0.004160 -0.003283 0.001924 0.002416 0.001122 0.003839 -0.003030 0.001856 0.004159 -0.003178 -0.002517 0.000626 -0.001828 0.001762 -0.004585 -0.003509 0.002308 0.004470 0.004495 0.003810 -0.003812 -0.003683 -0.004250 0.000091 0.003950 0.000355 0.002687 -0.002962 0.003725 -0.003171 -0.004523 -0.000919 0.000781 0.004624 -0.004109 -0.002318 -0.004091 -0.001316 -0.002152 0.000083 -0.001472 0.004116 0.002864 0.003924 -0.003626 0.000640 -0.002910 0.003548 -0.004885 -0.004171 -0.001322 -0.000795 -0.002186 -0.003865 -0.003560 -0.001727 0.004550 -0.002861 0.002674 -0.002522 -0.004381 -0.004984 -0.003308 -0.000390 0.002489 0.002104 -0.001462 -0.000053 0.003008 0.003390 -0.001866 -0.004917 -0.004400 0.002689 -0.002421 -0.000000 -0.003198 0.003412 -0.000046 0.000235 -0.002320 0.000203 -0.005064
sent_26 -0.002252 -0.001581 -0.002232 -0.004245 0.000217 0.002840 0.004411 -0.000012 0.001021 -0.002102 -0.003460 -0.003687 0.002233 0.002313 -0.003146 -0.000829 0.000957 -0.003726 0.002851 0.001234 0.001067 0.002163 0.004804 0.000577 0.003639 -0.000706 0.001576 0.004341 0.001667 -0.002009 0.001192 -0.001555 -0.001794 0.001151 -0.003484 -0.000094 0.004405 -0.001162 -0.003033 -0.000338 0.003378 0.003495 0.003344 -0.004911 -0.002382 0.005032 -0.003895 -0.000172 0.002824 -0.003784 0.001681 -0.000207 -0.003014 0.003817 -0.003173 0.001353 0.002460 0.000729 0.001310 -0.003753 -0.001986 0.000776 -0.000977 0.001508 0.003505 -0.003045 0.004094 -0.001157 0.004510 0.001186 0.002990 0.000115 0.000285 -0.001676 -0.003777 -0.001180 -0.002853 -0.004632 -0.002274 -0.003291 0.003709 -0.004284 -0.003233 0.002062 0.004134 -0.002646 -0.004812 0.004607 0.001871 -0.002022 -0.000328 0.000949 -0.001309 0.003726 0.002139 0.004633 -0.001509 0.004288 -0.000303 0.001418
sent_27 0.002220 0.003005 -0.001360 -0.000873 0.003194 0.001975 0.004403 0.004767 -0.002983 -0.002696 0.002283 0.002424 0.000767 0.003796 -0.002351 -0.001446 -0.000016 -0.001740 0.000425 0.001876 -0.003080 0.000301 0.004645 -0.001855 -0.004635 0.003468 0.000167 -0.004167 0.003994 -0.001092 0.004211 -0.001227 -0.004261 -0.002387 -0.001705 0.002567 -0.003210 -0.000706 0.004003 0.000287 -0.004021 -0.004577 0.002240 0.004577 0.002663 0.002766 0.001480 0.002814 -0.004865 -0.002366 0.001988 0.003428 0.001913 -0.003131 0.004357 0.003821 -0.004002 -0.002811 -0.002179 0.002581 0.003441 0.000557 -0.002838 -0.001227 -0.003701 0.004305 0.002854 0.000079 -0.000120 -0.004067 -0.001462 -0.003873 0.002721 0.000661 -0.002930 -0.002745 -0.002368 -0.001687 -0.001214 -0.002242 0.001664 -0.004864 -0.001919 0.002555 0.004206 0.002591 -0.002650 -0.002641 -0.002965 0.003492 -0.002724 0.002464 -0.002424 -0.004764 0.001947 0.002550 -0.004180 -0.001981 0.004183 -0.003346
sent_28 -0.004226 0.001028 0.004188 -0.003785 0.000167 0.001605 -0.003168 -0.004932 0.003970 -0.004497 -0.002365 0.001417 -0.002277 -0.004863 0.000635 -0.001855 -0.003608 0.004856 -0.003373 0.002162 0.003764 0.003668 -0.003230 -0.002405 -0.004907 0.004385 0.004085 0.001139 -0.003737 -0.003345 0.000627 -0.002633 -0.002026 -0.003137 -0.003210 -0.000428 0.000152 0.000032 0.005049 -0.003719 0.002349 0.003000 0.000909 -0.000434 0.003983 0.003319 -0.004587 0.004580 -0.004976 0.000915 0.000664 0.003356 -0.001013 -0.004095 0.000742 -0.004746 -0.001399 0.005071 0.003599 -0.003473 0.003006 0.003036 0.004279 -0.002941 -0.000126 0.003302 0.001655 0.000820 0.001675 -0.002669 -0.004633 0.002487 -0.001737 -0.001122 0.001200 0.001692 -0.003056 0.003401 -0.001346 0.001335 0.004665 0.000745 -0.001587 0.001182 -0.000018 -0.000638 0.002284 0.004254 -0.000290 -0.004136 0.000849 -0.002626 -0.004512 0.002876 -0.002410 0.002767 -0.000255 -0.001981 -0.001850 -0.004695
sent_29 0.000587 0.004110 -0.003926 -0.003616 0.000666 0.001461 0.002518 -0.002442 -0.005188 -0.000265 -0.002989 -0.004664 0.002430 0.005094 -0.001544 -0.002320 0.000337 0.002873 0.002811 0.001356 0.000050 0.000533 -0.002654 -0.001652 0.002866 0.003317 -0.003598 -0.002687 -0.005271 -0.000214 -0.002888 0.001790 0.002140 -0.004064 -0.003364 0.003463 -0.000522 0.000627 0.004081 0.002849 -0.001370 -0.004715 -0.000541 -0.001910 -0.004748 0.002687 -0.000259 0.001433 0.003368 0.004170 0.000579 -0.001298 -0.003954 -0.004807 -0.001935 0.001434 0.001782 -0.003702 -0.004096 -0.002025 0.001247 0.003163 -0.000306 -0.001280 0.001559 -0.002863 0.001336 0.003486 0.001237 -0.000209 -0.002659 0.004109 0.005182 0.002686 0.001155 -0.003301 -0.001739 -0.001018 -0.001726 0.000744 0.001365 -0.001509 -0.001780 -0.003939 -0.001569 0.001417 0.000385 0.004848 0.003871 0.000696 0.004939 -0.002482 0.001256 -0.000874 0.005755 0.002437 -0.002523 -0.000085 -0.002461 0.000169
sent_30 0.003120 -0.004517 -0.002746 0.005212 0.004532 0.000896 0.001447 -0.002151 0.004123 0.001684 0.001469 -0.004894 0.003884 0.002701 0.001641 0.002146 -0.003581 0.002056 -0.003869 0.001954 -0.004676 0.002261 0.000369 -0.002743 0.002239 -0.002204 0.003676 -0.003519 0.004259 0.004932 -0.001883 0.003884 0.003457 -0.000852 -0.001107 -0.002337 0.005144 -0.002586 0.003820 -0.000682 0.004231 0.003089 -0.003696 0.001144 0.002106 -0.001052 -0.004606 -0.001633 0.003641 -0.004368 -0.003978 0.002380 0.000065 -0.000112 -0.001164 0.001363 0.003349 -0.002461 0.003312 -0.001257 0.000002 0.002550 -0.002693 0.004582 0.001960 0.001050 -0.002475 0.001930 -0.002871 0.003231 -0.005263 -0.003196 0.000617 0.001831 0.000297 0.003707 0.004588 -0.000705 0.002687 0.000198 0.001856 -0.002473 -0.003798 0.004701 0.003483 -0.001651 0.000870 -0.001243 -0.003364 -0.000444 -0.001856 -0.004619 -0.001188 0.004413 0.003658 0.000439 -0.001717 -0.002330 0.004954 0.000575
sent_31 -0.002768 -0.002766 0.004469 -0.002903 -0.003824 -0.003262 0.002571 0.002103 -0.000327 0.002899 0.000321 -0.000771 -0.004058 0.003756 -0.001982 0.001184 0.004936 -0.003141 0.004616 0.001694 -0.003928 0.003025 0.004291 0.000332 0.001917 -0.004480 0.004852 -0.001598 -0.004768 0.003013 0.004844 0.002217 -0.005072 -0.004332 0.000588 -0.001502 0.003586 0.003826 0.005133 0.002137 0.003747 -0.001655 -0.003755 0.003485 -0.002158 -0.000723 0.001185 0.000908 -0.000895 -0.001235 -0.003539 0.000114 -0.002606 0.002634 0.001770 -0.004394 0.005061 0.003073 -0.002564 -0.004448 -0.000295 -0.001751 0.000710 0.001352 0.003064 -0.004713 0.002318 -0.001922 0.005001 0.003475 0.000708 0.000867 -0.003097 -0.002585 -0.003736 -0.001315 -0.003814 0.000233 0.001398 -0.004009 -0.001730 -0.004577 0.000167 0.001525 0.000970 0.002755 -0.002698 0.001124 -0.001843 -0.004509 -0.002141 -0.004423 0.004445 0.002130 -0.004200 0.003075 -0.001521 0.003870 -0.000288 0.003715
sent_32 -0.002820 -0.001401 -0.001405 -0.004145 -0.001690 0.001556 -0.000357 0.003803 -0.002213 -0.001462 -0.001755 0.000514 -0.003210 -0.003295 0.004468 -0.001192 0.000899 -0.004420 -0.003590 -0.004002 0.003024 -0.003811 0.000076 -0.003502 -0.002211 0.003937 0.001346 0.004731 0.001020 -0.004941 -0.000848 -0.004845 -0.001868 -0.000138 0.000666 -0.002567 0.000532 -0.001057 0.000156 -0.003078 -0.003451 0.002612 -0.001629 0.001400 0.000592 0.004030 0.003712 -0.000642 -0.003041 0.001310 0.001422 0.001826 0.004123 0.002870 0.001266 0.000975 -0.002817 0.001619 0.003166 0.004287 0.004090 0.000521 -0.002325 -0.001803 0.004965 0.000300 0.003231 0.000978 0.000152 -0.001505 0.000478 -0.004970 0.003745 0.000666 -0.004831 0.003154 -0.003641 -0.004654 -0.000410 0.004497 -0.004112 -0.004443 0.003733 0.003240 0.003133 -0.000488 -0.000750 -0.000986 0.000879 0.002150 0.002779 0.001502 0.000575 -0.000896 -0.001933 -0.002035 -0.002059 0.001738 0.002524 0.000972
sent_33 -0.002768 -0.002697 0.002711 0.004967 -0.004795 -0.002521 0.003099 0.002041 -0.002819 0.000673 0.000807 0.002224 -0.000151 -0.000789 -0.002204 -0.002695 -0.004181 0.001408 0.001655 0.001694 -0.004833 -0.001026 -0.003677 0.000551 0.004773 -0.000304 -0.001281 0.003018 0.004655 -0.002049 0.002924 0.005073 -0.003850 0.000309 0.003420 -0.001494 -0.000305 0.002438 -0.004225 -0.001258 0.000593 -0.002774 0.003216 0.002690 0.004767 0.000202 -0.003682 0.004550 0.003540 0.000464 0.003136 0.004074 0.002731 0.000564 0.001139 0.003428 0.001101 -0.003137 0.001863 0.000125 -0.002190 -0.004788 -0.002855 0.001984 0.003723 0.003118 -0.004065 -0.004430 0.002584 -0.002406 -0.002453 -0.004782 -0.003983 -0.003654 -0.003166 -0.000402 0.003126 0.003186 0.004093 -0.000216 0.002207 0.000273 -0.004370 -0.004234 -0.002417 0.005228 0.002008 -0.002300 0.001818 0.002031 -0.004365 -0.001257 0.002952 -0.004251 0.004105 0.004060 0.003547 -0.003611 0.000913 0.002053
sent_34 0.003907 -0.003847 0.003198 -0.002223 0.001009 0.002165 0.002873 -0.002173 0.000951 -0.001994 0.004948 0.003219 -0.000778 0.003894 0.002184 0.004206 -0.003295 -0.002206 -0.004096 -0.001927 -0.001058 0.001078 -0.000244 0.002265 -0.002266 -0.003465 -0.001310 -0.000728 -0.000841 0.004253 -0.002293 -0.001414 -0.002819 -0.001333 -0.000878 0.000540 -0.001990 -0.002341 0.002159 0.004140 -0.003645 -0.003319 -0.003824 0.001820 -0.002932 0.001016 -0.002802 0.003348 -0.001650 0.001619 -0.003599 -0.001822 -0.001975 0.001266 0.001791 0.003404 -0.003236 0.002511 0.002181 0.000570 0.001550 -0.004036 -0.003637 -0.000726 0.002132 -0.003424 -0.001108 -0.000020 0.004346 -0.004684 0.003145 0.004903 -0.002281 0.003901 -0.002027 0.003027 -0.000365 0.001029 -0.002572 0.002078 -0.003457 0.000916 0.000072 0.003393 -0.000145 0.003104 -0.000884 -0.001905 0.002624 -0.000587 -0.000010 0.000829 0.003341 0.000742 -0.000747 -0.003530 0.002013 0.003958 -0.003809 -0.000328
sent_35 0.004306 0.000967 0.000339 -0.004228 0.000672 0.001113 -0.003042 0.004212 -0.003017 0.002102 -0.002304 -0.003955 -0.002240 -0.001269 -0.000401 -0.002604 0.002099 0.002890 0.002737 0.001938 -0.002066 -0.003489 -0.003886 -0.000638 -0.004224 0.001198 0.004540 0.002288 -0.003805 -0.004841 -0.001755 0.004909 -0.002000 0.002315 0.002240 0.000761 -0.001386 -0.002694 0.004506 -0.004207 -0.002706 -0.001972 0.003689 0.001772 -0.002257 -0.003256 0.004122 0.003157 -0.004361 0.003881 0.000563 -0.000277 0.001667 -0.005016 -0.002028 -0.004276 0.001809 -0.001309 -0.000300 -0.001934 0.003633 -0.004242 -0.002514 0.001230 0.003074 0.000855 0.002062 -0.004667 -0.002282 -0.004867 -0.000181 0.005175 -0.004638 -0.000576 -0.004792 0.001433 -0.003171 0.002536 -0.003283 0.004042 -0.002895 -0.000973 -0.002485 0.003005 0.000116 0.004211 -0.003463 -0.000153 0.002387 0.005515 0.002009 -0.003183 0.003220 -0.004612 0.003064 0.002781 0.000730 -0.000176 0.004807 -0.005153
sent_36 -0.004975 -0.002593 -0.000084 0.000267 -0.001279 -0.002177 -0.003013 0.003023 -0.001671 -0.000137 0.003233 0.001062 -0.001071 -0.003279 -0.000939 -0.000050 0.004918 -0.002003 -0.003375 -0.002703 -0.003113 -0.003977 -0.001488 -0.002212 0.003834 0.003008 -0.003769 0.003729 -0.003803 0.002037 0.000682 -0.004276 0.004005 0.003862 0.003228 -0.001206 -0.002926 0.004900 0.003313 -0.004573 -0.001427 0.003291 0.000480 -0.002617 0.002896 -0.002336 -0.005221 -0.002825 0.004771 0.001634 -0.002713 0.001745 0.001897 0.001484 -0.004308 -0.002625 0.003767 0.002558 -0.003318 -0.001954 0.000574 0.003107 -0.002848 -0.004192 -0.001241 0.004216 -0.002361 -0.003971 -0.004302 -0.001423 -0.004439 0.000828 0.001678 -0.000273 0.002303 0.000040 0.002027 -0.002591 0.002339 -0.000183 0.001973 -0.000780 -0.000108 -0.004584 -0.000216 -0.003913 -0.003663 -0.000658 0.000917 -0.001833 -0.003385 0.002306 0.004550 0.002308 -0.004471 0.003580 -0.004419 -0.000824 0.004118 -0.002383
sent_37 -0.003843 0.002343 0.003852 -0.002132 -0.002475 -0.003604 0.004776 0.000708 0.004089 -0.001889 -0.004160 -0.000553 -0.003313 0.000189 0.000737 -0.001849 -0.001929 -0.004646 -0.000898 -0.001611 0.000758 0.004084 -0.000406 -0.004268 0.004215 0.003498 -0.001095 -0.001305 0.004549 -0.001591 0.001298 0.004462 -0.004856 -0.001635 -0.003218 0.004548 0.000053 -0.004430 0.002792 0.001847 0.001251 0.004918 0.003962 0.002213 -0.002920 -0.003390 -0.003221 -0.003281 0.000366 0.001698 0.000467 -0.004786 -0.001258 0.004644 0.001831 -0.001543 0.001965 -0.001897 -0.004174 0.000608 -0.002008 -0.000543 0.004256 0.001030 0.002205 -0.003765 -0.000097 -0.000873 0.001934 -0.002107 -0.000798 0.004845 -0.003872 -0.002726 -0.002908 0.002030 0.002095 0.003241 -0.001319 0.003344 0.001720 0.001705 0.002889 0.001324 -0.000963 -0.005385 0.000869 0.000536 0.001206 -0.002184 0.000498 -0.003580 0.001484 -0.004563 0.003296 -0.002581 -0.002143 0.003305 0.003550 0.003256
sent_38 -0.001637 0.003985 0.002620 0.001488 0.004155 0.002745 -0.000666 -0.001839 -0.000912 -0.004286 -0.001371 -0.001375 0.003641 0.003960 0.004800 -0.001732 0.001940 0.001187 -0.002585 0.003708 -0.002910 0.002380 -0.003722 -0.004044 0.002206 0.000285 -0.000681 0.002797 -0.001464 0.003536 0.004682 0.004746 -0.002338 -0.000908 0.002179 0.004071 0.001953 0.002720 0.003877 -0.001302 0.000396 0.000343 0.001355 0.003731 0.000961 0.004815 0.002290 -0.000862 0.000830 0.004106 0.001205 0.002024 0.001638 -0.001723 -0.003027 -0.001014 -0.003332 0.003274 0.002166 -0.000798 -0.003088 0.003734 0.001407 0.004976 -0.003817 -0.002526 -0.004096 0.002592 -0.003313 0.003723 -0.000144 0.000250 -0.004526 0.001184 -0.002792 -0.002896 0.003978 0.004044 -0.004892 0.003476 0.003905 0.000131 0.001654 0.002643 0.001813 -0.000403 0.000778 0.000609 0.003390 -0.002566 0.002485 0.003076 0.003085 0.002869 0.003364 -0.000851 0.001279 0.002412 0.002764 0.004517
sent_39 0.004957 0.000714 0.000047 0.003845 -0.003000 0.003184 -0.003221 0.001137 0.000597 -0.000727 0.003427 0.000395 0.000294 -0.000980 -0.004554 -0.001634 -0.004158 0.000639 0.001637 0.002606 0.001560 -0.003554 0.002968 0.000626 -0.004046 -0.005049 -0.002193 0.001647 0.004193 0.004908 0.002707 -0.001778 0.001306 -0.002726 0.002736 -0.003475 0.002801 0.003427 -0.000156 -0.004407 -0.000643 0.003065 -0.003321 -0.004104 0.002787 0.000530 -0.004267 0.004948 0.000841 0.000861 0.002924 0.004339 -0.004491 -0.001449 -0.002815 0.000087 -0.004249 -0.004553 -0.002175 0.003467 0.004582 0.002917 -0.005225 0.002660 -0.004873 -0.003435 -0.005072 -0.003634 0.001301 0.002197 -0.001618 0.002404 0.003464 -0.004036 -0.003720 -0.001441 -0.001130 -0.002688 0.002472 -0.001725 0.003203 0.004264 0.000201 -0.000781 -0.003735 -0.001859 0.003813 -0.002575 0.001214 0.000158 -0.003862 0.004255 -0.004543 0.002125 0.005017 0.001922 -0.001624 -0.003828 0.001151 0.002272
sent_40 -0.001526 0.001780 0.000410 -0.004918 0.004478 -0.001587 -0.001004 0.003246 -0.000266 -0.000259 0.001530 -0.002886 0.000285 0.001885 0.000327 0.001995 0.000795 0.003229 0.003713 -0.004066 -0.002463 -0.004417 -0.002683 0.002422 -0.004169 -0.003611 0.002731 -0.000490 -0.002198 0.001446 0.003861 -0.004820 0.001854 0.001859 0.003698 -0.003398 0.002329 -0.004088 -0.004527 0.002061 -0.004941 -0.004554 -0.004853 -0.000621 0.002428 0.004998 -0.002701 0.002986 0.002987 0.003613 -0.001938 -0.003486 0.003164 0.000528 -0.000797 -0.004780 -0.005042 -0.001720 -0.002090 -0.000184 0.004252 -0.000964 -0.002213 0.003435 -0.002206 0.004027 0.003767 0.001356 0.002810 -0.003893 0.001186 -0.001584 -0.000180 -0.002471 0.003925 -0.000699 -0.000256 0.002560 -0.003827 0.000309 0.003239 0.002056 -0.001919 0.002265 0.004327 0.003997 0.002551 -0.002228 -0.001435 0.000695 -0.001143 -0.000372 0.003062 -0.004234 0.004656 0.001958 0.003574 0.002765 -0.000735 0.004499
