39 100
sent_0 -0.000685 0.002284 -0.004983 -0.001903 -0.003379 -0.004073 -0.003048 -0.001667 -0.001094 0.000452 -0.000827 0.001972 -0.002827 0.003925 -0.004644 0.001614 -0.000828 0.000426 -0.003640 -0.003043 0.003093 0.004387 -0.001929 0.001874 0.003786 0.003793 -0.004329 -0.004692 -0.003434 0.003874 -0.003950 -0.000732 0.004501 0.000246 0.001985 -0.001832 0.001795 0.003444 -0.004920 0.002600 0.004909 0.002366 -0.002401 0.002741 -0.003943 -0.000447 0.004177 -0.001952 -0.001994 -0.003825 -0.004858 0.001836 -0.002967 -0.002457 -0.000096 -0.004548 0.000811 -0.003712 0.000955 0.002027 -0.003698 -0.000739 0.001875 -0.000633 -0.004343 0.000279 0.001607 0.000225 0.004412 0.000721 0.003854 -0.003562 -0.003537 0.003093 -0.001013 -0.003341 0.004329 -0.001406 0.002621 0.002553 0.003789 0.001378 0.002703 -0.001542 -0.002253 0.004226 -0.000649 0.004525 0.001550 0.001405 -0.003844 0.004562 -0.000370 0.000603 -0.000674 -0.002788 0.004191 0.000804 -0.004794 0.001142
sent_1 -0.001763 0.000493 0.003624 -0.001551 0.004385 0.000873 -0.004532 0.003987 0.001961 0.005286 -0.003289 -0.003570 0.004380 0.002294 -0.004274 0.002571 0.002425 0.003950 0.001989 -0.003872 -0.004656 -0.005011 -0.004816 -0.002393 0.003631 0.000173 0.000420 0.003278 -0.003852 -0.002181 0.000846 0.004596 0.000515 -0.004839 0.003065 -0.002716 0.003078 -0.000915 0.003510 0.002593 0.000611 -0.003673 -0.004766 -0.004214 -0.004660 -0.003802 -0.002552 0.002292 0.000742 -0.005008 -0.004489 0.004704 0.000739 -0.003251 -0.002639 0.002127 -0.002979 0.000634 0.004794 0.003728 -0.002163 0.000031 0.001010 0.003436 -0.003288 -0.004891 -0.004274 0.000027 0.001336 0.000332 -0.001858 0.004995 0.000897 -0.001074 0.000478 0.002633 0.001758 -0.001937 -0.004177 -0.000747 0.001297 -0.002550 0.002689 -0.004306 -0.002353 0.003342 -0.002864 0.001302 -0.000008 0.004648 -0.002351 -0.004302 0.002792 0.002335 0.004300 0.004049 -0.004699 -0.002763 0.001352 0.004438
sent_2 0.004510 0.000567 0.004136 0.001313 -0.001080 -0.000161 0.000991 0.000483 0.004208 0.004209 -0.001015 0.004680 -0.003269 -0.003758 -0.003652 -0.000008 -0.004831 0.004388 0.003271 -0.004824 -0.003209 -0.001591 -0.003647 0.003095 -0.001504 0.004372 0.000740 0.003793 0.003369 0.004122 -0.000359 0.000429 0.003015 -0.002088 -0.000082 0.000867 -0.004772 0.000879 -0.000695 0.003109 -0.001850 0.003938 0.000723 -0.003156 0.002823 0.001101 -0.004438 -0.000813 0.001816 0.004095 -0.004953 0.004794 -0.001173 0.004731 0.001154 0.003223 0.000738 0.001321 -0.002061 0.000849 0.002372 0.003494 0.002562 0.001940 0.003588 -0.001781 0.001788 -0.000474 -0.001152 -0.000988 -0.000958 -0.001835 0.001181 -0.000637 0.004696 0.001773 -0.003002 -0.000725 -0.001537 0.002975 0.003858 0.004063 0.001591 -0.002258 -0.002487 0.003558 0.000286 0.003065 0.000716 0.002284 0.000104 0.002789 0.000626 -0.000368 -0.001623 -0.004328 -0.001212 -0.004170 0.004774 -0.003168
sent_3 0.003382 0.004274 0.002079 0.000993 -0.003103 -0.000236 -0.001338 -0.003049 0.000339 -0.001533 0.003863 0.004361 -0.001906 -0.003441 -0.003306 -0.000385 0.002177 -0.003446 -0.002526 0.003197 -0.000252 0.000232 -0.002438 -0.003785 0.000368 -0.001007 -0.003954 0.000669 -0.000002 0.002079 -0.003385 0.002797 -0.002712 -0.000155 0.003518 -0.005239 -0.001222 0.003896 0.003013 0.000640 0.004041 0.003862 0.002469 0.003418 -0.003979 0.001467 0.002653 0.001664 0.003537 -0.004980 0.002281 0.002814 -0.002445 -0.002719 0.001351 -0.001684 0.002782 -0.001203 0.002985 0.004748 -0.001589 -0.003057 0.003521 0.001204 0.004849 0.000967 0.004871 0.000571 0.000088 -0.004152 -0.001974 -0.004545 -0.003247 0.002373 -0.004415 -0.001305 0.003686 0.001929 0.002237 -0.002169 -0.000357 0.001736 0.005454 -0.002903 -0.002288 -0.001172 0.002775 -0.000516 -0.004932 0.000965 -0.002807 0.003378 -0.001617 -0.004905 0.001716 0.002847 -0.000897 0.003057 0.000643 0.000493
sent_4 0.004740 0.003172 -0.004617 0.002381 -0.000144 0.004441 -0.002525 -0.002483 -0.004389 -0.000648 -0.003923 0.001346 0.003286 0.002178 0.002759 -0.001697 0.003378 -0.000875 0.003182 0.001186 -0.003379 -0.004731 -0.004678 -0.004141 -0.000506 -0.004183 -0.004832 0.002338 -0.001191 0.002551 -0.000449 -0.000413 -0.000341 -0.000293 0.003073 -0.000915 0.003925 -0.004619 0.002362 -0.003626 0.001010 -0.005059 0.000066 -0.005003 0.004725 0.004156 0.003187 0.004253 -0.003380 -0.003461 -0.003204 0.001352 0.003885 0.004637 0.002064 0.002313 0.004094 -0.001273 -0.002562 -0.003426 -0.003357 0.003390 -0.003767 -0.002026 0.003263 -0.002084 0.004594 -0.002295 0.000239 -0.001989 0.003863 -0.001070 -0.000507 0.000058 0.004550 -0.004620 0.002107 0.004027 -0.004642 0.000727 -0.001714 0.003826 0.000743 0.001874 -0.000190 0.001706 -0.001995 -0.005091 0.000629 -0.001461 0.000367 0.004260 -0.000550 -0.002716 -0.000914 0.003968 0.004600 0.003579 0.004585 -0.002824
sent_5 -0.004150 -0.002795 -0.001927 -0.003357 0.001070 -0.000909 0.003149 -0.003134 0.002103 -0.002607 0.000791 -0.001515 -0.004521 -0.002743 0.001701 0.000008 0.000205 -0.003232 0.000705 0.005002 0.003083 0.001095 0.004692 0.003969 0.000951 -0.004569 -0.004033 -0.004258 -0.000457 -0.001285 0.004746 -0.003388 0.004711 0.002724 0.003155 0.001365 0.001636 -0.000233 -0.004791 -0.001497 -0.000110 0.002369 -0.000248 -0.000452 -0.003676 -0.004858 0.002491 -0.001873 0.004768 -0.002804 -0.001556 0.000151 0.002592 -0.000331 -0.003739 -0.001913 0.000097 0.001840 0.002723 -0.003639 -0.004837 0.000097 0.003168 -0.005005 0.001711 0.001921 -0.000446 0.004160 0.001522 -0.004936 -0.000067 0.003561 0.003277 0.001540 0.001666 0.000767 -0.002261 0.000644 0.001694 -0.001573 0.003512 -0.003146 0.002401 -0.002082 0.002680 -0.000883 0.003052 -0.001463 -0.002815 0.002544 -0.001966 0.002289 0.002397 -0.002805 -0.002982 -0.002921 -0.003594 -0.001313 -0.004828 -0.003896
sent_6 0.001599 0.002910 -0.004517 -0.003036 -0.002903 0.003973 0.002108 0.000510 -0.001727 0.003373 -0.000524 0.004185 0.001796 -0.000196 -0.003609 0.004920 -0.003364 -0.002864 -0.000718 -0.000907 -0.003816 0.002741 -0.003397 0.001342 0.002555 -0.002598 0.001144 0.002794 0.001473 0.000834 -0.002127 0.002069 0.004423 -0.000584 0.002614 -0.004379 0.003295 -0.003093 -0.000778 -0.002050 -0.004251 0.004224 -0.001116 0.000092 -0.000248 -0.003560 -0.003210 -0.004379 -0.000186 -0.002397 -0.001395 -0.004162 0.003042 -0.003828 0.004851 -0.003441 0.000855 -0.004292 0.002940 -0.002907 0.000126 0.002174 -0.003335 0.000133 -0.002913 0.002723 0.002438 -0.003257 0.003964 -0.004847 0.003954 0.000509 -0.001070 0.002799 0.001966 0.004886 -0.002191 -0.004738 0.004248 0.003361 0.002157 -0.000047 0.001869 0.002908 -0.001473 0.002267 0.002448 0.001162 -0.000850 0.001640 -0.005071 0.002631 0.003930 -0.002701 -0.004180 -0.002509 -0.002049 0.003583 0.000131 -0.002108
sent_7 -0.003629 -0.001705 0.001074 -0.001515 -0.000225 -0.000702 0.003586 -0.001004 -0.001727 0.001981 -0.002942 -0.000349 -0.001570 0.001656 0.003634 -0.000529 0.002746 -0.000540 0.001483 -0.003893 -0.000445 0.003493 0.001076 0.002926 0.000052 -0.000412 0.003389 -0.004576 0.000669 0.004470 0.000103 -0.002973 0.003442 -0.002630 0.002269 0.000327 0.004621 0.001359 0.003126 -0.004747 0.004953 -0.004445 -0.002145 0.004176 -0.004795 0.003267 0.003916 -0.000286 -0.002240 0.003029 -0.000625 -0.003407 0.004187 0.003716 -0.000303 0.003432 -0.000905 0.001423 -0.001078 0.000059 -0.002545 0.005043 -0.002390 -0.003514 -0.003469 -0.005064 0.001971 0.000639 0.003005 -0.000171 0.002742 0.002159 0.002900 -0.000956 0.001687 -0.002994 -0.001748 -0.003040 -0.000820 -0.001936 -0.000857 0.005215 -0.001516 0.004791 0.001513 -0.000653 0.003740 0.001112 -0.002726 0.003562 -0.000409 -0.001333 -0.001207 0.001771 -0.001880 0.002723 -0.001907 0.000566 0.000252 0.003552
sent_8 0.004180 -0.002606 0.001115 0.004520 -0.000419 0.004458 -0.002003 0.000867 0.001347 -0.002499 -0.005160 -0.000606 0.005019 -0.001275 0.002503 -0.003533 -0.001800 -0.003936 0.002186 0.001744 0.002367 -0.003553 0.002092 -0.002502 -0.000722 -0.001931 -0.001902 -0.004905 0.001046 0.002375 0.001155 0.001881 -0.003349 -0.003779 0.000692 0.003530 -0.003003 -0.000264 -0.001261 0.000284 -0.003353 -0.001985 -0.003026 0.003337 0.003365 -0.000741 0.001661 -0.003135 0.000607 -0.002233 0.003186 0.002229 0.001104 -0.004124 -0.000303 0.004886 0.004464 0.000734 -0.003539 0.001183 0.001327 0.000241 -0.001172 0.001863 0.003829 0.002225 0.000547 0.004306 -0.004695 0.004586 -0.005118 -0.002825 -0.000674 -0.004123 0.001673 -0.004385 -0.002115 -0.004355 0.002287 0.002616 -0.001054 -0.002448 0.003067 -0.001833 0.003246 0.001001 0.000457 -0.004889 0.001090 -0.000551 -0.002518 -0.000279 -0.000697 -0.000489 0.005668 -0.002007 0.003136 0.000973 0.004654 -0.001541
sent_9 -0.003144 0.004229 -0.005211 0.004280 0.000622 -0.001951 0.005375 -0.004663 0.000845 -0.004604 0.000908 -0.003665 0.001001 0.004995 0.003850 0.000213 0.002005 0.003254 -0.000274 0.000375 -0.003954 -0.000989 -0.003983 0.002522 -0.000517 -0.000096 0.004520 0.000631 -0.000328 -0.003187 -0.004743 -0.001193 -0.004947 -0.001731 -0.000490 0.005134 -0.004425 0.001786 0.000223 0.002748 -0.003938 -0.003471 -0.000547 0.002230 -0.003089 0.002871 -0.002400 -0.002993 -0.005277 -0.000576 -0.001408 0.001271 -0.004289 -0.003596 -0.005408 -0.004190 0.001641 -0.000758 -0.002055 0.001095 0.005508 0.003246 0.002091 0.003770 -0.004525 -0.004064 -0.000387 -0.001625 0.004996 -0.000066 0.001032 0.003982 -0.000542 0.003979 -0.002626 -0.001718 -0.001643 0.001289 -0.003096 0.001648 -0.003751 -0.004452 0.003403 -0.002735 -0.001259 -0.000037 0.000323 -0.004193 0.003913 0.004481 0.003481 -0.002614 0.000878 -0.001976 0.000164 0.004927 -0.002049 0.000900 -0.001885 0.002635
sent_10 -0.001745 0.003922 0.002494 0.002617 -0.000289 -0.002882 -0.004603 -0.001808 -0.004663 0.001923 0.001709 -0.000703 0.002692 0.000408 -0.004584 -0.003650 -0.003042 -0.001617 -0.004489 0.001057 0.000105 0.001172 -0.000710 0.003454 -0.000441 -0.004861 0.003721 0.001597 0.003207 0.004530 -0.004490 -0.002659 -0.004356 -0.000767 0.003647 -0.004206 -0.000236 -0.003773 0.002750 0.003417 -0.004541 -0.000162 -0.002597 0.004474 0.004429 0.001148 0.004720 -0.001508 0.003957 -0.000672 -0.002664 0.004403 0.001839 -0.004312 0.003716 0.001981 0.001037 0.002298 -0.002448 0.000981 0.003145 -0.004436 -0.003690 0.003439 0.001170 0.000290 -0.002504 -0.002087 0.003732 -0.000812 -0.004328 0.003980 -0.002969 0.003296 0.003805 -0.000128 0.001017 0.000308 0.001240 0.003551 -0.002181 0.003839 0.000688 -0.003819 -0.002741 0.000975 -0.002608 -0.003686 -0.003360 0.003421 0.001044 0.004655 -0.001544 0.000942 0.000988 0.001182 -0.004400 0.002536 0.004462 0.000373
sent_11 -0.003074 0.002529 -0.004927 -0.001717 0.004176 0.000884 0.003552 0.001047 0.003226 0.003795 -0.001790 -0.003770 0.002213 -0.000597 -0.003733 0.000898 -0.004639 -0.002998 0.002883 -0.004879 -0.001967 -0.004786 0.004975 0.000820 -0.002066 0.004289 0.000071 -0.000453 0.000879 -0.002359 -0.001947 -0.001283 -0.002556 0.000845 0.001958 -0.004281 0.004711 0.002531 0.003062 0.002516 -0.004199 -0.000183 -0.000543 0.001725 -0.000513 0.002043 0.001816 0.001971 0.001186 -0.003490 0.002608 0.002810 0.004041 -0.002662 -0.003233 -0.001089 -0.001794 0.003155 0.001135 0.002600 -0.000723 -0.004006 -0.003850 -0.001266 -0.003062 0.003207 0.000996 0.001888 -0.000089 -0.004118 -0.002649 -0.000384 -0.003014 -0.004745 0.002294 0.002249 -0.001696 0.003435 -0.000716 0.003647 0.001571 0.000810 -0.002993 0.000295 0.003944 -0.001950 0.003709 0.004087 -0.001702 0.001831 0.003992 -0.004243 0.003786 -0.003092 0.003498 0.001671 -0.001557 -0.003486 0.001354 0.003478
sent_12 0.003542 0.002223 0.004799 0.001517 -0.002666 -0.000686 -0.001136 0.004370 -0.001906 0.005429 -0.000179 -0.002977 -0.003478 -0.000554 -0.004209 0.001014 -0.001086 0.004442 0.004169 -0.004034 -0.000362 -0.001942 0.000690 0.003271 -0.000024 -0.001828 -0.002863 0.003470 -0.005153 0.003714 -0.003154 0.002288 -0.001454 0.004343 -0.002933 -0.003560 0.004330 0.001077 -0.002577 -0.004561 -0.002458 -0.004253 -0.003952 0.003603 0.004024 0.002043 0.000537 0.004046 0.000688 -0.001560 -0.003033 0.004928 -0.001398 -0.000584 -0.002604 0.003688 -0.001313 -0.003076 0.002155 -0.003301 -0.002721 0.004275 0.001748 0.002123 -0.002229 0.000665 0.001038 -0.001745 -0.004538 0.003127 -0.001188 0.003045 -0.002207 0.000826 -0.000160 -0.000893 -0.003614 -0.002302 -0.003841 -0.000471 0.002629 0.002423 0.002592 -0.005062 0.002122 0.001736 -0.002325 -0.003468 -0.003853 0.004902 0.005221 0.004616 -0.000648 0.002442 0.001685 0.002203 0.000300 0.001537 0.003882 -0.004054
sent_13 0.000367 -0.001342 0.000900 0.004530 -0.001019 -0.001173 0.003005 0.001384 -0.000921 0.001916 -0.000899 -0.003624 -0.000547 -0.001602 -0.002721 0.004342 0.001886 0.001005 0.002420 0.000435 0.001881 0.004327 0.003435 -0.003356 -0.002424 -0.004173 0.004809 -0.002529 0.001655 -0.004214 -0.002959 -0.000042 -0.004052 -0.001065 0.000258 -0.001461 0.000348 0.000427 -0.001061 0.002000 0.001661 0.001982 0.000637 -0.001591 0.001138 0.004481 0.000875 0.004719 -0.000668 0.002393 -0.004640 0.002535 0.000154 -0.005012 -0.002286 0.000244 0.002834 -0.004448 0.000475 0.003134 0.001690 0.004288 -0.004207 -0.002290 0.004300 0.002702 0.001006 0.003358 0.004102 0.004693 0.005039 -0.003595 -0.004301 -0.004191 -0.004904 0.004769 -0.004037 0.003609 0.001847 -0.000059 -0.001654 -0.001559 -0.002456 0.004060 0.002198 -0.004852 -0.000388 -0.002271 -0.004668 0.003837 0.002710 -0.001763 0.003065 -0.001907 -0.001963 0.004306 0.004843 0.000083 0.004540 0.003815
sent_14 0.000165 -0.001352 0.001894 -0.000791 0.001089 0.004831 0.002656 -0.001684 -0.004040 -0.003120 0.000352 -0.000761 0.002831 0.004348 -0.003083 0.003612 0.004624 0.004603 -0.004600 -0.004396 -0.005173 -0.001504 -0.004702 -0.002194 -0.001362 0.004722 -0.000254 -0.001962 -0.000030 0.001488 -0.003880 0.002403 0.003549 0.003562 0.003799 -0.001233 -0.000524 -0.004074 -0.002543 0.004681 -0.002163 0.004122 0.003969 0.004087 -0.003635 0.003899 0.001121 -0.003016 -0.001750 -0.003542 -0.000497 -0.004337 -0.003167 -0.002894 0.002058 0.000570 0.003860 -0.002336 0.001425 -0.004576 -0.000112 0.003436 0.005000 -0.005209 -0.002580 -0.002745 -0.004261 -0.004930 0.000150 -0.004681 -0.001962 0.001338 -0.002143 -0.002097 0.000743 -0.001291 0.002055 0.000069 0.001257 -0.001650 -0.002211 -0.003778 0.004247 0.003176 0.004176 -0.003408 0.004272 0.004384 -0.002055 -0.002571 0.000309 -0.003142 -0.000726 -0.003213 0.004145 0.000184 0.004625 0.001349 -0.000407 0.004704
sent_15 -0.003568 0.001323 0.001619 -0.000662 -0.004406 -0.000073 -0.000349 0.003067 -0.002433 -0.001086 -0.002598 0.001864 0.004899 -0.003226 0.003214 -0.002690 -0.004420 -0.003612 0.004352 0.003885 -0.002107 0.004478 0.003499 -0.000653 -0.000320 0.001299 -0.003420 -0.004852 -0.002345 -0.004846 0.001745 0.000515 -0.001784 0.002802 -0.003542 -0.002551 -0.002077 -0.003041 -0.004121 0.003700 -0.004118 0.001837 -0.003796 -0.004893 0.000573 0.004071 0.003605 -0.001615 -0.004728 0.003009 0.003060 0.003685 0.001696 0.003078 0.003975 -0.000462 0.000578 0.000061 0.001920 0.001829 0.000203 0.003285 0.000058 0.003249 -0.002182 -0.003215 0.004699 0.002419 -0.002402 0.000812 0.004553 -0.004192 -0.004165 0.001191 -0.002755 0.002652 0.000682 0.001662 -0.003922 -0.004157 0.001251 -0.000903 -0.004127 -0.001289 0.001721 -0.003104 0.003957 0.004498 0.004616 0.002301 -0.000937 0.002437 -0.002120 -0.001856 0.001059 0.000948 0.003787 -0.002454 0.002662 0.004410
sent_16 -0.005038 0.000193 0.001530 0.003699 -0.003140 0.003551 -0.001176 0.003738 -0.005010 -0.004061 0.004730 0.001028 -0.000558 -0.003035 0.001217 -0.004610 -0.002005 -0.001622 0.001034 0.001324 0.003509 0.003853 0.001590 0.001088 -0.001053 0.004385 -0.003392 0.003914 -0.001874 0.000449 0.001628 -0.002547 -0.003291 0.000108 0.003148 0.001765 -0.003649 0.003854 -0.000440 0.004666 0.000409 -0.004288 -0.003103 0.003388 0.002285 0.003956 -0.001537 0.000498 0.001574 0.001058 -0.003076 -0.000455 -0.002632 0.003363 0.004794 -0.004398 0.002025 -0.002006 0.001121 -0.002660 0.001852 -0.000941 -0.002274 0.004449 0.004357 0.000923 -0.003059 0.004140 0.002515 0.002324 -0.002938 0.003526 -0.002593 0.001353 0.002381 0.002664 -0.001090 0.002755 0.003946 0.001268 -0.003991 -0.003411 -0.003809 -0.003335 -0.003646 0.003214 -0.004580 -0.002578 0.003702 0.005170 0.001392 0.004899 -0.004258 0.004447 -0.001659 0.002766 0.003167 0.003789 -0.000127 0.004297
sent_17 -0.001688 0.005198 0.002019 0.005783 -0.004632 0.003054 0.000648 -0.000180 -0.003827 -0.001499 -0.002970 -0.002282 0.004122 0.000266 -0.004924 0.001823 -0.000073 0.001712 0.000370 -0.001493 0.005767 -0.006335 0.005026 0.004774 -0.000902 -0.004125 0.000292 -0.004000 0.002296 -0.001426 -0.001872 0.004924 0.004191 -0.000042 0.004800 -0.002437 0.005818 -0.000942 -0.003117 -0.004032 0.004913 -0.001419 0.001201 0.001997 0.002865 -0.004698 0.005223 0.004896 0.001486 0.004210 -0.002657 0.002176 -0.001273 0.000902 -0.001433 0.003493 -0.004615 -0.005575 -0.004465 -0.004520 -0.000792 0.005360 -0.004633 0.002882 0.000263 -0.002160 -0.003329 -0.002935 -0.005454 0.001549 0.000330 -0.000142 0.002228 -0.004227 0.005264 0.003391 0.001450 -0.001807 -0.000503 0.001086 0.004884 0.004946 0.000560 0.000360 0.004300 0.006554 0.001540 0.002376 -0.002094 0.005488 0.003574 0.001472 0.003765 0.003675 0.004374 -0.004732 0.000855 0.005319 0.003840 -0.000833
sent_18 0.004661 -0.002033 -0.001855 0.004896 0.003225 0.003792 -0.004482 -0.001515 -0.002657 -0.001878 0.002271 0.002103 -0.000112 -0.000918 0.000703 0.000558 0.000393 0.001313 -0.001191 0.002532 -0.002465 0.000930 0.004411 -0.004659 0.002098 -0.004140 0.000592 0.001176 -0.002419 0.003878 0.000940 -0.002627 0.002572 -0.004008 0.000659 -0.003870 0.000632 -0.002369 0.001268 0.002372 0.000081 0.001573 0.002973 0.002603 0.001472 -0.000360 -0.000745 0.003986 0.002082 -0.002961 0.000140 0.004254 -0.003732 0.003187 0.002820 -0.000157 -0.004603 -0.003969 0.003993 -0.004498 -0.000390 0.001659 -0.003310 0.005256 -0.003229 0.000261 0.000843 -0.002812 -0.000192 -0.000221 0.002591 0.001579 -0.000219 0.001677 -0.000210 0.000634 0.001652 -0.002748 0.002861 0.001671 0.004760 -0.002529 -0.000062 0.003768 0.001123 0.002684 -0.000752 0.001704 0.004359 -0.002341 0.003524 0.004674 -0.004188 -0.003125 -0.003432 0.002358 -0.004033 0.004917 -0.000659 0.003970
sent_19 -0.003284 -0.000797 0.003129 0.000639 -0.000295 -0.000189 0.000840 -0.000607 -0.002710 -0.003825 -0.003332 -0.004600 0.000275 0.003457 -0.001183 -0.004052 -0.000725 0.001110 -0.000793 0.003187 0.004151 0.004130 0.001858 -0.000328 0.001753 -0.004553 0.005054 -0.003046 0.004218 0.002834 0.002939 -0.002596 -0.002911 -0.000552 0.003145 -0.000284 0.004135 -0.001432 0.001404 0.004716 0.001273 -0.004290 -0.000184 -0.001824 0.000169 -0.002022 -0.004049 0.001453 0.001555 0.003744 -0.003552 0.002700 0.003410 0.001471 -0.003065 -0.002535 -0.000685 0.000752 -0.000214 -0.000069 0.003349 0.003440 0.003309 0.003350 0.000642 0.004808 0.001177 0.001107 -0.001456 0.001860 -0.004143 -0.003679 -0.003719 0.001699 -0.003459 -0.001558 -0.004604 -0.002429 0.004543 -0.000106 -0.003637 -0.000045 0.004159 0.003736 -0.001202 -0.002698 0.002581 -0.002613 -0.002347 -0.004456 0.003582 -0.000753 0.000610 0.002239 0.002585 -0.000300 -0.003252 0.002903 -0.004950 0.004423
sent_20 0.000852 0.004141 0.000699 -0.002850 -0.001510 -0.000224 0.005176 -0.003649 0.000004 -0.000964 0.002717 0.003237 -0.000769 -0.002397 -0.004264 -0.003149 -0.002414 0.000511 0.003611 -0.004065 0.004722 0.001485 0.002181 0.005106 -0.000755 -0.000043 0.001603 0.000056 -0.002263 -0.003668 -0.002142 0.002472 0.001302 0.003027 0.000337 -0.002978 0.001577 -0.001732 -0.004828 0.004188 -0.000721 -0.001047 0.001768 0.003957 -0.004550 -0.002998 -0.001563 -0.002267 0.000151 0.002993 0.003242 0.000984 -0.002322 -0.003488 0.002347 -0.003138 0.000507 0.002374 -0.002490 -0.003021 -0.004195 -0.003409 0.003235 -0.003910 -0.002756 -0.004917 0.001965 -0.002533 -0.000340 -0.004358 -0.001247 -0.000491 -0.000129 -0.000467 -0.004015 0.002864 -0.003653 -0.000179 -0.002113 -0.001150 0.001681 0.000956 -0.002945 -0.000077 -0.001611 0.002522 -0.002471 0.003288 -0.000277 0.000529 -0.002491 -0.003053 0.000243 0.004280 -0.003476 -0.002508 0.003238 0.001620 -0.001995 -0.001953
sent_21 -0.000963 0.001203 0.001948 0.003730 0.001860 -0.002872 0.004525 0.002683 -0.001851 -0.001932 0.003905 -0.003949 0.001364 -0.002058 0.003217 -0.001143 0.002186 -0.002781 -0.000286 0.002983 -0.001256 -0.003484 0.001356 0.002836 -0.002404 -0.000433 0.004325 0.003887 0.002297 0.000565 0.002890 0.003954 -0.005112 -0.000856 0.000425 0.002536 -0.004416 -0.001144 -0.002356 -0.000605 -0.000493 0.001800 0.000057 0.000998 0.001083 -0.000581 -0.005047 -0.003161 -0.001960 -0.003266 0.000768 0.001147 -0.000129 -0.001945 0.001342 -0.003180 -0.004891 0.002336 -0.000789 0.001914 -0.002703 -0.004249 -0.001295 0.001975 -0.004036 -0.003065 -0.000718 0.001016 0.002727 -0.003893 0.001407 -0.000877 0.001701 -0.002861 0.000426 -0.002990 -0.004888 0.000184 -0.003347 0.001594 0.000310 0.002639 -0.001189 0.004771 0.000202 -0.000308 0.002436 0.000658 -0.001270 0.000081 -0.002751 -0.001159 -0.004441 -0.000510 -0.002316 0.000190 -0.004706 0.000345 -0.001911 0.000653
sent_22 0.002634 -0.000206 0.002266 -0.001574 0.004726 -0.001918 0.004485 -0.002598 -0.000513 0.003210 0.001592 0.002020 0.000217 0.002424 0.003694 -0.000873 0.000002 -0.004531 -0.000799 -0.000571 0.004554 -0.005203 0.002957 0.000829 0.000886 -0.005318 -0.003812 -0.002859 -0.004937 0.001841 0.003728 0.001167 0.000419 0.000779 -0.001412 -0.001350 0.000924 0.003076 -0.003665 -0.001683 0.002286 -0.002055 -0.004969 -0.002966 -0.002234 -0.000315 0.002033 0.004085 0.004536 -0.001770 0.002271 -0.001496 -0.001568 -0.002367 -0.000979 -0.002163 -0.001992 -0.004410 0.004159 -0.000474 0.004667 0.003127 -0.001011 0.003441 0.001580 -0.002117 -0.000325 0.002168 -0.002855 -0.004585 -0.003160 0.003073 0.004436 0.000522 -0.002832 0.002595 0.000043 0.001997 0.003631 0.005106 0.001830 0.004071 0.002866 0.001846 0.004177 0.005289 0.004095 -0.001214 -0.004431 0.004261 0.000757 0.000670 0.003558 -0.004350 0.004795 -0.005376 0.002204 0.001385 0.002409 -0.001503
sent_23 -0.001869 0.000524 0.004411 0.001331 0.001648 -0.000046 0.004765 0.002396 -0.002248 0.001632 0.000021 0.003997 -0.001515 -0.003745 -0.003383 -0.001610 0.003417 -0.002727 0.001429 0.000962 -0.000214 -0.005610 0.003012 -0.001803 -0.000936 -0.002052 0.001107 -0.004797 0.000082 -0.004255 0.005017 0.001517 -0.001055 -0.003842 0.002665 0.003662 -0.001294 0.002630 -0.002749 0.004665 0.002253 0.000544 0.003622 -0.001954 0.004638 0.001631 0.003454 0.001219 0.003902 0.001744 -0.003781 0.001707 -0.002371 0.003949 -0.002857 -0.001844 -0.004775 -0.001261 0.000511 0.000186 0.004265 -0.000905 -0.001072 0.004389 0.000874 0.001148 -0.002457 -0.000102 0.000522 -0.003860 -0.005414 -0.003678 -0.000083 -0.005173 0.001797 -0.004125 -0.002560 -0.001121 -0.003601 -0.001545 -0.004468 0.005639 0.001648 -0.001264 -0.004230 0.000156 -0.000278 0.004195 -0.002616 0.002007 0.001831 -0.002657 0.000206 0.002996 -0.003107 0.000431 -0.004383 -0.004136 -0.003665 -0.000188
sent_24 0.004266 -0.000873 -0.004242 0.003698 0.000176 -0.001789 0.004647 0.004376 -0.002502 -0.003007 0.000912 0.003407 -0.001571 0.000877 -0.003451 -0.003080 0.002549 -0.003437 -0.002343 0.001871 -0.004879 -0.004729 -0.002097 -0.001533 -0.001414 0.003032 -0.004607 -0.001381 0.001387 -0.003581 0.003522 0.001465 -0.003852 -0.002865 0.002466 -0.001010 -0.000163 0.003757 -0.003729 0.004724 -0.004726 -0.004009 -0.002773 0.003114 -0.000333 0.001539 -0.003251 -0.003358 0.000204 0.002446 -0.000422 0.003780 0.001561 -0.002534 -0.002602 -0.001245 0.002546 0.004360 0.003574 -0.002524 -0.000844 0.001157 0.000437 -0.001056 -0.004061 0.002072 -0.004191 0.003565 0.003621 0.002065 -0.000145 0.002083 -0.001075 0.002999 0.002950 -0.003396 -0.001861 -0.001565 -0.001411 0.000722 -0.004549 0.001608 -0.003013 -0.000866 -0.000457 -0.001455 -0.001208 -0.003195 -0.004290 0.000566 0.001048 -0.003491 -0.002708 -0.002114 0.003310 -0.003513 0.000528 0.000737 -0.001501 -0.001517
sent_25 0.004853 0.000619 0.001736 0.000198 0.001401 0.001352 -0.003556 -0.001582 -0.000603 -0.003748 -0.001546 -0.002571 0.003781 -0.001624 -0.002779 -0.001117 0.001769 -0.004541 -0.003081 0.001894 0.002709 0.000721 0.003893 -0.003304 0.002010 0.003983 -0.003776 -0.002766 0.000353 -0.001404 0.002003 -0.004150 -0.003413 0.002024 0.004893 0.004303 0.003999 -0.003732 -0.003809 -0.004251 0.000375 0.003620 0.000079 0.002944 -0.002870 0.003593 -0.002932 -0.004424 -0.000627 0.000467 0.004700 -0.003923 -0.002341 -0.004054 -0.000988 -0.001922 0.000207 -0.001732 0.004189 0.002713 0.003712 -0.003514 0.000602 -0.002569 0.003851 -0.004941 -0.004037 -0.001168 -0.001295 -0.002204 -0.004359 -0.003810 -0.001767 0.004307 -0.002679 0.002374 -0.002469 -0.004813 -0.004778 -0.003230 -0.000342 0.002732 0.002485 -0.001598 -0.000048 0.003555 0.003395 -0.001932 -0.005021 -0.004279 0.002327 -0.002125 -0.000173 -0.003037 0.003829 -0.000237 0.000513 -0.001895 0.000470 -0.005114
sent_26 -0.002070 -0.001328 -0.002060 -0.003885 0.000292 0.002977 0.004560 -0.000144 0.000768 -0.002048 -0.003576 -0.003581 0.002574 0.002493 -0.003226 -0.000954 0.000896 -0.003873 0.002821 0.001122 0.001307 0.001544 0.004872 0.000686 0.003614 -0.001043 0.001367 0.004092 0.001532 -0.001878 0.001195 -0.001326 -0.001845 0.001008 -0.003250 -0.000110 0.004375 -0.001098 -0.003353 -0.000189 0.003373 0.003291 0.003043 -0.004951 -0.002160 0.005062 -0.003606 0.000032 0.003071 -0.003849 0.001490 0.000007 -0.003232 0.003615 -0.003199 0.001388 0.002464 0.000308 0.001246 -0.003896 -0.001533 0.001123 -0.001197 0.001994 0.003707 -0.003228 0.003888 -0.001149 0.004298 0.001059 0.002631 0.000257 0.000387 -0.001791 -0.003557 -0.001112 -0.002826 -0.004605 -0.002143 -0.002801 0.003751 -0.003985 -0.002900 0.001937 0.004328 -0.002062 -0.004710 0.004470 0.001714 -0.001525 -0.000177 0.001118 -0.001072 0.003613 0.002629 0.004279 -0.001269 0.004530 0.000129 0.001357
sent_27 0.002477 0.002816 -0.001362 -0.001085 0.003434 0.001936 0.004403 0.004703 -0.002861 -0.002608 0.002342 0.002697 0.000707 0.003802 -0.002045 -0.001627 0.000046 -0.002093 0.000413 0.001952 -0.003068 0.000270 0.004505 -0.002136 -0.004548 0.003470 -0.000143 -0.004189 0.003765 -0.000905 0.004456 -0.001266 -0.004379 -0.002493 -0.001784 0.002622 -0.003376 -0.000511 0.004056 0.000321 -0.003951 -0.004648 0.002021 0.004438 0.002472 0.002882 0.001440 0.002768 -0.004753 -0.002661 0.002203 0.003307 0.001960 -0.003210 0.004452 0.003702 -0.003799 -0.002739 -0.001943 0.002798 0.003492 0.000404 -0.002739 -0.001238 -0.003502 0.004316 0.003039 0.000352 -0.000082 -0.004235 -0.001625 -0.003928 0.002793 0.000743 -0.003137 -0.002926 -0.002320 -0.001613 -0.001040 -0.002131 0.001529 -0.004845 -0.001796 0.002584 0.004141 0.002619 -0.002592 -0.002798 -0.003032 0.003388 -0.003021 0.002468 -0.002497 -0.005014 0.002026 0.002520 -0.004035 -0.002056 0.004174 -0.003397
sent_28 -0.004070 0.000667 0.004113 -0.004168 0.000294 0.001731 -0.003532 -0.004873 0.004086 -0.004680 -0.002230 0.001668 -0.002453 -0.004969 0.001001 -0.001999 -0.003375 0.004670 -0.003372 0.002468 0.003611 0.004119 -0.003427 -0.003024 -0.004654 0.004581 0.003784 0.001317 -0.004022 -0.003215 0.000965 -0.002748 -0.002023 -0.003211 -0.003325 -0.000462 0.000095 0.000083 0.005366 -0.003676 0.002611 0.003002 0.000994 -0.000576 0.003582 0.003327 -0.004884 0.004524 -0.005066 0.000528 0.000993 0.003158 -0.000941 -0.003848 0.000992 -0.004979 -0.001283 0.005268 0.004019 -0.003279 0.002606 0.002692 0.004611 -0.003103 -0.000108 0.003403 0.002025 0.000999 0.001743 -0.002727 -0.004521 0.002234 -0.001831 -0.000908 0.000742 0.001416 -0.002863 0.003361 -0.001215 0.000952 0.004535 0.000381 -0.001596 0.001347 -0.000304 -0.000925 0.002212 0.004277 -0.000033 -0.004758 0.000411 -0.002620 -0.004918 0.002772 -0.002666 0.003127 -0.000269 -0.001994 -0.002329 -0.004482
sent_29 0.000253 0.003458 -0.004409 -0.004172 0.000472 0.001328 0.002106 -0.002076 -0.004661 -0.000697 -0.002577 -0.004987 0.001758 0.004678 -0.001222 -0.001997 0.000473 0.003552 0.002853 0.001760 -0.000901 0.001954 -0.003015 -0.001983 0.002770 0.004275 -0.002997 -0.001787 -0.004904 -0.000728 -0.003016 0.001228 0.002081 -0.003619 -0.004146 0.003783 -0.000923 0.000178 0.004726 0.002723 -0.001927 -0.004124 0.000373 -0.001810 -0.004919 0.002783 -0.001222 0.000726 0.002543 0.004394 0.001040 -0.001793 -0.003720 -0.004294 -0.001779 0.001384 0.001926 -0.002705 -0.004078 -0.001976 0.000424 0.002409 0.000319 -0.002319 0.001024 -0.002452 0.001594 0.003232 0.001712 0.000260 -0.001779 0.003971 0.004854 0.003057 0.000737 -0.003448 -0.001840 -0.001031 -0.002231 -0.000461 0.001104 -0.002688 -0.002635 -0.003800 -0.002033 -0.000116 -0.000087 0.005011 0.004666 -0.000652 0.004812 -0.002876 0.000502 -0.000639 0.004510 0.003407 -0.003017 -0.000668 -0.003404 0.000270
sent_30 0.002847 -0.004683 -0.003268 0.004550 0.004679 0.000399 0.001417 -0.002317 0.004588 0.001713 0.001788 -0.004922 0.003401 0.002792 0.001894 0.002433 -0.003483 0.002226 -0.004071 0.002140 -0.005118 0.003037 -0.000147 -0.002958 0.002321 -0.001752 0.003903 -0.003024 0.004388 0.004639 -0.001961 0.003444 0.003419 -0.000608 -0.001495 -0.002257 0.004941 -0.002559 0.004284 -0.000659 0.004239 0.003504 -0.003375 0.000617 0.001635 -0.000926 -0.005091 -0.001825 0.003287 -0.004394 -0.003900 0.001983 0.000250 0.000026 -0.001207 0.000883 0.003512 -0.002036 0.003541 -0.000796 -0.000130 0.002109 -0.002326 0.004027 0.001873 0.001229 -0.002168 0.001917 -0.002236 0.003074 -0.004677 -0.003312 0.000512 0.002309 -0.000196 0.003833 0.004776 -0.000219 0.002615 -0.000152 0.001666 -0.002862 -0.004081 0.004860 0.003054 -0.002367 0.000814 -0.001136 -0.003150 -0.001021 -0.002063 -0.004844 -0.001193 0.004139 0.003044 0.000850 -0.001902 -0.002805 0.004366 0.000672
sent_31 -0.002575 -0.002359 0.004733 -0.002447 -0.003828 -0.003015 0.002726 0.002004 -0.000778 0.003039 0.000064 -0.000647 -0.003584 0.003935 -0.002262 0.000968 0.004794 -0.003390 0.004674 0.001449 -0.003516 0.002253 0.004518 0.000579 0.001929 -0.004978 0.004568 -0.002009 -0.004955 0.003297 0.004833 0.002554 -0.005042 -0.004538 0.001056 -0.001704 0.003818 0.003870 0.004691 0.002288 0.003820 -0.002019 -0.004218 0.003600 -0.001873 -0.000760 0.001673 0.001199 -0.000538 -0.001335 -0.003848 0.000495 -0.002759 0.002386 0.001796 -0.004289 0.004984 0.002530 -0.002663 -0.004709 0.000063 -0.001296 0.000330 0.001958 0.003209 -0.004960 0.002118 -0.001920 0.004700 0.003295 0.000243 0.001005 -0.003027 -0.002812 -0.003349 -0.001265 -0.003853 0.000113 0.001560 -0.003381 -0.001568 -0.004028 0.000568 0.001402 0.001237 0.003609 -0.002556 0.001037 -0.002136 -0.003783 -0.001991 -0.004127 0.004726 0.002131 -0.003585 0.002606 -0.001251 0.004294 0.000272 0.003670
sent_32 -0.002844 -0.001085 -0.001569 -0.004224 -0.001438 0.001263 -0.000142 0.003511 -0.002298 -0.001183 -0.001769 0.000545 -0.003163 -0.002924 0.004360 -0.001204 0.000825 -0.004449 -0.003711 -0.004194 0.003052 -0.004077 -0.000088 -0.003304 -0.002157 0.003706 0.001368 0.004752 0.000977 -0.004860 -0.000919 -0.004940 -0.001871 -0.000148 0.000800 -0.002763 0.000733 -0.001021 0.000140 -0.002934 -0.003403 0.002453 -0.001865 0.001036 0.000527 0.004094 0.003802 -0.000395 -0.002928 0.001315 0.001117 0.001964 0.004189 0.002779 0.001146 0.000751 -0.002885 0.001498 0.003223 0.004346 0.004411 0.000688 -0.002468 -0.001633 0.004934 0.000126 0.003215 0.000889 0.000376 -0.001849 0.000475 -0.004772 0.003826 0.000870 -0.004773 0.003333 -0.003570 -0.004338 -0.000396 0.004928 -0.004082 -0.004023 0.003854 0.003301 0.003095 -0.000169 -0.000654 -0.001015 0.000654 0.002450 0.002952 0.001556 0.000920 -0.001111 -0.001778 -0.002221 -0.002064 0.001754 0.002656 0.000967
sent_33 -0.002509 -0.002964 0.002696 0.004695 -0.004682 -0.002415 0.002932 0.002063 -0.002709 0.000695 0.000790 0.002523 -0.000230 -0.000814 -0.001824 -0.002851 -0.004056 0.001093 0.001718 0.001798 -0.004834 -0.000855 -0.003906 0.000115 0.004944 -0.000197 -0.001657 0.003034 0.004370 -0.001783 0.003191 0.005042 -0.003890 0.000177 0.003341 -0.001391 -0.000437 0.002624 -0.004088 -0.001306 0.000815 -0.002861 0.003037 0.002537 0.004535 0.000325 -0.003788 0.004484 0.003515 0.000091 0.003334 0.003854 0.002802 0.000632 0.001330 0.003300 0.001364 -0.003117 0.002117 0.000365 -0.002312 -0.004928 -0.002696 0.001922 0.003940 0.003171 -0.003735 -0.004144 0.002608 -0.002465 -0.002501 -0.005003 -0.003989 -0.003584 -0.003437 -0.000693 0.003212 0.003162 0.004291 -0.000253 0.002053 0.000171 -0.004226 -0.004151 -0.002579 0.005208 0.002014 -0.002430 0.001906 0.001770 -0.004810 -0.001186 0.002768 -0.004405 0.004068 0.004179 0.003772 -0.003643 0.000788 0.002074
sent_34 0.003773 -0.003633 0.003107 -0.001816 0.000979 0.002040 0.003139 -0.002275 0.001022 -0.001985 0.004872 0.002956 -0.000606 0.004106 0.002120 0.004472 -0.003421 -0.001851 -0.004168 -0.002028 -0.001117 0.000711 -0.000328 0.002578 -0.002497 -0.003504 -0.001002 -0.000734 -0.000576 0.003918 -0.002591 -0.001384 -0.002939 -0.001294 -0.001011 0.000900 -0.002332 -0.002372 0.001937 0.004213 -0.003980 -0.003191 -0.003777 0.001579 -0.002508 0.001114 -0.002771 0.003380 -0.001755 0.001980 -0.003939 -0.001756 -0.002241 0.001116 0.001463 0.003480 -0.003214 0.002241 0.001808 0.000515 0.002245 -0.003655 -0.003816 -0.000466 0.002265 -0.003456 -0.001496 -0.000185 0.004352 -0.004487 0.003164 0.005105 -0.002198 0.003820 -0.001761 0.003331 -0.000410 0.001268 -0.002703 0.002411 -0.003495 0.000873 0.000137 0.003180 0.000012 0.003230 -0.000905 -0.002036 0.002725 -0.000192 0.000458 0.000751 0.003758 0.000678 -0.000550 -0.003738 0.002116 0.003807 -0.003436 -0.000477
sent_35 0.004276 0.000650 0.000387 -0.004353 0.000364 0.001464 -0.003478 0.004548 -0.003002 0.001744 -0.002234 -0.003996 -0.002414 -0.001633 -0.000362 -0.002594 0.002247 0.003153 0.002890 0.002151 -0.002356 -0.002869 -0.003910 -0.000953 -0.004173 0.001577 0.004609 0.002593 -0.003763 -0.004887 -0.001711 0.004878 -0.001890 0.002422 0.002104 0.000767 -0.001364 -0.002955 0.004787 -0.004331 -0.002732 -0.001857 0.004138 0.002102 -0.002309 -0.003341 0.003773 0.002908 -0.004669 0.003874 0.000844 -0.000427 0.001735 -0.004625 -0.001756 -0.004130 0.001818 -0.000985 -0.000262 -0.002108 0.002937 -0.004529 -0.002204 0.000868 0.002849 0.001021 0.002252 -0.004807 -0.002385 -0.004556 0.000073 0.004945 -0.004861 -0.000571 -0.004932 0.001193 -0.003194 0.002186 -0.003461 0.003293 -0.002938 -0.001513 -0.002762 0.003073 -0.000083 0.003671 -0.003713 -0.000005 0.002791 0.004825 0.001817 -0.003216 0.002642 -0.004262 0.002575 0.003283 0.000554 -0.000139 0.004362 -0.005015
sent_36 -0.004627 -0.002206 0.000240 0.000545 -0.001120 -0.001904 -0.002948 0.002844 -0.002222 0.000097 0.002947 0.001413 -0.000588 -0.003009 -0.001129 -0.000466 0.004872 -0.002557 -0.003332 -0.002946 -0.002532 -0.004796 -0.001274 -0.002179 0.004054 0.002351 -0.004351 0.003204 -0.004261 0.002625 0.000906 -0.003918 0.004092 0.003506 0.003870 -0.001622 -0.002464 0.005088 0.002947 -0.004400 -0.000993 0.002703 -0.000216 -0.002585 0.002912 -0.002402 -0.004649 -0.002352 0.005303 0.001251 -0.002971 0.002148 0.001832 0.001273 -0.004165 -0.002659 0.003664 0.001944 -0.003143 -0.002110 0.000808 0.003525 -0.003219 -0.003480 -0.001046 0.003891 -0.002357 -0.003816 -0.004616 -0.001825 -0.005029 0.000885 0.001788 -0.000423 0.002530 -0.000056 0.002105 -0.002741 0.002700 0.000544 0.002155 -0.000003 0.000464 -0.004565 -0.000021 -0.002820 -0.003428 -0.000742 0.000479 -0.001129 -0.003468 0.002710 0.004778 0.002214 -0.003732 0.003079 -0.004096 -0.000238 0.004592 -0.002312
sent_37 -0.003536 0.002829 0.004384 -0.001494 -0.002563 -0.003111 0.004796 0.000623 0.003456 -0.001822 -0.004519 -0.000315 -0.002668 0.000356 0.000350 -0.002166 -0.001989 -0.004948 -0.000834 -0.001859 0.001374 0.003069 -0.000093 -0.004119 0.004318 0.002828 -0.001561 -0.001890 0.004254 -0.001145 0.001370 0.005022 -0.004722 -0.001995 -0.002513 0.004243 0.000416 -0.004339 0.002301 0.002000 0.001600 0.004407 0.003447 0.002424 -0.002622 -0.003548 -0.002568 -0.002799 0.000903 0.001532 0.000118 -0.004285 -0.001541 0.004457 0.001918 -0.001330 0.001796 -0.002688 -0.004245 0.000254 -0.001645 0.000076 0.003851 0.001920 0.002472 -0.004103 -0.000341 -0.000887 0.001355 -0.002276 -0.001493 0.004913 -0.003766 -0.003066 -0.002462 0.002023 0.002167 0.002937 -0.001043 0.003997 0.001957 0.002389 0.003531 0.001159 -0.000657 -0.004208 0.001054 0.000483 0.000854 -0.001336 0.000624 -0.003158 0.001746 -0.004462 0.004173 -0.003150 -0.001825 0.003987 0.004212 0.003285
sent_38 -0.001537 0.004289 0.002868 0.001760 0.004062 0.002974 -0.000655 -0.001879 -0.001399 -0.004305 -0.001412 -0.001295 0.003920 0.004008 0.004488 -0.001930 0.001865 0.001111 -0.002585 0.003569 -0.002662 0.002024 -0.003484 -0.003819 0.002226 -0.000047 -0.000834 0.002627 -0.001605 0.003779 0.004641 0.004972 -0.002223 -0.000902 0.002542 0.003717 0.002269 0.002560 0.003580 -0.001191 0.000430 0.000112 0.001182 0.004028 0.001110 0.004723 0.002587 -0.000685 0.001062 0.004065 0.001078 0.002305 0.001537 -0.001792 -0.002833 -0.000936 -0.003495 0.002993 0.002142 -0.001198 -0.003129 0.003949 0.001224 0.005282 -0.003924 -0.002748 -0.004229 0.002412 -0.003552 0.003541 -0.000395 0.000398 -0.004542 0.001111 -0.002541 -0.002859 0.003960 0.003873 -0.004838 0.003703 0.004091 0.000484 0.001802 0.002639 0.001984 0.000099 0.000825 0.000672 0.003199 -0.002232 0.002612 0.003347 0.003060 0.002995 0.003641 -0.001096 0.001360 0.002864 0.003004 0.004546
