40 100
sent_0 -0.000636 0.002308 -0.004632 -0.001629 -0.003687 -0.003685 -0.003264 -0.001366 -0.001376 0.000352 -0.001003 0.001914 -0.002647 0.003610 -0.004990 0.001442 -0.000960 0.000462 -0.003414 -0.003106 0.003256 0.004304 -0.001502 0.002037 0.003756 0.003686 -0.004347 -0.004852 -0.003407 0.004016 -0.003940 -0.000507 0.004641 0.000221 0.002204 -0.002050 0.002090 0.003211 -0.005087 0.002538 0.004824 0.002229 -0.002378 0.003303 -0.003669 -0.000672 0.004356 -0.001991 -0.001879 -0.003733 -0.004803 0.002128 -0.002921 -0.002378 0.000082 -0.004141 0.000621 -0.003690 0.000798 0.001639 -0.004115 -0.000706 0.001764 -0.000553 -0.004520 0.000277 0.001521 0.000124 0.004001 0.000942 0.003660 -0.003595 -0.003634 0.002806 -0.000700 -0.003448 0.004143 -0.001920 0.002522 0.002372 0.004017 0.001451 0.002626 -0.001634 -0.002088 0.004373 -0.000744 0.004649 0.001539 0.001460 -0.003803 0.004710 -0.000627 0.001036 -0.000609 -0.002846 0.004090 0.001080 -0.004664 0.001122
sent_1 -0.001138 0.000268 0.004184 -0.001260 0.004336 0.001566 -0.004863 0.004181 0.001605 0.004991 -0.003296 -0.003130 0.004661 0.002051 -0.004084 0.002086 0.002581 0.003646 0.002113 -0.003729 -0.004493 -0.005360 -0.004724 -0.002850 0.003716 0.000034 -0.000189 0.003171 -0.004272 -0.001709 0.001210 0.004972 0.000473 -0.005040 0.003219 -0.002747 0.002937 -0.000938 0.003342 0.002648 0.000677 -0.004002 -0.004927 -0.003776 -0.004515 -0.003799 -0.002495 0.002291 0.001007 -0.005370 -0.004104 0.004769 0.000478 -0.003160 -0.002180 0.002406 -0.002823 0.000440 0.004961 0.003374 -0.002308 0.000085 0.001144 0.003798 -0.003032 -0.005002 -0.004251 0.000129 0.000698 0.000386 -0.002461 0.004925 0.000922 -0.001244 0.000495 0.002206 0.001787 -0.002409 -0.003966 -0.000807 0.001218 -0.002620 0.003016 -0.004398 -0.002254 0.003717 -0.002945 0.001095 0.000062 0.004492 -0.002618 -0.004031 0.002268 0.002435 0.004677 0.003968 -0.004398 -0.002279 0.001562 0.004410
sent_2 0.005017 0.000546 0.004387 0.001608 -0.000863 0.000101 0.001073 0.000411 0.004254 0.004239 -0.001113 0.005046 -0.002984 -0.003704 -0.003425 -0.000249 -0.004790 0.004019 0.003279 -0.004797 -0.003074 -0.002331 -0.003820 0.002764 -0.001528 0.004204 0.000252 0.003609 0.003150 0.004289 -0.000138 0.000704 0.002742 -0.002410 -0.000007 0.001129 -0.005194 0.001221 -0.000833 0.003263 -0.001873 0.003725 0.000382 -0.003321 0.003007 0.001261 -0.004320 -0.000698 0.002153 0.003837 -0.004869 0.004851 -0.001444 0.004513 0.001117 0.003302 0.001052 0.001001 -0.001997 0.000981 0.003018 0.003701 0.002532 0.002462 0.004198 -0.001801 0.001688 -0.000179 -0.001488 -0.001049 -0.001605 -0.001843 0.001336 -0.000784 0.004749 0.001631 -0.002928 -0.000681 -0.001274 0.003440 0.003625 0.004167 0.002100 -0.002534 -0.002402 0.004026 0.000364 0.002676 0.000601 0.002580 0.000029 0.002840 0.000789 -0.000677 -0.000983 -0.004628 -0.000842 -0.004105 0.005264 -0.003346
sent_3 0.003289 0.003927 0.002039 0.001013 -0.003364 -0.000145 -0.001458 -0.002838 0.000649 -0.001914 0.004105 0.004162 -0.002133 -0.003756 -0.003073 -0.000117 0.002266 -0.002999 -0.002538 0.003454 -0.000670 0.000697 -0.002605 -0.003906 0.000116 -0.000484 -0.003661 0.001066 0.000301 0.001671 -0.003560 0.002710 -0.002816 0.000151 0.003006 -0.004773 -0.001804 0.003700 0.003158 0.000466 0.003621 0.004329 0.003063 0.003567 -0.003788 0.001568 0.002248 0.001242 0.003136 -0.004724 0.002600 0.002436 -0.002612 -0.002551 0.001378 -0.001498 0.002987 -0.000895 0.002758 0.004682 -0.001688 -0.003279 0.003857 0.000775 0.004884 0.001195 0.004770 0.000412 0.000042 -0.003732 -0.001706 -0.004603 -0.003323 0.002363 -0.004515 -0.001313 0.003642 0.001936 0.001993 -0.002773 -0.000556 0.000991 0.005140 -0.003029 -0.002327 -0.001939 0.002562 -0.000559 -0.004497 0.000414 -0.002746 0.003162 -0.001927 -0.004795 0.001300 0.003190 -0.000941 0.002758 0.000456 0.000356
sent_4 0.004631 0.002909 -0.004718 0.001954 -0.000322 0.004458 -0.002871 -0.002290 -0.004114 -0.000761 -0.003813 0.001381 0.002920 0.001891 0.002753 -0.001608 0.003475 -0.000705 0.003240 0.001349 -0.003692 -0.004013 -0.004881 -0.004443 -0.000399 -0.003745 -0.004732 0.002690 -0.001072 0.002463 -0.000423 -0.000585 -0.000246 -0.000199 0.002908 -0.000974 0.003976 -0.004681 0.002832 -0.003730 0.001106 -0.004834 0.000466 -0.004967 0.004445 0.004077 0.002808 0.004047 -0.003607 -0.003464 -0.002985 0.001155 0.004104 0.004966 0.002199 0.002284 0.004146 -0.000815 -0.002421 -0.003247 -0.003946 0.002960 -0.003403 -0.002502 0.003143 -0.001840 0.004910 -0.002326 0.000386 -0.001852 0.004175 -0.001357 -0.000704 0.000218 0.004277 -0.004748 0.002169 0.003912 -0.004757 0.000062 -0.001788 0.003444 0.000481 0.001928 -0.000556 0.001082 -0.002164 -0.004906 0.000858 -0.002128 0.000084 0.004137 -0.000895 -0.002541 -0.001448 0.004436 0.004322 0.003372 0.004059 -0.002722
sent_5 -0.003735 -0.002048 -0.001634 -0.003091 0.001422 -0.000704 0.003334 -0.003572 0.001398 -0.002197 0.000487 -0.001018 -0.003892 -0.002218 0.001315 -0.000500 0.000148 -0.003917 0.000645 0.004637 0.003724 -0.000133 0.004767 0.004044 0.001256 -0.005491 -0.004774 -0.004799 -0.001012 -0.000591 0.004959 -0.002970 0.004796 0.002294 0.004099 0.000651 0.002342 0.000018 -0.005141 -0.001137 0.000459 0.001591 -0.001134 -0.000679 -0.003748 -0.004921 0.003218 -0.001096 0.005543 -0.003311 -0.002031 0.000757 0.002543 -0.000620 -0.003639 -0.002131 -0.000059 0.001053 0.003027 -0.003777 -0.004362 0.000644 0.002703 -0.004025 0.001987 0.001438 -0.000444 0.004239 0.001263 -0.005745 -0.000848 0.003734 0.003427 0.001525 0.001963 0.000795 -0.002036 0.000726 0.002120 -0.000494 0.003713 -0.001965 0.003225 -0.002082 0.002826 0.000601 0.003407 -0.001558 -0.003519 0.003535 -0.001948 0.002786 0.002903 -0.003108 -0.001952 -0.003585 -0.003276 -0.000576 -0.004202 -0.003792
sent_6 0.002194 0.003403 -0.004063 -0.002541 -0.002581 0.004237 0.002415 0.000172 -0.002190 0.003643 -0.000711 0.004732 0.002430 0.000095 -0.003770 0.004436 -0.003456 -0.003585 -0.000796 -0.001140 -0.003232 0.001364 -0.003310 0.001374 0.002616 -0.003353 0.000387 0.002214 0.001025 0.001334 -0.001919 0.002584 0.004274 -0.001002 0.003249 -0.004630 0.003332 -0.002732 -0.001319 -0.001696 -0.004072 0.003703 -0.001930 0.000030 -0.000065 -0.003501 -0.002536 -0.003919 0.000617 -0.002812 -0.001593 -0.003711 0.002729 -0.004339 0.004902 -0.003446 0.000966 -0.005038 0.003077 -0.002999 0.000956 0.002669 -0.003707 0.001118 -0.002325 0.002360 0.002214 -0.003015 0.003524 -0.005410 0.002931 0.000719 -0.000825 0.002613 0.002288 0.004887 -0.002074 -0.004682 0.004704 0.004442 0.002185 0.000807 0.002709 0.002639 -0.001172 0.003572 0.002769 0.000843 -0.001467 0.002659 -0.005061 0.002996 0.004385 -0.003104 -0.003026 -0.003309 -0.001559 0.004101 0.001010 -0.002266
sent_7 -0.003705 -0.002126 0.000793 -0.002128 -0.000267 -0.000795 0.003268 -0.000869 -0.001297 0.001825 -0.002685 -0.000302 -0.002070 0.001422 0.003932 -0.000398 0.002920 -0.000373 0.001482 -0.003618 -0.000939 0.004387 0.000667 0.002460 0.000134 0.000186 0.003471 -0.004024 0.000753 0.004319 0.000168 -0.003300 0.003424 -0.002422 0.001858 0.000428 0.004448 0.001312 0.003712 -0.004883 0.004953 -0.004127 -0.001677 0.004021 -0.005164 0.003346 0.003337 -0.000589 -0.002621 0.002941 -0.000259 -0.003840 0.004419 0.004076 -0.000150 0.003256 -0.000692 0.002010 -0.000853 0.000350 -0.003089 0.004479 -0.001891 -0.004179 -0.003539 -0.004763 0.002384 0.000654 0.003301 -0.000078 0.003192 0.001881 0.002717 -0.000650 0.001222 -0.003164 -0.001644 -0.002939 -0.000943 -0.002671 -0.001089 0.004622 -0.001858 0.004919 0.001083 -0.001543 0.003551 0.001189 -0.002380 0.002639 -0.000756 -0.001536 -0.001618 0.001756 -0.002565 0.003331 -0.002112 0.000202 -0.000401 0.003623
sent_8 0.003898 -0.003132 0.000851 0.004014 -0.000491 0.004184 -0.002150 0.001055 0.001820 -0.002680 -0.004875 -0.000829 0.004416 -0.001528 0.002810 -0.003264 -0.001597 -0.003600 0.002156 0.001971 0.001925 -0.002556 0.001943 -0.002693 -0.000764 -0.001334 -0.001461 -0.004477 0.001302 0.002080 0.001144 0.001490 -0.003325 -0.003531 0.000153 0.003768 -0.003178 -0.000336 -0.000761 -0.000008 -0.003394 -0.001600 -0.002450 0.003418 0.003018 -0.000719 0.001116 -0.003523 0.000136 -0.002036 0.003572 0.001738 0.001320 -0.003812 -0.000330 0.004854 0.004484 0.001408 -0.003487 0.001407 0.000750 -0.000274 -0.000767 0.001047 0.003525 0.002489 0.000762 0.004279 -0.004347 0.004886 -0.004513 -0.002971 -0.000740 -0.003938 0.001256 -0.004502 -0.002164 -0.004359 0.002061 0.001787 -0.001213 -0.003060 0.002504 -0.001604 0.002991 -0.000048 0.000287 -0.004745 0.001397 -0.001401 -0.002685 -0.000662 -0.001113 -0.000347 0.004864 -0.001423 0.002774 0.000525 0.003954 -0.001468
sent_9 -0.001840 0.004802 -0.004034 0.004922 0.000892 -0.000729 0.004927 -0.004701 -0.001060 -0.004352 0.000390 -0.002525 0.002159 0.005239 0.003329 -0.001420 0.001863 0.001889 0.000038 -0.000105 -0.002673 -0.002543 -0.003161 0.002416 0.000175 -0.001680 0.002846 -0.000379 -0.001835 -0.001182 -0.003873 -0.000316 -0.004580 -0.002509 0.001101 0.003644 -0.003009 0.001651 -0.000756 0.003312 -0.003199 -0.005238 -0.002216 0.003174 -0.002972 0.002568 -0.001262 -0.002146 -0.003955 -0.001717 -0.001563 0.002480 -0.004352 -0.003768 -0.004257 -0.003981 0.001280 -0.001823 -0.001380 -0.000066 0.005060 0.003915 0.001425 0.005356 -0.004634 -0.004967 -0.000227 -0.001467 0.003875 -0.000950 -0.000555 0.004258 -0.000475 0.003752 -0.002034 -0.002439 -0.001675 0.000153 -0.002318 0.002916 -0.003168 -0.002773 0.004464 -0.002540 -0.000851 0.002574 0.000487 -0.004330 0.003123 0.005505 0.003026 -0.001289 0.000340 -0.001708 0.001600 0.003921 -0.001406 0.002851 -0.001021 0.002877
sent_10 -0.001767 0.003891 0.002497 0.002532 -0.000302 -0.002922 -0.004599 -0.001806 -0.004622 0.001941 0.001748 -0.000685 0.002650 0.000335 -0.004574 -0.003653 -0.003067 -0.001709 -0.004497 0.001089 0.000145 0.001242 -0.000657 0.003468 -0.000447 -0.004841 0.003680 0.001567 0.003205 0.004529 -0.004477 -0.002670 -0.004349 -0.000713 0.003630 -0.004240 -0.000240 -0.003754 0.002738 0.003380 -0.004533 -0.000083 -0.002599 0.004514 0.004374 0.001133 0.004765 -0.001558 0.003989 -0.000717 -0.002578 0.004362 0.001884 -0.004359 0.003750 0.001969 0.001057 0.002355 -0.002419 0.001031 0.003060 -0.004540 -0.003670 0.003345 0.001190 0.000327 -0.002459 -0.002028 0.003742 -0.000858 -0.004322 0.003944 -0.002975 0.003287 0.003766 -0.000125 0.001019 0.000323 0.001272 0.003511 -0.002153 0.003836 0.000654 -0.003819 -0.002720 0.000909 -0.002566 -0.003656 -0.003411 0.003402 0.000957 0.004661 -0.001561 0.000912 0.000958 0.001166 -0.004397 0.002498 0.004436 0.000345
sent_11 -0.003319 0.002072 -0.005410 -0.002336 0.004221 0.000498 0.003479 0.001118 0.003888 0.003706 -0.001476 -0.003917 0.001608 -0.000759 -0.003335 0.001227 -0.004516 -0.002727 0.002818 -0.004616 -0.002561 -0.003855 0.004539 0.000529 -0.002132 0.004982 0.000418 0.000123 0.001151 -0.002776 -0.002007 -0.001757 -0.002689 0.001132 0.001321 -0.003932 0.004307 0.002542 0.003621 0.002349 -0.004410 0.000316 -0.000020 0.001433 -0.000833 0.002215 0.001177 0.001555 0.000683 -0.003395 0.002934 0.002267 0.004268 -0.002444 -0.003323 -0.001310 -0.001544 0.003832 0.001226 0.003037 -0.001007 -0.004574 -0.003402 -0.002068 -0.003144 0.003570 0.001283 0.001938 0.000422 -0.003953 -0.002039 -0.000557 -0.003128 -0.004433 0.001823 0.002225 -0.001674 0.003753 -0.000921 0.002996 0.001272 0.000122 -0.003477 0.000403 0.003578 -0.003056 0.003548 0.004107 -0.001348 0.000994 0.003798 -0.004641 0.003575 -0.003227 0.002723 0.002255 -0.001796 -0.004138 0.000730 0.003458
sent_12 0.003496 0.001652 0.004697 0.001020 -0.002728 -0.000627 -0.001529 0.004661 -0.001632 0.005214 -0.000026 -0.002971 -0.003879 -0.000930 -0.003882 0.000987 -0.000908 0.004410 0.004287 -0.003722 -0.000610 -0.001076 0.000702 0.002818 0.000107 -0.001396 -0.002866 0.003721 -0.005208 0.003706 -0.002897 0.002053 -0.001405 0.004437 -0.003246 -0.003532 0.004330 0.001010 -0.002162 -0.004767 -0.002351 -0.004084 -0.003626 0.003783 0.003653 0.001984 0.000140 0.003739 0.000407 -0.001733 -0.002524 0.004610 -0.001124 -0.000259 -0.002381 0.003668 -0.001268 -0.002512 0.002417 -0.003142 -0.003542 0.003705 0.002119 0.001517 -0.002449 0.000931 0.001435 -0.001584 -0.004438 0.003333 -0.000837 0.002742 -0.002354 0.000920 -0.000589 -0.001214 -0.003627 -0.002526 -0.003898 -0.001245 0.002553 0.001872 0.002201 -0.004840 0.001888 0.000973 -0.002475 -0.003335 -0.003542 0.004032 0.004779 0.004461 -0.001249 0.002596 0.001070 0.002746 0.000079 0.001339 0.003220 -0.003902
sent_13 0.000603 -0.001218 0.001445 0.004963 -0.001225 -0.000643 0.002768 0.001633 -0.001471 0.001851 -0.001155 -0.003549 -0.000149 -0.001832 -0.003107 0.003943 0.001743 0.000835 0.002659 0.000322 0.002278 0.003890 0.004023 -0.003195 -0.002370 -0.004585 0.004550 -0.002895 0.001461 -0.003820 -0.002801 0.000333 -0.003883 -0.001222 0.000698 -0.001860 0.000810 0.000200 -0.001414 0.002029 0.001696 0.001584 0.000392 -0.000963 0.001454 0.004201 0.001266 0.004871 -0.000315 0.002340 -0.004616 0.003031 0.000138 -0.004992 -0.002012 0.000685 0.002551 -0.004644 0.000406 0.002591 0.001339 0.004479 -0.004449 -0.001889 0.004152 0.002539 0.000874 0.003294 0.003482 0.004778 0.004569 -0.003550 -0.004327 -0.004534 -0.004502 0.004604 -0.004199 0.002985 0.001874 0.000020 -0.001327 -0.001215 -0.002334 0.003985 0.002488 -0.004262 -0.000415 -0.002188 -0.004818 0.004115 0.002757 -0.001442 0.002807 -0.001490 -0.001584 0.004031 0.004843 0.000635 0.004858 0.003827
sent_14 0.000845 -0.001239 0.002478 -0.000227 0.001331 0.005275 0.002735 -0.001794 -0.004473 -0.003110 0.000225 -0.000270 0.003408 0.004440 -0.002970 0.003072 0.004605 0.003928 -0.004622 -0.004417 -0.004567 -0.002619 -0.004433 -0.002378 -0.001311 0.004106 -0.001036 -0.002531 -0.000545 0.002001 -0.003503 0.002908 0.003371 0.003171 0.004180 -0.001283 -0.000690 -0.003770 -0.003099 0.004925 -0.002019 0.003645 0.003285 0.004241 -0.003379 0.003930 0.001635 -0.002694 -0.001064 -0.003950 -0.000394 -0.004021 -0.003579 -0.003268 0.002230 0.000706 0.003970 -0.003006 0.001577 -0.004768 0.000520 0.003828 0.004747 -0.004293 -0.002020 -0.002986 -0.004488 -0.004600 -0.000513 -0.004896 -0.002951 0.001453 -0.001909 -0.002370 0.000919 -0.001457 0.002125 -0.000109 0.001755 -0.000866 -0.002202 -0.003310 0.004940 0.002967 0.004555 -0.002339 0.004479 0.004025 -0.002399 -0.001916 0.000249 -0.002788 -0.000636 -0.003465 0.005181 -0.000492 0.005163 0.001889 0.000321 0.004585
sent_15 -0.003053 0.001303 0.001850 -0.000469 -0.004169 0.000168 -0.000319 0.002983 -0.002442 -0.001034 -0.002660 0.002278 0.005175 -0.003193 0.003438 -0.002996 -0.004426 -0.004072 0.004359 0.003938 -0.001944 0.003826 0.003370 -0.000984 -0.000295 0.001101 -0.003988 -0.005032 -0.002642 -0.004610 0.002008 0.000755 -0.002027 0.002535 -0.003452 -0.002414 -0.002426 -0.002755 -0.004290 0.003889 -0.004144 0.001634 -0.004192 -0.005054 0.000700 0.004211 0.003746 -0.001515 -0.004366 0.002660 0.003187 0.003768 0.001487 0.002853 0.004045 -0.000448 0.000883 -0.000219 0.002067 0.001941 0.000721 0.003402 0.000039 0.003730 -0.001628 -0.003243 0.004679 0.002731 -0.002712 0.000655 0.003932 -0.004209 -0.004048 0.001105 -0.002744 0.002504 0.000767 0.001714 -0.003630 -0.003693 0.001077 -0.000774 -0.003654 -0.001525 0.001796 -0.002627 0.004045 0.004153 0.004491 0.002550 -0.001098 0.002569 -0.002020 -0.002190 0.001649 0.000639 0.004165 -0.002355 0.003098 0.004248
sent_16 -0.004807 -0.000085 0.001723 0.003694 -0.003116 0.003724 -0.001278 0.003841 -0.004965 -0.004147 0.004752 0.001200 -0.000560 -0.003193 0.001493 -0.004766 -0.001909 -0.001901 0.001064 0.001445 0.003642 0.003839 0.001661 0.000826 -0.001027 0.004420 -0.003673 0.003785 -0.002044 0.000640 0.001849 -0.002454 -0.003358 0.000011 0.003082 0.001902 -0.003836 0.004019 -0.000459 0.004556 0.000524 -0.004327 -0.003204 0.003565 0.002229 0.003994 -0.001500 0.000412 0.001672 0.000843 -0.002768 -0.000608 -0.002687 0.003328 0.004926 -0.004301 0.002168 -0.002014 0.001227 -0.002585 0.001781 -0.001045 -0.002195 0.004457 0.004567 0.000985 -0.002980 0.004394 0.002307 0.002406 -0.003158 0.003406 -0.002531 0.001233 0.002256 0.002423 -0.001080 0.002592 0.004138 0.001208 -0.004073 -0.003514 -0.003705 -0.003336 -0.003574 0.003213 -0.004539 -0.002704 0.003696 0.005048 0.001129 0.004929 -0.004473 0.004407 -0.001534 0.002746 0.003334 0.003836 -0.000101 0.004259
sent_17 -0.002384 0.004214 0.001149 0.004714 -0.004645 0.002234 0.000570 -0.000037 -0.002336 -0.001779 -0.002409 -0.002764 0.002887 -0.000053 -0.004078 0.002737 0.000353 0.002402 0.000154 -0.000917 0.004736 -0.004515 0.004263 0.004198 -0.001075 -0.002734 0.001183 -0.003079 0.003012 -0.002468 -0.002039 0.004073 0.004002 0.000415 0.003505 -0.001473 0.004908 -0.000714 -0.001959 -0.004570 0.004818 -0.000288 0.002426 0.001411 0.002164 -0.004466 0.004049 0.004162 0.000457 0.004598 -0.002052 0.000951 -0.000990 0.001347 -0.001906 0.003159 -0.004249 -0.004405 -0.004425 -0.003477 -0.001188 0.004387 -0.003763 0.001330 0.000229 -0.001414 -0.002932 -0.002787 -0.004512 0.002135 0.001606 -0.000585 0.002149 -0.003805 0.004275 0.003419 0.001590 -0.001209 -0.000864 -0.000337 0.004305 0.003485 -0.000325 0.000571 0.003669 0.004292 0.001327 0.002485 -0.001393 0.003938 0.003279 0.000493 0.003516 0.003484 0.002923 -0.003576 0.000313 0.003937 0.002565 -0.000794
sent_18 0.004986 -0.002227 -0.001466 0.004713 0.003179 0.004139 -0.004787 -0.001331 -0.002948 -0.001902 0.002269 0.002454 -0.000109 -0.001219 0.000689 0.000105 0.000460 0.000842 -0.001047 0.002569 -0.002193 0.001030 0.004709 -0.004893 0.002304 -0.004277 0.000121 0.001003 -0.002786 0.004430 0.001304 -0.002464 0.002719 -0.004103 0.000920 -0.004302 0.001030 -0.002374 0.001272 0.002278 0.000401 0.001286 0.002769 0.003127 0.001230 -0.000510 -0.000584 0.003986 0.002370 -0.003343 0.000535 0.004322 -0.003546 0.003283 0.003279 -0.000011 -0.004657 -0.003838 0.004302 -0.004667 -0.001097 0.001401 -0.003228 0.005193 -0.003307 0.000207 0.001138 -0.002635 -0.000514 -0.000374 0.002284 0.001424 -0.000254 0.001590 -0.000301 0.000241 0.001620 -0.003230 0.003060 0.001455 0.004888 -0.002315 -0.000016 0.003916 0.001141 0.002858 -0.000719 0.001783 0.004154 -0.002561 0.003062 0.004904 -0.004700 -0.002936 -0.003383 0.002358 -0.004021 0.005299 -0.000783 0.004037
sent_19 -0.002851 -0.000092 0.003669 0.001351 -0.000173 0.000309 0.000929 -0.000864 -0.003669 -0.003643 -0.003742 -0.004270 0.001137 0.003891 -0.001600 -0.004574 -0.000827 0.000629 -0.000760 0.002836 0.004935 0.002773 0.002238 -0.000101 0.001959 -0.005576 0.004391 -0.003747 0.003672 0.003530 0.003105 -0.001999 -0.002760 -0.000973 0.004074 -0.000849 0.004752 -0.001398 0.000726 0.005031 0.001692 -0.005107 -0.001032 -0.001727 0.000476 -0.002164 -0.003213 0.002186 0.002264 0.003409 -0.004061 0.003419 0.003124 0.001214 -0.002896 -0.002458 -0.000960 -0.000271 -0.000160 -0.000591 0.003842 0.004251 0.002719 0.004547 0.000831 0.004246 0.000921 0.001056 -0.002058 0.001399 -0.004983 -0.003436 -0.003559 0.001445 -0.002932 -0.001546 -0.004495 -0.002657 0.004908 0.000947 -0.003300 0.000995 0.004963 0.003675 -0.000802 -0.001043 0.002843 -0.002711 -0.002845 -0.003347 0.003792 -0.000130 0.000967 0.002219 0.003719 -0.001075 -0.002820 0.003858 -0.004127 0.004515
sent_20 0.000741 0.003798 0.000973 -0.002393 -0.001863 0.000124 0.004868 -0.003290 0.000199 -0.001474 0.002712 0.002947 -0.000714 -0.002792 -0.004212 -0.002936 -0.002313 0.000965 0.003650 -0.003748 0.004597 0.001606 0.002397 0.004946 -0.000935 0.000238 0.001873 0.000058 -0.001963 -0.004076 -0.002192 0.002637 0.001279 0.003001 0.000069 -0.002496 0.001084 -0.001859 -0.004820 0.004078 -0.000925 -0.000708 0.002303 0.004289 -0.004200 -0.003174 -0.001729 -0.002490 -0.000027 0.003311 0.003459 0.000940 -0.002677 -0.003318 0.002231 -0.002696 0.000431 0.002405 -0.002787 -0.003156 -0.004199 -0.003408 0.003403 -0.003857 -0.002675 -0.004704 0.001616 -0.002618 -0.000762 -0.003643 -0.001253 -0.000614 -0.000152 -0.000774 -0.003945 0.002848 -0.003651 -0.000532 -0.002265 -0.001705 0.001669 0.000230 -0.003059 -0.000343 -0.001492 0.002113 -0.002663 0.003327 0.000200 0.000235 -0.002306 -0.003231 -0.000031 0.004619 -0.003530 -0.002319 0.003081 0.001509 -0.002045 -0.001933
sent_21 -0.000641 0.001187 0.002437 0.003905 0.001745 -0.002378 0.004258 0.002866 -0.002174 -0.001942 0.003657 -0.003681 0.001625 -0.002259 0.003082 -0.001522 0.002218 -0.003176 -0.000092 0.002942 -0.000834 -0.003824 0.001696 0.002651 -0.002233 -0.000728 0.003846 0.003512 0.002000 0.001045 0.003190 0.004309 -0.004978 -0.001136 0.000839 0.002249 -0.004047 -0.001051 -0.002466 -0.000680 -0.000105 0.001414 -0.000232 0.001398 0.001098 -0.000779 -0.004710 -0.002960 -0.001586 -0.003547 0.000903 0.001384 -0.000100 -0.001898 0.001588 -0.002900 -0.004987 0.002123 -0.000667 0.001745 -0.003024 -0.004164 -0.001400 0.002299 -0.003894 -0.003133 -0.000614 0.001198 0.002195 -0.003891 0.000914 -0.001057 0.001715 -0.003158 0.000555 -0.003289 -0.004888 -0.000320 -0.003121 0.001631 0.000469 0.002957 -0.000894 0.004750 0.000332 0.000204 0.002509 0.000669 -0.001475 0.000220 -0.003006 -0.000903 -0.004654 -0.000284 -0.001912 0.000020 -0.004595 0.000789 -0.001726 0.000705
sent_22 0.002193 -0.000482 0.001339 -0.002563 0.005047 -0.002813 0.004667 -0.002988 0.000244 0.003247 0.002239 0.001931 -0.000636 0.002717 0.004277 -0.000298 0.000236 -0.004118 -0.001213 -0.000337 0.003704 -0.003972 0.001975 0.000542 0.000895 -0.004532 -0.003311 -0.001975 -0.004721 0.001323 0.003451 0.000356 0.000253 0.001252 -0.002197 -0.000994 0.000339 0.003163 -0.002963 -0.001640 0.002143 -0.001339 -0.004401 -0.003825 -0.002929 0.000148 0.001206 0.003722 0.003847 -0.001756 0.002345 -0.002315 -0.001446 -0.002206 -0.001128 -0.003006 -0.001612 -0.003829 0.004461 0.000232 0.004776 0.002556 -0.000411 0.002528 0.001460 -0.001890 0.000070 0.002062 -0.001682 -0.004861 -0.002170 0.003055 0.004314 0.001353 -0.003658 0.002815 0.000302 0.002956 0.003493 0.004650 0.001356 0.003368 0.002436 0.002120 0.003531 0.004056 0.004013 -0.001172 -0.004057 0.003420 0.000606 0.000256 0.003601 -0.004930 0.003753 -0.004652 0.002009 0.000557 0.001535 -0.001380
sent_23 -0.001913 0.000379 0.004272 0.001102 0.001591 -0.000202 0.004617 0.002406 -0.001961 0.001574 0.000158 0.004082 -0.001811 -0.003865 -0.003392 -0.001575 0.003413 -0.002559 0.001386 0.001062 -0.000536 -0.005103 0.002683 -0.001986 -0.000917 -0.001696 0.001253 -0.004535 0.000212 -0.004371 0.004906 0.001289 -0.001172 -0.003823 0.002475 0.003772 -0.001572 0.002658 -0.002472 0.004862 0.002090 0.000772 0.003849 -0.001993 0.004492 0.001748 0.003151 0.000945 0.003741 0.001787 -0.003742 0.001654 -0.002349 0.004012 -0.002845 -0.001950 -0.004540 -0.000916 0.000555 0.000445 0.004201 -0.001201 -0.000744 0.004146 0.000890 0.001326 -0.002297 -0.000092 0.000814 -0.003752 -0.005282 -0.003818 -0.000290 -0.004931 0.001566 -0.004205 -0.002542 -0.001064 -0.003667 -0.001842 -0.004680 0.005303 0.001550 -0.001408 -0.004599 -0.000306 -0.000463 0.004190 -0.002421 0.001657 0.001697 -0.002762 0.000035 0.002990 -0.003461 0.000744 -0.004525 -0.004424 -0.003948 -0.000150
sent_24 0.004267 -0.001077 -0.004189 0.003597 0.000114 -0.001712 0.004504 0.004524 -0.002290 -0.003048 0.000856 0.003394 -0.001683 0.000695 -0.003373 -0.003054 0.002622 -0.003460 -0.002258 0.001962 -0.004906 -0.004580 -0.002080 -0.001734 -0.001395 0.003187 -0.004625 -0.001373 0.001449 -0.003617 0.003622 0.001468 -0.003855 -0.002929 0.002391 -0.000914 -0.000179 0.003864 -0.003513 0.004564 -0.004600 -0.003964 -0.002647 0.003157 -0.000407 0.001478 -0.003334 -0.003399 0.000180 0.002433 -0.000250 0.003680 0.001658 -0.002418 -0.002652 -0.001123 0.002573 0.004523 0.003594 -0.002362 -0.001037 0.001008 0.000543 -0.001203 -0.003962 0.002239 -0.004083 0.003697 0.003523 0.002240 -0.000149 0.001893 -0.001084 0.002895 0.002858 -0.003518 -0.001853 -0.001683 -0.001411 0.000454 -0.004597 0.001453 -0.003055 -0.000885 -0.000513 -0.001693 -0.001225 -0.003187 -0.004245 0.000333 0.000915 -0.003609 -0.002807 -0.002032 0.003242 -0.003359 0.000439 0.000611 -0.001628 -0.001514
sent_25 0.004628 0.000403 0.001486 -0.000233 0.001495 0.001035 -0.003634 -0.001614 -0.000324 -0.003769 -0.001273 -0.002675 0.003365 -0.001662 -0.002642 -0.000951 0.001847 -0.004336 -0.003193 0.002027 0.002397 0.001380 0.003727 -0.003422 0.002051 0.004294 -0.003502 -0.002421 0.000446 -0.001566 0.001960 -0.004510 -0.003419 0.002223 0.004583 0.004297 0.003939 -0.003774 -0.003448 -0.004263 0.000347 0.003887 0.000398 0.002820 -0.003183 0.003654 -0.003277 -0.004558 -0.000848 0.000510 0.004846 -0.004152 -0.002215 -0.003883 -0.001008 -0.002144 0.000186 -0.001341 0.004363 0.002918 0.003469 -0.003871 0.000880 -0.002997 0.003635 -0.004796 -0.003857 -0.001232 -0.000929 -0.002225 -0.003972 -0.003835 -0.001861 0.004603 -0.003038 0.002415 -0.002418 -0.004625 -0.004869 -0.003631 -0.000427 0.002408 0.002184 -0.001450 -0.000293 0.002940 0.003319 -0.001801 -0.004867 -0.004773 0.002290 -0.002301 -0.000345 -0.003095 0.003310 0.000151 0.000225 -0.002190 -0.000023 -0.004982
sent_26 -0.002277 -0.001653 -0.002305 -0.004361 0.000216 0.002799 0.004389 -0.000001 0.001111 -0.002112 -0.003418 -0.003690 0.002140 0.002286 -0.003073 -0.000788 0.000984 -0.003697 0.002853 0.001269 0.000969 0.002321 0.004716 0.000520 0.003639 -0.000596 0.001606 0.004435 0.001690 -0.002045 0.001188 -0.001624 -0.001802 0.001197 -0.003573 -0.000047 0.004354 -0.001169 -0.002942 -0.000376 0.003359 0.003562 0.003415 -0.004953 -0.002445 0.005067 -0.003990 -0.000245 0.002736 -0.003796 0.001734 -0.000305 -0.002966 0.003861 -0.003159 0.001318 0.002515 0.000834 0.001331 -0.003689 -0.002063 0.000686 -0.000900 0.001368 0.003493 -0.003001 0.004166 -0.001149 0.004592 0.001195 0.003090 0.000078 0.000263 -0.001625 -0.003852 -0.001207 -0.002847 -0.004593 -0.002307 -0.003401 0.003661 -0.004383 -0.003299 0.002088 0.004067 -0.002811 -0.004836 0.004610 0.001928 -0.002163 -0.000393 0.000903 -0.001360 0.003707 0.002006 0.004736 -0.001530 0.004199 -0.000403 0.001413
sent_27 0.002366 0.003093 -0.001037 -0.000521 0.003173 0.002176 0.004408 0.004796 -0.003211 -0.002721 0.002160 0.002474 0.001032 0.003773 -0.002480 -0.001605 -0.000054 -0.001850 0.000454 0.001825 -0.002796 -0.000147 0.004930 -0.001758 -0.004646 0.003174 0.000033 -0.004472 0.003903 -0.000955 0.004293 -0.000979 -0.004232 -0.002547 -0.001497 0.002507 -0.003153 -0.000690 0.003732 0.000338 -0.003968 -0.004755 0.002058 0.004791 0.002852 0.002647 0.001754 0.002955 -0.004600 -0.002353 0.001954 0.003670 0.001746 -0.003237 0.004363 0.004034 -0.004133 -0.003070 -0.002248 0.002384 0.003594 0.000783 -0.003004 -0.000849 -0.003621 0.004174 0.002645 0.000102 -0.000464 -0.004022 -0.001813 -0.003794 0.002823 0.000449 -0.002727 -0.002758 -0.002396 -0.001911 -0.001123 -0.002025 0.001796 -0.004649 -0.001719 0.002453 0.004428 0.003027 -0.002592 -0.002671 -0.003097 0.003825 -0.002621 0.002582 -0.002390 -0.004669 0.002334 0.002262 -0.004110 -0.001733 0.004484 -0.003371
sent_28 -0.004445 0.001057 0.003898 -0.003954 0.000307 0.001337 -0.003071 -0.005012 0.003919 -0.004472 -0.002254 0.001298 -0.002298 -0.004757 0.000736 -0.001830 -0.003692 0.004741 -0.003435 0.002245 0.003718 0.003935 -0.003125 -0.002316 -0.004858 0.004366 0.004174 0.001126 -0.003818 -0.003433 0.000629 -0.002832 -0.002077 -0.003017 -0.003283 -0.000543 0.000188 -0.000067 0.004945 -0.003557 0.002245 0.003112 0.000810 -0.000563 0.003825 0.003380 -0.004600 0.004502 -0.005117 0.000792 0.000646 0.003388 -0.000915 -0.004207 0.000783 -0.005076 -0.001486 0.005136 0.003747 -0.003391 0.002920 0.002894 0.004210 -0.003025 -0.000427 0.003266 0.001753 0.000866 0.002015 -0.002855 -0.004332 0.002524 -0.001838 -0.000960 0.001035 0.001785 -0.003081 0.003597 -0.001355 0.001415 0.004744 0.000689 -0.001780 0.001368 -0.000013 -0.000760 0.002364 0.004383 -0.000215 -0.004147 0.000808 -0.002605 -0.004527 0.002712 -0.002621 0.002833 -0.000292 -0.002055 -0.002059 -0.004515
sent_29 0.000344 0.003236 -0.004161 -0.003914 0.000293 0.001601 0.001947 -0.001868 -0.004622 -0.000854 -0.002740 -0.004989 0.001857 0.004521 -0.001088 -0.001997 0.000538 0.003520 0.002950 0.001848 -0.000679 0.001904 -0.002840 -0.002161 0.002778 0.004300 -0.003100 -0.002039 -0.004938 -0.000684 -0.002897 0.001414 0.002096 -0.003812 -0.004179 0.004063 -0.001108 0.000334 0.004632 0.002591 -0.001745 -0.004142 0.000360 -0.001639 -0.004783 0.002712 -0.001151 0.000713 0.002557 0.004408 0.001123 -0.001846 -0.003899 -0.004261 -0.001803 0.001608 0.001952 -0.002923 -0.004172 -0.001945 0.000476 0.002547 0.000297 -0.002130 0.001242 -0.002352 0.001527 0.003419 0.001389 0.000656 -0.001929 0.003768 0.004888 0.002775 0.000736 -0.003587 -0.001851 -0.001331 -0.002081 -0.000540 0.001106 -0.002871 -0.002502 -0.003878 -0.001924 -0.000026 -0.000102 0.004956 0.004811 -0.000634 0.004720 -0.002856 0.000411 -0.000466 0.004676 0.003362 -0.002859 -0.000605 -0.003315 0.000291
sent_30 0.002950 -0.004531 -0.003070 0.004834 0.004622 0.000591 0.001477 -0.002320 0.004400 0.001729 0.001632 -0.004874 0.003615 0.002853 0.001770 0.002364 -0.003466 0.002172 -0.004032 0.002016 -0.004920 0.002647 -0.000057 -0.002894 0.002316 -0.001951 0.003804 -0.003238 0.004340 0.004768 -0.001967 0.003660 0.003447 -0.000772 -0.001260 -0.002271 0.005032 -0.002480 0.004136 -0.000659 0.004367 0.003305 -0.003524 0.000734 0.001771 -0.000955 -0.004879 -0.001669 0.003441 -0.004390 -0.004038 0.002115 0.000131 -0.000038 -0.001242 0.001016 0.003469 -0.002323 0.003450 -0.000911 0.000048 0.002381 -0.002483 0.004328 0.001988 0.001120 -0.002295 0.001912 -0.002446 0.003093 -0.004929 -0.003286 0.000575 0.002131 -0.000007 0.003807 0.004764 -0.000358 0.002689 0.000065 0.001700 -0.002631 -0.003850 0.004795 0.003175 -0.001979 0.000872 -0.001190 -0.003280 -0.000695 -0.001978 -0.004760 -0.001079 0.004212 0.003362 0.000671 -0.001791 -0.002587 0.004629 0.000665
sent_31 -0.002379 -0.002206 0.004881 -0.002397 -0.003693 -0.002948 0.002760 0.001871 -0.001051 0.003169 -0.000003 -0.000411 -0.003369 0.004061 -0.002285 0.000720 0.004750 -0.003778 0.004650 0.001378 -0.003186 0.001908 0.004648 0.000582 0.002062 -0.005325 0.004201 -0.002293 -0.005259 0.003626 0.004994 0.002697 -0.005004 -0.004671 0.001335 -0.001946 0.004000 0.003968 0.004451 0.002408 0.004031 -0.002255 -0.004624 0.003594 -0.001937 -0.000783 0.001981 0.001395 -0.000237 -0.001609 -0.003902 0.000665 -0.002791 0.002222 0.001938 -0.004387 0.004959 0.002241 -0.002494 -0.004753 0.000160 -0.001171 0.000173 0.002281 0.003311 -0.005132 0.002161 -0.001784 0.004586 0.003008 -0.000044 0.001039 -0.002963 -0.002827 -0.003318 -0.001308 -0.003788 0.000089 0.001805 -0.002989 -0.001456 -0.003648 0.000841 0.001437 0.001343 0.004150 -0.002406 0.001004 -0.002371 -0.003454 -0.002125 -0.003882 0.004806 0.001999 -0.003236 0.002309 -0.001046 0.004574 0.000476 0.003698
sent_32 -0.002818 -0.001236 -0.001351 -0.003996 -0.001677 0.001586 -0.000308 0.003748 -0.002357 -0.001418 -0.001832 0.000503 -0.003069 -0.003193 0.004339 -0.001226 0.000860 -0.004436 -0.003601 -0.004079 0.003150 -0.004047 0.000157 -0.003399 -0.002195 0.003760 0.001321 0.004613 0.000991 -0.004894 -0.000871 -0.004763 -0.001840 -0.000201 0.000825 -0.002662 0.000657 -0.001055 0.000045 -0.003012 -0.003396 0.002498 -0.001741 0.001387 0.000666 0.003987 0.003853 -0.000494 -0.002933 0.001327 0.001272 0.001978 0.004072 0.002818 0.001225 0.000979 -0.002910 0.001439 0.003137 0.004207 0.004223 0.000685 -0.002455 -0.001589 0.004966 0.000216 0.003141 0.000935 0.000085 -0.001561 0.000376 -0.004908 0.003769 0.000624 -0.004717 0.003223 -0.003627 -0.004659 -0.000376 0.004692 -0.004037 -0.004258 0.003843 0.003221 0.003205 -0.000219 -0.000705 -0.000978 0.000791 0.002381 0.002896 0.001576 0.000704 -0.000886 -0.001748 -0.002173 -0.002034 0.001871 0.002662 0.000999
sent_33 -0.002614 -0.002789 0.002548 0.004595 -0.004481 -0.002717 0.003116 0.001841 -0.002596 0.000847 0.000866 0.002501 -0.000233 -0.000665 -0.001882 -0.002784 -0.004142 0.000989 0.001576 0.001814 -0.004772 -0.001025 -0.003908 0.000220 0.004936 -0.000331 -0.001649 0.002993 0.004409 -0.001944 0.003167 0.004966 -0.003955 0.000234 0.003352 -0.001493 -0.000426 0.002722 -0.004110 -0.001185 0.000813 -0.002760 0.002961 0.002209 0.004446 0.000308 -0.003696 0.004639 0.003669 0.000098 0.003252 0.003932 0.002822 0.000467 0.001151 0.003090 0.001311 -0.003145 0.002195 0.000547 -0.002029 -0.004961 -0.002757 0.001993 0.004028 0.003176 -0.003782 -0.004098 0.002751 -0.002716 -0.002512 -0.004923 -0.003927 -0.003470 -0.003497 -0.000442 0.003316 0.003511 0.004345 -0.000012 0.002097 0.000332 -0.004185 -0.004183 -0.002552 0.005273 0.002152 -0.002410 0.001726 0.001958 -0.004695 -0.001236 0.003095 -0.004672 0.004201 0.004011 0.003727 -0.003775 0.000839 0.002049
sent_34 0.003742 -0.003769 0.003189 -0.001781 0.000916 0.002152 0.003042 -0.002090 0.000963 -0.002014 0.004775 0.002810 -0.000574 0.004002 0.002180 0.004471 -0.003402 -0.001874 -0.004027 -0.001986 -0.001004 0.000754 -0.000071 0.002573 -0.002482 -0.003560 -0.001043 -0.000839 -0.000660 0.003931 -0.002480 -0.001330 -0.002879 -0.001264 -0.001053 0.000906 -0.002192 -0.002439 0.001850 0.004034 -0.003927 -0.003262 -0.003812 0.001701 -0.002440 0.001022 -0.002710 0.003407 -0.001799 0.001943 -0.003866 -0.001746 -0.002176 0.001171 0.001467 0.003615 -0.003335 0.002223 0.001810 0.000408 0.001987 -0.003639 -0.003883 -0.000517 0.002162 -0.003419 -0.001491 -0.000119 0.004187 -0.004320 0.003224 0.005067 -0.002189 0.003656 -0.001743 0.003259 -0.000496 0.001094 -0.002748 0.002280 -0.003377 0.000804 0.000043 0.003244 0.000163 0.003201 -0.000921 -0.002011 0.002768 -0.000236 0.000438 0.000773 0.003651 0.000830 -0.000577 -0.003698 0.002128 0.003853 -0.003468 -0.000468
sent_35 0.004528 0.000789 0.000605 -0.004105 0.000399 0.001708 -0.003456 0.004482 -0.003281 0.001738 -0.002319 -0.003811 -0.002127 -0.001544 -0.000358 -0.002793 0.002250 0.002936 0.002899 0.002094 -0.002123 -0.003332 -0.003852 -0.000988 -0.004142 0.001307 0.004285 0.002391 -0.003986 -0.004640 -0.001623 0.005110 -0.001907 0.002302 0.002328 0.000703 -0.001349 -0.002906 0.004543 -0.004252 -0.002648 -0.002086 0.003866 0.002156 -0.002177 -0.003311 0.004013 0.003070 -0.004448 0.003693 0.000797 -0.000301 0.001570 -0.004734 -0.001637 -0.004086 0.001865 -0.001335 -0.000238 -0.002268 0.003154 -0.004291 -0.002332 0.001245 0.003044 0.000865 0.002180 -0.004765 -0.002648 -0.004684 -0.000275 0.004996 -0.004796 -0.000675 -0.004803 0.001128 -0.003149 0.002121 -0.003295 0.003620 -0.002915 -0.001281 -0.002452 0.003013 0.000065 0.004168 -0.003632 -0.000130 0.002672 0.005125 0.001809 -0.003003 0.002690 -0.004332 0.002980 0.003034 0.000819 0.000163 0.004678 -0.005046
sent_36 -0.005038 -0.002952 -0.000517 -0.000277 -0.001137 -0.002528 -0.002959 0.003031 -0.001230 -0.000123 0.003547 0.001070 -0.001528 -0.003379 -0.000543 0.000075 0.004924 -0.001993 -0.003421 -0.002539 -0.003571 -0.003283 -0.001841 -0.002389 0.003764 0.003508 -0.003630 0.004179 -0.003721 0.001834 0.000669 -0.004690 0.003814 0.004135 0.002701 -0.000972 -0.003314 0.004897 0.003598 -0.004614 -0.001770 0.003637 0.000686 -0.002807 0.002658 -0.002078 -0.005693 -0.003260 0.004416 0.001571 -0.002399 0.001313 0.002107 0.001501 -0.004246 -0.002890 0.004092 0.003112 -0.003181 -0.001652 0.000392 0.002607 -0.002540 -0.004842 -0.001320 0.004455 -0.002086 -0.003854 -0.003813 -0.001455 -0.004027 0.000782 0.001580 0.000036 0.001935 -0.000023 0.001955 -0.002284 0.002238 -0.000492 0.001705 -0.001238 -0.000499 -0.004480 -0.000466 -0.004695 -0.003776 -0.000738 0.001127 -0.002412 -0.003631 0.002078 0.004345 0.002069 -0.005068 0.003936 -0.004459 -0.001313 0.003720 -0.002480
sent_37 -0.003550 0.002825 0.004603 -0.001292 -0.002803 -0.002836 0.004616 0.000871 0.003288 -0.001928 -0.004643 -0.000436 -0.002559 0.000112 0.000099 -0.002247 -0.002087 -0.004826 -0.000657 -0.001882 0.001423 0.003061 0.000217 -0.003991 0.004269 0.002797 -0.001494 -0.001940 0.004333 -0.001116 0.001350 0.005151 -0.004626 -0.001971 -0.002412 0.004113 0.000622 -0.004566 0.002223 0.001934 0.001475 0.004341 0.003549 0.002817 -0.002383 -0.003721 -0.002498 -0.002842 0.000923 0.001660 0.000163 -0.004077 -0.001491 0.004565 0.002015 -0.001007 0.001633 -0.002610 -0.004397 -0.000051 -0.001978 0.000082 0.003788 0.001926 0.002298 -0.004073 -0.000422 -0.001009 0.001058 -0.002057 -0.001567 0.004899 -0.003850 -0.003271 -0.002225 0.001966 0.002020 0.002576 -0.001186 0.003788 0.002122 0.002363 0.003404 0.001091 -0.000539 -0.004205 0.000949 0.000584 0.000908 -0.001373 0.000717 -0.003091 0.001542 -0.004115 0.004156 -0.003131 -0.001954 0.004142 0.004269 0.003270
sent_38 -0.001647 0.004852 0.002935 0.002168 0.004058 0.002950 -0.000468 -0.002069 -0.001633 -0.004057 -0.001754 -0.001429 0.004280 0.004384 0.004042 -0.001850 0.001726 0.001250 -0.002600 0.003248 -0.002383 0.001321 -0.003425 -0.003449 0.002239 -0.000477 -0.000740 0.002353 -0.001504 0.003796 0.004442 0.005168 -0.002128 -0.001108 0.002963 0.003564 0.002621 0.002624 0.003402 -0.001080 0.000614 -0.000167 0.000929 0.003765 0.001378 0.004610 0.002952 -0.000205 0.001286 0.004281 0.000452 0.002720 0.001445 -0.001884 -0.003153 -0.000879 -0.003743 0.002480 0.001911 -0.001275 -0.002581 0.004522 0.000830 0.005871 -0.003830 -0.002940 -0.004500 0.002240 -0.003665 0.003467 -0.000594 0.000537 -0.004454 0.000979 -0.002134 -0.002568 0.004019 0.003965 -0.004836 0.004287 0.004275 0.001063 0.002143 0.002512 0.002112 0.000819 0.000944 0.000693 0.002950 -0.001499 0.003054 0.003468 0.003666 0.003038 0.004159 -0.001468 0.001374 0.003065 0.003459 0.004567
sent_39 0.005053 0.000966 -0.000009 0.003664 -0.002732 0.002932 -0.002996 0.000820 0.000659 -0.000429 0.003446 0.000700 0.000333 -0.000717 -0.004606 -0.001707 -0.004153 0.000248 0.001455 0.002489 0.001745 -0.003869 0.002713 0.000577 -0.003903 -0.005240 -0.002444 0.001505 0.004055 0.005054 0.002769 -0.001725 0.001242 -0.002929 0.002998 -0.003640 0.002840 0.003801 -0.000132 -0.004207 -0.000330 0.002980 -0.003681 -0.004467 0.002456 0.000572 -0.004112 0.005149 0.001158 0.000618 0.002760 0.004375 -0.004479 -0.001733 -0.002894 -0.000256 -0.004136 -0.004745 -0.001938 0.003858 0.004971 0.002937 -0.005273 0.002897 -0.004581 -0.003539 -0.004981 -0.003418 0.001534 0.001739 -0.001857 0.002394 0.003560 -0.003885 -0.003852 -0.001333 -0.000951 -0.002388 0.002770 -0.001244 0.003132 0.004691 0.000562 -0.000803 -0.003874 -0.001454 0.004035 -0.002631 0.000835 0.000537 -0.004062 0.004278 -0.004152 0.001759 0.005348 0.001661 -0.001512 -0.003831 0.001273 0.002296
