37 100
sent_0 -0.000830 0.002203 -0.004999 -0.001977 -0.003532 -0.004077 -0.003137 -0.001544 -0.001032 0.000388 -0.000808 0.001852 -0.002955 0.003781 -0.004726 0.001705 -0.000827 0.000587 -0.003596 -0.003019 0.003007 0.004683 -0.001866 0.001923 0.003764 0.003946 -0.004150 -0.004609 -0.003302 0.003781 -0.004017 -0.000789 0.004579 0.000332 0.001919 -0.001845 0.001865 0.003346 -0.004817 0.002501 0.004889 0.002482 -0.002196 0.002893 -0.003968 -0.000521 0.004086 -0.002064 -0.002122 -0.003700 -0.004806 0.001788 -0.002884 -0.002345 -0.000084 -0.004466 0.000741 -0.003533 0.000893 0.001998 -0.003977 -0.000859 0.001944 -0.000858 -0.004500 0.000359 0.001638 0.000149 0.004446 0.000866 0.004034 -0.003625 -0.003607 0.003074 -0.001023 -0.003346 0.004275 -0.001522 0.002508 0.002260 0.003833 0.001237 0.002509 -0.001511 -0.002301 0.003959 -0.000719 0.004648 0.001634 0.001217 -0.003853 0.004495 -0.000501 0.000784 -0.000919 -0.002630 0.004034 0.000737 -0.004971 0.001171
sent_1 -0.001997 0.000232 0.003672 -0.001411 0.004151 0.000921 -0.004628 0.004290 0.002118 0.005050 -0.003274 -0.003948 0.004215 0.002011 -0.004329 0.002763 0.002462 0.004405 0.002094 -0.003788 -0.004874 -0.004664 -0.004586 -0.002271 0.003454 0.000439 0.000910 0.003406 -0.003513 -0.002502 0.000736 0.004527 0.000552 -0.004734 0.002803 -0.002497 0.003003 -0.001135 0.003626 0.002394 0.000364 -0.003493 -0.004307 -0.003846 -0.004484 -0.003930 -0.002780 0.002055 0.000468 -0.004599 -0.004341 0.004652 0.000753 -0.003054 -0.002772 0.002476 -0.003162 0.000974 0.004526 0.003553 -0.002477 -0.000070 0.001093 0.003122 -0.003592 -0.004751 -0.004458 -0.000145 0.001246 0.000834 -0.001609 0.005012 0.000869 -0.001242 0.000561 0.002618 0.001559 -0.002225 -0.004495 -0.001289 0.001327 -0.002959 0.002282 -0.004313 -0.002286 0.002799 -0.003053 0.001416 0.000246 0.004322 -0.002128 -0.004569 0.002531 0.002725 0.003943 0.004315 -0.005034 -0.002936 0.001147 0.004440
sent_2 0.004477 0.000670 0.004103 0.001355 -0.001036 -0.000286 0.001129 0.000394 0.004310 0.004283 -0.001010 0.004653 -0.003284 -0.003649 -0.003683 0.000089 -0.004826 0.004473 0.003198 -0.004889 -0.003263 -0.001730 -0.003794 0.003153 -0.001565 0.004395 0.000844 0.003836 0.003487 0.004032 -0.000459 0.000426 0.002946 -0.002109 -0.000105 0.000956 -0.004869 0.000983 -0.000634 0.003123 -0.001862 0.003973 0.000746 -0.003310 0.002849 0.001166 -0.004458 -0.000756 0.001825 0.004207 -0.005060 0.004773 -0.001225 0.004687 0.000997 0.003199 0.000768 0.001278 -0.002132 0.000967 0.002656 0.003584 0.002552 0.002005 0.003696 -0.001787 0.001711 -0.000507 -0.001087 -0.001010 -0.000987 -0.001796 0.001231 -0.000613 0.004721 0.001869 -0.002971 -0.000570 -0.001557 0.003091 0.003778 0.004144 0.001664 -0.002319 -0.002515 0.003571 0.000328 0.003017 0.000642 0.002407 0.000234 0.002701 0.000821 -0.000457 -0.001529 -0.004374 -0.001228 -0.004270 0.004873 -0.003210
sent_3 0.002936 0.003298 0.001537 0.000120 -0.003343 -0.000636 -0.001708 -0.002673 0.001518 -0.001978 0.004440 0.004019 -0.002948 -0.004094 -0.002704 0.000236 0.002403 -0.002762 -0.002583 0.003820 -0.001288 0.001990 -0.002979 -0.004320 0.000152 0.000344 -0.003267 0.001666 0.000624 0.001212 -0.003518 0.002132 -0.002869 0.000419 0.002311 -0.004519 -0.002097 0.003761 0.003945 0.000238 0.003572 0.004953 0.003711 0.003282 -0.004344 0.001594 0.001513 0.000771 0.002635 -0.004637 0.003066 0.001866 -0.002208 -0.002220 0.001283 -0.001729 0.003155 0.000054 0.002979 0.005324 -0.002309 -0.004127 0.004443 -0.000251 0.004727 0.001702 0.005224 0.000565 0.000624 -0.003508 -0.000967 -0.004950 -0.003486 0.002718 -0.005165 -0.001375 0.003703 0.002165 0.001790 -0.003732 -0.000795 0.000198 0.004511 -0.002879 -0.002838 -0.003325 0.002384 -0.000381 -0.004125 -0.000698 -0.003129 0.002671 -0.002256 -0.004848 0.000303 0.003927 -0.001412 0.001947 -0.000467 0.000415
sent_4 0.005165 0.004213 -0.004016 0.002820 -0.000010 0.004920 -0.002544 -0.002797 -0.005559 -0.000052 -0.004621 0.001879 0.004168 0.002726 0.001874 -0.002426 0.003193 -0.001664 0.003328 0.000528 -0.002292 -0.006174 -0.004227 -0.003845 0.000017 -0.005493 -0.005707 0.001435 -0.001887 0.003696 -0.000184 0.000238 0.000066 -0.000953 0.004577 -0.002135 0.005409 -0.004432 0.001879 -0.003307 0.002013 -0.006287 -0.001136 -0.004933 0.004718 0.003804 0.004304 0.005368 -0.002354 -0.003982 -0.004005 0.002395 0.004008 0.004464 0.002289 0.002303 0.003592 -0.002343 -0.002286 -0.003821 -0.003240 0.004220 -0.004538 -0.000708 0.003346 -0.002723 0.004665 -0.002281 -0.000307 -0.002796 0.002899 -0.000989 -0.000423 -0.000166 0.005160 -0.004669 0.002268 0.003633 -0.004136 0.001974 -0.001154 0.005600 0.001730 0.001952 0.000024 0.003844 -0.001605 -0.004973 -0.000310 -0.000104 0.000377 0.005076 -0.000024 -0.002596 0.000358 0.003105 0.004863 0.004790 0.005357 -0.002569
sent_5 -0.003463 -0.002502 -0.001556 -0.003042 0.001442 -0.000607 0.003340 -0.003476 0.001695 -0.002435 0.000682 -0.000897 -0.003942 -0.002460 0.001886 -0.000498 0.000179 -0.004023 0.000647 0.004936 0.003622 -0.000058 0.004671 0.003757 0.001066 -0.005232 -0.004965 -0.004733 -0.001075 -0.000755 0.005090 -0.002951 0.004541 0.002419 0.003573 0.001232 0.001506 0.000081 -0.005320 -0.001200 0.000087 0.001913 -0.001051 -0.000705 -0.003566 -0.004707 0.003030 -0.001474 0.005423 -0.003390 -0.001579 0.000391 0.002270 -0.000745 -0.003538 -0.002045 0.000354 0.001105 0.002981 -0.003691 -0.004098 0.000501 0.002936 -0.004146 0.002379 0.001593 -0.000489 0.004485 0.001081 -0.005505 -0.000949 0.003667 0.003510 0.001448 0.001760 0.000682 -0.002073 0.000806 0.002200 -0.000608 0.003480 -0.002530 0.003207 -0.002249 0.002950 0.000267 0.003350 -0.001845 -0.003230 0.003266 -0.002141 0.002714 0.002702 -0.003330 -0.001965 -0.003613 -0.002909 -0.000838 -0.004081 -0.004059
sent_6 0.001943 0.003029 -0.004160 -0.002631 -0.002775 0.004192 0.002189 0.000436 -0.001943 0.003408 -0.000646 0.004420 0.002162 -0.000134 -0.003629 0.004659 -0.003406 -0.003173 -0.000730 -0.000953 -0.003477 0.002012 -0.003228 0.001324 0.002557 -0.002985 0.000787 0.002424 0.001254 0.001051 -0.001960 0.002383 0.004336 -0.000852 0.002852 -0.004372 0.003177 -0.002929 -0.001130 -0.001880 -0.004211 0.003979 -0.001495 0.000154 -0.000041 -0.003584 -0.002880 -0.004186 0.000226 -0.002534 -0.001426 -0.003901 0.002774 -0.004069 0.004858 -0.003303 0.000871 -0.004695 0.002950 -0.003011 0.000588 0.002467 -0.003517 0.000723 -0.002595 0.002557 0.002217 -0.003104 0.003580 -0.004930 0.003372 0.000612 -0.000906 0.002606 0.002149 0.004854 -0.002163 -0.004851 0.004478 0.003850 0.002196 0.000251 0.002286 0.002717 -0.001242 0.002925 0.002563 0.000978 -0.001053 0.002127 -0.005026 0.002797 0.004076 -0.002818 -0.003546 -0.002951 -0.001802 0.003843 0.000617 -0.002198
sent_7 -0.003556 -0.001816 0.001200 -0.001627 -0.000346 -0.000507 0.003333 -0.000854 -0.001882 0.001877 -0.002905 -0.000264 -0.001620 0.001470 0.003582 -0.000684 0.002769 -0.000561 0.001569 -0.003839 -0.000458 0.003758 0.001177 0.002824 0.000144 -0.000363 0.003290 -0.004497 0.000560 0.004655 0.000203 -0.002958 0.003558 -0.002573 0.002321 0.000108 0.004822 0.001190 0.003186 -0.004783 0.005006 -0.004506 -0.002073 0.004448 -0.004868 0.003177 0.003856 -0.000356 -0.002256 0.002932 -0.000454 -0.003383 0.004286 0.003891 -0.000026 0.003506 -0.000962 0.001577 -0.000970 -0.000122 -0.003031 0.004874 -0.002277 -0.003650 -0.003647 -0.005061 0.002124 0.000579 0.002891 -0.000157 0.002768 0.002080 0.002795 -0.000929 0.001642 -0.003157 -0.001771 -0.003298 -0.000844 -0.002229 -0.000780 0.005151 -0.001629 0.004879 0.001449 -0.000742 0.003649 0.001222 -0.002656 0.003273 -0.000578 -0.001219 -0.001567 0.001969 -0.002059 0.002866 -0.001981 0.000735 0.000062 0.003623
sent_8 0.003884 -0.003156 0.000853 0.003982 -0.000539 0.004219 -0.002210 0.001088 0.001825 -0.002718 -0.004862 -0.000833 0.004385 -0.001570 0.002797 -0.003253 -0.001580 -0.003554 0.002168 0.001993 0.001885 -0.002466 0.001924 -0.002727 -0.000754 -0.001281 -0.001447 -0.004423 0.001316 0.002073 0.001136 0.001483 -0.003301 -0.003506 0.000142 0.003753 -0.003160 -0.000372 -0.000711 -0.000027 -0.003385 -0.001576 -0.002381 0.003445 0.003003 -0.000734 0.001070 -0.003545 0.000096 -0.002031 0.003597 0.001716 0.001335 -0.003752 -0.000294 0.004866 0.004483 0.001451 -0.003483 0.001391 0.000657 -0.000313 -0.000720 0.000993 0.003500 0.002511 0.000794 0.004247 -0.004353 0.004913 -0.004470 -0.003005 -0.000772 -0.003925 0.001237 -0.004520 -0.002154 -0.004390 0.002035 0.001685 -0.001214 -0.003118 0.002470 -0.001596 0.002953 -0.000121 0.000257 -0.004715 0.001442 -0.001493 -0.002708 -0.000661 -0.001175 -0.000302 0.004795 -0.001356 0.002744 0.000528 0.003891 -0.001450
sent_9 -0.002496 0.004222 -0.004725 0.004453 0.000609 -0.001321 0.005038 -0.004468 0.000132 -0.004621 0.000822 -0.003132 0.001380 0.004786 0.003732 -0.000549 0.001824 0.002653 -0.000049 0.000301 -0.003614 -0.001307 -0.003638 0.002401 -0.000320 -0.000477 0.003766 0.000408 -0.000942 -0.002362 -0.004375 -0.000898 -0.004895 -0.001883 -0.000065 0.004603 -0.004103 0.001574 -0.000211 0.002992 -0.004034 -0.004016 -0.001138 0.002885 -0.002914 0.002824 -0.002110 -0.003027 -0.004852 -0.001118 -0.001177 0.001672 -0.004265 -0.003676 -0.004676 -0.004009 0.001708 -0.000903 -0.001786 0.000526 0.005053 0.003215 0.001972 0.004156 -0.004605 -0.004264 -0.000233 -0.001510 0.004504 -0.000300 0.000398 0.004047 -0.000665 0.003899 -0.002401 -0.002150 -0.001799 0.000689 -0.002832 0.001931 -0.003578 -0.004107 0.003621 -0.002750 -0.001124 0.000693 0.000233 -0.004304 0.003786 0.004582 0.003108 -0.002027 0.000306 -0.001808 0.000501 0.004641 -0.001733 0.001601 -0.001594 0.002603
sent_10 -0.001855 0.004204 0.002140 0.002967 -0.000029 -0.003354 -0.004012 -0.002115 -0.004486 0.001998 0.001925 -0.000925 0.002858 0.000718 -0.004502 -0.003396 -0.003348 -0.001388 -0.004729 0.001034 -0.000189 0.000715 -0.000930 0.003906 -0.000839 -0.004865 0.004067 0.001750 0.003481 0.003968 -0.004872 -0.002804 -0.004782 -0.000535 0.003266 -0.003760 -0.001031 -0.003857 0.002319 0.003820 -0.005457 0.000210 -0.002654 0.004013 0.004917 0.001490 0.004652 -0.001705 0.003847 -0.000365 -0.002929 0.004478 0.001488 -0.004807 0.003381 0.001772 0.001253 0.002164 -0.002761 0.001007 0.004268 -0.004218 -0.003853 0.003682 0.001295 0.000232 -0.003000 -0.002219 0.004055 -0.000913 -0.004306 0.004439 -0.002892 0.003451 0.004005 0.000372 0.000911 0.000985 0.001071 0.004204 -0.002346 0.003698 0.000652 -0.004130 -0.002548 0.000968 -0.002588 -0.003951 -0.003268 0.003930 0.001604 0.004518 -0.001005 0.000442 0.001166 0.000838 -0.004219 0.002134 0.004956 0.000087
sent_11 -0.003485 0.003107 -0.005463 -0.001382 0.004616 0.000184 0.004281 0.000538 0.003152 0.004109 -0.001819 -0.004291 0.002448 0.000173 -0.003828 0.001232 -0.004869 -0.002670 0.002629 -0.005161 -0.002001 -0.005415 0.004964 0.001571 -0.002296 0.003867 0.000637 -0.000521 0.001112 -0.002801 -0.002338 -0.001535 -0.002723 0.000969 0.001900 -0.004150 0.004682 0.002425 0.002679 0.002789 -0.004632 -0.000223 -0.000792 0.001053 -0.000196 0.002217 0.001992 0.002281 0.001099 -0.003076 0.001895 0.003075 0.003914 -0.003042 -0.003850 -0.001411 -0.002045 0.002807 0.000825 0.002540 0.000328 -0.003445 -0.004369 -0.000906 -0.003299 0.002916 0.000474 0.001612 0.000402 -0.004372 -0.002389 0.000245 -0.002796 -0.004576 0.002612 0.002878 -0.001765 0.004181 -0.000930 0.004563 0.001656 0.001207 -0.003032 0.000336 0.004242 -0.001567 0.003861 0.003977 -0.001847 0.002655 0.004853 -0.004378 0.004665 -0.003484 0.003751 0.001263 -0.001567 -0.003678 0.001766 0.003427
sent_12 0.003426 0.001548 0.004760 0.001070 -0.002929 -0.000571 -0.001535 0.004790 -0.001501 0.005066 0.000077 -0.003064 -0.003982 -0.001169 -0.003924 0.001113 -0.000906 0.004596 0.004296 -0.003656 -0.000757 -0.000911 0.000715 0.002875 -0.000057 -0.001167 -0.002697 0.003842 -0.004993 0.003503 -0.003035 0.002077 -0.001430 0.004584 -0.003404 -0.003376 0.004114 0.000930 -0.002130 -0.004873 -0.002565 -0.003835 -0.003329 0.004015 0.003765 0.001981 0.000042 0.003510 0.000299 -0.001558 -0.002366 0.004482 -0.001183 -0.000243 -0.002379 0.003845 -0.001200 -0.002337 0.002252 -0.003200 -0.003640 0.003580 0.002244 0.001287 -0.002438 0.001043 0.001341 -0.001669 -0.004503 0.003521 -0.000785 0.002720 -0.002391 0.000835 -0.000547 -0.001195 -0.003698 -0.002599 -0.004027 -0.001545 0.002502 0.001611 0.002046 -0.004956 0.001911 0.000630 -0.002546 -0.003311 -0.003457 0.003880 0.004815 0.004346 -0.001372 0.002714 0.000908 0.002848 0.000004 0.001214 0.003194 -0.004012
sent_13 0.000643 -0.000597 0.001278 0.005158 -0.000831 -0.000848 0.003180 0.001065 -0.001866 0.002162 -0.001305 -0.003440 0.000253 -0.001047 -0.003125 0.003909 0.001783 0.000595 0.002427 0.000042 0.002638 0.003066 0.003831 -0.003015 -0.002217 -0.005212 0.004300 -0.003203 0.001156 -0.003580 -0.002845 0.000430 -0.003874 -0.001421 0.001151 -0.002056 0.001089 0.000424 -0.001699 0.002270 0.002100 0.001160 -0.000201 -0.001595 0.001383 0.004348 0.001696 0.005496 -0.000054 0.002122 -0.005235 0.003229 -0.000036 -0.005253 -0.002211 0.000231 0.002467 -0.005426 0.000517 0.002636 0.002156 0.005109 -0.004861 -0.001197 0.004336 0.002118 0.000760 0.003260 0.003666 0.004193 0.004391 -0.003290 -0.004127 -0.004385 -0.004397 0.004851 -0.003946 0.003495 0.002148 0.001015 -0.001282 -0.000469 -0.001766 0.004120 0.002610 -0.003270 -0.000100 -0.002322 -0.005182 0.004951 0.003012 -0.001197 0.003506 -0.001945 -0.000940 0.003577 0.005199 0.000979 0.005272 0.003955
sent_14 0.000316 -0.001192 0.002146 -0.000304 0.001169 0.004921 0.002859 -0.001760 -0.004172 -0.003107 0.000249 -0.000740 0.003154 0.004449 -0.003153 0.003531 0.004554 0.004463 -0.004661 -0.004454 -0.004849 -0.002199 -0.004470 -0.002058 -0.001464 0.004390 -0.000374 -0.002322 -0.000065 0.001489 -0.003855 0.002661 0.003430 0.003372 0.003952 -0.001120 -0.000686 -0.003899 -0.002898 0.004802 -0.002194 0.003991 0.003719 0.004127 -0.003350 0.003874 0.001431 -0.002818 -0.001426 -0.003478 -0.000606 -0.004114 -0.003468 -0.003172 0.001882 0.000705 0.003808 -0.002748 0.001298 -0.004659 0.000480 0.003777 0.004754 -0.004670 -0.002306 -0.002839 -0.004613 -0.004833 -0.000161 -0.004642 -0.002413 0.001483 -0.001975 -0.002328 0.000960 -0.001171 0.002047 0.000057 0.001429 -0.001168 -0.002170 -0.003550 0.004553 0.002983 0.004473 -0.002885 0.004397 0.004224 -0.002243 -0.002021 0.000561 -0.003090 -0.000440 -0.003305 0.004734 -0.000249 0.004810 0.001508 0.000072 0.004615
sent_15 -0.003408 0.001483 0.001863 -0.000329 -0.004472 0.000179 -0.000348 0.003122 -0.002681 -0.001078 -0.002753 0.001922 0.005190 -0.003261 0.003024 -0.002857 -0.004536 -0.003712 0.004445 0.003792 -0.001911 0.004038 0.003705 -0.000536 -0.000354 0.001057 -0.003578 -0.005060 -0.002417 -0.004710 0.001761 0.000747 -0.001787 0.002694 -0.003317 -0.002642 -0.001999 -0.003089 -0.004383 0.003785 -0.004202 0.001651 -0.003991 -0.004700 0.000846 0.004009 0.003844 -0.001521 -0.004517 0.002992 0.002977 0.003954 0.001595 0.002972 0.004030 -0.000264 0.000532 -0.000165 0.001818 0.001596 0.000329 0.003494 -0.000123 0.003587 -0.002104 -0.003306 0.004545 0.002406 -0.002709 0.000824 0.004221 -0.004123 -0.004151 0.000998 -0.002479 0.002642 0.000607 0.001472 -0.003885 -0.003910 0.001355 -0.000696 -0.003951 -0.001434 0.001902 -0.002688 0.003971 0.004441 0.004516 0.002629 -0.000835 0.002599 -0.002074 -0.001765 0.001402 0.000701 0.003899 -0.002216 0.003006 0.004341
sent_16 -0.004990 -0.000239 0.001570 0.003433 -0.003163 0.003562 -0.001356 0.003923 -0.004723 -0.004146 0.004814 0.001095 -0.000824 -0.003308 0.001499 -0.004630 -0.001884 -0.001765 0.001074 0.001508 0.003461 0.004276 0.001605 0.000782 -0.001013 0.004666 -0.003459 0.003951 -0.001890 0.000485 0.001821 -0.002635 -0.003323 0.000085 0.002919 0.001924 -0.003810 0.004007 -0.000203 0.004467 0.000534 -0.004152 -0.002975 0.003542 0.002059 0.003949 -0.001709 0.000280 0.001504 0.000943 -0.002685 -0.000732 -0.002519 0.003456 0.004867 -0.004334 0.002139 -0.001699 0.001254 -0.002419 0.001510 -0.001289 -0.002052 0.004118 0.004425 0.001136 -0.002855 0.004394 0.002505 0.002511 -0.002883 0.003302 -0.002599 0.001316 0.002107 0.002424 -0.001097 0.002598 0.004029 0.000874 -0.004096 -0.003710 -0.003947 -0.003273 -0.003736 0.002783 -0.004606 -0.002584 0.003791 0.004735 0.001054 0.004762 -0.004565 0.004486 -0.001887 0.002990 0.003106 0.003600 -0.000414 0.004306
sent_17 -0.002515 0.004508 0.001063 0.004968 -0.004734 0.002164 0.000781 -0.000045 -0.002376 -0.001679 -0.002484 -0.002939 0.003127 -0.000072 -0.004318 0.002816 -0.000003 0.002406 0.000203 -0.000998 0.004749 -0.004806 0.004412 0.004589 -0.001286 -0.002810 0.001279 -0.003154 0.003190 -0.002696 -0.002291 0.004126 0.003857 0.000567 0.003515 -0.001451 0.004762 -0.000850 -0.002296 -0.004406 0.004320 -0.000113 0.002312 0.001375 0.002575 -0.004412 0.004243 0.004069 0.000480 0.004720 -0.002242 0.001195 -0.001022 0.001053 -0.001996 0.003197 -0.004206 -0.004508 -0.004682 -0.003555 -0.000854 0.004484 -0.004002 0.001487 0.000263 -0.001370 -0.003132 -0.002832 -0.004517 0.002106 0.001546 -0.000474 0.002050 -0.003924 0.004593 0.003691 0.001442 -0.001036 -0.000972 0.000008 0.004408 0.003551 -0.000360 0.000325 0.003870 0.004410 0.001374 0.002465 -0.001423 0.004363 0.003527 0.000575 0.003815 0.003397 0.003087 -0.003824 0.000412 0.003835 0.002951 -0.000963
sent_18 0.004600 -0.002263 -0.002235 0.004804 0.003551 0.003255 -0.004114 -0.001635 -0.002272 -0.001923 0.002718 0.001930 -0.000295 -0.000907 0.001156 0.000696 0.000189 0.001388 -0.001390 0.002763 -0.002912 0.001122 0.004267 -0.004503 0.001755 -0.003846 0.000890 0.001515 -0.002245 0.003394 0.000818 -0.002994 0.002112 -0.003625 -0.000070 -0.003419 -0.000244 -0.002499 0.001080 0.002604 -0.000848 0.002086 0.003075 0.002338 0.001658 -0.000005 -0.001098 0.003496 0.001825 -0.002821 0.000424 0.004041 -0.003861 0.002855 0.002721 -0.000383 -0.004330 -0.003582 0.003929 -0.004356 0.000127 0.001352 -0.003176 0.004982 -0.003280 0.000371 0.000649 -0.002760 0.000193 -0.000252 0.002812 0.001893 -0.000187 0.001941 -0.000390 0.000861 0.001492 -0.002197 0.002688 0.001799 0.004531 -0.003027 -0.000449 0.003668 0.001225 0.002069 -0.000796 0.001484 0.004591 -0.002514 0.003720 0.004426 -0.004179 -0.003603 -0.003692 0.002333 -0.003985 0.004340 -0.000624 0.003724
sent_19 -0.003399 -0.000010 0.003034 0.001344 0.000083 -0.000501 0.001479 -0.001093 -0.003211 -0.003500 -0.003557 -0.004874 0.000898 0.004209 -0.001524 -0.004041 -0.001006 0.001166 -0.000971 0.002794 0.004518 0.002921 0.002117 0.000446 0.001621 -0.005392 0.005237 -0.003488 0.004196 0.002764 0.002692 -0.002472 -0.002987 -0.000678 0.003531 -0.000417 0.004342 -0.001510 0.000703 0.005116 0.001036 -0.004673 -0.000775 -0.002222 0.000651 -0.001992 -0.003483 0.002003 0.001873 0.003993 -0.004352 0.003324 0.003124 0.000994 -0.003506 -0.002664 -0.001042 0.000000 -0.000495 -0.000400 0.004472 0.004283 0.002595 0.004255 0.000544 0.004315 0.000544 0.000864 -0.001415 0.001511 -0.004406 -0.003031 -0.003453 0.001653 -0.002889 -0.001023 -0.004655 -0.002015 0.004527 0.001134 -0.003379 0.000752 0.004497 0.003662 -0.000727 -0.001589 0.002809 -0.002744 -0.002707 -0.003204 0.004417 -0.000585 0.001484 0.001965 0.003369 -0.001063 -0.003092 0.003183 -0.004160 0.004385
sent_20 0.000870 0.004211 0.001033 -0.001979 -0.001863 0.000240 0.005073 -0.003488 0.000055 -0.001411 0.002589 0.003062 -0.000352 -0.002554 -0.004402 -0.002905 -0.002413 0.000977 0.003577 -0.003891 0.004685 0.000923 0.002200 0.005064 -0.001015 0.000017 0.001734 -0.000060 -0.001955 -0.004128 -0.002376 0.002881 0.001174 0.002869 0.000301 -0.002399 0.000876 -0.001762 -0.005091 0.004331 -0.001042 -0.000773 0.002104 0.004040 -0.003885 -0.003072 -0.001516 -0.002303 0.000153 0.003330 0.003082 0.001146 -0.002989 -0.003549 0.002107 -0.002733 0.000569 0.001901 -0.002949 -0.003204 -0.003467 -0.002984 0.003221 -0.003307 -0.002317 -0.004834 0.001357 -0.002698 -0.000869 -0.003771 -0.001582 -0.000500 -0.000116 -0.000834 -0.003669 0.003057 -0.003560 -0.000328 -0.002181 -0.001148 0.001611 0.000453 -0.002633 -0.000634 -0.001424 0.002675 -0.002598 0.003163 0.000113 0.000824 -0.002067 -0.003090 0.000411 0.004427 -0.003028 -0.002655 0.003359 0.001637 -0.001530 -0.002042
sent_21 -0.000969 0.001325 0.001926 0.003547 0.001957 -0.002942 0.004570 0.002576 -0.001900 -0.001775 0.003871 -0.003857 0.001337 -0.001970 0.003138 -0.001210 0.002237 -0.002984 -0.000306 0.002899 -0.001144 -0.003552 0.001346 0.002817 -0.002293 -0.000556 0.004201 0.003815 0.002211 0.000723 0.002955 0.003955 -0.005048 -0.000914 0.000636 0.002286 -0.004098 -0.001022 -0.002236 -0.000646 -0.000206 0.001655 -0.000072 0.000939 0.000848 -0.000616 -0.004920 -0.002984 -0.001816 -0.003413 0.000735 0.001170 0.000037 -0.001952 0.001338 -0.003291 -0.004953 0.002333 -0.000639 0.002025 -0.002825 -0.004289 -0.001341 0.001955 -0.004035 -0.003115 -0.000569 0.001077 0.002800 -0.004151 0.001358 -0.000915 0.001726 -0.002820 0.000377 -0.003019 -0.004817 0.000242 -0.003261 0.001675 0.000344 0.002942 -0.001098 0.004881 0.000155 -0.000172 0.002564 0.000713 -0.001523 0.000161 -0.002855 -0.001136 -0.004346 -0.000581 -0.002239 0.000174 -0.004756 0.000428 -0.001963 0.000720
sent_22 0.002189 -0.000724 0.001334 -0.002972 0.005038 -0.002767 0.004353 -0.002864 0.000253 0.003217 0.002275 0.002006 -0.000866 0.002571 0.004369 -0.000417 0.000370 -0.004193 -0.001128 -0.000240 0.003641 -0.003460 0.001993 0.000287 0.001102 -0.004408 -0.003394 -0.001847 -0.004860 0.001536 0.003663 0.000226 0.000417 0.001276 -0.002205 -0.001240 0.000673 0.003084 -0.002650 -0.001789 0.002433 -0.001414 -0.004302 -0.003719 -0.003281 0.000040 0.001048 0.003696 0.003761 -0.001936 0.002580 -0.002420 -0.001162 -0.001909 -0.000905 -0.003041 -0.001704 -0.003507 0.004716 0.000274 0.004087 0.002240 -0.000215 0.002189 0.001227 -0.001843 0.000424 0.002098 -0.001634 -0.004895 -0.001968 0.002872 0.004233 0.001471 -0.003906 0.002572 0.000346 0.002759 0.003476 0.004203 0.001408 0.003295 0.002254 0.002367 0.003341 0.003775 0.003957 -0.001009 -0.003994 0.002906 0.000285 0.000268 0.003214 -0.004778 0.003403 -0.004335 0.001816 0.000596 0.001087 -0.001217
sent_23 -0.002356 0.000121 0.003702 0.000699 0.001672 -0.000735 0.004855 0.002349 -0.001298 0.001518 0.000478 0.003703 -0.002283 -0.003823 -0.003017 -0.000948 0.003539 -0.002111 0.001189 0.001256 -0.001062 -0.004516 0.002313 -0.001979 -0.001124 -0.001137 0.001819 -0.004031 0.000649 -0.005085 0.004698 0.000904 -0.001248 -0.003458 0.001805 0.004267 -0.002041 0.002668 -0.002106 0.004584 0.001862 0.001398 0.004426 -0.002509 0.004320 0.001866 0.002617 0.000682 0.003212 0.002126 -0.003614 0.001038 -0.002288 0.004119 -0.003193 -0.002196 -0.004471 -0.000528 0.000462 0.000810 0.004331 -0.001470 -0.000516 0.003480 0.000819 0.001575 -0.002333 -0.000187 0.001333 -0.003610 -0.004550 -0.003792 -0.000193 -0.004715 0.001263 -0.003884 -0.002475 -0.000515 -0.003928 -0.002252 -0.004875 0.004714 0.001073 -0.001271 -0.004730 -0.001249 -0.000485 0.004252 -0.002129 0.001172 0.001825 -0.003263 0.000225 0.002756 -0.004073 0.001083 -0.004740 -0.005112 -0.004371 -0.000238
sent_24 0.004321 -0.000615 -0.004432 0.003771 0.000347 -0.001926 0.004917 0.004120 -0.002455 -0.002844 0.000879 0.003498 -0.001435 0.001182 -0.003404 -0.003005 0.002501 -0.003527 -0.002446 0.001767 -0.004891 -0.005112 -0.002404 -0.001504 -0.001450 0.002938 -0.004708 -0.001392 0.001364 -0.003642 0.003409 0.001476 -0.004004 -0.002929 0.002521 -0.000877 -0.000363 0.003942 -0.003820 0.004890 -0.004786 -0.004031 -0.002989 0.002691 -0.000267 0.001739 -0.003178 -0.003237 0.000256 0.002370 -0.000690 0.003776 0.001444 -0.002750 -0.002763 -0.001478 0.002749 0.004074 0.003553 -0.002345 -0.000236 0.001379 0.000321 -0.000802 -0.003776 0.002015 -0.004251 0.003614 0.003798 0.001842 -0.000247 0.002164 -0.001027 0.003084 0.002999 -0.003239 -0.001773 -0.001179 -0.001313 0.001215 -0.004692 0.001776 -0.002742 -0.000977 -0.000481 -0.001172 -0.001106 -0.003377 -0.004386 0.000938 0.001146 -0.003467 -0.002284 -0.002457 0.003577 -0.003696 0.000771 0.000664 -0.001223 -0.001598
sent_25 0.005265 0.001507 0.002137 0.000625 0.001721 0.001685 -0.003477 -0.002024 -0.001870 -0.003389 -0.001826 -0.002127 0.004583 -0.000980 -0.003308 -0.001819 0.001596 -0.005150 -0.003115 0.001427 0.003505 -0.000440 0.004270 -0.002989 0.002409 0.002776 -0.004516 -0.003367 -0.000461 -0.000401 0.002189 -0.003752 -0.003171 0.001706 0.005994 0.003243 0.005033 -0.003841 -0.004487 -0.003721 0.000865 0.002618 -0.000982 0.003003 -0.002812 0.003504 -0.002064 -0.003555 0.000154 -0.000094 0.004069 -0.003058 -0.002465 -0.004291 -0.000585 -0.002182 -0.000196 -0.002735 0.004542 0.002073 0.003981 -0.002789 -0.000022 -0.001376 0.003701 -0.005669 -0.004083 -0.001338 -0.001615 -0.003105 -0.005093 -0.003419 -0.001723 0.004376 -0.002271 0.002407 -0.002340 -0.004931 -0.004350 -0.002011 0.000109 0.004060 0.003245 -0.001422 0.000231 0.005385 0.003681 -0.001902 -0.005647 -0.003170 0.002502 -0.001277 0.000094 -0.003147 0.004804 -0.000963 0.000873 -0.000729 0.001103 -0.004831
sent_26 -0.002237 -0.001352 -0.002167 -0.004085 0.000304 0.002838 0.004504 -0.000115 0.000773 -0.001982 -0.003581 -0.003689 0.002435 0.002493 -0.003303 -0.000932 0.000892 -0.003826 0.002847 0.001096 0.001285 0.001825 0.004968 0.000756 0.003694 -0.001025 0.001514 0.004128 0.001561 -0.001864 0.001211 -0.001469 -0.001736 0.001050 -0.003236 -0.000292 0.004667 -0.001172 -0.003221 -0.000247 0.003480 0.003265 0.003091 -0.004923 -0.002327 0.004969 -0.003653 0.000053 0.003001 -0.003808 0.001473 0.000034 -0.003024 0.003724 -0.003207 0.001337 0.002293 0.000496 0.001312 -0.003878 -0.001856 0.001000 -0.001202 0.001798 0.003437 -0.003215 0.004002 -0.001188 0.004450 0.001038 0.002852 0.000241 0.000345 -0.001719 -0.003620 -0.001113 -0.002859 -0.004651 -0.002218 -0.002959 0.003852 -0.003931 -0.003095 0.002099 0.004261 -0.002210 -0.004723 0.004625 0.001694 -0.001667 -0.000197 0.001075 -0.001141 0.003724 0.002397 0.004407 -0.001478 0.004499 -0.000115 0.001467
sent_27 0.002709 0.003377 -0.000868 -0.000440 0.003475 0.002246 0.004543 0.004557 -0.003545 -0.002466 0.002050 0.002840 0.001340 0.004025 -0.002545 -0.001980 -0.000098 -0.002391 0.000421 0.001665 -0.002431 -0.000816 0.004987 -0.001783 -0.004482 0.002672 -0.000475 -0.004795 0.003510 -0.000510 0.004517 -0.000784 -0.004265 -0.002800 -0.001068 0.002164 -0.002887 -0.000491 0.003496 0.000557 -0.003725 -0.005187 0.001465 0.004687 0.002773 0.002670 0.002135 0.003297 -0.004125 -0.002728 0.001835 0.003956 0.001732 -0.003478 0.004468 0.003891 -0.004134 -0.003429 -0.002002 0.002364 0.003874 0.000988 -0.003233 -0.000343 -0.003425 0.003925 0.002686 0.000281 -0.000594 -0.004504 -0.002319 -0.003681 0.002943 0.000458 -0.002639 -0.002818 -0.002313 -0.001862 -0.000821 -0.001376 0.001858 -0.004022 -0.001278 0.002461 0.004532 0.003819 -0.002384 -0.002804 -0.003510 0.004331 -0.002721 0.002845 -0.002181 -0.004932 0.002915 0.001852 -0.003872 -0.001380 0.004841 -0.003367
sent_28 -0.004133 0.000946 0.004310 -0.003662 0.000130 0.001840 -0.003282 -0.004887 0.003877 -0.004648 -0.002425 0.001517 -0.002142 -0.004903 0.000755 -0.001922 -0.003485 0.004713 -0.003350 0.002272 0.003907 0.003587 -0.003157 -0.002632 -0.004816 0.004314 0.003871 0.000955 -0.003906 -0.003265 0.000770 -0.002483 -0.001998 -0.003290 -0.003104 -0.000366 0.000099 0.000116 0.004971 -0.003704 0.002562 0.002938 0.000849 -0.000373 0.003934 0.003282 -0.004497 0.004630 -0.004927 0.000731 0.000724 0.003344 -0.001153 -0.004090 0.000817 -0.004752 -0.001382 0.004853 0.003688 -0.003475 0.002988 0.003110 0.004282 -0.002756 -0.000010 0.003274 0.001673 0.000939 0.001520 -0.002615 -0.004745 0.002363 -0.001732 -0.001232 0.001126 0.001572 -0.002971 0.003260 -0.001198 0.001317 0.004664 0.000648 -0.001411 0.001190 0.000018 -0.000476 0.002323 0.004245 -0.000207 -0.004118 0.000697 -0.002550 -0.004604 0.002881 -0.002272 0.002771 -0.000118 -0.001821 -0.001860 -0.004580
sent_29 0.000739 0.003571 -0.004083 -0.003620 0.000757 0.001530 0.002341 -0.002248 -0.004808 -0.000526 -0.002883 -0.004639 0.002288 0.004962 -0.000989 -0.002275 0.000436 0.002946 0.002835 0.001668 -0.000290 0.000873 -0.002902 -0.002136 0.002827 0.003735 -0.003598 -0.002471 -0.005294 -0.000402 -0.002726 0.001624 0.001866 -0.004161 -0.003873 0.004065 -0.001248 0.000717 0.004211 0.002925 -0.001678 -0.004518 -0.000396 -0.002038 -0.004681 0.002888 -0.000723 0.001066 0.003063 0.004089 0.000861 -0.001577 -0.004122 -0.004747 -0.001937 0.001400 0.002106 -0.003515 -0.004040 -0.001805 0.001415 0.002971 -0.000051 -0.001364 0.001712 -0.002609 0.001365 0.003722 0.001315 0.000208 -0.002559 0.003986 0.005130 0.002743 0.000876 -0.003511 -0.001767 -0.001029 -0.001703 0.000521 0.001045 -0.002254 -0.001885 -0.004025 -0.001718 0.000940 0.000168 0.004608 0.004404 0.000206 0.004775 -0.002664 0.000960 -0.000990 0.005523 0.002726 -0.002410 -0.000423 -0.002654 0.000170
sent_30 0.003085 -0.004396 -0.003098 0.004882 0.004728 0.000596 0.001584 -0.002441 0.004312 0.001818 0.001622 -0.004731 0.003738 0.002987 0.001790 0.002278 -0.003517 0.002017 -0.004062 0.001953 -0.004875 0.002399 -0.000168 -0.002894 0.002327 -0.002066 0.003629 -0.003275 0.004221 0.004864 -0.001964 0.003705 0.003371 -0.000817 -0.001174 -0.002292 0.004969 -0.002416 0.004011 -0.000526 0.004316 0.003215 -0.003736 0.000605 0.001815 -0.000849 -0.004796 -0.001614 0.003539 -0.004520 -0.004131 0.002168 0.000071 -0.000174 -0.001205 0.000903 0.003588 -0.002490 0.003495 -0.000903 0.000302 0.002484 -0.002555 0.004512 0.002121 0.001046 -0.002297 0.001957 -0.002417 0.002911 -0.005078 -0.003223 0.000588 0.002179 0.000036 0.003828 0.004787 -0.000229 0.002785 0.000376 0.001650 -0.002480 -0.003678 0.004745 0.003185 -0.001719 0.000921 -0.001302 -0.003362 -0.000485 -0.001992 -0.004658 -0.000947 0.004036 0.003551 0.000522 -0.001609 -0.002519 0.004816 0.000615
sent_31 -0.003001 -0.002669 0.004090 -0.003109 -0.003722 -0.003534 0.002751 0.001923 -0.000262 0.002972 0.000394 -0.000968 -0.004208 0.003999 -0.001869 0.001409 0.005006 -0.002925 0.004550 0.001635 -0.004180 0.003212 0.004067 0.000456 0.001868 -0.004394 0.005091 -0.001376 -0.004672 0.002853 0.004664 0.001964 -0.005051 -0.004121 0.000449 -0.001459 0.003660 0.003716 0.005275 0.002039 0.003685 -0.001585 -0.003618 0.003196 -0.002244 -0.000560 0.001084 0.000931 -0.001181 -0.001160 -0.003692 -0.000070 -0.002482 0.002728 0.001638 -0.004593 0.005060 0.003161 -0.002608 -0.004420 -0.000277 -0.001721 0.000702 0.001068 0.002877 -0.004766 0.002386 -0.002106 0.005362 0.003324 0.001116 0.000987 -0.003091 -0.002395 -0.003780 -0.001215 -0.003785 0.000582 0.001199 -0.004036 -0.001793 -0.004585 0.000000 0.001698 0.000917 0.002503 -0.002678 0.001145 -0.001795 -0.004594 -0.001977 -0.004519 0.004591 0.001988 -0.004485 0.003271 -0.001578 0.003706 -0.000441 0.003731
sent_32 -0.002781 -0.001383 -0.001369 -0.004118 -0.001689 0.001592 -0.000368 0.003808 -0.002280 -0.001464 -0.001755 0.000543 -0.003174 -0.003300 0.004446 -0.001245 0.000879 -0.004448 -0.003580 -0.004012 0.003048 -0.003848 0.000109 -0.003485 -0.002205 0.003895 0.001307 0.004715 0.000981 -0.004892 -0.000833 -0.004822 -0.001863 -0.000138 0.000698 -0.002614 0.000558 -0.001090 0.000106 -0.003049 -0.003475 0.002576 -0.001670 0.001447 0.000617 0.004025 0.003738 -0.000640 -0.003009 0.001286 0.001426 0.001869 0.004115 0.002858 0.001316 0.000986 -0.002826 0.001601 0.003177 0.004226 0.004071 0.000532 -0.002341 -0.001764 0.004944 0.000270 0.003224 0.000966 0.000118 -0.001531 0.000436 -0.004946 0.003739 0.000665 -0.004804 0.003141 -0.003655 -0.004689 -0.000401 0.004529 -0.004090 -0.004409 0.003744 0.003238 0.003153 -0.000423 -0.000756 -0.000989 0.000867 0.002174 0.002776 0.001548 0.000542 -0.000883 -0.001906 -0.002068 -0.002041 0.001795 0.002555 0.000968
sent_33 -0.002348 -0.002429 0.002869 0.005179 -0.004566 -0.002279 0.003163 0.001799 -0.003166 0.000753 0.000719 0.002603 0.000214 -0.000504 -0.002145 -0.002995 -0.004146 0.001067 0.001621 0.001617 -0.004611 -0.001730 -0.003810 0.000373 0.004892 -0.000714 -0.001824 0.002842 0.004257 -0.001699 0.003092 0.005306 -0.003915 0.000112 0.003734 -0.001641 -0.000268 0.002560 -0.004461 -0.001026 0.000747 -0.003155 0.002781 0.002453 0.004851 0.000328 -0.003423 0.004898 0.003869 0.000121 0.002990 0.004266 0.002525 0.000454 0.001270 0.003295 0.001220 -0.003638 0.002039 0.000000 -0.001739 -0.004444 -0.002989 0.002569 0.004051 0.002875 -0.004066 -0.004377 0.002354 -0.002778 -0.002922 -0.004691 -0.003891 -0.003619 -0.003085 -0.000463 0.003289 0.003309 0.004337 0.000359 0.002160 0.000668 -0.003856 -0.004294 -0.002343 0.005972 0.002127 -0.002520 0.001640 0.002416 -0.004364 -0.000957 0.003126 -0.004542 0.004678 0.003743 0.003931 -0.003239 0.001313 0.002029
sent_34 0.003853 -0.003946 0.002965 -0.002175 0.001003 0.002043 0.002979 -0.002195 0.001244 -0.002075 0.005032 0.003125 -0.000852 0.003938 0.002408 0.004446 -0.003323 -0.001978 -0.004152 -0.001837 -0.001333 0.001190 -0.000549 0.002213 -0.002421 -0.003184 -0.001138 -0.000517 -0.000670 0.003925 -0.002456 -0.001534 -0.003005 -0.001241 -0.001232 0.000996 -0.002542 -0.002314 0.002165 0.004195 -0.003984 -0.003032 -0.003662 0.001539 -0.002762 0.001219 -0.003054 0.003130 -0.001917 0.001756 -0.003643 -0.002034 -0.002141 0.001207 0.001645 0.003319 -0.002975 0.002521 0.002027 0.000726 0.001958 -0.004015 -0.003537 -0.000799 0.002306 -0.003287 -0.001204 -0.000020 0.004527 -0.004492 0.003320 0.004910 -0.002306 0.003973 -0.002086 0.003142 -0.000371 0.001293 -0.002649 0.002093 -0.003670 0.000518 0.000017 0.003247 -0.000218 0.002808 -0.000981 -0.002059 0.002911 -0.000670 0.000086 0.000690 0.003466 0.000577 -0.000884 -0.003446 0.002146 0.003631 -0.003770 -0.000446
sent_35 0.004372 0.001006 0.000473 -0.003917 0.000479 0.001440 -0.003259 0.004331 -0.003216 0.001879 -0.002427 -0.003971 -0.002081 -0.001340 -0.000553 -0.002727 0.002105 0.003084 0.002854 0.001956 -0.002138 -0.003501 -0.003883 -0.000731 -0.004216 0.001204 0.004551 0.002280 -0.003816 -0.004786 -0.001837 0.004994 -0.002041 0.002203 0.002375 0.000788 -0.001414 -0.002848 0.004470 -0.004012 -0.002834 -0.002110 0.003766 0.002018 -0.002038 -0.003233 0.004110 0.003115 -0.004429 0.003898 0.000446 -0.000038 0.001524 -0.004919 -0.001948 -0.004120 0.001858 -0.001384 -0.000419 -0.002147 0.003587 -0.004119 -0.002469 0.001437 0.003031 0.000844 0.002011 -0.004792 -0.002437 -0.004636 -0.000307 0.005125 -0.004833 -0.000639 -0.004672 0.001275 -0.003224 0.002282 -0.003370 0.003933 -0.002951 -0.001149 -0.002390 0.002848 0.000048 0.004277 -0.003648 -0.000198 0.002611 0.005487 0.002110 -0.003074 0.003009 -0.004383 0.003091 0.002944 0.000744 0.000011 0.004850 -0.005040
sent_36 -0.004894 -0.002613 0.000117 0.000388 -0.001366 -0.001974 -0.003103 0.003144 -0.001731 -0.000138 0.003080 0.001092 -0.000964 -0.003400 -0.001019 -0.000148 0.004914 -0.002120 -0.003261 -0.002727 -0.002942 -0.004142 -0.001306 -0.002253 0.003859 0.002917 -0.003894 0.003548 -0.003838 0.002155 0.000773 -0.004120 0.004045 0.003735 0.003374 -0.001252 -0.002794 0.004960 0.003286 -0.004658 -0.001294 0.003163 0.000405 -0.002438 0.002963 -0.002437 -0.005074 -0.002753 0.004906 0.001592 -0.002668 0.001845 0.001923 0.001499 -0.004296 -0.002434 0.003716 0.002491 -0.003347 -0.001992 0.000468 0.003157 -0.002920 -0.004079 -0.001158 0.004241 -0.002360 -0.003881 -0.004552 -0.001328 -0.004637 0.000732 0.001691 -0.000475 0.002405 -0.000063 0.001992 -0.002817 0.002393 -0.000196 0.002040 -0.000679 -0.000012 -0.004634 -0.000128 -0.003758 -0.003633 -0.000657 0.000836 -0.001749 -0.003439 0.002350 0.004515 0.002441 -0.004295 0.003516 -0.004407 -0.000707 0.004226 -0.002389
