37 100
sent_0 -0.000576 0.002257 -0.005030 -0.002057 -0.003365 -0.004096 -0.003010 -0.001687 -0.001042 0.000528 -0.000763 0.002138 -0.002903 0.003888 -0.004586 0.001557 -0.000863 0.000275 -0.003637 -0.003068 0.003044 0.004469 -0.002082 0.001816 0.003787 0.003891 -0.004461 -0.004617 -0.003491 0.003966 -0.003948 -0.000764 0.004442 0.000282 0.001951 -0.001833 0.001701 0.003516 -0.004901 0.002621 0.004850 0.002401 -0.002480 0.002736 -0.004009 -0.000332 0.004136 -0.002073 -0.001987 -0.003949 -0.004784 0.001731 -0.002912 -0.002528 0.000019 -0.004632 0.001007 -0.003643 0.001024 0.002118 -0.003711 -0.000855 0.001941 -0.000744 -0.004246 0.000321 0.001739 0.000313 0.004511 0.000605 0.003817 -0.003606 -0.003581 0.003164 -0.001074 -0.003406 0.004308 -0.001347 0.002690 0.002598 0.003693 0.001395 0.002724 -0.001562 -0.002339 0.004182 -0.000647 0.004458 0.001498 0.001367 -0.004024 0.004600 -0.000406 0.000498 -0.000726 -0.002785 0.004306 0.000753 -0.004783 0.001060
sent_1 -0.001559 -0.000277 0.003379 -0.002358 0.004531 0.000644 -0.004771 0.004115 0.002685 0.005135 -0.002759 -0.003197 0.003851 0.001753 -0.003511 0.002511 0.002401 0.003464 0.001918 -0.003279 -0.005058 -0.004066 -0.005150 -0.003069 0.003616 0.000891 0.000042 0.003690 -0.003984 -0.002341 0.001150 0.004247 0.000164 -0.004514 0.002286 -0.002370 0.002159 -0.000757 0.003780 0.002610 0.000225 -0.002947 -0.004574 -0.004391 -0.005059 -0.003532 -0.003067 0.001560 0.000550 -0.005495 -0.003571 0.004082 0.000874 -0.003348 -0.002257 0.001800 -0.002328 0.001358 0.005235 0.004354 -0.002493 -0.000978 0.001655 0.002693 -0.002946 -0.004401 -0.003750 0.000573 0.001615 0.000267 -0.001679 0.004612 0.000726 -0.000760 -0.000272 0.002399 0.001841 -0.001639 -0.003993 -0.001301 0.000955 -0.003433 0.002377 -0.004382 -0.002651 0.002274 -0.002911 0.001177 0.000329 0.003683 -0.003175 -0.004436 0.002257 0.001834 0.003727 0.004405 -0.004536 -0.003430 0.000854 0.004255
sent_2 0.004747 0.000565 0.004114 0.001138 -0.000868 -0.000146 0.000998 0.000343 0.004230 0.004350 -0.001050 0.004981 -0.003232 -0.003624 -0.003453 -0.000168 -0.004755 0.004033 0.003255 -0.004829 -0.003133 -0.001760 -0.003871 0.002820 -0.001355 0.004283 0.000365 0.003735 0.003109 0.004369 -0.000167 0.000454 0.002953 -0.002248 0.000020 0.000831 -0.004784 0.001111 -0.000629 0.003166 -0.001617 0.003771 0.000437 -0.003413 0.002620 0.001214 -0.004386 -0.000698 0.001961 0.003752 -0.004926 0.004730 -0.001131 0.004672 0.001228 0.003034 0.000926 0.001205 -0.001822 0.001074 0.002502 0.003487 0.002590 0.002068 0.003845 -0.001826 0.002001 -0.000252 -0.001105 -0.001254 -0.001141 -0.001924 0.001231 -0.000550 0.004546 0.001633 -0.002875 -0.000596 -0.001323 0.003215 0.003742 0.004241 0.001865 -0.002225 -0.002591 0.003795 0.000390 0.002928 0.000590 0.002333 -0.000165 0.002874 0.000701 -0.000633 -0.001430 -0.004387 -0.001008 -0.004133 0.004828 -0.003163
sent_3 0.003871 0.004301 0.002369 0.001199 -0.003087 0.000119 -0.001266 -0.003101 0.000154 -0.001621 0.003965 0.004770 -0.001663 -0.003535 -0.003151 -0.000662 0.002185 -0.003815 -0.002542 0.003226 -0.000152 -0.000257 -0.002563 -0.003963 0.000274 -0.001096 -0.004484 0.000611 -0.000253 0.002331 -0.003299 0.003090 -0.002898 -0.000165 0.003603 -0.005160 -0.001597 0.003994 0.002737 0.000737 0.003866 0.003789 0.002242 0.003594 -0.003796 0.001673 0.002812 0.001576 0.003792 -0.005298 0.002516 0.002746 -0.002707 -0.002954 0.001645 -0.001616 0.003162 -0.001449 0.003031 0.004602 -0.001296 -0.002998 0.003569 0.001452 0.005298 0.000884 0.004831 0.000692 -0.000235 -0.004362 -0.002517 -0.004504 -0.003201 0.002284 -0.004338 -0.001466 0.003711 0.001929 0.002455 -0.001889 -0.000535 0.001793 0.005812 -0.003115 -0.002153 -0.000837 0.002838 -0.000811 -0.005062 0.001150 -0.002992 0.003591 -0.001711 -0.005142 0.002140 0.002594 -0.000441 0.003293 0.001074 0.000260
sent_4 0.004689 0.003303 -0.004566 0.002192 -0.000286 0.004568 -0.002751 -0.002441 -0.004484 -0.000585 -0.004037 0.001460 0.003245 0.002128 0.002480 -0.001745 0.003429 -0.000909 0.003248 0.001119 -0.003324 -0.004573 -0.004722 -0.004253 -0.000302 -0.004190 -0.004933 0.002349 -0.001232 0.002726 -0.000422 -0.000357 -0.000138 -0.000385 0.003382 -0.001270 0.004383 -0.004601 0.002604 -0.003653 0.001398 -0.005179 0.000101 -0.004968 0.004496 0.003997 0.003227 0.004416 -0.003310 -0.003567 -0.003305 0.001453 0.004073 0.004835 0.002171 0.002274 0.003982 -0.001253 -0.002422 -0.003377 -0.003756 0.003321 -0.003717 -0.002056 0.003196 -0.002070 0.004831 -0.002346 0.000239 -0.002100 0.003894 -0.001279 -0.000636 0.000096 0.004521 -0.004688 0.002216 0.003870 -0.004610 0.000538 -0.001619 0.004012 0.000815 0.001941 -0.000404 0.001785 -0.001991 -0.004888 0.000538 -0.001556 0.000190 0.004357 -0.000605 -0.002544 -0.000988 0.004114 0.004447 0.003740 0.004382 -0.002658
sent_5 -0.004026 -0.002608 -0.001776 -0.003173 0.001122 -0.000793 0.003184 -0.003207 0.001858 -0.002532 0.000671 -0.001411 -0.004291 -0.002627 0.001583 -0.000145 0.000169 -0.003396 0.000714 0.004900 0.003315 0.000712 0.004808 0.004031 0.001015 -0.004860 -0.004223 -0.004476 -0.000611 -0.001087 0.004809 -0.003227 0.004747 0.002584 0.003418 0.001204 0.001810 -0.000195 -0.004976 -0.001403 0.000017 0.002139 -0.000507 -0.000430 -0.003610 -0.004903 0.002732 -0.001670 0.004988 -0.002902 -0.001694 0.000361 0.002526 -0.000421 -0.003706 -0.001895 0.000019 0.001569 0.002751 -0.003752 -0.004693 0.000309 0.002998 -0.004669 0.001771 0.001772 -0.000512 0.004176 0.001366 -0.005070 -0.000316 0.003623 0.003330 0.001466 0.001804 0.000768 -0.002236 0.000577 0.001810 -0.001263 0.003607 -0.002836 0.002629 -0.002102 0.002787 -0.000415 0.003135 -0.001490 -0.002976 0.002868 -0.001924 0.002451 0.002510 -0.002820 -0.002657 -0.003151 -0.003485 -0.001066 -0.004598 -0.003873
sent_6 0.001776 0.003081 -0.004164 -0.002652 -0.002901 0.004205 0.002115 0.000504 -0.002058 0.003390 -0.000695 0.004273 0.002133 -0.000159 -0.003791 0.004703 -0.003411 -0.003035 -0.000683 -0.001005 -0.003452 0.002185 -0.003083 0.001459 0.002588 -0.003001 0.000939 0.002424 0.001315 0.001061 -0.002022 0.002358 0.004484 -0.000790 0.002936 -0.004535 0.003469 -0.003072 -0.001093 -0.001967 -0.004122 0.003946 -0.001397 0.000298 -0.000065 -0.003698 -0.002853 -0.004147 0.000149 -0.002436 -0.001496 -0.003842 0.002882 -0.003947 0.004879 -0.003249 0.000684 -0.004643 0.002902 -0.003141 0.000292 0.002470 -0.003563 0.000616 -0.002839 0.002533 0.002237 -0.003238 0.003591 -0.004877 0.003542 0.000604 -0.000962 0.002583 0.002208 0.004871 -0.002202 -0.004978 0.004379 0.003685 0.002331 0.000300 0.002144 0.002825 -0.001234 0.002873 0.002537 0.001140 -0.001045 0.002075 -0.004965 0.002818 0.004003 -0.002610 -0.003699 -0.002860 -0.001951 0.003931 0.000483 -0.002103
sent_7 -0.003238 -0.001745 0.001356 -0.001511 -0.000297 -0.000290 0.003297 -0.000917 -0.002231 0.001810 -0.002795 -0.000002 -0.001360 0.001448 0.003669 -0.000986 0.002629 -0.000865 0.001559 -0.003782 -0.000318 0.003507 0.001258 0.002822 0.000140 -0.000569 0.002859 -0.004551 0.000236 0.004919 0.000298 -0.002822 0.003492 -0.002449 0.002383 -0.000040 0.004681 0.001018 0.002780 -0.004585 0.004753 -0.004570 -0.002359 0.004565 -0.004686 0.003274 0.004029 -0.000419 -0.002081 0.002631 -0.000319 -0.003280 0.004132 0.003711 0.000363 0.003453 -0.000800 0.001375 -0.000867 -0.000420 -0.002961 0.004889 -0.002313 -0.003425 -0.003548 -0.005206 0.002116 0.000596 0.002682 -0.000411 0.002487 0.002203 0.002763 -0.000882 0.001712 -0.003206 -0.001768 -0.003289 -0.000695 -0.001938 -0.000723 0.005215 -0.001481 0.004808 0.001613 -0.000386 0.003667 0.001096 -0.002663 0.003401 -0.000698 -0.000866 -0.001729 0.001803 -0.001830 0.002604 -0.001623 0.001024 0.000337 0.003506
sent_8 0.003928 -0.002984 0.000898 0.004054 -0.000472 0.004245 -0.002174 0.001011 0.001606 -0.002623 -0.004946 -0.000784 0.004531 -0.001438 0.002684 -0.003370 -0.001625 -0.003669 0.002175 0.001889 0.002044 -0.002686 0.002018 -0.002633 -0.000680 -0.001516 -0.001552 -0.004559 0.001190 0.002240 0.001172 0.001545 -0.003247 -0.003577 0.000352 0.003554 -0.002926 -0.000388 -0.000834 0.000052 -0.003285 -0.001775 -0.002594 0.003440 0.003010 -0.000771 0.001241 -0.003377 0.000232 -0.002108 0.003456 0.001892 0.001353 -0.003802 -0.000258 0.004824 0.004381 0.001285 -0.003435 0.001290 0.000692 -0.000174 -0.000869 0.001196 0.003442 0.002378 0.000783 0.004228 -0.004389 0.004758 -0.004576 -0.002932 -0.000753 -0.003927 0.001333 -0.004504 -0.002148 -0.004413 0.002096 0.001924 -0.001112 -0.002839 0.002583 -0.001548 0.003015 0.000219 0.000317 -0.004699 0.001309 -0.001266 -0.002666 -0.000528 -0.001092 -0.000309 0.004969 -0.001503 0.002787 0.000721 0.004005 -0.001401
sent_9 -0.002248 0.004382 -0.004425 0.004577 0.000860 -0.001206 0.005087 -0.004635 -0.000189 -0.004447 0.000636 -0.002889 0.001589 0.005042 0.003660 -0.000850 0.002005 0.002294 -0.000081 0.000126 -0.003171 -0.001893 -0.003470 0.002320 -0.000090 -0.000996 0.003436 -0.000003 -0.001273 -0.001898 -0.004083 -0.000674 -0.004766 -0.002278 0.000419 0.004288 -0.003619 0.001838 -0.000259 0.003000 -0.003418 -0.004574 -0.001561 0.002920 -0.003138 0.002689 -0.001751 -0.002540 -0.004403 -0.001333 -0.001297 0.001899 -0.004278 -0.003704 -0.004710 -0.003994 0.001473 -0.001255 -0.001565 0.000490 0.005142 0.003513 0.001765 0.004621 -0.004525 -0.004553 -0.000241 -0.001385 0.004279 -0.000569 -0.000037 0.004118 -0.000432 0.003806 -0.002359 -0.002300 -0.001682 0.000511 -0.002561 0.002316 -0.003477 -0.003465 0.004037 -0.002598 -0.001022 0.001434 0.000431 -0.004341 0.003359 0.004973 0.003071 -0.001908 0.000434 -0.001826 0.001034 0.004356 -0.001702 0.002026 -0.001424 0.002747
sent_10 -0.001742 0.003898 0.002517 0.002626 -0.000305 -0.002892 -0.004585 -0.001782 -0.004629 0.001939 0.001704 -0.000695 0.002678 0.000360 -0.004601 -0.003652 -0.003066 -0.001643 -0.004477 0.001051 0.000121 0.001175 -0.000676 0.003477 -0.000459 -0.004846 0.003731 0.001562 0.003230 0.004518 -0.004491 -0.002649 -0.004367 -0.000783 0.003638 -0.004184 -0.000269 -0.003745 0.002729 0.003414 -0.004567 -0.000136 -0.002606 0.004525 0.004439 0.001139 0.004735 -0.001551 0.003979 -0.000654 -0.002642 0.004408 0.001842 -0.004351 0.003704 0.002014 0.001049 0.002324 -0.002466 0.001005 0.003146 -0.004459 -0.003695 0.003424 0.001183 0.000313 -0.002517 -0.002049 0.003727 -0.000783 -0.004356 0.003970 -0.002966 0.003262 0.003818 -0.000132 0.000985 0.000273 0.001248 0.003550 -0.002179 0.003838 0.000677 -0.003849 -0.002730 0.000960 -0.002606 -0.003686 -0.003382 0.003449 0.001022 0.004636 -0.001543 0.000956 0.000990 0.001157 -0.004408 0.002503 0.004482 0.000347
sent_11 -0.003209 0.002764 -0.005067 -0.001763 0.004252 0.000659 0.003745 0.000853 0.003295 0.003932 -0.001790 -0.003864 0.002175 -0.000381 -0.003853 0.001062 -0.004635 -0.002814 0.002801 -0.004997 -0.002041 -0.004917 0.004801 0.000985 -0.002107 0.004236 0.000256 -0.000353 0.001023 -0.002517 -0.002105 -0.001343 -0.002536 0.000910 0.001978 -0.004314 0.004805 0.002541 0.003149 0.002519 -0.004166 -0.000167 -0.000476 0.001415 -0.000536 0.002065 0.001804 0.002144 0.001164 -0.003310 0.002378 0.002821 0.004063 -0.002649 -0.003445 -0.001188 -0.001856 0.003115 0.001059 0.002667 -0.000482 -0.003867 -0.003886 -0.001268 -0.003050 0.003136 0.000938 0.001729 0.000064 -0.004262 -0.002538 -0.000286 -0.002948 -0.004642 0.002333 0.002464 -0.001633 0.003716 -0.000824 0.003768 0.001560 0.000995 -0.002970 0.000305 0.003898 -0.001923 0.003761 0.004110 -0.001819 0.001973 0.004219 -0.004339 0.004104 -0.003190 0.003518 0.001631 -0.001635 -0.003585 0.001402 0.003442
sent_12 0.003529 0.001425 0.004732 0.001093 -0.002869 -0.000523 -0.001580 0.004787 -0.001454 0.004971 0.000127 -0.003027 -0.003967 -0.001139 -0.003698 0.001102 -0.000861 0.004612 0.004278 -0.003556 -0.000831 -0.000899 0.000600 0.002716 -0.000068 -0.001103 -0.002772 0.003922 -0.005064 0.003488 -0.002976 0.002052 -0.001514 0.004596 -0.003562 -0.003198 0.003875 0.000927 -0.002143 -0.004847 -0.002648 -0.003809 -0.003321 0.003898 0.003818 0.002077 -0.000075 0.003462 0.000218 -0.001618 -0.002290 0.004380 -0.001288 -0.000216 -0.002340 0.003806 -0.001081 -0.002375 0.002277 -0.003191 -0.003509 0.003593 0.002319 0.001326 -0.002337 0.001061 0.001343 -0.001634 -0.004532 0.003584 -0.000784 0.002718 -0.002376 0.000881 -0.000634 -0.001243 -0.003660 -0.002531 -0.004000 -0.001540 0.002403 0.001420 0.002077 -0.004967 0.001903 0.000577 -0.002593 -0.003425 -0.003294 0.003752 0.004793 0.004354 -0.001439 0.002618 0.000912 0.002886 0.000133 0.001177 0.003200 -0.004033
sent_13 0.000560 -0.000596 0.001390 0.005533 -0.001138 -0.000671 0.003165 0.001308 -0.001664 0.002013 -0.001395 -0.003660 0.000335 -0.001345 -0.003368 0.004101 0.001614 0.000958 0.002550 0.000066 0.002448 0.002942 0.003897 -0.002853 -0.002495 -0.004993 0.004584 -0.003123 0.001557 -0.003984 -0.003093 0.000559 -0.003983 -0.001372 0.001004 -0.001742 0.000738 0.000302 -0.001761 0.002267 0.001612 0.001430 0.000119 -0.001405 0.001871 0.004294 0.001616 0.005269 -0.000143 0.002499 -0.005260 0.003340 -0.000184 -0.005283 -0.002390 0.000618 0.002532 -0.005333 0.000112 0.002528 0.002346 0.005157 -0.004854 -0.001181 0.004458 0.002322 0.000457 0.003135 0.003432 0.004627 0.004305 -0.003301 -0.004205 -0.004644 -0.004083 0.004988 -0.004108 0.003356 0.001900 0.000838 -0.001313 -0.000800 -0.001871 0.003733 0.002692 -0.003514 -0.000263 -0.002358 -0.004987 0.005006 0.003290 -0.001345 0.003570 -0.001727 -0.000928 0.003580 0.005099 0.000763 0.005516 0.003746
sent_14 0.000300 -0.000883 0.002271 -0.000295 0.001094 0.005044 0.002878 -0.001835 -0.004457 -0.002998 0.000092 -0.000695 0.003279 0.004534 -0.003469 0.003459 0.004588 0.004449 -0.004571 -0.004636 -0.004662 -0.002414 -0.004370 -0.001928 -0.001359 0.004112 -0.000446 -0.002442 -0.000140 0.001642 -0.003864 0.002821 0.003651 0.003336 0.004326 -0.001504 -0.000137 -0.003975 -0.002914 0.004754 -0.001872 0.003730 0.003650 0.004147 -0.003426 0.003724 0.001647 -0.002508 -0.001286 -0.003471 -0.000806 -0.003919 -0.003357 -0.003063 0.001916 0.000734 0.003597 -0.002914 0.001314 -0.004841 0.000273 0.003976 0.004635 -0.004568 -0.002406 -0.003030 -0.004539 -0.004997 -0.000282 -0.004865 -0.002461 0.001469 -0.001963 -0.002385 0.001090 -0.001130 0.002076 -0.000031 0.001384 -0.001124 -0.001993 -0.003118 0.004671 0.003089 0.004492 -0.002537 0.004481 0.004378 -0.002485 -0.001817 0.000613 -0.002975 -0.000321 -0.003160 0.004856 -0.000327 0.004764 0.001799 0.000125 0.004683
sent_15 -0.003627 0.001191 0.001501 -0.000726 -0.004457 -0.000116 -0.000338 0.003118 -0.002273 -0.001173 -0.002539 0.001771 0.004826 -0.003303 0.003383 -0.002580 -0.004419 -0.003568 0.004353 0.003996 -0.002203 0.004639 0.003455 -0.000684 -0.000411 0.001474 -0.003371 -0.004757 -0.002250 -0.005014 0.001716 0.000453 -0.001843 0.002940 -0.003758 -0.002358 -0.002281 -0.003072 -0.004102 0.003586 -0.004254 0.002019 -0.003667 -0.004947 0.000616 0.004120 0.003498 -0.001771 -0.004893 0.003048 0.003192 0.003498 0.001716 0.003078 0.003958 -0.000458 0.000690 0.000175 0.001846 0.001887 0.000173 0.003174 0.000123 0.003035 -0.002133 -0.003102 0.004711 0.002460 -0.002366 0.000924 0.004707 -0.004244 -0.004170 0.001179 -0.002810 0.002664 0.000669 0.001759 -0.003978 -0.004296 0.001190 -0.001139 -0.004268 -0.001293 0.001751 -0.003384 0.003935 0.004456 0.004742 0.002127 -0.000977 0.002354 -0.002152 -0.001902 0.000925 0.001018 0.003849 -0.002617 0.002606 0.004323
sent_16 -0.004841 -0.000060 0.001669 0.003498 -0.003062 0.003641 -0.001332 0.003814 -0.004954 -0.004025 0.004713 0.001269 -0.000622 -0.003173 0.001431 -0.004817 -0.001924 -0.002039 0.001076 0.001419 0.003704 0.003947 0.001673 0.000786 -0.000900 0.004378 -0.003742 0.003743 -0.002114 0.000742 0.001926 -0.002510 -0.003291 -0.000045 0.003187 0.001714 -0.003613 0.004082 -0.000362 0.004572 0.000712 -0.004385 -0.003300 0.003495 0.002037 0.003931 -0.001466 0.000485 0.001738 0.000737 -0.002796 -0.000557 -0.002529 0.003351 0.004950 -0.004409 0.002111 -0.001955 0.001370 -0.002460 0.001614 -0.001142 -0.002202 0.004416 0.004512 0.000998 -0.002821 0.004473 0.002410 0.002280 -0.003117 0.003325 -0.002564 0.001299 0.002174 0.002401 -0.001041 0.002589 0.004201 0.001214 -0.004012 -0.003373 -0.003702 -0.003258 -0.003671 0.003253 -0.004495 -0.002616 0.003603 0.005026 0.000991 0.004959 -0.004454 0.004394 -0.001583 0.002768 0.003258 0.003837 -0.000228 0.004339
sent_17 -0.002334 0.005132 0.001428 0.005777 -0.004605 0.002360 0.001227 -0.000353 -0.002711 -0.001445 -0.002923 -0.002893 0.003742 0.000405 -0.004682 0.002782 0.000051 0.002290 0.000138 -0.001404 0.005314 -0.006273 0.004533 0.004891 -0.001340 -0.003544 0.001116 -0.003801 0.003165 -0.002560 -0.002374 0.004651 0.003865 0.000049 0.004181 -0.001413 0.004970 -0.000457 -0.002677 -0.004329 0.004710 -0.000655 0.001831 0.001242 0.002914 -0.004486 0.004918 0.004746 0.001046 0.004846 -0.002860 0.001617 -0.001402 0.000720 -0.002479 0.003421 -0.004380 -0.005421 -0.004961 -0.003667 0.000179 0.005398 -0.004554 0.002482 0.000745 -0.001730 -0.003666 -0.002842 -0.004933 0.001976 0.000807 -0.000218 0.002415 -0.004335 0.005147 0.003887 0.001533 -0.001020 -0.000757 0.000967 0.004471 0.004395 0.000421 0.000077 0.004242 0.005643 0.001659 0.002233 -0.001975 0.005583 0.004029 0.000649 0.004635 0.003310 0.004206 -0.004514 0.000659 0.004254 0.003830 -0.001044
sent_18 0.004931 -0.002338 -0.001657 0.004638 0.003311 0.003916 -0.004679 -0.001384 -0.002695 -0.001872 0.002338 0.002397 -0.000200 -0.001156 0.000910 0.000221 0.000434 0.000849 -0.001110 0.002653 -0.002317 0.001122 0.004577 -0.004947 0.002247 -0.004144 0.000212 0.001069 -0.002724 0.004245 0.001294 -0.002607 0.002565 -0.004081 0.000665 -0.004049 0.000709 -0.002274 0.001300 0.002325 0.000251 0.001457 0.002775 0.002867 0.001220 -0.000386 -0.000722 0.003880 0.002254 -0.003317 0.000560 0.004198 -0.003578 0.003195 0.003139 -0.000145 -0.004537 -0.003772 0.004304 -0.004431 -0.000833 0.001337 -0.003186 0.005139 -0.003220 0.000300 0.001131 -0.002515 -0.000328 -0.000325 0.002401 0.001421 -0.000231 0.001667 -0.000437 0.000309 0.001624 -0.003002 0.003065 0.001525 0.004771 -0.002501 -0.000072 0.003890 0.001107 0.002657 -0.000708 0.001697 0.004263 -0.002610 0.003072 0.004775 -0.004589 -0.003135 -0.003452 0.002384 -0.003981 0.005020 -0.000812 0.004002
sent_19 -0.002789 -0.000387 0.003623 0.001025 -0.000169 0.000237 0.000803 -0.000783 -0.003345 -0.003661 -0.003601 -0.004107 0.000899 0.003640 -0.001398 -0.004580 -0.000826 0.000444 -0.000762 0.003026 0.004830 0.003146 0.002126 -0.000364 0.001985 -0.005296 0.004257 -0.003642 0.003660 0.003483 0.003226 -0.002102 -0.002836 -0.000920 0.003842 -0.000741 0.004482 -0.001271 0.000889 0.004994 0.001661 -0.004843 -0.000943 -0.001757 0.000280 -0.002130 -0.003380 0.001932 0.002239 0.003257 -0.003740 0.003200 0.003212 0.001201 -0.002792 -0.002526 -0.000739 0.000017 -0.000001 -0.000298 0.003658 0.003864 0.002967 0.004252 0.000993 0.004465 0.001138 0.001292 -0.001974 0.001420 -0.004943 -0.003643 -0.003617 0.001518 -0.003201 -0.001648 -0.004458 -0.002627 0.004997 0.000687 -0.003408 0.000710 0.004871 0.003621 -0.000956 -0.001432 0.002824 -0.002720 -0.002768 -0.003694 0.003436 -0.000206 0.000794 0.002103 0.003506 -0.000940 -0.002816 0.003593 -0.004337 0.004447
sent_20 0.000746 0.003846 0.001067 -0.002451 -0.002025 0.000318 0.004648 -0.003200 0.000045 -0.001528 0.002661 0.003015 -0.000705 -0.002884 -0.004385 -0.003006 -0.002287 0.001000 0.003721 -0.003761 0.004611 0.001753 0.002414 0.004874 -0.000822 0.000250 0.001797 0.000105 -0.002015 -0.003935 -0.002178 0.002701 0.001427 0.002996 0.000241 -0.002727 0.001353 -0.001964 -0.004725 0.004062 -0.000760 -0.000786 0.002372 0.004430 -0.004264 -0.003281 -0.001730 -0.002441 -0.000026 0.003250 0.003444 0.001013 -0.002601 -0.003142 0.002406 -0.002658 0.000358 0.002418 -0.002726 -0.003272 -0.004546 -0.003451 0.003461 -0.003880 -0.002775 -0.004713 0.001745 -0.002718 -0.000849 -0.003653 -0.001230 -0.000731 -0.000268 -0.000762 -0.003932 0.002768 -0.003609 -0.000723 -0.002279 -0.001905 0.001751 0.000263 -0.003056 -0.000302 -0.001599 0.002148 -0.002719 0.003462 0.000231 0.000098 -0.002410 -0.003110 -0.000203 0.004809 -0.003618 -0.002201 0.003011 0.001691 -0.002175 -0.001831
sent_21 -0.000816 0.001251 0.001964 0.003334 0.002131 -0.002945 0.004482 0.002484 -0.001842 -0.001680 0.003824 -0.003634 0.001341 -0.001921 0.003323 -0.001344 0.002318 -0.003311 -0.000300 0.002982 -0.000965 -0.003612 0.001309 0.002532 -0.002107 -0.000684 0.003862 0.003682 0.001963 0.000901 0.003222 0.003982 -0.005023 -0.001044 0.000701 0.002196 -0.004011 -0.000828 -0.002163 -0.000654 0.000147 0.001545 -0.000274 0.000677 0.000598 -0.000649 -0.004847 -0.002803 -0.001652 -0.003691 0.000830 0.001138 0.000105 -0.001930 0.001383 -0.003437 -0.004914 0.002250 -0.000378 0.002251 -0.002850 -0.004342 -0.001291 0.002046 -0.003827 -0.003124 -0.000344 0.001314 0.002745 -0.004334 0.001246 -0.001079 0.001793 -0.002778 0.000154 -0.003110 -0.004660 0.000311 -0.003054 0.001756 0.000352 0.003069 -0.000904 0.004959 0.000098 -0.000006 0.002683 0.000689 -0.001619 0.000111 -0.003122 -0.001071 -0.004303 -0.000760 -0.002091 0.000117 -0.004641 0.000452 -0.002020 0.000771
sent_22 0.002849 0.000212 0.002178 -0.002160 0.005202 -0.002178 0.004627 -0.003173 -0.000994 0.003594 0.001856 0.002608 0.000168 0.002903 0.003639 -0.001262 0.000128 -0.005150 -0.001082 -0.000777 0.004764 -0.005287 0.002670 0.000736 0.001295 -0.005765 -0.004365 -0.002863 -0.005559 0.002548 0.003900 0.001060 0.000562 0.000771 -0.000879 -0.002202 0.001558 0.003229 -0.003604 -0.001379 0.002876 -0.002445 -0.005511 -0.003214 -0.002978 -0.000166 0.002297 0.004498 0.004956 -0.002442 0.002150 -0.001441 -0.001396 -0.002484 -0.000579 -0.002866 -0.002009 -0.004613 0.004851 -0.000392 0.004546 0.003036 -0.000994 0.003574 0.001479 -0.002538 0.000120 0.002165 -0.002428 -0.005710 -0.003317 0.003229 0.004447 0.001073 -0.003168 0.002543 0.000347 0.002364 0.004023 0.005604 0.001866 0.004887 0.003244 0.002223 0.003931 0.005911 0.004394 -0.001119 -0.005017 0.004479 0.000397 0.001057 0.003614 -0.004830 0.004932 -0.005496 0.002313 0.001845 0.002243 -0.001245
sent_23 -0.002347 0.000532 0.003836 0.000802 0.001800 -0.000914 0.005085 0.002135 -0.001607 0.001867 0.000343 0.003744 -0.002120 -0.003541 -0.003375 -0.001087 0.003397 -0.002254 0.001128 0.000918 -0.000715 -0.004990 0.002496 -0.001556 -0.001068 -0.001594 0.001802 -0.004300 0.000584 -0.004800 0.004648 0.000993 -0.001125 -0.003552 0.002184 0.003871 -0.001558 0.002721 -0.002310 0.004647 0.002060 0.001077 0.004041 -0.002504 0.004329 0.001773 0.003001 0.001025 0.003556 0.002198 -0.003944 0.001361 -0.002211 0.003957 -0.003271 -0.002193 -0.004723 -0.000768 0.000438 0.000695 0.004525 -0.001184 -0.000832 0.003792 0.000731 0.001310 -0.002446 -0.000267 0.001313 -0.003923 -0.004777 -0.003568 -0.000057 -0.004722 0.001520 -0.003735 -0.002501 -0.000497 -0.003843 -0.001729 -0.004654 0.005464 0.001255 -0.001215 -0.004585 -0.000615 -0.000316 0.004304 -0.002603 0.001757 0.002026 -0.003102 0.000559 0.002761 -0.003706 0.000667 -0.004769 -0.004858 -0.004060 -0.000261
sent_24 0.004570 -0.000443 -0.003912 0.003883 0.000308 -0.001605 0.004688 0.004187 -0.003087 -0.002737 0.000702 0.003729 -0.001186 0.001139 -0.003761 -0.003495 0.002463 -0.003860 -0.002331 0.001576 -0.004370 -0.005416 -0.001897 -0.001375 -0.001207 0.002405 -0.005068 -0.001768 0.000997 -0.002972 0.003677 0.001752 -0.003703 -0.003103 0.003082 -0.001567 0.000419 0.003821 -0.004034 0.004883 -0.004350 -0.004575 -0.003378 0.003203 -0.000334 0.001440 -0.002743 -0.002900 0.000717 0.002178 -0.000684 0.004204 0.001567 -0.002667 -0.002407 -0.001256 0.002367 0.003890 0.003732 -0.002772 -0.000746 0.001510 0.000118 -0.000469 -0.004014 0.001719 -0.004182 0.003571 0.003351 0.001622 -0.000654 0.002214 -0.000982 0.002952 0.003199 -0.003446 -0.001802 -0.001717 -0.001143 0.001350 -0.004318 0.002448 -0.002566 -0.000810 -0.000309 -0.000453 -0.001022 -0.003205 -0.004764 0.001172 0.001034 -0.003080 -0.002544 -0.002127 0.003918 -0.003987 0.000721 0.001324 -0.001096 -0.001469
sent_25 0.004991 0.000764 0.001687 0.000077 0.001723 0.001197 -0.003462 -0.001858 -0.000688 -0.003566 -0.001451 -0.002337 0.003813 -0.001359 -0.002719 -0.001259 0.001770 -0.004781 -0.003226 0.001847 0.002782 0.000527 0.003737 -0.003410 0.002153 0.003772 -0.004001 -0.002790 0.000093 -0.001195 0.002094 -0.004221 -0.003490 0.001932 0.005014 0.004121 0.004027 -0.003570 -0.003818 -0.003993 0.000503 0.003480 -0.000208 0.002659 -0.003062 0.003719 -0.002857 -0.004207 -0.000400 0.000205 0.004593 -0.003836 -0.002402 -0.004177 -0.000960 -0.002241 0.000248 -0.001913 0.004472 0.002851 0.004030 -0.003470 0.000588 -0.002296 0.003963 -0.005060 -0.003953 -0.001090 -0.001140 -0.002596 -0.004541 -0.003707 -0.001737 0.004536 -0.002838 0.002422 -0.002329 -0.004556 -0.004561 -0.002843 -0.000391 0.002981 0.002743 -0.001563 -0.000136 0.003874 0.003507 -0.002004 -0.005191 -0.004093 0.002302 -0.001998 -0.000017 -0.003362 0.004029 -0.000350 0.000600 -0.001816 0.000521 -0.005021
sent_26 -0.002069 -0.001292 -0.002121 -0.003863 0.000475 0.002776 0.004771 -0.000249 0.000843 -0.001884 -0.003607 -0.003586 0.002598 0.002612 -0.003176 -0.000962 0.000835 -0.004031 0.002780 0.001056 0.001411 0.001340 0.004930 0.000796 0.003588 -0.001171 0.001375 0.003930 0.001519 -0.001894 0.001228 -0.001362 -0.001931 0.000920 -0.003254 -0.000051 0.004321 -0.000944 -0.003459 -0.000138 0.003350 0.003250 0.002835 -0.005068 -0.002175 0.005103 -0.003495 0.000075 0.003183 -0.003849 0.001427 0.000055 -0.003223 0.003416 -0.003360 0.001326 0.002462 0.000256 0.001251 -0.003758 -0.001263 0.001183 -0.001333 0.002094 0.003764 -0.003259 0.003817 -0.001003 0.004396 0.000976 0.002546 0.000348 0.000494 -0.001814 -0.003540 -0.001047 -0.002872 -0.004484 -0.002069 -0.002504 0.003747 -0.003812 -0.002846 0.001928 0.004416 -0.001917 -0.004609 0.004394 0.001557 -0.001265 -0.000131 0.001057 -0.000854 0.003456 0.002784 0.004094 -0.001233 0.004432 0.000267 0.001306
sent_27 0.002664 0.004058 -0.000873 -0.000435 0.003663 0.002118 0.004635 0.004215 -0.004154 -0.002046 0.001795 0.002953 0.001714 0.004544 -0.002969 -0.002223 -0.000287 -0.002721 0.000368 0.001320 -0.001939 -0.001312 0.005155 -0.001447 -0.004177 0.001988 -0.000748 -0.005143 0.003172 -0.000013 0.004536 -0.000691 -0.004040 -0.002933 -0.000397 0.001412 -0.002029 -0.000508 0.003245 0.000800 -0.003247 -0.005693 0.000819 0.004400 0.002647 0.002551 0.002667 0.003916 -0.003758 -0.002972 0.001260 0.004474 0.001900 -0.003583 0.004549 0.003564 -0.004490 -0.003953 -0.001799 0.002256 0.003976 0.001372 -0.003676 0.000231 -0.003607 0.003545 0.002800 0.000191 -0.000522 -0.005118 -0.002451 -0.003563 0.002932 0.000593 -0.002447 -0.002634 -0.002170 -0.001723 -0.000612 -0.000621 0.002230 -0.003053 -0.000930 0.002673 0.004595 0.004820 -0.002116 -0.002621 -0.003959 0.005025 -0.002622 0.003300 -0.001765 -0.005033 0.003369 0.001437 -0.003785 -0.000869 0.005079 -0.003131
sent_28 -0.003856 0.001090 0.004507 -0.003468 0.000244 0.001996 -0.003210 -0.004979 0.003644 -0.004554 -0.002521 0.001760 -0.001876 -0.004804 0.000737 -0.002165 -0.003531 0.004384 -0.003344 0.002187 0.004173 0.003093 -0.003087 -0.002650 -0.004761 0.004009 0.003518 0.000698 -0.004153 -0.002990 0.000899 -0.002278 -0.002044 -0.003470 -0.002859 -0.000467 0.000124 0.000239 0.004715 -0.003566 0.002642 0.002689 0.000470 -0.000351 0.004014 0.003311 -0.004230 0.004785 -0.004628 0.000517 0.000669 0.003521 -0.001269 -0.004278 0.000909 -0.004750 -0.001326 0.004540 0.003765 -0.003546 0.003248 0.003306 0.004126 -0.002358 0.000195 0.003126 0.001626 0.001069 0.001323 -0.002806 -0.005144 0.002422 -0.001654 -0.001317 0.001240 0.001512 -0.002951 0.003211 -0.000988 0.001746 0.004690 0.000968 -0.001087 0.001116 0.000144 0.000073 0.002429 0.004112 -0.000408 -0.003744 0.000639 -0.002353 -0.004502 0.002755 -0.001837 0.002458 0.000129 -0.001570 -0.001525 -0.004626
sent_29 0.000291 0.003511 -0.004400 -0.003902 0.000506 0.001326 0.002202 -0.002167 -0.004558 -0.000669 -0.002728 -0.004971 0.001987 0.004821 -0.001070 -0.001898 0.000402 0.003415 0.002801 0.001806 -0.000643 0.001590 -0.003019 -0.002035 0.002753 0.004146 -0.003161 -0.002086 -0.004952 -0.000822 -0.003004 0.001358 0.001973 -0.003788 -0.004166 0.004112 -0.001278 0.000441 0.004472 0.002804 -0.001854 -0.004052 0.000139 -0.002135 -0.004736 0.002834 -0.001026 0.000842 0.002640 0.004349 0.000860 -0.001779 -0.003986 -0.004520 -0.001976 0.001316 0.002056 -0.003166 -0.004163 -0.001754 0.001054 0.002691 0.000159 -0.001896 0.001447 -0.002404 0.001445 0.003467 0.001607 0.000380 -0.001948 0.003883 0.004935 0.002911 0.000757 -0.003312 -0.001734 -0.000866 -0.001991 -0.000035 0.001086 -0.002712 -0.002317 -0.003982 -0.001900 0.000226 0.000030 0.004861 0.004720 -0.000255 0.004846 -0.002806 0.000876 -0.000851 0.004904 0.003115 -0.002682 -0.000734 -0.003083 0.000223
sent_30 0.002926 -0.004519 -0.003139 0.004909 0.004683 0.000478 0.001632 -0.002387 0.004547 0.001760 0.001643 -0.004920 0.003622 0.002917 0.001844 0.002470 -0.003480 0.002198 -0.004087 0.002016 -0.004953 0.002514 -0.000138 -0.002855 0.002224 -0.001923 0.003873 -0.003256 0.004430 0.004615 -0.002032 0.003647 0.003342 -0.000786 -0.001361 -0.002066 0.004800 -0.002375 0.004097 -0.000641 0.004263 0.003400 -0.003527 0.000590 0.001842 -0.000877 -0.004883 -0.001695 0.003429 -0.004315 -0.004085 0.002059 0.000041 -0.000157 -0.001405 0.000995 0.003553 -0.002378 0.003366 -0.000791 0.000366 0.002447 -0.002511 0.004375 0.002131 0.001150 -0.002404 0.001963 -0.002388 0.003127 -0.004952 -0.003242 0.000639 0.002108 0.000006 0.003897 0.004764 -0.000200 0.002694 0.000202 0.001617 -0.002677 -0.003803 0.004707 0.003215 -0.002001 0.000907 -0.001283 -0.003286 -0.000564 -0.001887 -0.004857 -0.000893 0.004080 0.003447 0.000597 -0.001732 -0.002739 0.004749 0.000586
sent_31 -0.002784 -0.002377 0.004649 -0.002621 -0.003891 -0.003201 0.002704 0.002003 -0.000717 0.003045 0.000156 -0.000795 -0.003775 0.003917 -0.002335 0.001097 0.004800 -0.003194 0.004619 0.001444 -0.003598 0.002580 0.004536 0.000715 0.001921 -0.004872 0.004812 -0.001881 -0.004817 0.003206 0.004734 0.002412 -0.004936 -0.004377 0.000961 -0.001788 0.003947 0.003761 0.004817 0.002187 0.003848 -0.001884 -0.004020 0.003625 -0.001984 -0.000825 0.001583 0.001158 -0.000662 -0.001171 -0.003846 0.000419 -0.002653 0.002498 0.001774 -0.004308 0.004855 0.002720 -0.002692 -0.004710 -0.000161 -0.001414 0.000401 0.001694 0.002998 -0.004941 0.002146 -0.002057 0.004844 0.003320 0.000510 0.001022 -0.003047 -0.002712 -0.003411 -0.001183 -0.003851 0.000146 0.001445 -0.003614 -0.001497 -0.004066 0.000347 0.001508 0.001180 0.003346 -0.002583 0.001191 -0.002122 -0.003958 -0.001938 -0.004198 0.004676 0.002234 -0.003857 0.002726 -0.001448 0.004204 0.000053 0.003708
sent_32 -0.002640 -0.001506 -0.001414 -0.004207 -0.001457 0.001465 -0.000287 0.003718 -0.002077 -0.001391 -0.001700 0.000680 -0.003222 -0.003244 0.004677 -0.001295 0.000916 -0.004658 -0.003649 -0.003935 0.003053 -0.003966 -0.000008 -0.003677 -0.002187 0.003900 0.001161 0.004684 0.000899 -0.004895 -0.000684 -0.004869 -0.002020 -0.000246 0.000584 -0.002468 0.000322 -0.000858 0.000158 -0.002988 -0.003454 0.002583 -0.001800 0.001225 0.000512 0.004116 0.003689 -0.000628 -0.002903 0.001161 0.001540 0.001788 0.004082 0.002744 0.001226 0.000874 -0.002687 0.001619 0.003313 0.004482 0.004340 0.000461 -0.002289 -0.001697 0.005172 0.000327 0.003259 0.001193 0.000169 -0.001605 0.000296 -0.004961 0.003834 0.000719 -0.004966 0.003110 -0.003595 -0.004524 -0.000260 0.004687 -0.004227 -0.004428 0.003857 0.003201 0.003123 -0.000422 -0.000692 -0.001140 0.000811 0.002171 0.002679 0.001460 0.000635 -0.001140 -0.001768 -0.002138 -0.001960 0.001640 0.002591 0.000918
sent_33 -0.002823 -0.003142 0.002487 0.004691 -0.004681 -0.002749 0.003066 0.002112 -0.002299 0.000613 0.000927 0.002160 -0.000477 -0.000880 -0.001751 -0.002515 -0.004071 0.001459 0.001625 0.001917 -0.005072 -0.000582 -0.003884 0.000249 0.004740 0.000079 -0.001151 0.003193 0.004756 -0.002293 0.003027 0.004823 -0.004005 0.000324 0.002937 -0.001048 -0.000760 0.002621 -0.003952 -0.001385 0.000537 -0.002497 0.003412 0.002442 0.004602 0.000320 -0.004040 0.004307 0.003285 0.000489 0.003392 0.003703 0.002769 0.000628 0.000984 0.003343 0.001299 -0.002834 0.001922 0.000529 -0.002147 -0.005058 -0.002615 0.001646 0.003849 0.003373 -0.003941 -0.004192 0.002795 -0.002152 -0.002200 -0.004938 -0.003948 -0.003574 -0.003514 -0.000480 0.003141 0.003338 0.004091 -0.000500 0.001982 -0.000211 -0.004558 -0.004203 -0.002562 0.004638 0.001945 -0.002401 0.002074 0.001588 -0.004533 -0.001545 0.002869 -0.004396 0.003795 0.004319 0.003513 -0.004078 0.000622 0.002023
sent_34 0.003778 -0.003721 0.002901 -0.002386 0.001031 0.001949 0.002948 -0.002241 0.000926 -0.001966 0.005130 0.003170 -0.000824 0.003948 0.002169 0.004254 -0.003493 -0.002139 -0.004152 -0.001899 -0.001323 0.001359 -0.000398 0.002408 -0.002324 -0.003315 -0.001195 -0.000451 -0.000802 0.004123 -0.002471 -0.001616 -0.002934 -0.001058 -0.001041 0.000452 -0.002125 -0.002565 0.002089 0.004366 -0.004059 -0.003099 -0.003803 0.001662 -0.002888 0.001184 -0.002966 0.003144 -0.001859 0.001597 -0.003653 -0.001808 -0.001913 0.001189 0.001932 0.003125 -0.003135 0.002660 0.002210 0.000559 0.001566 -0.004202 -0.003595 -0.000870 0.001926 -0.003408 -0.001025 -0.000146 0.004676 -0.004871 0.003417 0.004979 -0.002477 0.004163 -0.002080 0.003181 -0.000416 0.001311 -0.002693 0.002136 -0.003477 0.000789 -0.000140 0.003409 -0.000248 0.002884 -0.000930 -0.001849 0.002772 -0.000676 0.000023 0.000903 0.003314 0.000579 -0.001024 -0.003445 0.002029 0.003825 -0.003894 -0.000321
sent_35 0.003912 0.000353 -0.000453 -0.005083 0.000840 0.000498 -0.003197 0.004222 -0.001890 0.001916 -0.001843 -0.004221 -0.003137 -0.001348 0.000186 -0.001991 0.002393 0.003563 0.002550 0.002384 -0.003141 -0.002232 -0.004795 -0.001230 -0.004298 0.002265 0.005180 0.003319 -0.003292 -0.005655 -0.001875 0.004177 -0.002243 0.002645 0.001254 0.001387 -0.002085 -0.002643 0.005564 -0.004351 -0.002971 -0.001229 0.004644 0.000981 -0.002726 -0.003011 0.002982 0.002715 -0.005149 0.004147 0.000894 -0.001042 0.001888 -0.004542 -0.002371 -0.004661 0.002137 -0.000342 -0.000166 -0.001181 0.003512 -0.004973 -0.001752 0.000209 0.003050 0.001399 0.002395 -0.004722 -0.001497 -0.004570 0.000748 0.004938 -0.004770 0.000004 -0.005538 0.001508 -0.002973 0.003182 -0.003672 0.003050 -0.003443 -0.002103 -0.003099 0.003090 -0.000579 0.002532 -0.003764 -0.000155 0.003042 0.004187 0.001936 -0.003906 0.003064 -0.004887 0.001976 0.003750 0.000238 -0.001246 0.003833 -0.005110
sent_36 -0.004609 -0.002347 0.000253 0.000611 -0.001183 -0.001848 -0.002928 0.002890 -0.002118 -0.000083 0.003069 0.001335 -0.000636 -0.003105 -0.000953 -0.000367 0.004937 -0.002385 -0.003348 -0.002832 -0.002687 -0.004728 -0.001343 -0.002225 0.003905 0.002517 -0.004264 0.003355 -0.004165 0.002446 0.000847 -0.003920 0.004014 0.003659 0.003624 -0.001371 -0.002775 0.005001 0.002942 -0.004492 -0.001202 0.002874 0.000013 -0.002550 0.003038 -0.002318 -0.004793 -0.002502 0.005150 0.001356 -0.002805 0.001958 0.001702 0.001314 -0.004164 -0.002566 0.003776 0.002014 -0.003260 -0.002187 0.000870 0.003497 -0.003092 -0.003624 -0.000975 0.003938 -0.002447 -0.003890 -0.004695 -0.001679 -0.004969 0.000915 0.001817 -0.000450 0.002498 -0.000054 0.002086 -0.002685 0.002597 0.000353 0.002047 -0.000301 0.000370 -0.004615 0.000040 -0.003093 -0.003490 -0.000824 0.000640 -0.001316 -0.003395 0.002615 0.004676 0.002200 -0.003825 0.003167 -0.004037 -0.000339 0.004600 -0.002418
