39 100
sent_0 -0.000769 0.002376 -0.004969 -0.001845 -0.003472 -0.004054 -0.003050 -0.001644 -0.001154 0.000461 -0.000880 0.001907 -0.002798 0.003920 -0.004794 0.001656 -0.000863 0.000509 -0.003618 -0.003101 0.003119 0.004387 -0.001873 0.001985 0.003780 0.003769 -0.004246 -0.004721 -0.003370 0.003851 -0.004029 -0.000703 0.004565 0.000252 0.002067 -0.001895 0.001909 0.003394 -0.004943 0.002594 0.004924 0.002364 -0.002368 0.002804 -0.003899 -0.000503 0.004228 -0.001927 -0.002003 -0.003745 -0.004959 0.001908 -0.002954 -0.002441 -0.000117 -0.004506 0.000735 -0.003746 0.000885 0.001966 -0.003746 -0.000683 0.001821 -0.000618 -0.004415 0.000264 0.001570 0.000148 0.004407 0.000752 0.003891 -0.003561 -0.003570 0.003054 -0.000924 -0.003291 0.004306 -0.001462 0.002576 0.002539 0.003856 0.001434 0.002684 -0.001554 -0.002245 0.004268 -0.000657 0.004598 0.001535 0.001485 -0.003779 0.004581 -0.000331 0.000704 -0.000689 -0.002795 0.004138 0.000847 -0.004780 0.001165
sent_1 -0.001868 0.000303 0.003702 -0.001394 0.004210 0.000973 -0.004611 0.004197 0.002057 0.005071 -0.003267 -0.003786 0.004292 0.002098 -0.004286 0.002695 0.002492 0.004284 0.002049 -0.003798 -0.004823 -0.004822 -0.004711 -0.002369 0.003503 0.000369 0.000725 0.003377 -0.003634 -0.002398 0.000774 0.004594 0.000524 -0.004798 0.002886 -0.002511 0.002946 -0.001049 0.003584 0.002476 0.000444 -0.003555 -0.004429 -0.003952 -0.004517 -0.003869 -0.002731 0.002125 0.000557 -0.004734 -0.004379 0.004649 0.000670 -0.003107 -0.002715 0.002382 -0.003065 0.000816 0.004605 0.003589 -0.002314 0.000001 0.001099 0.003278 -0.003438 -0.004809 -0.004429 -0.000103 0.001230 0.000702 -0.001740 0.005003 0.000886 -0.001197 0.000531 0.002599 0.001644 -0.002153 -0.004379 -0.001124 0.001273 -0.002874 0.002469 -0.004342 -0.002319 0.002997 -0.003010 0.001346 0.000199 0.004420 -0.002199 -0.004483 0.002590 0.002598 0.004097 0.004235 -0.004889 -0.002852 0.001239 0.004438
sent_2 0.004671 0.000441 0.004292 0.001478 -0.001153 0.000039 0.000928 0.000627 0.004289 0.004116 -0.001130 0.004739 -0.003161 -0.003906 -0.003579 -0.000073 -0.004807 0.004279 0.003355 -0.004745 -0.003118 -0.001804 -0.003578 0.002959 -0.001550 0.004392 0.000591 0.003669 0.003393 0.004097 -0.000229 0.000608 0.002957 -0.002219 -0.000093 0.001043 -0.004920 0.000978 -0.000740 0.003018 -0.001838 0.003901 0.000703 -0.003080 0.002955 0.001033 -0.004413 -0.000853 0.001885 0.004101 -0.004809 0.004788 -0.001222 0.004712 0.001128 0.003429 0.000818 0.001298 -0.002141 0.000871 0.002413 0.003517 0.002554 0.002027 0.003805 -0.001700 0.001725 -0.000320 -0.001424 -0.000787 -0.001157 -0.001949 0.001248 -0.000841 0.004772 0.001666 -0.003019 -0.000885 -0.001495 0.002946 0.003817 0.003994 0.001667 -0.002374 -0.002401 0.003610 0.000275 0.002957 0.000737 0.002275 0.000020 0.002738 0.000595 -0.000314 -0.001421 -0.004432 -0.001109 -0.004170 0.004919 -0.003281
sent_3 0.003198 0.003894 0.001905 0.000796 -0.003326 -0.000345 -0.001463 -0.002846 0.000831 -0.001821 0.004169 0.004158 -0.002322 -0.003785 -0.003134 -0.000056 0.002221 -0.002937 -0.002563 0.003452 -0.000819 0.000936 -0.002713 -0.003895 0.000135 -0.000344 -0.003525 0.001210 0.000405 0.001578 -0.003595 0.002558 -0.002821 0.000186 0.002915 -0.004817 -0.001793 0.003714 0.003328 0.000506 0.003569 0.004442 0.003151 0.003469 -0.003914 0.001556 0.002098 0.001163 0.003088 -0.004654 0.002598 0.002419 -0.002482 -0.002519 0.001327 -0.001578 0.002990 -0.000657 0.002808 0.004837 -0.001770 -0.003456 0.003951 0.000590 0.004803 0.001281 0.004853 0.000409 0.000248 -0.003758 -0.001566 -0.004626 -0.003370 0.002497 -0.004604 -0.001261 0.003633 0.002012 0.001929 -0.002883 -0.000581 0.000951 0.005003 -0.003028 -0.002490 -0.002167 0.002516 -0.000492 -0.004496 0.000271 -0.002784 0.003059 -0.001914 -0.004810 0.001092 0.003288 -0.001114 0.002562 0.000287 0.000355
sent_4 0.004695 0.003066 -0.004647 0.002144 -0.000314 0.004532 -0.002752 -0.002367 -0.004252 -0.000713 -0.003904 0.001415 0.003104 0.002006 0.002717 -0.001638 0.003456 -0.000800 0.003233 0.001257 -0.003528 -0.004345 -0.004848 -0.004360 -0.000420 -0.003921 -0.004842 0.002522 -0.001134 0.002541 -0.000453 -0.000451 -0.000260 -0.000270 0.003057 -0.000961 0.003986 -0.004610 0.002656 -0.003709 0.001159 -0.004947 0.000291 -0.004982 0.004554 0.004113 0.003006 0.004165 -0.003499 -0.003505 -0.003115 0.001221 0.004002 0.004842 0.002165 0.002297 0.004166 -0.001086 -0.002484 -0.003300 -0.003704 0.003179 -0.003555 -0.002269 0.003273 -0.001935 0.004817 -0.002306 0.000292 -0.001920 0.004009 -0.001307 -0.000647 0.000119 0.004407 -0.004716 0.002177 0.003940 -0.004670 0.000344 -0.001771 0.003637 0.000675 0.001883 -0.000433 0.001406 -0.002077 -0.004981 0.000744 -0.001812 0.000151 0.004228 -0.000724 -0.002600 -0.001180 0.004247 0.004494 0.003509 0.004306 -0.002756
sent_5 -0.004244 -0.003225 -0.002150 -0.003782 0.001164 -0.001149 0.003022 -0.003054 0.002600 -0.002690 0.001012 -0.001577 -0.004898 -0.002952 0.002066 0.000144 0.000266 -0.003203 0.000666 0.005294 0.002791 0.001671 0.004550 0.003687 0.000923 -0.004164 -0.003932 -0.003976 -0.000347 -0.001543 0.004854 -0.003678 0.004594 0.002897 0.002676 0.001604 0.001299 -0.000194 -0.004465 -0.001619 -0.000239 0.002735 0.000047 -0.000638 -0.003896 -0.004808 0.002125 -0.002149 0.004549 -0.002824 -0.001171 -0.000183 0.002736 -0.000222 -0.003775 -0.002008 0.000246 0.002325 0.002854 -0.003302 -0.005052 -0.000377 0.003488 -0.005500 0.001742 0.002206 -0.000251 0.004328 0.001718 -0.004808 0.000225 0.003409 0.003250 0.001695 0.001293 0.000721 -0.002218 0.000821 0.001631 -0.002022 0.003366 -0.003653 0.002094 -0.002044 0.002520 -0.001618 0.002984 -0.001466 -0.002587 0.001937 -0.002174 0.002039 0.002201 -0.002945 -0.003402 -0.002608 -0.003743 -0.001774 -0.005224 -0.003937
sent_6 0.001746 0.002998 -0.004195 -0.002683 -0.002924 0.004173 0.002113 0.000539 -0.001955 0.003349 -0.000647 0.004235 0.002061 -0.000220 -0.003738 0.004760 -0.003402 -0.002974 -0.000688 -0.000958 -0.003532 0.002293 -0.003113 0.001439 0.002543 -0.002893 0.001010 0.002489 0.001382 0.000971 -0.002045 0.002316 0.004453 -0.000744 0.002822 -0.004439 0.003353 -0.003077 -0.001049 -0.001999 -0.004199 0.004046 -0.001298 0.000307 -0.000059 -0.003678 -0.002935 -0.004238 0.000079 -0.002385 -0.001429 -0.003919 0.002876 -0.003934 0.004857 -0.003228 0.000724 -0.004552 0.002871 -0.003104 0.000279 0.002401 -0.003501 0.000511 -0.002834 0.002592 0.002229 -0.003235 0.003620 -0.004802 0.003602 0.000589 -0.000968 0.002587 0.002169 0.004873 -0.002219 -0.004962 0.004339 0.003579 0.002289 0.000167 0.002070 0.002805 -0.001251 0.002703 0.002506 0.001132 -0.000981 0.001973 -0.004969 0.002749 0.003964 -0.002607 -0.003792 -0.002797 -0.001979 0.003830 0.000432 -0.002133
sent_7 -0.003595 -0.001985 0.001268 -0.001378 -0.000510 -0.000367 0.003331 -0.000689 -0.001757 0.001670 -0.002908 -0.000469 -0.001623 0.001294 0.003685 -0.000533 0.002797 -0.000312 0.001632 -0.003741 -0.000570 0.003748 0.001277 0.002838 -0.000066 -0.000200 0.003462 -0.004466 0.000756 0.004408 0.000108 -0.002921 0.003487 -0.002481 0.002080 0.000456 0.004521 0.001119 0.003146 -0.004948 0.004757 -0.004342 -0.001798 0.004614 -0.004565 0.003217 0.003796 -0.000496 -0.002412 0.003157 -0.000330 -0.003497 0.004136 0.003954 -0.000146 0.003783 -0.000922 0.001608 -0.001226 -0.000245 -0.002945 0.004935 -0.002249 -0.003732 -0.003577 -0.004935 0.001932 0.000518 0.002682 0.000207 0.002793 0.002084 0.002818 -0.001129 0.001750 -0.003168 -0.001860 -0.003379 -0.000995 -0.002450 -0.000844 0.004819 -0.001746 0.004751 0.001610 -0.001021 0.003567 0.001144 -0.002458 0.003169 -0.000374 -0.001343 -0.001642 0.002087 -0.002101 0.002948 -0.001970 0.000612 0.000152 0.003500
sent_8 0.003863 -0.003239 0.000797 0.003885 -0.000526 0.004174 -0.002242 0.001104 0.001927 -0.002739 -0.004814 -0.000840 0.004294 -0.001603 0.002865 -0.003217 -0.001552 -0.003522 0.002158 0.002045 0.001798 -0.002328 0.001858 -0.002799 -0.000753 -0.001178 -0.001413 -0.004337 0.001346 0.002021 0.001148 0.001418 -0.003320 -0.003474 0.000047 0.003801 -0.003222 -0.000365 -0.000614 -0.000050 -0.003400 -0.001508 -0.002301 0.003400 0.002945 -0.000716 0.000968 -0.003601 0.000033 -0.002028 0.003662 0.001638 0.001366 -0.003708 -0.000300 0.004837 0.004518 0.001557 -0.003453 0.001461 0.000605 -0.000407 -0.000639 0.000882 0.003497 0.002568 0.000843 0.004262 -0.004294 0.004941 -0.004394 -0.003040 -0.000787 -0.003876 0.001153 -0.004536 -0.002140 -0.004354 0.002012 0.001573 -0.001260 -0.003228 0.002407 -0.001582 0.002891 -0.000285 0.000230 -0.004713 0.001499 -0.001639 -0.002749 -0.000720 -0.001223 -0.000322 0.004687 -0.001264 0.002703 0.000435 0.003789 -0.001448
sent_9 -0.001993 0.004649 -0.004346 0.004708 0.000954 -0.000996 0.005090 -0.004810 -0.000442 -0.004316 0.000427 -0.002597 0.001905 0.005316 0.003664 -0.001022 0.002031 0.002009 -0.000066 -0.000002 -0.002935 -0.002386 -0.003653 0.002165 0.000083 -0.001295 0.002998 -0.000207 -0.001579 -0.001568 -0.003987 -0.000463 -0.004749 -0.002528 0.000772 0.004187 -0.003504 0.002013 -0.000396 0.003142 -0.003114 -0.004898 -0.001975 0.002654 -0.003130 0.002766 -0.001505 -0.002239 -0.004198 -0.001651 -0.001565 0.002034 -0.004383 -0.003780 -0.004630 -0.004138 0.001592 -0.001753 -0.001448 0.000524 0.005471 0.003847 0.001611 0.005111 -0.004222 -0.004729 -0.000155 -0.001287 0.004171 -0.000826 -0.000337 0.004060 -0.000404 0.003794 -0.002284 -0.002364 -0.001523 0.000573 -0.002315 0.002809 -0.003496 -0.003102 0.004528 -0.002634 -0.001044 0.002108 0.000548 -0.004472 0.003235 0.005360 0.002955 -0.001635 0.000667 -0.002006 0.001482 0.004135 -0.001355 0.002320 -0.001125 0.002794
sent_10 -0.001284 0.004543 0.002897 0.003005 -0.000053 -0.002543 -0.004501 -0.002085 -0.005479 0.002280 0.001322 -0.000223 0.003380 0.000821 -0.004939 -0.004238 -0.003168 -0.002341 -0.004437 0.000686 0.000867 0.000031 -0.000426 0.003577 -0.000133 -0.005801 0.002956 0.000915 0.002581 0.005331 -0.004224 -0.002194 -0.004228 -0.001235 0.004566 -0.004864 0.000453 -0.003587 0.002211 0.003747 -0.004027 -0.000986 -0.003577 0.004491 0.004481 0.001051 0.005499 -0.000849 0.004693 -0.001174 -0.003099 0.005050 0.001764 -0.004615 0.003930 0.001892 0.000863 0.001461 -0.002206 0.000709 0.003482 -0.003847 -0.004226 0.004453 0.001356 -0.000191 -0.002517 -0.001943 0.003357 -0.001424 -0.005118 0.004119 -0.002852 0.003152 0.004165 -0.000204 0.001109 0.000130 0.001697 0.004614 -0.001897 0.004957 0.001450 -0.003803 -0.002498 0.002529 -0.002311 -0.003774 -0.003961 0.004434 0.000988 0.005246 -0.001205 0.000813 0.001984 0.000469 -0.003991 0.003360 0.005127 0.000477
sent_11 -0.003167 0.002804 -0.005123 -0.001686 0.004399 0.000644 0.003777 0.000798 0.003202 0.004002 -0.001874 -0.003829 0.002319 -0.000240 -0.003786 0.000967 -0.004679 -0.003022 0.002788 -0.005011 -0.001902 -0.005094 0.004877 0.000959 -0.002028 0.004069 0.000118 -0.000536 0.000867 -0.002400 -0.002008 -0.001342 -0.002589 0.000761 0.002084 -0.004332 0.004831 0.002635 0.003021 0.002643 -0.004114 -0.000308 -0.000752 0.001334 -0.000539 0.002090 0.001932 0.002229 0.001256 -0.003480 0.002282 0.002937 0.004047 -0.002782 -0.003465 -0.001303 -0.001869 0.002942 0.001148 0.002722 -0.000320 -0.003781 -0.004043 -0.001031 -0.003035 0.003094 0.000928 0.001877 0.000108 -0.004333 -0.002634 -0.000252 -0.002934 -0.004652 0.002347 0.002439 -0.001621 0.003737 -0.000681 0.004072 0.001588 0.001106 -0.002844 0.000330 0.003956 -0.001650 0.003826 0.004049 -0.001847 0.002181 0.004190 -0.004250 0.004194 -0.003305 0.003699 0.001511 -0.001533 -0.003508 0.001489 0.003523
sent_12 0.003372 0.001634 0.004685 0.001037 -0.002906 -0.000632 -0.001486 0.004717 -0.001485 0.005062 0.000138 -0.003102 -0.004004 -0.001111 -0.003963 0.001175 -0.000891 0.004687 0.004241 -0.003660 -0.000856 -0.000926 0.000616 0.002910 -0.000090 -0.001142 -0.002631 0.003957 -0.004929 0.003418 -0.003115 0.002041 -0.001444 0.004663 -0.003413 -0.003405 0.004118 0.000886 -0.002068 -0.004854 -0.002617 -0.003788 -0.003240 0.003925 0.003756 0.002009 -0.000003 0.003539 0.000267 -0.001517 -0.002404 0.004464 -0.001183 -0.000226 -0.002416 0.003790 -0.001201 -0.002306 0.002239 -0.003209 -0.003588 0.003572 0.002274 0.001242 -0.002451 0.001029 0.001319 -0.001771 -0.004434 0.003437 -0.000731 0.002775 -0.002396 0.000911 -0.000542 -0.001117 -0.003655 -0.002464 -0.004093 -0.001559 0.002472 0.001609 0.002027 -0.004961 0.001879 0.000564 -0.002544 -0.003303 -0.003470 0.003858 0.004905 0.004311 -0.001309 0.002656 0.000878 0.002888 -0.000044 0.001183 0.003176 -0.004021
sent_13 0.000235 -0.001373 0.000869 0.004472 -0.001020 -0.001302 0.003020 0.001408 -0.000837 0.001924 -0.000865 -0.003723 -0.000602 -0.001654 -0.002723 0.004397 0.001851 0.001002 0.002398 0.000487 0.001878 0.004450 0.003534 -0.003306 -0.002443 -0.004130 0.004916 -0.002553 0.001730 -0.004308 -0.002969 -0.000095 -0.004071 -0.001019 0.000191 -0.001473 0.000341 0.000431 -0.001034 0.001986 0.001650 0.002100 0.000688 -0.001593 0.001086 0.004448 0.000874 0.004682 -0.000695 0.002439 -0.004587 0.002540 0.000205 -0.005033 -0.002339 0.000220 0.002756 -0.004351 0.000481 0.003235 0.001636 0.004187 -0.004203 -0.002362 0.004225 0.002749 0.001015 0.003394 0.004157 0.004715 0.005130 -0.003633 -0.004320 -0.004197 -0.004965 0.004821 -0.004048 0.003641 0.001820 -0.000136 -0.001607 -0.001598 -0.002559 0.004087 0.002218 -0.005001 -0.000338 -0.002184 -0.004672 0.003801 0.002717 -0.001826 0.003066 -0.001913 -0.002031 0.004336 0.004737 -0.000022 0.004457 0.003861
sent_14 0.000540 -0.001100 0.002487 -0.000178 0.001072 0.005236 0.002668 -0.001643 -0.004517 -0.003078 0.000120 -0.000566 0.003333 0.004322 -0.003404 0.003219 0.004479 0.004293 -0.004526 -0.004553 -0.004623 -0.002420 -0.004218 -0.002030 -0.001369 0.004152 -0.000633 -0.002474 -0.000245 0.001856 -0.003724 0.002866 0.003555 0.003279 0.004259 -0.001477 -0.000320 -0.004004 -0.003018 0.004823 -0.002089 0.003696 0.003534 0.004472 -0.003251 0.003727 0.001644 -0.002689 -0.001162 -0.003587 -0.000571 -0.003832 -0.003411 -0.003107 0.002131 0.000924 0.003679 -0.002821 0.001350 -0.004952 0.000193 0.003834 0.004668 -0.004463 -0.002365 -0.002941 -0.004574 -0.004870 -0.000515 -0.004704 -0.002732 0.001477 -0.002008 -0.002448 0.001152 -0.001323 0.001994 -0.000304 0.001485 -0.001127 -0.001996 -0.003241 0.004666 0.002963 0.004554 -0.002504 0.004381 0.004274 -0.002402 -0.001925 0.000500 -0.002844 -0.000635 -0.003084 0.004947 -0.000396 0.004813 0.001873 0.000224 0.004614
sent_15 -0.003460 0.001394 0.001666 -0.000636 -0.004295 -0.000103 -0.000273 0.002981 -0.002487 -0.000988 -0.002617 0.001969 0.004969 -0.003136 0.003221 -0.002783 -0.004444 -0.003759 0.004321 0.003830 -0.002005 0.004265 0.003493 -0.000639 -0.000295 0.001163 -0.003544 -0.004941 -0.002437 -0.004733 0.001800 0.000556 -0.001817 0.002732 -0.003463 -0.002603 -0.002061 -0.002956 -0.004196 0.003760 -0.004076 0.001733 -0.003976 -0.004954 0.000565 0.004098 0.003704 -0.001528 -0.004586 0.002934 0.003025 0.003747 0.001675 0.002983 0.003973 -0.000498 0.000598 -0.000037 0.001971 0.001854 0.000363 0.003353 -0.000006 0.003397 -0.002092 -0.003283 0.004685 0.002483 -0.002428 0.000685 0.004395 -0.004139 -0.004102 0.001201 -0.002732 0.002653 0.000700 0.001710 -0.003830 -0.003934 0.001250 -0.000715 -0.003998 -0.001304 0.001759 -0.002883 0.004021 0.004432 0.004483 0.002468 -0.000945 0.002492 -0.002025 -0.001959 0.001243 0.000797 0.003866 -0.002397 0.002797 0.004376
sent_16 -0.004663 -0.000012 0.001746 0.003526 -0.002954 0.003724 -0.001342 0.003756 -0.005059 -0.003971 0.004673 0.001438 -0.000522 -0.003094 0.001457 -0.004973 -0.001901 -0.002214 0.001078 0.001388 0.003793 0.003734 0.001634 0.000680 -0.000820 0.004241 -0.003954 0.003672 -0.002279 0.000924 0.002042 -0.002436 -0.003315 -0.000169 0.003317 0.001629 -0.003559 0.004162 -0.000397 0.004657 0.000813 -0.004565 -0.003489 0.003447 0.002004 0.003954 -0.001397 0.000599 0.001884 0.000581 -0.002811 -0.000479 -0.002554 0.003320 0.005013 -0.004451 0.002145 -0.002074 0.001482 -0.002462 0.001704 -0.001073 -0.002234 0.004609 0.004609 0.000922 -0.002780 0.004542 0.002339 0.002149 -0.003312 0.003336 -0.002531 0.001316 0.002172 0.002327 -0.000997 0.002574 0.004313 0.001398 -0.004034 -0.003211 -0.003525 -0.003257 -0.003680 0.003513 -0.004459 -0.002691 0.003515 0.005123 0.000926 0.005049 -0.004441 0.004312 -0.001389 0.002673 0.003355 0.003969 -0.000130 0.004354
sent_17 -0.002183 0.004542 0.001338 0.005101 -0.004551 0.002360 0.000795 -0.000209 -0.002601 -0.001630 -0.002601 -0.002608 0.003281 0.000176 -0.004195 0.002596 0.000275 0.002130 0.000131 -0.001100 0.005092 -0.005275 0.004344 0.004337 -0.001079 -0.003152 0.000901 -0.003459 0.002846 -0.002276 -0.002030 0.004357 0.003950 0.000184 0.003847 -0.001504 0.004925 -0.000529 -0.002326 -0.004420 0.004916 -0.000555 0.001989 0.001345 0.002365 -0.004429 0.004460 0.004430 0.000793 0.004484 -0.002318 0.001196 -0.001199 0.001055 -0.001980 0.003176 -0.004226 -0.004937 -0.004487 -0.003543 -0.000633 0.004808 -0.004070 0.001910 0.000521 -0.001615 -0.003130 -0.002694 -0.004719 0.001950 0.001156 -0.000469 0.002279 -0.003979 0.004533 0.003489 0.001619 -0.001173 -0.000649 0.000315 0.004353 0.003940 0.000122 0.000427 0.003887 0.005043 0.001502 0.002327 -0.001670 0.004626 0.003393 0.000687 0.003883 0.003327 0.003547 -0.004031 0.000620 0.004205 0.003098 -0.000864
sent_18 0.004941 -0.002327 -0.001546 0.004713 0.003122 0.004148 -0.004819 -0.001284 -0.002905 -0.002032 0.002358 0.002354 -0.000169 -0.001254 0.000808 0.000190 0.000476 0.001020 -0.001052 0.002646 -0.002354 0.001219 0.004643 -0.004905 0.002228 -0.004122 0.000235 0.001171 -0.002723 0.004311 0.001235 -0.002541 0.002686 -0.003959 0.000722 -0.004156 0.000856 -0.002507 0.001283 0.002241 0.000216 0.001411 0.002937 0.003133 0.001315 -0.000442 -0.000742 0.003851 0.002174 -0.003269 0.000602 0.004196 -0.003595 0.003354 0.003317 -0.000003 -0.004598 -0.003757 0.004230 -0.004747 -0.001130 0.001358 -0.003143 0.005049 -0.003369 0.000249 0.001113 -0.002727 -0.000480 -0.000255 0.002447 0.001450 -0.000293 0.001636 -0.000335 0.000247 0.001594 -0.003186 0.002958 0.001297 0.004832 -0.002571 -0.000157 0.003930 0.001138 0.002618 -0.000808 0.001760 0.004350 -0.002758 0.003117 0.004869 -0.004816 -0.002914 -0.003565 0.002485 -0.004002 0.005226 -0.000860 0.004012
sent_19 -0.003253 -0.000769 0.003231 0.000629 -0.000299 -0.000135 0.000737 -0.000605 -0.002795 -0.003848 -0.003317 -0.004548 0.000321 0.003403 -0.001265 -0.004139 -0.000745 0.001052 -0.000801 0.003231 0.004223 0.004098 0.001960 -0.000343 0.001806 -0.004643 0.004963 -0.003083 0.004157 0.002898 0.003003 -0.002547 -0.002855 -0.000545 0.003229 -0.000448 0.004244 -0.001493 0.001378 0.004760 0.001325 -0.004306 -0.000196 -0.001774 0.000142 -0.002120 -0.003982 0.001514 0.001669 0.003689 -0.003503 0.002807 0.003415 0.001497 -0.002980 -0.002515 -0.000769 0.000754 -0.000142 -0.000136 0.003235 0.003391 0.003327 0.003412 0.000617 0.004777 0.001188 0.001086 -0.001562 0.001790 -0.004219 -0.003684 -0.003728 0.001711 -0.003458 -0.001551 -0.004552 -0.002489 0.004568 -0.000142 -0.003541 0.000008 0.004182 0.003725 -0.001187 -0.002618 0.002594 -0.002544 -0.002382 -0.004478 0.003552 -0.000673 0.000547 0.002266 0.002639 -0.000345 -0.003303 0.002998 -0.004965 0.004453
sent_20 0.001211 0.003998 0.001276 -0.002347 -0.001656 0.000463 0.004730 -0.003421 -0.000314 -0.001331 0.002553 0.003436 -0.000358 -0.002615 -0.004240 -0.003460 -0.002283 0.000367 0.003700 -0.003852 0.005026 0.001062 0.002482 0.004712 -0.000629 -0.000276 0.001156 -0.000257 -0.002544 -0.003395 -0.001829 0.002906 0.001355 0.002705 0.000596 -0.002973 0.001512 -0.001739 -0.005012 0.004264 -0.000489 -0.001284 0.001693 0.004305 -0.004332 -0.003210 -0.001368 -0.002102 0.000441 0.002768 0.003422 0.001235 -0.002673 -0.003371 0.002576 -0.002805 0.000414 0.001995 -0.002421 -0.003302 -0.004232 -0.003222 0.003247 -0.003311 -0.002513 -0.004975 0.001815 -0.002447 -0.001061 -0.004092 -0.001787 -0.000634 -0.000109 -0.000767 -0.003918 0.002606 -0.003513 -0.000701 -0.001899 -0.001221 0.001776 0.000816 -0.002565 -0.000250 -0.001449 0.002988 -0.002514 0.003238 -0.000105 0.000535 -0.002582 -0.002803 -0.000090 0.004497 -0.002981 -0.002624 0.003380 0.002087 -0.001801 -0.001822
sent_21 -0.000283 0.001001 0.002226 0.003333 0.002134 -0.002521 0.004270 0.002633 -0.002019 -0.001752 0.003828 -0.003153 0.001438 -0.002096 0.003590 -0.001754 0.002369 -0.003753 -0.000184 0.003026 -0.000897 -0.003667 0.001198 0.002133 -0.001998 -0.000644 0.003292 0.003638 0.001564 0.001409 0.003503 0.004147 -0.005122 -0.001223 0.000766 0.002224 -0.004215 -0.000717 -0.002261 -0.000591 0.000151 0.001315 -0.000585 0.000984 0.000592 -0.000485 -0.004853 -0.002999 -0.001519 -0.004151 0.001135 0.001052 0.000040 -0.001972 0.001836 -0.003375 -0.004560 0.002191 -0.000165 0.002183 -0.002997 -0.004443 -0.001176 0.002170 -0.003594 -0.003135 -0.000125 0.001576 0.002518 -0.004374 0.000845 -0.001206 0.001736 -0.002819 0.000086 -0.003557 -0.004702 -0.000004 -0.002788 0.001826 0.000182 0.003028 -0.000665 0.004916 0.000040 0.000222 0.002620 0.000457 -0.001579 -0.000022 -0.003599 -0.000821 -0.004732 -0.000799 -0.001941 0.000097 -0.004279 0.000702 -0.001902 0.000710
sent_22 0.002792 -0.000581 0.001859 -0.002506 0.005214 -0.002366 0.004426 -0.002939 -0.000207 0.003283 0.002137 0.002474 -0.000349 0.002621 0.004379 -0.000946 0.000291 -0.004837 -0.001102 -0.000324 0.004197 -0.004406 0.002276 0.000211 0.001165 -0.004980 -0.004097 -0.002377 -0.005341 0.002068 0.003980 0.000675 0.000305 0.000938 -0.001799 -0.001388 0.000630 0.003299 -0.003199 -0.001554 0.002528 -0.001868 -0.004975 -0.003484 -0.003059 0.000053 0.001553 0.003932 0.004380 -0.002321 0.002641 -0.002082 -0.001456 -0.002266 -0.000675 -0.002909 -0.001616 -0.004067 0.004850 0.000048 0.004523 0.002566 -0.000476 0.002962 0.001631 -0.002091 0.000264 0.002377 -0.002184 -0.005138 -0.002835 0.002986 0.004402 0.001228 -0.003692 0.002402 0.000346 0.002526 0.003899 0.004918 0.001470 0.003798 0.002834 0.002195 0.003669 0.004773 0.004132 -0.001283 -0.004343 0.003539 0.000174 0.000640 0.003255 -0.004945 0.004270 -0.004956 0.002284 0.001118 0.001740 -0.001332
sent_23 -0.002004 0.000350 0.004089 0.001005 0.001661 -0.000346 0.004810 0.002373 -0.001710 0.001641 0.000214 0.004004 -0.001874 -0.003827 -0.003241 -0.001331 0.003435 -0.002548 0.001331 0.001090 -0.000628 -0.005161 0.002566 -0.001973 -0.001011 -0.001574 0.001327 -0.004441 0.000340 -0.004631 0.004880 0.001270 -0.001205 -0.003743 0.002295 0.003976 -0.001751 0.002768 -0.002422 0.004703 0.002051 0.000973 0.003935 -0.002273 0.004479 0.001777 0.003055 0.000925 0.003655 0.001852 -0.003706 0.001406 -0.002338 0.003958 -0.003009 -0.002035 -0.004496 -0.000922 0.000524 0.000611 0.004402 -0.001210 -0.000775 0.004016 0.001016 0.001409 -0.002349 -0.000042 0.000917 -0.003781 -0.005131 -0.003808 -0.000166 -0.004957 0.001538 -0.004029 -0.002505 -0.000818 -0.003685 -0.001802 -0.004730 0.005218 0.001485 -0.001384 -0.004552 -0.000460 -0.000373 0.004170 -0.002424 0.001669 0.001718 -0.002936 0.000276 0.002809 -0.003491 0.000699 -0.004494 -0.004658 -0.003928 -0.000266
sent_24 0.004040 -0.000783 -0.004611 0.003087 0.000526 -0.002535 0.004943 0.004100 -0.002253 -0.002555 0.001095 0.003377 -0.001934 0.001126 -0.003395 -0.003019 0.002437 -0.003639 -0.002524 0.001742 -0.004935 -0.004417 -0.002240 -0.001312 -0.001360 0.003065 -0.004431 -0.001250 0.001443 -0.003543 0.003491 0.001069 -0.003915 -0.002689 0.002325 -0.001268 0.000058 0.003924 -0.003492 0.004705 -0.004636 -0.003919 -0.002949 0.002729 -0.000768 0.001659 -0.003303 -0.003316 0.000212 0.002430 -0.000444 0.003662 0.001958 -0.002656 -0.002737 -0.001645 0.002492 0.004712 0.003789 -0.002075 -0.000850 0.000859 0.000430 -0.001415 -0.004242 0.002080 -0.003926 0.003679 0.004194 0.001625 0.000147 0.002156 -0.001029 0.003349 0.002683 -0.003239 -0.001850 -0.001090 -0.001387 0.000911 -0.004546 0.001998 -0.003230 -0.000607 -0.000598 -0.001690 -0.001004 -0.003101 -0.004647 0.000551 0.000981 -0.003623 -0.002461 -0.002443 0.003086 -0.003529 0.000330 0.000397 -0.001725 -0.001507
sent_25 0.004591 0.000533 0.001527 -0.000093 0.001466 0.001053 -0.003548 -0.001653 -0.000396 -0.003722 -0.001369 -0.002719 0.003475 -0.001585 -0.002732 -0.000918 0.001831 -0.004344 -0.003193 0.001943 0.002523 0.001178 0.003792 -0.003312 0.002035 0.004173 -0.003493 -0.002562 0.000467 -0.001559 0.001906 -0.004424 -0.003392 0.002162 0.004706 0.004296 0.004011 -0.003723 -0.003541 -0.004277 0.000425 0.003825 0.000318 0.002817 -0.003115 0.003631 -0.003126 -0.004452 -0.000785 0.000551 0.004707 -0.004082 -0.002261 -0.003949 -0.001096 -0.002110 0.000133 -0.001517 0.004282 0.002899 0.003610 -0.003705 0.000751 -0.002852 0.003682 -0.004850 -0.003943 -0.001239 -0.000979 -0.002228 -0.004039 -0.003813 -0.001821 0.004508 -0.002926 0.002473 -0.002418 -0.004628 -0.004839 -0.003473 -0.000379 0.002559 0.002288 -0.001476 -0.000209 0.003141 0.003384 -0.001801 -0.004957 -0.004531 0.002378 -0.002274 -0.000185 -0.003080 0.003471 0.000034 0.000272 -0.002119 0.000120 -0.004980
sent_26 -0.002434 -0.001780 -0.002538 -0.004385 0.000264 0.002627 0.004489 -0.000017 0.001211 -0.002215 -0.003279 -0.003930 0.001987 0.002347 -0.002870 -0.000608 0.001025 -0.003442 0.002801 0.001347 0.000755 0.002549 0.004704 0.000589 0.003508 -0.000448 0.001872 0.004611 0.001807 -0.002279 0.001085 -0.001846 -0.001862 0.001410 -0.003891 0.000160 0.004189 -0.001296 -0.002912 -0.000464 0.003126 0.003709 0.003638 -0.005021 -0.002364 0.005197 -0.004159 -0.000342 0.002465 -0.003621 0.001783 -0.000484 -0.002992 0.003944 -0.003271 0.001275 0.002499 0.000961 0.001239 -0.003763 -0.002019 0.000667 -0.000869 0.001133 0.003321 -0.002947 0.004093 -0.001271 0.004748 0.001320 0.003401 0.000202 0.000276 -0.001537 -0.003915 -0.001145 -0.002898 -0.004413 -0.002476 -0.003544 0.003594 -0.004644 -0.003563 0.002189 0.004129 -0.003181 -0.004900 0.004581 0.002116 -0.002366 -0.000164 0.000772 -0.001405 0.003661 0.001737 0.004901 -0.001578 0.004024 -0.000542 0.001393
sent_27 0.002342 0.003025 -0.001108 -0.000625 0.003171 0.002131 0.004394 0.004811 -0.003127 -0.002732 0.002209 0.002468 0.000941 0.003741 -0.002420 -0.001569 -0.000038 -0.001828 0.000452 0.001859 -0.002882 0.000005 0.004862 -0.001805 -0.004652 0.003280 0.000064 -0.004384 0.003929 -0.000995 0.004286 -0.001047 -0.004249 -0.002498 -0.001584 0.002546 -0.003204 -0.000692 0.003810 0.000311 -0.004000 -0.004687 0.002124 0.004765 0.002799 0.002681 0.001663 0.002882 -0.004676 -0.002359 0.002010 0.003582 0.001789 -0.003207 0.004376 0.003996 -0.004082 -0.002968 -0.002227 0.002442 0.003527 0.000690 -0.002935 -0.000980 -0.003636 0.004227 0.002707 0.000114 -0.000386 -0.004010 -0.001724 -0.003826 0.002797 0.000497 -0.002798 -0.002776 -0.002398 -0.001872 -0.001146 -0.002122 0.001750 -0.004746 -0.001791 0.002475 0.004370 0.002867 -0.002616 -0.002669 -0.003048 0.003696 -0.002674 0.002538 -0.002438 -0.004688 0.002211 0.002352 -0.004130 -0.001816 0.004390 -0.003376
sent_28 -0.003921 0.001284 0.004809 -0.002763 -0.000106 0.002360 -0.003192 -0.004690 0.003494 -0.004663 -0.002911 0.001429 -0.001462 -0.004993 0.000319 -0.002113 -0.003727 0.004617 -0.003109 0.002069 0.004386 0.002490 -0.002617 -0.002274 -0.005000 0.003819 0.003706 0.000384 -0.003835 -0.003213 0.000752 -0.001909 -0.002014 -0.003588 -0.002661 -0.000337 0.000218 0.000081 0.004394 -0.003679 0.002397 0.002582 0.000518 0.000002 0.004667 0.003053 -0.003945 0.004852 -0.004539 0.000931 0.000478 0.003910 -0.001374 -0.004337 0.000673 -0.004159 -0.001547 0.004336 0.003239 -0.003912 0.003387 0.003686 0.003776 -0.002023 0.000223 0.003154 0.001176 0.000949 0.000775 -0.002329 -0.005406 0.002467 -0.001612 -0.001854 0.001858 0.001627 -0.003172 0.002829 -0.001202 0.001836 0.004903 0.001060 -0.001079 0.000823 0.000525 0.000372 0.002373 0.004104 -0.000409 -0.003301 0.001059 -0.002377 -0.004313 0.003171 -0.001440 0.002164 0.000092 -0.001430 -0.001022 -0.004799
sent_29 0.000792 0.003763 -0.003526 -0.003150 0.000323 0.002241 0.001981 -0.001929 -0.005605 -0.000745 -0.003199 -0.004781 0.002721 0.004761 -0.001431 -0.002577 0.000412 0.003005 0.003128 0.001524 0.000149 0.000620 -0.002208 -0.001897 0.002903 0.003316 -0.003748 -0.002792 -0.005467 0.000049 -0.002672 0.002032 0.002240 -0.004163 -0.003334 0.003549 -0.000446 0.000274 0.003909 0.002713 -0.001432 -0.004996 -0.000454 -0.001245 -0.004350 0.002541 -0.000287 0.001331 0.003212 0.004093 0.000818 -0.001167 -0.004089 -0.004481 -0.001574 0.001912 0.001649 -0.003809 -0.004211 -0.002609 0.000693 0.003280 -0.000335 -0.001097 0.001342 -0.002842 0.001276 0.003421 0.000604 0.000378 -0.002778 0.003991 0.005045 0.002334 0.001340 -0.003712 -0.001903 -0.001768 -0.001786 0.000342 0.001488 -0.001923 -0.001864 -0.003897 -0.001355 0.001478 0.000131 0.004834 0.004343 0.000354 0.004913 -0.002254 0.000567 -0.000322 0.005750 0.002639 -0.002429 0.000372 -0.002479 0.000319
sent_30 0.002998 -0.004579 -0.003029 0.004857 0.004601 0.000631 0.001453 -0.002276 0.004370 0.001684 0.001679 -0.004855 0.003615 0.002782 0.001779 0.002317 -0.003497 0.002176 -0.004018 0.002042 -0.004953 0.002681 -0.000021 -0.002881 0.002284 -0.001926 0.003796 -0.003204 0.004328 0.004776 -0.001960 0.003663 0.003428 -0.000728 -0.001309 -0.002268 0.004967 -0.002550 0.004080 -0.000632 0.004242 0.003332 -0.003506 0.000836 0.001826 -0.000947 -0.004908 -0.001756 0.003435 -0.004385 -0.003963 0.002125 0.000108 -0.000049 -0.001165 0.001060 0.003492 -0.002267 0.003441 -0.000995 -0.000001 0.002333 -0.002453 0.004300 0.001952 0.001120 -0.002316 0.001893 -0.002485 0.003117 -0.004953 -0.003253 0.000557 0.002133 0.000009 0.003783 0.004718 -0.000412 0.002666 0.000024 0.001701 -0.002696 -0.003903 0.004772 0.003196 -0.002021 0.000829 -0.001202 -0.003240 -0.000748 -0.001988 -0.004739 -0.001183 0.004238 0.003325 0.000667 -0.001783 -0.002574 0.004639 0.000629
sent_31 -0.002869 -0.002373 0.004584 -0.002389 -0.003897 -0.003232 0.002836 0.002050 -0.000677 0.002990 0.000131 -0.000991 -0.003695 0.003914 -0.002345 0.001192 0.004716 -0.003039 0.004648 0.001445 -0.003680 0.002461 0.004638 0.000881 0.001767 -0.004864 0.005019 -0.001900 -0.004675 0.002976 0.004629 0.002398 -0.005036 -0.004353 0.000845 -0.001589 0.003759 0.003674 0.004667 0.002241 0.003530 -0.001812 -0.003968 0.003660 -0.001739 -0.000796 0.001563 0.001060 -0.000751 -0.000990 -0.003910 0.000491 -0.002743 0.002397 0.001623 -0.004214 0.004834 0.002718 -0.002881 -0.004805 0.000048 -0.001317 0.000297 0.001744 0.002931 -0.004922 0.001928 -0.002106 0.004848 0.003487 0.000542 0.001153 -0.003032 -0.002808 -0.003263 -0.001081 -0.003983 0.000165 0.001313 -0.003537 -0.001504 -0.004206 0.000245 0.001415 0.001311 0.003284 -0.002635 0.001134 -0.002016 -0.003830 -0.001707 -0.004297 0.004761 0.002256 -0.003849 0.002681 -0.001468 0.004097 0.000183 0.003643
sent_32 -0.002850 -0.001353 -0.001396 -0.004173 -0.001673 0.001483 -0.000338 0.003761 -0.002214 -0.001410 -0.001743 0.000515 -0.003208 -0.003282 0.004421 -0.001194 0.000851 -0.004473 -0.003626 -0.004008 0.003105 -0.003836 0.000132 -0.003440 -0.002202 0.003880 0.001328 0.004680 0.001020 -0.004934 -0.000851 -0.004849 -0.001852 -0.000113 0.000691 -0.002636 0.000576 -0.001036 0.000121 -0.003068 -0.003417 0.002642 -0.001673 0.001368 0.000571 0.003995 0.003783 -0.000598 -0.002969 0.001310 0.001409 0.001861 0.004137 0.002823 0.001254 0.000945 -0.002855 0.001597 0.003184 0.004319 0.004117 0.000505 -0.002354 -0.001780 0.004983 0.000301 0.003225 0.000998 0.000152 -0.001564 0.000460 -0.004964 0.003759 0.000678 -0.004835 0.003218 -0.003614 -0.004607 -0.000367 0.004559 -0.004055 -0.004362 0.003744 0.003234 0.003161 -0.000435 -0.000702 -0.000954 0.000805 0.002217 0.002784 0.001533 0.000642 -0.000929 -0.001886 -0.002116 -0.002065 0.001736 0.002547 0.000962
sent_33 -0.002485 -0.002490 0.002928 0.005107 -0.004707 -0.002259 0.003050 0.001945 -0.003198 0.000780 0.000594 0.002496 0.000162 -0.000609 -0.002262 -0.002987 -0.004163 0.001091 0.001737 0.001570 -0.004484 -0.001489 -0.003600 0.000454 0.004972 -0.000717 -0.001714 0.002732 0.004286 -0.001638 0.003130 0.005311 -0.003752 0.000072 0.003810 -0.001759 0.000019 0.002512 -0.004427 -0.001155 0.000940 -0.003204 0.002792 0.002627 0.004758 0.000155 -0.003391 0.004891 0.003820 0.000187 0.002973 0.004311 0.002687 0.000547 0.001293 0.003389 0.001048 -0.003557 0.002017 -0.000011 -0.002115 -0.004486 -0.003034 0.002445 0.003852 0.002890 -0.003979 -0.004354 0.002337 -0.002640 -0.002782 -0.004808 -0.003929 -0.003722 -0.003083 -0.000511 0.003203 0.003061 0.004309 0.000173 0.002316 0.000715 -0.003990 -0.004175 -0.002348 0.005932 0.002112 -0.002352 0.001637 0.002358 -0.004467 -0.000964 0.003030 -0.004279 0.004527 0.003805 0.003802 -0.003196 0.001156 0.002127
sent_34 0.003826 -0.003702 0.003007 -0.001863 0.001023 0.002036 0.003144 -0.002308 0.001155 -0.002036 0.004935 0.003048 -0.000634 0.004108 0.002267 0.004513 -0.003384 -0.001890 -0.004206 -0.001933 -0.001233 0.000759 -0.000521 0.002400 -0.002496 -0.003382 -0.001077 -0.000657 -0.000601 0.003827 -0.002577 -0.001412 -0.003037 -0.001318 -0.001111 0.001062 -0.002596 -0.002289 0.001973 0.004300 -0.004044 -0.003079 -0.003752 0.001421 -0.002547 0.001213 -0.002886 0.003289 -0.001815 0.001886 -0.003900 -0.001862 -0.002322 0.001073 0.001464 0.003356 -0.003037 0.002230 0.001868 0.000659 0.002398 -0.003711 -0.003717 -0.000465 0.002413 -0.003391 -0.001455 -0.000102 0.004449 -0.004497 0.003177 0.005043 -0.002228 0.003888 -0.001880 0.003323 -0.000350 0.001392 -0.002652 0.002418 -0.003630 0.000679 0.000197 0.003115 -0.000087 0.003133 -0.000925 -0.002112 0.002842 -0.000267 0.000358 0.000713 0.003773 0.000524 -0.000582 -0.003675 0.002213 0.003691 -0.003471 -0.000485
sent_35 0.004137 0.000702 -0.000003 -0.004674 0.000556 0.001106 -0.003300 0.004353 -0.002724 0.001882 -0.002091 -0.004029 -0.002629 -0.001453 -0.000251 -0.002415 0.002261 0.003209 0.002768 0.002154 -0.002635 -0.002690 -0.004272 -0.000981 -0.004195 0.001760 0.004745 0.002868 -0.003651 -0.005093 -0.001822 0.004621 -0.002007 0.002544 0.001931 0.000833 -0.001477 -0.002873 0.005028 -0.004282 -0.002824 -0.001695 0.004222 0.001681 -0.002499 -0.003175 0.003561 0.002873 -0.004821 0.003871 0.000778 -0.000608 0.001863 -0.004655 -0.001911 -0.004437 0.001959 -0.000796 -0.000183 -0.001816 0.003108 -0.004680 -0.002107 0.000623 0.002870 0.001100 0.002369 -0.004813 -0.001961 -0.004764 0.000326 0.004980 -0.004880 -0.000307 -0.005106 0.001328 -0.003120 0.002627 -0.003528 0.003332 -0.003108 -0.001573 -0.002855 0.003120 -0.000279 0.003370 -0.003689 -0.000046 0.002783 0.004705 0.001836 -0.003385 0.002854 -0.004552 0.002366 0.003432 0.000491 -0.000452 0.004200 -0.005037
sent_36 -0.004997 -0.002452 -0.000111 0.000256 -0.001248 -0.002182 -0.002977 0.002940 -0.001756 -0.000039 0.003131 0.001085 -0.001000 -0.003142 -0.000995 -0.000055 0.004939 -0.002072 -0.003372 -0.002793 -0.003011 -0.004101 -0.001516 -0.002191 0.003911 0.002883 -0.003835 0.003637 -0.003864 0.002135 0.000681 -0.004241 0.004065 0.003788 0.003395 -0.001306 -0.002735 0.004963 0.003320 -0.004583 -0.001229 0.003163 0.000354 -0.002725 0.002830 -0.002346 -0.005102 -0.002665 0.004821 0.001563 -0.002866 0.001794 0.001943 0.001482 -0.004343 -0.002695 0.003724 0.002410 -0.003287 -0.001914 0.000612 0.003228 -0.002944 -0.004089 -0.001219 0.004143 -0.002310 -0.003964 -0.004269 -0.001540 -0.004451 0.000808 0.001695 -0.000277 0.002335 0.000050 0.002081 -0.002549 0.002392 -0.000035 0.002012 -0.000571 0.000017 -0.004530 -0.000225 -0.003702 -0.003587 -0.000638 0.000814 -0.001673 -0.003394 0.002366 0.004691 0.002278 -0.004365 0.003532 -0.004379 -0.000733 0.004161 -0.002324
sent_37 -0.003766 0.002447 0.004109 -0.001992 -0.002673 -0.003280 0.004574 0.000811 0.003787 -0.001971 -0.004278 -0.000474 -0.003152 0.000098 0.000520 -0.001989 -0.001909 -0.004666 -0.000807 -0.001660 0.000934 0.003994 -0.000245 -0.004280 0.004310 0.003358 -0.001251 -0.001420 0.004442 -0.001364 0.001336 0.004668 -0.004686 -0.001698 -0.002934 0.004304 0.000356 -0.004534 0.002728 0.001819 0.001456 0.004741 0.003935 0.002482 -0.002871 -0.003535 -0.003060 -0.003157 0.000478 0.001631 0.000431 -0.004627 -0.001277 0.004764 0.002024 -0.001394 0.001840 -0.002057 -0.004170 0.000365 -0.002280 -0.000438 0.004213 0.001189 0.002154 -0.003852 -0.000071 -0.000972 0.001660 -0.002094 -0.000942 0.004768 -0.003935 -0.002844 -0.002778 0.001933 0.002119 0.002942 -0.001282 0.003263 0.001863 0.001851 0.003004 0.001332 -0.000929 -0.005116 0.000856 0.000643 0.001170 -0.002136 0.000447 -0.003380 0.001330 -0.004323 0.003411 -0.002607 -0.002130 0.003644 0.003594 0.003341
sent_38 -0.001746 0.004029 0.002702 0.001591 0.004018 0.002794 -0.000721 -0.001764 -0.001074 -0.004373 -0.001355 -0.001497 0.003657 0.003898 0.004624 -0.001721 0.001908 0.001338 -0.002580 0.003689 -0.002861 0.002474 -0.003518 -0.003877 0.002186 0.000244 -0.000535 0.002777 -0.001405 0.003521 0.004612 0.004770 -0.002231 -0.000831 0.002233 0.003942 0.002115 0.002554 0.003798 -0.001316 0.000372 0.000349 0.001461 0.003965 0.001028 0.004701 0.002327 -0.000861 0.000808 0.004248 0.001178 0.002120 0.001619 -0.001663 -0.002975 -0.000922 -0.003514 0.003281 0.002091 -0.001016 -0.003276 0.003759 0.001366 0.004959 -0.004036 -0.002566 -0.004190 0.002436 -0.003383 0.003811 -0.000070 0.000305 -0.004567 0.001147 -0.002706 -0.002845 0.003924 0.003888 -0.004966 0.003351 0.004040 0.000132 0.001525 0.002687 0.001881 -0.000409 0.000732 0.000742 0.003415 -0.002572 0.002606 0.003118 0.002975 0.003076 0.003281 -0.000847 0.001165 0.002544 0.002708 0.004577
