34 100
sent_0 -0.001130 0.002451 -0.005236 -0.001927 -0.003399 -0.004544 -0.002764 -0.001763 -0.000898 0.000612 -0.000807 0.001553 -0.003014 0.004077 -0.004861 0.001975 -0.000931 0.000836 -0.003741 -0.003203 0.002971 0.004527 -0.001898 0.002361 0.003619 0.003862 -0.003721 -0.004605 -0.003020 0.003506 -0.004280 -0.000950 0.004545 0.000421 0.001839 -0.001765 0.001883 0.003375 -0.004851 0.002500 0.004761 0.002572 -0.002184 0.002610 -0.003894 -0.000485 0.004137 -0.001951 -0.002173 -0.003345 -0.005132 0.001831 -0.002866 -0.002489 -0.000479 -0.004545 0.000594 -0.003556 0.000679 0.002099 -0.003541 -0.000672 0.001755 -0.000864 -0.004600 0.000295 0.001401 0.000008 0.004731 0.000815 0.004224 -0.003378 -0.003478 0.003141 -0.000890 -0.003008 0.004233 -0.001177 0.002367 0.002550 0.003871 0.001462 0.002413 -0.001506 -0.002216 0.003962 -0.000635 0.004662 0.001473 0.001560 -0.003443 0.004315 -0.000032 0.000674 -0.000897 -0.002789 0.003890 0.000504 -0.004843 0.001100
sent_1 -0.001391 0.000856 0.004228 -0.001127 0.004223 0.001471 -0.004782 0.004064 0.001119 0.005263 -0.003511 -0.003287 0.004845 0.002303 -0.004776 0.002057 0.002379 0.003808 0.002131 -0.004122 -0.004242 -0.005584 -0.004459 -0.002259 0.003817 -0.000387 0.000031 0.003003 -0.004212 -0.001521 0.000980 0.005034 0.000785 -0.005043 0.003747 -0.003367 0.003761 -0.001170 0.003184 0.002743 0.000862 -0.004305 -0.005110 -0.003659 -0.004453 -0.004037 -0.002146 0.002654 0.001175 -0.005151 -0.004656 0.005258 0.000651 -0.003137 -0.002211 0.002421 -0.003285 0.000233 0.004844 0.003043 -0.002458 0.000401 0.000786 0.004033 -0.003465 -0.005277 -0.004355 -0.000231 0.000751 0.000151 -0.002405 0.005124 0.000872 -0.001226 0.000883 0.002450 0.001729 -0.002524 -0.004082 -0.000509 0.001605 -0.001917 0.003020 -0.004289 -0.002197 0.004277 -0.002889 0.001394 -0.000262 0.005010 -0.002287 -0.003806 0.002536 0.002728 0.004782 0.003736 -0.004633 -0.001912 0.001689 0.004544
sent_2 0.005052 0.001018 0.004465 0.001783 -0.000778 0.000123 0.001210 0.000190 0.003714 0.004454 -0.001277 0.005152 -0.002662 -0.003362 -0.003743 -0.000446 -0.004886 0.003813 0.003246 -0.005077 -0.002703 -0.002787 -0.003647 0.003063 -0.001370 0.003679 0.000070 0.003296 0.002893 0.004648 -0.000153 0.000854 0.002910 -0.002539 0.000508 0.000668 -0.004664 0.001181 -0.001159 0.003453 -0.001614 0.003329 -0.000075 -0.003318 0.003000 0.001191 -0.003900 -0.000331 0.002426 0.003703 -0.005274 0.005215 -0.001450 0.004369 0.001207 0.003155 0.000823 0.000549 -0.001925 0.000737 0.003133 0.004069 0.002183 0.002913 0.004046 -0.002144 0.001639 -0.000285 -0.001492 -0.001433 -0.001780 -0.001665 0.001368 -0.000764 0.004977 0.001724 -0.002898 -0.000703 -0.001128 0.004005 0.003867 0.004829 0.002372 -0.002415 -0.002280 0.004827 0.000517 0.002759 0.000283 0.003179 0.000134 0.003166 0.001028 -0.000683 -0.000625 -0.004979 -0.000717 -0.003639 0.005520 -0.003217
sent_3 0.003154 0.003964 0.001827 0.000944 -0.003201 -0.000493 -0.001214 -0.002957 0.000933 -0.001723 0.004101 0.004082 -0.002232 -0.003636 -0.003058 0.000039 0.002192 -0.003008 -0.002613 0.003402 -0.000725 0.000645 -0.002696 -0.003791 0.000055 -0.000449 -0.003479 0.001031 0.000454 0.001451 -0.003634 0.002575 -0.002931 0.000093 0.002896 -0.004614 -0.001959 0.003890 0.003195 0.000530 0.003536 0.004453 0.003005 0.003294 -0.003838 0.001626 0.002224 0.001222 0.003140 -0.004606 0.002472 0.002423 -0.002572 -0.002729 0.001083 -0.001620 0.003024 -0.000832 0.002717 0.004983 -0.001346 -0.003286 0.003790 0.000752 0.004954 0.001265 0.004703 0.000532 0.000311 -0.003758 -0.001637 -0.004552 -0.003254 0.002407 -0.004546 -0.001150 0.003615 0.002183 0.001988 -0.002568 -0.000623 0.001039 0.005116 -0.003091 -0.002362 -0.002018 0.002626 -0.000603 -0.004588 0.000600 -0.002659 0.002970 -0.001603 -0.004981 0.001306 0.003109 -0.001012 0.002446 0.000496 0.000297
sent_4 0.004670 0.003334 -0.004563 0.002205 -0.000321 0.004570 -0.002675 -0.002465 -0.004433 -0.000601 -0.004039 0.001425 0.003228 0.002123 0.002476 -0.001666 0.003468 -0.000803 0.003274 0.001107 -0.003369 -0.004615 -0.004771 -0.004226 -0.000360 -0.004174 -0.004865 0.002391 -0.001163 0.002606 -0.000471 -0.000326 -0.000124 -0.000333 0.003337 -0.001205 0.004355 -0.004625 0.002616 -0.003714 0.001387 -0.005141 0.000209 -0.005040 0.004526 0.004002 0.003196 0.004438 -0.003360 -0.003461 -0.003318 0.001401 0.004048 0.004874 0.002103 0.002312 0.003991 -0.001258 -0.002497 -0.003400 -0.003711 0.003385 -0.003685 -0.002115 0.003239 -0.002091 0.004807 -0.002415 0.000210 -0.002088 0.003939 -0.001280 -0.000597 0.000065 0.004528 -0.004631 0.002208 0.003929 -0.004698 0.000472 -0.001642 0.003996 0.000803 0.001930 -0.000391 0.001723 -0.001990 -0.004890 0.000535 -0.001561 0.000259 0.004283 -0.000532 -0.002538 -0.001011 0.004126 0.004456 0.003691 0.004410 -0.002718
sent_5 -0.004080 -0.002808 -0.001864 -0.003225 0.001033 -0.000802 0.003165 -0.003096 0.002039 -0.002668 0.000748 -0.001526 -0.004403 -0.002769 0.001764 -0.000031 0.000192 -0.003297 0.000736 0.005027 0.003173 0.000940 0.004779 0.003986 0.000898 -0.004624 -0.004124 -0.004343 -0.000483 -0.001276 0.004779 -0.003292 0.004686 0.002734 0.003153 0.001438 0.001573 -0.000254 -0.004929 -0.001551 -0.000159 0.002338 -0.000305 -0.000395 -0.003548 -0.004860 0.002570 -0.001885 0.004783 -0.002818 -0.001503 0.000144 0.002542 -0.000381 -0.003711 -0.001827 0.000130 0.001752 0.002650 -0.003729 -0.004793 0.000166 0.003103 -0.004944 0.001784 0.001907 -0.000511 0.004197 0.001373 -0.004880 -0.000146 0.003568 0.003318 0.001432 0.001748 0.000742 -0.002285 0.000606 0.001714 -0.001507 0.003528 -0.003150 0.002431 -0.002106 0.002814 -0.000790 0.003072 -0.001532 -0.002807 0.002609 -0.001961 0.002329 0.002391 -0.002802 -0.002854 -0.003027 -0.003460 -0.001244 -0.004691 -0.003968
sent_6 0.001894 0.003177 -0.004096 -0.002618 -0.002823 0.004253 0.002137 0.000430 -0.002186 0.003470 -0.000748 0.004408 0.002262 -0.000085 -0.003805 0.004573 -0.003442 -0.003248 -0.000686 -0.001047 -0.003289 0.001965 -0.003044 0.001443 0.002656 -0.003181 0.000727 0.002281 0.001158 0.001228 -0.001940 0.002441 0.004485 -0.000874 0.003090 -0.004649 0.003550 -0.003003 -0.001209 -0.001894 -0.004021 0.003813 -0.001623 0.000260 -0.000081 -0.003697 -0.002692 -0.004033 0.000314 -0.002591 -0.001540 -0.003745 0.002866 -0.004039 0.004940 -0.003303 0.000696 -0.004807 0.002987 -0.003145 0.000382 0.002547 -0.003651 0.000809 -0.002747 0.002454 0.002264 -0.003155 0.003526 -0.005033 0.003368 0.000613 -0.000933 0.002570 0.002236 0.004851 -0.002163 -0.004971 0.004510 0.003919 0.002373 0.000504 0.002315 0.002820 -0.001187 0.003173 0.002617 0.001101 -0.001169 0.002264 -0.005032 0.002946 0.004075 -0.002699 -0.003488 -0.003019 -0.001827 0.004067 0.000618 -0.002100
sent_7 -0.003098 -0.001147 0.001826 -0.000489 -0.000316 0.000025 0.003678 -0.000936 -0.002484 0.002121 -0.003500 -0.000106 -0.000614 0.001676 0.003088 -0.001068 0.002424 -0.001018 0.001746 -0.004236 0.000310 0.001932 0.001697 0.003253 0.000005 -0.001292 0.002784 -0.005376 0.000366 0.004974 0.000220 -0.002214 0.003421 -0.003096 0.003076 0.000041 0.004925 0.001395 0.002307 -0.004490 0.004899 -0.005132 -0.002927 0.004631 -0.004036 0.003087 0.004788 0.000159 -0.001467 0.002883 -0.000963 -0.002564 0.003880 0.003308 -0.000227 0.003969 -0.001045 0.000568 -0.001331 -0.000518 -0.001985 0.005792 -0.003040 -0.002321 -0.003095 -0.005385 0.001520 0.000725 0.002071 -0.000237 0.001611 0.002349 0.003022 -0.001587 0.002517 -0.003028 -0.001919 -0.003551 -0.000577 -0.000955 -0.000547 0.006051 -0.000797 0.004369 0.002095 0.000850 0.003899 0.000886 -0.003180 0.004770 -0.000129 -0.000826 -0.000884 0.001935 -0.000623 0.001847 -0.001481 0.001327 0.001403 0.003361
sent_8 0.003928 -0.002710 0.000783 0.004087 -0.000395 0.004186 -0.002023 0.000820 0.001558 -0.002496 -0.004999 -0.000724 0.004645 -0.001206 0.002602 -0.003322 -0.001643 -0.003709 0.002109 0.001777 0.002060 -0.002959 0.001815 -0.002587 -0.000663 -0.001626 -0.001625 -0.004563 0.001173 0.002241 0.001069 0.001580 -0.003281 -0.003619 0.000510 0.003511 -0.002888 -0.000293 -0.000853 0.000156 -0.003224 -0.001843 -0.002726 0.003165 0.003016 -0.000683 0.001336 -0.003209 0.000292 -0.002167 0.003208 0.001940 0.001316 -0.003897 -0.000348 0.004656 0.004451 0.001062 -0.003435 0.001370 0.001014 0.000002 -0.000966 0.001382 0.003589 0.002306 0.000772 0.004193 -0.004277 0.004542 -0.004634 -0.002890 -0.000746 -0.003860 0.001398 -0.004383 -0.002053 -0.004169 0.002149 0.002238 -0.001162 -0.002626 0.002792 -0.001593 0.002972 0.000475 0.000401 -0.004757 0.001193 -0.000991 -0.002585 -0.000473 -0.000788 -0.000493 0.005157 -0.001608 0.002905 0.000757 0.004168 -0.001407
sent_9 -0.002553 0.004247 -0.004584 0.004590 0.000596 -0.001252 0.005020 -0.004493 0.000104 -0.004639 0.000664 -0.003201 0.001401 0.004923 0.003686 -0.000469 0.002060 0.002779 -0.000075 0.000225 -0.003447 -0.001478 -0.003602 0.002335 -0.000228 -0.000611 0.003851 0.000229 -0.000916 -0.002310 -0.004324 -0.000784 -0.004745 -0.002123 0.000122 0.004634 -0.003868 0.001747 -0.000062 0.002829 -0.003548 -0.004224 -0.001085 0.002875 -0.003035 0.002689 -0.002021 -0.002733 -0.004789 -0.001005 -0.001328 0.001669 -0.004332 -0.003523 -0.004890 -0.003902 0.001498 -0.001109 -0.001817 0.000565 0.005101 0.003472 0.001912 0.004324 -0.004569 -0.004355 -0.000316 -0.001542 0.004383 -0.000170 0.000353 0.004002 -0.000515 0.003772 -0.002393 -0.002191 -0.001691 0.000548 -0.002784 0.001886 -0.003555 -0.003941 0.003795 -0.002655 -0.001115 0.000888 0.000293 -0.004257 0.003692 0.004686 0.003213 -0.002125 0.000423 -0.001654 0.000668 0.004657 -0.001841 0.001736 -0.001633 0.002749
sent_10 -0.001738 0.004084 0.002323 0.002771 -0.000188 -0.003057 -0.004291 -0.001988 -0.004477 0.002021 0.001729 -0.000699 0.002771 0.000585 -0.004533 -0.003485 -0.003132 -0.001586 -0.004594 0.000999 0.000006 0.000850 -0.000978 0.003555 -0.000602 -0.004829 0.003775 0.001618 0.003338 0.004287 -0.004678 -0.002660 -0.004568 -0.000778 0.003542 -0.003895 -0.000667 -0.003612 0.002621 0.003568 -0.004813 -0.000008 -0.002673 0.004148 0.004612 0.001351 0.004723 -0.001553 0.003950 -0.000589 -0.002858 0.004357 0.001652 -0.004578 0.003485 0.001861 0.001275 0.002119 -0.002597 0.001162 0.003821 -0.004266 -0.003762 0.003605 0.001466 0.000311 -0.002687 -0.002046 0.003893 -0.000866 -0.004409 0.004087 -0.002913 0.003320 0.003889 0.000077 0.001028 0.000666 0.001260 0.003940 -0.002355 0.003823 0.000850 -0.004037 -0.002724 0.001060 -0.002559 -0.003882 -0.003379 0.003760 0.001210 0.004570 -0.001143 0.000643 0.001181 0.001002 -0.004208 0.002311 0.004767 0.000202
sent_11 -0.002986 0.002695 -0.004915 -0.001641 0.004274 0.000849 0.003686 0.000904 0.003163 0.003894 -0.001798 -0.003658 0.002359 -0.000491 -0.003760 0.000840 -0.004720 -0.003182 0.002825 -0.004923 -0.001848 -0.005098 0.004952 0.000882 -0.002078 0.004125 -0.000098 -0.000570 0.000797 -0.002315 -0.001955 -0.001206 -0.002621 0.000816 0.002063 -0.004317 0.004643 0.002613 0.002889 0.002640 -0.004237 -0.000207 -0.000751 0.001598 -0.000459 0.002095 0.001988 0.002051 0.001355 -0.003595 0.002524 0.002896 0.003963 -0.002856 -0.003243 -0.001177 -0.001719 0.002965 0.001158 0.002633 -0.000429 -0.003909 -0.003949 -0.001056 -0.002889 0.003139 0.000940 0.001953 -0.000102 -0.004314 -0.002836 -0.000318 -0.002970 -0.004741 0.002359 0.002337 -0.001650 0.003586 -0.000603 0.003979 0.001577 0.000994 -0.002805 0.000203 0.004017 -0.001667 0.003811 0.004008 -0.001844 0.002123 0.004004 -0.004146 0.003990 -0.003285 0.003754 0.001445 -0.001398 -0.003439 0.001586 0.003406
sent_12 0.003426 0.001390 0.004711 0.001045 -0.002936 -0.000590 -0.001579 0.004851 -0.001372 0.004997 0.000116 -0.003095 -0.004055 -0.001223 -0.003779 0.001163 -0.000895 0.004662 0.004304 -0.003572 -0.000852 -0.000755 0.000662 0.002790 -0.000087 -0.001029 -0.002645 0.003916 -0.004962 0.003417 -0.003018 0.002011 -0.001482 0.004607 -0.003588 -0.003200 0.003913 0.000927 -0.002100 -0.004889 -0.002664 -0.003732 -0.003249 0.003980 0.003791 0.002025 -0.000095 0.003388 0.000182 -0.001526 -0.002286 0.004380 -0.001217 -0.000213 -0.002387 0.003851 -0.001125 -0.002259 0.002234 -0.003145 -0.003623 0.003517 0.002324 0.001204 -0.002417 0.001121 0.001348 -0.001627 -0.004473 0.003662 -0.000700 0.002683 -0.002403 0.000851 -0.000626 -0.001224 -0.003718 -0.002594 -0.004049 -0.001650 0.002437 0.001390 0.001967 -0.004971 0.001879 0.000443 -0.002611 -0.003351 -0.003300 0.003723 0.004782 0.004286 -0.001450 0.002707 0.000791 0.002930 0.000022 0.001088 0.003124 -0.004032
sent_13 0.000481 -0.001454 0.001017 0.004440 -0.000963 -0.001117 0.002889 0.001429 -0.000937 0.001911 -0.000881 -0.003493 -0.000556 -0.001694 -0.002650 0.004188 0.001912 0.000803 0.002438 0.000512 0.001964 0.004361 0.003519 -0.003513 -0.002336 -0.004208 0.004631 -0.002596 0.001519 -0.004064 -0.002780 -0.000011 -0.004054 -0.001131 0.000288 -0.001564 0.000394 0.000482 -0.001029 0.002010 0.001782 0.001926 0.000552 -0.001523 0.001017 0.004436 0.000898 0.004730 -0.000552 0.002235 -0.004468 0.002560 0.000200 -0.004993 -0.002170 0.000244 0.002820 -0.004389 0.000634 0.003189 0.001533 0.004161 -0.004149 -0.002265 0.004325 0.002712 0.001118 0.003488 0.004006 0.004641 0.004922 -0.003679 -0.004299 -0.004193 -0.005016 0.004648 -0.004006 0.003505 0.001947 -0.000116 -0.001631 -0.001532 -0.002420 0.004098 0.002185 -0.004826 -0.000352 -0.002254 -0.004712 0.003730 0.002534 -0.001717 0.002913 -0.001922 -0.001914 0.004304 0.004833 0.000138 0.004475 0.003863
sent_14 0.000156 -0.001341 0.002033 -0.000548 0.001051 0.004860 0.002724 -0.001642 -0.004026 -0.003162 0.000317 -0.000834 0.002916 0.004300 -0.003161 0.003636 0.004589 0.004616 -0.004624 -0.004390 -0.005028 -0.001722 -0.004511 -0.002108 -0.001445 0.004643 -0.000199 -0.002129 0.000056 0.001394 -0.003895 0.002512 0.003502 0.003491 0.003818 -0.001143 -0.000613 -0.003986 -0.002664 0.004686 -0.002185 0.004142 0.003972 0.004199 -0.003491 0.003831 0.001228 -0.002967 -0.001625 -0.003407 -0.000500 -0.004250 -0.003304 -0.002998 0.001923 0.000700 0.003785 -0.002452 0.001317 -0.004598 0.000095 0.003539 0.004909 -0.005032 -0.002486 -0.002709 -0.004463 -0.004887 -0.000020 -0.004533 -0.002128 0.001367 -0.002080 -0.002255 0.000834 -0.001212 0.002023 0.000000 0.001309 -0.001563 -0.002176 -0.003764 0.004299 0.003070 0.004322 -0.003307 0.004307 0.004359 -0.002116 -0.002383 0.000462 -0.003191 -0.000627 -0.003166 0.004351 0.000028 0.004620 0.001366 -0.000251 0.004672
sent_15 -0.003100 0.001357 0.001820 -0.000506 -0.004109 0.000078 -0.000248 0.002913 -0.002641 -0.000979 -0.002635 0.002259 0.005172 -0.003081 0.003428 -0.003055 -0.004424 -0.004134 0.004328 0.003865 -0.001828 0.003872 0.003514 -0.000839 -0.000242 0.000947 -0.003973 -0.005131 -0.002757 -0.004471 0.002027 0.000698 -0.001934 0.002572 -0.003375 -0.002581 -0.002207 -0.002818 -0.004410 0.003886 -0.004054 0.001522 -0.004315 -0.004965 0.000615 0.004207 0.003862 -0.001452 -0.004353 0.002631 0.003133 0.003804 0.001532 0.002835 0.004110 -0.000530 0.000749 -0.000276 0.002127 0.001816 0.000604 0.003457 -0.000066 0.003719 -0.001846 -0.003377 0.004697 0.002688 -0.002624 0.000530 0.004020 -0.004105 -0.004019 0.001158 -0.002747 0.002498 0.000735 0.001691 -0.003603 -0.003599 0.001184 -0.000587 -0.003712 -0.001351 0.001870 -0.002492 0.004096 0.004224 0.004400 0.002642 -0.001078 0.002657 -0.002057 -0.002170 0.001603 0.000580 0.004167 -0.002212 0.003047 0.004322
sent_16 -0.004776 -0.000490 0.001610 0.003308 -0.003092 0.003658 -0.001522 0.004028 -0.004538 -0.004222 0.004902 0.001261 -0.000911 -0.003498 0.001684 -0.004755 -0.001872 -0.001864 0.001123 0.001676 0.003292 0.004382 0.001485 0.000477 -0.001008 0.004845 -0.003627 0.004118 -0.001950 0.000492 0.001987 -0.002671 -0.003458 0.000072 0.002733 0.002023 -0.004062 0.004030 -0.000064 0.004515 0.000373 -0.004090 -0.002916 0.003524 0.002049 0.003999 -0.001922 0.000123 0.001517 0.000813 -0.002400 -0.000801 -0.002500 0.003514 0.004981 -0.004296 0.002323 -0.001462 0.001380 -0.002328 0.001435 -0.001535 -0.001842 0.004028 0.004568 0.001280 -0.002741 0.004525 0.002418 0.002564 -0.003001 0.003213 -0.002637 0.001371 0.001968 0.002276 -0.001092 0.002566 0.004042 0.000700 -0.004235 -0.003969 -0.003977 -0.003368 -0.003845 0.002551 -0.004705 -0.002698 0.003921 0.004399 0.000877 0.004715 -0.004788 0.004408 -0.001948 0.003105 0.003111 0.003465 -0.000487 0.004228
sent_17 -0.002470 0.004125 0.000767 0.004535 -0.004332 0.001747 0.000904 -0.000294 -0.001747 -0.001629 -0.002271 -0.002792 0.002722 0.000135 -0.003695 0.003025 0.000340 0.002324 -0.000049 -0.000791 0.004559 -0.004577 0.003884 0.004093 -0.001207 -0.002540 0.001258 -0.002997 0.003168 -0.002876 -0.002098 0.003855 0.003694 0.000437 0.003110 -0.000977 0.004267 -0.000358 -0.001863 -0.004507 0.004641 0.000077 0.002415 0.000749 0.002080 -0.004220 0.003902 0.004069 0.000384 0.004609 -0.002054 0.000659 -0.001077 0.001071 -0.002297 0.002857 -0.003933 -0.004370 -0.004419 -0.002887 -0.000463 0.004301 -0.003689 0.001257 0.000649 -0.001231 -0.002976 -0.002514 -0.004143 0.002065 0.001700 -0.000581 0.002282 -0.003663 0.004034 0.003643 0.001710 -0.000583 -0.000778 -0.000062 0.004030 0.003266 -0.000257 0.000424 0.003604 0.004009 0.001450 0.002259 -0.001375 0.004018 0.003296 0.000208 0.003986 0.002934 0.002971 -0.003641 0.000445 0.003354 0.002634 -0.000961
sent_18 0.004674 -0.002641 -0.001858 0.004317 0.003104 0.003841 -0.004871 -0.001183 -0.002423 -0.002047 0.002489 0.002174 -0.000599 -0.001394 0.000984 0.000458 0.000531 0.001233 -0.001062 0.002785 -0.002685 0.001894 0.004469 -0.005020 0.002199 -0.003674 0.000575 0.001457 -0.002472 0.003997 0.001184 -0.002863 0.002654 -0.003828 0.000329 -0.003932 0.000683 -0.002468 0.001664 0.002090 0.000150 0.001749 0.003291 0.002990 0.001087 -0.000414 -0.001125 0.003585 0.001842 -0.003115 0.000760 0.003890 -0.003393 0.003503 0.003169 -0.000094 -0.004534 -0.003286 0.004245 -0.004410 -0.001380 0.000994 -0.002902 0.004504 -0.003494 0.000518 0.001283 -0.002667 -0.000125 -0.000046 0.002903 0.001297 -0.000365 0.001774 -0.000618 0.000255 0.001566 -0.003067 0.002807 0.000830 0.004706 -0.002991 -0.000528 0.004011 0.000905 0.001875 -0.000909 0.001850 0.004563 -0.003257 0.003006 0.004558 -0.004913 -0.002899 -0.004112 0.002865 -0.004259 0.004752 -0.001312 0.004036
sent_19 -0.003048 -0.000837 0.003146 0.000444 -0.000144 -0.000107 0.000730 -0.000682 -0.002740 -0.003760 -0.003330 -0.004308 0.000286 0.003513 -0.001029 -0.004244 -0.000647 0.000837 -0.000787 0.003222 0.004167 0.004088 0.001666 -0.000623 0.001917 -0.004600 0.004706 -0.003020 0.003960 0.003092 0.003139 -0.002581 -0.002927 -0.000661 0.003232 -0.000395 0.004176 -0.001323 0.001504 0.004783 0.001463 -0.004444 -0.000373 -0.001985 -0.000025 -0.001959 -0.004067 0.001530 0.001662 0.003423 -0.003470 0.002667 0.003468 0.001510 -0.002897 -0.002680 -0.000546 0.000725 0.000039 0.000049 0.003298 0.003366 0.003403 0.003420 0.000792 0.004767 0.001409 0.001245 -0.001454 0.001634 -0.004281 -0.003772 -0.003720 0.001818 -0.003614 -0.001724 -0.004484 -0.002391 0.004696 -0.000025 -0.003717 0.000051 0.004349 0.003784 -0.001340 -0.002547 0.002615 -0.002691 -0.002392 -0.004560 0.003309 -0.000641 0.000533 0.002073 0.002671 -0.000279 -0.003125 0.002985 -0.004989 0.004457
sent_20 0.000854 0.003558 0.000946 -0.002893 -0.001888 0.000265 0.004403 -0.003156 0.000206 -0.001573 0.002844 0.003187 -0.000974 -0.002992 -0.004151 -0.003126 -0.002194 0.000912 0.003718 -0.003575 0.004373 0.002226 0.002216 0.004508 -0.000677 0.000480 0.001670 0.000405 -0.002153 -0.003844 -0.001967 0.002489 0.001402 0.003062 0.000045 -0.002823 0.001337 -0.001999 -0.004406 0.004084 -0.000731 -0.000742 0.002478 0.004326 -0.004569 -0.003245 -0.002061 -0.002566 -0.000121 0.003038 0.003743 0.000851 -0.002418 -0.002939 0.002615 -0.002827 0.000458 0.002801 -0.002416 -0.003129 -0.004932 -0.003849 0.003763 -0.004189 -0.002859 -0.004600 0.002066 -0.002639 -0.000700 -0.003746 -0.001080 -0.000849 -0.000355 -0.000496 -0.004273 0.002586 -0.003534 -0.000693 -0.002275 -0.002244 0.001641 0.000021 -0.003221 -0.000166 -0.001865 0.001761 -0.002823 0.003480 0.000380 -0.000488 -0.002708 -0.003149 -0.000548 0.004728 -0.003957 -0.001901 0.002897 0.001567 -0.002579 -0.001758
sent_21 -0.000800 0.001546 0.002102 0.003535 0.001973 -0.002741 0.004435 0.002518 -0.002261 -0.001740 0.003855 -0.003641 0.001495 -0.001943 0.002899 -0.001477 0.002228 -0.003132 -0.000285 0.002822 -0.001044 -0.003748 0.001391 0.002804 -0.002149 -0.000798 0.003938 0.003804 0.001998 0.001035 0.003040 0.004089 -0.004926 -0.000944 0.000984 0.001831 -0.003707 -0.001159 -0.002272 -0.000515 -0.000070 0.001398 -0.000218 0.001061 0.000786 -0.000710 -0.004773 -0.002795 -0.001589 -0.003609 0.000698 0.001415 0.000095 -0.001885 0.001597 -0.003306 -0.005061 0.002256 -0.000473 0.001783 -0.003057 -0.004268 -0.001363 0.002134 -0.004128 -0.003295 -0.000479 0.000946 0.002651 -0.004460 0.001146 -0.000864 0.001676 -0.002744 0.000469 -0.003085 -0.004745 0.000120 -0.003221 0.001753 0.000468 0.003265 -0.000950 0.004919 0.000121 0.000189 0.002581 0.000792 -0.001691 0.000223 -0.002916 -0.000896 -0.004463 -0.000531 -0.002085 0.000098 -0.004779 0.000788 -0.001917 0.000791
sent_22 0.002477 -0.000094 0.001753 -0.002384 0.005128 -0.002516 0.004653 -0.003113 -0.000365 0.003401 0.002084 0.002233 -0.000256 0.002820 0.003917 -0.000743 0.000222 -0.004570 -0.001183 -0.000547 0.004192 -0.004640 0.002298 0.000648 0.001081 -0.005143 -0.003792 -0.002362 -0.005089 0.001886 0.003644 0.000704 0.000422 0.001055 -0.001523 -0.001643 0.000998 0.003172 -0.003209 -0.001535 0.002535 -0.001871 -0.004864 -0.003540 -0.002985 -0.000031 0.001737 0.004158 0.004405 -0.002064 0.002255 -0.001889 -0.001411 -0.002303 -0.000886 -0.002935 -0.001854 -0.004184 0.004654 -0.000090 0.004638 0.002778 -0.000671 0.003011 0.001455 -0.002223 0.000079 0.002043 -0.002056 -0.005328 -0.002723 0.003164 0.004393 0.001238 -0.003416 0.002717 0.000368 0.002712 0.003712 0.005059 0.001610 0.004137 0.002827 0.002180 0.003722 0.004926 0.004217 -0.001116 -0.004568 0.003909 0.000561 0.000618 0.003626 -0.004885 0.004333 -0.005034 0.002086 0.001200 0.001854 -0.001303
sent_23 -0.002596 0.000076 0.003484 0.000525 0.001674 -0.001022 0.004952 0.002343 -0.001027 0.001562 0.000568 0.003543 -0.002465 -0.003857 -0.002982 -0.000746 0.003484 -0.002020 0.001135 0.001314 -0.001226 -0.004230 0.002249 -0.001908 -0.001199 -0.000924 0.002065 -0.003919 0.000852 -0.005349 0.004580 0.000730 -0.001326 -0.003337 0.001599 0.004378 -0.002187 0.002703 -0.001982 0.004568 0.001738 0.001675 0.004580 -0.002653 0.004238 0.001914 0.002486 0.000538 0.003049 0.002243 -0.003594 0.000926 -0.002198 0.004076 -0.003339 -0.002313 -0.004450 -0.000319 0.000427 0.001057 0.004355 -0.001649 -0.000456 0.003243 0.000758 0.001711 -0.002297 -0.000154 0.001594 -0.003573 -0.004294 -0.003847 -0.000248 -0.004643 0.001145 -0.003757 -0.002496 -0.000318 -0.004017 -0.002373 -0.004917 0.004551 0.000877 -0.001268 -0.004803 -0.001629 -0.000458 0.004329 -0.002075 0.001069 0.001843 -0.003435 0.000315 0.002671 -0.004305 0.001206 -0.004875 -0.005427 -0.004529 -0.000230
sent_24 0.004665 -0.000819 -0.003873 0.003830 0.000254 -0.001485 0.004545 0.004390 -0.002762 -0.002911 0.000765 0.003742 -0.001331 0.000845 -0.003497 -0.003461 0.002535 -0.003850 -0.002254 0.001797 -0.004551 -0.005210 -0.001947 -0.001678 -0.001293 0.002713 -0.005097 -0.001650 0.001076 -0.003131 0.003785 0.001727 -0.003842 -0.003096 0.002776 -0.001239 0.000032 0.003892 -0.003869 0.004765 -0.004504 -0.004378 -0.003153 0.003274 -0.000292 0.001487 -0.002968 -0.003145 0.000607 0.002166 -0.000338 0.003992 0.001542 -0.002590 -0.002414 -0.001101 0.002561 0.004140 0.003722 -0.002628 -0.000833 0.001272 0.000337 -0.000681 -0.003830 0.001962 -0.004130 0.003736 0.003227 0.001905 -0.000675 0.002048 -0.001000 0.002858 0.003056 -0.003603 -0.001834 -0.001801 -0.001176 0.001001 -0.004489 0.001996 -0.002671 -0.000924 -0.000348 -0.000898 -0.001117 -0.003312 -0.004549 0.000788 0.000888 -0.003251 -0.002769 -0.002125 0.003781 -0.003786 0.000715 0.001075 -0.001204 -0.001565
sent_25 0.004699 0.000604 0.001575 -0.000067 0.001578 0.001023 -0.003473 -0.001740 -0.000450 -0.003624 -0.001388 -0.002614 0.003545 -0.001496 -0.002726 -0.001011 0.001807 -0.004491 -0.003223 0.001888 0.002625 0.000965 0.003786 -0.003298 0.002060 0.004037 -0.003617 -0.002651 0.000375 -0.001446 0.001961 -0.004383 -0.003426 0.002092 0.004785 0.004244 0.004026 -0.003638 -0.003616 -0.004217 0.000468 0.003720 0.000138 0.002756 -0.003123 0.003658 -0.003026 -0.004365 -0.000643 0.000477 0.004672 -0.004020 -0.002282 -0.004043 -0.001098 -0.002146 0.000153 -0.001616 0.004334 0.002924 0.003770 -0.003636 0.000687 -0.002704 0.003772 -0.004918 -0.003956 -0.001176 -0.001005 -0.002355 -0.004197 -0.003759 -0.001758 0.004518 -0.002903 0.002474 -0.002400 -0.004580 -0.004748 -0.003250 -0.000380 0.002746 0.002418 -0.001491 -0.000171 0.003362 0.003448 -0.001867 -0.005090 -0.004364 0.002370 -0.002220 -0.000090 -0.003183 0.003655 -0.000118 0.000351 -0.002062 0.000255 -0.005014
sent_26 -0.001991 -0.001295 -0.002220 -0.004314 0.000675 0.002673 0.004677 -0.000414 0.000845 -0.001838 -0.003386 -0.003408 0.002347 0.002682 -0.003105 -0.001065 0.001027 -0.004096 0.002670 0.001112 0.001220 0.001532 0.004692 0.000554 0.003718 -0.001125 0.001228 0.004241 0.001395 -0.001733 0.001341 -0.001534 -0.001878 0.001067 -0.003236 -0.000394 0.004617 -0.000960 -0.003055 -0.000202 0.003577 0.003164 0.002977 -0.005218 -0.002547 0.005157 -0.003638 0.000244 0.003231 -0.004037 0.001620 -0.000084 -0.003014 0.003672 -0.003226 0.001131 0.002441 0.000529 0.001571 -0.003716 -0.001587 0.000920 -0.001097 0.001817 0.003691 -0.003284 0.004108 -0.001116 0.004517 0.000586 0.002622 0.000356 0.000493 -0.001497 -0.003791 -0.001148 -0.002674 -0.004275 -0.002097 -0.002747 0.003663 -0.003683 -0.002892 0.002130 0.004210 -0.002138 -0.004574 0.004444 0.001405 -0.001686 -0.000220 0.001047 -0.001019 0.003292 0.002611 0.004339 -0.001410 0.004471 -0.000053 0.001372
sent_27 0.002595 0.003137 -0.001385 -0.001158 0.003661 0.001839 0.004474 0.004468 -0.002989 -0.002403 0.002330 0.002979 0.000940 0.004014 -0.002091 -0.001821 -0.000073 -0.002571 0.000300 0.001955 -0.002870 -0.000085 0.004412 -0.002264 -0.004383 0.003220 -0.000552 -0.004349 0.003509 -0.000705 0.004567 -0.001175 -0.004522 -0.002619 -0.001507 0.002319 -0.003308 -0.000283 0.003971 0.000651 -0.003761 -0.004744 0.001597 0.004057 0.002319 0.002966 0.001663 0.003033 -0.004449 -0.003046 0.002082 0.003533 0.001951 -0.003431 0.004528 0.003317 -0.003743 -0.003030 -0.001641 0.003084 0.003839 0.000424 -0.002842 -0.000787 -0.003263 0.004244 0.003206 0.000555 -0.000019 -0.004717 -0.001895 -0.004030 0.002721 0.000881 -0.003256 -0.002835 -0.002119 -0.001310 -0.000748 -0.001617 0.001545 -0.004466 -0.001430 0.002551 0.004081 0.003083 -0.002339 -0.002801 -0.003268 0.003725 -0.003161 0.002694 -0.002234 -0.005418 0.002446 0.002286 -0.003850 -0.001936 0.004347 -0.003265
sent_28 -0.004300 0.001042 0.004089 -0.003777 0.000186 0.001621 -0.003190 -0.005019 0.004025 -0.004572 -0.002396 0.001432 -0.002190 -0.004781 0.000771 -0.001752 -0.003530 0.004761 -0.003435 0.002292 0.003849 0.003647 -0.003286 -0.002579 -0.004827 0.004358 0.003957 0.001012 -0.003819 -0.003443 0.000666 -0.002596 -0.002024 -0.003207 -0.003176 -0.000316 0.000032 0.000154 0.005016 -0.003672 0.002546 0.003100 0.000880 -0.000681 0.003882 0.003321 -0.004515 0.004660 -0.004999 0.000757 0.000600 0.003288 -0.001129 -0.004144 0.000682 -0.004934 -0.001350 0.004834 0.003681 -0.003293 0.003165 0.003094 0.004273 -0.002808 0.000043 0.003323 0.001689 0.000939 0.001727 -0.002702 -0.004573 0.002354 -0.001745 -0.001129 0.001064 0.001747 -0.002885 0.003546 -0.001208 0.001402 0.004655 0.000617 -0.001425 0.001176 -0.000035 -0.000565 0.002377 0.004271 -0.000190 -0.004068 0.000746 -0.002595 -0.004372 0.002716 -0.002328 0.002775 -0.000117 -0.001997 -0.001897 -0.004580
sent_29 0.000487 0.003372 -0.003999 -0.003807 0.000301 0.001788 0.001866 -0.001859 -0.004907 -0.000807 -0.002852 -0.004870 0.002051 0.004546 -0.001238 -0.002215 0.000483 0.003359 0.003022 0.001767 -0.000499 0.001663 -0.002691 -0.002138 0.002874 0.004057 -0.003311 -0.002180 -0.005117 -0.000430 -0.002799 0.001549 0.002164 -0.003909 -0.003917 0.003803 -0.000836 0.000275 0.004502 0.002675 -0.001652 -0.004395 0.000142 -0.001519 -0.004730 0.002634 -0.000971 0.000867 0.002746 0.004275 0.001060 -0.001613 -0.003876 -0.004264 -0.001659 0.001658 0.001857 -0.003070 -0.004103 -0.002130 0.000384 0.002653 0.000176 -0.001891 0.001201 -0.002470 0.001547 0.003407 0.001208 0.000533 -0.002140 0.003797 0.004872 0.002724 0.000866 -0.003654 -0.001860 -0.001494 -0.002011 -0.000370 0.001229 -0.002609 -0.002366 -0.003867 -0.001861 0.000352 -0.000080 0.004971 0.004698 -0.000470 0.004701 -0.002660 0.000368 -0.000395 0.004885 0.003223 -0.002806 -0.000324 -0.003181 0.000333
sent_30 0.003151 -0.004312 -0.003069 0.004938 0.004836 0.000567 0.001699 -0.002570 0.004414 0.001874 0.001575 -0.004667 0.003799 0.003097 0.001830 0.002320 -0.003443 0.001981 -0.004104 0.001944 -0.004830 0.002097 -0.000290 -0.002976 0.002321 -0.002159 0.003558 -0.003338 0.004225 0.004790 -0.001933 0.003789 0.003321 -0.000921 -0.001134 -0.002200 0.004888 -0.002251 0.004045 -0.000513 0.004443 0.003179 -0.003771 0.000349 0.001796 -0.000831 -0.004747 -0.001444 0.003648 -0.004514 -0.004198 0.002164 -0.000018 -0.000215 -0.001374 0.000875 0.003627 -0.002636 0.003499 -0.000764 0.000619 0.002624 -0.002561 0.004678 0.002366 0.001010 -0.002347 0.002007 -0.002473 0.002833 -0.005217 -0.003233 0.000703 0.002150 0.000015 0.003897 0.004888 -0.000071 0.002831 0.000526 0.001579 -0.002376 -0.003474 0.004675 0.003191 -0.001575 0.001008 -0.001385 -0.003463 -0.000334 -0.001930 -0.004732 -0.000705 0.003882 0.003781 0.000421 -0.001548 -0.002569 0.004954 0.000570
sent_31 -0.002421 -0.002025 0.005054 -0.001958 -0.003906 -0.002681 0.002746 0.001989 -0.001316 0.003028 -0.000137 -0.000625 -0.003125 0.004039 -0.002547 0.000745 0.004687 -0.003465 0.004746 0.001277 -0.003175 0.001626 0.004840 0.000830 0.001927 -0.005441 0.004379 -0.002319 -0.005122 0.003556 0.004823 0.002873 -0.004951 -0.004638 0.001458 -0.001949 0.004103 0.003711 0.004269 0.002397 0.003828 -0.002365 -0.004510 0.003851 -0.001535 -0.000864 0.002074 0.001460 -0.000272 -0.001357 -0.004073 0.000886 -0.002928 0.002289 0.001908 -0.004091 0.004794 0.002079 -0.002790 -0.005167 0.000206 -0.000881 0.000016 0.002484 0.003181 -0.005225 0.001880 -0.002068 0.004303 0.003219 -0.000124 0.001182 -0.002985 -0.003023 -0.002958 -0.001237 -0.003903 -0.000114 0.001610 -0.002985 -0.001346 -0.003626 0.000827 0.001334 0.001532 0.004325 -0.002501 0.001020 -0.002293 -0.003268 -0.001762 -0.003821 0.004803 0.002278 -0.003104 0.002246 -0.001082 0.004790 0.000716 0.003669
sent_32 -0.002452 -0.001344 -0.001368 -0.004141 -0.001290 0.001509 -0.000225 0.003568 -0.002212 -0.001272 -0.001770 0.000881 -0.003041 -0.003062 0.004683 -0.001451 0.000904 -0.004898 -0.003682 -0.004001 0.003203 -0.004341 -0.000080 -0.003748 -0.002097 0.003667 0.000886 0.004553 0.000698 -0.004704 -0.000585 -0.004769 -0.002064 -0.000399 0.000781 -0.002570 0.000372 -0.000730 0.000054 -0.002839 -0.003332 0.002377 -0.002099 0.001047 0.000498 0.004163 0.003844 -0.000433 -0.002692 0.000963 0.001423 0.001917 0.004022 0.002631 0.001250 0.000758 -0.002635 0.001370 0.003433 0.004517 0.004609 0.000616 -0.002392 -0.001374 0.005349 0.000210 0.003274 0.001283 0.000120 -0.001835 0.000044 -0.004922 0.003889 0.000750 -0.004937 0.003102 -0.003509 -0.004432 -0.000094 0.005063 -0.004241 -0.004157 0.004142 0.003171 0.003136 0.000003 -0.000599 -0.001246 0.000662 0.002436 0.002645 0.001596 0.000800 -0.001324 -0.001444 -0.002338 -0.001788 0.001791 0.002796 0.000923
sent_33 -0.002461 -0.002726 0.002913 0.005183 -0.004735 -0.002268 0.003091 0.002012 -0.002949 0.000627 0.000710 0.002435 0.000084 -0.000726 -0.001998 -0.002861 -0.004121 0.001177 0.001689 0.001717 -0.004623 -0.001414 -0.003691 0.000354 0.004809 -0.000481 -0.001641 0.002819 0.004408 -0.001844 0.003092 0.005283 -0.003916 0.000141 0.003493 -0.001354 -0.000481 0.002577 -0.004427 -0.001230 0.000707 -0.002959 0.002961 0.002639 0.004881 0.000279 -0.003539 0.004660 0.003688 0.000262 0.003169 0.004072 0.002525 0.000485 0.001222 0.003470 0.001247 -0.003484 0.001902 0.000087 -0.001906 -0.004561 -0.002912 0.002333 0.004040 0.003029 -0.004091 -0.004272 0.002308 -0.002411 -0.002774 -0.004821 -0.003888 -0.003780 -0.003153 -0.000529 0.003183 0.003132 0.004297 0.000054 0.002145 0.000342 -0.004045 -0.004296 -0.002297 0.005622 0.002068 -0.002498 0.001812 0.002214 -0.004460 -0.001107 0.002975 -0.004365 0.004479 0.003862 0.003895 -0.003421 0.001192 0.002002
