41 100
sent_0 -0.000871 0.002540 -0.005123 -0.001675 -0.003369 -0.004263 -0.002769 -0.001804 -0.001034 0.000547 -0.000893 0.001776 -0.002722 0.004123 -0.004792 0.001837 -0.000930 0.000621 -0.003716 -0.003169 0.003077 0.004108 -0.001979 0.002171 0.003644 0.003721 -0.004075 -0.004750 -0.003219 0.003606 -0.004198 -0.000731 0.004438 0.000250 0.001994 -0.001673 0.001675 0.003477 -0.005056 0.002681 0.004743 0.002458 -0.002405 0.002533 -0.003743 -0.000400 0.004268 -0.001885 -0.002024 -0.003581 -0.005180 0.001924 -0.003087 -0.002629 -0.000395 -0.004578 0.000781 -0.003902 0.000721 0.002067 -0.003208 -0.000484 0.001693 -0.000468 -0.004291 0.000241 0.001352 0.000123 0.004542 0.000744 0.003898 -0.003414 -0.003483 0.003053 -0.000820 -0.003066 0.004304 -0.001174 0.002538 0.002854 0.003791 0.001472 0.002756 -0.001670 -0.002166 0.004351 -0.000601 0.004492 0.001505 0.001803 -0.003517 0.004476 0.000044 0.000517 -0.000536 -0.002953 0.004200 0.000677 -0.004557 0.001074
sent_1 -0.001873 0.000009 0.003521 -0.001829 0.004148 0.000947 -0.004798 0.004310 0.002294 0.004983 -0.003083 -0.003702 0.003959 0.001900 -0.004070 0.002736 0.002577 0.004305 0.002080 -0.003643 -0.005129 -0.004190 -0.004969 -0.002654 0.003544 0.000785 0.000714 0.003731 -0.003623 -0.002423 0.000813 0.004387 0.000504 -0.004624 0.002620 -0.002459 0.002824 -0.001087 0.003910 0.002369 0.000399 -0.003350 -0.004180 -0.003951 -0.004755 -0.003769 -0.003085 0.001844 0.000298 -0.004856 -0.004089 0.004321 0.000852 -0.002919 -0.002520 0.002263 -0.002851 0.001214 0.004757 0.003748 -0.002746 -0.000407 0.001417 0.002776 -0.003489 -0.004609 -0.004107 -0.000057 0.001438 0.000729 -0.001457 0.004810 0.000736 -0.001011 0.000235 0.002434 0.001658 -0.002121 -0.004432 -0.001589 0.001109 -0.003248 0.002226 -0.004244 -0.002584 0.002415 -0.003130 0.001375 0.000401 0.003823 -0.002516 -0.004566 0.002258 0.002588 0.003615 0.004624 -0.004941 -0.003059 0.000835 0.004446
sent_2 0.004767 0.001154 0.004102 0.001346 -0.000684 -0.000305 0.001465 0.000021 0.003820 0.004720 -0.001215 0.004993 -0.002953 -0.003176 -0.003795 -0.000266 -0.004887 0.003902 0.003228 -0.005256 -0.002827 -0.002458 -0.003777 0.003318 -0.001369 0.003741 0.000350 0.003479 0.003018 0.004564 -0.000305 0.000572 0.003005 -0.002311 0.000450 0.000483 -0.004302 0.001142 -0.000952 0.003287 -0.001524 0.003352 -0.000013 -0.003543 0.002720 0.001254 -0.003980 -0.000287 0.002234 0.003823 -0.005404 0.005050 -0.001098 0.004426 0.001082 0.002925 0.000746 0.000800 -0.001908 0.000865 0.002910 0.003968 0.002158 0.002445 0.003770 -0.002177 0.001846 -0.000398 -0.001043 -0.001694 -0.001342 -0.001606 0.001373 -0.000566 0.004877 0.001857 -0.002959 -0.000400 -0.001295 0.003951 0.003887 0.005069 0.002098 -0.002137 -0.002385 0.004556 0.000591 0.002886 0.000088 0.003112 0.000175 0.003020 0.001216 -0.000745 -0.000995 -0.004838 -0.000875 -0.003826 0.005278 -0.003219
sent_3 0.002863 0.003895 0.001551 0.000808 -0.003323 -0.000684 -0.001227 -0.002894 0.001120 -0.001842 0.004268 0.003801 -0.002472 -0.003704 -0.003086 0.000309 0.002153 -0.002559 -0.002643 0.003474 -0.001117 0.001137 -0.002829 -0.003656 -0.000078 -0.000111 -0.003039 0.001412 0.000751 0.001086 -0.003878 0.002326 -0.002935 0.000386 0.002581 -0.004493 -0.002096 0.003625 0.003358 0.000500 0.003187 0.004773 0.003425 0.003255 -0.003783 0.001662 0.001891 0.000977 0.002768 -0.004319 0.002469 0.002283 -0.002511 -0.002584 0.001024 -0.001653 0.003011 -0.000499 0.002569 0.004934 -0.001504 -0.003466 0.003945 0.000348 0.004678 0.001387 0.004668 0.000277 0.000579 -0.003591 -0.001183 -0.004493 -0.003377 0.002568 -0.004586 -0.001001 0.003548 0.002320 0.001685 -0.002940 -0.000664 0.000649 0.004720 -0.003072 -0.002486 -0.002603 0.002453 -0.000493 -0.004308 0.000248 -0.002483 0.002796 -0.001698 -0.004884 0.000806 0.003406 -0.001239 0.002170 0.000219 0.000286
sent_4 0.005235 0.003723 -0.004220 0.002514 -0.000014 0.004897 -0.002662 -0.002686 -0.005126 -0.000313 -0.004314 0.001987 0.003841 0.002471 0.002372 -0.002307 0.003337 -0.001635 0.003282 0.000870 -0.002705 -0.005579 -0.004581 -0.004293 -0.000052 -0.004944 -0.005730 0.001797 -0.001859 0.003449 -0.000120 0.000042 -0.000133 -0.000798 0.004057 -0.001693 0.004737 -0.004381 0.002106 -0.003334 0.001754 -0.005865 -0.000803 -0.005014 0.004561 0.004021 0.003833 0.004899 -0.002682 -0.004109 -0.003566 0.001911 0.003936 0.004524 0.002418 0.002160 0.004000 -0.001986 -0.002163 -0.003558 -0.003341 0.003792 -0.004113 -0.001161 0.003504 -0.002456 0.004850 -0.002118 -0.000103 -0.002628 0.003134 -0.001173 -0.000518 -0.000002 0.004751 -0.004825 0.002306 0.003769 -0.004144 0.001509 -0.001485 0.004858 0.001529 0.001915 -0.000203 0.003103 -0.001750 -0.005093 0.000086 -0.000749 0.000043 0.004879 -0.000369 -0.002783 -0.000090 0.003486 0.004951 0.004404 0.005004 -0.002631
sent_5 -0.004043 -0.002979 -0.002112 -0.003875 0.001251 -0.001152 0.003117 -0.003234 0.002388 -0.002476 0.001003 -0.001279 -0.004830 -0.002764 0.001960 -0.000033 0.000234 -0.003444 0.000619 0.005096 0.002912 0.001452 0.004358 0.003717 0.001028 -0.004333 -0.004202 -0.003999 -0.000544 -0.001206 0.004857 -0.003611 0.004620 0.002838 0.002932 0.001348 0.001487 -0.000087 -0.004520 -0.001512 -0.000080 0.002515 -0.000259 -0.000712 -0.004001 -0.004709 0.002265 -0.002008 0.004741 -0.003021 -0.001317 -0.000128 0.002773 -0.000315 -0.003617 -0.002169 0.000354 0.002146 0.002987 -0.003302 -0.004941 -0.000276 0.003428 -0.005341 0.001850 0.002051 -0.000122 0.004333 0.001786 -0.005169 0.000029 0.003451 0.003253 0.001823 0.001328 0.000686 -0.002161 0.000905 0.001796 -0.001674 0.003340 -0.003224 0.002340 -0.002013 0.002435 -0.001208 0.003068 -0.001528 -0.002854 0.002181 -0.002297 0.002242 0.002312 -0.003083 -0.003207 -0.002785 -0.003561 -0.001564 -0.005061 -0.003968
sent_6 0.001653 0.002902 -0.004420 -0.002782 -0.002667 0.003797 0.002377 0.000414 -0.001660 0.003488 -0.000578 0.004124 0.001930 -0.000088 -0.003521 0.004885 -0.003424 -0.003022 -0.000783 -0.000941 -0.003596 0.002276 -0.003163 0.001507 0.002456 -0.002856 0.001173 0.002472 0.001474 0.000769 -0.002040 0.002127 0.004290 -0.000746 0.002580 -0.004202 0.003112 -0.002909 -0.001032 -0.001996 -0.004327 0.004161 -0.001361 0.000043 -0.000124 -0.003570 -0.003000 -0.004292 0.000041 -0.002307 -0.001417 -0.004033 0.002906 -0.004109 0.004586 -0.003355 0.000774 -0.004439 0.002865 -0.002831 0.000605 0.002350 -0.003542 0.000418 -0.002787 0.002647 0.002162 -0.003075 0.003871 -0.004819 0.003696 0.000694 -0.000838 0.002646 0.002061 0.004980 -0.002260 -0.004680 0.004340 0.003758 0.002190 0.000134 0.001983 0.002824 -0.001208 0.002537 0.002580 0.001024 -0.001036 0.002048 -0.004887 0.002528 0.004194 -0.002853 -0.003811 -0.002858 -0.002007 0.003502 0.000438 -0.002208
sent_7 -0.003479 -0.001863 0.001276 -0.001750 -0.000339 -0.000468 0.003328 -0.000869 -0.001794 0.001863 -0.002823 -0.000145 -0.001699 0.001367 0.003616 -0.000715 0.002863 -0.000681 0.001538 -0.003792 -0.000479 0.003746 0.001101 0.002690 0.000136 -0.000294 0.003169 -0.004452 0.000561 0.004685 0.000249 -0.002910 0.003533 -0.002555 0.002342 0.000074 0.004801 0.001296 0.003328 -0.004868 0.005106 -0.004464 -0.001997 0.004502 -0.005002 0.003189 0.003855 -0.000366 -0.002165 0.002836 -0.000271 -0.003503 0.004320 0.003896 0.000011 0.003525 -0.000876 0.001676 -0.000891 -0.000026 -0.003119 0.004729 -0.002157 -0.003770 -0.003500 -0.005016 0.002204 0.000638 0.002836 -0.000262 0.002654 0.002011 0.002821 -0.000936 0.001558 -0.003228 -0.001705 -0.003271 -0.000797 -0.002357 -0.000862 0.005160 -0.001573 0.004857 0.001412 -0.000853 0.003708 0.001200 -0.002783 0.003165 -0.000707 -0.001273 -0.001618 0.001899 -0.002024 0.002917 -0.001998 0.000716 0.000027 0.003577
sent_8 0.003473 -0.003593 0.000343 0.003358 -0.000464 0.003646 -0.002201 0.001126 0.002560 -0.002746 -0.004552 -0.001112 0.003785 -0.001738 0.003173 -0.002847 -0.001542 -0.003344 0.002057 0.002289 0.001419 -0.001536 0.001688 -0.002865 -0.000849 -0.000663 -0.001011 -0.004006 0.001655 0.001542 0.001062 0.000976 -0.003430 -0.003179 -0.000530 0.004093 -0.003558 -0.000328 -0.000245 -0.000213 -0.003584 -0.000948 -0.001896 0.003108 0.002666 -0.000636 0.000566 -0.003943 -0.000356 -0.001878 0.003916 0.001222 0.001587 -0.003651 -0.000503 0.004622 0.004615 0.002123 -0.003420 0.001935 0.000429 -0.000914 -0.000363 0.000192 0.003387 0.002895 0.001019 0.004374 -0.003808 0.005075 -0.003804 -0.003174 -0.000845 -0.003666 0.000757 -0.004412 -0.002133 -0.003995 0.001851 0.001100 -0.001390 -0.003759 0.001926 -0.001486 0.002706 -0.001245 0.000204 -0.004610 0.001723 -0.002193 -0.002855 -0.001094 -0.001249 -0.000486 0.004059 -0.000885 0.002444 -0.000227 0.003283 -0.001460
sent_9 -0.002545 0.004110 -0.004565 0.004508 0.000564 -0.001236 0.004951 -0.004416 0.000167 -0.004689 0.000712 -0.003195 0.001310 0.004809 0.003749 -0.000482 0.002085 0.002775 -0.000052 0.000285 -0.003492 -0.001306 -0.003578 0.002269 -0.000230 -0.000511 0.003860 0.000276 -0.000909 -0.002311 -0.004280 -0.000819 -0.004742 -0.002088 0.000035 0.004659 -0.003906 0.001730 -0.000001 0.002771 -0.003564 -0.004168 -0.001008 0.002970 -0.003083 0.002678 -0.002097 -0.002831 -0.004833 -0.001013 -0.001189 0.001593 -0.004291 -0.003474 -0.004834 -0.003862 0.001518 -0.000973 -0.001790 0.000579 0.004935 0.003345 0.001996 0.004183 -0.004603 -0.004297 -0.000260 -0.001508 0.004373 -0.000104 0.000396 0.003953 -0.000534 0.003770 -0.002464 -0.002262 -0.001716 0.000476 -0.002799 0.001714 -0.003572 -0.004059 0.003702 -0.002631 -0.001140 0.000715 0.000258 -0.004240 0.003741 0.004511 0.003125 -0.002162 0.000278 -0.001606 0.000547 0.004744 -0.001883 0.001688 -0.001740 0.002745
sent_10 -0.002212 0.003892 0.001911 0.002160 -0.000112 -0.003586 -0.004325 -0.001910 -0.004315 0.002123 0.001935 -0.001034 0.002323 0.000501 -0.004498 -0.003371 -0.003223 -0.001501 -0.004597 0.001079 -0.000229 0.001781 -0.000778 0.003751 -0.000545 -0.004580 0.004217 0.001865 0.003470 0.004149 -0.004693 -0.003155 -0.004487 -0.000441 0.003256 -0.004188 -0.000306 -0.003859 0.002895 0.003460 -0.004897 0.000219 -0.002471 0.004182 0.004223 0.001290 0.004465 -0.001773 0.003613 -0.000504 -0.002681 0.004255 0.002153 -0.004427 0.003525 0.001616 0.001002 0.002781 -0.002430 0.001302 0.003076 -0.004800 -0.003673 0.002902 0.000769 0.000431 -0.002382 -0.002088 0.004423 -0.000940 -0.003712 0.004071 -0.003074 0.003593 0.003591 0.000122 0.000885 0.000762 0.001024 0.003481 -0.002195 0.003691 0.000166 -0.003634 -0.002852 0.000323 -0.002574 -0.003538 -0.003311 0.003238 0.001124 0.004397 -0.001413 0.000730 0.000423 0.001388 -0.004671 0.002005 0.004106 0.000407
sent_11 -0.003074 0.002529 -0.004927 -0.001717 0.004176 0.000884 0.003552 0.001047 0.003226 0.003795 -0.001790 -0.003770 0.002213 -0.000597 -0.003733 0.000898 -0.004639 -0.002998 0.002883 -0.004879 -0.001967 -0.004786 0.004975 0.000820 -0.002066 0.004289 0.000071 -0.000453 0.000879 -0.002359 -0.001947 -0.001283 -0.002556 0.000845 0.001958 -0.004281 0.004711 0.002531 0.003062 0.002516 -0.004199 -0.000183 -0.000543 0.001725 -0.000513 0.002043 0.001816 0.001971 0.001186 -0.003490 0.002608 0.002810 0.004041 -0.002662 -0.003233 -0.001089 -0.001794 0.003155 0.001135 0.002600 -0.000723 -0.004006 -0.003850 -0.001266 -0.003062 0.003207 0.000996 0.001888 -0.000089 -0.004118 -0.002649 -0.000384 -0.003014 -0.004745 0.002294 0.002249 -0.001696 0.003435 -0.000716 0.003647 0.001571 0.000810 -0.002993 0.000295 0.003944 -0.001950 0.003709 0.004087 -0.001702 0.001831 0.003992 -0.004243 0.003786 -0.003092 0.003498 0.001671 -0.001557 -0.003486 0.001354 0.003478
sent_12 0.003264 0.001476 0.004610 0.000989 -0.002984 -0.000650 -0.001615 0.004844 -0.001421 0.005000 0.000105 -0.003224 -0.004096 -0.001167 -0.003898 0.001244 -0.000902 0.004832 0.004305 -0.003607 -0.000918 -0.000608 0.000667 0.002885 -0.000059 -0.001016 -0.002485 0.004003 -0.004890 0.003361 -0.003105 0.001934 -0.001392 0.004679 -0.003556 -0.003316 0.004110 0.000803 -0.002021 -0.004902 -0.002635 -0.003730 -0.003146 0.003945 0.003760 0.001970 -0.000140 0.003440 0.000079 -0.001434 -0.002403 0.004422 -0.001135 -0.000103 -0.002411 0.003810 -0.001254 -0.002208 0.002209 -0.003206 -0.003767 0.003524 0.002309 0.001122 -0.002609 0.001104 0.001366 -0.001774 -0.004372 0.003659 -0.000505 0.002703 -0.002458 0.000918 -0.000605 -0.001152 -0.003711 -0.002573 -0.004157 -0.001748 0.002508 0.001403 0.001853 -0.004891 0.001826 0.000369 -0.002646 -0.003234 -0.003257 0.003661 0.004880 0.004280 -0.001440 0.002802 0.000638 0.003033 -0.000112 0.001100 0.002993 -0.003949
sent_13 0.000151 -0.001098 0.000802 0.004473 -0.000951 -0.001446 0.003163 0.001207 -0.000881 0.002070 -0.000919 -0.003801 -0.000618 -0.001386 -0.002929 0.004515 0.001898 0.001264 0.002336 0.000293 0.001849 0.004239 0.003375 -0.003112 -0.002441 -0.004279 0.005099 -0.002456 0.001842 -0.004365 -0.003109 -0.000121 -0.003953 -0.000999 0.000312 -0.001594 0.000614 0.000391 -0.000930 0.001952 0.001780 0.001962 0.000750 -0.001846 0.001078 0.004403 0.000885 0.004962 -0.000669 0.002665 -0.004891 0.002609 0.000233 -0.004928 -0.002538 0.000202 0.002612 -0.004434 0.000388 0.003158 0.001812 0.004428 -0.004266 -0.002317 0.004185 0.002604 0.000923 0.003138 0.004231 0.004580 0.005198 -0.003471 -0.004208 -0.004096 -0.004846 0.005007 -0.003979 0.003820 0.001691 -0.000015 -0.001574 -0.001299 -0.002502 0.004129 0.002172 -0.004834 -0.000334 -0.002160 -0.004828 0.003958 0.003007 -0.001884 0.003368 -0.001899 -0.001975 0.004272 0.004623 0.000011 0.004522 0.003827
sent_14 0.000714 -0.001129 0.002360 -0.000192 0.001325 0.005177 0.002812 -0.001857 -0.004429 -0.003091 0.000213 -0.000388 0.003409 0.004543 -0.003032 0.003209 0.004589 0.004089 -0.004663 -0.004453 -0.004640 -0.002639 -0.004511 -0.002282 -0.001351 0.004125 -0.000881 -0.002473 -0.000430 0.001854 -0.003630 0.002863 0.003369 0.003209 0.004162 -0.001235 -0.000701 -0.003795 -0.003073 0.004944 -0.002064 0.003705 0.003360 0.004095 -0.003333 0.003946 0.001607 -0.002650 -0.001145 -0.003832 -0.000548 -0.004013 -0.003600 -0.003265 0.002101 0.000655 0.003939 -0.003045 0.001491 -0.004743 0.000665 0.003911 0.004711 -0.004283 -0.002043 -0.002988 -0.004558 -0.004696 -0.000409 -0.004885 -0.002836 0.001498 -0.001914 -0.002334 0.000963 -0.001328 0.002147 0.000026 0.001679 -0.000823 -0.002208 -0.003320 0.004921 0.002948 0.004535 -0.002372 0.004476 0.004045 -0.002366 -0.001846 0.000401 -0.002841 -0.000478 -0.003488 0.005153 -0.000474 0.005120 0.001816 0.000331 0.004595
sent_15 -0.003227 0.002198 0.002136 0.000452 -0.004468 0.000528 -0.000124 0.002899 -0.003372 -0.000979 -0.003096 0.001938 0.005949 -0.002848 0.002604 -0.003040 -0.004719 -0.003769 0.004466 0.003468 -0.001477 0.002844 0.003909 -0.000137 -0.000393 0.000338 -0.003830 -0.005475 -0.002592 -0.004480 0.001614 0.001196 -0.001759 0.002501 -0.002704 -0.002872 -0.001716 -0.003194 -0.004992 0.004060 -0.004227 0.001162 -0.004493 -0.004745 0.001406 0.003982 0.004443 -0.001002 -0.004137 0.002985 0.002378 0.004536 0.001265 0.002720 0.003977 -0.000150 0.000361 -0.001028 0.001575 0.001094 0.001036 0.004295 -0.000666 0.004546 -0.001942 -0.003709 0.004123 0.002173 -0.003131 0.000593 0.003677 -0.003810 -0.004058 0.000760 -0.001859 0.002863 0.000628 0.001480 -0.003798 -0.003002 0.001572 -0.000019 -0.003389 -0.001631 0.002286 -0.001490 0.004114 0.004305 0.004256 0.003641 -0.000335 0.003008 -0.001572 -0.001790 0.002280 0.000089 0.004254 -0.001604 0.003831 0.004302
sent_16 -0.004441 0.000139 0.002006 0.003963 -0.003004 0.003959 -0.001221 0.003794 -0.005131 -0.003987 0.004581 0.001514 -0.000220 -0.003199 0.001297 -0.005078 -0.002053 -0.002289 0.001135 0.001333 0.003880 0.003113 0.001736 0.000798 -0.001007 0.004092 -0.004092 0.003522 -0.002222 0.000876 0.001984 -0.002161 -0.003476 -0.000253 0.003421 0.001747 -0.003814 0.004183 -0.000684 0.004783 0.000483 -0.004598 -0.003608 0.003596 0.002423 0.003975 -0.001198 0.000586 0.002132 0.000639 -0.002827 -0.000256 -0.002772 0.003085 0.004965 -0.004184 0.002257 -0.002266 0.001276 -0.002624 0.002126 -0.000881 -0.002366 0.004967 0.004903 0.000907 -0.003067 0.004559 0.001989 0.002200 -0.003786 0.003449 -0.002478 0.001076 0.002501 0.002385 -0.001088 0.002506 0.004319 0.001699 -0.004058 -0.003122 -0.003302 -0.003601 -0.003465 0.003831 -0.004448 -0.002876 0.003408 0.005516 0.001107 0.005103 -0.004286 0.004277 -0.000939 0.002360 0.003512 0.004041 0.000388 0.004121
sent_17 -0.001853 0.005087 0.001619 0.005179 -0.004329 0.002491 0.000971 -0.000524 -0.003124 -0.001308 -0.002702 -0.002163 0.003681 0.000394 -0.004549 0.002156 0.000179 0.001472 0.000073 -0.001353 0.005582 -0.006124 0.004486 0.004468 -0.000910 -0.003804 0.000280 -0.003849 0.002446 -0.001735 -0.001884 0.004683 0.004008 0.000001 0.004557 -0.002167 0.005461 -0.000372 -0.002621 -0.004188 0.005242 -0.001018 0.001357 0.001382 0.002254 -0.004487 0.005070 0.004879 0.001466 0.004047 -0.002478 0.001608 -0.001160 0.000743 -0.001782 0.003045 -0.004293 -0.005359 -0.004225 -0.003673 -0.000471 0.005005 -0.004361 0.002448 0.000720 -0.001947 -0.003084 -0.002609 -0.004925 0.001207 0.000507 -0.000328 0.002371 -0.003995 0.004752 0.003500 0.001745 -0.001124 -0.000327 0.001028 0.004529 0.004857 0.000654 0.000397 0.004040 0.006031 0.001814 0.002295 -0.002343 0.005330 0.003289 0.001072 0.004165 0.003075 0.004264 -0.004560 0.000831 0.004744 0.003562 -0.000883
sent_18 0.005445 -0.002223 -0.001318 0.004873 0.003289 0.004441 -0.004859 -0.001311 -0.003149 -0.001889 0.002137 0.002814 0.000193 -0.001188 0.000826 -0.000251 0.000399 0.000428 -0.000951 0.002584 -0.002012 0.000582 0.004671 -0.005123 0.002391 -0.004476 -0.000414 0.000847 -0.003114 0.004741 0.001570 -0.002246 0.002605 -0.004314 0.001070 -0.004315 0.000931 -0.002291 0.001026 0.002441 0.000374 0.000987 0.002345 0.003077 0.001377 -0.000454 -0.000479 0.004031 0.002585 -0.003661 0.000599 0.004463 -0.003619 0.003160 0.003506 -0.000005 -0.004443 -0.004069 0.004423 -0.004749 -0.000922 0.001517 -0.003316 0.005569 -0.003033 0.000136 0.001194 -0.002412 -0.000778 -0.000476 0.001878 0.001385 -0.000226 0.001531 -0.000217 0.000048 0.001629 -0.003334 0.003273 0.001838 0.004834 -0.002157 0.000276 0.003827 0.001197 0.003361 -0.000721 0.001542 0.004130 -0.002411 0.002842 0.005135 -0.004752 -0.003075 -0.002978 0.002080 -0.003639 0.005538 -0.000469 0.003929
sent_19 -0.003087 -0.000692 0.003366 0.000850 -0.000256 0.000003 0.000785 -0.000629 -0.002935 -0.003829 -0.003416 -0.004452 0.000502 0.003488 -0.001271 -0.004250 -0.000740 0.000964 -0.000780 0.003158 0.004350 0.003759 0.001981 -0.000357 0.001815 -0.004810 0.004827 -0.003228 0.004052 0.003029 0.003055 -0.002404 -0.002890 -0.000702 0.003361 -0.000417 0.004222 -0.001420 0.001236 0.004831 0.001361 -0.004494 -0.000382 -0.001750 0.000260 -0.002094 -0.003864 0.001619 0.001798 0.003642 -0.003590 0.002917 0.003292 0.001424 -0.002984 -0.002454 -0.000751 0.000527 -0.000165 -0.000214 0.003463 0.003602 0.003219 0.003704 0.000735 0.004680 0.001095 0.001123 -0.001712 0.001785 -0.004457 -0.003633 -0.003666 0.001621 -0.003347 -0.001597 -0.004563 -0.002564 0.004655 0.000106 -0.003557 0.000160 0.004387 0.003669 -0.001107 -0.002281 0.002618 -0.002653 -0.002445 -0.004242 0.003601 -0.000595 0.000615 0.002250 0.002915 -0.000508 -0.003164 0.003153 -0.004738 0.004435
sent_20 0.000944 0.004189 0.001501 -0.001803 -0.001959 0.000571 0.004850 -0.003148 -0.000451 -0.001283 0.002224 0.002978 -0.000114 -0.002820 -0.004770 -0.003368 -0.002575 0.000613 0.003930 -0.004070 0.005247 0.000722 0.003133 0.005333 -0.000866 -0.000481 0.001574 -0.000607 -0.002181 -0.003605 -0.002051 0.003093 0.001440 0.002670 0.000770 -0.002995 0.001787 -0.001938 -0.005335 0.004152 -0.000783 -0.001332 0.001722 0.004807 -0.003804 -0.003482 -0.001033 -0.002101 0.000524 0.003251 0.003199 0.001669 -0.002628 -0.003495 0.002302 -0.002264 0.000045 0.001963 -0.002919 -0.003643 -0.004271 -0.002964 0.002841 -0.003168 -0.002770 -0.004955 0.001400 -0.002583 -0.001380 -0.003686 -0.001892 -0.000494 -0.000099 -0.001253 -0.003333 0.002781 -0.003867 -0.001101 -0.002161 -0.001157 0.002099 0.001008 -0.002758 -0.000440 -0.001057 0.003151 -0.002540 0.003372 -0.000222 0.001033 -0.002124 -0.002866 0.000089 0.004971 -0.002813 -0.002869 0.003139 0.002133 -0.001436 -0.001933
sent_21 -0.000669 0.001239 0.002458 0.004142 0.001722 -0.002310 0.004337 0.002859 -0.002256 -0.002001 0.003588 -0.003820 0.001739 -0.002185 0.003107 -0.001456 0.002237 -0.003061 -0.000077 0.002918 -0.000789 -0.004036 0.001800 0.002742 -0.002321 -0.000822 0.003909 0.003424 0.002037 0.000977 0.003128 0.004356 -0.004986 -0.001124 0.000827 0.002369 -0.004073 -0.001087 -0.002582 -0.000745 -0.000155 0.001363 -0.000208 0.001413 0.001302 -0.000745 -0.004606 -0.002866 -0.001619 -0.003439 0.000819 0.001410 -0.000213 -0.001885 0.001472 -0.002794 -0.005050 0.001949 -0.000813 0.001602 -0.002844 -0.003946 -0.001523 0.002424 -0.003881 -0.003171 -0.000770 0.001122 0.002069 -0.003782 0.000897 -0.000975 0.001773 -0.003275 0.000691 -0.003251 -0.004910 -0.000307 -0.003177 0.001717 0.000488 0.002966 -0.000861 0.004732 0.000502 0.000297 0.002526 0.000615 -0.001442 0.000366 -0.002772 -0.000897 -0.004564 -0.000260 -0.001790 -0.000036 -0.004531 0.000846 -0.001573 0.000678
sent_22 0.002307 -0.000680 0.001575 -0.002708 0.004999 -0.002616 0.004376 -0.002812 0.000078 0.003190 0.002214 0.002049 -0.000687 0.002509 0.004267 -0.000551 0.000308 -0.004307 -0.001102 -0.000275 0.003864 -0.003756 0.002246 0.000383 0.001066 -0.004600 -0.003498 -0.002074 -0.004922 0.001639 0.003714 0.000404 0.000413 0.001188 -0.002073 -0.001285 0.000688 0.003099 -0.002887 -0.001747 0.002414 -0.001523 -0.004443 -0.003481 -0.003119 -0.000032 0.001249 0.003747 0.003962 -0.001926 0.002599 -0.002254 -0.001283 -0.002028 -0.000869 -0.002881 -0.001775 -0.003675 0.004660 0.000110 0.004179 0.002367 -0.000342 0.002435 0.001278 -0.001906 0.000266 0.002138 -0.001888 -0.004848 -0.002241 0.002932 0.004286 0.001302 -0.003755 0.002560 0.000283 0.002575 0.003563 0.004364 0.001499 0.003433 0.002363 0.002286 0.003526 0.004066 0.003994 -0.001040 -0.004103 0.003150 0.000348 0.000362 0.003204 -0.004700 0.003671 -0.004562 0.001890 0.000782 0.001315 -0.001256
sent_23 -0.001745 0.000494 0.004090 0.000858 0.001957 -0.000364 0.004836 0.002124 -0.001935 0.001820 0.000207 0.004357 -0.001750 -0.003545 -0.003132 -0.001601 0.003492 -0.002954 0.001250 0.001025 -0.000441 -0.005424 0.002419 -0.002150 -0.000779 -0.001872 0.000898 -0.004561 -0.000059 -0.004236 0.005100 0.001303 -0.001196 -0.003910 0.002549 0.003709 -0.001562 0.002922 -0.002483 0.004886 0.002359 0.000662 0.003503 -0.002525 0.004227 0.001854 0.003206 0.001176 0.003899 0.001456 -0.003787 0.001487 -0.002322 0.003876 -0.002845 -0.002334 -0.004441 -0.001164 0.000855 0.000689 0.004532 -0.001126 -0.000831 0.004303 0.001127 0.001201 -0.002161 0.000094 0.000989 -0.004228 -0.005343 -0.003776 -0.000102 -0.004771 0.001408 -0.004123 -0.002344 -0.000684 -0.003418 -0.001388 -0.004740 0.005608 0.001808 -0.001254 -0.004627 0.000047 -0.000237 0.004089 -0.002633 0.001850 0.001503 -0.002714 0.000353 0.002529 -0.003221 0.000525 -0.004285 -0.004415 -0.003862 -0.000173
sent_24 0.004686 -0.000626 -0.003959 0.003816 0.000299 -0.001375 0.004514 0.004262 -0.003204 -0.002915 0.000730 0.003803 -0.001178 0.001088 -0.003494 -0.003588 0.002588 -0.003921 -0.002246 0.001714 -0.004463 -0.005228 -0.001928 -0.001646 -0.001136 0.002472 -0.005266 -0.001695 0.000781 -0.002853 0.003811 0.001718 -0.003687 -0.003058 0.003010 -0.001528 0.000394 0.003707 -0.004018 0.004836 -0.004336 -0.004642 -0.003347 0.003257 -0.000365 0.001537 -0.002825 -0.002966 0.000556 0.001945 -0.000520 0.004074 0.001566 -0.002504 -0.002188 -0.001302 0.002461 0.003888 0.003857 -0.002904 -0.001010 0.001455 0.000208 -0.000561 -0.004075 0.001717 -0.004008 0.003585 0.003304 0.001636 -0.000553 0.002135 -0.001056 0.002984 0.003079 -0.003668 -0.001778 -0.001794 -0.001145 0.001164 -0.004376 0.002218 -0.002599 -0.000686 -0.000327 -0.000561 -0.001085 -0.003244 -0.004538 0.000877 0.000873 -0.002975 -0.002848 -0.002134 0.003761 -0.003771 0.000860 0.001438 -0.001254 -0.001392
sent_25 0.004957 0.001032 0.001742 0.000185 0.001716 0.001256 -0.003468 -0.001908 -0.001070 -0.003483 -0.001560 -0.002368 0.003997 -0.001217 -0.002986 -0.001391 0.001682 -0.004800 -0.003190 0.001688 0.002956 0.000357 0.003941 -0.003177 0.002243 0.003472 -0.004024 -0.002917 -0.000024 -0.000993 0.002074 -0.004160 -0.003341 0.001918 0.005314 0.003759 0.004472 -0.003745 -0.003989 -0.003902 0.000587 0.003225 -0.000397 0.002765 -0.003014 0.003612 -0.002648 -0.004005 -0.000292 0.000188 0.004369 -0.003550 -0.002337 -0.004167 -0.000865 -0.002253 0.000011 -0.002078 0.004484 0.002574 0.003898 -0.003292 0.000380 -0.002099 0.003707 -0.005256 -0.003983 -0.001249 -0.001184 -0.002761 -0.004568 -0.003580 -0.001767 0.004542 -0.002651 0.002470 -0.002364 -0.004664 -0.004579 -0.002643 -0.000175 0.003332 0.002774 -0.001458 -0.000051 0.004265 0.003533 -0.001887 -0.005318 -0.003847 0.002427 -0.001796 0.000013 -0.003233 0.004133 -0.000484 0.000565 -0.001503 0.000601 -0.004917
sent_26 -0.002271 -0.001479 -0.002093 -0.003963 0.000200 0.002891 0.004509 0.000029 0.000945 -0.002044 -0.003628 -0.003807 0.002416 0.002316 -0.003293 -0.000849 0.000865 -0.003747 0.002917 0.001140 0.001258 0.001810 0.005071 0.000777 0.003567 -0.000911 0.001627 0.004092 0.001728 -0.002028 0.001179 -0.001424 -0.001797 0.001043 -0.003360 -0.000080 0.004490 -0.001139 -0.003214 -0.000356 0.003345 0.003383 0.003221 -0.004797 -0.002174 0.004939 -0.003673 -0.000065 0.002969 -0.003664 0.001574 -0.000002 -0.003052 0.003702 -0.003327 0.001549 0.002321 0.000586 0.001152 -0.003844 -0.001825 0.000970 -0.001195 0.001731 0.003523 -0.003085 0.003897 -0.001129 0.004319 0.001288 0.002807 0.000193 0.000365 -0.001899 -0.003545 -0.001119 -0.002950 -0.004750 -0.002287 -0.003091 0.003825 -0.004100 -0.003167 0.001975 0.004347 -0.002393 -0.004754 0.004587 0.001748 -0.001691 -0.000140 0.000945 -0.001144 0.003816 0.002402 0.004422 -0.001523 0.004352 -0.000044 0.001368
sent_27 0.002387 0.003525 -0.001028 -0.000286 0.003326 0.002136 0.004593 0.004589 -0.003639 -0.002519 0.002014 0.002476 0.001357 0.004111 -0.002747 -0.001760 -0.000206 -0.001962 0.000429 0.001586 -0.002544 -0.000661 0.005097 -0.001427 -0.004581 0.002693 -0.000043 -0.004704 0.003739 -0.000753 0.004253 -0.000890 -0.004170 -0.002634 -0.001130 0.002175 -0.002777 -0.000782 0.003404 0.000562 -0.003947 -0.005092 0.001657 0.004710 0.002982 0.002612 0.002085 0.003270 -0.004375 -0.002391 0.001569 0.004061 0.001725 -0.003405 0.004348 0.003932 -0.004344 -0.003428 -0.002252 0.002138 0.003853 0.001137 -0.003355 -0.000406 -0.003771 0.003885 0.002500 -0.000019 -0.000466 -0.004325 -0.001977 -0.003535 0.002873 0.000470 -0.002456 -0.002603 -0.002418 -0.001846 -0.001076 -0.001440 0.001997 -0.004108 -0.001530 0.002500 0.004592 0.003706 -0.002487 -0.002660 -0.003335 0.004391 -0.002373 0.002815 -0.002105 -0.004725 0.002686 0.001913 -0.004030 -0.001409 0.004795 -0.003315
sent_28 -0.003905 0.001056 0.004347 -0.003907 0.000352 0.001838 -0.003383 -0.005013 0.003654 -0.004482 -0.002393 0.001852 -0.002067 -0.004796 0.000761 -0.002260 -0.003529 0.004291 -0.003372 0.002260 0.004034 0.003511 -0.003200 -0.002803 -0.004584 0.004104 0.003458 0.000924 -0.004265 -0.002862 0.001004 -0.002483 -0.001999 -0.003362 -0.002878 -0.000793 0.000375 0.000157 0.004976 -0.003501 0.002758 0.002695 0.000488 -0.000496 0.003691 0.003304 -0.004405 0.004796 -0.004686 0.000332 0.000773 0.003507 -0.001010 -0.004112 0.001097 -0.005007 -0.001377 0.004822 0.004058 -0.003422 0.002852 0.002991 0.004287 -0.002581 -0.000020 0.003155 0.001954 0.001060 0.001550 -0.003051 -0.004929 0.002326 -0.001788 -0.001028 0.000982 0.001458 -0.002863 0.003310 -0.000996 0.001552 0.004717 0.000987 -0.001241 0.001311 -0.000092 -0.000147 0.002423 0.004263 -0.000393 -0.004115 0.000435 -0.002303 -0.004696 0.002688 -0.002124 0.002680 -0.000038 -0.001602 -0.001892 -0.004468
sent_29 -0.000048 0.003358 -0.004615 -0.004072 0.000368 0.001170 0.002176 -0.002022 -0.004357 -0.000745 -0.002692 -0.005316 0.001668 0.004761 -0.001093 -0.001624 0.000513 0.003856 0.002843 0.001794 -0.000942 0.002130 -0.003061 -0.001953 0.002689 0.004468 -0.002649 -0.001820 -0.004643 -0.001075 -0.003165 0.001126 0.002059 -0.003653 -0.004379 0.004214 -0.001145 0.000313 0.004814 0.002568 -0.001868 -0.003927 0.000563 -0.002045 -0.004835 0.002801 -0.001334 0.000712 0.002259 0.004669 0.000859 -0.001972 -0.003798 -0.004250 -0.002139 0.001385 0.001910 -0.002801 -0.004302 -0.001737 0.000687 0.002561 0.000266 -0.002371 0.001091 -0.002283 0.001483 0.003276 0.001847 0.000658 -0.001469 0.003855 0.004874 0.002949 0.000692 -0.003311 -0.001840 -0.000921 -0.002283 -0.000534 0.001045 -0.002969 -0.002720 -0.003807 -0.002029 -0.000366 -0.000104 0.005013 0.004894 -0.000643 0.004985 -0.003090 0.000743 -0.000586 0.004388 0.003521 -0.003029 -0.000956 -0.003479 0.000319
sent_30 0.003112 -0.004355 -0.002973 0.004755 0.004778 0.000568 0.001529 -0.002451 0.004227 0.001931 0.001585 -0.004611 0.003775 0.002956 0.001749 0.002120 -0.003540 0.001698 -0.004062 0.001955 -0.004651 0.002377 -0.000005 -0.002945 0.002458 -0.002206 0.003428 -0.003466 0.004073 0.005090 -0.001811 0.003767 0.003407 -0.000894 -0.000998 -0.002558 0.005205 -0.002297 0.004019 -0.000521 0.004595 0.003126 -0.003939 0.000644 0.001619 -0.000923 -0.004613 -0.001490 0.003734 -0.004720 -0.004051 0.002267 0.000192 -0.000214 -0.001107 0.000832 0.003487 -0.002517 0.003683 -0.000766 0.000137 0.002389 -0.002599 0.004604 0.002126 0.001015 -0.002130 0.002120 -0.002476 0.002726 -0.005201 -0.003352 0.000575 0.002157 -0.000061 0.003760 0.004844 -0.000291 0.002946 0.000442 0.001762 -0.002217 -0.003584 0.004834 0.003201 -0.001552 0.001085 -0.001195 -0.003567 -0.000414 -0.002184 -0.004551 -0.000978 0.003995 0.003692 0.000440 -0.001627 -0.002409 0.004786 0.000727
sent_31 -0.002888 -0.002617 0.004230 -0.002980 -0.003651 -0.003688 0.002962 0.001876 -0.000082 0.003121 0.000426 -0.000761 -0.003999 0.003857 -0.001830 0.001311 0.004693 -0.003506 0.004459 0.001737 -0.003837 0.002863 0.004245 0.000508 0.001780 -0.004488 0.004774 -0.001766 -0.004723 0.002798 0.004729 0.002147 -0.005349 -0.004217 0.000435 -0.001330 0.003144 0.004076 0.004870 0.002302 0.003505 -0.001296 -0.004032 0.003114 -0.002151 -0.000505 0.001383 0.000784 -0.000819 -0.001365 -0.003565 0.000048 -0.002655 0.002140 0.001618 -0.004718 0.005296 0.002948 -0.002559 -0.004011 0.000289 -0.001833 0.000581 0.001427 0.003358 -0.004634 0.002301 -0.001622 0.005284 0.003202 0.000685 0.000856 -0.003089 -0.002552 -0.003827 -0.001049 -0.003792 0.000751 0.001573 -0.003514 -0.001780 -0.004505 0.000260 0.001382 0.001093 0.002772 -0.002422 0.001041 -0.002010 -0.004088 -0.002207 -0.004430 0.004883 0.001614 -0.004003 0.002780 -0.001266 0.003533 -0.000027 0.003584
sent_32 -0.002509 -0.001391 -0.001468 -0.004400 -0.001409 0.001548 -0.000331 0.003636 -0.002271 -0.001268 -0.001745 0.000903 -0.003176 -0.003137 0.004688 -0.001459 0.000926 -0.004904 -0.003602 -0.004029 0.003109 -0.003956 -0.000150 -0.003773 -0.002031 0.003812 0.000873 0.004693 0.000654 -0.004582 -0.000613 -0.004860 -0.001956 -0.000270 0.000787 -0.002709 0.000567 -0.000847 0.000171 -0.002952 -0.003274 0.002384 -0.002037 0.001163 0.000351 0.004193 0.003765 -0.000554 -0.002863 0.000859 0.001481 0.001784 0.004221 0.002761 0.001452 0.000698 -0.002587 0.001533 0.003494 0.004478 0.004166 0.000454 -0.002312 -0.001690 0.005171 0.000230 0.003518 0.001233 0.000260 -0.001898 0.000273 -0.005022 0.003763 0.000827 -0.005007 0.002979 -0.003548 -0.004503 -0.000151 0.004829 -0.004230 -0.004194 0.003989 0.003321 0.003017 -0.000194 -0.000644 -0.001148 0.000711 0.002196 0.002438 0.001661 0.000592 -0.001222 -0.001759 -0.002124 -0.001799 0.001826 0.002573 0.000970
sent_33 -0.002667 -0.003168 0.002573 0.004475 -0.004704 -0.002530 0.002737 0.002176 -0.002536 0.000560 0.000955 0.002379 -0.000492 -0.000951 -0.001809 -0.002765 -0.004022 0.001351 0.001693 0.001964 -0.005091 -0.000361 -0.003913 0.000017 0.004958 0.000055 -0.001410 0.003328 0.004508 -0.001974 0.003202 0.004827 -0.003868 0.000328 0.003103 -0.001428 -0.000423 0.002463 -0.003815 -0.001321 0.000718 -0.002685 0.003384 0.002545 0.004420 0.000241 -0.004117 0.004371 0.003329 0.000235 0.003501 0.003788 0.002910 0.000864 0.001340 0.003274 0.001251 -0.002733 0.002186 0.000376 -0.002645 -0.005222 -0.002478 0.001611 0.003691 0.003323 -0.003667 -0.004260 0.002722 -0.002318 -0.002210 -0.005039 -0.004085 -0.003417 -0.003624 -0.000671 0.003222 0.003151 0.004129 -0.000706 0.002050 -0.000164 -0.004560 -0.004068 -0.002739 0.004696 0.001862 -0.002293 0.002123 0.001265 -0.004770 -0.001337 0.002519 -0.004285 0.003666 0.004481 0.003463 -0.003815 0.000387 0.002168
sent_34 0.003996 -0.003470 0.003171 -0.002329 0.001181 0.002120 0.002957 -0.002402 0.000629 -0.001805 0.004987 0.003399 -0.000653 0.004096 0.001917 0.003996 -0.003363 -0.002381 -0.004156 -0.002088 -0.001024 0.000803 -0.000303 0.002401 -0.002160 -0.003755 -0.001492 -0.000683 -0.001013 0.004489 -0.002300 -0.001394 -0.002763 -0.001297 -0.000532 0.000035 -0.001575 -0.002452 0.002118 0.004348 -0.003609 -0.003561 -0.004051 0.001745 -0.003044 0.001012 -0.002642 0.003572 -0.001419 0.001436 -0.003757 -0.001569 -0.001848 0.001208 0.001941 0.003216 -0.003326 0.002462 0.002360 0.000409 0.001505 -0.004010 -0.003731 -0.000586 0.001999 -0.003647 -0.001032 -0.000176 0.004437 -0.005207 0.003004 0.005087 -0.002305 0.004101 -0.001924 0.003096 -0.000300 0.001173 -0.002564 0.002372 -0.003364 0.001389 0.000195 0.003458 -0.000190 0.003481 -0.000802 -0.001854 0.002328 -0.000375 0.000029 0.001019 0.003440 0.000607 -0.000596 -0.003666 0.001973 0.004218 -0.003722 -0.000293
sent_35 0.004228 0.000510 0.000240 -0.004621 0.000401 0.001347 -0.003580 0.004561 -0.002868 0.001713 -0.002089 -0.003987 -0.002592 -0.001710 -0.000254 -0.002574 0.002235 0.003172 0.002865 0.002275 -0.002528 -0.002512 -0.004001 -0.001054 -0.004144 0.001754 0.004634 0.002795 -0.003761 -0.004954 -0.001680 0.004706 -0.001905 0.002566 0.001920 0.000741 -0.001431 -0.003039 0.004921 -0.004316 -0.002829 -0.001695 0.004261 0.002017 -0.002440 -0.003320 0.003582 0.002768 -0.004788 0.003821 0.000992 -0.000537 0.001841 -0.004548 -0.001662 -0.004251 0.001874 -0.000734 -0.000147 -0.002027 0.002731 -0.004792 -0.002039 0.000611 0.002759 0.001115 0.002398 -0.004802 -0.002230 -0.004595 0.000269 0.004899 -0.004937 -0.000401 -0.005112 0.001186 -0.003166 0.002281 -0.003509 0.003080 -0.002966 -0.001722 -0.002945 0.003127 -0.000211 0.003347 -0.003775 0.000045 0.002916 0.004500 0.001695 -0.003249 0.002492 -0.004321 0.002297 0.003450 0.000475 -0.000292 0.004120 -0.005003
sent_36 -0.004311 -0.001874 0.000546 0.000848 -0.001103 -0.001452 -0.003115 0.002787 -0.003096 0.000057 0.002829 0.001627 -0.000133 -0.002828 -0.001353 -0.000945 0.004818 -0.002759 -0.003243 -0.003100 -0.002199 -0.005260 -0.000953 -0.002071 0.004240 0.001769 -0.004790 0.002997 -0.004758 0.003229 0.001058 -0.003678 0.004294 0.003471 0.004379 -0.002221 -0.001865 0.004741 0.002530 -0.004207 -0.000876 0.002118 -0.000627 -0.002276 0.003099 -0.002473 -0.004272 -0.001998 0.005575 0.000965 -0.003128 0.002593 0.001759 0.001359 -0.003708 -0.002623 0.003417 0.001507 -0.002997 -0.002811 0.000583 0.003874 -0.003481 -0.002966 -0.001315 0.003487 -0.002363 -0.004061 -0.004997 -0.002153 -0.005344 0.001102 0.001746 -0.000416 0.002811 -0.000200 0.002110 -0.003037 0.002791 0.000900 0.002440 0.000511 0.000695 -0.004406 0.000192 -0.001975 -0.003422 -0.000706 0.000358 -0.000844 -0.003369 0.003263 0.004539 0.002363 -0.003379 0.002823 -0.003885 0.000556 0.004845 -0.002177
sent_37 -0.003075 0.003188 0.004837 -0.001274 -0.002495 -0.002608 0.004636 0.000601 0.002676 -0.001615 -0.004850 0.000124 -0.002142 0.000462 0.000031 -0.002811 -0.002100 -0.005599 -0.000642 -0.002114 0.001989 0.002366 0.000288 -0.004119 0.004627 0.002124 -0.002295 -0.002389 0.003655 -0.000313 0.001703 0.005421 -0.004541 -0.002326 -0.001734 0.003531 0.001178 -0.004343 0.001925 0.002181 0.002019 0.003651 0.002695 0.002740 -0.002591 -0.003707 -0.001979 -0.002353 0.001485 0.001020 -0.000029 -0.003733 -0.001449 0.004369 0.002340 -0.001262 0.001621 -0.003177 -0.003978 -0.000138 -0.001875 0.000373 0.003489 0.002581 0.002473 -0.004442 -0.000191 -0.000774 0.000889 -0.002710 -0.002143 0.004929 -0.003776 -0.003231 -0.002171 0.001764 0.002161 0.002508 -0.000712 0.004577 0.002257 0.003228 0.004014 0.001240 -0.000475 -0.003063 0.001205 0.000479 0.000425 -0.000797 0.000411 -0.002586 0.001668 -0.004357 0.004829 -0.003585 -0.001552 0.004790 0.004614 0.003397
sent_38 -0.001228 0.004910 0.002972 0.002210 0.004339 0.003087 -0.000324 -0.002284 -0.001849 -0.004006 -0.001692 -0.000996 0.004508 0.004559 0.004327 -0.002154 0.001773 0.000705 -0.002667 0.003268 -0.002215 0.000876 -0.003563 -0.003697 0.002324 -0.000724 -0.001325 0.002177 -0.001951 0.004119 0.004659 0.005298 -0.002295 -0.001248 0.003115 0.003545 0.002422 0.002829 0.003131 -0.000856 0.000654 -0.000384 0.000464 0.003638 0.001313 0.004848 0.003146 -0.000132 0.001538 0.003788 0.000531 0.002703 0.001275 -0.002153 -0.002937 -0.001133 -0.003451 0.002138 0.002182 -0.001255 -0.002229 0.004621 0.000769 0.006212 -0.003513 -0.003100 -0.004410 0.002488 -0.003699 0.003062 -0.000981 0.000595 -0.004386 0.001047 -0.002225 -0.002719 0.004113 0.004127 -0.004509 0.004801 0.004129 0.001261 0.002538 0.002501 0.002177 0.001314 0.001090 0.000430 0.002798 -0.001229 0.002810 0.003700 0.003701 0.002618 0.004554 -0.001716 0.001834 0.003296 0.003729 0.004523
sent_39 0.005289 0.002152 0.000144 0.004294 -0.002406 0.002976 -0.002426 0.000160 -0.000173 0.000052 0.003125 0.000998 0.001182 0.000094 -0.005235 -0.001991 -0.004366 -0.000176 0.001270 0.001927 0.002364 -0.005525 0.002713 0.001119 -0.003808 -0.006317 -0.002919 0.000936 0.003712 0.005480 0.002597 -0.001255 0.001263 -0.003255 0.004016 -0.004245 0.003403 0.003963 -0.000796 -0.003681 -0.000081 0.002293 -0.004599 -0.004861 0.002719 0.000616 -0.003223 0.005995 0.001901 0.000388 0.001851 0.005121 -0.004756 -0.002275 -0.003028 -0.000533 -0.004304 -0.005862 -0.001951 0.003567 0.006073 0.003869 -0.005987 0.004134 -0.004289 -0.004176 -0.005348 -0.003596 0.001410 0.000845 -0.002618 0.002856 0.003750 -0.003907 -0.003233 -0.000936 -0.000765 -0.002000 0.003078 0.000291 0.003353 0.006043 0.001477 -0.000966 -0.003571 0.000309 0.004440 -0.002778 0.000063 0.002101 -0.003588 0.004791 -0.003175 0.001340 0.006581 0.000730 -0.001086 -0.003097 0.002286 0.002288
sent_40 -0.001371 0.001698 0.000673 -0.004474 0.004227 -0.001187 -0.001104 0.003393 -0.000278 -0.000479 0.001398 -0.002883 0.000430 0.001777 0.000301 0.002070 0.000894 0.003459 0.003762 -0.004081 -0.002413 -0.004692 -0.002720 0.002351 -0.004281 -0.003557 0.002714 -0.000568 -0.002096 0.001408 0.003779 -0.004571 0.001881 0.001705 0.003725 -0.003034 0.002048 -0.004037 -0.004619 0.001948 -0.004967 -0.004578 -0.004710 -0.000378 0.002761 0.004967 -0.002669 0.002944 0.002998 0.003772 -0.001990 -0.003545 0.002848 0.000566 -0.000860 -0.004418 -0.004920 -0.001981 -0.002370 -0.000377 0.004487 -0.000684 -0.002213 0.003639 -0.001915 0.004069 0.003485 0.001295 0.002454 -0.003485 0.000937 -0.001589 -0.000107 -0.002737 0.004166 -0.000779 -0.000259 0.002285 -0.003803 0.000259 0.003146 0.001846 -0.001714 0.002013 0.004417 0.004145 0.002412 -0.002395 -0.001283 0.000803 -0.001031 -0.000371 0.003049 -0.004015 0.004869 0.001896 0.003729 0.002881 -0.000474 0.004365
