41 100
sent_0 -0.000624 0.002240 -0.005015 -0.001957 -0.003350 -0.004120 -0.003030 -0.001689 -0.000990 0.000459 -0.000748 0.002063 -0.002850 0.003864 -0.004581 0.001604 -0.000896 0.000340 -0.003671 -0.002977 0.003044 0.004410 -0.002004 0.001830 0.003752 0.003865 -0.004409 -0.004651 -0.003443 0.003819 -0.003947 -0.000754 0.004415 0.000290 0.001885 -0.001760 0.001573 0.003475 -0.004969 0.002683 0.004756 0.002506 -0.002422 0.002673 -0.003925 -0.000388 0.004141 -0.002073 -0.001970 -0.003883 -0.004779 0.001798 -0.003007 -0.002558 -0.000054 -0.004605 0.000954 -0.003667 0.000986 0.002114 -0.003590 -0.000845 0.001941 -0.000656 -0.004222 0.000340 0.001621 0.000304 0.004452 0.000678 0.003809 -0.003577 -0.003558 0.003143 -0.001064 -0.003311 0.004339 -0.001312 0.002664 0.002596 0.003737 0.001277 0.002714 -0.001642 -0.002281 0.004159 -0.000654 0.004472 0.001580 0.001387 -0.003930 0.004572 -0.000360 0.000474 -0.000678 -0.002834 0.004267 0.000691 -0.004753 0.001056
sent_1 -0.001245 0.001212 0.004303 -0.001025 0.004412 0.001504 -0.004536 0.003822 0.000969 0.005481 -0.003637 -0.003031 0.005160 0.002491 -0.004865 0.001897 0.002359 0.003263 0.002072 -0.004226 -0.003912 -0.006255 -0.004446 -0.002294 0.003894 -0.000754 -0.000401 0.002631 -0.004427 -0.001331 0.001066 0.005280 0.000681 -0.005273 0.004181 -0.003566 0.003886 -0.000831 0.003014 0.002903 0.001142 -0.004507 -0.005564 -0.003842 -0.004556 -0.003981 -0.001710 0.002956 0.001581 -0.005511 -0.004792 0.005440 0.000611 -0.003474 -0.002271 0.002227 -0.003215 -0.000174 0.005006 0.003255 -0.002059 0.000574 0.000552 0.004480 -0.003112 -0.005404 -0.004324 0.000018 0.000695 -0.000307 -0.002843 0.005086 0.000940 -0.001332 0.000946 0.002489 0.001863 -0.002325 -0.003786 0.000076 0.001604 -0.001405 0.003499 -0.004370 -0.002086 0.004890 -0.002563 0.001308 -0.000690 0.005611 -0.002395 -0.003666 0.002932 0.002375 0.005381 0.003402 -0.004391 -0.001721 0.002052 0.004570
sent_2 0.004675 0.000462 0.004196 0.001347 -0.001021 -0.000076 0.000979 0.000477 0.004225 0.004131 -0.000946 0.004784 -0.003237 -0.003784 -0.003466 -0.000080 -0.004788 0.004304 0.003251 -0.004739 -0.003231 -0.001673 -0.003715 0.002951 -0.001533 0.004397 0.000591 0.003825 0.003279 0.004161 -0.000280 0.000466 0.002921 -0.002081 -0.000178 0.000988 -0.004994 0.000909 -0.000738 0.003124 -0.001927 0.003947 0.000696 -0.003168 0.002865 0.001188 -0.004480 -0.000867 0.001838 0.003995 -0.004809 0.004707 -0.001277 0.004700 0.001229 0.003229 0.000874 0.001292 -0.002020 0.000840 0.002482 0.003475 0.002634 0.001983 0.003736 -0.001779 0.001781 -0.000409 -0.001247 -0.000993 -0.001079 -0.001825 0.001218 -0.000632 0.004638 0.001698 -0.002976 -0.000693 -0.001476 0.003001 0.003762 0.003954 0.001663 -0.002300 -0.002455 0.003556 0.000280 0.002939 0.000767 0.002214 0.000044 0.002809 0.000544 -0.000476 -0.001539 -0.004352 -0.001072 -0.004162 0.004844 -0.003232
sent_3 0.003110 0.003872 0.001832 0.000829 -0.003315 -0.000419 -0.001378 -0.002857 0.000951 -0.001815 0.004138 0.004065 -0.002337 -0.003757 -0.003075 0.000058 0.002240 -0.002907 -0.002575 0.003463 -0.000821 0.000919 -0.002717 -0.003879 0.000090 -0.000308 -0.003439 0.001160 0.000485 0.001448 -0.003632 0.002538 -0.002860 0.000161 0.002855 -0.004667 -0.001888 0.003797 0.003338 0.000460 0.003575 0.004510 0.003180 0.003389 -0.003906 0.001577 0.002103 0.001154 0.003035 -0.004598 0.002563 0.002358 -0.002504 -0.002568 0.001182 -0.001587 0.003005 -0.000686 0.002746 0.004948 -0.001642 -0.003419 0.003914 0.000574 0.004858 0.001327 0.004805 0.000465 0.000304 -0.003683 -0.001510 -0.004645 -0.003335 0.002441 -0.004615 -0.001215 0.003629 0.002084 0.001924 -0.002859 -0.000615 0.000890 0.004999 -0.003044 -0.002458 -0.002233 0.002551 -0.000514 -0.004480 0.000332 -0.002739 0.002963 -0.001794 -0.004853 0.001100 0.003295 -0.001109 0.002447 0.000300 0.000349
sent_4 0.004584 0.003108 -0.004684 0.001992 -0.000311 0.004372 -0.002760 -0.002406 -0.004190 -0.000614 -0.003887 0.001383 0.003003 0.002011 0.002619 -0.001592 0.003414 -0.000787 0.003195 0.001229 -0.003500 -0.004221 -0.004825 -0.004272 -0.000384 -0.003921 -0.004767 0.002534 -0.001074 0.002530 -0.000480 -0.000524 -0.000189 -0.000219 0.003068 -0.001088 0.004128 -0.004604 0.002736 -0.003743 0.001248 -0.004886 0.000317 -0.005038 0.004444 0.004041 0.003026 0.004205 -0.003469 -0.003452 -0.003146 0.001236 0.004112 0.004864 0.002128 0.002257 0.004080 -0.000992 -0.002456 -0.003213 -0.003802 0.003094 -0.003543 -0.002371 0.003212 -0.001915 0.004870 -0.002322 0.000378 -0.001983 0.004099 -0.001326 -0.000648 0.000182 0.004370 -0.004640 0.002210 0.003990 -0.004680 0.000298 -0.001693 0.003736 0.000608 0.001919 -0.000480 0.001345 -0.002043 -0.004877 0.000656 -0.001831 0.000140 0.004213 -0.000663 -0.002587 -0.001258 0.004241 0.004371 0.003442 0.004216 -0.002743
sent_5 -0.003991 -0.002988 -0.001995 -0.003527 0.001317 -0.001041 0.003179 -0.003208 0.002348 -0.002557 0.000887 -0.001355 -0.004626 -0.002721 0.001991 -0.000053 0.000264 -0.003430 0.000640 0.005122 0.003013 0.001084 0.004523 0.003711 0.000981 -0.004500 -0.004185 -0.004212 -0.000552 -0.001289 0.004925 -0.003479 0.004549 0.002644 0.002978 0.001519 0.001365 -0.000032 -0.004680 -0.001440 -0.000116 0.002407 -0.000332 -0.000688 -0.003824 -0.004753 0.002363 -0.001915 0.004831 -0.002956 -0.001376 0.000024 0.002587 -0.000398 -0.003784 -0.002039 0.000266 0.001950 0.002899 -0.003368 -0.004650 -0.000054 0.003293 -0.005020 0.001917 0.001995 -0.000358 0.004385 0.001602 -0.005011 -0.000162 0.003530 0.003357 0.001644 0.001445 0.000697 -0.002193 0.000811 0.001810 -0.001506 0.003349 -0.003244 0.002468 -0.002102 0.002600 -0.000988 0.003083 -0.001613 -0.002817 0.002408 -0.002118 0.002185 0.002407 -0.003069 -0.002935 -0.002919 -0.003538 -0.001510 -0.004869 -0.003946
sent_6 0.001797 0.002876 -0.004320 -0.002811 -0.002742 0.004004 0.002199 0.000463 -0.001723 0.003400 -0.000563 0.004291 0.001957 -0.000173 -0.003522 0.004789 -0.003375 -0.003060 -0.000753 -0.000883 -0.003631 0.002310 -0.003271 0.001308 0.002524 -0.002803 0.000984 0.002556 0.001377 0.000885 -0.001980 0.002208 0.004313 -0.000765 0.002641 -0.004267 0.003104 -0.002933 -0.000966 -0.001963 -0.004265 0.004131 -0.001326 0.000084 -0.000146 -0.003571 -0.003055 -0.004297 0.000068 -0.002439 -0.001339 -0.004045 0.002871 -0.004008 0.004763 -0.003346 0.000863 -0.004457 0.002951 -0.002876 0.000484 0.002300 -0.003421 0.000455 -0.002694 0.002662 0.002265 -0.003090 0.003754 -0.004844 0.003603 0.000591 -0.000909 0.002678 0.002017 0.004876 -0.002185 -0.004766 0.004387 0.003643 0.002149 0.000065 0.002078 0.002784 -0.001310 0.002562 0.002528 0.001017 -0.000968 0.001896 -0.005027 0.002629 0.004037 -0.002826 -0.003801 -0.002785 -0.001945 0.003614 0.000404 -0.002189
sent_7 -0.003602 -0.002075 0.001136 -0.001727 -0.000379 -0.000594 0.003342 -0.000770 -0.001547 0.001788 -0.002798 -0.000323 -0.001822 0.001310 0.003786 -0.000535 0.002828 -0.000477 0.001550 -0.003703 -0.000630 0.004003 0.001074 0.002701 0.000037 -0.000073 0.003415 -0.004375 0.000718 0.004434 0.000186 -0.003048 0.003455 -0.002509 0.002019 0.000418 0.004471 0.001279 0.003329 -0.004901 0.004884 -0.004247 -0.001848 0.004434 -0.004896 0.003242 0.003658 -0.000579 -0.002403 0.003021 -0.000246 -0.003635 0.004263 0.003900 -0.000120 0.003556 -0.000813 0.001792 -0.001025 0.000074 -0.003011 0.004689 -0.002105 -0.003911 -0.003531 -0.004881 0.002128 0.000677 0.002952 0.000043 0.002875 0.001992 0.002811 -0.000949 0.001497 -0.003184 -0.001792 -0.003243 -0.000888 -0.002483 -0.000930 0.004810 -0.001763 0.004817 0.001401 -0.001176 0.003605 0.001166 -0.002525 0.003021 -0.000648 -0.001426 -0.001635 0.001929 -0.002244 0.003016 -0.002017 0.000438 -0.000058 0.003536
sent_8 0.004464 -0.002578 0.001266 0.004322 -0.000215 0.004584 -0.002182 0.000824 0.000821 -0.002405 -0.005125 -0.000286 0.005089 -0.001179 0.002470 -0.004032 -0.001778 -0.004314 0.002228 0.001659 0.002574 -0.003524 0.002279 -0.002578 -0.000425 -0.002277 -0.002277 -0.004987 0.000544 0.003001 0.001481 0.001877 -0.003187 -0.003861 0.001011 0.002922 -0.002429 -0.000418 -0.001358 0.000437 -0.003102 -0.002471 -0.003424 0.003580 0.003091 -0.000811 0.001774 -0.002971 0.000837 -0.002612 0.003276 0.002459 0.001290 -0.004035 0.000152 0.004743 0.004281 0.000746 -0.003137 0.000879 0.000816 0.000167 -0.001220 0.001977 0.003469 0.001945 0.000806 0.004304 -0.004732 0.004188 -0.005262 -0.002720 -0.000700 -0.003930 0.001591 -0.004649 -0.002130 -0.004619 0.002441 0.002743 -0.000880 -0.002022 0.003099 -0.001512 0.003211 0.001439 0.000463 -0.004807 0.000904 -0.000628 -0.002771 0.000048 -0.001084 -0.000427 0.005688 -0.002072 0.003142 0.001467 0.004507 -0.001350
sent_9 -0.002620 0.004043 -0.004645 0.004319 0.000565 -0.001329 0.004921 -0.004433 0.000265 -0.004695 0.000798 -0.003209 0.001204 0.004749 0.003824 -0.000434 0.002085 0.002722 -0.000084 0.000370 -0.003517 -0.001104 -0.003585 0.002234 -0.000222 -0.000425 0.003843 0.000332 -0.000900 -0.002360 -0.004271 -0.000900 -0.004732 -0.001967 -0.000055 0.004637 -0.003925 0.001723 0.000064 0.002708 -0.003546 -0.004024 -0.000939 0.002920 -0.003198 0.002677 -0.002124 -0.002892 -0.004876 -0.001073 -0.001074 0.001478 -0.004213 -0.003467 -0.004796 -0.003941 0.001550 -0.000859 -0.001727 0.000675 0.004797 0.003174 0.002074 0.003992 -0.004601 -0.004228 -0.000159 -0.001465 0.004450 -0.000164 0.000516 0.003891 -0.000558 0.003829 -0.002584 -0.002243 -0.001670 0.000573 -0.002788 0.001589 -0.003561 -0.004149 0.003613 -0.002590 -0.001164 0.000520 0.000292 -0.004189 0.003750 0.004365 0.003018 -0.002177 0.000242 -0.001673 0.000415 0.004812 -0.001900 0.001592 -0.001870 0.002740
sent_10 -0.002146 0.003410 0.001895 0.001983 -0.000217 -0.003469 -0.004565 -0.001741 -0.003791 0.001861 0.002052 -0.001009 0.001977 0.000243 -0.004166 -0.003159 -0.002942 -0.001215 -0.004592 0.001335 -0.000578 0.002190 -0.001142 0.003263 -0.000595 -0.004070 0.004305 0.002200 0.003660 0.003884 -0.004631 -0.003237 -0.004539 -0.000448 0.002850 -0.003697 -0.000773 -0.003724 0.003358 0.003217 -0.004861 0.000492 -0.001958 0.004104 0.004121 0.001321 0.004005 -0.001999 0.003368 -0.000399 -0.002356 0.003806 0.002076 -0.004138 0.003429 0.001768 0.001261 0.003094 -0.002452 0.001543 0.002978 -0.005043 -0.003241 0.002520 0.001056 0.000728 -0.002308 -0.002027 0.004373 -0.000534 -0.003586 0.003842 -0.003044 0.003603 0.003318 -0.000045 0.000995 0.000724 0.000950 0.002855 -0.002504 0.003043 0.000075 -0.003740 -0.003099 -0.000347 -0.002774 -0.003655 -0.002976 0.002582 0.000962 0.004081 -0.001640 0.000786 0.000111 0.001793 -0.004758 0.001653 0.003794 0.000318
sent_11 -0.002827 0.002568 -0.005116 -0.001885 0.004427 0.000795 0.003661 0.000855 0.003291 0.003906 -0.001666 -0.003478 0.002220 -0.000433 -0.003514 0.000783 -0.004677 -0.003240 0.002804 -0.004859 -0.002112 -0.004903 0.004590 0.000623 -0.002035 0.004325 -0.000215 -0.000285 0.000689 -0.002273 -0.001890 -0.001366 -0.002760 0.000848 0.001881 -0.004227 0.004427 0.002645 0.003051 0.002745 -0.004372 -0.000195 -0.000766 0.001377 -0.000573 0.002301 0.001701 0.001918 0.001224 -0.003767 0.002623 0.002725 0.004007 -0.002813 -0.003126 -0.001389 -0.001459 0.003122 0.001325 0.002765 -0.000391 -0.004071 -0.003769 -0.001192 -0.002826 0.003199 0.001134 0.002013 0.000113 -0.004427 -0.002762 -0.000340 -0.003036 -0.004505 0.002158 0.002231 -0.001621 0.003765 -0.000586 0.003966 0.001354 0.000818 -0.002827 0.000238 0.003799 -0.001859 0.003721 0.003868 -0.001707 0.001839 0.003838 -0.004169 0.003874 -0.003489 0.003578 0.001615 -0.001299 -0.003571 0.001452 0.003382
sent_12 0.003498 0.001272 0.004807 0.001048 -0.003069 -0.000401 -0.001699 0.005039 -0.001323 0.004959 0.000044 -0.003075 -0.004061 -0.001448 -0.003798 0.001103 -0.000934 0.004605 0.004452 -0.003547 -0.000866 -0.000692 0.000740 0.002709 -0.000118 -0.000920 -0.002720 0.003921 -0.004934 0.003453 -0.002975 0.002073 -0.001500 0.004600 -0.003601 -0.003173 0.003914 0.000916 -0.002051 -0.004986 -0.002731 -0.003733 -0.003206 0.004177 0.003878 0.001999 -0.000112 0.003275 0.000177 -0.001560 -0.002138 0.004371 -0.001130 -0.000167 -0.002310 0.004028 -0.001051 -0.002134 0.002191 -0.003167 -0.003841 0.003407 0.002359 0.001100 -0.002365 0.001249 0.001423 -0.001550 -0.004630 0.003803 -0.000781 0.002559 -0.002473 0.000710 -0.000570 -0.001354 -0.003810 -0.002783 -0.004077 -0.001819 0.002423 0.001291 0.001916 -0.005042 0.001889 0.000322 -0.002665 -0.003372 -0.003265 0.003598 0.004670 0.004284 -0.001599 0.002835 0.000756 0.003006 0.000026 0.001072 0.003139 -0.004099
sent_13 0.000345 -0.001408 0.000972 0.004484 -0.001073 -0.001115 0.002892 0.001466 -0.000977 0.001879 -0.000911 -0.003644 -0.000584 -0.001687 -0.002760 0.004294 0.001912 0.001010 0.002464 0.000454 0.001920 0.004457 0.003558 -0.003372 -0.002374 -0.004177 0.004818 -0.002548 0.001632 -0.004144 -0.002899 -0.000040 -0.003968 -0.001062 0.000293 -0.001569 0.000508 0.000366 -0.001016 0.001936 0.001754 0.001941 0.000681 -0.001445 0.001078 0.004391 0.000877 0.004723 -0.000666 0.002390 -0.004567 0.002560 0.000226 -0.004917 -0.002215 0.000310 0.002731 -0.004367 0.000512 0.003067 0.001429 0.004221 -0.004185 -0.002363 0.004178 0.002703 0.001059 0.003341 0.004039 0.004739 0.005074 -0.003636 -0.004321 -0.004217 -0.004924 0.004700 -0.004055 0.003456 0.001828 -0.000221 -0.001579 -0.001560 -0.002533 0.004132 0.002198 -0.004901 -0.000409 -0.002185 -0.004662 0.003718 0.002658 -0.001746 0.002917 -0.001772 -0.002044 0.004371 0.004750 0.000152 0.004425 0.003875
sent_14 0.000180 -0.001273 0.002104 -0.000444 0.001052 0.004904 0.002739 -0.001657 -0.004110 -0.003151 0.000269 -0.000829 0.003007 0.004332 -0.003221 0.003601 0.004574 0.004595 -0.004621 -0.004424 -0.004942 -0.001873 -0.004443 -0.002061 -0.001440 0.004537 -0.000230 -0.002218 0.000030 0.001434 -0.003888 0.002581 0.003519 0.003442 0.003905 -0.001182 -0.000562 -0.003984 -0.002742 0.004713 -0.002154 0.004074 0.003906 0.004225 -0.003439 0.003797 0.001320 -0.002894 -0.001549 -0.003401 -0.000557 -0.004162 -0.003347 -0.003028 0.001910 0.000738 0.003733 -0.002554 0.001296 -0.004656 0.000162 0.003632 0.004841 -0.004901 -0.002472 -0.002762 -0.004525 -0.004898 -0.000098 -0.004545 -0.002217 0.001400 -0.002053 -0.002303 0.000905 -0.001195 0.002025 -0.000039 0.001332 -0.001466 -0.002130 -0.003668 0.004371 0.003048 0.004380 -0.003146 0.004332 0.004358 -0.002165 -0.002254 0.000514 -0.003147 -0.000579 -0.003147 0.004474 -0.000062 0.004639 0.001449 -0.000157 0.004677
sent_15 -0.002807 0.002032 0.002032 -0.000252 -0.003979 0.000329 -0.000134 0.002630 -0.003342 -0.000628 -0.002977 0.002642 0.005747 -0.002659 0.003022 -0.003463 -0.004562 -0.004674 0.004364 0.003480 -0.001254 0.002983 0.003597 -0.000675 0.000030 0.000213 -0.004569 -0.005602 -0.003226 -0.003829 0.002117 0.001066 -0.001799 0.002237 -0.002533 -0.003194 -0.001549 -0.002692 -0.004808 0.004185 -0.003613 0.000863 -0.005116 -0.005058 0.000631 0.004158 0.004488 -0.000892 -0.003819 0.002209 0.002617 0.004327 0.001526 0.002584 0.004298 -0.000714 0.000651 -0.001008 0.002301 0.001622 0.000882 0.003969 -0.000525 0.004518 -0.001704 -0.003781 0.004747 0.002726 -0.002793 -0.000070 0.003474 -0.004017 -0.004002 0.001106 -0.002418 0.002510 0.000837 0.001650 -0.003252 -0.002676 0.001408 0.000392 -0.003065 -0.001332 0.001976 -0.001190 0.004342 0.004190 0.003895 0.003532 -0.001131 0.003182 -0.001668 -0.002290 0.002364 0.000035 0.004528 -0.001525 0.003582 0.004430
sent_16 -0.005084 -0.000141 0.001410 0.003403 -0.003020 0.003380 -0.001250 0.003817 -0.004646 -0.004030 0.004773 0.001004 -0.000822 -0.003141 0.001486 -0.004560 -0.001916 -0.001729 0.001039 0.001464 0.003425 0.004182 0.001551 0.000846 -0.001007 0.004604 -0.003360 0.003962 -0.001839 0.000390 0.001791 -0.002729 -0.003363 0.000057 0.002914 0.001925 -0.003757 0.004047 -0.000152 0.004520 0.000526 -0.004184 -0.003029 0.003293 0.002043 0.003964 -0.001717 0.000393 0.001498 0.000993 -0.002835 -0.000669 -0.002462 0.003425 0.004690 -0.004438 0.002082 -0.001705 0.001254 -0.002312 0.001693 -0.001230 -0.002132 0.004171 0.004402 0.001128 -0.002883 0.004391 0.002646 0.002442 -0.002814 0.003368 -0.002564 0.001381 0.002116 0.002537 -0.001077 0.002782 0.003992 0.001033 -0.004097 -0.003619 -0.003948 -0.003254 -0.003752 0.002817 -0.004571 -0.002598 0.003752 0.004836 0.001189 0.004691 -0.004352 0.004378 -0.001852 0.002964 0.003041 0.003494 -0.000401 0.004327
sent_17 -0.002539 0.004285 0.000978 0.004764 -0.004630 0.002066 0.000727 -0.000129 -0.002123 -0.001758 -0.002409 -0.002909 0.002851 0.000065 -0.004052 0.002980 0.000362 0.002589 0.000076 -0.000924 0.004617 -0.004569 0.004087 0.004258 -0.001175 -0.002634 0.001384 -0.003011 0.003211 -0.002744 -0.002203 0.004014 0.003924 0.000437 0.003387 -0.001236 0.004699 -0.000628 -0.001894 -0.004578 0.004744 -0.000126 0.002550 0.001148 0.002224 -0.004393 0.003981 0.004172 0.000343 0.004763 -0.002203 0.000861 -0.001068 0.001297 -0.002162 0.003097 -0.004191 -0.004456 -0.004562 -0.003308 -0.000844 0.004482 -0.003773 0.001326 0.000349 -0.001353 -0.003047 -0.002823 -0.004365 0.002204 0.001725 -0.000564 0.002185 -0.003791 0.004284 0.003590 0.001635 -0.000963 -0.000930 -0.000271 0.004208 0.003385 -0.000311 0.000486 0.003644 0.004168 0.001346 0.002440 -0.001342 0.004033 0.003453 0.000339 0.003790 0.003369 0.002923 -0.003558 0.000304 0.003716 0.002614 -0.000837
sent_18 0.005203 -0.002131 -0.001460 0.004808 0.003459 0.004093 -0.004657 -0.001498 -0.003070 -0.001738 0.002189 0.002634 0.000091 -0.000976 0.000812 -0.000087 0.000404 0.000531 -0.001080 0.002503 -0.001995 0.000614 0.004706 -0.004928 0.002388 -0.004572 -0.000151 0.000792 -0.003045 0.004636 0.001465 -0.002417 0.002619 -0.004293 0.001035 -0.004324 0.000998 -0.002219 0.001057 0.002467 0.000448 0.001044 0.002335 0.002904 0.001249 -0.000426 -0.000416 0.004158 0.002585 -0.003550 0.000420 0.004471 -0.003620 0.003085 0.003264 -0.000156 -0.004606 -0.004107 0.004432 -0.004611 -0.000710 0.001589 -0.003400 0.005573 -0.003155 0.000070 0.001116 -0.002454 -0.000524 -0.000580 0.002027 0.001528 -0.000148 0.001620 -0.000287 0.000230 0.001649 -0.003116 0.003262 0.001979 0.004881 -0.002036 0.000247 0.003915 0.001223 0.003342 -0.000617 0.001616 0.004020 -0.002226 0.003044 0.005034 -0.004509 -0.003184 -0.003024 0.002072 -0.003794 0.005405 -0.000529 0.004026
sent_19 -0.002861 -0.000492 0.003670 0.001232 -0.000365 0.000411 0.000720 -0.000626 -0.003445 -0.003966 -0.003493 -0.004353 0.000878 0.003536 -0.001375 -0.004475 -0.000754 0.000905 -0.000733 0.003090 0.004578 0.003326 0.002156 -0.000279 0.001814 -0.005119 0.004557 -0.003381 0.003829 0.003310 0.003070 -0.002116 -0.002820 -0.000704 0.003633 -0.000583 0.004353 -0.001612 0.000887 0.004892 0.001352 -0.004758 -0.000560 -0.001491 0.000537 -0.002111 -0.003603 0.001773 0.001951 0.003529 -0.003654 0.003111 0.003080 0.001409 -0.002728 -0.002307 -0.000803 0.000135 -0.000229 -0.000680 0.003503 0.003910 0.003067 0.004087 0.000757 0.004447 0.000952 0.000963 -0.002102 0.001712 -0.004757 -0.003511 -0.003658 0.001489 -0.003095 -0.001660 -0.004560 -0.002760 0.004719 0.000326 -0.003439 0.000358 0.004617 0.003640 -0.000880 -0.001752 0.002629 -0.002711 -0.002477 -0.003982 0.003704 -0.000273 0.000509 0.002354 0.003263 -0.000728 -0.002908 0.003646 -0.004411 0.004428
sent_20 0.000953 0.003795 0.000904 -0.002652 -0.001847 0.000251 0.004701 -0.003307 0.000129 -0.001469 0.002809 0.003259 -0.000765 -0.002826 -0.004166 -0.003108 -0.002317 0.000805 0.003674 -0.003711 0.004442 0.001794 0.002101 0.004687 -0.000808 0.000359 0.001573 0.000297 -0.002165 -0.003866 -0.002120 0.002598 0.001256 0.003047 0.000109 -0.002671 0.001087 -0.001904 -0.004706 0.004220 -0.000953 -0.000748 0.002240 0.004216 -0.004335 -0.003058 -0.001886 -0.002576 -0.000043 0.003016 0.003546 0.000885 -0.002596 -0.003242 0.002552 -0.002891 0.000664 0.002493 -0.002557 -0.003145 -0.004393 -0.003598 0.003584 -0.003936 -0.002622 -0.004682 0.001901 -0.002608 -0.000667 -0.003875 -0.001275 -0.000716 -0.000313 -0.000551 -0.004083 0.002709 -0.003579 -0.000488 -0.002194 -0.001753 0.001557 0.000184 -0.003001 -0.000331 -0.001739 0.002093 -0.002743 0.003290 0.000268 -0.000016 -0.002596 -0.003064 -0.000236 0.004511 -0.003660 -0.002184 0.003206 0.001588 -0.002165 -0.001923
sent_21 -0.000547 0.001001 0.002351 0.003632 0.001816 -0.002419 0.004222 0.002876 -0.002003 -0.001909 0.003732 -0.003529 0.001461 -0.002322 0.003305 -0.001561 0.002285 -0.003367 -0.000084 0.003015 -0.000904 -0.003603 0.001532 0.002417 -0.002178 -0.000562 0.003691 0.003598 0.001911 0.001122 0.003303 0.004220 -0.005042 -0.001134 0.000723 0.002312 -0.004155 -0.000909 -0.002307 -0.000742 -0.000029 0.001461 -0.000258 0.001329 0.000896 -0.000676 -0.004831 -0.003074 -0.001629 -0.003738 0.001095 0.001169 0.000006 -0.001888 0.001673 -0.003015 -0.004794 0.002274 -0.000508 0.001962 -0.003145 -0.004377 -0.001258 0.002092 -0.003780 -0.003027 -0.000389 0.001383 0.002311 -0.003956 0.000948 -0.001192 0.001692 -0.003080 0.000341 -0.003433 -0.004860 -0.000258 -0.003025 0.001531 0.000332 0.002854 -0.000906 0.004808 0.000207 0.000004 0.002523 0.000603 -0.001470 -0.000009 -0.003284 -0.000944 -0.004763 -0.000414 -0.002039 0.000147 -0.004519 0.000666 -0.001875 0.000687
sent_22 0.002303 -0.000665 0.001561 -0.002715 0.004985 -0.002616 0.004394 -0.002813 0.000059 0.003201 0.002215 0.002050 -0.000686 0.002510 0.004260 -0.000551 0.000295 -0.004318 -0.001095 -0.000294 0.003866 -0.003743 0.002243 0.000408 0.001060 -0.004595 -0.003501 -0.002072 -0.004926 0.001652 0.003696 0.000401 0.000414 0.001206 -0.002065 -0.001294 0.000698 0.003091 -0.002906 -0.001752 0.002398 -0.001523 -0.004458 -0.003463 -0.003114 -0.000015 0.001260 0.003729 0.003949 -0.001934 0.002590 -0.002263 -0.001271 -0.002043 -0.000851 -0.002891 -0.001759 -0.003679 0.004652 0.000097 0.004164 0.002368 -0.000355 0.002415 0.001266 -0.001909 0.000278 0.002135 -0.001869 -0.004863 -0.002229 0.002935 0.004273 0.001302 -0.003743 0.002558 0.000267 0.002578 0.003563 0.004378 0.001499 0.003446 0.002354 0.002293 0.003530 0.004070 0.003996 -0.001041 -0.004111 0.003167 0.000337 0.000377 0.003204 -0.004699 0.003656 -0.004564 0.001912 0.000791 0.001324 -0.001264
sent_23 -0.002245 0.000094 0.003858 0.000653 0.001631 -0.000586 0.004721 0.002425 -0.001451 0.001535 0.000426 0.003841 -0.002249 -0.003919 -0.003087 -0.001130 0.003541 -0.002292 0.001264 0.001236 -0.000920 -0.004497 0.002448 -0.002043 -0.001015 -0.001228 0.001636 -0.004137 0.000499 -0.004846 0.004830 0.000984 -0.001159 -0.003533 0.001969 0.004058 -0.001819 0.002665 -0.002125 0.004572 0.002023 0.001250 0.004307 -0.002310 0.004236 0.001781 0.002714 0.000716 0.003339 0.001983 -0.003534 0.001125 -0.002207 0.004159 -0.003018 -0.002143 -0.004523 -0.000524 0.000576 0.000736 0.004054 -0.001526 -0.000525 0.003512 0.000768 0.001540 -0.002216 -0.000125 0.001210 -0.003666 -0.004671 -0.003866 -0.000225 -0.004760 0.001262 -0.004024 -0.002490 -0.000735 -0.003842 -0.002294 -0.004789 0.004850 0.001116 -0.001216 -0.004735 -0.001102 -0.000474 0.004310 -0.002215 0.001148 0.001652 -0.003140 0.000058 0.002865 -0.004034 0.001060 -0.004739 -0.004930 -0.004405 -0.000186
sent_24 0.004461 -0.000991 -0.004280 0.003597 0.000509 -0.001967 0.004831 0.004226 -0.002284 -0.002828 0.000912 0.003603 -0.001584 0.001004 -0.003138 -0.003174 0.002596 -0.003834 -0.002413 0.001901 -0.004749 -0.004994 -0.002191 -0.001728 -0.001375 0.002936 -0.004857 -0.001561 0.001226 -0.003495 0.003740 0.001442 -0.004037 -0.003063 0.002402 -0.000838 -0.000390 0.004132 -0.003731 0.004758 -0.004598 -0.004084 -0.003085 0.002839 -0.000495 0.001665 -0.003181 -0.003293 0.000401 0.002227 -0.000318 0.003682 0.001550 -0.002755 -0.002742 -0.001389 0.002719 0.004293 0.003748 -0.002163 -0.000465 0.001138 0.000406 -0.000922 -0.003737 0.002093 -0.004132 0.003933 0.003687 0.001911 -0.000380 0.002067 -0.000903 0.003003 0.002777 -0.003465 -0.001804 -0.001365 -0.001168 0.001064 -0.004697 0.001741 -0.002795 -0.000878 -0.000429 -0.001303 -0.001047 -0.003410 -0.004477 0.000724 0.000882 -0.003576 -0.002507 -0.002470 0.003586 -0.003692 0.000701 0.000580 -0.001370 -0.001589
sent_25 0.005176 0.000854 0.001842 0.000003 0.001760 0.001386 -0.003534 -0.001894 -0.000997 -0.003510 -0.001491 -0.002124 0.003925 -0.001333 -0.002754 -0.001522 0.001820 -0.005095 -0.003182 0.001777 0.002999 0.000387 0.003833 -0.003484 0.002297 0.003552 -0.004345 -0.002915 -0.000188 -0.000804 0.002252 -0.004099 -0.003394 0.001884 0.005303 0.003784 0.004384 -0.003562 -0.003866 -0.004020 0.000773 0.003195 -0.000449 0.002819 -0.003201 0.003692 -0.002654 -0.004046 -0.000204 -0.000088 0.004659 -0.003769 -0.002303 -0.004161 -0.000711 -0.002273 0.000215 -0.002029 0.004661 0.002717 0.003766 -0.003462 0.000528 -0.002210 0.003948 -0.005197 -0.003780 -0.001045 -0.001279 -0.002868 -0.004735 -0.003733 -0.001739 0.004526 -0.002834 0.002251 -0.002289 -0.004684 -0.004410 -0.002742 -0.000313 0.003303 0.002898 -0.001427 -0.000093 0.004201 0.003603 -0.001992 -0.005406 -0.004031 0.002110 -0.001780 -0.000146 -0.003358 0.004193 -0.000423 0.000715 -0.001474 0.000557 -0.004958
sent_26 -0.002073 -0.001330 -0.002045 -0.003984 0.000289 0.002988 0.004478 -0.000113 0.000700 -0.002013 -0.003592 -0.003545 0.002542 0.002464 -0.003294 -0.001030 0.000887 -0.003928 0.002857 0.001104 0.001338 0.001650 0.004934 0.000677 0.003695 -0.001073 0.001334 0.004084 0.001473 -0.001772 0.001252 -0.001349 -0.001774 0.000994 -0.003171 -0.000278 0.004568 -0.001136 -0.003309 -0.000185 0.003461 0.003219 0.003007 -0.004883 -0.002254 0.005000 -0.003597 0.000056 0.003101 -0.003903 0.001504 0.000067 -0.003126 0.003673 -0.003118 0.001372 0.002390 0.000378 0.001329 -0.003923 -0.001751 0.001052 -0.001194 0.001950 0.003590 -0.003242 0.003984 -0.001150 0.004314 0.001006 0.002657 0.000226 0.000347 -0.001758 -0.003581 -0.001163 -0.002835 -0.004696 -0.002137 -0.002862 0.003817 -0.003908 -0.002944 0.002009 0.004280 -0.002044 -0.004720 0.004548 0.001679 -0.001590 -0.000255 0.001165 -0.001163 0.003684 0.002560 0.004317 -0.001343 0.004597 0.000027 0.001419
sent_27 0.002074 0.003134 -0.001329 -0.000574 0.003104 0.001903 0.004513 0.004784 -0.003013 -0.002796 0.002350 0.002208 0.000890 0.003755 -0.002517 -0.001328 -0.000182 -0.001481 0.000367 0.001902 -0.003166 0.000175 0.004786 -0.001558 -0.004832 0.003461 0.000444 -0.004146 0.004212 -0.001384 0.004002 -0.001194 -0.004343 -0.002248 -0.001814 0.002660 -0.003442 -0.000907 0.003773 0.000433 -0.004435 -0.004358 0.002381 0.004643 0.002980 0.002746 0.001495 0.002711 -0.004909 -0.002085 0.001903 0.003598 0.001726 -0.003249 0.004262 0.003924 -0.004100 -0.002834 -0.002412 0.002411 0.003704 0.000644 -0.002905 -0.001100 -0.003801 0.004280 0.002542 -0.000110 -0.000172 -0.003943 -0.001444 -0.003703 0.002698 0.000615 -0.002742 -0.002505 -0.002449 -0.001630 -0.001385 -0.002188 0.001743 -0.004988 -0.002033 0.002383 0.004356 0.002540 -0.002688 -0.002594 -0.002863 0.003665 -0.002392 0.002433 -0.002339 -0.004726 0.001983 0.002428 -0.004262 -0.002055 0.004360 -0.003410
sent_28 -0.004211 0.001485 0.004229 -0.003410 0.000173 0.001744 -0.002966 -0.005156 0.003651 -0.004503 -0.002452 0.001463 -0.001891 -0.004614 0.000404 -0.001847 -0.003624 0.004830 -0.003459 0.002044 0.003904 0.003056 -0.003261 -0.002241 -0.004931 0.004057 0.003963 0.000951 -0.003801 -0.003369 0.000472 -0.002388 -0.002023 -0.003223 -0.002844 -0.000524 0.000197 0.000020 0.004753 -0.003493 0.002362 0.002884 0.000740 -0.000545 0.004153 0.003342 -0.004279 0.004822 -0.004805 0.000857 0.000316 0.003591 -0.001267 -0.004295 0.000683 -0.004841 -0.001428 0.004572 0.003517 -0.003649 0.003461 0.003426 0.004056 -0.002465 0.000003 0.003066 0.001422 0.000669 0.001608 -0.002924 -0.004856 0.002642 -0.001709 -0.001180 0.001451 0.001882 -0.002948 0.003552 -0.001292 0.001789 0.004714 0.001019 -0.001233 0.001050 0.000109 -0.000070 0.002407 0.004224 -0.000424 -0.003566 0.001070 -0.002462 -0.004167 0.002735 -0.001988 0.002504 -0.000071 -0.001700 -0.001487 -0.004663
sent_29 0.000289 0.003223 -0.004213 -0.003931 0.000312 0.001528 0.001990 -0.001878 -0.004568 -0.000840 -0.002728 -0.005045 0.001822 0.004537 -0.001072 -0.001948 0.000532 0.003556 0.002936 0.001847 -0.000705 0.001938 -0.002838 -0.002122 0.002754 0.004323 -0.003025 -0.002028 -0.004891 -0.000746 -0.002922 0.001370 0.002083 -0.003793 -0.004228 0.004104 -0.001131 0.000339 0.004646 0.002576 -0.001774 -0.004104 0.000386 -0.001671 -0.004788 0.002719 -0.001172 0.000697 0.002522 0.004456 0.001113 -0.001868 -0.003885 -0.004274 -0.001862 0.001597 0.001939 -0.002887 -0.004196 -0.001911 0.000504 0.002537 0.000289 -0.002175 0.001216 -0.002336 0.001507 0.003419 0.001445 0.000676 -0.001872 0.003787 0.004902 0.002782 0.000727 -0.003554 -0.001866 -0.001288 -0.002108 -0.000545 0.001101 -0.002893 -0.002550 -0.003868 -0.001917 -0.000090 -0.000098 0.004959 0.004816 -0.000636 0.004757 -0.002906 0.000448 -0.000479 0.004636 0.003373 -0.002890 -0.000670 -0.003336 0.000285
sent_30 0.002775 -0.004472 -0.003248 0.004691 0.004694 0.000352 0.001566 -0.002384 0.004473 0.001820 0.001679 -0.004979 0.003545 0.002923 0.001766 0.002443 -0.003531 0.002161 -0.004082 0.002019 -0.004971 0.002788 -0.000054 -0.002797 0.002316 -0.001922 0.003930 -0.003202 0.004400 0.004671 -0.002022 0.003525 0.003414 -0.000689 -0.001317 -0.002333 0.005078 -0.002484 0.004178 -0.000621 0.004333 0.003403 -0.003532 0.000589 0.001675 -0.000928 -0.004899 -0.001677 0.003372 -0.004374 -0.004085 0.002119 0.000238 -0.000084 -0.001312 0.000855 0.003412 -0.002231 0.003488 -0.000773 0.000050 0.002290 -0.002513 0.004234 0.001867 0.001141 -0.002238 0.001923 -0.002232 0.002992 -0.004750 -0.003281 0.000534 0.002226 -0.000083 0.003912 0.004762 -0.000183 0.002652 0.000100 0.001731 -0.002599 -0.003965 0.004870 0.003147 -0.002107 0.000937 -0.001108 -0.003306 -0.000690 -0.001949 -0.004809 -0.000986 0.004115 0.003250 0.000709 -0.001879 -0.002719 0.004528 0.000727
sent_31 -0.002099 -0.001759 0.005312 -0.001752 -0.003765 -0.002456 0.002779 0.001860 -0.001746 0.003188 -0.000316 -0.000314 -0.002757 0.004219 -0.002664 0.000384 0.004636 -0.003908 0.004778 0.001116 -0.002764 0.001010 0.004989 0.000830 0.002087 -0.005929 0.003898 -0.002683 -0.005501 0.004020 0.005015 0.003139 -0.004913 -0.004892 0.001914 -0.002266 0.004397 0.003825 0.003966 0.002570 0.004082 -0.002805 -0.005049 0.003894 -0.001505 -0.000893 0.002477 0.001775 0.000140 -0.001676 -0.004220 0.001197 -0.002993 0.002117 0.002072 -0.004121 0.004752 0.001644 -0.002633 -0.005316 0.000382 -0.000600 -0.000235 0.003025 0.003330 -0.005473 0.001887 -0.001948 0.004053 0.002897 -0.000603 0.001246 -0.002910 -0.003109 -0.002796 -0.001329 -0.003855 -0.000232 0.001886 -0.002431 -0.001225 -0.003072 0.001251 0.001332 0.001674 0.005144 -0.002347 0.000930 -0.002601 -0.002773 -0.001846 -0.003494 0.004918 0.002185 -0.002551 0.001860 -0.000816 0.005238 0.001084 0.003700
sent_32 -0.002469 -0.001501 -0.001542 -0.004318 -0.001137 0.001300 -0.000157 0.003514 -0.001923 -0.001244 -0.001662 0.000876 -0.003211 -0.003039 0.004904 -0.001362 0.000942 -0.004902 -0.003749 -0.003905 0.003039 -0.004200 -0.000257 -0.003874 -0.002129 0.003833 0.000949 0.004683 0.000755 -0.004858 -0.000552 -0.004929 -0.002193 -0.000374 0.000538 -0.002373 0.000117 -0.000616 0.000201 -0.002837 -0.003419 0.002523 -0.002031 0.000819 0.000391 0.004264 0.003658 -0.000531 -0.002777 0.000962 0.001528 0.001747 0.004047 0.002604 0.001133 0.000640 -0.002510 0.001542 0.003494 0.004763 0.004749 0.000466 -0.002273 -0.001530 0.005438 0.000318 0.003322 0.001394 0.000303 -0.001829 0.000145 -0.004935 0.003928 0.000861 -0.005118 0.003120 -0.003479 -0.004225 -0.000099 0.005021 -0.004387 -0.004339 0.004069 0.003168 0.003046 -0.000275 -0.000604 -0.001328 0.000726 0.002265 0.002601 0.001427 0.000847 -0.001512 -0.001562 -0.002248 -0.001815 0.001513 0.002685 0.000879
sent_33 -0.002513 -0.002636 0.002866 0.005166 -0.004722 -0.002332 0.003157 0.001958 -0.002916 0.000688 0.000682 0.002416 0.000078 -0.000671 -0.002068 -0.002806 -0.004126 0.001215 0.001683 0.001670 -0.004633 -0.001464 -0.003738 0.000403 0.004808 -0.000504 -0.001589 0.002822 0.004457 -0.001904 0.003045 0.005279 -0.003901 0.000133 0.003532 -0.001377 -0.000427 0.002602 -0.004397 -0.001220 0.000742 -0.002957 0.002971 0.002537 0.004860 0.000270 -0.003526 0.004721 0.003694 0.000313 0.003076 0.004097 0.002547 0.000479 0.001140 0.003435 0.001225 -0.003504 0.001881 0.000134 -0.001839 -0.004515 -0.002935 0.002341 0.004052 0.003015 -0.004096 -0.004302 0.002364 -0.002460 -0.002745 -0.004817 -0.003876 -0.003767 -0.003135 -0.000458 0.003197 0.003206 0.004267 0.000097 0.002149 0.000417 -0.004025 -0.004304 -0.002324 0.005647 0.002092 -0.002475 0.001760 0.002288 -0.004408 -0.001144 0.003101 -0.004389 0.004491 0.003847 0.003863 -0.003459 0.001207 0.001998
sent_34 0.004250 -0.003449 0.003292 -0.001927 0.001144 0.002418 0.002821 -0.002324 0.000273 -0.001942 0.004889 0.003489 -0.000311 0.004179 0.001981 0.003793 -0.003524 -0.002353 -0.004072 -0.002079 -0.000932 0.000582 -0.000222 0.002401 -0.002137 -0.003931 -0.001679 -0.000765 -0.001260 0.004660 -0.002245 -0.001274 -0.002809 -0.001375 -0.000534 0.000128 -0.001786 -0.002668 0.001676 0.004630 -0.003903 -0.003733 -0.004315 0.001787 -0.002637 0.001075 -0.002620 0.003538 -0.001439 0.001374 -0.003907 -0.001330 -0.002132 0.001163 0.002174 0.003253 -0.003266 0.002103 0.002297 0.000046 0.001765 -0.003708 -0.003862 -0.000112 0.001985 -0.003775 -0.001184 -0.000230 0.004216 -0.005048 0.002849 0.005195 -0.002376 0.004082 -0.001755 0.003059 -0.000380 0.000997 -0.002496 0.002698 -0.003302 0.001287 0.000326 0.003362 -0.000081 0.003929 -0.000963 -0.001991 0.002638 -0.000207 0.000119 0.001336 0.003307 0.000670 -0.000411 -0.003872 0.002303 0.004492 -0.003444 -0.000295
sent_35 0.005380 0.001251 0.001333 -0.003540 0.000595 0.002425 -0.003469 0.004383 -0.004179 0.002047 -0.002797 -0.003065 -0.001271 -0.001386 -0.000629 -0.003677 0.002081 0.001871 0.003114 0.001767 -0.001200 -0.004766 -0.003412 -0.001069 -0.003853 0.000298 0.003110 0.001525 -0.004808 -0.003588 -0.001140 0.005805 -0.001882 0.001687 0.003314 0.000094 -0.000803 -0.002626 0.003842 -0.003928 -0.002214 -0.003062 0.002680 0.002474 -0.001939 -0.003382 0.004934 0.003650 -0.003478 0.002969 0.000626 0.000418 0.001430 -0.005122 -0.001227 -0.003923 0.001871 -0.002233 0.000040 -0.002639 0.003464 -0.003723 -0.002878 0.002440 0.003500 0.000440 0.002196 -0.004391 -0.003429 -0.005223 -0.001525 0.005043 -0.004670 -0.001051 -0.004346 0.000793 -0.003148 0.001651 -0.002689 0.004755 -0.002676 -0.000150 -0.001507 0.002862 0.000441 0.005933 -0.003343 -0.000399 0.002015 0.006184 0.001551 -0.002277 0.002824 -0.004439 0.004269 0.002175 0.001454 0.001137 0.005615 -0.005092
sent_36 -0.004840 -0.002300 0.000137 0.000472 -0.001246 -0.002012 -0.002943 0.002926 -0.002037 0.000012 0.003034 0.001207 -0.000771 -0.003131 -0.001152 -0.000260 0.004885 -0.002294 -0.003341 -0.002894 -0.002724 -0.004488 -0.001286 -0.002092 0.003943 0.002587 -0.004050 0.003371 -0.004017 0.002369 0.000759 -0.004032 0.004104 0.003666 0.003675 -0.001501 -0.002551 0.004994 0.003083 -0.004521 -0.001131 0.002939 0.000098 -0.002518 0.002919 -0.002420 -0.004811 -0.002515 0.005099 0.001468 -0.002907 0.002012 0.001878 0.001356 -0.004257 -0.002594 0.003637 0.002177 -0.003273 -0.002088 0.000664 0.003390 -0.003117 -0.003787 -0.001171 0.004007 -0.002396 -0.003926 -0.004509 -0.001653 -0.004777 0.000871 0.001747 -0.000418 0.002504 0.000015 0.002053 -0.002718 0.002523 0.000228 0.002132 -0.000249 0.000214 -0.004566 -0.000057 -0.003245 -0.003498 -0.000656 0.000596 -0.001342 -0.003382 0.002538 0.004722 0.002321 -0.004023 0.003267 -0.004275 -0.000441 0.004417 -0.002334
sent_37 -0.003621 0.002742 0.004366 -0.001663 -0.002624 -0.003104 0.004652 0.000708 0.003440 -0.001852 -0.004507 -0.000363 -0.002790 0.000275 0.000322 -0.002175 -0.001946 -0.004902 -0.000789 -0.001831 0.001342 0.003366 -0.000026 -0.004158 0.004394 0.002899 -0.001503 -0.001822 0.004251 -0.001093 0.001413 0.004946 -0.004613 -0.001944 -0.002513 0.004102 0.000634 -0.004426 0.002445 0.001908 0.001718 0.004395 0.003553 0.002529 -0.002760 -0.003632 -0.002641 -0.002815 0.000824 0.001526 0.000193 -0.004315 -0.001391 0.004617 0.002000 -0.001323 0.001690 -0.002519 -0.004176 0.000225 -0.002025 -0.000065 0.003918 0.001722 0.002279 -0.004070 -0.000207 -0.000928 0.001390 -0.002245 -0.001330 0.004840 -0.003826 -0.003026 -0.002542 0.001950 0.002159 0.002820 -0.001097 0.003737 0.002023 0.002346 0.003376 0.001291 -0.000729 -0.004385 0.001012 0.000612 0.000895 -0.001576 0.000538 -0.003165 0.001563 -0.004318 0.003953 -0.002979 -0.001971 0.004011 0.003971 0.003381
sent_38 -0.001700 0.004107 0.002749 0.001612 0.004021 0.002863 -0.000750 -0.001793 -0.001164 -0.004345 -0.001413 -0.001431 0.003729 0.003947 0.004577 -0.001775 0.001924 0.001269 -0.002570 0.003653 -0.002779 0.002369 -0.003523 -0.003912 0.002249 0.000155 -0.000641 0.002717 -0.001480 0.003623 0.004645 0.004833 -0.002193 -0.000895 0.002364 0.003852 0.002229 0.002587 0.003790 -0.001298 0.000502 0.000247 0.001377 0.003942 0.001002 0.004680 0.002404 -0.000756 0.000881 0.004172 0.001118 0.002177 0.001619 -0.001651 -0.002944 -0.000942 -0.003533 0.003172 0.002135 -0.001027 -0.003274 0.003827 0.001328 0.005071 -0.003994 -0.002611 -0.004156 0.002443 -0.003433 0.003742 -0.000146 0.000277 -0.004569 0.001136 -0.002685 -0.002867 0.003971 0.003864 -0.004908 0.003429 0.004066 0.000253 0.001637 0.002698 0.001872 -0.000239 0.000766 0.000748 0.003358 -0.002494 0.002576 0.003192 0.003010 0.003074 0.003386 -0.000887 0.001207 0.002653 0.002749 0.004615
sent_39 0.005242 0.000933 -0.000084 0.003517 -0.002625 0.002978 -0.003100 0.000742 0.000375 -0.000492 0.003637 0.000891 0.000407 -0.000670 -0.004398 -0.001944 -0.004259 0.000042 0.001422 0.002594 0.001736 -0.003709 0.002693 0.000524 -0.003827 -0.005313 -0.002750 0.001629 0.003713 0.005294 0.002875 -0.001816 0.001221 -0.002706 0.002911 -0.003820 0.002772 0.003542 -0.000387 -0.004021 -0.000558 0.002967 -0.003887 -0.004487 0.002460 0.000701 -0.004140 0.005027 0.001122 0.000306 0.002898 0.004363 -0.004499 -0.001779 -0.002465 -0.000492 -0.004003 -0.004771 -0.001731 0.003625 0.004828 0.002812 -0.005220 0.002886 -0.004701 -0.003653 -0.004830 -0.003441 0.001586 0.001471 -0.001807 0.002496 0.003463 -0.003642 -0.003965 -0.001392 -0.000934 -0.002289 0.002859 -0.001115 0.003180 0.004620 0.000508 -0.000691 -0.003856 -0.001353 0.003989 -0.002678 0.000975 0.000383 -0.004246 0.004594 -0.004423 0.001588 0.005242 0.001607 -0.001245 -0.003645 0.001241 0.002287
sent_40 -0.001210 0.001898 0.000823 -0.004386 0.004317 -0.001083 -0.001003 0.003259 -0.000441 -0.000338 0.001244 -0.002703 0.000625 0.001921 0.000240 0.001936 0.000941 0.003197 0.003785 -0.004204 -0.002136 -0.005144 -0.002694 0.002321 -0.004190 -0.003861 0.002434 -0.000823 -0.002278 0.001621 0.003886 -0.004372 0.001924 0.001522 0.004026 -0.003177 0.002260 -0.003858 -0.004718 0.001956 -0.004654 -0.004844 -0.004992 -0.000476 0.002708 0.004944 -0.002396 0.003232 0.003258 0.003614 -0.002110 -0.003430 0.002823 0.000482 -0.000885 -0.004439 -0.004939 -0.002290 -0.002296 -0.000355 0.004662 -0.000453 -0.002359 0.003938 -0.001707 0.003921 0.003514 0.001391 0.002298 -0.003707 0.000653 -0.001611 0.000001 -0.002838 0.004230 -0.000803 -0.000183 0.002294 -0.003639 0.000578 0.003185 0.002249 -0.001388 0.002021 0.004496 0.004632 0.002575 -0.002451 -0.001556 0.001149 -0.001075 -0.000260 0.003266 -0.004111 0.005255 0.001667 0.003896 0.003098 -0.000238 0.004365
