41 100
sent_0 -0.000754 0.002498 -0.004886 -0.001865 -0.003504 -0.003982 -0.003027 -0.001680 -0.001280 0.000501 -0.000938 0.001940 -0.002757 0.003936 -0.004912 0.001615 -0.000817 0.000496 -0.003562 -0.003177 0.003204 0.004284 -0.001820 0.002030 0.003818 0.003638 -0.004292 -0.004767 -0.003414 0.003918 -0.004011 -0.000616 0.004674 0.000259 0.002224 -0.002074 0.002173 0.003350 -0.004940 0.002531 0.005090 0.002237 -0.002373 0.002823 -0.003954 -0.000573 0.004322 -0.001779 -0.001938 -0.003738 -0.005001 0.001965 -0.002894 -0.002370 -0.000092 -0.004472 0.000640 -0.003799 0.000897 0.001863 -0.003883 -0.000600 0.001791 -0.000616 -0.004453 0.000162 0.001620 0.000067 0.004319 0.000633 0.003865 -0.003571 -0.003540 0.003016 -0.000884 -0.003287 0.004314 -0.001504 0.002537 0.002512 0.003931 0.001637 0.002727 -0.001483 -0.002220 0.004399 -0.000610 0.004665 0.001402 0.001542 -0.003767 0.004614 -0.000298 0.000772 -0.000642 -0.002822 0.004121 0.000985 -0.004763 0.001174
sent_1 -0.001711 0.000151 0.003788 -0.001501 0.004083 0.001206 -0.004826 0.004329 0.002045 0.004945 -0.003245 -0.003622 0.004287 0.001895 -0.004179 0.002581 0.002523 0.004136 0.002126 -0.003669 -0.004822 -0.004667 -0.004745 -0.002602 0.003550 0.000496 0.000463 0.003438 -0.003740 -0.002283 0.000895 0.004672 0.000540 -0.004751 0.002862 -0.002529 0.002895 -0.001081 0.003622 0.002399 0.000482 -0.003521 -0.004393 -0.003838 -0.004546 -0.003880 -0.002787 0.002005 0.000535 -0.004919 -0.004142 0.004535 0.000712 -0.003021 -0.002467 0.002426 -0.002913 0.000890 0.004688 0.003565 -0.002605 -0.000172 0.001238 0.003156 -0.003326 -0.004719 -0.004255 -0.000015 0.001074 0.000733 -0.001784 0.004819 0.000806 -0.001222 0.000451 0.002428 0.001683 -0.002281 -0.004315 -0.001337 0.001241 -0.003033 0.002468 -0.004352 -0.002369 0.002896 -0.003055 0.001328 0.000295 0.004151 -0.002481 -0.004384 0.002336 0.002636 0.004039 0.004316 -0.004757 -0.002781 0.001165 0.004398
sent_2 0.004650 0.000746 0.004255 0.001481 -0.001000 -0.000060 0.001067 0.000386 0.004031 0.004309 -0.001152 0.004806 -0.003059 -0.003602 -0.003717 -0.000131 -0.004825 0.004206 0.003273 -0.004939 -0.002994 -0.002008 -0.003621 0.003099 -0.001440 0.004113 0.000537 0.003580 0.003224 0.004311 -0.000296 0.000589 0.003018 -0.002273 0.000171 0.000781 -0.004647 0.001010 -0.000823 0.003179 -0.001670 0.003696 0.000454 -0.003207 0.002857 0.001102 -0.004218 -0.000593 0.002025 0.003980 -0.005107 0.004942 -0.001244 0.004633 0.001130 0.003214 0.000719 0.001025 -0.002029 0.000828 0.002604 0.003730 0.002401 0.002279 0.003732 -0.001911 0.001743 -0.000412 -0.001273 -0.001123 -0.001220 -0.001802 0.001254 -0.000715 0.004805 0.001756 -0.002958 -0.000742 -0.001395 0.003316 0.003884 0.004376 0.001872 -0.002283 -0.002412 0.004019 0.000388 0.002990 0.000537 0.002623 0.000127 0.002906 0.000800 -0.000435 -0.001269 -0.004540 -0.001069 -0.003967 0.005015 -0.003151
sent_3 0.003228 0.004187 0.002088 0.001318 -0.003361 -0.000199 -0.001227 -0.002873 0.000731 -0.001720 0.003875 0.004063 -0.001933 -0.003700 -0.003359 -0.000038 0.002097 -0.003019 -0.002494 0.003283 -0.000528 0.000169 -0.002490 -0.003652 0.000001 -0.000664 -0.003567 0.000815 0.000495 0.001509 -0.003686 0.002856 -0.002897 -0.000031 0.003185 -0.004699 -0.001805 0.003866 0.003019 0.000540 0.003530 0.004288 0.002911 0.003488 -0.003539 0.001509 0.002493 0.001377 0.003343 -0.004544 0.002326 0.002703 -0.002652 -0.002785 0.001044 -0.001350 0.002935 -0.001075 0.002536 0.004780 -0.001236 -0.003037 0.003595 0.001082 0.005072 0.001218 0.004527 0.000476 -0.000043 -0.003683 -0.001958 -0.004543 -0.003252 0.002135 -0.004208 -0.001123 0.003563 0.001976 0.001979 -0.002397 -0.000506 0.001258 0.005314 -0.003278 -0.002189 -0.001634 0.002654 -0.000617 -0.004710 0.000957 -0.002496 0.003083 -0.001474 -0.004817 0.001672 0.002905 -0.000967 0.002666 0.000849 0.000236
sent_4 0.004622 0.003102 -0.004780 0.002041 -0.000157 0.004275 -0.002605 -0.002472 -0.004083 -0.000575 -0.003874 0.001411 0.003067 0.002088 0.002777 -0.001590 0.003392 -0.000938 0.003158 0.001273 -0.003527 -0.004379 -0.004890 -0.004340 -0.000425 -0.003924 -0.004819 0.002472 -0.001104 0.002446 -0.000445 -0.000537 -0.000376 -0.000298 0.002997 -0.000926 0.003879 -0.004456 0.002672 -0.003622 0.001142 -0.004849 0.000183 -0.005214 0.004457 0.004172 0.003024 0.004175 -0.003454 -0.003541 -0.003140 0.001228 0.004044 0.004692 0.002027 0.002130 0.004194 -0.001057 -0.002417 -0.003028 -0.003481 0.003112 -0.003589 -0.002239 0.003344 -0.001894 0.004844 -0.002161 0.000471 -0.002039 0.004025 -0.001320 -0.000625 0.000180 0.004308 -0.004617 0.002205 0.004161 -0.004612 0.000520 -0.001804 0.003702 0.000695 0.001869 -0.000453 0.001375 -0.001964 -0.004990 0.000655 -0.001696 0.000135 0.004149 -0.000529 -0.002816 -0.001125 0.004180 0.004477 0.003316 0.004320 -0.002748
sent_5 -0.004031 -0.002463 -0.001746 -0.003154 0.001135 -0.000771 0.003198 -0.003261 0.001720 -0.002468 0.000615 -0.001388 -0.004215 -0.002552 0.001459 -0.000197 0.000160 -0.003450 0.000715 0.004822 0.003410 0.000587 0.004855 0.004096 0.001068 -0.005000 -0.004275 -0.004546 -0.000663 -0.000989 0.004807 -0.003178 0.004809 0.002550 0.003593 0.001033 0.002023 -0.000203 -0.005003 -0.001380 0.000134 0.002018 -0.000599 -0.000424 -0.003639 -0.004948 0.002850 -0.001537 0.005078 -0.002942 -0.001794 0.000467 0.002564 -0.000426 -0.003692 -0.001919 -0.000066 0.001477 0.002781 -0.003808 -0.004721 0.000385 0.002915 -0.004573 0.001729 0.001692 -0.000501 0.004135 0.001346 -0.005192 -0.000369 0.003649 0.003332 0.001464 0.001869 0.000788 -0.002212 0.000565 0.001834 -0.001158 0.003679 -0.002633 0.002703 -0.002066 0.002805 -0.000220 0.003185 -0.001446 -0.003093 0.003002 -0.001897 0.002525 0.002575 -0.002804 -0.002560 -0.003215 -0.003496 -0.000933 -0.004553 -0.003828
sent_6 0.001845 0.003117 -0.004115 -0.002604 -0.002872 0.004245 0.002133 0.000481 -0.002116 0.003413 -0.000718 0.004334 0.002200 -0.000135 -0.003796 0.004643 -0.003423 -0.003118 -0.000681 -0.001026 -0.003386 0.002061 -0.003065 0.001454 0.002602 -0.003077 0.000851 0.002360 0.001253 0.001130 -0.001990 0.002409 0.004472 -0.000835 0.002997 -0.004560 0.003475 -0.003041 -0.001157 -0.001932 -0.004102 0.003884 -0.001492 0.000303 -0.000045 -0.003691 -0.002786 -0.004108 0.000223 -0.002489 -0.001510 -0.003798 0.002853 -0.003994 0.004902 -0.003249 0.000698 -0.004721 0.002921 -0.003159 0.000357 0.002519 -0.003602 0.000715 -0.002788 0.002496 0.002225 -0.003206 0.003542 -0.004925 0.003442 0.000619 -0.000942 0.002562 0.002237 0.004856 -0.002197 -0.004990 0.004431 0.003792 0.002338 0.000380 0.002225 0.002807 -0.001202 0.003010 0.002564 0.001106 -0.001095 0.002168 -0.004979 0.002867 0.004029 -0.002641 -0.003590 -0.002938 -0.001889 0.003994 0.000567 -0.002115
sent_7 -0.003586 -0.002015 0.001169 -0.001728 -0.000403 -0.000527 0.003283 -0.000772 -0.001646 0.001791 -0.002833 -0.000289 -0.001780 0.001329 0.003720 -0.000580 0.002835 -0.000492 0.001568 -0.003728 -0.000590 0.003985 0.001085 0.002688 0.000092 -0.000128 0.003359 -0.004387 0.000666 0.004518 0.000201 -0.003014 0.003510 -0.002529 0.002121 0.000306 0.004605 0.001249 0.003336 -0.004888 0.004970 -0.004323 -0.001878 0.004452 -0.004917 0.003208 0.003695 -0.000510 -0.002373 0.002976 -0.000288 -0.003579 0.004285 0.003947 -0.000062 0.003546 -0.000855 0.001743 -0.000990 0.000020 -0.003092 0.004719 -0.002120 -0.003860 -0.003562 -0.004918 0.002167 0.000641 0.002917 -0.000004 0.002858 0.001973 0.002785 -0.000940 0.001517 -0.003204 -0.001764 -0.003290 -0.000874 -0.002480 -0.000888 0.004885 -0.001722 0.004845 0.001381 -0.001079 0.003606 0.001203 -0.002543 0.003031 -0.000667 -0.001356 -0.001658 0.001971 -0.002220 0.003020 -0.002019 0.000542 -0.000069 0.003583
sent_8 0.004190 -0.002934 0.000997 0.004168 -0.000470 0.004464 -0.002215 0.000972 0.001274 -0.002751 -0.004801 -0.000603 0.004744 -0.001460 0.002791 -0.003600 -0.001734 -0.003827 0.002165 0.001956 0.002072 -0.002829 0.002042 -0.002621 -0.000726 -0.001629 -0.001871 -0.004498 0.000935 0.002430 0.001199 0.001636 -0.003314 -0.003379 0.000338 0.003463 -0.003099 -0.000635 -0.001186 0.000211 -0.003608 -0.001795 -0.002754 0.003568 0.003224 -0.000641 0.001316 -0.003489 0.000281 -0.002334 0.003590 0.001927 0.001195 -0.003912 0.000125 0.004782 0.004549 0.001140 -0.003389 0.000940 0.000720 -0.000164 -0.000864 0.001322 0.003475 0.002250 0.000761 0.004152 -0.004556 0.004567 -0.004742 -0.002790 -0.000810 -0.003854 0.001403 -0.004545 -0.002163 -0.004384 0.002157 0.002103 -0.001092 -0.002884 0.002645 -0.001593 0.003156 0.000431 0.000282 -0.004819 0.001390 -0.001244 -0.002722 -0.000221 -0.001301 -0.000431 0.005078 -0.001662 0.003113 0.000978 0.004217 -0.001514
sent_9 -0.002258 0.004552 -0.004359 0.004879 0.000721 -0.001084 0.005214 -0.004676 -0.000184 -0.004499 0.000522 -0.002946 0.001761 0.005109 0.003590 -0.000689 0.002015 0.002466 -0.000071 0.000064 -0.003132 -0.002214 -0.003562 0.002398 -0.000207 -0.001034 0.003485 -0.000077 -0.001150 -0.002071 -0.004249 -0.000493 -0.004784 -0.002314 0.000460 0.004516 -0.003804 0.001885 -0.000390 0.002983 -0.003445 -0.004525 -0.001501 0.002805 -0.002896 0.002726 -0.001662 -0.002461 -0.004428 -0.001172 -0.001499 0.001899 -0.004502 -0.003756 -0.004871 -0.003896 0.001545 -0.001563 -0.001800 0.000452 0.005534 0.003827 0.001689 0.004836 -0.004283 -0.004587 -0.000430 -0.001471 0.004140 -0.000451 -0.000120 0.004110 -0.000384 0.003650 -0.002195 -0.002166 -0.001655 0.000582 -0.002593 0.002455 -0.003522 -0.003471 0.004229 -0.002766 -0.000938 0.001607 0.000453 -0.004415 0.003393 0.005253 0.003259 -0.001921 0.000700 -0.001826 0.001249 0.004235 -0.001535 0.002036 -0.001147 0.002655
sent_10 -0.001633 0.003888 0.002721 0.002799 -0.000430 -0.002613 -0.004695 -0.001654 -0.004800 0.001853 0.001601 -0.000689 0.002830 0.000242 -0.004647 -0.003766 -0.003072 -0.001678 -0.004358 0.001042 0.000225 0.001028 -0.000512 0.003470 -0.000477 -0.004927 0.003609 0.001471 0.003170 0.004646 -0.004443 -0.002490 -0.004324 -0.000804 0.003741 -0.004224 -0.000181 -0.003837 0.002629 0.003336 -0.004570 -0.000258 -0.002636 0.004761 0.004601 0.001084 0.004849 -0.001533 0.004032 -0.000694 -0.002576 0.004487 0.001819 -0.004302 0.003820 0.002225 0.001022 0.002245 -0.002537 0.000797 0.003002 -0.004381 -0.003749 0.003514 0.001200 0.000283 -0.002546 -0.002071 0.003443 -0.000692 -0.004513 0.003945 -0.002977 0.003089 0.003964 -0.000245 0.000929 0.000048 0.001236 0.003505 -0.002113 0.003864 0.000728 -0.003884 -0.002602 0.001095 -0.002625 -0.003706 -0.003373 0.003475 0.001017 0.004743 -0.001677 0.001110 0.001115 0.001120 -0.004338 0.002692 0.004615 0.000317
sent_11 -0.002955 0.002406 -0.004857 -0.001771 0.004140 0.001022 0.003448 0.001149 0.003296 0.003781 -0.001836 -0.003680 0.002202 -0.000738 -0.003658 0.000823 -0.004626 -0.003099 0.002982 -0.004838 -0.001998 -0.004759 0.004946 0.000668 -0.002056 0.004371 -0.000064 -0.000437 0.000839 -0.002288 -0.001859 -0.001242 -0.002584 0.000806 0.001933 -0.004233 0.004659 0.002562 0.003131 0.002453 -0.004208 -0.000199 -0.000550 0.001788 -0.000506 0.002056 0.001784 0.001892 0.001194 -0.003595 0.002748 0.002764 0.004102 -0.002622 -0.003156 -0.000993 -0.001683 0.003246 0.001162 0.002644 -0.000854 -0.004101 -0.003780 -0.001333 -0.002958 0.003281 0.001102 0.001990 -0.000193 -0.004067 -0.002737 -0.000492 -0.003038 -0.004814 0.002280 0.002107 -0.001721 0.003331 -0.000706 0.003540 0.001519 0.000735 -0.002970 0.000247 0.003915 -0.002024 0.003682 0.004034 -0.001671 0.001704 0.003833 -0.004241 0.003669 -0.003070 0.003493 0.001736 -0.001516 -0.003518 0.001360 0.003422
sent_12 0.003229 0.001304 0.004478 0.000729 -0.002976 -0.000725 -0.001673 0.004871 -0.001223 0.004989 0.000176 -0.003208 -0.004294 -0.001231 -0.003726 0.001313 -0.000824 0.004844 0.004314 -0.003532 -0.001085 -0.000286 0.000495 0.002728 -0.000037 -0.000795 -0.002460 0.004166 -0.004866 0.003318 -0.003079 0.001803 -0.001403 0.004743 -0.003722 -0.003224 0.004025 0.000832 -0.001813 -0.005003 -0.002608 -0.003612 -0.003021 0.003861 0.003593 0.002034 -0.000320 0.003307 -0.000080 -0.001492 -0.002271 0.004206 -0.001021 -0.000008 -0.002384 0.003739 -0.001137 -0.001998 0.002279 -0.003039 -0.003946 0.003328 0.002470 0.000834 -0.002607 0.001201 0.001543 -0.001717 -0.004218 0.003674 -0.000320 0.002594 -0.002492 0.001007 -0.000783 -0.001238 -0.003687 -0.002509 -0.004193 -0.001979 0.002405 0.001218 0.001742 -0.004824 0.001686 0.000040 -0.002678 -0.003230 -0.003163 0.003366 0.004705 0.004184 -0.001548 0.002758 0.000386 0.003245 -0.000148 0.000922 0.002775 -0.003948
sent_13 0.000370 -0.001340 0.001043 0.004588 -0.001072 -0.001070 0.002906 0.001451 -0.001061 0.001890 -0.000960 -0.003639 -0.000494 -0.001656 -0.002820 0.004258 0.001896 0.000988 0.002467 0.000420 0.002005 0.004306 0.003626 -0.003326 -0.002369 -0.004284 0.004787 -0.002636 0.001606 -0.004104 -0.002892 0.000028 -0.003950 -0.001111 0.000380 -0.001608 0.000559 0.000368 -0.001094 0.001963 0.001785 0.001873 0.000615 -0.001419 0.001131 0.004357 0.000969 0.004796 -0.000590 0.002396 -0.004624 0.002647 0.000183 -0.004947 -0.002228 0.000348 0.002680 -0.004469 0.000491 0.003010 0.001496 0.004314 -0.004253 -0.002232 0.004192 0.002650 0.000997 0.003330 0.003960 0.004727 0.004985 -0.003604 -0.004295 -0.004265 -0.004853 0.004718 -0.004052 0.003417 0.001852 -0.000124 -0.001533 -0.001464 -0.002462 0.004110 0.002256 -0.004741 -0.000385 -0.002187 -0.004710 0.003847 0.002710 -0.001703 0.002966 -0.001754 -0.001921 0.004281 0.004769 0.000236 0.004519 0.003880
sent_14 0.000717 -0.000480 0.002703 0.000108 0.001186 0.005318 0.002807 -0.001899 -0.005148 -0.002790 -0.000073 -0.000374 0.003775 0.004688 -0.003877 0.002907 0.004286 0.004081 -0.004557 -0.004914 -0.004224 -0.003165 -0.004068 -0.001653 -0.001238 0.003509 -0.000895 -0.002760 -0.000505 0.002302 -0.003755 0.003110 0.003691 0.003133 0.004871 -0.002050 0.000243 -0.004087 -0.003404 0.005107 -0.001939 0.003198 0.002986 0.004468 -0.003107 0.003639 0.002120 -0.002237 -0.000721 -0.003690 -0.001034 -0.003295 -0.003450 -0.003285 0.002252 0.000870 0.003450 -0.003317 0.001383 -0.005301 0.000461 0.004281 0.004284 -0.003825 -0.002429 -0.003344 -0.004707 -0.005050 -0.000671 -0.005171 -0.003140 0.001750 -0.001954 -0.002423 0.001534 -0.001181 0.002021 -0.000328 0.001622 -0.000390 -0.001729 -0.002394 0.005050 0.002958 0.004702 -0.001481 0.004519 0.004294 -0.002828 -0.001188 0.000711 -0.002437 -0.000326 -0.003098 0.005518 -0.000912 0.004949 0.002425 0.000702 0.004642
sent_15 -0.003822 0.001500 0.001183 -0.000701 -0.004269 -0.000483 -0.000013 0.002851 -0.002201 -0.000962 -0.002515 0.001638 0.004814 -0.002946 0.003253 -0.002376 -0.004512 -0.003358 0.004216 0.003817 -0.002375 0.004485 0.003209 -0.000421 -0.000476 0.001420 -0.003074 -0.004644 -0.002100 -0.005230 0.001456 0.000279 -0.001935 0.002957 -0.003765 -0.002314 -0.002332 -0.003041 -0.004105 0.003802 -0.004438 0.002058 -0.003715 -0.005337 0.000655 0.004266 0.003456 -0.001669 -0.004959 0.003223 0.002784 0.003588 0.001675 0.002935 0.003669 -0.000707 0.000677 0.000080 0.001763 0.002002 0.000690 0.003368 -0.000005 0.003152 -0.002196 -0.003184 0.004568 0.002306 -0.001970 0.000745 0.004854 -0.004016 -0.004156 0.001372 -0.002736 0.002958 0.000669 0.002159 -0.004077 -0.003923 0.001123 -0.000984 -0.004240 -0.001332 0.001669 -0.003300 0.003960 0.004425 0.004682 0.002453 -0.000645 0.002257 -0.001719 -0.002115 0.000923 0.000960 0.003780 -0.002798 0.002707 0.004330
sent_16 -0.004790 0.000344 0.001566 0.004087 -0.002921 0.003503 -0.000801 0.003502 -0.004844 -0.003939 0.004658 0.001206 -0.000270 -0.002800 0.001407 -0.004574 -0.002060 -0.001875 0.000894 0.001278 0.003661 0.003056 0.001366 0.001054 -0.001205 0.004223 -0.003632 0.003652 -0.001899 0.000351 0.001593 -0.002348 -0.003613 -0.000139 0.003145 0.002225 -0.004279 0.004278 -0.000735 0.004859 0.000268 -0.004266 -0.003452 0.003024 0.002544 0.004196 -0.001322 0.000577 0.001826 0.000981 -0.003243 -0.000458 -0.003015 0.002911 0.004507 -0.004458 0.002362 -0.002491 0.001003 -0.002380 0.002929 -0.000592 -0.002445 0.004999 0.005014 0.000900 -0.003350 0.004414 0.002440 0.002261 -0.003420 0.003621 -0.002394 0.001218 0.002500 0.002798 -0.001011 0.003091 0.004209 0.001996 -0.004222 -0.003291 -0.003301 -0.003679 -0.003485 0.003690 -0.004408 -0.002963 0.003556 0.005812 0.001505 0.004877 -0.003717 0.003986 -0.000999 0.002319 0.003596 0.003661 0.000490 0.004070
sent_17 -0.002578 0.004466 0.000861 0.004632 -0.004492 0.001893 0.000879 -0.000272 -0.002225 -0.001591 -0.002360 -0.002887 0.002840 0.000196 -0.004163 0.002921 0.000299 0.002477 0.000030 -0.001037 0.004625 -0.004637 0.004089 0.004423 -0.001155 -0.002762 0.001383 -0.002993 0.003169 -0.002673 -0.002238 0.003936 0.003929 0.000502 0.003505 -0.001480 0.004926 -0.000659 -0.001914 -0.004506 0.004721 -0.000213 0.002415 0.001097 0.002121 -0.004365 0.004063 0.004245 0.000424 0.004706 -0.002282 0.000943 -0.000928 0.001205 -0.002150 0.002953 -0.004246 -0.004402 -0.004482 -0.003329 -0.000871 0.004446 -0.003861 0.001280 0.000214 -0.001447 -0.003000 -0.002868 -0.004189 0.001909 0.001744 -0.000432 0.002189 -0.003672 0.004316 0.003660 0.001613 -0.000816 -0.000944 -0.000089 0.004254 0.003656 -0.000344 0.000574 0.003645 0.004270 0.001419 0.002471 -0.001549 0.004167 0.003489 0.000371 0.003895 0.003260 0.002924 -0.003628 0.000252 0.003757 0.002624 -0.000836
sent_18 0.004686 -0.002463 -0.001832 0.004394 0.003126 0.003894 -0.004885 -0.001265 -0.002560 -0.002004 0.002398 0.002202 -0.000468 -0.001258 0.000875 0.000430 0.000539 0.001241 -0.001072 0.002718 -0.002614 0.001696 0.004439 -0.005003 0.002269 -0.003829 0.000512 0.001402 -0.002531 0.004072 0.001176 -0.002792 0.002713 -0.003903 0.000509 -0.004052 0.000845 -0.002479 0.001641 0.002154 0.000280 0.001616 0.003203 0.002879 0.001098 -0.000452 -0.001026 0.003769 0.001917 -0.003149 0.000584 0.004020 -0.003420 0.003530 0.003153 -0.000131 -0.004608 -0.003462 0.004261 -0.004458 -0.001290 0.001153 -0.002980 0.004706 -0.003478 0.000416 0.001265 -0.002737 -0.000165 -0.000147 0.002841 0.001320 -0.000356 0.001787 -0.000543 0.000297 0.001643 -0.003043 0.002827 0.000978 0.004761 -0.002815 -0.000380 0.004012 0.000896 0.002135 -0.000875 0.001872 0.004512 -0.003101 0.003075 0.004647 -0.004794 -0.002906 -0.003962 0.002798 -0.004242 0.004888 -0.001231 0.004096
sent_19 -0.003121 -0.000749 0.003307 0.000729 -0.000375 0.000058 0.000669 -0.000548 -0.002945 -0.003917 -0.003331 -0.004459 0.000400 0.003380 -0.001291 -0.004230 -0.000747 0.001083 -0.000747 0.003200 0.004182 0.004059 0.001902 -0.000388 0.001809 -0.004633 0.004879 -0.003023 0.004086 0.003007 0.002994 -0.002474 -0.002856 -0.000557 0.003280 -0.000463 0.004225 -0.001577 0.001319 0.004815 0.001245 -0.004398 -0.000216 -0.001656 0.000249 -0.002073 -0.004020 0.001473 0.001644 0.003649 -0.003515 0.002839 0.003351 0.001541 -0.002832 -0.002466 -0.000700 0.000692 -0.000160 -0.000302 0.003202 0.003457 0.003344 0.003488 0.000610 0.004734 0.001191 0.001013 -0.001649 0.001815 -0.004295 -0.003673 -0.003787 0.001708 -0.003388 -0.001635 -0.004589 -0.002603 0.004558 -0.000138 -0.003577 -0.000017 0.004230 0.003697 -0.001211 -0.002522 0.002513 -0.002592 -0.002307 -0.004499 0.003536 -0.000572 0.000417 0.002339 0.002653 -0.000327 -0.003209 0.003141 -0.004901 0.004443
sent_20 0.000875 0.003674 0.001072 -0.002552 -0.002021 0.000401 0.004577 -0.003144 0.000051 -0.001606 0.002757 0.003121 -0.000783 -0.002983 -0.004202 -0.003088 -0.002243 0.000915 0.003747 -0.003677 0.004538 0.001912 0.002368 0.004720 -0.000823 0.000360 0.001667 0.000194 -0.002119 -0.003850 -0.002095 0.002661 0.001386 0.003065 0.000117 -0.002678 0.001235 -0.001988 -0.004706 0.004022 -0.000829 -0.000764 0.002395 0.004521 -0.004294 -0.003188 -0.001821 -0.002571 -0.000084 0.003126 0.003648 0.000872 -0.002594 -0.003097 0.002569 -0.002666 0.000490 0.002517 -0.002644 -0.003307 -0.004691 -0.003581 0.003574 -0.004020 -0.002756 -0.004669 0.001858 -0.002664 -0.000871 -0.003652 -0.001225 -0.000770 -0.000299 -0.000722 -0.004037 0.002622 -0.003627 -0.000758 -0.002253 -0.002032 0.001669 0.000116 -0.003110 -0.000263 -0.001621 0.001998 -0.002763 0.003398 0.000312 -0.000124 -0.002557 -0.003076 -0.000424 0.004773 -0.003732 -0.002105 0.003104 0.001693 -0.002252 -0.001868
sent_21 -0.000441 0.001200 0.002495 0.003879 0.001905 -0.002341 0.004304 0.002726 -0.002325 -0.001913 0.003702 -0.003469 0.001713 -0.002112 0.003268 -0.001682 0.002301 -0.003442 -0.000164 0.002944 -0.000681 -0.004003 0.001636 0.002522 -0.002142 -0.000894 0.003553 0.003408 0.001734 0.001290 0.003334 0.004367 -0.005000 -0.001202 0.000926 0.002195 -0.004060 -0.000940 -0.002571 -0.000633 0.000071 0.001257 -0.000477 0.001324 0.000979 -0.000689 -0.004601 -0.002852 -0.001455 -0.003797 0.000948 0.001329 -0.000178 -0.001977 0.001716 -0.003043 -0.004905 0.001921 -0.000496 0.001753 -0.002902 -0.004090 -0.001419 0.002462 -0.003766 -0.003268 -0.000545 0.001305 0.002166 -0.004113 0.000754 -0.001026 0.001796 -0.003096 0.000453 -0.003381 -0.004794 -0.000249 -0.002920 0.001866 0.000428 0.003121 -0.000684 0.004838 0.000370 0.000490 0.002611 0.000566 -0.001584 0.000320 -0.003146 -0.000767 -0.004662 -0.000471 -0.001713 -0.000109 -0.004370 0.000965 -0.001645 0.000729
sent_22 0.002735 -0.000308 0.001706 -0.002257 0.005316 -0.002547 0.004744 -0.003155 -0.000082 0.003392 0.002096 0.002407 -0.000197 0.002878 0.004325 -0.000748 0.000199 -0.004722 -0.001224 -0.000419 0.004145 -0.004847 0.002056 0.000385 0.001019 -0.005049 -0.003977 -0.002405 -0.005178 0.001794 0.003759 0.000706 0.000139 0.000888 -0.001816 -0.001130 0.000308 0.003434 -0.003343 -0.001379 0.002318 -0.001766 -0.005048 -0.003863 -0.002838 0.000191 0.001616 0.004013 0.004406 -0.002164 0.002318 -0.002021 -0.001672 -0.002509 -0.000988 -0.003013 -0.001497 -0.004340 0.004661 0.000185 0.005272 0.002853 -0.000618 0.003254 0.001891 -0.002123 0.000002 0.002343 -0.002056 -0.005186 -0.002919 0.003132 0.004481 0.001233 -0.003538 0.002684 0.000390 0.002889 0.003890 0.005367 0.001361 0.003870 0.003039 0.001973 0.003714 0.004980 0.004196 -0.001436 -0.004383 0.003987 0.000470 0.000562 0.003758 -0.005204 0.004545 -0.005181 0.002417 0.000948 0.002084 -0.001454
sent_23 -0.002412 0.000277 0.003428 0.000833 0.001973 -0.001140 0.005309 0.002062 -0.000976 0.001720 0.000496 0.003630 -0.002233 -0.003506 -0.002880 -0.000728 0.003450 -0.002107 0.001014 0.001196 -0.001140 -0.004947 0.002058 -0.001836 -0.001295 -0.001181 0.001966 -0.004075 0.000812 -0.005426 0.004550 0.000812 -0.001528 -0.003532 0.001629 0.004658 -0.002519 0.002941 -0.002219 0.004763 0.001604 0.001547 0.004274 -0.003047 0.004448 0.002079 0.002628 0.000719 0.003247 0.002262 -0.003862 0.001010 -0.002463 0.003769 -0.003632 -0.002393 -0.004293 -0.000698 0.000334 0.001148 0.005240 -0.001267 -0.000654 0.003701 0.001131 0.001586 -0.002585 -0.000063 0.001607 -0.003697 -0.004613 -0.003604 -0.000027 -0.004659 0.001298 -0.003590 -0.002449 0.000005 -0.003894 -0.001702 -0.005061 0.004765 0.001236 -0.001464 -0.004675 -0.001150 -0.000370 0.004014 -0.002217 0.001615 0.002095 -0.003470 0.000818 0.002316 -0.003805 0.000826 -0.004609 -0.005484 -0.004049 -0.000406
sent_24 0.004202 -0.000957 -0.004301 0.003597 0.000212 -0.001884 0.004673 0.004372 -0.002346 -0.002971 0.000900 0.003369 -0.001668 0.000881 -0.003361 -0.003005 0.002608 -0.003463 -0.002355 0.001895 -0.004875 -0.004645 -0.002123 -0.001596 -0.001402 0.003095 -0.004566 -0.001405 0.001429 -0.003632 0.003553 0.001412 -0.003860 -0.002900 0.002405 -0.000926 -0.000179 0.003880 -0.003612 0.004629 -0.004603 -0.003968 -0.002742 0.003033 -0.000446 0.001540 -0.003278 -0.003349 0.000174 0.002451 -0.000386 0.003674 0.001618 -0.002522 -0.002709 -0.001271 0.002553 0.004415 0.003595 -0.002350 -0.000849 0.001106 0.000461 -0.001152 -0.004011 0.002138 -0.004139 0.003661 0.003690 0.002105 -0.000079 0.002011 -0.001037 0.002983 0.002855 -0.003412 -0.001837 -0.001517 -0.001385 0.000662 -0.004588 0.001578 -0.003031 -0.000825 -0.000484 -0.001577 -0.001164 -0.003193 -0.004313 0.000511 0.000996 -0.003595 -0.002653 -0.002150 0.003268 -0.003455 0.000489 0.000616 -0.001586 -0.001500
sent_25 0.004580 0.000617 0.001627 0.000195 0.001401 0.001166 -0.003491 -0.001601 -0.000501 -0.003749 -0.001490 -0.002850 0.003642 -0.001588 -0.002829 -0.000907 0.001770 -0.004266 -0.003127 0.001885 0.002613 0.000902 0.003984 -0.003157 0.001938 0.004043 -0.003435 -0.002700 0.000529 -0.001607 0.001848 -0.004318 -0.003398 0.002138 0.004764 0.004353 0.004035 -0.003781 -0.003705 -0.004308 0.000320 0.003751 0.000296 0.002931 -0.002854 0.003598 -0.002977 -0.004383 -0.000743 0.000677 0.004619 -0.003944 -0.002341 -0.003985 -0.001193 -0.001922 0.000043 -0.001660 0.004104 0.002725 0.003745 -0.003505 0.000588 -0.002683 0.003684 -0.004880 -0.004127 -0.001299 -0.001173 -0.002098 -0.004148 -0.003732 -0.001782 0.004327 -0.002704 0.002516 -0.002499 -0.004716 -0.004904 -0.003362 -0.000307 0.002623 0.002319 -0.001557 -0.000017 0.003299 0.003389 -0.001835 -0.004970 -0.004314 0.002600 -0.002252 -0.000098 -0.002984 0.003647 -0.000087 0.000297 -0.002040 0.000342 -0.005035
sent_26 -0.002248 -0.001596 -0.002217 -0.004237 0.000231 0.002840 0.004394 -0.000012 0.001040 -0.002113 -0.003460 -0.003688 0.002232 0.002312 -0.003139 -0.000829 0.000970 -0.003715 0.002844 0.001252 0.001065 0.002150 0.004806 0.000552 0.003645 -0.000711 0.001579 0.004339 0.001671 -0.002022 0.001211 -0.001552 -0.001795 0.001133 -0.003491 -0.000085 0.004395 -0.001154 -0.003014 -0.000334 0.003394 0.003495 0.003359 -0.004930 -0.002388 0.005016 -0.003905 -0.000154 0.002837 -0.003775 0.001689 -0.000197 -0.003026 0.003831 -0.003191 0.001362 0.002443 0.000733 0.001318 -0.003740 -0.001972 0.000775 -0.000965 0.001529 0.003517 -0.003041 0.004082 -0.001153 0.004490 0.001201 0.002977 0.000113 0.000297 -0.001675 -0.003790 -0.001178 -0.002836 -0.004635 -0.002274 -0.003306 0.003709 -0.004298 -0.003224 0.002055 0.004130 -0.002650 -0.004814 0.004607 0.001879 -0.002039 -0.000318 0.000934 -0.001309 0.003725 0.002154 0.004636 -0.001531 0.004279 -0.000312 0.001426
sent_27 0.002799 0.003595 -0.000901 -0.000348 0.003538 0.002330 0.004545 0.004421 -0.003700 -0.002390 0.001918 0.002955 0.001538 0.004263 -0.002570 -0.002025 -0.000097 -0.002455 0.000411 0.001581 -0.002346 -0.001093 0.004823 -0.001846 -0.004376 0.002500 -0.000661 -0.004858 0.003362 -0.000376 0.004520 -0.000701 -0.004248 -0.002929 -0.000872 0.002110 -0.002809 -0.000435 0.003431 0.000686 -0.003576 -0.005368 0.001253 0.004421 0.002806 0.002722 0.002236 0.003510 -0.004064 -0.002866 0.001575 0.004063 0.001657 -0.003490 0.004474 0.003753 -0.004090 -0.003752 -0.001955 0.002374 0.004133 0.001237 -0.003337 -0.000023 -0.003288 0.003811 0.002714 0.000267 -0.000595 -0.004649 -0.002413 -0.003689 0.002937 0.000505 -0.002583 -0.002789 -0.002197 -0.001755 -0.000720 -0.001060 0.001851 -0.003831 -0.001003 0.002444 0.004485 0.004216 -0.002342 -0.002866 -0.003521 0.004564 -0.002705 0.003006 -0.001984 -0.005044 0.003144 0.001747 -0.003688 -0.001225 0.004999 -0.003309
sent_28 -0.003636 0.001543 0.004709 -0.003266 0.000387 0.002196 -0.003182 -0.005178 0.003071 -0.004324 -0.002783 0.002012 -0.001446 -0.004478 0.000466 -0.002511 -0.003589 0.003995 -0.003314 0.001932 0.004640 0.002428 -0.002919 -0.002556 -0.004521 0.003391 0.003079 0.000308 -0.004550 -0.002472 0.001046 -0.002018 -0.001902 -0.003742 -0.002228 -0.000974 0.000711 0.000298 0.004433 -0.003369 0.003045 0.002126 -0.000119 -0.000392 0.004003 0.003220 -0.003748 0.005280 -0.004206 0.000208 0.000320 0.003952 -0.001266 -0.004389 0.001043 -0.004852 -0.001514 0.004004 0.003936 -0.003752 0.003376 0.003702 0.003774 -0.001733 0.000219 0.002793 0.001653 0.001082 0.001129 -0.003229 -0.005547 0.002512 -0.001604 -0.001360 0.001463 0.001487 -0.002859 0.003121 -0.000736 0.002383 0.004910 0.001714 -0.000632 0.001197 0.000264 0.001060 0.002612 0.004116 -0.000774 -0.003141 0.000644 -0.001959 -0.004280 0.002709 -0.001263 0.002067 0.000332 -0.001002 -0.001183 -0.004491
sent_29 0.000614 0.003515 -0.003925 -0.003686 0.000391 0.001812 0.001957 -0.001951 -0.005166 -0.000744 -0.002848 -0.004764 0.002216 0.004656 -0.001296 -0.002383 0.000401 0.003208 0.002997 0.001681 -0.000358 0.001413 -0.002594 -0.002005 0.002893 0.003822 -0.003449 -0.002302 -0.005284 -0.000253 -0.002769 0.001617 0.002161 -0.003932 -0.003775 0.003651 -0.000764 0.000218 0.004245 0.002823 -0.001720 -0.004550 -0.000109 -0.001453 -0.004658 0.002659 -0.000806 0.000929 0.002895 0.004184 0.000984 -0.001453 -0.003942 -0.004405 -0.001544 0.001613 0.001829 -0.003239 -0.004063 -0.002307 0.000502 0.002779 0.000043 -0.001674 0.001152 -0.002639 0.001477 0.003387 0.001168 0.000351 -0.002304 0.003952 0.004904 0.002748 0.000971 -0.003638 -0.001897 -0.001507 -0.001935 -0.000064 0.001304 -0.002374 -0.002264 -0.003855 -0.001753 0.000708 -0.000038 0.004930 0.004581 -0.000214 0.004736 -0.002493 0.000392 -0.000456 0.005071 0.003002 -0.002681 -0.000120 -0.002993 0.000315
sent_30 0.003110 -0.004700 -0.003029 0.004732 0.004693 0.000627 0.001411 -0.002286 0.004476 0.001698 0.001717 -0.004724 0.003553 0.002756 0.001931 0.002254 -0.003441 0.002031 -0.004029 0.002111 -0.004967 0.002718 -0.000114 -0.003076 0.002335 -0.001875 0.003652 -0.003185 0.004242 0.004838 -0.001837 0.003641 0.003372 -0.000783 -0.001364 -0.002224 0.004874 -0.002432 0.004172 -0.000634 0.004315 0.003327 -0.003551 0.000757 0.001708 -0.000904 -0.004969 -0.001775 0.003476 -0.004520 -0.003835 0.002036 0.000129 -0.000046 -0.001130 0.001002 0.003596 -0.002211 0.003567 -0.000851 -0.000001 0.002228 -0.002362 0.004270 0.002076 0.001169 -0.002208 0.002031 -0.002477 0.003072 -0.005018 -0.003327 0.000577 0.002176 -0.000130 0.003691 0.004769 -0.000379 0.002755 0.000004 0.001616 -0.002742 -0.003847 0.004779 0.003128 -0.002072 0.000846 -0.001266 -0.003246 -0.000867 -0.002146 -0.004762 -0.001235 0.004131 0.003339 0.000701 -0.001737 -0.002633 0.004584 0.000622
sent_31 -0.002712 -0.002576 0.004579 -0.002677 -0.003802 -0.003207 0.002695 0.002039 -0.000536 0.002980 0.000212 -0.000752 -0.003845 0.003863 -0.002105 0.001101 0.004863 -0.003252 0.004624 0.001567 -0.003713 0.002659 0.004441 0.000509 0.001905 -0.004738 0.004769 -0.001824 -0.004841 0.003125 0.004828 0.002355 -0.005058 -0.004420 0.000788 -0.001583 0.003691 0.003848 0.004889 0.002202 0.003768 -0.001816 -0.003985 0.003548 -0.002026 -0.000743 0.001435 0.001041 -0.000728 -0.001246 -0.003694 0.000292 -0.002683 0.002484 0.001747 -0.004348 0.004992 0.002818 -0.002628 -0.004572 -0.000097 -0.001523 0.000502 0.001629 0.003095 -0.004848 0.002187 -0.001919 0.004889 0.003393 0.000513 0.000971 -0.003036 -0.002696 -0.003550 -0.001265 -0.003852 0.000191 0.001469 -0.003684 -0.001636 -0.004299 0.000327 0.001487 0.001132 0.003157 -0.002614 0.001090 -0.002002 -0.004125 -0.002036 -0.004306 0.004604 0.002124 -0.003915 0.002823 -0.001408 0.004052 -0.000020 0.003692
sent_32 -0.002795 -0.001328 -0.001332 -0.004029 -0.001690 0.001597 -0.000335 0.003792 -0.002303 -0.001452 -0.001796 0.000517 -0.003118 -0.003268 0.004395 -0.001234 0.000871 -0.004448 -0.003591 -0.004036 0.003121 -0.003969 0.000163 -0.003444 -0.002212 0.003826 0.001316 0.004637 0.000997 -0.004905 -0.000844 -0.004776 -0.001860 -0.000184 0.000755 -0.002613 0.000583 -0.001051 0.000066 -0.003040 -0.003432 0.002545 -0.001700 0.001442 0.000655 0.003995 0.003807 -0.000569 -0.002953 0.001322 0.001368 0.001924 0.004075 0.002826 0.001253 0.001010 -0.002872 0.001514 0.003145 0.004223 0.004167 0.000611 -0.002402 -0.001662 0.004978 0.000256 0.003159 0.000970 0.000069 -0.001515 0.000378 -0.004933 0.003767 0.000615 -0.004757 0.003182 -0.003646 -0.004694 -0.000377 0.004607 -0.004064 -0.004344 0.003799 0.003214 0.003200 -0.000322 -0.000725 -0.000989 0.000822 0.002290 0.002843 0.001548 0.000625 -0.000876 -0.001801 -0.002138 -0.002038 0.001828 0.002624 0.000976
sent_33 -0.002730 -0.002715 0.002679 0.005128 -0.004946 -0.002384 0.003017 0.002239 -0.002839 0.000605 0.000782 0.002140 -0.000006 -0.001016 -0.002272 -0.002747 -0.004511 0.001454 0.001820 0.001759 -0.004968 -0.000990 -0.003550 0.000689 0.004614 -0.000191 -0.001279 0.003122 0.004727 -0.002185 0.002826 0.005068 -0.003993 0.000490 0.003242 -0.001408 -0.000565 0.002155 -0.004484 -0.001107 -0.000037 -0.002600 0.003206 0.002806 0.005206 0.000255 -0.003737 0.004256 0.003433 0.000505 0.003189 0.004241 0.002726 0.000461 0.001289 0.003561 0.001242 -0.003027 0.001687 -0.000072 -0.002188 -0.004880 -0.002901 0.001985 0.003685 0.003260 -0.004132 -0.004454 0.002472 -0.002237 -0.002466 -0.004759 -0.004173 -0.003727 -0.002957 -0.000343 0.002922 0.003131 0.003947 -0.000185 0.002259 0.000003 -0.004553 -0.004460 -0.002318 0.005108 0.001853 -0.002358 0.002070 0.002010 -0.004300 -0.001133 0.002841 -0.004197 0.004027 0.004011 0.003655 -0.003710 0.001111 0.001878
sent_34 0.003469 -0.003965 0.002418 -0.002159 0.001309 0.001304 0.003484 -0.002416 0.001705 -0.002066 0.005381 0.002646 -0.001021 0.004154 0.002694 0.004867 -0.003524 -0.001589 -0.004418 -0.001694 -0.001808 0.001306 -0.000705 0.002594 -0.002813 -0.002936 -0.000489 -0.000191 -0.000251 0.003167 -0.002786 -0.001959 -0.003404 -0.000853 -0.001929 0.001507 -0.003298 -0.002451 0.002045 0.004390 -0.004841 -0.002461 -0.003420 0.001035 -0.002525 0.001507 -0.003377 0.002821 -0.002281 0.002176 -0.003683 -0.002183 -0.002283 0.000910 0.001210 0.003062 -0.002901 0.002800 0.001781 0.000931 0.002702 -0.004112 -0.003536 -0.001016 0.002168 -0.003197 -0.001566 -0.000135 0.005052 -0.004444 0.003758 0.005290 -0.002233 0.004224 -0.002163 0.003621 -0.000483 0.002023 -0.002961 0.002281 -0.003833 0.000085 -0.000402 0.003155 -0.000096 0.002185 -0.000986 -0.002180 0.003145 -0.000650 0.000614 0.000306 0.003820 0.000136 -0.001145 -0.003460 0.002027 0.002945 -0.003735 -0.000617
sent_35 0.004214 0.001073 0.000188 -0.004085 0.000752 0.001140 -0.003034 0.004181 -0.003304 0.001996 -0.002296 -0.004160 -0.002104 -0.001079 -0.000410 -0.002629 0.002087 0.003102 0.002753 0.001926 -0.002178 -0.003507 -0.003790 -0.000501 -0.004226 0.001059 0.004698 0.002390 -0.003867 -0.004877 -0.001799 0.004818 -0.001977 0.002411 0.002251 0.000655 -0.001215 -0.003020 0.004382 -0.004084 -0.002906 -0.002130 0.003698 0.001758 -0.002120 -0.003242 0.004058 0.003230 -0.004528 0.003934 0.000413 -0.000121 0.001651 -0.004927 -0.001989 -0.004348 0.001622 -0.001356 -0.000330 -0.002279 0.003579 -0.004096 -0.002635 0.001310 0.002699 0.000695 0.001957 -0.004916 -0.002214 -0.004893 0.000014 0.005403 -0.004681 -0.000479 -0.004691 0.001490 -0.003236 0.002564 -0.003462 0.004102 -0.002810 -0.001012 -0.002638 0.003159 0.000199 0.004280 -0.003555 -0.000123 0.002564 0.005496 0.002285 -0.003120 0.003139 -0.004550 0.002961 0.002855 0.000676 -0.000007 0.004754 -0.005024
sent_36 -0.004810 -0.002350 0.000086 0.000467 -0.001249 -0.001981 -0.003029 0.002959 -0.002111 -0.000097 0.003142 0.001187 -0.000784 -0.003153 -0.001110 -0.000298 0.004844 -0.002155 -0.003342 -0.002827 -0.002890 -0.004337 -0.001326 -0.002094 0.003918 0.002658 -0.004001 0.003564 -0.004040 0.002339 0.000738 -0.004111 0.004082 0.003801 0.003543 -0.001513 -0.002639 0.004772 0.003044 -0.004427 -0.001380 0.002986 0.000188 -0.002493 0.003012 -0.002380 -0.004971 -0.002628 0.004977 0.001492 -0.002856 0.002025 0.001844 0.001430 -0.004118 -0.002615 0.003654 0.002281 -0.003269 -0.002267 0.000583 0.003326 -0.003036 -0.003847 -0.001320 0.003989 -0.002410 -0.004062 -0.004486 -0.001630 -0.004674 0.000960 0.001678 -0.000295 0.002495 0.000019 0.002020 -0.002712 0.002419 0.000132 0.002127 -0.000431 0.000075 -0.004554 -0.000089 -0.003371 -0.003625 -0.000659 0.000782 -0.001538 -0.003327 0.002588 0.004540 0.002346 -0.004188 0.003349 -0.004287 -0.000427 0.004345 -0.002340
sent_37 -0.003575 0.002997 0.004286 -0.001510 -0.002375 -0.003398 0.005032 0.000420 0.003523 -0.001616 -0.004504 -0.000341 -0.002681 0.000588 0.000312 -0.002108 -0.002046 -0.004945 -0.000952 -0.001985 0.001399 0.002847 -0.000188 -0.003936 0.004278 0.002708 -0.001465 -0.001904 0.004317 -0.001185 0.001294 0.004949 -0.004779 -0.002001 -0.002515 0.004238 0.000414 -0.004234 0.002282 0.002057 0.001581 0.004380 0.003320 0.002173 -0.002631 -0.003490 -0.002509 -0.002669 0.000996 0.001633 -0.000055 -0.004243 -0.001538 0.004328 0.001725 -0.001432 0.001769 -0.002743 -0.004275 0.000371 -0.001284 0.000189 0.003752 0.002013 0.002526 -0.004177 -0.000436 -0.000902 0.001505 -0.002437 -0.001524 0.005071 -0.003649 -0.002973 -0.002421 0.002190 0.002191 0.003193 -0.001032 0.004309 0.001943 0.002646 0.003597 0.001148 -0.000634 -0.004063 0.001142 0.000423 0.000664 -0.001085 0.000798 -0.003216 0.002056 -0.004640 0.004316 -0.003330 -0.001841 0.003884 0.004358 0.003214
sent_38 -0.001505 0.004066 0.002845 0.001657 0.004097 0.002940 -0.000742 -0.001807 -0.001200 -0.004339 -0.001389 -0.001265 0.003801 0.003923 0.004663 -0.001916 0.001907 0.001088 -0.002571 0.003678 -0.002723 0.002208 -0.003533 -0.004001 0.002252 0.000095 -0.000840 0.002660 -0.001608 0.003736 0.004745 0.004902 -0.002271 -0.000955 0.002372 0.003874 0.002096 0.002648 0.003688 -0.001220 0.000446 0.000193 0.001232 0.003970 0.001035 0.004733 0.002446 -0.000784 0.001004 0.004042 0.001213 0.002197 0.001549 -0.001747 -0.002854 -0.000938 -0.003424 0.003117 0.002203 -0.001033 -0.003162 0.003822 0.001338 0.005192 -0.003859 -0.002636 -0.004156 0.002548 -0.003527 0.003675 -0.000351 0.000295 -0.004536 0.001125 -0.002694 -0.002939 0.003968 0.003845 -0.004805 0.003565 0.004018 0.000284 0.001753 0.002635 0.001907 -0.000098 0.000782 0.000640 0.003316 -0.002436 0.002485 0.003258 0.002967 0.002975 0.003539 -0.001001 0.001341 0.002705 0.002877 0.004551
sent_39 0.005798 0.002222 0.000586 0.004387 -0.002209 0.003376 -0.002581 0.000132 -0.000803 0.000209 0.002892 0.001470 0.001554 0.000188 -0.005210 -0.002635 -0.004332 -0.000936 0.001404 0.001800 0.003009 -0.006059 0.003114 0.000936 -0.003473 -0.006955 -0.003695 0.000382 0.003019 0.006337 0.003097 -0.000950 0.001408 -0.003613 0.004585 -0.004772 0.003988 0.004104 -0.001119 -0.003617 0.000473 0.001583 -0.005346 -0.004570 0.002575 0.000515 -0.002700 0.006385 0.002442 -0.000195 0.001925 0.005446 -0.004695 -0.002345 -0.002629 -0.000511 -0.004438 -0.006286 -0.001569 0.003326 0.005828 0.004069 -0.006254 0.004673 -0.004240 -0.004480 -0.005134 -0.003307 0.000979 0.000479 -0.003211 0.002829 0.003849 -0.004053 -0.003182 -0.001318 -0.000736 -0.002413 0.003511 0.000768 0.003574 0.006739 0.001919 -0.000762 -0.003365 0.001281 0.004634 -0.002841 -0.000324 0.002453 -0.003937 0.005267 -0.003374 0.001347 0.007163 0.000352 -0.000770 -0.002400 0.002536 0.002423
sent_40 -0.001227 0.001860 0.000550 -0.004713 0.004466 -0.001314 -0.000920 0.003164 -0.000366 -0.000224 0.001414 -0.002646 0.000457 0.001972 0.000373 0.001918 0.000885 0.003115 0.003735 -0.004217 -0.002392 -0.004871 -0.002916 0.002359 -0.004200 -0.003711 0.002452 -0.000584 -0.002312 0.001656 0.003838 -0.004610 0.001848 0.001691 0.003880 -0.003224 0.002184 -0.003948 -0.004644 0.002015 -0.004901 -0.004744 -0.005039 -0.000563 0.002565 0.005121 -0.002538 0.003004 0.003119 0.003471 -0.002038 -0.003566 0.003003 0.000413 -0.000758 -0.004643 -0.004771 -0.002008 -0.002189 -0.000275 0.004542 -0.000705 -0.002274 0.003623 -0.001856 0.003913 0.003678 0.001390 0.002662 -0.003950 0.000847 -0.001509 -0.000059 -0.002593 0.004138 -0.000841 -0.000229 0.002503 -0.003711 0.000592 0.003091 0.002208 -0.001556 0.002101 0.004370 0.004388 0.002551 -0.002487 -0.001548 0.000989 -0.001225 -0.000268 0.003182 -0.004303 0.004970 0.001789 0.003882 0.002927 -0.000373 0.004308
